~o
<STREAMINFO> 1 25
<VECSIZE> 25<NULLD><MFCC_D_N_Z_0><DIAGC>
~h "b"
<BEGINHMM>
<NUMSTATES> 5
<STATE> 2
<MEAN> 25
 8.432214e-01 2.577091e-01 3.255531e-01 1.212616e-01 3.254851e-01 3.775127e-01 -6.813579e-01 -3.825038e-01 -3.570040e-01 -5.340269e-01 -4.503154e-01 -4.291645e-01 8.580668e-02 1.460250e-02 3.256291e-02 -4.943300e-02 -4.131080e-02 -1.344503e-02 -4.385360e-02 -1.255414e-02 -5.630204e-02 -4.534345e-02 -4.296377e-02 -5.569949e-02 1.345796e-01
<VARIANCE> 25
 6.655474e+01 3.358612e+01 5.765968e+01 5.209631e+01 4.797038e+01 4.133096e+01 5.537711e+01 4.378679e+01 6.117078e+01 3.242137e+01 3.664190e+01 4.284105e+01 2.108594e+00 1.899251e+00 2.108801e+00 2.742043e+00 2.580768e+00 2.670406e+00 2.805932e+00 3.138889e+00 3.417533e+00 2.631566e+00 2.470477e+00 2.297157e+00 2.899187e+00
<GCONST> 1.042488e+02
<STATE> 3
<MEAN> 25
 1.170452e+00 2.814003e-01 4.136650e-01 -1.642514e-01 9.551270e-02 3.318412e-01 -8.620297e-01 -4.345988e-01 -5.855369e-01 -6.727790e-01 -5.859727e-01 -6.483241e-01 6.880115e-02 5.338937e-03 2.061791e-02 -6.837068e-02 -5.387729e-02 -1.253663e-02 -3.618426e-02 -7.942755e-03 -4.641051e-02 -2.704841e-02 -2.757869e-02 -4.623795e-02 1.260126e-01
<VARIANCE> 25
 6.734341e+01 3.460188e+01 5.897905e+01 5.552187e+01 4.993718e+01 4.290170e+01 5.585456e+01 4.465841e+01 6.137497e+01 3.249662e+01 3.755528e+01 4.334565e+01 2.131704e+00 1.870219e+00 2.175222e+00 2.948161e+00 2.733245e+00 2.805305e+00 2.859154e+00 3.121367e+00 3.479558e+00 2.649050e+00 2.529422e+00 2.302158e+00 3.058017e+00
<GCONST> 1.048470e+02
<STATE> 4
<MEAN> 25
 1.380636e+00 2.295638e-01 5.573765e-01 -8.257098e-01 -5.633814e-01 5.921042e-02 -1.121343e+00 -5.613268e-01 -9.794392e-01 -6.904862e-01 -6.268409e-01 -8.838345e-01 2.608621e-02 -5.016583e-03 1.729568e-02 -6.852821e-02 -6.702503e-02 -2.079618e-02 -1.542736e-02 -1.102626e-02 -3.802839e-02 -1.334025e-03 -1.107485e-03 -2.601876e-02 7.479026e-02
<VARIANCE> 25
 7.227046e+01 3.459550e+01 6.277033e+01 5.915910e+01 5.674442e+01 4.685662e+01 5.898766e+01 4.374046e+01 6.351780e+01 3.258987e+01 3.722916e+01 4.435382e+01 2.204316e+00 1.785389e+00 2.287208e+00 3.152509e+00 2.998974e+00 2.978842e+00 2.937675e+00 3.070203e+00 3.572409e+00 2.659969e+00 2.556272e+00 2.284151e+00 3.147833e+00
<GCONST> 1.056742e+02
<TRANSP> 5
 0.000000e+00 1.000000e+00 0.000000e+00 0.000000e+00 0.000000e+00
 0.000000e+00 7.693589e-01 2.306411e-01 0.000000e+00 0.000000e+00
 0.000000e+00 0.000000e+00 7.693589e-01 2.306411e-01 0.000000e+00
 0.000000e+00 0.000000e+00 0.000000e+00 8.991247e-01 1.008753e-01
 0.000000e+00 0.000000e+00 0.000000e+00 0.000000e+00 0.000000e+00
<ENDHMM>
~h "d"
<BEGINHMM>
<NUMSTATES> 5
<STATE> 2
<MEAN> 25
 4.964481e-01 -3.330450e-01 5.870052e-01 3.210780e-01 -4.032718e-01 -4.340997e-01 -4.912529e-02 -3.866437e-04 -3.259759e-01 3.009841e-02 -7.220234e-01 -5.281001e-01 5.847609e-02 -7.209950e-03 -5.964945e-02 -2.811005e-02 -2.595428e-02 5.576303e-02 -7.068343e-03 3.272184e-02 2.761378e-02 1.182931e-03 -1.158290e-02 -3.645911e-02 3.325225e-02
<VARIANCE> 25
 6.015607e+01 3.215654e+01 5.796845e+01 4.833969e+01 5.231393e+01 4.626884e+01 4.809332e+01 4.286679e+01 6.572895e+01 2.990618e+01 3.109660e+01 4.102405e+01 1.705111e+00 1.438012e+00 1.886177e+00 2.576388e+00 2.947044e+00 2.772774e+00 2.383705e+00 3.036898e+00 2.964272e+00 2.474948e+00 2.028568e+00 2.113644e+00 2.434435e+00
<GCONST> 1.025067e+02
<STATE> 3
<MEAN> 25
 7.754014e-01 -3.751414e-01 2.863641e-01 1.645620e-01 -5.218176e-01 -2.029051e-01 -7.009491e-02 1.493782e-01 -2.106090e-01 2.417720e-02 -7.698809e-01 -6.956584e-01 5.369179e-02 -4.811443e-03 -6.628264e-02 -3.286741e-02 -2.112928e-02 5.302089e-02 -3.045177e-03 3.159913e-02 2.816006e-02 -1.379969e-04 -7.156117e-03 -3.154672e-02 2.651839e-02
<VARIANCE> 25
 6.089139e+01 3.220516e+01 5.723113e+01 4.963049e+01 5.209304e+01 4.548717e+01 4.752080e+01 4.260518e+01 6.549898e+01 2.997196e+01 3.131901e+01 4.216949e+01 1.707997e+00 1.438044e+00 1.886680e+00 2.617308e+00 2.961246e+00 2.755621e+00 2.356221e+00 3.057516e+00 3.005638e+00 2.500975e+00 2.021260e+00 2.165464e+00 2.417216e+00
<GCONST> 1.025773e+02
<STATE> 4
<MEAN> 25
 1.431855e+00 -3.049960e-01 -3.610446e-01 -2.503093e-01 -5.927594e-01 9.921893e-02 -2.009282e-01 2.462752e-01 -7.391350e-02 -9.733346e-02 -9.802297e-01 -1.078509e+00 3.420191e-02 1.388954e-02 -5.643275e-02 -2.363678e-02 -5.844629e-04 3.027816e-02 -6.664385e-03 5.906985e-03 1.619979e-02 -5.787585e-03 2.739759e-03 -1.435310e-02 4.867308e-03
<VARIANCE> 25
 6.391056e+01 3.264787e+01 5.555581e+01 5.081659e+01 4.901654e+01 4.409312e+01 4.531841e+01 4.187564e+01 6.437383e+01 3.085775e+01 3.220092e+01 4.407431e+01 1.702643e+00 1.423985e+00 1.892102e+00 2.588192e+00 2.898411e+00 2.786163e+00 2.316265e+00 3.093600e+00 3.027086e+00 2.488946e+00 2.031579e+00 2.230530e+00 2.313632e+00
<GCONST> 1.025164e+02
<TRANSP> 5
 0.000000e+00 1.000000e+00 0.000000e+00 0.000000e+00 0.000000e+00
 0.000000e+00 7.760334e-01 2.239667e-01 0.000000e+00 0.000000e+00
 0.000000e+00 0.000000e+00 7.760326e-01 2.239674e-01 0.000000e+00
 0.000000e+00 0.000000e+00 0.000000e+00 9.072111e-01 9.278891e-02
 0.000000e+00 0.000000e+00 0.000000e+00 0.000000e+00 0.000000e+00
<ENDHMM>
~h "f"
<BEGINHMM>
<NUMSTATES> 5
<STATE> 2
<MEAN> 25
 -3.127073e-02 -6.111774e-01 -2.853367e+00 -4.009714e-01 -6.015413e-01 6.351400e-01 7.014976e-01 7.280373e-01 1.776057e+00 5.407619e-03 1.450797e-01 4.706272e-01 5.223200e-03 1.718544e-02 3.503951e-03 -1.172577e-02 -1.763614e-02 5.377602e-03 -2.960036e-02 -1.395539e-02 -3.471107e-02 -3.264735e-03 -1.851353e-02 -3.092583e-02 4.477431e-02
<VARIANCE> 25
 7.458704e+01 2.957637e+01 3.704412e+01 4.888756e+01 4.402639e+01 4.174164e+01 3.865445e+01 3.198977e+01 4.410264e+01 2.671287e+01 2.751422e+01 4.932219e+01 2.144688e+00 1.106477e+00 1.266346e+00 2.151712e+00 1.954351e+00 2.224125e+00 1.996570e+00 1.942631e+00 2.122984e+00 1.567816e+00 1.743632e+00 1.873585e+00 1.258116e+00
<GCONST> 9.737603e+01
<STATE> 3
<MEAN> 25
 5.168481e-02 -5.127935e-01 -2.824469e+00 -4.759128e-01 -7.208826e-01 6.563507e-01 5.401596e-01 6.773748e-01 1.549891e+00 -3.022924e-02 3.373616e-02 2.912594e-01 2.041866e-02 2.068896e-02 7.381469e-03 -1.652125e-02 -2.576322e-02 4.100353e-03 -3.373054e-02 -9.909412e-03 -4.790068e-02 -8.196601e-03 -2.295683e-02 -3.872585e-02 5.302920e-02
<VARIANCE> 25
 7.638461e+01 2.939234e+01 3.773523e+01 4.875271e+01 4.381817e+01 4.284608e+01 3.885154e+01 3.237555e+01 4.506065e+01 2.705755e+01 2.809506e+01 4.942869e+01 2.226211e+00 1.127408e+00 1.287925e+00 2.187626e+00 1.941147e+00 2.275258e+00 1.971746e+00 1.962478e+00 2.163872e+00 1.588928e+00 1.774942e+00 1.875281e+00 1.311853e+00
<GCONST> 9.770118e+01
<STATE> 4
<MEAN> 25
 4.443068e-01 -2.373134e-01 -2.435989e+00 -6.392809e-01 -9.794229e-01 4.764649e-01 2.103834e-01 5.217072e-01 8.420598e-01 -2.238271e-01 -2.468098e-01 -1.633036e-01 2.711321e-02 1.592749e-02 3.037865e-02 -9.296011e-03 -1.192961e-02 -1.166496e-02 -2.016372e-02 -1.119830e-02 -5.261626e-02 -1.194777e-02 -2.242452e-02 -3.570835e-02 3.601400e-02
<VARIANCE> 25
 7.877778e+01 2.934904e+01 4.098064e+01 4.759264e+01 4.345786e+01 4.565850e+01 3.956695e+01 3.442291e+01 4.896291e+01 2.836127e+01 2.956114e+01 4.916412e+01 2.253740e+00 1.129242e+00 1.298589e+00 2.185828e+00 1.888759e+00 2.311295e+00 1.922985e+00 2.041938e+00 2.269904e+00 1.639559e+00 1.861256e+00 1.829223e+00 1.323472e+00
<GCONST> 9.823448e+01
<TRANSP> 5
 0.000000e+00 1.000000e+00 0.000000e+00 0.000000e+00 0.000000e+00
 0.000000e+00 8.002287e-01 1.997713e-01 0.000000e+00 0.000000e+00
 0.000000e+00 0.000000e+00 8.002287e-01 1.997713e-01 0.000000e+00
 0.000000e+00 0.000000e+00 0.000000e+00 9.337785e-01 6.622153e-02
 0.000000e+00 0.000000e+00 0.000000e+00 0.000000e+00 0.000000e+00
<ENDHMM>
~h "g"
<BEGINHMM>
<NUMSTATES> 5
<STATE> 2
<MEAN> 25
 5.032015e-01 3.274038e-01 2.312814e-01 3.064805e-01 3.341212e-01 -1.924581e+00 -7.784035e-01 -5.390286e-01 -3.613321e-02 -8.677984e-01 -9.729767e-01 -8.108315e-01 -6.154879e-03 8.549917e-03 1.240189e-02 8.301840e-02 -5.898804e-03 -4.789216e-02 -5.360292e-02 -2.672439e-02 2.019141e-02 -1.051704e-02 1.256199e-02 -9.608796e-03 -3.307669e-02
<VARIANCE> 25
 4.674645e+01 3.190690e+01 6.281684e+01 4.224278e+01 4.945288e+01 6.258883e+01 5.383930e+01 4.455053e+01 5.967442e+01 2.733107e+01 3.116086e+01 4.770087e+01 2.108720e+00 2.062804e+00 2.422848e+00 2.792674e+00 2.871178e+00 3.214629e+00 2.658427e+00 3.311012e+00 2.706053e+00 2.300410e+00 2.254379e+00 2.370721e+00 2.741859e+00
<GCONST> 1.039522e+02
<STATE> 3
<MEAN> 25
 4.709921e-01 3.502425e-01 2.946019e-01 5.856021e-01 2.773672e-01 -2.056862e+00 -9.644829e-01 -6.429085e-01 3.877775e-02 -8.789096e-01 -9.374192e-01 -8.838099e-01 -1.017297e-02 2.985889e-03 1.704026e-02 6.424879e-02 -1.143411e-02 -2.411225e-02 -3.881597e-02 -1.970380e-02 1.589311e-02 -6.787418e-04 1.197514e-02 -1.213335e-02 -2.825520e-02
<VARIANCE> 25
 4.704483e+01 3.167690e+01 6.365731e+01 3.937774e+01 4.888969e+01 6.265792e+01 5.494228e+01 4.506955e+01 6.196635e+01 2.790452e+01 3.024758e+01 4.803653e+01 2.112538e+00 2.075157e+00 2.440280e+00 2.657154e+00 2.852802e+00 3.156824e+00 2.680492e+00 3.333179e+00 2.722199e+00 2.287863e+00 2.188544e+00 2.334969e+00 2.735332e+00
<GCONST> 1.038605e+02
<STATE> 4
<MEAN> 25
 3.575033e-01 3.914536e-01 6.017671e-01 6.556049e-01 -3.109949e-02 -1.961640e+00 -1.016843e+00 -8.854356e-01 -1.062337e-01 -7.106603e-01 -9.109488e-01 -1.061276e+00 -1.271769e-02 6.400357e-03 3.061174e-02 2.337895e-02 -1.728218e-02 5.209071e-03 -2.227467e-02 -2.923323e-02 -9.666651e-03 1.800590e-02 7.737405e-03 -7.544397e-03 -1.524822e-02
<VARIANCE> 25
 4.764444e+01 3.132725e+01 6.927116e+01 3.714499e+01 5.175111e+01 5.940998e+01 5.280253e+01 4.617396e+01 6.970283e+01 2.865282e+01 2.845778e+01 4.793906e+01 2.159235e+00 2.105972e+00 2.551556e+00 2.519769e+00 2.909891e+00 3.031849e+00 2.696905e+00 3.351406e+00 2.906343e+00 2.340360e+00 2.095742e+00 2.308337e+00 2.832436e+00
<GCONST> 1.040447e+02
<TRANSP> 5
 0.000000e+00 1.000000e+00 0.000000e+00 0.000000e+00 0.000000e+00
 0.000000e+00 7.757385e-01 2.242616e-01 0.000000e+00 0.000000e+00
 0.000000e+00 0.000000e+00 7.757386e-01 2.242614e-01 0.000000e+00
 0.000000e+00 0.000000e+00 0.000000e+00 9.046526e-01 9.534746e-02
 0.000000e+00 0.000000e+00 0.000000e+00 0.000000e+00 0.000000e+00
<ENDHMM>
~h "k"
<BEGINHMM>
<NUMSTATES> 5
<STATE> 2
<MEAN> 25
 -7.072701e-02 -4.240969e-01 -9.392372e-01 -9.100767e-01 2.624163e-01 -8.510967e-01 4.778390e-01 4.832100e-02 4.138189e-01 -1.385292e-01 5.717954e-02 -2.072039e-02 7.173333e-02 -7.888150e-03 -4.272470e-03 -1.403319e-02 -3.027596e-02 -3.405071e-02 -4.126538e-02 -2.782637e-02 -4.050188e-02 -2.923474e-02 -3.120138e-02 -5.330608e-02 9.094325e-02
<VARIANCE> 25
 7.504594e+01 2.706465e+01 5.710502e+01 7.000328e+01 5.698838e+01 5.284949e+01 5.453224e+01 4.294195e+01 6.461333e+01 3.183304e+01 2.868502e+01 4.222359e+01 2.380432e+00 1.725490e+00 2.214029e+00 2.777993e+00 2.737448e+00 3.479620e+00 2.769665e+00 3.029793e+00 3.396013e+00 2.313835e+00 2.365071e+00 2.105603e+00 2.998017e+00
<GCONST> 1.047293e+02
<STATE> 3
<MEAN> 25
 2.886078e-01 -4.413617e-01 -9.632717e-01 -9.368797e-01 1.509816e-01 -9.368562e-01 2.993409e-01 -3.383399e-02 2.190098e-01 -2.440758e-01 -4.028298e-02 -2.418589e-01 8.937997e-02 -3.706162e-03 -4.428543e-03 -1.826961e-03 -2.913215e-02 -2.007202e-02 -4.562559e-02 -1.916569e-02 -5.228648e-02 -2.487355e-02 -2.121984e-02 -5.522825e-02 7.081036e-02
<VARIANCE> 25
 7.611954e+01 2.755324e+01 5.808461e+01 7.096377e+01 5.803965e+01 5.496484e+01 5.666894e+01 4.420261e+01 6.594051e+01 3.287798e+01 2.851135e+01 4.233635e+01 2.440634e+00 1.746629e+00 2.259135e+00 2.772373e+00 2.803848e+00 3.602498e+00 2.834048e+00 3.122883e+00 3.480270e+00 2.369244e+00 2.376284e+00 2.166694e+00 2.935253e+00
<GCONST> 1.051937e+02
<STATE> 4
<MEAN> 25
 7.848984e-01 -3.371667e-01 -1.082401e+00 -1.275821e+00 9.802417e-02 -6.872654e-01 2.698038e-01 -3.406924e-02 6.235176e-02 -2.611773e-01 -1.202540e-01 -4.568426e-01 5.640971e-02 1.951941e-03 7.915725e-03 -6.748937e-03 -1.637184e-02 8.905817e-03 -2.677208e-02 -1.048178e-02 -3.422817e-02 -9.240611e-03 -9.486400e-03 -2.987897e-02 1.712197e-02
<VARIANCE> 25
 7.691089e+01 2.830313e+01 5.812025e+01 7.687146e+01 5.881733e+01 5.591497e+01 5.576881e+01 4.450154e+01 6.389380e+01 3.325264e+01 2.721446e+01 4.203047e+01 2.389273e+00 1.676332e+00 2.208958e+00 2.682169e+00 2.760791e+00 3.467740e+00 2.766921e+00 3.062748e+00 3.314673e+00 2.388169e+00 2.234824e+00 2.125289e+00 2.654749e+00
<GCONST> 1.048218e+02
<TRANSP> 5
 0.000000e+00 1.000000e+00 0.000000e+00 0.000000e+00 0.000000e+00
 0.000000e+00 7.708052e-01 2.291947e-01 0.000000e+00 0.000000e+00
 0.000000e+00 0.000000e+00 7.708053e-01 2.291947e-01 0.000000e+00
 0.000000e+00 0.000000e+00 0.000000e+00 9.041098e-01 9.589012e-02
 0.000000e+00 0.000000e+00 0.000000e+00 0.000000e+00 0.000000e+00
<ENDHMM>
~h "l"
<BEGINHMM>
<NUMSTATES> 5
<STATE> 2
<MEAN> 25
 1.260012e+00 7.186763e-01 -3.557117e-01 -2.136131e+00 -4.525404e-01 7.193270e-01 -6.133078e-01 -3.511147e-01 -5.726480e-01 -2.894069e-01 -2.791115e-01 -6.360646e-01 -6.232451e-02 -3.474370e-04 4.028445e-02 8.507946e-02 2.593592e-02 -2.461903e-02 1.409218e-02 -1.292162e-03 1.388195e-02 9.221145e-03 1.725946e-02 3.224569e-02 -5.655425e-02
<VARIANCE> 25
 7.596104e+01 3.072520e+01 5.271797e+01 8.677036e+01 4.992215e+01 5.145000e+01 5.561812e+01 4.097797e+01 6.559016e+01 3.166080e+01 2.786241e+01 4.429021e+01 1.841062e+00 1.447739e+00 1.694462e+00 3.002032e+00 2.292324e+00 2.793255e+00 2.511035e+00 2.625984e+00 3.022789e+00 2.358605e+00 1.971453e+00 1.988428e+00 1.762875e+00
<GCONST> 1.027169e+02
<STATE> 3
<MEAN> 25
 9.989753e-01 7.024592e-01 -1.698521e-01 -1.738068e+00 -3.483319e-01 5.899661e-01 -5.512338e-01 -3.571447e-01 -5.239907e-01 -2.458594e-01 -2.033541e-01 -5.048625e-01 -6.420448e-02 -6.529591e-03 3.711120e-02 9.561327e-02 2.678619e-02 -3.033408e-02 1.729398e-02 -1.788627e-03 1.521647e-02 1.059332e-02 1.931625e-02 3.298707e-02 -5.791395e-02
<VARIANCE> 25
 7.559284e+01 2.995076e+01 5.308709e+01 8.229860e+01 4.950869e+01 5.063115e+01 5.580956e+01 4.147368e+01 6.578362e+01 3.133779e+01 2.770300e+01 4.403762e+01 1.811650e+00 1.433039e+00 1.702183e+00 2.866814e+00 2.251211e+00 2.725504e+00 2.473277e+00 2.627726e+00 2.995289e+00 2.328925e+00 1.951517e+00 1.966307e+00 1.735362e+00
<GCONST> 1.024290e+02
<STATE> 4
<MEAN> 25
 7.673736e-01 5.906501e-01 1.159145e-01 -1.118661e+00 -2.270619e-01 3.158802e-01 -4.575880e-01 -3.847018e-01 -5.595334e-01 -2.249945e-01 -1.305831e-01 -3.888615e-01 -5.055130e-02 -1.321978e-02 3.154141e-02 8.682084e-02 1.863761e-02 -3.062180e-02 1.963836e-02 3.009632e-03 9.188729e-03 1.055549e-02 1.570027e-02 2.263829e-02 -4.542986e-02
<VARIANCE> 25
 7.330632e+01 2.855161e+01 5.593801e+01 7.541877e+01 4.989542e+01 4.936112e+01 5.640135e+01 4.179974e+01 6.695741e+01 3.136424e+01 2.744392e+01 4.414094e+01 1.753659e+00 1.405648e+00 1.755728e+00 2.639811e+00 2.262502e+00 2.658430e+00 2.430951e+00 2.614895e+00 3.008227e+00 2.307719e+00 1.924155e+00 1.961808e+00 1.720559e+00
<GCONST> 1.021524e+02
<TRANSP> 5
 0.000000e+00 1.000000e+00 0.000000e+00 0.000000e+00 0.000000e+00
 0.000000e+00 7.729605e-01 2.270395e-01 0.000000e+00 0.000000e+00
 0.000000e+00 0.000000e+00 7.729615e-01 2.270385e-01 0.000000e+00
 0.000000e+00 0.000000e+00 0.000000e+00 9.042295e-01 9.577049e-02
 0.000000e+00 0.000000e+00 0.000000e+00 0.000000e+00 0.000000e+00
<ENDHMM>
~h "m"
<BEGINHMM>
<NUMSTATES> 5
<STATE> 2
<MEAN> 25
 1.548159e+00 3.727999e-02 6.646132e-01 9.635302e-02 -1.844037e-01 -1.933157e-01 -2.455958e-01 -1.625284e+00 -2.359020e+00 -2.514581e-01 -1.266212e+00 -1.301445e+00 1.420889e-01 4.897172e-02 8.902884e-02 -4.381426e-02 -5.515319e-02 -4.562985e-02 -9.253775e-02 -7.302315e-02 -1.424728e-01 -5.219215e-02 -7.110883e-02 -9.546430e-02 1.322450e-01
<VARIANCE> 25
 7.957529e+01 2.848230e+01 7.341012e+01 7.206730e+01 5.084840e+01 7.368968e+01 4.854875e+01 6.756222e+01 8.897116e+01 3.660617e+01 2.794058e+01 4.436027e+01 2.825381e+00 1.687201e+00 2.603633e+00 3.062566e+00 2.253127e+00 3.502555e+00 3.003621e+00 4.717854e+00 3.835848e+00 2.432966e+00 1.997739e+00 1.887590e+00 2.022344e+00
<GCONST> 1.064018e+02
<STATE> 3
<MEAN> 25
 2.079673e+00 2.015004e-01 1.002678e+00 -1.229332e-01 -4.564347e-01 -3.905598e-01 -6.403714e-01 -1.834840e+00 -2.870717e+00 -4.761175e-01 -1.502547e+00 -1.690327e+00 1.204729e-01 3.680912e-02 7.234290e-02 -5.271756e-02 -6.117807e-02 -3.443528e-02 -8.948079e-02 -4.505323e-02 -1.087119e-01 -4.834599e-02 -5.024341e-02 -8.933189e-02 1.128987e-01
<VARIANCE> 25
 7.642480e+01 2.950126e+01 7.669267e+01 7.427437e+01 5.427150e+01 7.537763e+01 4.959780e+01 7.076188e+01 8.768938e+01 3.565586e+01 2.738286e+01 4.348619e+01 2.783778e+00 1.694488e+00 2.574069e+00 3.122821e+00 2.335282e+00 3.440472e+00 3.037218e+00 4.834453e+00 3.816231e+00 2.450947e+00 2.000770e+00 1.910942e+00 1.992977e+00
<GCONST> 1.065975e+02
<STATE> 4
<MEAN> 25
 2.537190e+00 2.410637e-01 1.389057e+00 -6.592861e-01 -1.252787e+00 -7.648053e-01 -1.296017e+00 -1.714896e+00 -3.213675e+00 -8.368655e-01 -1.674402e+00 -2.218992e+00 5.032051e-02 1.580007e-02 1.383072e-02 -6.374202e-02 -6.950971e-02 6.895114e-04 -6.007501e-02 6.607821e-03 -2.272850e-02 -3.145117e-02 -5.494129e-03 -5.059526e-02 5.950019e-02
<VARIANCE> 25
 7.280222e+01 3.152595e+01 8.033794e+01 7.339682e+01 6.084640e+01 7.345753e+01 5.264666e+01 7.357358e+01 8.056741e+01 3.381353e+01 2.733864e+01 4.296069e+01 2.665347e+00 1.708349e+00 2.455127e+00 3.112577e+00 2.484256e+00 3.307817e+00 3.056255e+00 4.784240e+00 3.586600e+00 2.421230e+00 1.976342e+00 1.961801e+00 1.938770e+00
<GCONST> 1.065300e+02
<TRANSP> 5
 0.000000e+00 1.000000e+00 0.000000e+00 0.000000e+00 0.000000e+00
 0.000000e+00 7.656290e-01 2.343709e-01 0.000000e+00 0.000000e+00
 0.000000e+00 0.000000e+00 7.656291e-01 2.343709e-01 0.000000e+00
 0.000000e+00 0.000000e+00 0.000000e+00 8.943877e-01 1.056123e-01
 0.000000e+00 0.000000e+00 0.000000e+00 0.000000e+00 0.000000e+00
<ENDHMM>
~h "n"
<BEGINHMM>
<NUMSTATES> 5
<STATE> 2
<MEAN> 25
 4.467828e-01 1.897725e-02 6.119956e-01 3.857024e-01 -1.844103e-01 1.158453e-01 -5.882819e-01 -3.220632e-01 -9.734287e-01 -4.300978e-01 -1.207403e-01 -1.692769e-01 -3.289489e-02 -7.118731e-03 -7.790590e-03 -9.328676e-04 1.569068e-02 3.426315e-03 9.455420e-03 1.509289e-02 3.747263e-02 1.766416e-02 2.480091e-02 3.155705e-02 -2.850113e-02
<VARIANCE> 25
 6.092313e+01 2.308233e+01 5.759956e+01 3.665884e+01 4.779450e+01 4.350607e+01 4.630775e+01 4.565870e+01 6.749304e+01 3.362847e+01 3.342896e+01 4.384222e+01 1.664559e+00 1.267006e+00 1.687187e+00 2.012657e+00 2.222574e+00 2.371361e+00 2.216759e+00 2.830002e+00 2.805945e+00 2.169732e+00 2.029061e+00 1.820671e+00 1.783726e+00
<GCONST> 1.003235e+02
<STATE> 3
<MEAN> 25
 2.916206e-01 -1.404412e-02 5.745631e-01 3.794620e-01 -1.158914e-01 1.334391e-01 -5.380724e-01 -2.546743e-01 -7.986262e-01 -3.479225e-01 -7.371322e-03 -2.406557e-02 -3.122660e-02 -6.545917e-03 -8.530849e-03 -6.565116e-04 1.241212e-02 4.138655e-03 1.138618e-02 1.553814e-02 3.683296e-02 1.630658e-02 2.336637e-02 2.839138e-02 -2.395262e-02
<VARIANCE> 25
 6.054032e+01 2.306008e+01 5.828609e+01 3.606358e+01 4.759648e+01 4.348187e+01 4.675671e+01 4.482668e+01 6.687885e+01 3.336407e+01 3.335823e+01 4.337547e+01 1.660633e+00 1.261700e+00 1.684255e+00 1.971362e+00 2.210256e+00 2.355230e+00 2.230984e+00 2.795613e+00 2.795071e+00 2.158770e+00 2.020539e+00 1.817603e+00 1.768408e+00
<GCONST> 1.001977e+02
<STATE> 4
<MEAN> 25
 1.144430e-01 -3.515200e-02 6.222940e-01 3.509105e-01 -1.025819e-01 1.716710e-01 -5.112404e-01 -2.428639e-01 -6.157321e-01 -2.844893e-01 1.584930e-01 8.071096e-02 -2.518870e-02 -4.045704e-03 -9.698115e-03 -9.324440e-04 6.581726e-03 6.108291e-03 1.112065e-02 1.248755e-02 3.176377e-02 1.210224e-02 1.955571e-02 2.139536e-02 -1.820978e-02
<VARIANCE> 25
 5.946418e+01 2.305588e+01 5.934824e+01 3.534257e+01 4.708786e+01 4.314746e+01 4.740495e+01 4.280480e+01 6.488148e+01 3.311500e+01 3.180383e+01 4.276970e+01 1.624554e+00 1.216386e+00 1.653052e+00 1.883813e+00 2.166414e+00 2.293755e+00 2.215027e+00 2.680732e+00 2.753781e+00 2.120583e+00 1.961363e+00 1.812008e+00 1.682710e+00
<GCONST> 9.969353e+01
<TRANSP> 5
 0.000000e+00 1.000000e+00 0.000000e+00 0.000000e+00 0.000000e+00
 0.000000e+00 7.835224e-01 2.164776e-01 0.000000e+00 0.000000e+00
 0.000000e+00 0.000000e+00 7.835220e-01 2.164780e-01 0.000000e+00
 0.000000e+00 0.000000e+00 0.000000e+00 9.171928e-01 8.280720e-02
 0.000000e+00 0.000000e+00 0.000000e+00 0.000000e+00 0.000000e+00
<ENDHMM>
~h "p"
<BEGINHMM>
<NUMSTATES> 5
<STATE> 2
<MEAN> 25
 5.215492e-01 4.515666e-01 -4.921632e-02 -1.316614e+00 -3.427882e-01 4.356185e-01 -5.280216e-01 -4.748164e-01 -4.890824e-01 -5.200692e-02 -4.333450e-01 -3.507965e-01 1.617613e-02 3.209220e-02 4.464652e-02 -2.494546e-02 -3.662436e-02 1.233917e-02 -2.122794e-02 -5.691411e-03 -3.709649e-02 -6.507625e-03 2.344574e-03 1.194108e-02 -5.788079e-02
<VARIANCE> 25
 6.118404e+01 2.148914e+01 4.777234e+01 6.639704e+01 5.026582e+01 5.246347e+01 5.328511e+01 3.942019e+01 6.436259e+01 3.085010e+01 2.858756e+01 4.051683e+01 2.321065e+00 1.370137e+00 2.150083e+00 3.359902e+00 2.363788e+00 2.829951e+00 2.979339e+00 2.897100e+00 3.352780e+00 2.624928e+00 2.059974e+00 2.254535e+00 2.491714e+00
<GCONST> 1.031800e+02
<STATE> 3
<MEAN> 25
 5.663333e-01 5.543669e-01 1.431609e-01 -1.340056e+00 -4.526222e-01 4.633226e-01 -5.871163e-01 -5.021914e-01 -6.145576e-01 -5.889305e-02 -4.146200e-01 -3.045889e-01 8.713017e-03 2.561024e-02 3.930593e-02 -4.434519e-03 -2.332274e-02 5.940562e-03 -1.367681e-02 -3.514866e-03 -2.929996e-02 -1.366112e-03 5.587073e-03 1.179914e-02 -6.320336e-02
<VARIANCE> 25
 6.044464e+01 2.105804e+01 4.717225e+01 6.773263e+01 5.049305e+01 5.220510e+01 5.340041e+01 3.910826e+01 6.572522e+01 3.065970e+01 2.871629e+01 3.954086e+01 2.166270e+00 1.293245e+00 2.067334e+00 3.206558e+00 2.321219e+00 2.689388e+00 2.876135e+00 2.816845e+00 3.271499e+00 2.545402e+00 1.986935e+00 2.134091e+00 2.242871e+00
<GCONST> 1.025467e+02
<STATE> 4
<MEAN> 25
 3.555278e-01 5.417618e-01 3.873061e-01 -9.808232e-01 -3.869901e-01 3.837208e-01 -5.284315e-01 -5.351547e-01 -5.469704e-01 3.384300e-02 -2.787582e-01 -1.491699e-01 -7.587160e-03 8.996972e-03 2.421369e-02 3.437106e-02 7.429793e-03 1.370891e-05 3.724913e-03 -4.278792e-04 -3.906740e-03 9.046404e-03 1.386155e-02 1.323876e-02 -7.305480e-02
<VARIANCE> 25
 5.831505e+01 2.005482e+01 4.478885e+01 6.205031e+01 4.895134e+01 5.176556e+01 5.375462e+01 3.873811e+01 6.591785e+01 3.027030e+01 2.896996e+01 3.899145e+01 1.858162e+00 1.186486e+00 1.929353e+00 2.789678e+00 2.195083e+00 2.493314e+00 2.719601e+00 2.718782e+00 3.149201e+00 2.410150e+00 1.887354e+00 2.012413e+00 1.906811e+00
<GCONST> 1.012291e+02
<TRANSP> 5
 0.000000e+00 1.000000e+00 0.000000e+00 0.000000e+00 0.000000e+00
 0.000000e+00 7.703267e-01 2.296733e-01 0.000000e+00 0.000000e+00
 0.000000e+00 0.000000e+00 7.703264e-01 2.296736e-01 0.000000e+00
 0.000000e+00 0.000000e+00 0.000000e+00 8.985243e-01 1.014756e-01
 0.000000e+00 0.000000e+00 0.000000e+00 0.000000e+00 0.000000e+00
<ENDHMM>
~h "r"
<BEGINHMM>
<NUMSTATES> 5
<STATE> 2
<MEAN> 25
 7.320644e-01 -3.778069e-01 -3.019176e-01 2.545608e-01 -4.017668e-01 -5.122308e-01 -9.028848e-01 6.207222e-02 2.426620e-01 -1.630979e-01 1.979443e-01 1.317249e-01 -1.866758e-02 -3.324449e-02 3.307631e-03 -7.047672e-03 -1.155107e-02 -4.876691e-03 1.612246e-02 9.309413e-03 6.652308e-03 1.464629e-02 -1.386981e-03 -8.050868e-03 1.653057e-02
<VARIANCE> 25
 7.149659e+01 3.169483e+01 6.151110e+01 4.053456e+01 5.585945e+01 5.475934e+01 5.858518e+01 3.412880e+01 5.536002e+01 3.294838e+01 2.389005e+01 3.868551e+01 2.002495e+00 1.382232e+00 2.444184e+00 2.208362e+00 2.607646e+00 2.474578e+00 2.734371e+00 2.653633e+00 2.948149e+00 2.131009e+00 1.979354e+00 2.047704e+00 2.019323e+00
<GCONST> 1.019487e+02
<STATE> 3
<MEAN> 25
 6.441357e-01 -5.034584e-01 -2.738257e-01 2.016167e-01 -4.556583e-01 -5.217869e-01 -8.145505e-01 1.017527e-01 2.706761e-01 -1.035250e-01 1.882634e-01 8.597241e-02 -2.167720e-02 -2.760798e-02 7.784040e-03 -1.243129e-02 -1.296482e-02 -1.916318e-03 2.196284e-02 8.707905e-03 3.738561e-03 1.156950e-02 -2.534220e-03 -1.045853e-02 1.179389e-02
<VARIANCE> 25
 7.107743e+01 3.121157e+01 6.206957e+01 3.985163e+01 5.665215e+01 5.457217e+01 5.816455e+01 3.402271e+01 5.517318e+01 3.258350e+01 2.382922e+01 3.945299e+01 2.008996e+00 1.380441e+00 2.446370e+00 2.226410e+00 2.630978e+00 2.469951e+00 2.694661e+00 2.644663e+00 2.920012e+00 2.111311e+00 1.981591e+00 2.063605e+00 2.080956e+00
<GCONST> 1.019424e+02
<STATE> 4
<MEAN> 25
 4.460169e-01 -5.124917e-01 -2.482440e-01 -3.006016e-02 -5.533875e-01 -4.740146e-01 -5.717450e-01 1.493832e-01 2.936475e-01 -5.333841e-02 1.985671e-01 4.658496e-02 -1.629628e-02 -1.221844e-02 4.740293e-03 -1.522888e-02 -8.293245e-03 8.302928e-03 2.347982e-02 3.230221e-03 4.520562e-03 9.347257e-03 -2.052150e-03 -1.019866e-02 1.364010e-04
<VARIANCE> 25
 6.801012e+01 3.044522e+01 6.011731e+01 3.919722e+01 5.566993e+01 5.375141e+01 5.497103e+01 3.299036e+01 5.371296e+01 3.158074e+01 2.328744e+01 4.016294e+01 1.920115e+00 1.311572e+00 2.230947e+00 2.168432e+00 2.548915e+00 2.407444e+00 2.506150e+00 2.490530e+00 2.707734e+00 1.972009e+00 1.916113e+00 2.012274e+00 1.931758e+00
<GCONST> 1.009600e+02
<TRANSP> 5
 0.000000e+00 1.000000e+00 0.000000e+00 0.000000e+00 0.000000e+00
 0.000000e+00 7.829844e-01 2.170156e-01 0.000000e+00 0.000000e+00
 0.000000e+00 0.000000e+00 7.829846e-01 2.170154e-01 0.000000e+00
 0.000000e+00 0.000000e+00 0.000000e+00 9.181268e-01 8.187323e-02
 0.000000e+00 0.000000e+00 0.000000e+00 0.000000e+00 0.000000e+00
<ENDHMM>
~h "s"
<BEGINHMM>
<NUMSTATES> 5
<STATE> 2
<MEAN> 25
 -2.109021e+00 8.863152e-01 3.025102e-01 -5.612826e-01 1.409108e-01 -2.138139e+00 3.611648e-01 -2.093505e-01 -4.382100e-01 -4.839965e-02 -4.799944e-01 -7.015113e-02 2.573979e-03 -6.353591e-04 3.748975e-02 2.559477e-02 -1.923418e-02 -5.106521e-04 -6.981540e-03 -1.531956e-02 -1.545289e-02 -6.987457e-03 6.072692e-04 -7.307165e-03 4.916498e-03
<VARIANCE> 25
 8.467860e+01 3.071763e+01 8.270527e+01 3.935976e+01 5.820135e+01 5.129562e+01 5.683374e+01 3.873793e+01 6.143747e+01 2.549704e+01 2.518209e+01 3.976696e+01 2.645194e+00 1.581977e+00 2.271873e+00 1.888655e+00 2.432374e+00 2.594303e+00 2.382260e+00 2.597179e+00 2.931702e+00 2.021835e+00 1.843736e+00 1.867883e+00 2.534460e+00
<GCONST> 1.023616e+02
<STATE> 3
<MEAN> 25
 -2.049809e+00 8.550314e-01 4.891345e-01 -4.237237e-01 3.992426e-02 -2.087986e+00 3.068509e-01 -2.724213e-01 -4.966047e-01 -7.111125e-02 -4.682819e-01 -1.120661e-01 1.719671e-02 -7.707251e-03 3.737108e-02 3.032297e-02 -2.271656e-02 1.282770e-02 -1.120541e-02 -1.436695e-02 -1.187010e-02 -4.654072e-03 1.204977e-03 -1.054876e-02 -7.536674e-03
<VARIANCE> 25
 8.255164e+01 3.054102e+01 8.392699e+01 3.851048e+01 5.819580e+01 5.032155e+01 5.669741e+01 3.906550e+01 6.173912e+01 2.564451e+01 2.524554e+01 3.960329e+01 2.611081e+00 1.580811e+00 2.296426e+00 1.880942e+00 2.443943e+00 2.536896e+00 2.403588e+00 2.623535e+00 2.929873e+00 2.027054e+00 1.854899e+00 1.874357e+00 2.528617e+00
<GCONST> 1.023225e+02
<STATE> 4
<MEAN> 25
 -1.835425e+00 7.106093e-01 7.771117e-01 -2.215144e-01 -1.224975e-01 -1.734614e+00 1.120226e-01 -3.409291e-01 -4.357919e-01 -1.497209e-02 -2.843082e-01 -1.746706e-01 2.204488e-02 -1.676807e-02 2.356285e-02 2.273757e-02 -1.538485e-02 2.644173e-02 -8.815132e-03 -5.300638e-03 3.153051e-03 3.283753e-03 7.075570e-03 -9.112041e-03 -2.181901e-02
<VARIANCE> 25
 7.602676e+01 2.990993e+01 8.341035e+01 3.764823e+01 5.792019e+01 4.839916e+01 5.580833e+01 3.907149e+01 6.132658e+01 2.603053e+01 2.479656e+01 4.025329e+01 2.388681e+00 1.523587e+00 2.259219e+00 1.856263e+00 2.405279e+00 2.461306e+00 2.388223e+00 2.573345e+00 2.875720e+00 2.015482e+00 1.838740e+00 1.871963e+00 2.418556e+00
<GCONST> 1.018314e+02
<TRANSP> 5
 0.000000e+00 1.000000e+00 0.000000e+00 0.000000e+00 0.000000e+00
 0.000000e+00 7.928781e-01 2.071219e-01 0.000000e+00 0.000000e+00
 0.000000e+00 0.000000e+00 7.928783e-01 2.071217e-01 0.000000e+00
 0.000000e+00 0.000000e+00 0.000000e+00 9.269490e-01 7.305107e-02
 0.000000e+00 0.000000e+00 0.000000e+00 0.000000e+00 0.000000e+00
<ENDHMM>
~h "t"
<BEGINHMM>
<NUMSTATES> 5
<STATE> 2
<MEAN> 25
 -7.459722e-01 4.642754e-01 1.726241e+00 -3.509764e-02 -6.072650e-01 -6.606289e-01 -3.395057e-01 -2.220237e-01 -1.121147e+00 -2.622117e-01 1.269245e-01 -2.481854e-01 -2.315548e-02 -3.406861e-05 -3.314120e-02 1.489196e-02 1.939273e-02 2.454409e-02 2.441696e-02 2.934605e-03 3.870641e-02 1.393785e-02 2.540607e-02 2.373230e-02 -6.382516e-02
<VARIANCE> 25
 5.831090e+01 2.420276e+01 7.316371e+01 4.239242e+01 5.541378e+01 4.545311e+01 5.207828e+01 3.731438e+01 6.197824e+01 3.200608e+01 2.613890e+01 4.356819e+01 1.794816e+00 1.330938e+00 2.288107e+00 2.322297e+00 2.498497e+00 2.613666e+00 2.333277e+00 2.542736e+00 2.955690e+00 2.207791e+00 1.983403e+00 1.926700e+00 2.618824e+00
<GCONST> 1.016501e+02
<STATE> 3
<MEAN> 25
 -8.341534e-01 4.494724e-01 1.567464e+00 4.772925e-02 -5.092167e-01 -5.411793e-01 -2.308412e-01 -1.908236e-01 -9.353345e-01 -2.053166e-01 2.392015e-01 -1.430222e-01 -1.989480e-02 -4.910352e-03 -3.808830e-02 1.969394e-02 2.232748e-02 2.669630e-02 2.142393e-02 7.461602e-03 4.142690e-02 1.285701e-02 2.538850e-02 2.462595e-02 -6.561656e-02
<VARIANCE> 25
 5.756856e+01 2.374219e+01 7.202094e+01 4.159192e+01 5.428551e+01 4.525505e+01 5.194193e+01 3.665302e+01 6.165841e+01 3.185868e+01 2.580709e+01 4.399271e+01 1.760139e+00 1.299871e+00 2.224587e+00 2.266929e+00 2.432071e+00 2.590154e+00 2.318424e+00 2.491027e+00 2.918898e+00 2.198061e+00 1.981038e+00 1.932217e+00 2.461772e+00
<GCONST> 1.012895e+02
<STATE> 4
<MEAN> 25
 -9.835915e-01 3.714175e-01 1.419321e+00 2.600497e-01 -3.773734e-01 -3.705836e-01 -1.743860e-01 -9.267558e-02 -6.590285e-01 -1.414510e-01 4.662613e-01 1.751455e-02 -1.340304e-02 -1.230600e-02 -3.984387e-02 2.214874e-02 2.499866e-02 2.377610e-02 1.932278e-02 1.388179e-02 4.310692e-02 1.102717e-02 2.106502e-02 2.265146e-02 -5.368721e-02
<VARIANCE> 25
 5.537301e+01 2.345253e+01 7.133987e+01 3.911034e+01 5.304337e+01 4.465730e+01 5.279688e+01 3.501640e+01 6.102720e+01 3.158640e+01 2.472825e+01 4.390631e+01 1.663665e+00 1.234638e+00 2.095454e+00 2.101504e+00 2.295215e+00 2.527866e+00 2.278100e+00 2.350936e+00 2.830366e+00 2.133462e+00 1.947458e+00 1.915104e+00 2.125298e+00
<GCONST> 1.004032e+02
<TRANSP> 5
 0.000000e+00 1.000000e+00 0.000000e+00 0.000000e+00 0.000000e+00
 0.000000e+00 7.806581e-01 2.193419e-01 0.000000e+00 0.000000e+00
 0.000000e+00 0.000000e+00 7.806578e-01 2.193422e-01 0.000000e+00
 0.000000e+00 0.000000e+00 0.000000e+00 9.133338e-01 8.666626e-02
 0.000000e+00 0.000000e+00 0.000000e+00 0.000000e+00 0.000000e+00
<ENDHMM>
~h "v"
<BEGINHMM>
<NUMSTATES> 5
<STATE> 2
<MEAN> 25
 -3.829133e-01 -3.911421e-01 1.317743e+00 4.472482e-01 -2.369391e-01 -5.458193e-01 -5.051753e-01 -3.261026e-01 3.973976e-02 -7.883809e-02 5.605540e-01 -3.404748e-01 8.228262e-03 -6.856441e-03 -2.930014e-02 1.105432e-02 2.726299e-02 7.721551e-03 8.251224e-03 1.923260e-02 1.262301e-03 9.433196e-03 4.996961e-03 1.023267e-02 -2.957285e-02
<VARIANCE> 25
 6.502499e+01 2.491000e+01 8.947667e+01 4.165712e+01 5.096471e+01 4.862449e+01 5.936879e+01 4.220156e+01 6.722062e+01 3.277801e+01 2.343133e+01 5.438387e+01 1.791366e+00 1.151558e+00 1.789494e+00 1.685645e+00 2.312603e+00 2.354254e+00 2.151053e+00 2.217455e+00 2.617191e+00 1.870778e+00 1.721056e+00 2.020561e+00 1.694015e+00
<GCONST> 1.004968e+02
<STATE> 3
<MEAN> 25
 -3.563811e-01 -4.159784e-01 1.179194e+00 4.943133e-01 -1.094788e-01 -5.132322e-01 -4.560361e-01 -2.386740e-01 4.760018e-02 -4.203644e-02 5.741352e-01 -2.860264e-01 2.937957e-03 -4.566967e-03 -3.023873e-02 9.005770e-03 2.773363e-02 9.416834e-03 1.107442e-02 1.927783e-02 2.449404e-03 7.623170e-03 1.004105e-03 1.340421e-02 -2.844931e-02
<VARIANCE> 25
 6.405112e+01 2.463758e+01 8.741460e+01 4.239497e+01 5.059033e+01 4.865362e+01 5.948216e+01 4.164822e+01 6.723375e+01 3.318211e+01 2.343262e+01 5.390372e+01 1.735150e+00 1.144401e+00 1.785895e+00 1.678565e+00 2.319024e+00 2.369302e+00 2.154040e+00 2.209761e+00 2.607338e+00 1.874773e+00 1.713600e+00 2.019381e+00 1.676948e+00
<GCONST> 1.003965e+02
<STATE> 4
<MEAN> 25
 -2.343253e-01 -3.847107e-01 9.200166e-01 4.302813e-01 8.808626e-02 -4.572437e-01 -3.919317e-01 -1.467628e-01 -8.696627e-03 -1.039328e-01 4.529770e-01 -3.384753e-01 -6.690107e-03 2.000466e-03 -2.325013e-02 4.050226e-03 2.343935e-02 1.071499e-02 1.309261e-02 1.350052e-02 3.362557e-03 6.564357e-03 -3.015892e-03 1.564682e-02 -2.424216e-02
<VARIANCE> 25
 6.372629e+01 2.488811e+01 8.148905e+01 4.589516e+01 4.921655e+01 4.885429e+01 5.776350e+01 4.033559e+01 6.641603e+01 3.437198e+01 2.310095e+01 5.291802e+01 1.657199e+00 1.138825e+00 1.769211e+00 1.698841e+00 2.303343e+00 2.408383e+00 2.148856e+00 2.205932e+00 2.609722e+00 1.902691e+00 1.706766e+00 1.999977e+00 1.615335e+00
<GCONST> 1.002380e+02
<TRANSP> 5
 0.000000e+00 1.000000e+00 0.000000e+00 0.000000e+00 0.000000e+00
 0.000000e+00 7.928050e-01 2.071951e-01 0.000000e+00 0.000000e+00
 0.000000e+00 0.000000e+00 7.928051e-01 2.071949e-01 0.000000e+00
 0.000000e+00 0.000000e+00 0.000000e+00 9.273494e-01 7.265056e-02
 0.000000e+00 0.000000e+00 0.000000e+00 0.000000e+00 0.000000e+00
<ENDHMM>
~h "w"
<BEGINHMM>
<NUMSTATES> 5
<STATE> 2
<MEAN> 25
 1.763903e+00 3.616436e-01 2.384070e+00 -6.508058e-02 -1.066477e+00 -5.540306e-01 -1.136523e+00 -1.505742e+00 -3.192709e+00 -3.820199e-01 -3.170880e-01 -9.701277e-01 -1.702219e-02 1.062065e-02 3.310400e-02 -1.630102e-02 -3.005702e-02 9.369552e-03 2.088021e-03 1.477448e-03 -3.197188e-03 5.274275e-03 1.139686e-02 4.356965e-03 9.236488e-03
<VARIANCE> 25
 5.769208e+01 2.861416e+01 4.996627e+01 4.234531e+01 4.242641e+01 3.836263e+01 4.495613e+01 3.972456e+01 8.242580e+01 4.109875e+01 2.535788e+01 4.261637e+01 1.574236e+00 1.635424e+00 1.930648e+00 2.125461e+00 2.146041e+00 2.827725e+00 2.650760e+00 2.503831e+00 3.135074e+00 2.918685e+00 2.051677e+00 1.993962e+00 2.003568e+00
<GCONST> 1.013797e+02
<STATE> 3
<MEAN> 25
 1.663023e+00 4.061253e-01 2.532911e+00 -1.392729e-01 -1.205454e+00 -5.041146e-01 -1.123476e+00 -1.490350e+00 -3.187470e+00 -3.573486e-01 -2.681954e-01 -9.430031e-01 -1.745459e-02 1.040724e-02 2.937628e-02 -1.505724e-02 -2.831020e-02 9.104740e-03 2.821051e-03 3.797323e-03 -3.912983e-04 4.617820e-03 8.802130e-03 5.631043e-03 5.313661e-03
<VARIANCE> 25
 5.737111e+01 2.845541e+01 5.047860e+01 4.448621e+01 4.363700e+01 3.813244e+01 4.518356e+01 3.904573e+01 8.206987e+01 3.999525e+01 2.484142e+01 4.182283e+01 1.561250e+00 1.607566e+00 1.903397e+00 2.155683e+00 2.149892e+00 2.756929e+00 2.601607e+00 2.469070e+00 3.081140e+00 2.845111e+00 2.016101e+00 1.923101e+00 1.981650e+00
<GCONST> 1.011776e+02
<STATE> 4
<MEAN> 25
 1.185752e+00 3.445228e-01 2.796786e+00 1.557487e-02 -1.224502e+00 -3.214028e-01 -1.022276e+00 -1.267654e+00 -2.951960e+00 -2.476705e-01 -2.044843e-01 -6.668740e-01 -2.014021e-02 6.716808e-03 2.060548e-02 -6.913901e-03 -1.607938e-02 6.353610e-03 3.474200e-03 6.003264e-03 7.101513e-03 -1.702299e-03 1.575526e-03 7.920831e-03 -5.801758e-03
<VARIANCE> 25
 5.277496e+01 2.672302e+01 5.214487e+01 4.419399e+01 4.442101e+01 3.656993e+01 4.565570e+01 3.627261e+01 8.098376e+01 3.808121e+01 2.385938e+01 3.972066e+01 1.376203e+00 1.445200e+00 1.778853e+00 2.088662e+00 2.056233e+00 2.425145e+00 2.425345e+00 2.301963e+00 2.912278e+00 2.616173e+00 1.928716e+00 1.776438e+00 1.861575e+00
<GCONST> 9.984438e+01
<TRANSP> 5
 0.000000e+00 1.000000e+00 0.000000e+00 0.000000e+00 0.000000e+00
 0.000000e+00 7.940524e-01 2.059477e-01 0.000000e+00 0.000000e+00
 0.000000e+00 0.000000e+00 7.940525e-01 2.059475e-01 0.000000e+00
 0.000000e+00 0.000000e+00 0.000000e+00 9.286044e-01 7.139556e-02
 0.000000e+00 0.000000e+00 0.000000e+00 0.000000e+00 0.000000e+00
<ENDHMM>
~h "y"
<BEGINHMM>
<NUMSTATES> 5
<STATE> 2
<MEAN> 25
 2.989724e+00 -4.232639e-01 7.649415e-01 1.086441e+00 -3.528252e-01 -1.256903e+00 -2.005775e+00 -7.391841e-01 -1.914483e+00 -4.698465e-01 -6.997408e-01 -1.894765e+00 6.417917e-02 -1.839266e-02 -3.531430e-02 5.140972e-02 3.647117e-02 -4.339757e-03 -1.990062e-02 -2.156871e-02 -6.059631e-03 2.881878e-02 -9.524245e-03 -4.159754e-02 -2.497942e-02
<VARIANCE> 25
 5.426116e+01 2.909092e+01 6.063285e+01 5.263021e+01 4.900890e+01 4.610482e+01 7.446665e+01 5.501585e+01 8.378606e+01 3.940551e+01 3.193037e+01 4.946576e+01 1.406544e+00 1.549850e+00 2.827757e+00 2.590076e+00 2.932535e+00 2.699294e+00 3.333905e+00 3.405478e+00 4.400320e+00 2.744741e+00 2.499247e+00 2.192513e+00 1.741634e+00
<GCONST> 1.049033e+02
<STATE> 3
<MEAN> 25
 3.088274e+00 -4.954269e-01 6.415052e-01 1.240936e+00 -1.659006e-01 -1.187020e+00 -1.939104e+00 -8.719345e-01 -1.841873e+00 -2.810103e-01 -7.713106e-01 -1.998150e+00 2.598326e-02 -1.438320e-02 -2.919514e-02 2.353013e-02 3.712106e-02 2.126816e-02 1.613820e-02 -2.941622e-02 1.965042e-02 4.399880e-02 -2.253438e-02 -3.010816e-02 -3.427130e-02
<VARIANCE> 25
 5.390326e+01 2.931131e+01 5.879465e+01 5.051856e+01 4.737190e+01 4.562269e+01 7.454770e+01 5.529632e+01 8.324235e+01 3.890169e+01 3.200018e+01 5.119303e+01 1.346270e+00 1.559688e+00 2.777474e+00 2.529822e+00 2.816852e+00 2.695210e+00 3.261181e+00 3.415477e+00 4.148314e+00 2.772080e+00 2.420566e+00 2.195866e+00 1.724005e+00
<GCONST> 1.045817e+02
<STATE> 4
<MEAN> 25
 2.783162e+00 -5.997274e-01 4.389518e-01 1.732871e+00 4.271898e-01 -6.906136e-01 -1.150014e+00 -1.025968e+00 -1.233307e+00 2.799130e-01 -1.003542e+00 -1.908183e+00 -3.749361e-02 -7.358842e-03 -1.930778e-02 1.954539e-02 3.573444e-02 3.354890e-02 5.981177e-02 -1.795163e-02 5.220919e-02 4.727061e-02 -2.039633e-02 1.646438e-02 -6.015800e-02
<VARIANCE> 25
 4.966145e+01 2.816861e+01 5.692308e+01 4.836244e+01 4.469633e+01 4.008170e+01 6.600474e+01 5.440063e+01 7.725883e+01 3.393428e+01 3.183268e+01 5.257662e+01 1.191722e+00 1.444541e+00 2.562688e+00 2.251379e+00 2.573479e+00 2.506070e+00 2.861251e+00 3.185754e+00 3.562828e+00 2.505971e+00 2.210572e+00 2.063127e+00 1.503281e+00
<GCONST> 1.025661e+02
<TRANSP> 5
 0.000000e+00 1.000000e+00 0.000000e+00 0.000000e+00 0.000000e+00
 0.000000e+00 7.723589e-01 2.276410e-01 0.000000e+00 0.000000e+00
 0.000000e+00 0.000000e+00 7.723590e-01 2.276411e-01 0.000000e+00
 0.000000e+00 0.000000e+00 0.000000e+00 9.055647e-01 9.443528e-02
 0.000000e+00 0.000000e+00 0.000000e+00 0.000000e+00 0.000000e+00
<ENDHMM>
~h "z"
<BEGINHMM>
<NUMSTATES> 5
<STATE> 2
<MEAN> 25
 9.519311e-02 6.003551e-01 -3.126921e-01 2.102968e-02 1.016561e-02 -4.807352e-01 -3.062856e-01 -4.882382e-01 -3.009000e-01 7.005083e-01 3.356884e-01 7.765999e-01 1.891084e-02 -1.405029e-02 1.342970e-02 1.402915e-03 -1.927439e-02 2.485836e-02 -5.532434e-04 9.451811e-03 -1.421622e-02 -7.395848e-03 2.116877e-03 -1.718699e-02 -7.612764e-03
<VARIANCE> 25
 7.435223e+01 3.279745e+01 4.878881e+01 3.697230e+01 4.894973e+01 5.441381e+01 5.566274e+01 3.403611e+01 5.544049e+01 2.998075e+01 2.350250e+01 4.049980e+01 1.622125e+00 1.348676e+00 2.024895e+00 1.875033e+00 2.426539e+00 2.451878e+00 2.560096e+00 2.778707e+00 2.790329e+00 2.330416e+00 1.753053e+00 2.162570e+00 1.242311e+00
<GCONST> 1.002364e+02
<STATE> 3
<MEAN> 25
 1.725625e-01 5.485831e-01 -2.510337e-01 4.026138e-02 -6.348342e-02 -3.735798e-01 -2.893554e-01 -4.375837e-01 -3.631226e-01 6.589079e-01 3.380622e-01 6.949181e-01 1.359034e-02 -7.060091e-03 9.187453e-03 4.255000e-03 -1.529122e-02 1.851464e-02 2.200653e-03 1.056510e-02 -6.906430e-03 -8.957072e-03 3.088902e-03 -1.375817e-02 -9.045199e-03
<VARIANCE> 25
 7.301185e+01 3.238799e+01 4.942838e+01 3.749451e+01 4.850058e+01 5.355337e+01 5.502241e+01 3.377108e+01 5.554950e+01 3.036459e+01 2.345487e+01 4.127880e+01 1.565561e+00 1.339901e+00 2.004117e+00 1.862346e+00 2.379138e+00 2.399553e+00 2.515231e+00 2.730733e+00 2.766266e+00 2.334613e+00 1.762453e+00 2.145275e+00 1.222606e+00
<GCONST> 1.000588e+02
<STATE> 4
<MEAN> 25
 5.009917e-01 4.661326e-01 -2.056678e-01 1.588576e-01 -2.124589e-01 -1.239647e-01 -3.010146e-01 -3.665497e-01 -5.920942e-01 3.510206e-01 3.088252e-01 3.994894e-01 7.461175e-03 1.480640e-03 5.706766e-03 1.161897e-02 -4.174561e-03 1.096936e-02 9.041562e-03 1.322729e-02 3.234374e-03 -1.087101e-02 2.035539e-03 -8.614705e-03 -1.585234e-02
<VARIANCE> 25
 7.119822e+01 3.113113e+01 4.911724e+01 3.842667e+01 4.904369e+01 5.152334e+01 5.301823e+01 3.306010e+01 5.618804e+01 3.134188e+01 2.352365e+01 4.288538e+01 1.481071e+00 1.310524e+00 1.988795e+00 1.883304e+00 2.299168e+00 2.333699e+00 2.396659e+00 2.619025e+00 2.766747e+00 2.289368e+00 1.799091e+00 2.115941e+00 1.161736e+00
<GCONST> 9.972073e+01
<TRANSP> 5
 0.000000e+00 1.000000e+00 0.000000e+00 0.000000e+00 0.000000e+00
 0.000000e+00 7.923726e-01 2.076274e-01 0.000000e+00 0.000000e+00
 0.000000e+00 0.000000e+00 7.923728e-01 2.076272e-01 0.000000e+00
 0.000000e+00 0.000000e+00 0.000000e+00 9.268670e-01 7.313301e-02
 0.000000e+00 0.000000e+00 0.000000e+00 0.000000e+00 0.000000e+00
<ENDHMM>
~h "aa"
<BEGINHMM>
<NUMSTATES> 5
<STATE> 2
<MEAN> 25
 5.008347e-02 -2.704283e-01 4.509389e-01 -7.556072e-01 3.764997e-02 1.377972e+00 3.375629e-01 -4.995424e-01 -1.157675e-01 -1.918652e-01 1.302405e-01 -1.530834e+00 -4.728269e-02 3.442474e-02 4.500979e-02 2.770442e-02 -3.589337e-02 -4.558816e-02 -1.649254e-03 -9.947983e-03 -1.199425e-02 -9.919433e-03 1.797631e-02 4.502800e-02 -1.290774e-03
<VARIANCE> 25
 9.181390e+01 2.899492e+01 7.400611e+01 7.172356e+01 4.726519e+01 5.437241e+01 5.645250e+01 4.957323e+01 7.317564e+01 3.458290e+01 2.617310e+01 5.857245e+01 2.119907e+00 1.596107e+00 2.404286e+00 3.063651e+00 2.582195e+00 2.919720e+00 2.792723e+00 3.950324e+00 3.487137e+00 2.427975e+00 2.385609e+00 2.541028e+00 2.559104e+00
<GCONST> 1.058850e+02
<STATE> 3
<MEAN> 25
 -1.469628e-01 -1.315817e-01 6.295845e-01 -6.411737e-01 -1.163322e-01 1.167050e+00 3.261844e-01 -5.405288e-01 -1.620066e-01 -2.376335e-01 2.028351e-01 -1.335470e+00 -4.199941e-02 3.420169e-02 4.087212e-02 2.424700e-02 -3.730895e-02 -4.812010e-02 -2.553592e-03 -7.604911e-03 -1.248318e-02 -1.046097e-02 1.642435e-02 4.544565e-02 4.112616e-03
<VARIANCE> 25
 9.804273e+01 2.909902e+01 7.598235e+01 7.002905e+01 4.887130e+01 5.377406e+01 5.858105e+01 5.016451e+01 7.522367e+01 3.455623e+01 2.586684e+01 5.602668e+01 2.245426e+00 1.608678e+00 2.472358e+00 2.992326e+00 2.619405e+00 2.876217e+00 2.844805e+00 4.012392e+00 3.519404e+00 2.433300e+00 2.340233e+00 2.486226e+00 2.481633e+00
<GCONST> 1.060413e+02
<STATE> 4
<MEAN> 25
 -3.363226e-01 6.376976e-02 7.370151e-01 -4.979230e-01 -3.080631e-01 7.470263e-01 2.057555e-01 -5.853920e-01 -1.396808e-01 -3.017703e-01 2.732111e-01 -1.038155e+00 -3.361153e-02 3.172538e-02 3.184876e-02 1.726438e-02 -3.450619e-02 -5.355807e-02 -3.356281e-03 -1.378366e-03 -1.295959e-02 -8.640097e-03 1.364111e-02 4.660381e-02 1.126854e-02
<VARIANCE> 25
 1.067627e+02 2.983196e+01 7.840102e+01 6.844196e+01 5.126109e+01 5.357036e+01 6.249465e+01 4.958154e+01 7.506373e+01 3.454757e+01 2.527028e+01 5.195908e+01 2.447707e+00 1.615067e+00 2.612262e+00 2.917398e+00 2.722607e+00 2.794265e+00 2.950958e+00 3.960387e+00 3.503846e+00 2.431062e+00 2.247483e+00 2.455096e+00 2.418817e+00
<GCONST> 1.062248e+02
<TRANSP> 5
 0.000000e+00 1.000000e+00 0.000000e+00 0.000000e+00 0.000000e+00
 0.000000e+00 7.643152e-01 2.356849e-01 0.000000e+00 0.000000e+00
 0.000000e+00 0.000000e+00 7.643154e-01 2.356846e-01 0.000000e+00
 0.000000e+00 0.000000e+00 0.000000e+00 8.908398e-01 1.091601e-01
 0.000000e+00 0.000000e+00 0.000000e+00 0.000000e+00 0.000000e+00
<ENDHMM>
~h "ae"
<BEGINHMM>
<NUMSTATES> 5
<STATE> 2
<MEAN> 25
 8.297709e-01 -1.267837e+00 -5.050243e-01 -1.028278e-01 -5.834709e-01 -7.009594e-01 8.824223e-01 7.128802e-01 -6.510976e-02 -1.142362e+00 -1.236137e+00 -1.842613e+00 1.145891e-01 -3.296115e-02 -3.473784e-02 -5.499242e-02 -5.277084e-02 -4.651609e-02 -3.283793e-02 -2.234856e-02 -4.693905e-02 -2.316842e-02 -7.748915e-02 -9.346625e-02 1.562506e-01
<VARIANCE> 25
 6.616600e+01 3.699049e+01 6.343038e+01 4.539499e+01 4.310701e+01 3.976733e+01 4.220211e+01 4.783275e+01 6.575885e+01 3.139044e+01 4.105806e+01 5.344489e+01 2.202935e+00 1.899730e+00 1.855983e+00 2.348672e+00 2.624616e+00 2.492571e+00 2.172812e+00 3.260203e+00 2.911455e+00 2.349316e+00 2.391930e+00 2.357735e+00 3.100885e+00
<GCONST> 1.036223e+02
<STATE> 3
<MEAN> 25
 1.318367e+00 -1.331695e+00 -6.203240e-01 -3.136565e-01 -7.850564e-01 -8.569502e-01 6.828671e-01 5.484282e-01 -3.064499e-01 -1.215298e+00 -1.538150e+00 -2.208291e+00 1.085177e-01 -9.991901e-03 -2.925192e-02 -4.749072e-02 -3.965726e-02 -2.891183e-02 -4.654423e-02 -3.839231e-02 -5.135663e-02 -1.230302e-02 -6.489634e-02 -7.371986e-02 1.246296e-01
<VARIANCE> 25
 6.599134e+01 3.813873e+01 6.360377e+01 4.803359e+01 4.346296e+01 4.106262e+01 4.167716e+01 4.917485e+01 6.486102e+01 3.168887e+01 4.122005e+01 5.263056e+01 2.275418e+00 1.937275e+00 1.951021e+00 2.498742e+00 2.695720e+00 2.602363e+00 2.227870e+00 3.335725e+00 3.028193e+00 2.417836e+00 2.456320e+00 2.402731e+00 3.137381e+00
<GCONST> 1.041559e+02
<STATE> 4
<MEAN> 25
 1.977780e+00 -1.136712e+00 -4.807077e-01 -5.303143e-01 -1.013059e+00 -9.917109e-01 1.193533e-01 7.817204e-02 -8.215064e-01 -1.331750e+00 -1.855361e+00 -2.533556e+00 6.923892e-02 1.999086e-02 -2.601836e-03 -2.222237e-02 -1.955883e-02 -8.734272e-03 -5.936983e-02 -4.894536e-02 -3.437948e-02 -5.205712e-03 -3.323900e-02 -2.389761e-02 4.473034e-02
<VARIANCE> 25
 6.532607e+01 3.899677e+01 6.775259e+01 5.160316e+01 4.444110e+01 4.386272e+01 4.295609e+01 5.197163e+01 6.494610e+01 3.138054e+01 4.022467e+01 4.991565e+01 2.359580e+00 1.923458e+00 2.114022e+00 2.758935e+00 2.704154e+00 2.746394e+00 2.319583e+00 3.451471e+00 3.119699e+00 2.451702e+00 2.540729e+00 2.416557e+00 3.008230e+00
<GCONST> 1.047719e+02
<TRANSP> 5
 0.000000e+00 1.000000e+00 0.000000e+00 0.000000e+00 0.000000e+00
 0.000000e+00 7.743315e-01 2.256686e-01 0.000000e+00 0.000000e+00
 0.000000e+00 0.000000e+00 7.743314e-01 2.256686e-01 0.000000e+00
 0.000000e+00 0.000000e+00 0.000000e+00 9.026510e-01 9.734900e-02
 0.000000e+00 0.000000e+00 0.000000e+00 0.000000e+00 0.000000e+00
<ENDHMM>
~h "ah"
<BEGINHMM>
<NUMSTATES> 5
<STATE> 2
<MEAN> 25
 7.886515e-01 4.781059e-02 -2.777494e-01 -1.648609e-01 2.195553e-01 -4.294940e-02 -7.349131e-02 -2.000885e-01 -2.847426e-01 -1.009861e-01 -5.793145e-01 -5.639539e-01 -1.206314e-02 4.382656e-03 1.265460e-02 3.788125e-03 8.575994e-03 6.727932e-03 2.427185e-03 2.701682e-03 7.424289e-03 -4.339652e-03 1.399072e-02 3.192342e-02 -2.839988e-02
<VARIANCE> 25
 6.808383e+01 3.066801e+01 5.453793e+01 5.789046e+01 4.615760e+01 4.628314e+01 4.978329e+01 4.442575e+01 6.832022e+01 3.323616e+01 2.999436e+01 4.614242e+01 2.025149e+00 1.603614e+00 1.960196e+00 2.801495e+00 2.376319e+00 2.812831e+00 2.432341e+00 2.986745e+00 3.027561e+00 2.375923e+00 2.105407e+00 2.218340e+00 2.450292e+00
<GCONST> 1.031518e+02
<STATE> 3
<MEAN> 25
 7.137496e-01 5.754966e-02 -1.979693e-01 -1.193526e-01 2.593779e-01 -2.777427e-02 -6.929930e-02 -1.851650e-01 -2.515064e-01 -1.241395e-01 -5.176423e-01 -4.156573e-01 -1.903757e-02 1.704120e-03 1.856322e-02 1.161181e-02 9.537352e-03 4.536679e-03 5.021838e-04 6.441440e-03 9.201213e-03 -5.165366e-03 1.561543e-02 3.443217e-02 -2.948957e-02
<VARIANCE> 25
 6.816989e+01 3.042497e+01 5.370028e+01 5.830579e+01 4.574149e+01 4.620440e+01 4.996638e+01 4.375847e+01 6.807293e+01 3.333358e+01 2.964718e+01 4.547238e+01 2.006948e+00 1.595510e+00 1.929471e+00 2.788956e+00 2.347683e+00 2.772612e+00 2.424773e+00 2.957236e+00 2.993455e+00 2.358048e+00 2.096627e+00 2.165927e+00 2.442729e+00
<GCONST> 1.029635e+02
<STATE> 4
<MEAN> 25
 5.881541e-01 4.432162e-02 1.091441e-01 1.104441e-01 3.207935e-01 -9.057621e-02 -1.749132e-01 -2.264844e-01 -3.041830e-01 -2.005453e-01 -4.586400e-01 -2.424263e-01 -2.764855e-02 -2.904375e-04 2.098965e-02 1.665440e-02 1.030969e-02 3.802358e-03 -2.650514e-04 5.982740e-03 9.875044e-03 -3.743627e-03 1.566892e-02 3.145120e-02 -2.525824e-02
<VARIANCE> 25
 6.711894e+01 2.954541e+01 5.475781e+01 5.554359e+01 4.550814e+01 4.636654e+01 5.132952e+01 4.267085e+01 6.843000e+01 3.419061e+01 2.882822e+01 4.464197e+01 1.910934e+00 1.519217e+00 1.866798e+00 2.589195e+00 2.294977e+00 2.654611e+00 2.408413e+00 2.837041e+00 2.937704e+00 2.324950e+00 2.053902e+00 2.073969e+00 2.283415e+00
<GCONST> 1.023898e+02
<TRANSP> 5
 0.000000e+00 1.000000e+00 0.000000e+00 0.000000e+00 0.000000e+00
 0.000000e+00 7.743104e-01 2.256896e-01 0.000000e+00 0.000000e+00
 0.000000e+00 0.000000e+00 7.743099e-01 2.256901e-01 0.000000e+00
 0.000000e+00 0.000000e+00 0.000000e+00 9.070605e-01 9.293949e-02
 0.000000e+00 0.000000e+00 0.000000e+00 0.000000e+00 0.000000e+00
<ENDHMM>
~h "ao"
<BEGINHMM>
<NUMSTATES> 5
<STATE> 2
<MEAN> 25
 1.198208e+00 4.929048e-01 -3.262786e+00 -4.936900e+00 -2.790480e-01 1.929841e+00 1.223785e+00 8.117448e-01 1.771970e+00 -1.860001e-01 8.250439e-01 7.287027e-01 3.778360e-02 9.466124e-03 2.401191e-03 -5.478199e-02 -2.315328e-02 2.295913e-02 -2.917754e-02 -1.963072e-02 -3.667971e-02 -2.177712e-02 1.642872e-03 -2.563066e-02 6.955242e-02
<VARIANCE> 25
 7.399496e+01 3.121057e+01 4.193721e+01 1.262932e+02 5.958354e+01 5.709719e+01 4.218894e+01 2.717443e+01 4.134684e+01 3.005121e+01 2.153395e+01 3.370554e+01 2.036978e+00 1.037645e+00 1.373844e+00 3.137725e+00 2.578542e+00 3.057790e+00 2.163338e+00 1.740441e+00 2.196445e+00 1.548687e+00 1.748906e+00 1.624757e+00 1.654789e+00
<GCONST> 9.952774e+01
<STATE> 3
<MEAN> 25
 1.380685e+00 5.353735e-01 -3.222061e+00 -5.151934e+00 -4.119315e-01 2.017021e+00 1.088004e+00 7.111761e-01 1.584361e+00 -3.032211e-01 8.125392e-01 6.142719e-01 3.985165e-02 9.766037e-03 9.372164e-03 -4.201640e-02 -2.986188e-02 1.863575e-02 -2.978870e-02 -2.291566e-02 -4.115186e-02 -2.557044e-02 -2.951530e-03 -2.493423e-02 6.991243e-02
<VARIANCE> 25
 7.530283e+01 3.222771e+01 4.449305e+01 1.288410e+02 6.007215e+01 5.991985e+01 4.342330e+01 2.795005e+01 4.200169e+01 3.065836e+01 2.133794e+01 3.431712e+01 2.036240e+00 1.062098e+00 1.421995e+00 3.145750e+00 2.532100e+00 3.071559e+00 2.177889e+00 1.759119e+00 2.202333e+00 1.563200e+00 1.725331e+00 1.646671e+00 1.708217e+00
<GCONST> 9.992165e+01
<STATE> 4
<MEAN> 25
 1.416066e+00 3.780522e-01 -2.949537e+00 -4.859324e+00 -5.862333e-01 1.613335e+00 9.538208e-01 6.659676e-01 1.343393e+00 -3.208896e-01 7.220249e-01 5.378125e-01 1.592312e-02 -7.231022e-03 3.473234e-02 1.955342e-02 -1.967670e-02 -1.431843e-02 -2.102999e-02 -1.682980e-02 -3.809116e-02 -6.510599e-03 -6.273287e-03 -1.822552e-02 3.395170e-02
<VARIANCE> 25
 7.595799e+01 3.354477e+01 5.032041e+01 1.233674e+02 6.200899e+01 5.952121e+01 4.474986e+01 2.995232e+01 4.401510e+01 2.965965e+01 2.124137e+01 3.494506e+01 1.949331e+00 1.098533e+00 1.510380e+00 2.771196e+00 2.507385e+00 2.897053e+00 2.142661e+00 1.824807e+00 2.256848e+00 1.508070e+00 1.714446e+00 1.637259e+00 1.608796e+00
<GCONST> 9.999389e+01
<TRANSP> 5
 0.000000e+00 1.000000e+00 0.000000e+00 0.000000e+00 0.000000e+00
 0.000000e+00 7.917796e-01 2.082204e-01 0.000000e+00 0.000000e+00
 0.000000e+00 0.000000e+00 7.917801e-01 2.082199e-01 0.000000e+00
 0.000000e+00 0.000000e+00 0.000000e+00 9.258983e-01 7.410168e-02
 0.000000e+00 0.000000e+00 0.000000e+00 0.000000e+00 0.000000e+00
<ENDHMM>
~h "aw"
<BEGINHMM>
<NUMSTATES> 5
<STATE> 2
<MEAN> 25
 4.877874e-01 -2.022617e-01 1.766184e-01 -1.027095e-01 3.905192e-01 -3.990066e-01 -8.976246e-01 -4.230865e-01 -6.741512e-01 -3.993563e-01 -6.484938e-02 -9.406295e-02 -6.531313e-02 -1.662929e-03 2.248761e-02 -2.518665e-02 -2.982517e-02 -5.744262e-03 4.440768e-02 1.185388e-02 -3.921515e-02 3.165711e-02 7.996744e-02 6.726810e-02 -9.220327e-02
<VARIANCE> 25
 5.794703e+01 1.693435e+01 4.220486e+01 3.217466e+01 3.206084e+01 3.032841e+01 4.703373e+01 4.627085e+01 5.192604e+01 3.312595e+01 4.021788e+01 4.944791e+01 1.556040e+00 1.568079e+00 1.824780e+00 2.785490e+00 1.974635e+00 2.622183e+00 1.985373e+00 2.570411e+00 2.612232e+00 2.692293e+00 2.717488e+00 2.252959e+00 3.388156e+00
<GCONST> 1.004350e+02
<STATE> 3
<MEAN> 25
 1.463747e-01 -2.075729e-01 3.280323e-01 -1.826027e-01 2.448177e-01 -4.427963e-01 -6.444733e-01 -3.694427e-01 -8.356078e-01 -2.261091e-01 3.210774e-01 2.483808e-01 -7.124123e-02 -9.717117e-04 3.652042e-02 -1.306528e-02 -3.553490e-02 -1.091074e-02 5.762763e-02 9.732964e-03 -3.857337e-02 3.682332e-02 7.997416e-02 7.224202e-02 -9.749462e-02
<VARIANCE> 25
 5.759071e+01 1.544787e+01 4.290764e+01 3.066012e+01 3.332000e+01 3.093411e+01 4.604283e+01 4.734800e+01 5.747576e+01 3.211813e+01 3.929076e+01 5.012793e+01 1.498239e+00 1.445060e+00 1.733305e+00 2.669952e+00 1.948959e+00 2.603773e+00 1.994155e+00 2.569443e+00 2.667536e+00 2.605273e+00 2.635786e+00 2.254821e+00 3.134241e+00
<GCONST> 1.000773e+02
<STATE> 4
<MEAN> 25
 -4.651542e-01 -1.580476e-01 7.908429e-01 -1.681151e-01 -6.941810e-02 -5.539817e-01 -1.049129e-01 -3.585955e-01 -1.135965e+00 9.416888e-02 8.816075e-01 7.510884e-01 -7.602274e-02 3.246960e-03 4.243688e-02 1.318226e-04 -3.042531e-02 -3.424366e-03 6.937359e-02 1.433421e-02 -1.754459e-02 3.797420e-02 7.077012e-02 6.794493e-02 -9.670302e-02
<VARIANCE> 25
 5.407183e+01 1.418832e+01 4.407823e+01 2.883739e+01 3.633275e+01 3.121169e+01 4.234568e+01 5.007571e+01 6.719206e+01 3.038000e+01 3.681335e+01 5.010329e+01 1.457126e+00 1.341763e+00 1.598203e+00 2.504324e+00 1.917034e+00 2.567475e+00 1.985403e+00 2.652349e+00 2.783278e+00 2.468369e+00 2.557501e+00 2.254769e+00 2.862607e+00
<GCONST> 9.961483e+01
<TRANSP> 5
 0.000000e+00 1.000000e+00 0.000000e+00 0.000000e+00 0.000000e+00
 0.000000e+00 7.750605e-01 2.249395e-01 0.000000e+00 0.000000e+00
 0.000000e+00 0.000000e+00 7.750605e-01 2.249395e-01 0.000000e+00
 0.000000e+00 0.000000e+00 0.000000e+00 9.025153e-01 9.748471e-02
 0.000000e+00 0.000000e+00 0.000000e+00 0.000000e+00 0.000000e+00
<ENDHMM>
~h "ay"
<BEGINHMM>
<NUMSTATES> 5
<STATE> 2
<MEAN> 25
 1.522915e+00 -7.888151e-01 -7.880384e-01 -9.382961e-01 -8.196845e-01 6.457270e-03 -1.162652e-01 8.727040e-02 1.429791e-01 -1.933757e-01 -7.124097e-01 -1.101737e+00 1.633790e-03 2.002844e-02 -8.227080e-03 -9.954722e-03 1.009744e-02 -5.593546e-03 5.508548e-03 -1.560152e-02 -1.330883e-02 1.387848e-02 -4.620231e-03 -1.174297e-02 -5.794806e-03
<VARIANCE> 25
 7.739020e+01 3.250428e+01 5.438794e+01 3.917376e+01 4.882513e+01 4.960223e+01 4.372882e+01 3.758617e+01 5.752251e+01 3.472942e+01 2.809637e+01 4.796048e+01 1.965826e+00 1.464560e+00 2.277350e+00 2.304247e+00 2.696332e+00 2.558317e+00 2.260926e+00 3.079553e+00 3.122399e+00 2.232843e+00 1.893101e+00 2.202568e+00 2.400066e+00
<GCONST> 1.022763e+02
<STATE> 3
<MEAN> 25
 1.499227e+00 -6.699801e-01 -8.174778e-01 -9.564715e-01 -7.399090e-01 -2.620637e-02 -9.103112e-02 -6.699095e-03 7.674755e-02 -1.452278e-01 -7.049944e-01 -1.121282e+00 -5.234584e-03 2.331221e-02 -7.690249e-03 -2.113894e-03 1.875610e-02 -4.376844e-03 5.550733e-03 -1.889025e-02 -1.212864e-02 1.078646e-02 1.686444e-03 -4.854877e-03 -1.683911e-02
<VARIANCE> 25
 7.709681e+01 3.243530e+01 5.353196e+01 3.883358e+01 4.772674e+01 4.993460e+01 4.383510e+01 3.730721e+01 5.796392e+01 3.519405e+01 2.823869e+01 4.870686e+01 1.941550e+00 1.444781e+00 2.224647e+00 2.279096e+00 2.649924e+00 2.594890e+00 2.253726e+00 3.060073e+00 3.088389e+00 2.226934e+00 1.902732e+00 2.217264e+00 2.399249e+00
<GCONST> 1.021907e+02
<STATE> 4
<MEAN> 25
 1.495510e+00 -2.847028e-01 -8.007779e-01 -7.703306e-01 -4.240585e-01 -1.568749e-01 -2.350438e-01 -3.170517e-01 -1.525115e-01 -2.808426e-01 -6.430413e-01 -1.086275e+00 -1.848836e-02 2.166408e-02 1.984100e-03 1.595313e-02 2.311728e-02 -7.268723e-03 6.383992e-03 -1.533468e-02 -8.826856e-03 3.592419e-03 1.091241e-02 1.180299e-02 -2.959104e-02
<VARIANCE> 25
 7.544749e+01 3.262129e+01 4.993817e+01 3.753546e+01 4.328192e+01 5.012464e+01 4.458295e+01 3.727354e+01 6.025333e+01 3.645643e+01 2.836173e+01 4.918354e+01 1.846859e+00 1.388224e+00 1.992544e+00 2.122917e+00 2.488157e+00 2.590183e+00 2.200905e+00 2.923133e+00 2.972013e+00 2.200427e+00 1.911377e+00 2.193266e+00 2.060102e+00
<GCONST> 1.014669e+02
<TRANSP> 5
 0.000000e+00 1.000000e+00 0.000000e+00 0.000000e+00 0.000000e+00
 0.000000e+00 7.904642e-01 2.095359e-01 0.000000e+00 0.000000e+00
 0.000000e+00 0.000000e+00 7.904640e-01 2.095360e-01 0.000000e+00
 0.000000e+00 0.000000e+00 0.000000e+00 9.255809e-01 7.441916e-02
 0.000000e+00 0.000000e+00 0.000000e+00 0.000000e+00 0.000000e+00
<ENDHMM>
~h "ch"
<BEGINHMM>
<NUMSTATES> 5
<STATE> 2
<MEAN> 25
 -2.153365e+00 -9.650671e-01 -8.245971e-01 8.112996e-01 1.272890e+00 1.309125e-01 1.728541e+00 1.168657e+00 1.294931e+00 3.111222e-01 6.060755e-01 1.132855e+00 -3.226886e-05 2.331702e-02 7.010041e-02 -6.746490e-02 -5.487901e-02 3.025973e-02 -2.392500e-02 -3.527458e-02 -5.518619e-02 -5.063642e-02 -7.428031e-03 -5.454195e-02 8.485102e-02
<VARIANCE> 25
 5.985654e+01 2.395377e+01 5.037648e+01 2.751845e+01 3.857019e+01 3.905595e+01 3.556095e+01 2.931800e+01 4.058971e+01 2.434939e+01 2.521946e+01 3.473404e+01 2.397625e+00 1.439791e+00 1.902058e+00 2.158750e+00 2.137325e+00 2.949093e+00 2.310475e+00 2.409067e+00 2.432406e+00 1.961375e+00 2.452000e+00 2.366266e+00 3.778728e+00
<GCONST> 9.924699e+01
<STATE> 3
<MEAN> 25
 -2.126239e+00 -7.888077e-01 -4.777995e-01 4.945033e-01 1.015458e+00 3.260258e-01 1.521861e+00 9.478205e-01 1.021577e+00 1.216892e-01 5.939658e-01 8.502809e-01 5.097283e-03 4.508729e-02 8.985695e-02 -7.653821e-02 -6.620710e-02 3.981010e-02 -5.437282e-02 -5.998778e-02 -6.930934e-02 -4.566394e-02 -5.386224e-03 -7.104079e-02 8.467069e-02
<VARIANCE> 25
 6.458572e+01 2.506923e+01 5.671641e+01 3.036178e+01 4.034901e+01 3.843013e+01 3.738164e+01 3.170386e+01 4.243348e+01 2.466757e+01 2.490258e+01 3.597411e+01 2.499789e+00 1.441326e+00 1.876221e+00 2.230827e+00 2.185045e+00 2.913105e+00 2.326284e+00 2.445655e+00 2.470272e+00 1.970815e+00 2.440517e+00 2.378225e+00 3.704116e+00
<GCONST> 9.991666e+01
<STATE> 4
<MEAN> 25
 -1.741000e+00 -2.362242e-01 5.137521e-02 -8.518557e-02 4.114406e-01 7.025732e-01 7.816873e-01 4.218919e-01 3.848616e-01 -7.454249e-02 5.271949e-01 2.961274e-01 5.559972e-02 5.565463e-02 8.802520e-02 -7.439403e-02 -7.966216e-02 3.856003e-02 -9.169114e-02 -6.824603e-02 -8.754805e-02 -2.563396e-02 -4.043208e-03 -7.909930e-02 7.410603e-02
<VARIANCE> 25
 7.403812e+01 2.725171e+01 7.218092e+01 3.851123e+01 4.751816e+01 3.912854e+01 4.443216e+01 3.572177e+01 5.074574e+01 2.456417e+01 2.358245e+01 3.684589e+01 2.581730e+00 1.476791e+00 2.024852e+00 2.397784e+00 2.254536e+00 2.841660e+00 2.280470e+00 2.599013e+00 2.648492e+00 2.059829e+00 2.357838e+00 2.371883e+00 3.145567e+00
<GCONST> 1.013990e+02
<TRANSP> 5
 0.000000e+00 1.000000e+00 0.000000e+00 0.000000e+00 0.000000e+00
 0.000000e+00 7.745498e-01 2.254502e-01 0.000000e+00 0.000000e+00
 0.000000e+00 0.000000e+00 7.745498e-01 2.254502e-01 0.000000e+00
 0.000000e+00 0.000000e+00 0.000000e+00 9.061662e-01 9.383381e-02
 0.000000e+00 0.000000e+00 0.000000e+00 0.000000e+00 0.000000e+00
<ENDHMM>
~h "dh"
<BEGINHMM>
<NUMSTATES> 5
<STATE> 2
<MEAN> 25
 1.044422e+00 -2.245824e-01 7.101418e-01 1.889459e+00 -1.128592e+00 -1.008395e+00 -8.729367e-01 3.913119e-02 -3.321583e-01 -3.900824e-01 -1.698169e-01 -2.685640e-01 -1.087412e-01 -6.790049e-03 -7.711054e-02 2.240551e-02 6.222482e-02 9.754641e-02 1.091581e-01 9.671108e-02 1.296180e-01 3.017033e-02 1.061929e-01 1.874891e-01 -2.042627e-01
<VARIANCE> 25
 4.929052e+01 2.464237e+01 2.102212e+01 8.821249e+01 3.410493e+01 6.677845e+01 5.383899e+01 4.132432e+01 4.251895e+01 3.351208e+01 3.475534e+01 4.510017e+01 1.735533e+00 1.600830e+00 1.447098e+00 2.598743e+00 1.845579e+00 2.421639e+00 2.403783e+00 2.352990e+00 1.587414e+00 2.088638e+00 1.555024e+00 1.832671e+00 1.889590e+00
<GCONST> 9.909042e+01
<STATE> 3
<MEAN> 25
 5.944319e-01 -2.455506e-01 3.938512e-01 1.934187e+00 -8.629001e-01 -5.989066e-01 -4.245865e-01 4.348708e-01 1.996983e-01 -2.668450e-01 2.656208e-01 4.843743e-01 -1.282597e-01 -3.280174e-03 -7.314104e-02 -7.702059e-03 8.164605e-02 1.210140e-01 1.288035e-01 9.444304e-02 1.217614e-01 4.126504e-02 1.117533e-01 1.791802e-01 -2.162478e-01
<VARIANCE> 25
 5.109837e+01 2.290985e+01 1.835120e+01 9.050835e+01 3.433208e+01 6.627988e+01 5.213795e+01 3.704639e+01 4.153279e+01 3.236330e+01 3.253614e+01 4.323119e+01 1.672819e+00 1.452048e+00 1.343969e+00 2.534432e+00 1.797681e+00 2.360379e+00 2.289366e+00 2.128158e+00 1.524731e+00 1.984337e+00 1.489507e+00 1.868003e+00 1.658244e+00
<GCONST> 9.795396e+01
<STATE> 4
<MEAN> 25
 -5.443662e-02 -2.692120e-01 -1.019352e-02 1.686954e+00 -4.723501e-01 1.170240e-01 3.113497e-01 9.773993e-01 8.379661e-01 -8.125151e-02 8.156747e-01 1.378266e+00 -1.380222e-01 1.860875e-03 -6.390622e-02 -4.947782e-02 9.161845e-02 1.435327e-01 1.359315e-01 7.678106e-02 9.901496e-02 5.562132e-02 1.087035e-01 1.430322e-01 -2.014079e-01
<VARIANCE> 25
 5.281776e+01 2.083395e+01 1.512913e+01 9.669335e+01 3.345668e+01 6.472400e+01 4.883527e+01 3.089186e+01 3.897421e+01 3.066837e+01 2.965688e+01 3.922972e+01 1.585606e+00 1.268943e+00 1.213124e+00 2.551600e+00 1.700850e+00 2.247257e+00 2.126217e+00 1.919024e+00 1.470074e+00 1.856860e+00 1.417136e+00 1.920107e+00 1.439175e+00
<GCONST> 9.632848e+01
<TRANSP> 5
 0.000000e+00 1.000000e+00 0.000000e+00 0.000000e+00 0.000000e+00
 0.000000e+00 7.559314e-01 2.440686e-01 0.000000e+00 0.000000e+00
 0.000000e+00 0.000000e+00 7.559316e-01 2.440684e-01 0.000000e+00
 0.000000e+00 0.000000e+00 0.000000e+00 8.802658e-01 1.197342e-01
 0.000000e+00 0.000000e+00 0.000000e+00 0.000000e+00 0.000000e+00
<ENDHMM>
~h "eh"
<BEGINHMM>
<NUMSTATES> 5
<STATE> 2
<MEAN> 25
 1.962797e-01 -1.766928e-01 4.647724e-01 3.265231e-02 -2.737387e-01 -1.192067e+00 -3.292411e-01 1.177641e-01 -3.611746e-01 -5.695721e-01 -7.884625e-01 -6.314383e-01 -1.964459e-02 1.599662e-02 -2.797727e-02 -1.017378e-02 2.973655e-02 2.369300e-02 1.536458e-02 5.110948e-03 9.450297e-03 1.377502e-02 1.340867e-02 2.639571e-02 -4.771008e-02
<VARIANCE> 25
 6.559103e+01 2.662854e+01 5.194371e+01 4.434416e+01 4.372112e+01 5.802885e+01 4.722344e+01 4.443809e+01 5.567125e+01 3.141392e+01 3.011691e+01 4.456180e+01 2.166631e+00 1.506727e+00 1.808207e+00 2.326328e+00 2.405444e+00 3.039065e+00 2.669168e+00 2.817777e+00 2.794792e+00 2.424374e+00 1.947478e+00 2.114685e+00 2.453837e+00
<GCONST> 1.021641e+02
<STATE> 3
<MEAN> 25
 8.420754e-02 -1.226373e-01 3.230313e-01 -3.933002e-03 -1.343842e-01 -1.073915e+00 -2.367379e-01 1.579899e-01 -2.795691e-01 -4.903137e-01 -7.031796e-01 -4.862423e-01 -2.447382e-02 1.287771e-02 -2.937395e-02 -7.369331e-03 3.273788e-02 2.966716e-02 2.289697e-02 7.705810e-03 1.928343e-02 2.121385e-02 2.021121e-02 3.464209e-02 -5.998949e-02
<VARIANCE> 25
 6.510384e+01 2.610401e+01 5.152594e+01 4.443454e+01 4.332712e+01 5.680031e+01 4.758874e+01 4.377147e+01 5.530826e+01 3.153153e+01 3.019011e+01 4.429297e+01 2.134000e+00 1.486243e+00 1.767592e+00 2.330741e+00 2.353280e+00 2.971822e+00 2.667717e+00 2.769702e+00 2.753378e+00 2.411409e+00 1.932968e+00 2.109058e+00 2.358165e+00
<GCONST> 1.019045e+02
<STATE> 4
<MEAN> 25
 -8.387271e-02 -1.033245e-01 1.268317e-01 -1.426942e-02 1.136369e-01 -7.968650e-01 -5.146532e-02 2.037952e-01 -1.347648e-02 -3.793532e-01 -4.464069e-01 -2.613409e-01 -3.298243e-02 1.471195e-03 -2.818487e-02 -9.279312e-06 3.396064e-02 3.508307e-02 2.949404e-02 1.489743e-02 3.702341e-02 2.647650e-02 2.924134e-02 4.265864e-02 -6.943124e-02
<VARIANCE> 25
 6.324151e+01 2.483394e+01 5.040102e+01 4.307724e+01 4.195528e+01 5.527132e+01 4.783130e+01 4.222191e+01 5.483139e+01 3.242008e+01 2.969153e+01 4.479468e+01 2.051009e+00 1.428467e+00 1.694094e+00 2.299855e+00 2.256667e+00 2.863090e+00 2.654974e+00 2.677917e+00 2.689074e+00 2.389606e+00 1.912858e+00 2.086473e+00 2.208113e+00
<GCONST> 1.013233e+02
<TRANSP> 5
 0.000000e+00 1.000000e+00 0.000000e+00 0.000000e+00 0.000000e+00
 0.000000e+00 7.788429e-01 2.211570e-01 0.000000e+00 0.000000e+00
 0.000000e+00 0.000000e+00 7.788426e-01 2.211574e-01 0.000000e+00
 0.000000e+00 0.000000e+00 0.000000e+00 9.097061e-01 9.029393e-02
 0.000000e+00 0.000000e+00 0.000000e+00 0.000000e+00 0.000000e+00
<ENDHMM>
~h "er"
<BEGINHMM>
<NUMSTATES> 5
<STATE> 2
<MEAN> 25
 1.281116e+00 6.745449e-02 4.266218e-01 1.365150e+00 3.872823e-01 -1.565159e+00 -1.031115e+00 -3.523305e-01 1.213715e-01 -6.561510e-01 -2.015443e-01 1.028502e-01 -7.168765e-02 2.505937e-02 3.454057e-02 6.691371e-03 7.214140e-03 7.011771e-02 7.029204e-02 -8.573865e-03 -1.225044e-02 3.664475e-02 2.352149e-02 -9.429653e-03 -8.308041e-02
<VARIANCE> 25
 6.505005e+01 2.236814e+01 5.811392e+01 3.847635e+01 5.165445e+01 7.979573e+01 8.135849e+01 4.655739e+01 5.601266e+01 3.776075e+01 2.617031e+01 3.977462e+01 2.427861e+00 1.326247e+00 1.593894e+00 1.907040e+00 2.533967e+00 3.095604e+00 3.248099e+00 2.807070e+00 2.806572e+00 2.258605e+00 1.848622e+00 2.058861e+00 1.409337e+00
<GCONST> 1.021880e+02
<STATE> 3
<MEAN> 25
 9.657329e-01 1.846373e-01 5.600370e-01 1.380039e+00 4.208425e-01 -1.241155e+00 -7.223269e-01 -3.920490e-01 7.486211e-02 -4.862897e-01 -1.116081e-01 5.981864e-02 -7.972815e-02 2.554903e-02 2.483355e-02 4.106733e-03 4.992777e-03 7.997535e-02 7.460905e-02 -8.060530e-03 -7.951970e-03 4.370388e-02 1.939819e-02 -1.411569e-02 -8.272744e-02
<VARIANCE> 25
 6.325991e+01 2.210651e+01 5.685419e+01 3.680123e+01 5.069374e+01 7.744917e+01 7.703346e+01 4.750418e+01 5.650626e+01 3.748140e+01 2.583166e+01 4.053683e+01 2.340672e+00 1.283200e+00 1.560525e+00 1.866506e+00 2.482259e+00 2.996901e+00 3.113556e+00 2.793783e+00 2.814647e+00 2.253942e+00 1.808554e+00 2.034912e+00 1.394390e+00
<GCONST> 1.017503e+02
<STATE> 4
<MEAN> 25
 5.139340e-01 3.695086e-01 6.920484e-01 1.338932e+00 4.675244e-01 -7.927102e-01 -2.651134e-01 -4.906423e-01 7.021870e-03 -2.879399e-01 -2.150589e-02 -1.130306e-02 -7.942712e-02 2.431137e-02 1.305763e-02 8.795187e-04 3.135945e-03 8.197193e-02 6.819841e-02 -4.160044e-04 3.642324e-03 4.103498e-02 1.464328e-02 -1.573004e-02 -7.037945e-02
<VARIANCE> 25
 5.903152e+01 2.216182e+01 5.744119e+01 3.431845e+01 4.946142e+01 7.466286e+01 6.861911e+01 4.844641e+01 5.656157e+01 3.757812e+01 2.553329e+01 4.108117e+01 2.233279e+00 1.218381e+00 1.577330e+00 1.804124e+00 2.472413e+00 2.866379e+00 2.903931e+00 2.686822e+00 2.784935e+00 2.248026e+00 1.742306e+00 1.976694e+00 1.410382e+00
<GCONST> 1.011245e+02
<TRANSP> 5
 0.000000e+00 1.000000e+00 0.000000e+00 0.000000e+00 0.000000e+00
 0.000000e+00 7.697361e-01 2.302639e-01 0.000000e+00 0.000000e+00
 0.000000e+00 0.000000e+00 7.697361e-01 2.302640e-01 0.000000e+00
 0.000000e+00 0.000000e+00 0.000000e+00 8.984559e-01 1.015441e-01
 0.000000e+00 0.000000e+00 0.000000e+00 0.000000e+00 0.000000e+00
<ENDHMM>
~h "ey"
<BEGINHMM>
<NUMSTATES> 5
<STATE> 2
<MEAN> 25
 8.226593e-02 1.463368e-01 2.063199e+00 -2.012257e-01 -1.309610e+00 3.727219e-01 -9.496742e-01 -5.046093e-01 -1.454428e+00 1.276570e-01 3.482160e-01 -3.021797e-01 -1.985453e-03 -6.805999e-03 -2.142423e-02 4.102076e-03 9.044674e-03 -1.713457e-02 1.303500e-02 1.483672e-02 1.175532e-02 -7.606362e-03 8.814476e-03 1.046646e-02 3.387262e-03
<VARIANCE> 25
 5.112206e+01 2.573794e+01 8.045341e+01 3.509870e+01 6.737633e+01 4.566569e+01 5.428295e+01 4.616773e+01 7.563097e+01 3.394534e+01 2.535954e+01 4.116618e+01 1.648566e+00 1.487545e+00 2.260329e+00 1.891307e+00 2.806536e+00 2.628219e+00 2.558350e+00 2.897556e+00 3.369768e+00 2.423999e+00 1.909914e+00 1.724728e+00 1.875230e+00
<GCONST> 1.020069e+02
<STATE> 3
<MEAN> 25
 7.027836e-02 1.238092e-01 1.956437e+00 -1.856447e-01 -1.263552e+00 2.939304e-01 -8.843502e-01 -4.419103e-01 -1.401441e+00 8.847206e-02 3.822086e-01 -2.632790e-01 -4.407540e-03 -4.911786e-03 -2.702542e-02 4.264269e-03 1.209060e-02 -2.006088e-02 1.704942e-02 1.560486e-02 1.208265e-02 -7.867272e-03 8.133665e-03 8.480187e-03 5.134325e-03
<VARIANCE> 25
 5.149318e+01 2.634522e+01 8.054644e+01 3.480579e+01 6.705814e+01 4.596566e+01 5.404821e+01 4.597497e+01 7.575705e+01 3.407344e+01 2.552316e+01 4.134530e+01 1.681267e+00 1.524903e+00 2.278542e+00 1.896635e+00 2.823586e+00 2.643142e+00 2.574089e+00 2.897510e+00 3.401223e+00 2.421077e+00 1.926824e+00 1.742368e+00 1.908444e+00
<GCONST> 1.021575e+02
<STATE> 4
<MEAN> 25
 -1.703162e-02 1.394417e-01 1.663258e+00 -2.720472e-01 -1.083479e+00 2.998196e-01 -6.429813e-01 -2.741175e-01 -1.322232e+00 4.274847e-02 4.044838e-01 -2.742957e-01 -4.768474e-03 -5.293380e-04 -3.816640e-02 7.301649e-03 1.921171e-02 -1.816759e-02 2.164682e-02 1.442993e-02 1.419330e-02 -8.649761e-03 5.009679e-03 4.549747e-03 5.377030e-04
<VARIANCE> 25
 5.221444e+01 2.663607e+01 7.982427e+01 3.404704e+01 6.477988e+01 4.549510e+01 5.276417e+01 4.370248e+01 7.474615e+01 3.414153e+01 2.560100e+01 4.166058e+01 1.698479e+00 1.522248e+00 2.244203e+00 1.884751e+00 2.780081e+00 2.630644e+00 2.535324e+00 2.802182e+00 3.441043e+00 2.356666e+00 1.950887e+00 1.782188e+00 1.936092e+00
<GCONST> 1.019831e+02
<TRANSP> 5
 0.000000e+00 1.000000e+00 0.000000e+00 0.000000e+00 0.000000e+00
 0.000000e+00 7.777410e-01 2.222590e-01 0.000000e+00 0.000000e+00
 0.000000e+00 0.000000e+00 7.777414e-01 2.222586e-01 0.000000e+00
 0.000000e+00 0.000000e+00 0.000000e+00 9.103304e-01 8.966962e-02
 0.000000e+00 0.000000e+00 0.000000e+00 0.000000e+00 0.000000e+00
<ENDHMM>
~h "hh"
<BEGINHMM>
<NUMSTATES> 5
<STATE> 2
<MEAN> 25
 -7.532072e-02 -4.029851e-01 1.010382e-01 1.200673e-01 -2.384367e-01 3.725559e-01 4.734551e-01 1.972591e-02 6.513720e-01 -3.111457e-01 -4.380260e-02 -3.356742e-01 -7.807193e-02 3.969648e-02 -3.765865e-02 3.080302e-02 7.653753e-02 1.812931e-03 7.494930e-02 7.782570e-03 3.944893e-02 2.204922e-02 -1.321726e-02 7.050534e-02 -1.148207e-01
<VARIANCE> 25
 6.254774e+01 2.918539e+01 3.527676e+01 4.986803e+01 4.282960e+01 4.512734e+01 5.363194e+01 4.109967e+01 4.113730e+01 2.904676e+01 2.954054e+01 5.790773e+01 1.381458e+00 1.565937e+00 1.395478e+00 2.626850e+00 2.250357e+00 2.517684e+00 2.468534e+00 2.625264e+00 2.178796e+00 2.489201e+00 2.236803e+00 1.916336e+00 1.908868e+00
<GCONST> 1.001910e+02
<STATE> 3
<MEAN> 25
 -3.826301e-01 -2.485925e-01 -6.237887e-02 2.072902e-01 7.295022e-02 3.933507e-01 7.491026e-01 3.726466e-02 7.852526e-01 -2.188048e-01 -9.073283e-02 -6.145091e-02 -6.646152e-02 3.604595e-02 -3.676984e-02 1.768320e-02 7.105543e-02 6.002736e-03 5.970487e-02 3.587986e-03 2.642824e-02 2.266672e-02 -9.501590e-03 6.409305e-02 -8.843977e-02
<VARIANCE> 25
 6.367380e+01 2.879003e+01 3.412886e+01 4.849725e+01 3.982112e+01 4.381953e+01 5.391231e+01 4.051262e+01 4.067657e+01 2.858122e+01 2.863687e+01 5.646238e+01 1.408704e+00 1.546686e+00 1.398413e+00 2.569694e+00 2.160159e+00 2.481846e+00 2.487183e+00 2.598313e+00 2.203392e+00 2.431777e+00 2.175919e+00 1.917601e+00 1.873052e+00
<GCONST> 9.981033e+01
<STATE> 4
<MEAN> 25
 -4.456069e-01 -1.051265e-01 -3.497878e-01 1.043815e-01 3.561942e-01 4.063622e-01 8.753417e-01 6.619477e-02 7.241185e-01 -9.232718e-02 -1.619512e-01 9.554845e-02 -2.628329e-02 2.695167e-02 -3.635934e-02 -8.566704e-03 4.426423e-02 3.068266e-03 2.245420e-02 1.034475e-03 -6.042803e-04 1.792264e-02 -4.627149e-03 3.164648e-02 -2.519784e-02
<VARIANCE> 25
 6.583349e+01 2.840889e+01 3.182158e+01 5.071041e+01 3.558358e+01 4.197036e+01 5.709251e+01 3.971998e+01 4.078918e+01 2.794002e+01 2.822751e+01 5.539392e+01 1.509677e+00 1.569759e+00 1.414668e+00 2.698925e+00 2.051496e+00 2.539049e+00 2.638756e+00 2.615947e+00 2.282476e+00 2.418231e+00 2.098511e+00 2.050817e+00 1.922128e+00
<GCONST> 9.990170e+01
<TRANSP> 5
 0.000000e+00 1.000000e+00 0.000000e+00 0.000000e+00 0.000000e+00
 0.000000e+00 7.711870e-01 2.288130e-01 0.000000e+00 0.000000e+00
 0.000000e+00 0.000000e+00 7.711874e-01 2.288127e-01 0.000000e+00
 0.000000e+00 0.000000e+00 0.000000e+00 8.992675e-01 1.007325e-01
 0.000000e+00 0.000000e+00 0.000000e+00 0.000000e+00 0.000000e+00
<ENDHMM>
~h "ih"
<BEGINHMM>
<NUMSTATES> 5
<STATE> 2
<MEAN> 25
 -9.028171e-01 5.558826e-01 5.474277e-01 4.623368e-01 -1.974649e-01 -1.044490e+00 6.298247e-01 -5.247003e-01 -2.588815e-01 4.181706e-01 -8.052777e-03 -5.790338e-02 -8.454290e-03 -2.058739e-02 -3.517722e-02 -1.452525e-02 8.580660e-03 3.074686e-02 7.481231e-03 3.282664e-02 3.880968e-02 2.262808e-02 1.156620e-02 6.100822e-03 -3.267399e-02
<VARIANCE> 25
 6.125227e+01 2.515733e+01 5.006822e+01 3.744297e+01 4.797293e+01 5.050586e+01 5.321040e+01 4.362677e+01 6.374790e+01 2.653998e+01 2.678743e+01 4.239986e+01 1.849512e+00 1.523742e+00 1.930383e+00 2.121175e+00 2.620464e+00 2.655191e+00 2.271300e+00 2.947609e+00 3.269871e+00 2.143788e+00 1.967268e+00 1.811353e+00 2.658782e+00
<GCONST> 1.013175e+02
<STATE> 3
<MEAN> 25
 -9.492317e-01 4.700168e-01 3.421522e-01 3.730803e-01 -1.399360e-01 -9.003015e-01 6.623483e-01 -3.815784e-01 -6.300545e-02 5.287637e-01 5.224997e-02 -2.321313e-02 -1.306256e-02 -1.856602e-02 -4.766793e-02 -2.280633e-02 1.441273e-02 3.242267e-02 6.856439e-03 3.160269e-02 4.548653e-02 2.304410e-02 1.350563e-02 8.537784e-03 -3.061989e-02
<VARIANCE> 25
 5.967053e+01 2.485689e+01 4.870955e+01 3.730865e+01 4.842720e+01 4.872324e+01 5.352753e+01 4.312302e+01 6.192022e+01 2.623317e+01 2.712038e+01 4.267268e+01 1.820054e+00 1.515594e+00 1.924717e+00 2.113354e+00 2.596903e+00 2.607609e+00 2.248273e+00 2.926032e+00 3.205000e+00 2.133615e+00 1.972901e+00 1.826951e+00 2.686245e+00
<GCONST> 1.011183e+02
<STATE> 4
<MEAN> 25
 -1.134137e+00 4.098167e-01 -1.521688e-01 1.022058e-01 2.962516e-02 -7.777074e-01 7.666625e-01 -1.787120e-01 2.601802e-01 7.039378e-01 7.727071e-02 1.706366e-02 -1.161558e-02 -1.423164e-02 -5.134262e-02 -1.590295e-02 2.841038e-02 3.400179e-02 9.713211e-03 2.847285e-02 4.488192e-02 2.000035e-02 1.169785e-02 1.223116e-02 -4.018953e-02
<VARIANCE> 25
 5.879986e+01 2.535932e+01 4.809520e+01 3.755709e+01 4.847102e+01 4.588125e+01 5.248915e+01 4.133959e+01 5.843934e+01 2.574407e+01 2.772046e+01 4.215243e+01 1.815337e+00 1.511239e+00 1.907808e+00 2.081386e+00 2.471823e+00 2.481675e+00 2.218358e+00 2.806532e+00 3.087879e+00 2.110243e+00 1.979101e+00 1.848787e+00 2.623229e+00
<GCONST> 1.006890e+02
<TRANSP> 5
 0.000000e+00 1.000000e+00 0.000000e+00 0.000000e+00 0.000000e+00
 0.000000e+00 7.726036e-01 2.273964e-01 0.000000e+00 0.000000e+00
 0.000000e+00 0.000000e+00 7.726038e-01 2.273962e-01 0.000000e+00
 0.000000e+00 0.000000e+00 0.000000e+00 9.040514e-01 9.594859e-02
 0.000000e+00 0.000000e+00 0.000000e+00 0.000000e+00 0.000000e+00
<ENDHMM>
~h "iy"
<BEGINHMM>
<NUMSTATES> 5
<STATE> 2
<MEAN> 25
 -4.071301e-01 6.906195e-01 2.511908e+00 5.982819e-02 -1.049477e+00 -5.519977e-01 -1.394738e+00 -6.567941e-01 -8.852096e-01 -3.225603e-01 4.723204e-01 -2.972831e-01 2.979770e-02 -8.988356e-04 -3.163148e-02 -8.729195e-03 6.332665e-05 2.777489e-03 -2.870310e-03 2.257159e-03 2.102451e-03 1.092187e-02 5.468089e-03 -9.847753e-03 -2.673103e-03
<VARIANCE> 25
 6.136470e+01 2.852392e+01 9.720869e+01 4.703287e+01 5.985287e+01 4.680849e+01 5.971210e+01 3.787008e+01 6.569422e+01 3.045900e+01 2.361950e+01 4.447119e+01 1.821623e+00 1.246510e+00 2.115773e+00 2.178735e+00 2.593791e+00 2.275389e+00 2.378059e+00 2.147274e+00 2.738817e+00 2.020038e+00 1.826299e+00 2.242029e+00 1.589441e+00
<GCONST> 1.013998e+02
<STATE> 3
<MEAN> 25
 -2.547877e-01 6.774969e-01 2.322200e+00 2.470019e-02 -1.031149e+00 -5.411128e-01 -1.390719e+00 -6.257080e-01 -8.628437e-01 -2.670872e-01 4.920374e-01 -3.348588e-01 3.543460e-02 -2.979706e-03 -4.068290e-02 -1.091815e-02 1.894108e-03 3.443084e-03 -1.309842e-03 5.796794e-03 2.695856e-03 1.237935e-02 4.125318e-03 -8.501044e-03 -4.426374e-03
<VARIANCE> 25
 6.116400e+01 2.860079e+01 9.646454e+01 4.825501e+01 5.978686e+01 4.647283e+01 5.940525e+01 3.743111e+01 6.643734e+01 3.033607e+01 2.329424e+01 4.451769e+01 1.805424e+00 1.235923e+00 2.084700e+00 2.189862e+00 2.589961e+00 2.260118e+00 2.359180e+00 2.145006e+00 2.734875e+00 2.010516e+00 1.813408e+00 2.249253e+00 1.555411e+00
<GCONST> 1.013104e+02
<STATE> 4
<MEAN> 25
 1.724966e-02 6.012889e-01 1.642489e+00 -2.227775e-02 -8.969042e-01 -5.003867e-01 -1.279414e+00 -4.263475e-01 -7.528411e-01 -1.875036e-01 5.026854e-01 -3.168222e-01 3.263141e-02 -4.825876e-03 -4.935458e-02 -1.236283e-02 6.163244e-03 5.925111e-03 5.477583e-03 9.636128e-03 8.067195e-03 1.110742e-02 6.118263e-04 -4.210174e-03 -6.264402e-03
<VARIANCE> 25
 6.020082e+01 2.869103e+01 9.040533e+01 4.951656e+01 5.904488e+01 4.537989e+01 5.755995e+01 3.566284e+01 6.642843e+01 3.026148e+01 2.290601e+01 4.450787e+01 1.723442e+00 1.187541e+00 1.951284e+00 2.118168e+00 2.531332e+00 2.229381e+00 2.272518e+00 2.099470e+00 2.649705e+00 1.962332e+00 1.786055e+00 2.187060e+00 1.439165e+00
<GCONST> 1.006647e+02
<TRANSP> 5
 0.000000e+00 1.000000e+00 0.000000e+00 0.000000e+00 0.000000e+00
 0.000000e+00 7.920809e-01 2.079191e-01 0.000000e+00 0.000000e+00
 0.000000e+00 0.000000e+00 7.920808e-01 2.079191e-01 0.000000e+00
 0.000000e+00 0.000000e+00 0.000000e+00 9.255853e-01 7.441472e-02
 0.000000e+00 0.000000e+00 0.000000e+00 0.000000e+00 0.000000e+00
<ENDHMM>
~h "jh"
<BEGINHMM>
<NUMSTATES> 5
<STATE> 2
<MEAN> 25
 2.272231e+00 -1.663676e+00 1.118109e+00 -5.103393e-01 -1.470777e+00 -1.418548e+00 -1.700346e+00 3.282597e-02 -1.032118e+00 -6.994554e-01 -8.237956e-01 -2.423521e+00 8.898642e-02 -3.118073e-02 1.811529e-01 -5.213865e-02 -8.202443e-02 -1.254097e-01 -1.125705e-01 -2.417859e-02 -2.163252e-01 -9.670255e-02 -6.877820e-02 -1.239985e-01 2.332789e-01
<VARIANCE> 25
 6.277045e+01 3.455005e+01 5.085857e+01 3.196397e+01 3.702332e+01 5.174596e+01 4.973969e+01 4.293842e+01 6.338926e+01 2.192282e+01 2.001917e+01 5.448502e+01 2.920289e+00 1.753363e+00 2.058104e+00 2.869054e+00 2.962169e+00 4.519153e+00 2.112093e+00 4.494161e+00 3.669511e+00 1.754858e+00 1.847819e+00 2.296079e+00 5.639176e+00
<GCONST> 1.037695e+02
<STATE> 3
<MEAN> 25
 2.530712e+00 -1.688026e+00 1.907726e+00 -7.065223e-01 -1.775791e+00 -1.926262e+00 -2.101472e+00 -8.298615e-02 -1.909958e+00 -1.096314e+00 -1.091876e+00 -2.834385e+00 4.668507e-02 -3.569919e-05 1.820294e-01 -4.328772e-02 -6.805924e-02 -1.158978e-01 -8.649567e-02 -2.695918e-02 -2.025920e-01 -8.961224e-02 -6.269797e-02 -8.339987e-02 1.634497e-01
<VARIANCE> 25
 6.428078e+01 3.745527e+01 5.585286e+01 3.428810e+01 3.865386e+01 5.396412e+01 4.773976e+01 4.576306e+01 6.692104e+01 2.265660e+01 2.070681e+01 5.253625e+01 3.156831e+00 1.855992e+00 2.202689e+00 3.048592e+00 3.003963e+00 4.636913e+00 2.179534e+00 4.483653e+00 3.828573e+00 1.774790e+00 1.798651e+00 2.318777e+00 5.619605e+00
<GCONST> 1.045954e+02
<STATE> 4
<MEAN> 25
 2.522502e+00 -1.371819e+00 3.088368e+00 -1.018347e+00 -2.102217e+00 -2.665559e+00 -2.558149e+00 -3.164753e-01 -3.088618e+00 -1.553597e+00 -1.441288e+00 -3.076461e+00 -2.607825e-02 5.292854e-02 1.424664e-01 -3.466827e-02 -3.072274e-02 -8.669017e-02 -4.185268e-02 -3.857541e-02 -1.508649e-01 -5.796358e-02 -5.041734e-02 -1.050691e-02 5.460885e-02
<VARIANCE> 25
 6.794650e+01 3.995661e+01 6.120665e+01 3.894390e+01 4.110039e+01 5.633051e+01 4.557587e+01 4.844942e+01 6.963835e+01 2.455147e+01 2.247791e+01 4.745064e+01 3.561748e+00 2.032494e+00 2.427733e+00 3.342085e+00 3.080318e+00 4.662566e+00 2.313350e+00 4.326033e+00 4.061213e+00 1.887076e+00 1.744462e+00 2.313907e+00 5.550688e+00
<GCONST> 1.056801e+02
<TRANSP> 5
 0.000000e+00 1.000000e+00 0.000000e+00 0.000000e+00 0.000000e+00
 0.000000e+00 7.558312e-01 2.441688e-01 0.000000e+00 0.000000e+00
 0.000000e+00 0.000000e+00 7.558312e-01 2.441688e-01 0.000000e+00
 0.000000e+00 0.000000e+00 0.000000e+00 8.798939e-01 1.201061e-01
 0.000000e+00 0.000000e+00 0.000000e+00 0.000000e+00 0.000000e+00
<ENDHMM>
~h "ng"
<BEGINHMM>
<NUMSTATES> 5
<STATE> 2
<MEAN> 25
 -1.205843e+00 -8.977079e-01 -1.574169e+00 2.260933e+00 2.932690e+00 5.557619e-01 2.351777e+00 4.242626e-01 2.969711e+00 1.761003e+00 4.312680e-01 1.800556e+00 -4.402193e-02 -1.907959e-02 -9.622721e-02 -3.592104e-02 3.737301e-02 1.171813e-02 1.273214e-02 4.350329e-02 8.932728e-02 1.324802e-02 2.793388e-02 5.713219e-02 -9.103132e-04
<VARIANCE> 25
 5.121303e+01 1.805273e+01 3.729511e+01 3.854256e+01 3.090526e+01 3.697010e+01 5.229092e+01 3.919501e+01 5.176830e+01 2.487280e+01 2.607868e+01 4.461207e+01 1.302230e+00 9.619110e-01 1.346730e+00 1.412562e+00 1.691434e+00 2.022279e+00 2.091409e+00 2.227258e+00 2.117616e+00 1.803870e+00 1.910907e+00 1.784615e+00 1.133580e+00
<GCONST> 9.526204e+01
<STATE> 3
<MEAN> 25
 -1.391558e+00 -9.742110e-01 -1.998157e+00 2.087679e+00 3.069767e+00 6.308934e-01 2.408123e+00 6.074426e-01 3.341853e+00 1.816690e+00 5.534518e-01 2.044731e+00 -2.936101e-02 -7.355927e-03 -8.797666e-02 -3.877515e-02 1.443366e-02 1.370188e-02 2.405742e-03 3.017652e-02 6.259301e-02 5.632866e-03 2.009929e-02 3.904276e-02 2.384030e-02
<VARIANCE> 25
 5.328423e+01 1.789801e+01 3.698912e+01 4.232840e+01 3.076512e+01 3.768871e+01 5.348001e+01 3.712746e+01 4.816657e+01 2.516233e+01 2.584268e+01 4.288771e+01 1.370520e+00 9.915482e-01 1.333338e+00 1.424667e+00 1.721708e+00 2.052357e+00 2.116177e+00 2.185447e+00 2.079179e+00 1.829785e+00 1.923442e+00 1.752255e+00 1.196054e+00
<GCONST> 9.539566e+01
<STATE> 4
<MEAN> 25
 -1.405253e+00 -1.081707e+00 -2.494830e+00 2.049517e+00 3.131518e+00 8.113442e-01 2.556707e+00 6.583461e-01 3.640817e+00 1.914106e+00 5.953578e-01 2.237289e+00 -2.002358e-02 4.566368e-03 -6.668624e-02 -4.041385e-02 -1.095536e-02 2.414415e-02 3.012524e-03 1.755277e-02 3.751992e-02 7.602649e-04 1.290987e-02 2.797966e-02 2.913349e-02
<VARIANCE> 25
 5.338065e+01 1.760573e+01 3.721912e+01 5.084286e+01 3.146116e+01 3.621758e+01 5.076229e+01 3.553617e+01 4.468454e+01 2.520898e+01 2.532730e+01 4.200757e+01 1.336219e+00 1.006440e+00 1.311525e+00 1.443269e+00 1.773433e+00 2.066202e+00 2.057708e+00 2.095211e+00 2.032924e+00 1.845225e+00 1.893433e+00 1.659366e+00 1.209236e+00
<GCONST> 9.522186e+01
<TRANSP> 5
 0.000000e+00 1.000000e+00 0.000000e+00 0.000000e+00 0.000000e+00
 0.000000e+00 7.814735e-01 2.185265e-01 0.000000e+00 0.000000e+00
 0.000000e+00 0.000000e+00 7.814735e-01 2.185266e-01 0.000000e+00
 0.000000e+00 0.000000e+00 0.000000e+00 9.137174e-01 8.628251e-02
 0.000000e+00 0.000000e+00 0.000000e+00 0.000000e+00 0.000000e+00
<ENDHMM>
~h "ow"
<BEGINHMM>
<NUMSTATES> 5
<STATE> 2
<MEAN> 25
 1.834981e+00 4.083475e-01 -1.624588e+00 -5.076652e-01 -8.640164e-01 9.440063e-01 -1.382914e+00 -3.350859e-01 -8.200305e-01 -2.706150e-01 -2.657356e-02 2.046000e-02 -7.981736e-03 1.099842e-02 3.396206e-02 2.782064e-02 5.417623e-03 -1.310910e-02 1.516529e-02 3.773757e-03 -1.418203e-02 -1.728509e-02 -1.963171e-02 -2.093908e-02 2.045787e-04
<VARIANCE> 25
 7.181939e+01 2.519081e+01 3.452337e+01 4.423095e+01 3.894400e+01 4.909804e+01 5.048190e+01 3.573286e+01 5.689793e+01 3.404295e+01 3.310134e+01 4.038108e+01 1.648366e+00 1.120746e+00 1.259564e+00 1.923740e+00 1.814552e+00 2.089773e+00 1.822396e+00 2.179850e+00 2.316551e+00 1.953367e+00 1.836727e+00 1.867520e+00 1.176298e+00
<GCONST> 9.771481e+01
<STATE> 3
<MEAN> 25
 1.756001e+00 4.593844e-01 -1.420012e+00 -3.491330e-01 -8.021603e-01 8.382298e-01 -1.276918e+00 -3.297265e-01 -8.706516e-01 -3.413312e-01 -1.259081e-01 -5.928873e-02 -2.274303e-02 1.350294e-02 4.788428e-02 4.292754e-02 1.800238e-02 -2.551822e-02 2.624025e-02 3.649771e-04 -1.007642e-02 -1.663295e-02 -2.156455e-02 -1.466547e-02 -8.167024e-03
<VARIANCE> 25
 7.236520e+01 2.508386e+01 3.560341e+01 4.344980e+01 3.903052e+01 4.954606e+01 5.021084e+01 3.632855e+01 5.647621e+01 3.391137e+01 3.327658e+01 4.057043e+01 1.669328e+00 1.136163e+00 1.273364e+00 1.902604e+00 1.819686e+00 2.079235e+00 1.841538e+00 2.225708e+00 2.321264e+00 1.956088e+00 1.844236e+00 1.872104e+00 1.189997e+00
<GCONST> 9.782890e+01
<STATE> 4
<MEAN> 25
 1.240567e+00 5.468286e-01 -8.015946e-01 5.762843e-02 -6.144022e-01 3.885828e-01 -8.987991e-01 -3.651956e-01 -8.469505e-01 -3.748822e-01 -3.441838e-01 -1.267159e-01 -4.950831e-02 1.303722e-02 5.671310e-02 5.070179e-02 3.383462e-02 -3.633650e-02 3.573665e-02 -2.947342e-03 5.079436e-03 -7.229372e-03 -1.694560e-02 8.223281e-04 -1.577986e-02
<VARIANCE> 25
 7.155921e+01 2.478047e+01 3.933027e+01 4.002536e+01 4.023495e+01 4.846493e+01 4.778182e+01 3.699386e+01 5.542052e+01 3.277260e+01 3.233323e+01 4.001593e+01 1.672573e+00 1.138842e+00 1.346250e+00 1.806693e+00 1.868425e+00 2.020466e+00 1.878614e+00 2.276992e+00 2.320736e+00 1.905133e+00 1.809162e+00 1.874525e+00 1.235672e+00
<GCONST> 9.774621e+01
<TRANSP> 5
 0.000000e+00 1.000000e+00 0.000000e+00 0.000000e+00 0.000000e+00
 0.000000e+00 7.925044e-01 2.074956e-01 0.000000e+00 0.000000e+00
 0.000000e+00 0.000000e+00 7.925050e-01 2.074950e-01 0.000000e+00
 0.000000e+00 0.000000e+00 0.000000e+00 9.264008e-01 7.359913e-02
 0.000000e+00 0.000000e+00 0.000000e+00 0.000000e+00 0.000000e+00
<ENDHMM>
~h "oy"
<BEGINHMM>
<NUMSTATES> 5
<STATE> 2
<MEAN> 25
 -4.738970e-01 2.394820e-02 3.388523e-01 4.276522e-01 4.670857e-01 6.615448e-01 6.924054e-01 1.591866e-01 5.583302e-01 8.595934e-02 1.620370e-01 1.712210e-01 -2.145664e-02 -1.335980e-02 -3.303631e-02 3.913817e-03 2.219319e-02 1.044552e-02 -1.183799e-03 3.963314e-03 2.986943e-02 1.887491e-02 2.168754e-02 2.947154e-02 -4.647785e-02
<VARIANCE> 25
 9.945055e+01 3.023010e+01 5.551161e+01 5.577404e+01 7.299808e+01 4.965632e+01 5.345214e+01 3.592354e+01 6.091492e+01 2.331247e+01 1.907343e+01 4.161490e+01 2.840721e+00 1.640802e+00 3.056220e+00 2.688787e+00 2.349510e+00 3.189858e+00 2.798726e+00 3.225363e+00 3.180713e+00 2.541745e+00 2.025871e+00 2.278166e+00 1.661214e+00
<GCONST> 1.036711e+02
<STATE> 3
<MEAN> 25
 -5.768211e-01 -4.110552e-02 1.552013e-01 4.333293e-01 5.682288e-01 6.993684e-01 6.783346e-01 1.810184e-01 6.899233e-01 1.801591e-01 2.735510e-01 3.197363e-01 -1.391235e-02 -1.269833e-02 -3.865075e-02 -3.852974e-03 1.171936e-02 5.797086e-03 -5.639282e-03 1.255162e-03 1.726353e-02 1.856296e-02 2.118373e-02 2.349799e-02 -3.443742e-02
<VARIANCE> 25
 9.736775e+01 2.984474e+01 5.427743e+01 5.477044e+01 7.189316e+01 4.825742e+01 5.298034e+01 3.504711e+01 5.984924e+01 2.304632e+01 1.918057e+01 4.050388e+01 2.792740e+00 1.614708e+00 3.042220e+00 2.647117e+00 2.311227e+00 3.134303e+00 2.765388e+00 3.184251e+00 3.169160e+00 2.515333e+00 2.015291e+00 2.270124e+00 1.638866e+00
<GCONST> 1.033199e+02
<STATE> 4
<MEAN> 25
 -5.963914e-01 -6.831796e-02 -1.964107e-01 3.299989e-01 6.343639e-01 7.692208e-01 6.229937e-01 2.412810e-01 6.983648e-01 2.954253e-01 4.193901e-01 4.685335e-01 -4.891679e-03 -8.802711e-03 -4.501608e-02 -1.140640e-02 2.059644e-03 2.460129e-03 -6.462974e-03 3.325179e-05 2.937236e-03 1.746381e-02 1.884791e-02 1.690114e-02 -2.644380e-02
<VARIANCE> 25
 9.588891e+01 2.961482e+01 5.289146e+01 5.434915e+01 7.169408e+01 4.677836e+01 5.231615e+01 3.377516e+01 5.848640e+01 2.277378e+01 1.949479e+01 3.997363e+01 2.691609e+00 1.590253e+00 3.028697e+00 2.619307e+00 2.284239e+00 3.053977e+00 2.680059e+00 3.115392e+00 3.199188e+00 2.497992e+00 2.014045e+00 2.268713e+00 1.582310e+00
<GCONST> 1.029561e+02
<TRANSP> 5
 0.000000e+00 1.000000e+00 0.000000e+00 0.000000e+00 0.000000e+00
 0.000000e+00 8.079816e-01 1.920184e-01 0.000000e+00 0.000000e+00
 0.000000e+00 0.000000e+00 8.079815e-01 1.920185e-01 0.000000e+00
 0.000000e+00 0.000000e+00 0.000000e+00 9.406320e-01 5.936790e-02
 0.000000e+00 0.000000e+00 0.000000e+00 0.000000e+00 0.000000e+00
<ENDHMM>
~h "sh"
<BEGINHMM>
<NUMSTATES> 5
<STATE> 2
<MEAN> 25
 -2.284599e+00 -7.577801e-02 3.955360e-01 2.085134e+00 1.450592e+00 7.837507e-01 2.842489e+00 7.019649e-01 2.666968e+00 3.658482e-01 3.509237e-01 1.776781e+00 -2.111349e-03 -3.096428e-02 -1.022065e-01 1.336469e-02 4.720508e-02 7.332193e-03 -1.021947e-02 5.159540e-02 5.468934e-02 2.537610e-02 3.529251e-02 6.487971e-02 -4.686046e-02
<VARIANCE> 25
 7.014714e+01 3.235238e+01 3.238647e+01 2.852026e+01 3.601824e+01 3.594547e+01 4.099889e+01 5.226961e+01 4.901620e+01 3.471346e+01 3.432950e+01 3.397223e+01 2.331105e+00 2.040250e+00 1.320616e+00 1.471941e+00 1.786273e+00 2.750236e+00 2.181975e+00 3.100343e+00 2.786958e+00 2.182176e+00 1.941752e+00 1.699690e+00 1.445893e+00
<GCONST> 9.893507e+01
<STATE> 3
<MEAN> 25
 -2.250293e+00 -2.013367e-01 -6.243174e-03 2.108383e+00 1.591019e+00 7.899997e-01 2.736600e+00 8.871156e-01 2.834093e+00 4.413452e-01 4.767357e-01 2.002675e+00 1.004920e-02 -3.745176e-02 -9.543989e-02 -5.125267e-03 2.690320e-02 -6.154540e-03 -3.365569e-02 3.903738e-02 3.433443e-02 1.039624e-02 2.997022e-02 5.381802e-02 -1.367984e-02
<VARIANCE> 25
 6.834973e+01 3.147026e+01 3.122202e+01 2.835694e+01 3.446573e+01 3.673027e+01 4.165118e+01 5.040339e+01 4.768478e+01 3.488530e+01 3.402594e+01 3.346314e+01 2.271462e+00 2.078839e+00 1.355660e+00 1.511194e+00 1.800789e+00 2.903314e+00 2.223818e+00 3.142337e+00 2.804739e+00 2.196855e+00 2.008061e+00 1.709989e+00 1.508398e+00
<GCONST> 9.898454e+01
<STATE> 4
<MEAN> 25
 -2.049509e+00 -4.770901e-01 -4.995508e-01 1.953746e+00 1.535271e+00 6.215175e-01 2.402026e+00 1.014195e+00 2.857122e+00 3.546157e-01 6.152264e-01 2.136301e+00 4.029793e-02 -3.723698e-02 -8.088360e-02 -2.456144e-02 2.701144e-03 -1.853107e-02 -6.645416e-02 1.974307e-02 -2.993757e-03 -6.083725e-03 1.839070e-02 2.939808e-02 2.627874e-02
<VARIANCE> 25
 6.973631e+01 3.005007e+01 3.159821e+01 3.043914e+01 3.407262e+01 3.792871e+01 4.381177e+01 4.835105e+01 4.713035e+01 3.542749e+01 3.372611e+01 3.388146e+01 2.288870e+00 2.065840e+00 1.482487e+00 1.627751e+00 1.904240e+00 3.144172e+00 2.343092e+00 3.270316e+00 2.884752e+00 2.238273e+00 2.094540e+00 1.760464e+00 1.615699e+00
<GCONST> 9.965781e+01
<TRANSP> 5
 0.000000e+00 1.000000e+00 0.000000e+00 0.000000e+00 0.000000e+00
 0.000000e+00 7.555096e-01 2.444904e-01 0.000000e+00 0.000000e+00
 0.000000e+00 0.000000e+00 7.555096e-01 2.444903e-01 0.000000e+00
 0.000000e+00 0.000000e+00 0.000000e+00 8.812794e-01 1.187206e-01
 0.000000e+00 0.000000e+00 0.000000e+00 0.000000e+00 0.000000e+00
<ENDHMM>
~h "th"
<BEGINHMM>
<NUMSTATES> 5
<STATE> 2
<MEAN> 25
 -4.969094e-01 -6.224523e-01 1.000632e+00 5.344135e-01 -1.881905e-01 6.757663e-01 -4.887636e-01 6.294668e-01 9.382965e-01 -1.970618e-01 1.295726e-01 2.524692e-01 7.953034e-03 8.905808e-03 2.743853e-03 -4.873749e-03 7.057085e-03 9.422280e-03 2.095195e-02 -2.507454e-03 -1.368648e-02 7.489097e-03 -7.814782e-04 1.717665e-02 -1.515355e-02
<VARIANCE> 25
 4.769434e+01 2.253796e+01 7.037270e+01 3.147820e+01 5.316224e+01 3.775616e+01 4.810029e+01 2.774860e+01 6.507523e+01 3.202329e+01 2.452722e+01 3.931591e+01 1.612977e+00 1.168998e+00 1.990063e+00 1.809843e+00 2.207790e+00 2.033416e+00 2.268890e+00 2.122849e+00 2.498312e+00 1.987460e+00 1.873926e+00 1.783749e+00 1.577156e+00
<GCONST> 9.819868e+01
<STATE> 3
<MEAN> 25
 -4.672301e-01 -5.732261e-01 1.002818e+00 5.047532e-01 -1.644535e-01 7.125893e-01 -3.846099e-01 6.135969e-01 8.679788e-01 -1.567430e-01 1.363973e-01 3.344962e-01 3.342794e-03 1.173036e-02 -3.470105e-04 -8.019553e-03 6.185177e-04 3.764712e-03 1.712357e-02 -4.677107e-03 -1.871359e-02 9.648668e-03 1.848758e-03 1.692281e-02 -5.620857e-03
<VARIANCE> 25
 4.774994e+01 2.295965e+01 6.900622e+01 3.191459e+01 5.341203e+01 3.819176e+01 4.724546e+01 2.770078e+01 6.397020e+01 3.164240e+01 2.422050e+01 3.816597e+01 1.593557e+00 1.157121e+00 1.948208e+00 1.819875e+00 2.238873e+00 2.029884e+00 2.253753e+00 2.122245e+00 2.477399e+00 1.970055e+00 1.863913e+00 1.746407e+00 1.564961e+00
<GCONST> 9.805341e+01
<STATE> 4
<MEAN> 25
 -3.592211e-01 -4.037318e-01 1.032256e+00 3.191337e-01 -2.709465e-01 6.794453e-01 -2.127462e-01 4.911824e-01 5.262006e-01 -1.480709e-01 1.361164e-01 3.761335e-01 -1.424723e-03 1.448584e-02 -1.241630e-02 -1.344292e-02 -6.891887e-03 -2.863279e-03 1.113609e-02 -4.571416e-03 -1.854923e-02 1.190801e-02 4.318360e-03 1.250865e-02 6.321967e-03
<VARIANCE> 25
 4.918697e+01 2.425990e+01 6.704288e+01 3.507693e+01 5.251252e+01 3.957449e+01 4.440823e+01 2.809109e+01 6.327794e+01 3.146827e+01 2.314380e+01 3.704079e+01 1.559327e+00 1.130737e+00 1.817479e+00 1.872310e+00 2.266176e+00 2.043604e+00 2.201348e+00 2.090936e+00 2.453420e+00 1.948951e+00 1.837673e+00 1.701537e+00 1.482899e+00
<GCONST> 9.786267e+01
<TRANSP> 5
 0.000000e+00 1.000000e+00 0.000000e+00 0.000000e+00 0.000000e+00
 0.000000e+00 7.922367e-01 2.077633e-01 0.000000e+00 0.000000e+00
 0.000000e+00 0.000000e+00 7.922367e-01 2.077634e-01 0.000000e+00
 0.000000e+00 0.000000e+00 0.000000e+00 9.254643e-01 7.453573e-02
 0.000000e+00 0.000000e+00 0.000000e+00 0.000000e+00 0.000000e+00
<ENDHMM>
~h "uh"
<BEGINHMM>
<NUMSTATES> 5
<STATE> 2
<MEAN> 25
 3.277794e+00 6.345523e-01 2.763933e+00 -5.043315e-01 -2.970831e+00 -1.342551e+00 -2.480676e+00 -1.273969e+00 -3.661674e+00 -2.552306e-01 6.058483e-01 -9.099293e-01 -3.042769e-02 1.204160e-02 1.043367e-01 -2.615315e-02 -1.623601e-01 -4.070407e-04 6.246667e-02 -7.700448e-02 -7.361288e-02 4.206784e-02 -8.198278e-02 -9.460528e-02 8.448359e-02
<VARIANCE> 25
 6.273833e+01 3.721184e+01 4.860328e+01 6.887479e+01 9.656276e+01 6.387687e+01 8.683253e+01 5.505822e+01 6.228837e+01 4.282346e+01 4.263421e+01 4.038160e+01 2.144943e+00 1.950816e+00 2.152184e+00 3.832609e+00 4.266475e+00 2.916651e+00 4.421154e+00 3.976945e+00 4.448426e+00 3.332933e+00 3.517175e+00 2.433348e+00 3.803273e+00
<GCONST> 1.094666e+02
<STATE> 3
<MEAN> 25
 3.133615e+00 6.735343e-01 3.133492e+00 -4.792768e-01 -3.536957e+00 -1.448117e+00 -2.281844e+00 -1.482173e+00 -3.867080e+00 -1.856743e-01 2.033948e-01 -1.228268e+00 -4.650866e-02 1.193025e-02 7.975966e-02 2.180521e-02 -1.140388e-01 -2.563508e-02 5.154930e-02 -4.582284e-02 -3.521204e-02 1.309556e-02 -9.774461e-02 -6.715028e-02 5.720832e-02
<VARIANCE> 25
 6.007752e+01 3.574375e+01 4.735881e+01 6.784160e+01 9.696965e+01 6.026227e+01 7.869016e+01 5.771107e+01 6.024931e+01 3.951904e+01 4.394126e+01 4.095134e+01 2.115007e+00 1.966168e+00 2.071701e+00 3.642824e+00 4.126804e+00 2.846612e+00 4.285095e+00 4.077239e+00 4.181055e+00 3.254046e+00 3.460284e+00 2.415284e+00 3.568496e+00
<GCONST> 1.088347e+02
<STATE> 4
<MEAN> 25
 2.855972e+00 8.058879e-01 3.434383e+00 -5.169813e-02 -3.751337e+00 -1.865628e+00 -2.162640e+00 -1.655974e+00 -3.864728e+00 -3.884077e-01 -6.807211e-01 -1.490303e+00 -4.808549e-02 1.183042e-02 1.426066e-02 7.917193e-02 3.759676e-03 -5.292432e-02 1.713548e-02 -9.596562e-03 2.389305e-02 -2.224453e-02 -1.064625e-01 -2.189942e-02 4.399973e-03
<VARIANCE> 25
 5.780330e+01 3.356641e+01 4.601266e+01 6.333150e+01 9.254048e+01 5.613033e+01 6.970446e+01 6.333130e+01 5.597683e+01 3.508859e+01 4.452578e+01 4.028960e+01 2.023079e+00 1.951979e+00 1.927714e+00 3.114570e+00 3.736049e+00 2.589100e+00 3.950982e+00 4.200515e+00 3.639105e+00 3.113095e+00 3.270794e+00 2.230272e+00 2.939278e+00
<GCONST> 1.072548e+02
<TRANSP> 5
 0.000000e+00 1.000000e+00 0.000000e+00 0.000000e+00 0.000000e+00
 0.000000e+00 7.600229e-01 2.399771e-01 0.000000e+00 0.000000e+00
 0.000000e+00 0.000000e+00 7.600228e-01 2.399772e-01 0.000000e+00
 0.000000e+00 0.000000e+00 0.000000e+00 8.855518e-01 1.144482e-01
 0.000000e+00 0.000000e+00 0.000000e+00 0.000000e+00 0.000000e+00
<ENDHMM>
~h "uw"
<BEGINHMM>
<NUMSTATES> 5
<STATE> 2
<MEAN> 25
 7.102813e-01 -2.671187e-01 5.695913e-01 -2.672344e-01 -4.788565e-02 3.323696e-01 -1.383568e+00 -6.673383e-01 -1.219644e+00 -7.857223e-01 -2.010505e-01 -1.055048e+00 1.508489e-02 -3.995564e-03 -3.371351e-02 -3.073307e-02 5.586334e-04 1.432085e-02 7.358148e-03 1.244094e-02 1.951826e-02 1.673351e-05 -3.792452e-02 -4.164639e-02 2.628943e-02
<VARIANCE> 25
 5.987932e+01 3.235677e+01 5.353613e+01 4.844272e+01 3.708472e+01 4.584424e+01 6.284439e+01 4.013560e+01 7.887042e+01 3.418602e+01 3.175143e+01 5.554020e+01 1.586989e+00 1.526218e+00 2.074115e+00 2.671562e+00 1.982273e+00 2.325657e+00 2.912019e+00 2.623776e+00 3.353427e+00 2.493505e+00 2.298998e+00 1.940686e+00 1.800683e+00
<GCONST> 1.023888e+02
<STATE> 3
<MEAN> 25
 7.127044e-01 -2.679692e-01 4.537330e-01 -3.625479e-01 -4.352790e-02 3.764895e-01 -1.306636e+00 -5.997396e-01 -1.116382e+00 -7.792513e-01 -3.290686e-01 -1.159214e+00 -1.225421e-03 2.152358e-03 -2.778910e-02 -1.678664e-02 3.491850e-03 8.531603e-03 1.943706e-02 1.785453e-02 2.878417e-02 2.653869e-03 -2.986255e-02 -2.044818e-02 5.151632e-03
<VARIANCE> 25
 6.024556e+01 3.236347e+01 5.434301e+01 4.902246e+01 3.715128e+01 4.648724e+01 6.187389e+01 4.017930e+01 7.791946e+01 3.389145e+01 3.301623e+01 5.675012e+01 1.602100e+00 1.497694e+00 2.053907e+00 2.645090e+00 1.988599e+00 2.322594e+00 2.863440e+00 2.580984e+00 3.300637e+00 2.417445e+00 2.285962e+00 1.914204e+00 1.702090e+00
<GCONST> 1.022799e+02
<STATE> 4
<MEAN> 25
 -1.379319e-01 -1.542545e-01 5.432923e-01 -6.434801e-02 1.351280e-01 3.478417e-01 -5.987137e-01 -2.407172e-01 -4.871765e-01 -4.323756e-01 -1.764097e-02 -3.721478e-01 -2.708984e-02 1.394919e-02 -1.399103e-02 6.553054e-03 1.026834e-02 2.619043e-04 3.436560e-02 1.621973e-02 3.648829e-02 6.790331e-03 -7.834844e-03 1.718517e-02 -2.170238e-02
<VARIANCE> 25
 5.538758e+01 2.947488e+01 5.320666e+01 4.321537e+01 3.804347e+01 4.552385e+01 5.752223e+01 3.651507e+01 7.109123e+01 3.312440e+01 3.024098e+01 4.959555e+01 1.549721e+00 1.328805e+00 1.917643e+00 2.298444e+00 1.899846e+00 2.285086e+00 2.622269e+00 2.303736e+00 2.986342e+00 2.172881e+00 2.111632e+00 1.777465e+00 1.379346e+00
<GCONST> 1.002562e+02
<TRANSP> 5
 0.000000e+00 1.000000e+00 0.000000e+00 0.000000e+00 0.000000e+00
 0.000000e+00 7.784493e-01 2.215507e-01 0.000000e+00 0.000000e+00
 0.000000e+00 0.000000e+00 7.784494e-01 2.215506e-01 0.000000e+00
 0.000000e+00 0.000000e+00 0.000000e+00 9.150691e-01 8.493095e-02
 0.000000e+00 0.000000e+00 0.000000e+00 0.000000e+00 0.000000e+00
<ENDHMM>
~h "zh"
<BEGINHMM>
<NUMSTATES> 5
<STATE> 2
<MEAN> 25
 3.962409e-02 6.062841e-03 5.194301e-01 -4.918406e-02 -4.181123e-01 -9.012271e-01 8.067723e-02 2.237488e-01 -1.220338e-01 -4.380288e-01 3.445500e-02 -8.834072e-03 -8.816880e-03 -6.816598e-03 -4.988968e-02 7.757870e-03 1.765502e-02 1.038770e-02 5.409252e-02 1.313898e-02 1.927249e-02 1.552396e-02 2.110136e-02 6.890543e-03 -3.293217e-02
<VARIANCE> 25
 6.295065e+01 2.341529e+01 9.429355e+01 3.073456e+01 6.437418e+01 7.168620e+01 7.053353e+01 5.018454e+01 6.776260e+01 4.261494e+01 2.728904e+01 4.364034e+01 2.737951e+00 1.237942e+00 1.567229e+00 1.305173e+00 2.426725e+00 2.663545e+00 3.183877e+00 2.353368e+00 3.048636e+00 2.382910e+00 1.662418e+00 1.995010e+00 1.212251e+00
<GCONST> 1.020648e+02
<STATE> 3
<MEAN> 25
 -3.003287e-03 -2.035623e-02 2.723886e-01 -1.509535e-02 -3.033526e-01 -8.269248e-01 3.204460e-01 2.745052e-01 -2.089549e-02 -3.510557e-01 1.246838e-01 2.750415e-02 -8.517480e-03 -5.607161e-03 -5.299868e-02 8.531241e-03 2.315821e-02 1.186518e-02 4.413127e-02 1.058253e-02 2.290609e-02 1.596167e-02 1.929355e-02 1.043853e-02 -3.926631e-02
<VARIANCE> 25
 6.205297e+01 2.277668e+01 9.186502e+01 3.032148e+01 6.308238e+01 7.168474e+01 7.001576e+01 4.922047e+01 6.745951e+01 4.273009e+01 2.717028e+01 4.433492e+01 2.720012e+00 1.209829e+00 1.548429e+00 1.309281e+00 2.377803e+00 2.658113e+00 3.148209e+00 2.282608e+00 3.017317e+00 2.378542e+00 1.651766e+00 2.016057e+00 1.209060e+00
<GCONST> 1.018324e+02
<STATE> 4
<MEAN> 25
 -5.943539e-02 4.394957e-03 -6.704020e-02 -1.983503e-02 -6.380671e-02 -5.979403e-01 5.178019e-01 3.060345e-01 1.155331e-01 -1.722740e-01 1.991433e-01 8.242735e-02 -5.792116e-04 2.509632e-03 -4.507418e-02 5.033047e-03 2.221229e-02 2.198627e-02 2.044663e-02 3.602014e-03 1.379981e-02 1.935697e-02 1.143929e-02 4.221385e-03 -3.939703e-02
<VARIANCE> 25
 5.943519e+01 2.218175e+01 9.033909e+01 3.064323e+01 6.168514e+01 7.011870e+01 6.905044e+01 4.767078e+01 6.788582e+01 4.251773e+01 2.688659e+01 4.568637e+01 2.640962e+00 1.179115e+00 1.543213e+00 1.328581e+00 2.317681e+00 2.637293e+00 3.066883e+00 2.130802e+00 3.018238e+00 2.383715e+00 1.653701e+00 2.049957e+00 1.244584e+00
<GCONST> 1.015640e+02
<TRANSP> 5
 0.000000e+00 1.000000e+00 0.000000e+00 0.000000e+00 0.000000e+00
 0.000000e+00 7.897099e-01 2.102902e-01 0.000000e+00 0.000000e+00
 0.000000e+00 0.000000e+00 7.897097e-01 2.102902e-01 0.000000e+00
 0.000000e+00 0.000000e+00 0.000000e+00 9.198883e-01 8.011174e-02
 0.000000e+00 0.000000e+00 0.000000e+00 0.000000e+00 0.000000e+00
<ENDHMM>
~h "sil"
<BEGINHMM>
<NUMSTATES> 5
<STATE> 2
<MEAN> 25
 -4.929774e+00 -9.938240e-01 -2.259024e+00 2.891633e+00 3.301762e+00 2.980629e+00 3.987218e+00 2.486578e+00 4.820701e+00 2.571997e+00 2.522762e+00 4.785105e+00 -2.881047e-02 -7.740915e-03 1.864291e-02 -1.784741e-02 6.178449e-02 8.457187e-03 5.148052e-02 -1.626670e-02 -2.726068e-02 6.503782e-02 1.644030e-01 7.752219e-02 -1.658579e-02
<VARIANCE> 25
