~h "sil"
<BEGINHMM>
<NUMSTATES> 5
<STATE> 2
<MEAN> 25
-5.866761e+00 1.991223e-01 -3.583571e+00 -2.051823e-01 -4.710364e-01 2.720934e+00 5.138908e+00 1.576764e+00 3.682100e+00 3.869989e+00 1.674670e+00 3.101340e+00 -2.087448e-02 -4.274809e-03 -1.406474e-02 8.794603e-03 -1.689070e-02 -2.022176e-02 3.836282e-03 6.077394e-03 1.075376e-02 2.185095e-02 -4.563092e-04 2.426238e-03 -2.427205e-02
<VARIANCE> 25
2.663212e+00 4.563406e+00 4.345695e+00 7.643345e+00 5.862731e+00 7.320721e+00 7.000800e+00 7.414963e+00 7.437731e+00 7.368592e+00 6.138086e+00 6.225820e+00 9.397493e-02 1.764994e-01 2.873682e-01 3.465346e-01 4.218650e-01 6.228593e-01 6.073996e-01 5.510296e-01 6.490827e-01 6.815793e-01 6.358148e-01 5.954991e-01 4.210876e-02
<GCONST> 5.351220e+01
<STATE> 3
<MEAN> 25
-7.118713e+00 -3.081000e-01 -1.749457e+00 -1.031217e+00 -1.165559e+00 3.531405e+00 3.928634e+00 1.414117e+00 4.853880e+00 3.436303e+00 8.821907e-01 3.578307e+00 -7.581001e-02 -5.415154e-02 2.016401e-01 -8.739231e-02 4.121462e-02 8.872373e-02 -7.476506e-02 9.644009e-03 1.259353e-01 -1.379244e-01 -3.326035e-02 1.257626e-01 1.159135e-01
<VARIANCE> 25
8.348813e+00 8.595272e+00 1.137517e+01 1.209942e+01 8.636264e+00 1.499810e+01 9.930653e+00 1.164548e+01 1.039156e+01 8.853771e+00 8.320317e+00 9.811087e+00 9.367380e-01 7.999393e-01 1.583295e+00 9.593871e-01 7.300864e-01 1.651675e+00 1.296489e+00 9.965155e-01 1.218978e+00 1.052432e+00 9.433080e-01 1.521487e+00 5.511271e-01
<GCONST> 7.427084e+01
<STATE> 4
<MEAN> 25
1.852368e+00 9.333190e-01 4.759898e-01 -2.697426e-01 6.882074e-01 3.869304e-01 -7.309437e-01 1.985609e-01 -9.826502e-01 -1.327175e+00 1.476691e-01 -5.418261e-01 -2.436755e-02 -2.728187e-02 8.825242e-02 -5.116785e-02 1.053179e-02 3.066126e-02 -3.597663e-02 -1.559141e-02 2.394278e-02 -7.154281e-02 -2.112673e-02 5.946375e-02 6.563513e-02
<VARIANCE> 25
6.931612e+01 2.762495e+01 4.200013e+01 5.658722e+01 4.070389e+01 4.320471e+01 5.571397e+01 2.323881e+01 4.455299e+01 3.199719e+01 2.245633e+01 3.489104e+01 1.582798e+00 1.267275e+00 1.851944e+00 1.883647e+00 1.656250e+00 2.061455e+00 2.477782e+00 1.685988e+00 2.055997e+00 1.617352e+00 1.523690e+00 1.797747e+00 1.109493e+00
<GCONST> 9.675854e+01
<TRANSP> 5
0.000000e+00 1.000000e+00 0.000000e+00 0.000000e+00 0.000000e+00
0.000000e+00 9.654540e-01 3.454601e-02 0.000000e+00 0.000000e+00
0.000000e+00 0.000000e+00 8.972068e-01 1.027932e-01 0.000000e+00
0.000000e+00 0.000000e+00 0.000000e+00 9.598810e-01 4.011898e-02
0.000000e+00 0.000000e+00 0.000000e+00 0.000000e+00 0.000000e+00
