~o
<STREAMINFO> 1 25
<VECSIZE> 25<NULLD><MFCC_D_N_Z_0><DIAGC>
~h "proto"
<BEGINHMM>
<NUMSTATES> 5
<STATE> 2
<MEAN> 25
 -5.188492e-08 -7.470274e-08 5.054579e-08 4.471661e-08 4.306239e-08 -8.218614e-09 -1.117259e-08 -1.449417e-08 5.223940e-08 -1.811771e-09 7.457145e-09 6.320850e-08 -8.906945e-03 7.893790e-03 -6.462834e-03 4.993152e-03 -6.319806e-03 1.062984e-02 -7.521180e-03 1.038283e-02 -6.391905e-03 3.461453e-03 3.053346e-03 -2.104189e-03 3.087496e-03
<VARIANCE> 25
 6.577842e+01 2.737476e+01 5.851226e+01 4.988303e+01 4.895965e+01 4.831762e+01 5.153057e+01 4.039792e+01 6.237810e+01 3.164836e+01 2.825499e+01 4.406643e+01 1.883175e+00 1.402216e+00 1.871585e+00 2.269560e+00 2.350365e+00 2.583212e+00 2.405958e+00 2.682310e+00 2.855303e+00 2.186497e+00 1.970505e+00 1.986716e+00 2.012961e+00
<GCONST> 1.015279e+02
<STATE> 3
<MEAN> 25
 -5.188492e-08 -7.470274e-08 5.054579e-08 4.471661e-08 4.306239e-08 -8.218614e-09 -1.117259e-08 -1.449417e-08 5.223940e-08 -1.811771e-09 7.457145e-09 6.320850e-08 -8.906945e-03 7.893790e-03 -6.462834e-03 4.993152e-03 -6.319806e-03 1.062984e-02 -7.521180e-03 1.038283e-02 -6.391905e-03 3.461453e-03 3.053346e-03 -2.104189e-03 3.087496e-03
<VARIANCE> 25
 6.577842e+01 2.737476e+01 5.851226e+01 4.988303e+01 4.895965e+01 4.831762e+01 5.153057e+01 4.039792e+01 6.237810e+01 3.164836e+01 2.825499e+01 4.406643e+01 1.883175e+00 1.402216e+00 1.871585e+00 2.269560e+00 2.350365e+00 2.583212e+00 2.405958e+00 2.682310e+00 2.855303e+00 2.186497e+00 1.970505e+00 1.986716e+00 2.012961e+00
<GCONST> 1.015279e+02
<STATE> 4
<MEAN> 25
 -5.188492e-08 -7.470274e-08 5.054579e-08 4.471661e-08 4.306239e-08 -8.218614e-09 -1.117259e-08 -1.449417e-08 5.223940e-08 -1.811771e-09 7.457145e-09 6.320850e-08 -8.906945e-03 7.893790e-03 -6.462834e-03 4.993152e-03 -6.319806e-03 1.062984e-02 -7.521180e-03 1.038283e-02 -6.391905e-03 3.461453e-03 3.053346e-03 -2.104189e-03 3.087496e-03
<VARIANCE> 25
 6.577842e+01 2.737476e+01 5.851226e+01 4.988303e+01 4.895965e+01 4.831762e+01 5.153057e+01 4.039792e+01 6.237810e+01 3.164836e+01 2.825499e+01 4.406643e+01 1.883175e+00 1.402216e+00 1.871585e+00 2.269560e+00 2.350365e+00 2.583212e+00 2.405958e+00 2.682310e+00 2.855303e+00 2.186497e+00 1.970505e+00 1.986716e+00 2.012961e+00
<GCONST> 1.015279e+02
<TRANSP> 5
 0.000000e+00 1.000000e+00 0.000000e+00 0.000000e+00 0.000000e+00
 0.000000e+00 6.000000e-01 4.000000e-01 0.000000e+00 0.000000e+00
 0.000000e+00 0.000000e+00 6.000000e-01 4.000000e-01 0.000000e+00
 0.000000e+00 0.000000e+00 0.000000e+00 7.000000e-01 3.000000e-01
 0.000000e+00 0.000000e+00 0.000000e+00 0.000000e+00 0.000000e+00
<ENDHMM>
