~o
<STREAMINFO> 1 25
<VECSIZE> 25<NULLD><MFCC_D_N_Z_0><DIAGC>
~h "b"
<BEGINHMM>
<NUMSTATES> 5
<STATE> 2
<MEAN> 25
 -1.119651e+00 6.322370e+00 4.020105e+00 6.307653e+00 5.668574e+00 5.960366e+00 5.958380e+00 1.026219e+00 9.038854e-01 2.901584e-01 -1.938161e+00 -1.540874e+00 2.660142e-01 -1.893039e-01 1.461758e-01 -4.001182e-02 -6.912060e-02 -7.066748e-02 -1.554319e-01 2.813634e-02 -1.609684e-01 -1.825892e-01 -1.099865e-01 1.720431e-02 4.384444e-01
<VARIANCE> 25
 9.461160e+00 1.314235e+01 9.334051e+00 1.332429e+01 1.245159e+01 7.795215e+00 1.122614e+01 8.454688e+00 9.613492e+00 1.051917e+01 9.683857e+00 1.103045e+01 1.627838e+00 1.768434e+00 1.391037e+00 1.876417e+00 1.381920e+00 1.534686e+00 1.784355e+00 1.090828e+00 1.341635e+00 1.635033e+00 1.520691e+00 1.149361e+00 1.447038e+00
<GCONST> 7.915702e+01
<STATE> 3
<MEAN> 25
 2.655782e+00 1.987616e+00 2.517575e+00 1.124004e+00 1.071294e+00 1.674524e+00 6.253805e-01 8.823197e-01 -9.893208e-01 -1.982797e+00 -1.973074e+00 -1.175278e+00 2.866876e+00 -1.019628e+00 -8.804817e-02 -1.185887e+00 -1.157641e+00 -2.876145e+00 -3.154693e+00 -1.291434e-01 -9.875572e-01 -1.658792e+00 -2.260049e-02 -1.791780e-01 3.201146e+00
<VARIANCE> 25
 3.525094e+01 3.578228e+01 1.653607e+01 3.730875e+01 2.677834e+01 3.265613e+01 3.256647e+01 1.456819e+01 1.672001e+01 2.320865e+01 1.314057e+01 1.246697e+01 2.185464e+00 4.239376e+00 3.044986e+00 3.904943e+00 5.096294e+00 6.808139e+00 4.972577e+00 3.347962e+00 3.208913e+00 1.557499e+00 2.171301e+00 2.358525e+00 2.392130e+00
<GCONST> 9.868280e+01
<STATE> 4
<MEAN> 25
 8.590001e+00 -4.839545e-01 9.805896e-01 2.575082e+00 3.731501e+00 -5.497866e+00 -9.229743e+00 -1.561374e+00 -4.854470e+00 -6.383608e+00 -6.800565e-01 -2.558310e+00 9.598844e-02 -1.773854e-01 1.304561e-01 1.144881e-01 4.567643e-02 -2.950338e-01 -2.247677e-01 -1.177318e-01 -2.699632e-01 -1.984447e-01 -6.515890e-02 -1.422226e-01 2.092945e-01
<VARIANCE> 25
 3.539785e+01 4.544565e+01 2.532269e+01 6.172948e+01 5.953256e+01 6.085920e+01 9.081174e+01 3.976653e+01 3.663509e+01 3.376227e+01 2.801085e+01 2.279462e+01 2.938322e+00 2.599501e+00 1.758371e+00 2.199201e+00 2.743769e+00 5.517838e+00 7.848369e+00 2.760040e+00 2.805483e+00 2.432631e+00 2.082973e+00 1.927420e+00 3.320457e+00
<GCONST> 1.043401e+02
<TRANSP> 5
 0.000000e+00 1.000000e+00 0.000000e+00 0.000000e+00 0.000000e+00
 0.000000e+00 7.877814e-01 2.122185e-01 0.000000e+00 0.000000e+00
 0.000000e+00 0.000000e+00 5.338661e-01 4.661339e-01 0.000000e+00
 0.000000e+00 0.000000e+00 0.000000e+00 8.587288e-01 1.412712e-01
 0.000000e+00 0.000000e+00 0.000000e+00 0.000000e+00 0.000000e+00
<ENDHMM>
~h "d"
<BEGINHMM>
<NUMSTATES> 5
<STATE> 2
<MEAN> 25
 1.155016e-01 2.954096e+00 2.428239e+00 6.209062e+00 4.366348e+00 4.125851e+00 3.040205e+00 -1.284536e+00 -1.107388e+00 -2.111587e+00 -3.520929e+00 -1.865422e+00 1.606636e-01 -8.526818e-01 3.485807e-01 -5.220643e-01 -8.917814e-01 -2.942029e-01 -4.551522e-01 -3.713513e-01 -4.388933e-01 -2.904221e-01 -1.230862e-01 3.568800e-02 9.996198e-01
<VARIANCE> 25
 1.358069e+01 3.444248e+01 1.436881e+01 2.375572e+01 2.795373e+01 2.139027e+01 2.925052e+01 2.591409e+01 2.426037e+01 1.428655e+01 1.360163e+01 1.255928e+01 2.543188e+00 4.565335e+00 1.409028e+00 2.800604e+00 4.280536e+00 4.785325e+00 4.735437e+00 4.497657e+00 4.400081e+00 1.530904e+00 1.780397e+00 1.889498e+00 5.025750e+00
<GCONST> 9.657885e+01
<STATE> 3
<MEAN> 25
 1.645836e+00 -1.467823e+00 1.916335e+00 2.556125e+00 1.072734e+00 9.819176e-01 -1.721951e+00 -3.866772e+00 -3.147267e+00 -2.047379e+00 -1.730235e+00 -1.256182e+00 3.711045e-01 -5.603455e-01 1.909312e-01 -1.012288e+00 -2.501725e-01 -5.425986e-01 -1.045361e+00 -1.075915e-01 -7.271176e-01 -1.072991e-01 5.468152e-01 1.437950e-01 1.199275e+00
<VARIANCE> 25
 2.742997e+01 3.684664e+01 2.308409e+01 2.227148e+01 2.475682e+01 2.823894e+01 6.595851e+01 3.559162e+01 2.873691e+01 2.314390e+01 1.694334e+01 2.218673e+01 3.901840e+00 3.760183e+00 3.963605e+00 2.890630e+00 4.929005e+00 4.598453e+00 8.540555e+00 6.454218e+00 6.077890e+00 2.920867e+00 2.210574e+00 1.929501e+00 5.987037e+00
<GCONST> 1.042196e+02
<STATE> 4
<MEAN> 25
 -1.885873e+00 -1.219870e-01 -1.464171e+00 1.089192e-01 5.863419e-01 9.472258e-01 1.586220e+00 4.098032e-01 2.637607e-01 1.196277e+00 6.578655e-01 1.274452e+00 -1.170818e-01 1.134979e-01 -1.392468e-02 -4.563618e-01 -9.065766e-02 -1.625662e-01 6.920398e-02 5.093225e-01 1.314417e-01 9.604447e-02 3.350700e-01 2.498359e-01 2.125554e-01
<VARIANCE> 25
 3.854229e+01 2.389924e+01 2.199051e+01 1.873480e+01 1.791866e+01 2.116366e+01 5.726971e+01 2.077006e+01 3.025819e+01 2.412045e+01 1.272137e+01 1.290962e+01 1.910700e+00 1.650957e+00 2.581231e+00 1.776634e+00 1.689961e+00 2.155495e+00 3.328272e+00 3.213544e+00 3.458919e+00 1.853654e+00 1.899992e+00 1.743294e+00 1.782544e+00
<GCONST> 9.347517e+01
<TRANSP> 5
 0.000000e+00 1.000000e+00 0.000000e+00 0.000000e+00 0.000000e+00
 0.000000e+00 5.811750e-01 4.188249e-01 0.000000e+00 0.000000e+00
 0.000000e+00 0.000000e+00 3.139004e-01 6.860996e-01 0.000000e+00
 0.000000e+00 0.000000e+00 0.000000e+00 5.776040e-01 4.223960e-01
 0.000000e+00 0.000000e+00 0.000000e+00 0.000000e+00 0.000000e+00
<ENDHMM>
~h "f"
<BEGINHMM>
<NUMSTATES> 5
<STATE> 2
<MEAN> 25
 -5.192218e+00 -1.678233e+00 -3.901421e+00 -4.479007e-01 -8.881522e-01 2.391776e+00 3.658846e+00 5.775071e-01 2.681842e+00 3.530497e+00 2.109114e+00 2.748280e+00 -8.571975e-02 -1.586383e-03 1.684982e-02 -4.911951e-02 1.847993e-03 -2.417727e-02 -3.130024e-02 4.990849e-02 1.387222e-02 4.628521e-03 -5.691856e-02 -2.585679e-02 -8.672821e-03
<VARIANCE> 25
 8.667345e+00 3.338520e+00 6.908706e+00 1.403344e+01 9.073072e+00 7.333584e+00 9.036931e+00 7.907130e+00 9.955394e+00 7.193822e+00 6.905254e+00 6.797245e+00 3.260305e-01 3.404793e-01 5.196079e-01 5.423993e-01 6.963599e-01 6.997597e-01 6.748431e-01 7.979492e-01 9.186766e-01 6.917606e-01 7.197424e-01 6.275730e-01 1.841290e-01
<GCONST> 6.273053e+01
<STATE> 3
<MEAN> 25
 -9.794180e+00 -1.180158e+00 6.665241e-01 -8.225969e+00 3.667017e+00 3.107625e-01 2.790889e+00 3.623531e-01 1.870525e+00 1.463153e+00 -4.740748e-01 1.625277e+00 8.338376e-01 3.074025e-01 2.245467e-01 -2.825986e-01 -2.054608e-01 -5.993949e-01 -4.085405e-01 1.845796e-01 7.164077e-02 -2.462173e-01 -1.979405e-01 -2.751164e-01 5.566679e-01
<VARIANCE> 25
 5.011413e+01 1.498818e+01 2.104264e+01 2.692604e+01 2.739687e+01 2.792784e+01 1.684348e+01 1.597374e+01 1.337116e+01 1.510446e+01 1.224077e+01 1.124651e+01 6.177916e+00 2.291872e+00 1.480653e+00 2.273128e+00 2.317155e+00 3.858353e+00 1.928346e+00 2.238264e+00 1.216218e+00 1.463473e+00 1.148264e+00 1.065346e+00 2.202362e+00
<GCONST> 9.046061e+01
<STATE> 4
<MEAN> 25
 1.088961e+01 3.812068e+00 -4.028228e+00 -9.015219e+00 -6.495362e+00 -1.020070e+01 -4.913475e+00 5.616475e+00 3.371941e+00 -1.876281e-01 -2.988899e+00 -2.599603e+00 4.535819e-01 2.748948e-01 -8.198583e-02 5.514378e-02 -2.679878e-01 -1.350660e-01 -3.452487e-01 -4.047475e-02 3.666657e-02 -2.206870e-01 1.874951e-01 2.503804e-01 -7.748499e-02
<VARIANCE> 25
 4.771228e+01 1.935636e+01 4.232537e+01 1.824908e+01 1.905149e+01 5.323600e+01 2.189630e+01 4.143977e+01 2.144973e+01 1.620393e+01 1.932890e+01 2.049588e+01 4.324989e+00 1.141396e+00 1.434123e+00 1.126479e+00 1.884068e+00 4.197093e+00 2.154501e+00 2.917791e+00 1.455830e+00 8.173406e-01 1.057138e+00 9.483125e-01 4.299732e-01
<GCONST> 9.030473e+01
<TRANSP> 5
 0.000000e+00 1.000000e+00 0.000000e+00 0.000000e+00 0.000000e+00
 0.000000e+00 9.534914e-01 4.650858e-02 0.000000e+00 0.000000e+00
 0.000000e+00 0.000000e+00 9.083882e-01 9.161176e-02 0.000000e+00
 0.000000e+00 0.000000e+00 0.000000e+00 8.749774e-01 1.250226e-01
 0.000000e+00 0.000000e+00 0.000000e+00 0.000000e+00 0.000000e+00
<ENDHMM>
~h "g"
<BEGINHMM>
<NUMSTATES> 5
<STATE> 2
<MEAN> 25
 2.943736e+00 -2.005705e+00 -1.222516e-01 2.977270e+00 1.930663e+00 4.300811e-01 -2.358656e+00 -4.964080e+00 -4.217908e+00 6.370875e-02 1.888096e+00 -1.109115e+00 1.399626e+00 -9.409171e-01 -3.404645e-01 -5.009725e-01 -2.655890e-01 -7.696105e-01 -1.198720e+00 -1.368328e+00 -1.411740e+00 -7.660124e-02 1.062414e-01 -1.031135e-01 1.792921e+00
<VARIANCE> 25
 4.193690e+01 4.153615e+01 3.620552e+01 4.985883e+01 2.501565e+01 1.593735e+01 6.012946e+01 4.827267e+01 4.684395e+01 8.415417e+00 2.427428e+01 2.687262e+01 1.798010e+00 2.757489e+00 3.506919e+00 2.830602e+00 1.703988e+00 1.836953e+00 2.180620e+00 1.926815e+00 2.552229e+00 1.793388e+00 2.980196e+00 3.009134e+00 2.898690e+00
<GCONST> 9.857877e+01
<STATE> 3
<MEAN> 25
 4.366516e+00 -2.405884e-01 -5.577264e-02 2.364486e+00 2.599264e+00 1.917468e+00 -1.622497e+00 -5.912831e+00 -6.352221e+00 -7.541541e-01 1.436048e+00 -8.806309e-01 -6.976420e-01 -1.437346e-02 3.266030e-01 3.223686e-02 1.207489e-01 3.282562e-01 5.337222e-01 7.103060e-01 7.298589e-01 -2.821569e-02 -6.200891e-01 -2.425267e-01 -3.496413e-01
<VARIANCE> 25
 4.283887e+01 4.525556e+01 1.073774e+01 1.884841e+01 1.571365e+01 2.275261e+01 3.986650e+01 3.390855e+01 5.312796e+01 1.267551e+01 3.356287e+01 9.343758e+00 1.992005e+00 4.841397e+00 2.314266e+00 2.084963e+00 1.688139e+00 3.055465e+00 3.446002e+00 1.804711e+00 2.819296e+00 1.727191e+00 1.935387e+00 1.668674e+00 4.723547e+00
<GCONST> 9.579205e+01
<STATE> 4
<MEAN> 25
 3.796520e+00 -1.274057e+00 3.459613e+00 3.757370e+00 2.582000e+00 -2.058887e+00 -5.409850e+00 -3.007920e+00 -3.150575e+00 -2.612029e+00 -2.745217e+00 -4.833843e+00 6.621947e-01 -9.071185e-02 9.484294e-02 -2.023485e-01 9.764904e-02 -2.362242e-01 -6.859795e-01 -4.810866e-01 -8.458944e-01 -3.521633e-01 3.367577e-01 6.243318e-02 5.318178e-01
<VARIANCE> 25
 4.201987e+01 4.357484e+01 2.946329e+01 4.598867e+01 4.278320e+01 5.014478e+01 7.534593e+01 2.963133e+01 4.381051e+01 2.703486e+01 2.054684e+01 2.510648e+01 3.672405e+00 3.656336e+00 4.547633e+00 4.812360e+00 5.587655e+00 3.756168e+00 5.997130e+00 3.424256e+00 5.973463e+00 3.569907e+00 3.083224e+00 2.749025e+00 2.966007e+00
<GCONST> 1.074095e+02
<TRANSP> 5
 0.000000e+00 1.000000e+00 0.000000e+00 0.000000e+00 0.000000e+00
 0.000000e+00 6.461474e-01 3.538525e-01 0.000000e+00 0.000000e+00
 0.000000e+00 0.000000e+00 7.391798e-01 2.608202e-01 0.000000e+00
 0.000000e+00 0.000000e+00 0.000000e+00 8.746758e-01 1.253243e-01
 0.000000e+00 0.000000e+00 0.000000e+00 0.000000e+00 0.000000e+00
<ENDHMM>
~h "k"
<BEGINHMM>
<NUMSTATES> 5
<STATE> 2
<MEAN> 25
 -3.923533e+00 -4.220396e+00 -3.105433e+00 -2.582985e+00 -1.044329e+00 2.231639e+00 3.515165e+00 -7.252347e-01 -1.971299e+00 2.023203e+00 1.752146e+00 6.839390e-01 1.040454e+00 -1.249973e+00 1.615348e-01 -1.082161e+00 -7.605845e-01 -2.873276e-01 -1.926962e-01 -4.974197e-01 -1.768586e+00 -1.116346e+00 -1.092333e-01 -1.008779e+00 2.536965e+00
<VARIANCE> 25
 2.439711e+01 4.181172e+01 2.088936e+01 3.960204e+01 3.107362e+01 5.669333e+01 2.968583e+01 2.606358e+01 4.345191e+01 1.892247e+01 1.952107e+01 2.603466e+01 3.411120e+00 3.844230e+00 2.374710e+00 3.819322e+00 3.613617e+00 5.267861e+00 3.629898e+00 2.676917e+00 5.768692e+00 2.332244e+00 2.622804e+00 3.406057e+00 6.207174e+00
<GCONST> 1.032744e+02
<STATE> 3
<MEAN> 25
 1.751795e+00 -5.225634e+00 -1.308900e+00 -5.959709e+00 -3.745236e+00 2.334605e+00 4.740744e+00 -1.420611e+00 -7.389473e+00 -2.716043e+00 -4.332052e-01 -2.018011e+00 5.864252e-01 2.214814e-01 7.628395e-01 2.752252e-02 -2.135298e-01 -5.933895e-01 -1.415051e-01 8.706502e-01 1.098644e+00 -9.546451e-02 -4.522788e-01 1.146798e-01 3.307459e-01
<VARIANCE> 25
 2.790120e+01 3.333511e+01 2.813642e+01 5.962661e+01 3.597552e+01 5.573864e+01 5.313328e+01 4.626931e+01 6.295771e+01 2.124538e+01 3.468920e+01 2.074732e+01 3.545428e+00 3.994447e+00 2.295659e+00 3.008158e+00 3.206179e+00 3.742540e+00 2.403582e+00 5.226488e+00 1.094086e+01 3.170171e+00 2.520156e+00 2.226291e+00 3.879761e+00
<GCONST> 1.056208e+02
<STATE> 4
<MEAN> 25
 4.970583e+00 -2.131170e+00 1.653161e+00 -3.907951e+00 -3.688972e+00 -3.455376e+00 -2.996534e+00 7.649688e-01 4.292248e-01 -4.258918e-01 -1.260067e+00 -1.944590e+00 5.462285e-01 7.665855e-01 1.039083e-01 3.455910e-01 4.193503e-01 -2.083460e-01 -8.532756e-01 -3.100517e-01 6.965975e-02 1.461914e-01 2.908737e-01 1.404985e-02 -2.104377e-01
<VARIANCE> 25
 4.483827e+01 6.624681e+01 3.308889e+01 7.068549e+01 7.839664e+01 4.829573e+01 5.954012e+01 4.928349e+01 4.456607e+01 2.675339e+01 2.178746e+01 2.482160e+01 3.186598e+00 4.820367e+00 2.839539e+00 3.284474e+00 4.459140e+00 4.947454e+00 4.307338e+00 3.616763e+00 4.606498e+00 2.560765e+00 2.054972e+00 2.865806e+00 2.343760e+00
<GCONST> 1.071979e+02
<TRANSP> 5
 0.000000e+00 1.000000e+00 0.000000e+00 0.000000e+00 0.000000e+00
 0.000000e+00 7.098065e-01 2.901935e-01 0.000000e+00 0.000000e+00
 0.000000e+00 0.000000e+00 6.249368e-01 3.750633e-01 0.000000e+00
 0.000000e+00 0.000000e+00 0.000000e+00 8.039761e-01 1.960239e-01
 0.000000e+00 0.000000e+00 0.000000e+00 0.000000e+00 0.000000e+00
<ENDHMM>
~h "l"
<BEGINHMM>
<NUMSTATES> 5
<STATE> 2
<MEAN> 25
 1.012883e+01 5.926147e+00 4.040448e+00 -3.033591e+00 -9.675251e+00 -1.269706e+01 -5.975979e+00 4.232239e+00 2.056715e-01 -3.821283e+00 -3.201117e+00 -4.080632e+00 -1.420272e-01 3.453824e-01 4.029690e-01 1.976943e-01 -1.766927e-01 -2.543542e-01 2.304990e-03 2.012211e-02 9.244131e-02 -1.245878e-02 5.937454e-04 -6.195409e-02 -2.767184e-01
<VARIANCE> 25
 2.047857e+01 2.168597e+01 2.353721e+01 2.761863e+01 3.400183e+01 6.706508e+01 2.596885e+01 2.246729e+01 2.765255e+01 2.178147e+01 2.118002e+01 1.575046e+01 9.255918e-01 1.086828e+00 1.533911e+00 1.226865e+00 1.984479e+00 4.804048e+00 1.549586e+00 2.032086e+00 1.845826e+00 1.451046e+00 1.239058e+00 1.277431e+00 5.931030e-01
<GCONST> 8.979389e+01
<STATE> 3
<MEAN> 25
 5.501145e+00 3.016665e+00 5.558753e+00 -1.574324e+00 -5.563346e+00 -6.578170e+00 -3.299885e+00 1.991174e+00 -1.115903e+00 -4.092087e+00 -2.373021e+00 -1.803886e+00 -5.948972e-01 -7.294912e-01 -4.043755e-01 3.862886e-01 1.561805e+00 1.460384e+00 1.857959e-01 -4.724245e-01 -2.487193e-01 1.531097e-01 4.242076e-01 5.769563e-01 -2.864391e-01
<VARIANCE> 25
 4.251312e+01 4.554911e+01 4.234737e+01 2.844168e+01 4.031706e+01 4.704534e+01 5.171616e+01 2.369786e+01 3.254841e+01 4.107336e+01 3.095019e+01 2.442906e+01 2.233136e+00 1.955339e+00 2.861105e+00 2.021956e+00 2.746806e+00 4.826642e+00 4.684446e+00 2.415411e+00 2.631629e+00 2.540261e+00 2.375190e+00 2.802894e+00 1.150306e+00
<GCONST> 1.012701e+02
<STATE> 4
<MEAN> 25
 2.730049e+00 1.353264e+00 2.912065e+00 3.447697e+00 2.784635e+00 -2.661227e+00 -4.063853e+00 1.361726e+00 7.339539e-02 -2.063143e+00 -7.261881e-01 -1.993479e+00 -4.281354e-01 -2.541591e-01 -1.222165e-01 4.786158e-01 6.633374e-01 7.673870e-01 3.614300e-01 -2.383424e-01 6.880290e-02 3.020632e-01 4.246740e-04 -2.404607e-02 -3.773247e-01
<VARIANCE> 25
 4.315843e+01 2.867789e+01 3.299864e+01 6.130508e+01 5.657932e+01 4.521929e+01 7.978726e+01 2.468287e+01 3.403564e+01 4.784925e+01 2.091439e+01 3.664807e+01 1.199944e+00 1.482477e+00 1.799426e+00 1.654472e+00 1.758356e+00 2.807411e+00 3.693080e+00 2.147897e+00 1.755988e+00 1.706278e+00 1.735813e+00 1.858748e+00 6.573223e-01
<GCONST> 9.733384e+01
<TRANSP> 5
 0.000000e+00 1.000000e+00 0.000000e+00 0.000000e+00 0.000000e+00
 0.000000e+00 8.642223e-01 1.357776e-01 0.000000e+00 0.000000e+00
 0.000000e+00 0.000000e+00 5.699736e-01 4.300264e-01 0.000000e+00
 0.000000e+00 0.000000e+00 0.000000e+00 7.072942e-01 2.927059e-01
 0.000000e+00 0.000000e+00 0.000000e+00 0.000000e+00 0.000000e+00
<ENDHMM>
~h "m"
<BEGINHMM>
<NUMSTATES> 5
<STATE> 2
<MEAN> 25
 1.688564e+00 3.648335e+00 1.684220e+00 -3.145382e+00 -9.281771e-01 4.374866e+00 4.656641e+00 4.390369e-01 -6.031158e-01 -7.681295e-01 -4.103311e+00 -4.855513e+00 2.302263e-01 -1.466551e-01 4.338008e-01 -3.311806e-01 -1.807907e-01 1.542223e-01 -2.779457e-01 -1.073357e-01 -3.190560e-01 -3.274404e-01 -2.813239e-01 -2.177769e-01 4.102863e-01
<VARIANCE> 25
 2.522422e+01 3.784418e+01 2.225432e+01 6.186902e+01 4.127882e+01 1.902387e+01 1.630162e+01 1.640151e+01 1.394672e+01 1.270999e+01 2.388610e+01 4.903875e+01 2.856631e+00 3.725723e+00 1.529318e+00 4.621913e+00 3.559652e+00 2.842546e+00 1.846976e+00 2.406637e+00 1.834031e+00 2.274891e+00 3.025552e+00 6.055782e+00 2.773192e+00
<GCONST> 9.801720e+01
<STATE> 3
<MEAN> 25
 9.031545e+00 4.986367e+00 1.611474e+00 -3.336950e+00 -4.320153e-01 5.872188e-01 -1.190038e+00 2.548765e+00 2.940273e-02 -4.276481e+00 -5.955518e+00 -9.004664e+00 4.920428e-01 1.120800e-01 -2.688618e-01 3.970949e-02 -1.092974e-01 -5.130790e-01 -1.743435e-01 4.519592e-01 -4.034962e-02 -5.811591e-01 1.119239e-01 4.434294e-01 2.217931e-01
<VARIANCE> 25
 7.822446e+00 1.217952e+01 2.256563e+01 9.638209e+01 8.449406e+01 4.680310e+01 1.905455e+01 4.481184e+01 1.702955e+01 1.733723e+01 2.972972e+01 7.401546e+01 1.888565e+00 2.573373e+00 2.752763e+00 5.491780e+00 3.891486e+00 5.058957e+00 2.972803e+00 3.457447e+00 2.260250e+00 2.497379e+00 3.345292e+00 5.419301e+00 1.170368e+00
<GCONST> 1.009975e+02
<STATE> 4
<MEAN> 25
 9.345126e+00 7.496734e-01 1.833707e+00 1.891531e+00 2.257996e+00 -2.013419e+00 -6.334333e+00 -2.967625e+00 -6.633052e+00 -6.989141e+00 -2.218346e+00 -2.756019e+00 -1.391659e-01 -2.346918e-01 6.643604e-02 4.006491e-01 2.754206e-01 -9.865467e-02 -3.315697e-01 -3.588429e-01 -1.592622e-01 2.022277e-01 3.840958e-01 1.402158e-01 -5.510416e-02
<VARIANCE> 25
 1.478654e+01 6.969749e+01 4.024415e+01 1.070961e+02 9.536521e+01 1.105517e+02 7.138837e+01 5.413698e+01 4.713856e+01 3.473346e+01 4.356918e+01 4.422827e+01 1.352184e+00 3.272696e+00 1.891237e+00 2.253995e+00 3.130632e+00 3.914703e+00 5.318562e+00 2.874811e+00 2.375941e+00 1.975935e+00 3.540939e+00 3.328242e+00 1.541372e+00
<GCONST> 1.063572e+02
<TRANSP> 5
 0.000000e+00 1.000000e+00 0.000000e+00 0.000000e+00 0.000000e+00
 0.000000e+00 8.312536e-01 1.687464e-01 0.000000e+00 0.000000e+00
 0.000000e+00 0.000000e+00 8.342096e-01 1.657904e-01 0.000000e+00
 0.000000e+00 0.000000e+00 0.000000e+00 8.871325e-01 1.128675e-01
 0.000000e+00 0.000000e+00 0.000000e+00 0.000000e+00 0.000000e+00
<ENDHMM>
~h "n"
<BEGINHMM>
<NUMSTATES> 5
<STATE> 2
<MEAN> 25
 5.946927e+00 5.007331e+00 3.884754e-01 5.523930e+00 6.176217e+00 1.897075e+00 -1.715472e+00 -4.182364e+00 -2.963107e+00 -1.407518e+00 -3.701572e+00 -7.894360e+00 -4.339588e-01 1.475633e-01 6.827281e-02 7.866700e-02 7.946865e-02 2.795827e-01 2.709293e-01 -5.125666e-02 1.035507e-01 -6.725972e-03 -2.517309e-01 -6.929430e-02 -3.966895e-01
<VARIANCE> 25
 1.389720e+01 1.550447e+01 9.344879e+00 1.554924e+01 1.964244e+01 2.254879e+01 2.611428e+01 1.732520e+01 1.557124e+01 1.796764e+01 2.626690e+01 3.471195e+01 3.849790e-01 8.521530e-01 7.556688e-01 1.111614e+00 1.059753e+00 1.689539e+00 1.321138e+00 1.439487e+00 1.183624e+00 9.330658e-01 1.589046e+00 2.487661e+00 3.303482e-01
<GCONST> 8.125854e+01
<STATE> 3
<MEAN> 25
 1.434485e-01 3.222557e+00 8.755439e-03 2.272153e+00 2.771669e+00 2.970511e+00 1.742441e+00 -1.438573e+00 -1.246112e+00 -6.406001e-01 -1.759021e+00 -2.285271e+00 -9.156715e-01 -5.560210e-01 -4.126883e-01 -6.473523e-01 -5.602268e-01 8.063628e-02 5.068324e-01 6.948919e-01 6.894887e-01 5.964243e-01 5.799448e-01 9.746307e-01 -4.363672e-01
<VARIANCE> 25
 2.159120e+01 1.967631e+01 1.270335e+01 2.964439e+01 2.290586e+01 1.541000e+01 1.696734e+01 1.801747e+01 2.297570e+01 1.617085e+01 1.917383e+01 2.738070e+01 1.140296e+00 1.524746e+00 1.234831e+00 1.318104e+00 9.968862e-01 1.278268e+00 9.731062e-01 1.582782e+00 1.933313e+00 1.665405e+00 1.955591e+00 1.836980e+00 5.319408e-01
<GCONST> 8.523129e+01
<STATE> 4
<MEAN> 25
 -5.243236e+00 -9.494088e-02 -3.563282e+00 3.244824e-01 -3.352284e-01 2.375440e+00 4.374580e+00 1.411451e+00 3.465771e+00 3.390818e+00 1.690443e+00 2.847931e+00 -6.045971e-02 -2.835503e-02 -2.971198e-02 -4.861404e-02 -4.943650e-02 -1.093813e-02 1.127205e-02 1.326302e-02 9.836133e-03 2.212780e-02 2.821695e-02 6.688056e-02 -3.510202e-02
<VARIANCE> 25
 7.433895e+00 7.865826e+00 5.586589e+00 9.379751e+00 7.754221e+00 6.678764e+00 8.437782e+00 8.297864e+00 7.898596e+00 8.626633e+00 7.844235e+00 1.073716e+01 2.319328e-01 3.328539e-01 4.319072e-01 4.812774e-01 4.946035e-01 6.125432e-01 6.313419e-01 5.947720e-01 7.320782e-01 8.302340e-01 7.530978e-01 9.210989e-01 1.110562e-01
<GCONST> 6.145812e+01
<TRANSP> 5
 0.000000e+00 1.000000e+00 0.000000e+00 0.000000e+00 0.000000e+00
 0.000000e+00 8.761407e-01 1.238594e-01 0.000000e+00 0.000000e+00
 0.000000e+00 0.000000e+00 6.644443e-01 3.355557e-01 0.000000e+00
 0.000000e+00 0.000000e+00 0.000000e+00 9.301658e-01 6.983412e-02
 0.000000e+00 0.000000e+00 0.000000e+00 0.000000e+00 0.000000e+00
<ENDHMM>
~h "p"
<BEGINHMM>
<NUMSTATES> 5
<STATE> 2
<MEAN> 25
 5.872880e+00 4.035126e+00 4.248822e+00 -2.528805e+00 -9.102525e+00 -8.842920e+00 -3.688493e+00 5.649598e-01 -1.520363e+00 -2.939502e+00 2.912625e-01 3.034939e-02 -2.115462e-01 -1.647273e-01 -2.139096e-01 1.716892e-01 8.753900e-01 7.298824e-01 5.956876e-02 -4.071499e-01 -2.892104e-01 3.074953e-02 2.352203e-01 1.163631e-01 3.423865e-02
<VARIANCE> 25
 3.771479e+01 3.988700e+01 2.035103e+01 3.990689e+01 3.886647e+01 1.184853e+02 4.719264e+01 1.377929e+01 1.556440e+01 1.368951e+01 1.072056e+01 1.689203e+01 4.959490e+00 3.110675e+00 2.465716e+00 2.308261e+00 5.305813e+00 1.048199e+01 6.382930e+00 2.230483e+00 1.904255e+00 2.503186e+00 1.671215e+00 2.195308e+00 4.273496e+00
<GCONST> 1.008990e+02
<STATE> 3
<MEAN> 25
 3.042154e+00 7.520942e-01 -3.864416e-01 -3.793229e-01 3.812348e-01 -1.416225e+00 -2.058475e+00 -1.322242e+00 -9.313944e-01 -1.816172e+00 7.562302e-01 2.661558e+00 -1.140592e+00 -1.334254e+00 -3.145877e-01 7.724743e-01 8.168048e-01 3.892831e-01 -4.104337e-01 3.471511e-01 7.752796e-01 1.006044e+00 5.600142e-01 -2.989524e-01 -2.970211e-01
<VARIANCE> 25
 3.958732e+01 1.968674e+01 1.796076e+01 3.048948e+01 1.361197e+01 1.498678e+01 2.619274e+01 1.201262e+01 1.720086e+01 1.822368e+01 1.940274e+01 2.314137e+01 1.251159e+00 5.339018e-01 2.985301e+00 3.213763e+00 1.332784e+00 3.207781e+00 4.168180e+00 1.721732e+00 6.053199e-01 1.033296e+00 8.111759e-01 2.561651e+00 6.502813e-01
<GCONST> 8.694836e+01
<STATE> 4
<MEAN> 25
 -5.097045e+00 -9.076633e-01 -1.477668e+00 1.503332e+00 9.724921e-01 2.674207e+00 3.205640e+00 4.371472e-02 2.459639e+00 2.003700e+00 7.158939e-01 2.790212e+00 -1.531483e-01 -2.021875e-01 6.719490e-02 -6.558741e-02 1.692747e-02 8.795830e-02 -1.030278e-01 1.296313e-01 1.091140e-01 6.907005e-02 -1.982957e-02 -8.647068e-02 -2.403166e-03
<VARIANCE> 25
 2.130787e+01 4.708948e+00 5.552765e+00 6.133296e+00 4.046448e+00 1.670318e+01 2.392215e+01 7.318664e+00 8.366438e+00 8.626477e+00 9.071230e+00 6.917906e+00 9.594043e-01 3.939525e-01 9.425358e-01 1.056296e+00 4.797201e-01 1.024033e+00 1.126019e+00 7.772707e-01 7.801663e-01 9.789056e-01 1.007677e+00 1.122572e+00 5.893922e-01
<GCONST> 6.938404e+01
<TRANSP> 5
 0.000000e+00 1.000000e+00 0.000000e+00 0.000000e+00 0.000000e+00
 0.000000e+00 7.910078e-01 2.089923e-01 0.000000e+00 0.000000e+00
 0.000000e+00 0.000000e+00 4.329472e-01 5.670528e-01 0.000000e+00
 0.000000e+00 0.000000e+00 0.000000e+00 8.580798e-01 1.419202e-01
 0.000000e+00 0.000000e+00 0.000000e+00 0.000000e+00 0.000000e+00
<ENDHMM>
~h "r"
<BEGINHMM>
<NUMSTATES> 5
<STATE> 2
<MEAN> 25
 6.229887e+00 4.500434e+00 -1.403819e+00 -6.647822e+00 1.393813e+00 3.865102e+00 1.550974e+00 -2.376825e+00 -7.663475e+00 -6.738447e+00 -3.393682e+00 5.079591e-01 1.014148e+00 3.388569e-01 -3.830544e-01 -8.042312e-01 -7.234059e-02 5.753837e-01 6.310687e-02 -2.353791e-01 -1.366239e+00 -1.322378e+00 -1.989554e-01 4.383384e-01 3.806713e-01
<VARIANCE> 25
 5.893054e+01 4.175433e+01 2.175370e+01 5.114748e+01 6.432180e+01 2.461368e+01 3.025571e+01 3.140105e+01 7.413053e+01 6.178133e+01 2.751713e+01 1.507843e+01 2.445789e+00 2.578804e+00 1.623882e+00 3.276942e+00 3.881871e+00 2.101727e+00 3.950592e+00 2.791582e+00 3.122560e+00 3.024933e+00 2.487457e+00 1.577513e+00 1.761395e+00
<GCONST> 1.016426e+02
<STATE> 3
<MEAN> 25
 9.003508e+00 3.514067e+00 -3.123144e+00 -6.844657e+00 3.064781e+00 3.256292e+00 -2.095337e+00 -3.344422e+00 -1.020539e+01 -8.486362e+00 -1.368629e+00 1.623681e+00 -1.780904e-01 -8.513594e-01 -1.183294e-02 1.155862e+00 1.076908e+00 -8.543136e-01 -1.462103e+00 -2.605537e-01 2.311068e-01 9.669141e-01 1.138566e+00 -2.730785e-01 2.652524e-01
<VARIANCE> 25
 6.054245e+01 3.174303e+01 3.242100e+01 6.572961e+01 6.054318e+01 2.101581e+01 5.334437e+01 2.201945e+01 5.877356e+01 5.057701e+01 2.549796e+01 2.535021e+01 2.756718e+00 2.650944e+00 2.708912e+00 4.645302e+00 3.527711e+00 2.772347e+00 5.366251e+00 1.865734e+00 2.919507e+00 3.614196e+00 2.804243e+00 2.944476e+00 1.506646e+00
<GCONST> 1.038409e+02
<STATE> 4
<MEAN> 25
 -7.017445e-01 -5.866479e-01 -2.455964e+00 -1.618143e-03 3.586814e+00 2.506000e+00 3.253346e-01 -1.345721e+00 -1.894870e+00 9.557515e-02 1.442059e+00 2.683992e+00 -4.490013e-01 -4.706021e-01 1.175743e-01 4.976857e-01 1.478412e-01 -3.769074e-01 -3.947677e-01 3.405353e-01 5.797268e-01 3.185695e-01 1.132885e-01 -2.460084e-01 -5.655706e-02
<VARIANCE> 25
 9.215984e+01 1.550521e+01 1.892382e+01 4.330990e+01 3.822615e+01 2.654870e+01 8.598512e+01 1.679721e+01 5.863922e+01 3.726551e+01 1.768431e+01 2.279989e+01 8.619155e-01 6.774145e-01 1.372096e+00 2.282457e+00 1.287810e+00 1.775567e+00 1.863960e+00 1.058336e+00 1.858550e+00 1.428779e+00 1.573751e+00 1.757787e+00 7.475014e-01
<GCONST> 9.162033e+01
<TRANSP> 5
 0.000000e+00 1.000000e+00 0.000000e+00 0.000000e+00 0.000000e+00
 0.000000e+00 7.995974e-01 2.004026e-01 0.000000e+00 0.000000e+00
 0.000000e+00 0.000000e+00 7.495977e-01 2.504023e-01 0.000000e+00
 0.000000e+00 0.000000e+00 0.000000e+00 6.136569e-01 3.863432e-01
 0.000000e+00 0.000000e+00 0.000000e+00 0.000000e+00 0.000000e+00
<ENDHMM>
~h "s"
<BEGINHMM>
<NUMSTATES> 5
<STATE> 2
<MEAN> 25
 -1.009711e+01 -1.015810e+01 1.236131e+01 -6.312877e+00 -7.920433e+00 2.813803e+00 5.482938e+00 -3.720793e+00 -6.033421e+00 3.122027e+00 2.605123e+00 -1.675055e+00 -1.364013e+00 -9.494528e-01 1.203492e+00 -9.449712e-01 -9.450749e-01 -3.978535e-02 4.905479e-01 -8.408546e-02 -1.754365e-01 3.433361e-01 2.602591e-01 4.564368e-02 1.119100e+00
<VARIANCE> 25
 4.203261e+01 2.825595e+01 4.491855e+01 3.497195e+01 2.591228e+01 1.421541e+01 1.373367e+01 1.745642e+01 2.452560e+01 2.036599e+01 1.886588e+01 1.479618e+01 3.422698e+00 3.455458e+00 4.879906e+00 2.356716e+00 1.990604e+00 1.569965e+00 1.567894e+00 1.584538e+00 2.598695e+00 1.775612e+00 1.402320e+00 1.587990e+00 2.014753e+00
<GCONST> 9.361252e+01
<STATE> 3
<MEAN> 25
 -1.064785e+01 -9.332007e+00 1.039883e+01 -7.188653e+00 -8.486794e+00 1.983824e+00 5.713607e+00 -1.905782e+00 -4.260640e+00 3.437502e+00 2.883853e+00 -1.037166e+00 1.223418e+00 4.216939e-01 -6.791062e-01 5.592129e-01 5.507398e-01 9.056927e-02 -5.537807e-01 -1.721061e-01 5.752526e-02 -2.005696e-01 -1.947051e-01 -8.911589e-02 -6.537493e-01
<VARIANCE> 25
 3.214308e+01 2.254917e+01 3.530145e+01 2.831319e+01 1.878873e+01 1.312794e+01 2.018200e+01 2.668815e+01 1.705902e+01 1.860542e+01 1.435256e+01 1.449793e+01 3.062309e+00 2.063287e+00 2.529691e+00 1.673399e+00 1.883539e+00 1.660637e+00 1.897321e+00 1.784894e+00 1.840852e+00 1.585567e+00 1.010620e+00 9.162821e-01 3.902389e+00
<GCONST> 9.033763e+01
<STATE> 4
<MEAN> 25
 -7.407921e-01 -4.181408e+00 4.486877e+00 -1.077001e+00 -1.901688e+00 2.376876e+00 1.929218e-01 -3.729079e+00 -4.105780e+00 7.158511e-01 1.763289e+00 -1.219037e+00 1.420940e+00 1.001543e+00 -1.117642e+00 1.373749e+00 1.715261e+00 -4.136416e-01 -1.155664e+00 1.082631e-01 -2.437507e-02 -7.924585e-01 -1.242910e-01 1.528564e-01 -3.768403e-01
<VARIANCE> 25
 5.432641e+01 2.696718e+01 3.600969e+01 3.494971e+01 3.712357e+01 1.912762e+01 3.960899e+01 2.829386e+01 3.526963e+01 1.829552e+01 1.476877e+01 1.448904e+01 5.680420e+00 2.745606e+00 3.681329e+00 5.160544e+00 5.131635e+00 2.518379e+00 4.359531e+00 2.775631e+00 4.129988e+00 2.321763e+00 2.743257e+00 1.627892e+00 3.740114e+00
<GCONST> 1.016167e+02
<TRANSP> 5
 0.000000e+00 1.000000e+00 0.000000e+00 0.000000e+00 0.000000e+00
 0.000000e+00 8.836357e-01 1.163643e-01 0.000000e+00 0.000000e+00
 0.000000e+00 0.000000e+00 8.692229e-01 1.307772e-01 0.000000e+00
 0.000000e+00 0.000000e+00 0.000000e+00 6.412868e-01 3.587132e-01
 0.000000e+00 0.000000e+00 0.000000e+00 0.000000e+00 0.000000e+00
<ENDHMM>
~h "t"
<BEGINHMM>
<NUMSTATES> 5
<STATE> 2
<MEAN> 25
 -1.381869e+00 -6.894696e+00 5.633832e+00 4.279248e+00 6.870202e-01 -1.965851e+00 -2.732849e+00 -1.487602e+00 -2.578949e+00 -9.148511e-01 5.524246e-01 -2.702308e+00 5.434811e-02 -3.723736e-01 4.520656e-01 3.130322e-01 -3.178936e-02 1.626590e-01 2.906903e-02 -1.904284e-01 -2.362287e-01 -3.476826e-02 1.353363e-02 -6.257658e-02 2.535366e-01
<VARIANCE> 25
 4.106852e+01 4.996232e+01 4.317008e+01 5.819003e+01 6.846889e+01 2.934313e+01 6.691158e+01 2.231935e+01 3.073709e+01 2.198336e+01 1.960395e+01 2.335724e+01 3.419483e+00 6.370479e+00 5.063806e+00 4.097563e+00 3.745229e+00 4.196872e+00 5.438393e+00 2.559590e+00 3.517402e+00 2.632014e+00 1.787848e+00 2.184011e+00 9.275333e+00
<GCONST> 1.062758e+02
<STATE> 3
<MEAN> 25
 -5.598145e-01 -2.994213e+00 2.862249e+00 6.155822e+00 2.388563e+00 9.050586e-01 -1.207674e+00 -2.851530e+00 -2.009795e+00 -1.386772e-01 7.209567e-01 -9.485267e-01 -7.691415e-01 9.357039e-01 -1.090959e+00 -1.148305e-02 4.563470e-01 3.338905e-01 1.048874e+00 1.110352e+00 1.228821e+00 4.158511e-01 1.605223e-01 7.497460e-01 -1.481241e+00
<VARIANCE> 25
 2.626766e+01 2.645250e+01 1.958466e+01 4.085639e+01 4.071058e+01 2.792176e+01 4.653909e+01 1.909636e+01 2.179829e+01 2.808610e+01 1.792929e+01 1.235082e+01 1.907297e+00 3.349837e+00 2.541272e+00 2.522699e+00 1.902241e+00 2.869488e+00 3.905082e+00 2.301552e+00 2.119110e+00 2.457147e+00 1.422397e+00 1.208409e+00 2.528325e+00
<GCONST> 9.554321e+01
<STATE> 4
<MEAN> 25
 -5.773463e+00 -5.636181e-01 -2.273915e+00 6.365298e-01 1.925166e-01 2.356282e+00 4.579947e+00 2.012613e+00 3.919563e+00 3.551136e+00 1.322694e+00 2.423030e+00 -2.814375e-02 1.237429e-02 -4.174293e-02 -4.955850e-02 5.500556e-02 -1.803080e-02 5.574364e-03 5.167777e-02 5.753403e-02 1.754046e-02 -4.130033e-02 1.899970e-02 -1.171121e-02
<VARIANCE> 25
 4.837263e+00 7.557393e+00 8.774467e+00 1.074544e+01 8.619925e+00 8.565614e+00 1.334390e+01 6.766163e+00 1.056957e+01 1.091185e+01 6.852028e+00 8.199570e+00 1.788786e-01 6.492487e-01 6.798516e-01 6.801963e-01 5.686180e-01 7.973700e-01 1.005970e+00 7.386740e-01 9.793839e-01 9.497578e-01 7.247609e-01 7.732529e-01 3.017172e-01
<GCONST> 6.581152e+01
<TRANSP> 5
 0.000000e+00 1.000000e+00 0.000000e+00 0.000000e+00 0.000000e+00
 0.000000e+00 8.188522e-01 1.811478e-01 0.000000e+00 0.000000e+00
 0.000000e+00 0.000000e+00 4.471865e-01 5.528135e-01 0.000000e+00
 0.000000e+00 0.000000e+00 0.000000e+00 9.314097e-01 6.859028e-02
 0.000000e+00 0.000000e+00 0.000000e+00 0.000000e+00 0.000000e+00
<ENDHMM>
~h "v"
<BEGINHMM>
<NUMSTATES> 5
<STATE> 2
<MEAN> 25
 -6.302705e+00 -5.977231e-01 9.191810e-01 -3.945388e+00 3.480679e+00 3.992437e+00 1.343590e+00 -1.177117e+00 -1.482917e+00 -4.130881e-01 1.326242e+00 4.015430e-01 -5.306630e-01 -3.657153e-01 -4.213503e-01 -6.004522e-01 -6.499117e-01 -2.058648e-01 2.164847e-01 1.237361e-01 2.321652e-01 3.369216e-01 1.811836e-01 3.814029e-01 -2.976494e-01
<VARIANCE> 25
 4.673196e+01 1.780341e+01 1.379498e+01 3.130012e+01 1.718586e+01 2.191373e+01 2.341159e+01 2.299778e+01 2.098249e+01 1.500340e+01 1.101441e+01 1.038431e+01 5.673180e+00 1.806880e+00 1.067016e+00 3.182109e+00 1.403571e+00 2.314324e+00 3.846640e+00 2.806448e+00 2.995150e+00 2.583389e+00 1.052292e+00 1.014003e+00 2.078953e+00
<GCONST> 9.139982e+01
<STATE> 3
<MEAN> 25
 -3.840734e+00 -8.167889e-01 -9.605665e-01 -2.759182e+00 1.760408e+00 3.257619e+00 2.962298e+00 -1.454864e-01 4.977459e-01 1.086194e+00 4.862350e-01 1.942118e+00 -4.611760e-02 -9.791822e-02 -4.886466e-01 3.994828e-01 -4.498886e-01 1.798995e-01 5.505179e-01 6.467943e-01 7.009119e-01 5.396276e-01 1.961533e-01 4.188976e-02 -6.746624e-01
<VARIANCE> 25
 3.409960e+01 1.866274e+01 1.598361e+01 1.650045e+01 1.665420e+01 1.286805e+01 1.661502e+01 1.295013e+01 1.468364e+01 1.509420e+01 1.363067e+01 1.582597e+01 2.041399e+00 1.808088e+00 1.087856e+00 1.736278e+00 1.066004e+00 1.858876e+00 2.208341e+00 2.020619e+00 1.721523e+00 1.703569e+00 1.070588e+00 1.116308e+00 1.665398e+00
<GCONST> 8.537716e+01
<STATE> 4
<MEAN> 25
 -5.316743e+00 -2.390094e-01 -4.240089e+00 -5.385396e-01 -2.043980e-01 3.563601e+00 5.457229e+00 1.028785e+00 2.562686e+00 3.750525e+00 1.762034e+00 2.699206e+00 -9.941965e-03 -4.121647e-02 2.021739e-02 4.629816e-02 -1.310264e-03 -3.984389e-02 -1.362096e-02 7.563686e-03 -3.821526e-02 2.710701e-03 3.058111e-02 -4.040318e-02 2.545346e-02
<VARIANCE> 25
 8.807503e+00 7.084280e+00 6.693380e+00 8.814902e+00 9.168244e+00 5.975745e+00 8.420197e+00 7.039138e+00 9.594334e+00 8.623693e+00 6.295537e+00 6.715317e+00 3.473770e-01 5.338607e-01 5.315323e-01 7.458755e-01 6.964780e-01 5.076661e-01 5.864973e-01 7.885636e-01 8.236755e-01 8.777920e-01 7.271796e-01 5.986451e-01 2.225231e-01
<GCONST> 6.332382e+01
<TRANSP> 5
 0.000000e+00 1.000000e+00 0.000000e+00 0.000000e+00 0.000000e+00
 0.000000e+00 7.759870e-01 2.240129e-01 0.000000e+00 0.000000e+00
 0.000000e+00 0.000000e+00 5.000752e-01 4.999248e-01 0.000000e+00
 0.000000e+00 0.000000e+00 0.000000e+00 9.241081e-01 7.589189e-02
 0.000000e+00 0.000000e+00 0.000000e+00 0.000000e+00 0.000000e+00
<ENDHMM>
~h "w"
<BEGINHMM>
<NUMSTATES> 5
<STATE> 2
<MEAN> 25
 -9.659291e-01 -8.013823e+00 3.213494e+00 2.020622e+00 2.848535e+00 -1.295320e+00 -4.912309e+00 2.651092e-01 3.154768e+00 7.880093e-01 -1.658880e+00 -1.307622e+00 6.083603e-01 -9.466741e-01 1.299089e+00 6.211629e-01 9.127784e-01 -5.295101e-01 -1.897279e+00 -6.964027e-01 -4.015487e-01 -4.201746e-01 -5.560319e-01 -1.136739e+00 1.534920e+00
<VARIANCE> 25
 2.731817e+01 1.046528e+02 3.716485e+01 1.324108e+01 2.810798e+01 2.005779e+01 5.572405e+01 1.204827e+01 3.875692e+01 1.339960e+01 1.291490e+01 3.257827e+01 7.230959e-01 7.360421e+00 5.738698e+00 3.051084e+00 1.891474e+00 2.041872e+00 3.318609e+00 2.115054e+00 1.670054e+00 7.886260e-01 2.302035e+00 1.040715e+00 6.935554e+00
<GCONST> 9.616261e+01
<STATE> 3
<MEAN> 25
 3.538934e+00 -2.835760e+00 2.594607e+00 5.202058e+00 7.849355e+00 -6.078262e-01 -7.371868e+00 -1.978146e+00 -2.522917e+00 -1.100331e+00 -9.936907e-01 -5.185134e+00 6.712841e-01 1.243302e+00 -3.157163e-01 1.280011e+00 1.521644e+00 3.649198e-01 -1.810065e-01 -4.524153e-01 -1.501943e+00 -5.420932e-01 5.680444e-01 1.715005e-01 -4.194988e-01
<VARIANCE> 25
 1.599997e+01 5.855650e+01 1.122834e+01 2.894854e+01 6.842879e+01 1.561421e+01 3.509496e+01 8.762948e+00 3.893401e+01 8.446909e+00 1.614717e+01 1.841656e+01 7.323342e-01 2.613483e+00 1.363494e+00 2.974848e+00 5.091178e+00 1.530102e+00 2.477008e+00 1.027880e+00 3.624979e+00 1.426529e+00 2.474564e+00 1.363151e+00 1.264602e+00
<GCONST> 9.089722e+01
<STATE> 4
<MEAN> 25
 4.641844e+00 4.480222e+00 3.441314e+00 5.942095e+00 7.276231e+00 2.680158e+00 -1.931546e+00 -2.043442e+00 -8.835414e+00 -8.440276e+00 -3.558168e+00 -5.122498e+00 -1.994437e-01 2.409712e-01 2.139045e-01 -3.852423e-02 -4.156942e-01 2.185038e-01 5.095726e-01 1.130720e-01 3.142987e-01 -1.242454e-01 -2.591805e-01 8.231068e-02 -2.733821e-01
<VARIANCE> 25
 1.094477e+01 1.921064e+01 1.132394e+01 1.452369e+01 2.883294e+01 1.016750e+01 2.761498e+01 1.173397e+01 3.509726e+01 1.879589e+01 2.307676e+01 1.283875e+01 1.444121e-01 3.764236e-01 4.153942e-01 7.801740e-01 8.410725e-01 5.238377e-01 8.774585e-01 4.135099e-01 1.086689e+00 1.283605e+00 9.813089e-01 5.588907e-01 7.701409e-02
<GCONST> 7.133860e+01
<TRANSP> 5
 0.000000e+00 1.000000e+00 0.000000e+00 0.000000e+00 0.000000e+00
 0.000000e+00 5.907054e-01 4.092946e-01 0.000000e+00 0.000000e+00
 0.000000e+00 0.000000e+00 6.970058e-01 3.029942e-01 0.000000e+00
 0.000000e+00 0.000000e+00 0.000000e+00 9.019395e-01 9.806057e-02
 0.000000e+00 0.000000e+00 0.000000e+00 0.000000e+00 0.000000e+00
<ENDHMM>
~h "y"
<BEGINHMM>
<NUMSTATES> 5
<STATE> 2
<MEAN> 25
 4.145178e+00 1.125922e-01 6.078971e+00 6.809153e+00 8.010636e+00 1.250765e-01 -8.831362e+00 -9.759223e-01 -5.046664e+00 -7.127997e+00 2.449816e-02 -2.454253e+00 6.100559e-01 1.692462e-01 -2.353883e-01 -6.133663e-01 1.790144e-01 1.767588e-01 -5.970618e-01 -5.578594e-01 -4.660575e-01 -5.694355e-01 1.565333e-01 4.968299e-01 6.618851e-01
<VARIANCE> 25
 2.256374e+01 2.064893e+01 2.988659e+01 5.482964e+01 4.645543e+01 2.115208e+01 6.564339e+01 4.450500e+01 2.640267e+01 3.048875e+01 2.370768e+01 2.397963e+01 1.299614e+00 1.557987e+00 3.546865e+00 5.891740e+00 4.536626e+00 2.747016e+00 5.140053e+00 3.529611e+00 2.537749e+00 4.562568e+00 2.295432e+00 2.878835e+00 1.439369e+00
<GCONST> 1.012642e+02
<STATE> 3
<MEAN> 25
 1.150929e+01 1.777858e+00 -2.744295e+00 -7.236217e+00 -1.382219e+00 -3.025996e-01 -3.713164e+00 5.327958e-01 -5.512834e+00 -1.059718e+01 3.706521e-01 3.362812e+00 1.160116e-01 5.343649e-01 -2.187458e-01 -3.035951e-01 -7.650896e-01 4.524978e-02 1.225243e+00 7.953829e-01 4.105061e-01 -1.171429e-01 -5.242468e-01 -2.865163e-01 -5.356690e-01
<VARIANCE> 25
 1.277230e+01 1.593389e+01 2.766511e+01 2.608429e+01 6.379666e+01 3.100588e+01 2.843216e+01 4.884428e+01 7.618678e+01 3.494866e+01 2.103313e+01 2.991687e+01 8.539190e-01 5.396924e-01 1.482657e+00 1.918836e+00 2.503223e+00 1.622975e+00 2.301306e+00 3.793963e+00 2.936563e+00 2.521479e+00 2.215501e+00 1.487482e+00 4.253407e-01
<GCONST> 9.318117e+01
<STATE> 4
<MEAN> 25
 6.872832e+00 6.884800e+00 -7.859585e-01 -4.062627e-02 1.406986e+00 3.060135e+00 1.670725e+00 -8.685273e-01 -1.175021e+00 -2.464626e+00 -3.762043e+00 -4.411468e+00 -4.085358e-01 2.246394e-01 2.494742e-01 5.558912e-01 3.113704e-01 2.604964e-01 1.708316e-01 -2.696370e-01 1.236348e-01 4.387516e-01 -2.462170e-01 -4.538105e-01 -4.240058e-01
<VARIANCE> 25
 1.386787e+01 9.567825e+00 2.097042e+01 6.906691e+01 4.392521e+01 1.979085e+01 1.071039e+01 3.594205e+01 1.667371e+01 2.601200e+01 9.697680e+00 3.179063e+01 2.375129e-01 2.467975e-01 4.241256e-01 1.540403e+00 1.616091e+00 8.663322e-01 7.638726e-01 1.441209e+00 9.411246e-01 9.387402e-01 6.528550e-01 1.065215e+00 1.898507e-01
<GCONST> 7.765901e+01
<TRANSP> 5
 0.000000e+00 1.000000e+00 0.000000e+00 0.000000e+00 0.000000e+00
 0.000000e+00 8.939466e-01 1.060533e-01 0.000000e+00 0.000000e+00
 0.000000e+00 0.000000e+00 8.733580e-01 1.266421e-01 0.000000e+00
 0.000000e+00 0.000000e+00 0.000000e+00 9.041409e-01 9.585902e-02
 0.000000e+00 0.000000e+00 0.000000e+00 0.000000e+00 0.000000e+00
<ENDHMM>
~h "z"
<BEGINHMM>
<NUMSTATES> 5
<STATE> 2
<MEAN> 25
 -9.314759e+00 -9.070409e+00 1.269847e+01 -3.709748e+00 -7.164442e+00 4.087888e+00 6.639042e+00 -2.149119e+00 -8.506902e+00 5.758630e-01 2.573806e+00 -1.427499e+00 -4.850468e-02 -2.491060e-01 2.274343e-01 -1.978814e-02 -2.753646e-02 3.119060e-01 1.341318e-01 -2.545189e-02 -5.116711e-01 -5.522240e-02 2.915919e-01 -1.369390e-01 -1.444313e-02
<VARIANCE> 25
 5.466811e+01 4.548669e+01 5.692542e+01 4.433764e+01 4.010236e+01 2.085050e+01 1.544731e+01 2.104847e+01 2.747186e+01 2.761144e+01 1.359897e+01 1.284789e+01 4.480955e+00 3.895723e+00 5.605522e+00 2.297825e+00 1.899388e+00 1.532376e+00 1.699730e+00 1.094868e+00 2.343949e+00 1.859787e+00 1.601272e+00 1.489036e+00 2.081914e+00
<GCONST> 9.608625e+01
<STATE> 3
<MEAN> 25
 -4.709170e+00 -5.417073e+00 1.280175e+01 1.618049e-01 -1.077678e+00 5.661655e+00 4.904946e+00 -3.680844e+00 -8.832603e+00 1.813306e+00 1.819111e+00 -2.996915e+00 5.500547e-01 3.627237e-01 -9.517626e-01 5.678288e-01 5.767440e-01 -3.590792e-01 -6.271239e-01 -2.849208e-01 2.980109e-01 -1.039871e-01 -3.686747e-03 2.267848e-01 -3.040648e-01
<VARIANCE> 25
 1.538540e+01 1.334908e+01 1.116625e+02 1.236946e+01 2.189857e+01 2.072376e+01 1.411939e+01 3.182255e+01 4.571561e+01 2.634385e+01 1.454034e+01 2.375008e+01 2.549784e+00 2.093740e+00 3.271911e+00 2.247712e+00 2.943666e+00 8.012742e-01 2.542995e+00 2.036650e+00 3.021780e+00 2.780266e+00 1.641493e+00 1.184048e+00 1.177742e+00
<GCONST> 9.279565e+01
<STATE> 4
<MEAN> 25
 -6.118011e+00 -1.691800e-02 -2.383330e+00 1.158520e+00 1.383638e+00 3.929651e+00 4.577027e+00 1.758505e-02 2.367160e+00 3.046962e+00 1.458240e+00 2.585681e+00 5.129725e-02 9.183664e-02 -1.528674e-01 6.140317e-02 1.795320e-01 -9.970361e-02 -7.650477e-02 9.330854e-02 4.141811e-02 -2.194589e-02 -1.234482e-02 1.295854e-02 -5.269505e-02
<VARIANCE> 25
 7.202188e+00 4.631886e+00 1.181940e+01 9.227844e+00 8.672966e+00 9.184774e+00 8.232702e+00 1.126483e+01 1.485491e+01 1.065092e+01 9.936078e+00 8.221305e+00 5.320812e-01 6.832685e-01 1.488623e+00 1.001901e+00 1.343009e+00 1.115347e+00 1.378023e+00 8.741876e-01 1.263274e+00 1.076747e+00 1.213081e+00 8.207290e-01 2.358244e-01
<GCONST> 7.135744e+01
<TRANSP> 5
 0.000000e+00 1.000000e+00 0.000000e+00 0.000000e+00 0.000000e+00
 0.000000e+00 8.706539e-01 1.293461e-01 0.000000e+00 0.000000e+00
 0.000000e+00 0.000000e+00 8.236787e-01 1.763214e-01 0.000000e+00
 0.000000e+00 0.000000e+00 0.000000e+00 9.455419e-01 5.445818e-02
 0.000000e+00 0.000000e+00 0.000000e+00 0.000000e+00 0.000000e+00
<ENDHMM>
~h "aa"
<BEGINHMM>
<NUMSTATES> 5
<STATE> 2
<MEAN> 25
 1.229288e+01 -2.581348e+00 -5.852019e+00 -8.494898e+00 -7.865335e+00 -7.931632e+00 -1.372604e+00 8.288547e+00 5.537330e+00 -1.437022e+00 -4.408424e+00 3.476495e-01 1.240990e-01 2.919255e-01 8.577260e-02 -1.042435e-01 -2.393652e-01 -3.723033e-01 -1.602230e-01 1.497656e-01 1.542488e-01 -2.525748e-02 -1.528449e-01 -7.175773e-02 -7.326294e-02
<VARIANCE> 25
 1.766975e+01 1.223597e+01 1.226451e+01 1.569147e+01 2.624211e+01 4.814533e+01 2.293578e+01 9.817266e+00 1.404632e+01 2.401566e+01 1.169650e+01 8.849286e+00 7.702561e-01 8.208054e-01 8.917488e-01 8.616078e-01 1.420103e+00 2.358340e+00 2.140665e+00 9.627065e-01 1.359284e+00 7.237498e-01 7.752324e-01 5.646355e-01 4.583112e-01
<GCONST> 7.918916e+01
<STATE> 3
<MEAN> 25
 8.087317e+00 3.896297e+00 1.063511e-01 -6.252775e+00 -9.407402e+00 -8.882948e+00 -2.447764e+00 7.808049e+00 6.700588e+00 -3.064831e+00 -3.687325e+00 5.239149e-01 -1.243574e+00 1.403205e+00 1.494974e+00 1.272506e+00 1.840631e+00 1.549408e+00 -1.910372e-01 -5.533002e-01 -7.427096e-01 2.659883e-01 8.940181e-01 -6.078519e-01 -1.450494e+00
<VARIANCE> 25
 6.459422e+01 1.099964e+01 5.786582e+00 2.984864e+01 2.970583e+01 8.010825e+01 1.920815e+01 1.602595e+01 2.054021e+01 2.524207e+01 2.010248e+01 1.100621e+01 1.760053e+00 2.170368e+00 1.295408e+00 2.588360e+00 3.247004e+00 2.481207e+00 2.773110e+00 2.350124e+00 3.049366e+00 3.261784e+00 4.337541e-01 2.186725e+00 2.262235e+00
<GCONST> 9.239077e+01
<STATE> 4
<MEAN> 25
 4.243021e+00 5.162924e+00 1.618196e+00 -2.006799e+00 -4.795108e+00 -5.582610e+00 -1.189889e+00 5.586462e+00 5.151380e+00 -1.018906e+00 -2.357961e+00 -5.801196e-01 -2.078236e+00 -1.192096e-01 2.327844e-01 2.266794e+00 2.224500e+00 2.041536e+00 1.314539e+00 -1.080531e+00 -5.650663e-01 1.407656e+00 8.297480e-01 -7.069796e-01 -1.785698e+00
<VARIANCE> 25
 6.850853e+01 2.414225e+01 1.122833e+01 1.789118e+01 2.912815e+01 9.014475e+01 3.545916e+01 8.590474e+00 1.836714e+01 1.603128e+01 2.642830e+01 2.693823e+01 3.736003e+00 2.257638e+00 2.224671e+00 2.600938e+00 3.262239e+00 5.235749e+00 2.579146e+00 1.458463e+00 1.857597e+00 3.265255e+00 3.317967e+00 6.012394e+00 2.641751e+00
<GCONST> 9.832365e+01
<TRANSP> 5
 0.000000e+00 1.000000e+00 0.000000e+00 0.000000e+00 0.000000e+00
 0.000000e+00 8.876193e-01 1.123807e-01 0.000000e+00 0.000000e+00
 0.000000e+00 0.000000e+00 2.760303e-01 7.239697e-01 0.000000e+00
 0.000000e+00 0.000000e+00 0.000000e+00 3.130454e-01 6.869547e-01
 0.000000e+00 0.000000e+00 0.000000e+00 0.000000e+00 0.000000e+00
<ENDHMM>
~h "ae"
<BEGINHMM>
<NUMSTATES> 5
<STATE> 2
<MEAN> 25
 -1.763346e+00 -1.760046e+00 -4.037654e+00 -2.672493e+00 3.425721e-01 1.125484e+00 1.399273e+00 7.529137e-01 4.108576e-01 2.053528e+00 3.292377e+00 1.978289e+00 2.175717e+00 -1.038134e+00 -9.608281e-01 -9.093667e-01 -2.200264e-01 -8.858384e-01 -1.284924e+00 -3.500705e-01 -1.033083e+00 -2.426976e-01 7.605998e-01 -6.945379e-03 2.164045e+00
<VARIANCE> 25
 4.517417e+01 2.151809e+01 1.910833e+01 1.923829e+01 7.052015e+00 1.064243e+01 3.397280e+01 1.903749e+01 2.587339e+01 1.268501e+01 1.599152e+01 9.048936e+00 4.182430e+00 3.640598e+00 2.819301e+00 1.865756e+00 8.480797e-01 2.448822e+00 3.565781e+00 1.643879e+00 1.860012e+00 1.292167e+00 2.177598e+00 1.757481e+00 4.793608e+00
<GCONST> 9.096058e+01
<STATE> 3
<MEAN> 25
 1.195113e+01 -5.487952e+00 -8.562345e+00 -9.050110e+00 -1.203787e+00 -2.554996e+00 -5.052616e+00 -5.400683e-01 -3.996980e+00 7.827522e-01 5.501801e+00 1.184371e+00 7.551224e-01 9.311938e-02 -1.187928e-01 -5.115055e-01 -2.071893e-01 -1.504984e-01 -1.966659e-01 -1.434136e-01 -9.458560e-02 -2.902875e-01 -2.631129e-01 -1.694434e-01 6.541473e-01
<VARIANCE> 25
 2.298885e+01 1.930873e+01 1.697137e+01 2.233525e+01 1.881122e+01 1.912834e+01 1.805849e+01 1.896111e+01 1.746034e+01 1.392132e+01 2.665976e+01 1.347628e+01 1.679144e+00 1.800338e+00 1.909724e+00 1.038483e+00 1.031731e+00 1.951313e+00 1.991201e+00 2.264907e+00 1.586785e+00 1.127424e+00 1.400031e+00 1.178393e+00 2.298153e+00
<GCONST> 8.699065e+01
<STATE> 4
<MEAN> 25
 9.393818e+00 9.169736e-01 -2.075073e+00 -4.914256e+00 -2.460526e+00 -4.231217e+00 -5.661429e+00 -3.983506e+00 -4.492646e+00 -9.657021e-01 7.964477e-01 -1.090847e+00 -7.308008e-01 1.022346e+00 8.844418e-01 9.917297e-01 2.479112e-01 5.131434e-01 5.967029e-01 -7.640865e-02 3.785467e-01 -4.648533e-03 -7.095348e-01 -3.827133e-01 -1.238155e+00
<VARIANCE> 25
 3.050383e+01 3.835941e+01 3.365007e+01 4.584983e+01 5.621537e+01 5.685891e+01 2.105551e+01 2.008103e+01 3.235590e+01 1.776893e+01 4.108465e+01 1.990982e+01 2.291580e+00 1.437050e+00 1.912176e+00 2.818691e+00 3.340565e+00 3.722644e+00 2.735940e+00 1.615732e+00 2.309906e+00 1.508465e+00 2.257679e+00 1.998197e+00 2.512533e+00
<GCONST> 9.809033e+01
<TRANSP> 5
 0.000000e+00 1.000000e+00 0.000000e+00 0.000000e+00 0.000000e+00
 0.000000e+00 7.291432e-01 2.708568e-01 0.000000e+00 0.000000e+00
 0.000000e+00 0.000000e+00 8.286657e-01 1.713343e-01 0.000000e+00
 0.000000e+00 0.000000e+00 0.000000e+00 8.003062e-01 1.996938e-01
 0.000000e+00 0.000000e+00 0.000000e+00 0.000000e+00 0.000000e+00
<ENDHMM>
~h "ah"
<BEGINHMM>
<NUMSTATES> 5
<STATE> 2
<MEAN> 25
 3.893777e+00 -1.093166e+00 1.571123e-02 -1.371012e+00 4.358843e-01 -2.098084e-01 -2.159184e+00 -1.550438e+00 -3.103502e+00 -2.273214e+00 1.243532e-01 -5.865440e-01 5.735723e-01 -2.216426e-01 1.838443e-01 -1.964477e-01 -3.479301e-01 -5.160956e-01 -3.956747e-01 1.659207e-01 -2.890708e-01 -2.910163e-01 5.396428e-02 -1.249933e-01 7.311528e-01
<VARIANCE> 25
 6.130135e+01 3.963451e+01 4.417713e+01 5.972044e+01 4.933577e+01 3.383437e+01 4.440087e+01 2.847470e+01 4.427332e+01 3.770151e+01 3.041075e+01 2.153991e+01 4.893251e+00 4.038436e+00 3.517413e+00 3.613085e+00 3.018522e+00 3.014791e+00 3.605507e+00 2.996253e+00 4.018188e+00 2.947667e+00 2.527187e+00 2.414531e+00 4.135772e+00
<GCONST> 1.059018e+02
<STATE> 3
<MEAN> 25
 -9.890364e-01 -5.778953e+00 4.529218e+00 3.321070e-01 -1.320016e+00 -3.509453e-01 -9.078699e-01 -1.287100e+00 -2.779931e+00 -5.367400e-01 5.835820e-01 -5.395494e-01 -9.368606e-02 5.566072e-01 1.692658e-01 2.544264e-01 1.733509e-01 1.100132e-01 2.499945e-01 1.746232e-01 3.792804e-01 3.160459e-01 -1.441935e-01 -2.503865e-01 -4.474417e-01
<VARIANCE> 25
 9.194397e+01 9.498888e+01 6.696308e+01 5.018487e+01 4.651234e+01 3.726795e+01 5.129110e+01 3.087924e+01 4.175753e+01 2.805645e+01 2.494654e+01 2.437271e+01 4.628063e+00 5.227623e+00 3.215574e+00 2.533684e+00 2.678346e+00 3.214444e+00 3.463608e+00 2.938932e+00 3.123550e+00 1.915788e+00 2.283544e+00 2.646842e+00 2.935148e+00
<GCONST> 1.058654e+02
<STATE> 4
<MEAN> 25
 -8.668301e-01 -4.216476e-01 -8.951574e-02 -3.826007e-01 9.724253e-01 1.145442e+00 1.611050e+00 6.474563e-01 9.239131e-01 6.760304e-01 -1.125175e-01 1.447264e-01 -1.097481e-01 2.531342e-01 3.165059e-02 1.677741e-01 5.435678e-02 -9.251040e-02 1.041203e-01 1.020166e-01 1.560618e-01 1.597151e-01 -1.737386e-01 -3.399555e-01 -1.805747e-01
<VARIANCE> 25
 5.977746e+01 2.750915e+01 2.222594e+01 3.430578e+01 2.597060e+01 3.374679e+01 3.327129e+01 1.717501e+01 3.089004e+01 2.580052e+01 2.153123e+01 2.808015e+01 1.836233e+00 2.519624e+00 2.482190e+00 2.449682e+00 2.902467e+00 2.649662e+00 2.001613e+00 2.009562e+00 2.192705e+00 1.967166e+00 2.059801e+00 2.422585e+00 1.593090e+00
<GCONST> 9.650168e+01
<TRANSP> 5
 0.000000e+00 1.000000e+00 0.000000e+00 0.000000e+00 0.000000e+00
 0.000000e+00 6.831155e-01 3.168846e-01 0.000000e+00 0.000000e+00
 0.000000e+00 0.000000e+00 6.022292e-01 3.977708e-01 0.000000e+00
 0.000000e+00 0.000000e+00 0.000000e+00 5.777312e-01 4.222689e-01
 0.000000e+00 0.000000e+00 0.000000e+00 0.000000e+00 0.000000e+00
<ENDHMM>
~h "ao"
<BEGINHMM>
<NUMSTATES> 5
<STATE> 2
<MEAN> 25
 5.655523e+00 4.507693e+00 1.429490e+00 -3.452215e+00 -9.312962e+00 -1.157224e+01 -3.100096e+00 4.940902e+00 6.497624e+00 2.568532e+00 -2.362157e+00 4.492489e-01 2.667392e+00 1.648036e+00 -1.652697e-01 5.211318e-01 -2.179005e+00 -3.880825e+00 -3.230460e+00 -5.019849e-01 3.822381e-01 -3.883840e-01 -4.244596e-01 -2.745958e-02 8.029944e-01
<VARIANCE> 25
 4.151739e+01 2.153237e+01 2.634000e+01 2.215187e+01 5.259384e+01 8.138988e+01 3.987107e+01 6.500628e+01 1.739238e+01 1.007988e+01 1.086301e+01 1.251530e+01 2.478313e+00 3.291795e+00 1.284404e+00 1.738617e+00 4.162516e+00 3.250806e+00 1.982381e+00 6.341414e+00 2.088094e+00 1.243069e+00 9.683937e-01 9.283321e-01 2.173564e+00
<GCONST> 9.507501e+01
<STATE> 3
<MEAN> 25
 1.182756e+01 5.974405e+00 3.844524e-01 -3.204573e+00 -1.668407e+01 -2.343438e+01 -9.567366e+00 5.314441e+00 7.446366e+00 3.066735e+00 -1.738381e+00 1.118385e+00 -2.286507e-02 1.861225e-01 2.924063e-01 2.297587e-01 -2.140012e-01 -2.575715e-01 -3.447945e-01 -4.243082e-01 -2.485547e-01 -8.674072e-03 3.021390e-01 2.041861e-01 -1.339761e-01
<VARIANCE> 25
 7.333245e+00 6.263098e+00 2.139022e+01 8.770610e+00 1.109230e+01 1.453992e+01 1.441089e+01 3.211728e+01 1.109921e+01 1.213216e+01 9.314068e+00 9.664056e+00 2.156739e-01 4.091296e-01 2.513851e-01 4.660102e-01 3.929102e-01 7.840748e-01 6.801001e-01 7.191612e-01 4.900901e-01 5.260672e-01 4.552526e-01 3.463512e-01 1.219960e-01
<GCONST> 6.386046e+01
<STATE> 4
<MEAN> 25
 7.862023e+00 9.656654e+00 5.058634e+00 -1.744625e+00 -1.279497e+01 -1.456056e+01 -9.593880e+00 -4.396038e+00 9.638048e-01 1.142561e+00 2.887110e-01 1.930387e+00 -7.335029e-02 4.206728e-02 -1.877080e-01 -3.417221e-01 1.622704e-01 7.719857e-01 7.444400e-01 1.707662e-01 -2.295334e-01 -2.058482e-01 -1.713224e-01 -2.941366e-01 -6.993316e-02
<VARIANCE> 25
 7.579789e+00 6.819230e+00 1.582019e+01 2.139355e+01 1.727203e+01 4.959109e+01 2.762618e+01 3.729562e+01 2.203165e+01 1.714347e+01 1.181645e+01 1.204031e+01 3.604576e-01 1.922925e-01 9.252834e-01 1.204074e+00 7.086511e-01 1.351424e+00 1.168053e+00 1.077424e+00 1.581923e+00 1.263876e+00 9.383034e-01 6.304283e-01 1.254021e-01
<GCONST> 7.601608e+01
<TRANSP> 5
 0.000000e+00 1.000000e+00 0.000000e+00 0.000000e+00 0.000000e+00
 0.000000e+00 6.953828e-01 3.046173e-01 0.000000e+00 0.000000e+00
 0.000000e+00 0.000000e+00 8.890541e-01 1.109460e-01 0.000000e+00
 0.000000e+00 0.000000e+00 0.000000e+00 9.117114e-01 8.828864e-02
 0.000000e+00 0.000000e+00 0.000000e+00 0.000000e+00 0.000000e+00
<ENDHMM>
~h "aw"
<BEGINHMM>
<NUMSTATES> 5
<STATE> 2
<MEAN> 25
 -3.371310e+00 -2.379367e+00 1.841443e+00 2.974494e+00 4.737161e-01 -1.316159e+00 1.319080e+00 3.815461e-01 -2.929949e-01 -4.206045e-01 -1.455771e+00 -1.870444e+00 -4.174661e-01 -2.292480e+00 5.021009e-01 -6.698361e-03 -3.967486e-01 -5.423172e-01 -8.278549e-01 2.474325e-01 1.882572e-01 1.609556e-01 9.751012e-01 7.764682e-01 1.068823e+00
<VARIANCE> 25
 9.553225e+00 8.947424e+01 1.841961e+01 7.281956e+00 1.202313e+01 2.104337e+01 2.954858e+01 9.503931e+00 1.387971e+01 2.179877e+01 1.681535e+01 1.992886e+01 1.074761e+00 5.808300e+00 3.149065e+00 1.158392e+00 2.156743e+00 3.931265e+00 3.793660e+00 1.383176e+00 2.668409e+00 3.609946e+00 2.450039e+00 1.220749e+00 5.215755e+00
<GCONST> 9.222769e+01
<STATE> 3
<MEAN> 25
 -8.952503e-01 -1.112079e+01 2.567609e+00 5.298525e+00 2.499032e+00 -1.641112e+00 -5.076634e+00 -2.464040e+00 -4.236894e+00 7.895177e-01 5.017355e+00 -2.646987e-01 4.116942e-01 2.216420e+00 -1.486130e+00 2.181769e-02 7.215465e-01 9.659645e-01 1.333028e+00 -5.698153e-02 2.650274e-02 9.638318e-01 3.640427e-01 -1.624514e-01 -1.532264e+00
<VARIANCE> 25
 1.739355e+01 6.519678e+01 3.164879e+01 2.944043e+01 1.353198e+01 1.164695e+01 3.164203e+01 6.994359e+00 7.397172e+00 2.740006e+01 2.224148e+01 1.928783e+01 1.218471e+00 2.716232e+00 2.961907e+00 2.314434e+00 1.917584e+00 1.648715e+00 4.335616e+00 2.610738e+00 1.584542e+00 2.075605e+00 1.468636e+00 1.093678e+00 1.932002e+00
<GCONST> 9.067265e+01
<STATE> 4
<MEAN> 25
 -6.331283e+00 -2.956417e-01 -1.427957e+00 1.104104e+00 -2.786991e-01 7.040375e-01 3.542648e+00 1.472701e+00 2.792198e+00 3.296975e+00 1.935142e+00 2.589510e+00 -4.751591e-02 1.688888e-01 1.479403e-02 -2.610233e-01 -7.445648e-02 4.185746e-02 -8.445571e-02 5.453473e-02 1.712182e-01 -9.551305e-02 -2.446815e-01 6.243045e-02 -4.969142e-02
<VARIANCE> 25
 7.121738e+00 3.833184e+00 3.136421e+00 5.467926e+00 4.235367e+00 5.456621e+00 8.971936e+00 6.769558e+00 7.901136e+00 6.132929e+00 8.628760e+00 1.040254e+01 1.288536e-01 3.467532e-01 5.143578e-01 6.831713e-01 3.101889e-01 6.520616e-01 9.578525e-01 5.867738e-01 6.976489e-01 7.054997e-01 6.836623e-01 8.553589e-01 1.021765e-01
<GCONST> 5.786552e+01
<TRANSP> 5
 0.000000e+00 1.000000e+00 0.000000e+00 0.000000e+00 0.000000e+00
 0.000000e+00 8.721623e-01 1.278377e-01 0.000000e+00 0.000000e+00
 0.000000e+00 0.000000e+00 8.064701e-01 1.935298e-01 0.000000e+00
 0.000000e+00 0.000000e+00 0.000000e+00 9.398093e-01 6.019071e-02
 0.000000e+00 0.000000e+00 0.000000e+00 0.000000e+00 0.000000e+00
<ENDHMM>
~h "ay"
<BEGINHMM>
<NUMSTATES> 5
<STATE> 2
<MEAN> 25
 9.524958e+00 2.670002e-01 -2.872460e+00 -8.030120e-01 4.382365e+00 -2.842587e+00 -9.316967e+00 -3.592811e+00 -6.487302e+00 -4.028594e+00 2.747868e+00 8.737030e-02 6.292274e-01 1.310998e-01 1.849018e-01 5.187057e-02 1.137935e-01 -4.337951e-01 -8.124772e-01 -1.404482e-01 -2.835389e-01 -3.998299e-01 -7.081223e-04 -1.779269e-02 3.374479e-01
<VARIANCE> 25
 5.022042e+01 1.578901e+01 3.264548e+01 5.792835e+01 3.498752e+01 2.644173e+01 6.682736e+01 2.501337e+01 3.679106e+01 2.337842e+01 3.251068e+01 2.904077e+01 2.304348e+00 1.178461e+00 2.635192e+00 4.691811e+00 3.244948e+00 1.954320e+00 2.613733e+00 2.737029e+00 2.348921e+00 1.544740e+00 2.827177e+00 3.649311e+00 1.183913e+00
<GCONST> 9.914640e+01
<STATE> 3
<MEAN> 25
 9.476839e+00 7.645367e-01 -1.787717e+00 4.587773e-01 4.277182e+00 -2.543291e+00 -6.907549e+00 8.928048e-02 -3.387982e+00 -4.593843e+00 1.458735e+00 1.151962e-01 -4.245234e-01 1.796487e-01 3.208074e-01 1.868824e-01 -3.505053e-01 8.284999e-02 6.542948e-01 3.471632e-01 6.270992e-01 1.559244e-01 -4.614262e-01 -2.506590e-01 -5.495212e-01
<VARIANCE> 25
 3.101094e+01 1.760070e+01 1.453371e+01 7.527171e+01 5.092288e+01 4.105106e+01 4.993934e+01 7.264079e+01 3.710328e+01 3.181013e+01 1.710324e+01 5.022885e+01 2.162681e+00 1.305986e+00 2.074003e+00 3.941008e+00 2.456677e+00 3.825823e+00 4.448714e+00 3.749364e+00 2.161424e+00 2.024502e+00 1.722182e+00 2.237662e+00 2.002473e+00
<GCONST> 1.006311e+02
<STATE> 4
<MEAN> 25
 9.625742e+00 4.764458e+00 -1.138776e+00 -5.814909e+00 -5.243482e+00 -5.778842e+00 -5.363578e+00 7.427247e-01 3.597779e-01 -2.736031e+00 -1.552360e+00 6.011853e-01 -1.435922e-01 -9.016903e-02 2.601697e-02 2.670316e-01 3.687266e-01 2.707301e-01 9.322435e-02 -7.631982e-02 -1.181480e-01 1.211823e-01 1.217710e-01 -1.240311e-01 -1.606048e-01
<VARIANCE> 25
 2.751989e+01 1.560254e+01 2.138792e+01 3.398547e+01 4.060593e+01 3.955012e+01 4.633682e+01 6.190786e+01 3.710551e+01 2.083210e+01 2.284055e+01 1.905641e+01 6.867327e-01 5.349859e-01 8.634920e-01 9.836129e-01 1.311098e+00 1.228284e+00 1.856943e+00 1.781413e+00 1.421276e+00 1.209590e+00 8.286401e-01 1.019925e+00 3.466038e-01
<GCONST> 8.648953e+01
<TRANSP> 5
 0.000000e+00 1.000000e+00 0.000000e+00 0.000000e+00 0.000000e+00
 0.000000e+00 8.073722e-01 1.926278e-01 0.000000e+00 0.000000e+00
 0.000000e+00 0.000000e+00 7.502874e-01 2.497125e-01 0.000000e+00
 0.000000e+00 0.000000e+00 0.000000e+00 8.755090e-01 1.244910e-01
 0.000000e+00 0.000000e+00 0.000000e+00 0.000000e+00 0.000000e+00
<ENDHMM>
~h "ch"
<BEGINHMM>
<NUMSTATES> 5
<STATE> 2
<MEAN> 25
 -2.947931e+00 1.459835e+00 -4.538870e+00 -3.552863e+00 -5.605475e-02 2.703758e+00 4.197918e+00 6.810842e-01 1.729639e+00 4.568384e+00 4.458231e+00 3.851834e+00 -5.258500e-01 -2.238623e-01 -3.423657e-01 1.123569e-01 -2.015181e-01 -3.216875e-01 3.557725e-01 5.519561e-01 5.188374e-01 -2.635792e-01 -2.940744e-01 2.597616e-01 -4.630328e-01
<VARIANCE> 25
 2.768663e+00 2.154495e+00 5.561933e+00 8.830841e+00 9.420561e+00 3.205452e+00 8.283487e+00 9.995152e+00 5.638497e+00 7.573219e+00 8.989865e+00 6.236835e+00 1.032364e+00 1.382992e+00 9.504566e-01 8.591158e-01 5.153828e-01 6.271173e-01 1.110463e+00 1.207748e+00 1.475703e+00 1.129199e+00 1.224110e+00 1.339959e+00 1.366709e+00
<GCONST> 6.786739e+01
<STATE> 3
<MEAN> 25
 -3.089799e+00 -6.541003e+00 -3.126079e+00 1.865176e+00 -7.077136e-01 2.932750e-01 1.443308e+00 3.738012e+00 6.128118e+00 -7.587302e-01 -1.315807e+00 3.663465e+00 -6.485332e-01 -4.742321e+00 2.047933e+00 2.092794e+00 -1.080861e+00 -9.694404e-01 -1.859700e+00 3.559980e-01 2.089764e+00 -1.169714e+00 -1.678535e+00 2.013601e-02 2.256497e+00
<VARIANCE> 25
 8.628615e+00 5.785204e+01 2.856762e+01 2.206043e+01 1.144488e+01 1.065945e+01 1.963938e+01 1.380701e+01 2.393553e+01 2.596772e+01 1.555563e+01 4.470821e+00 1.543644e+00 2.877686e+00 4.682953e+00 1.390720e+00 7.995273e-01 1.025151e+00 1.089211e+00 2.168102e+00 1.954200e+00 2.452038e+00 8.988572e-01 7.550849e-01 2.270961e+00
<GCONST> 8.571172e+01
<STATE> 4
<MEAN> 25
 -5.691916e+00 -2.054225e+01 7.626744e+00 7.999512e+00 -8.350227e-01 9.327264e-01 -5.803102e+00 -4.513738e+00 6.113321e+00 2.303602e+00 -4.796980e+00 -8.650787e-01 1.028360e+00 8.213745e-01 4.075499e-02 -7.867534e-02 5.559479e-01 4.471146e-01 -2.882915e-01 -1.399012e+00 -1.508067e+00 -2.392573e-01 -5.729029e-02 -6.214768e-01 4.221193e-01
<VARIANCE> 25
 2.054800e+01 3.823795e+01 2.170821e+01 1.869056e+01 1.284822e+01 2.250027e+01 1.605271e+01 3.776553e+01 3.106486e+01 1.913499e+01 1.699176e+01 1.570016e+01 3.400113e+00 1.256181e+01 3.229493e+00 2.236881e+00 1.078790e+00 2.459421e+00 3.029883e+00 2.290788e+00 3.152406e+00 4.014028e+00 2.595354e+00 9.141036e-01 3.178720e+00
<GCONST> 9.587063e+01
<TRANSP> 5
 0.000000e+00 1.000000e+00 0.000000e+00 0.000000e+00 0.000000e+00
 0.000000e+00 7.787301e-01 2.212699e-01 0.000000e+00 0.000000e+00
 0.000000e+00 0.000000e+00 6.916049e-01 3.083952e-01 0.000000e+00
 0.000000e+00 0.000000e+00 0.000000e+00 8.973306e-01 1.026694e-01
 0.000000e+00 0.000000e+00 0.000000e+00 0.000000e+00 0.000000e+00
<ENDHMM>
~h "dh"
<BEGINHMM>
<NUMSTATES> 5
<STATE> 2
<MEAN> 25
 6.785271e+00 2.638512e+00 -3.497572e+00 -1.455596e-01 8.356254e+00 6.348536e+00 -3.287347e+00 -6.899083e+00 -9.518782e+00 -8.199394e+00 -3.798187e+00 -3.041595e+00 -4.579931e-01 5.103683e-01 -1.395984e-01 -2.213469e-02 -4.953201e-03 1.131755e+00 1.301342e+00 -1.860639e-01 1.486188e-01 -2.894294e-02 -2.550012e-01 1.966815e-01 -6.769526e-01
<VARIANCE> 25
 1.188957e+01 3.454470e+00 1.443924e+01 3.594838e+01 1.792944e+01 2.814855e+01 3.931649e+01 3.821998e+01 6.111464e+01 1.314225e+01 2.486719e+01 4.020219e+01 3.992717e-01 6.642858e-01 9.775316e-01 1.742528e+00 1.693788e+00 1.157486e+00 9.393829e-01 8.740605e-01 1.529387e+00 1.289613e+00 6.456341e-01 2.253416e+00 1.794312e-01
<GCONST> 8.206699e+01
<STATE> 3
<MEAN> 25
 -9.406723e-01 4.032438e+00 4.093480e-01 2.719649e+00 5.304479e+00 8.156003e+00 4.502313e+00 -2.641731e+00 -2.611080e+00 -2.449171e+00 -2.848406e+00 8.192384e-01 -1.316590e+00 -6.015186e-01 7.060383e-02 4.244729e-01 -2.921548e-01 -4.403252e-01 4.856440e-01 9.861195e-01 1.594341e+00 1.550446e+00 5.736726e-01 2.942031e-01 -7.892658e-01
<VARIANCE> 25
 1.837168e+01 3.489349e+00 8.817817e+00 2.001994e+01 4.110646e+00 5.495265e+00 8.491761e+00 1.767585e+01 4.288041e+01 2.757770e+01 1.518397e+01 2.316706e+01 3.674830e-01 5.683652e-01 1.363499e+00 1.588575e+00 5.536117e-01 6.349856e-01 8.114886e-01 9.438260e-01 1.305730e+00 9.717747e-01 1.105276e+00 1.224283e+00 1.478527e-01
<GCONST> 7.287182e+01
<STATE> 4
<MEAN> 25
 -8.135443e+00 -1.671316e+00 -2.565804e+00 5.205710e-01 1.211565e+00 3.576313e+00 4.520043e+00 1.205536e+00 4.239836e+00 5.053126e+00 2.481276e+00 3.252040e+00 -7.175144e-02 -8.244658e-02 -3.075117e-02 -9.845484e-02 -1.218828e-01 -7.104167e-02 -5.431245e-02 8.489131e-03 5.062246e-02 -4.225101e-03 2.054811e-02 4.794599e-02 -1.587148e-02
<VARIANCE> 25
 6.580434e-01 1.131210e+00 2.241157e+00 3.038971e+00 4.141610e+00 4.157324e+00 4.744357e+00 4.857573e+00 5.699078e+00 4.305193e+00 4.646780e+00 5.136840e+00 7.300297e-02 1.325966e-01 2.651048e-01 4.002106e-01 5.097167e-01 6.030189e-01 5.117102e-01 5.830823e-01 5.308833e-01 5.384889e-01 5.338311e-01 5.680817e-01 2.943937e-02
<GCONST> 4.468542e+01
<TRANSP> 5
 0.000000e+00 1.000000e+00 0.000000e+00 0.000000e+00 0.000000e+00
 0.000000e+00 8.625754e-01 1.374245e-01 0.000000e+00 0.000000e+00
 0.000000e+00 0.000000e+00 8.595790e-01 1.404210e-01 0.000000e+00
 0.000000e+00 0.000000e+00 0.000000e+00 9.688089e-01 3.119101e-02
 0.000000e+00 0.000000e+00 0.000000e+00 0.000000e+00 0.000000e+00
<ENDHMM>
~h "eh"
<BEGINHMM>
<NUMSTATES> 5
<STATE> 2
<MEAN> 25
 8.744077e+00 -2.676271e+00 -7.015083e-01 9.073864e-01 3.536932e+00 -4.279765e+00 -9.990634e+00 -3.815085e+00 -6.389403e+00 -1.605102e+00 4.453356e+00 -1.569353e+00 4.853280e-01 -1.002514e-01 -4.678682e-01 -1.258889e-02 4.755282e-02 -4.700123e-02 -2.627618e-01 -2.253281e-01 -4.385129e-01 -8.519025e-02 1.016054e-01 -2.008730e-02 2.522310e-01
<VARIANCE> 25
 3.324847e+01 1.980174e+01 2.807392e+01 3.913784e+01 1.796304e+01 2.197081e+01 4.507415e+01 2.751650e+01 5.494611e+01 3.624020e+01 2.893728e+01 2.162108e+01 2.537017e+00 1.745892e+00 2.521127e+00 2.534294e+00 1.787207e+00 2.415408e+00 4.379316e+00 2.332288e+00 3.748000e+00 2.484204e+00 2.064157e+00 1.743277e+00 2.295632e+00
<GCONST> 9.804690e+01
<STATE> 3
<MEAN> 25
 8.232796e+00 -1.914850e+00 -1.129586e+00 -5.083497e-01 1.434388e+00 -2.272544e+00 -6.571049e+00 -3.180451e+00 -5.497293e+00 -1.039009e+00 2.532613e+00 -1.560415e-01 -5.431312e-01 4.835805e-01 1.147272e-01 4.585878e-02 -1.710885e-01 1.087495e+00 1.691620e+00 4.982381e-01 6.300542e-01 1.166025e-01 -5.082774e-01 1.025745e-02 -7.622675e-01
<VARIANCE> 25
 3.501688e+01 3.618941e+01 2.434144e+01 3.351213e+01 2.781249e+01 2.754500e+01 3.269100e+01 2.691564e+01 3.074245e+01 3.114731e+01 2.761696e+01 1.439053e+01 1.107279e+00 1.539510e+00 1.528328e+00 1.582021e+00 2.120125e+00 2.152164e+00 1.867841e+00 2.394220e+00 3.020781e+00 1.837987e+00 1.888750e+00 1.467991e+00 1.373486e+00
<GCONST> 9.354948e+01
<STATE> 4
<MEAN> 25
 2.197451e+00 -1.886168e-01 -2.225243e+00 -1.302952e+00 -7.391502e-01 1.328359e+00 7.547587e-01 1.339089e-01 -1.305142e+00 -3.401663e-01 2.187378e+00 1.778668e+00 -9.085016e-02 2.314301e-01 1.018288e-01 -1.279386e-01 -2.681832e-01 1.788171e-01 3.228012e-01 1.609196e-01 2.400450e-01 -1.011599e-01 -3.340348e-01 -1.915359e-01 -1.752649e-01
<VARIANCE> 25
 5.659061e+01 1.487490e+01 1.430896e+01 2.322865e+01 2.219789e+01 1.632488e+01 2.998801e+01 1.794696e+01 4.202538e+01 2.723421e+01 1.807955e+01 1.391559e+01 1.596514e+00 1.563442e+00 1.301101e+00 1.283481e+00 2.047958e+00 2.149396e+00 2.227097e+00 1.801142e+00 2.009060e+00 1.979855e+00 1.839679e+00 1.823228e+00 1.213590e+00
<GCONST> 9.032328e+01
<TRANSP> 5
 0.000000e+00 1.000000e+00 0.000000e+00 0.000000e+00 0.000000e+00
 0.000000e+00 8.462042e-01 1.537958e-01 0.000000e+00 0.000000e+00
 0.000000e+00 0.000000e+00 6.175219e-01 3.824780e-01 0.000000e+00
 0.000000e+00 0.000000e+00 0.000000e+00 7.464568e-01 2.535432e-01
 0.000000e+00 0.000000e+00 0.000000e+00 0.000000e+00 0.000000e+00
<ENDHMM>
~h "er"
<BEGINHMM>
<NUMSTATES> 5
<STATE> 2
<MEAN> 25
 1.088023e+01 6.872337e+00 -4.151775e+00 -7.196987e+00 -1.577162e+00 2.553767e+00 3.109915e+00 -4.794560e+00 -1.537573e+01 -1.261775e+01 -3.363522e+00 1.057460e+00 2.363110e-03 3.769714e-01 -2.964709e-01 -4.906216e-01 3.597232e-02 -5.321156e-02 1.982288e-02 8.276007e-02 -5.371343e-01 -4.427339e-01 -3.580630e-02 4.194610e-01 -1.538231e-01
<VARIANCE> 25
 2.225756e+01 1.786696e+01 1.270549e+01 3.798162e+01 1.975669e+01 1.228009e+01 3.211541e+01 5.125210e+01 4.644943e+01 3.326487e+01 3.024580e+01 2.240688e+01 1.013783e+00 2.057263e+00 9.879792e-01 2.515682e+00 1.583021e+00 1.231899e+00 3.446437e+00 2.570112e+00 4.220088e+00 3.207018e+00 2.282551e+00 1.430546e+00 4.951829e-01
<GCONST> 9.245128e+01
<STATE> 3
<MEAN> 25
 3.769907e+00 4.801236e+00 -2.214932e+00 -3.171323e+00 1.555133e+00 2.439650e+00 -4.893925e-01 -5.666126e+00 -9.640065e+00 -5.970290e+00 -1.009528e+00 2.378830e+00 -1.479571e+00 -1.030174e+00 4.654864e-01 6.854123e-01 4.756647e-01 2.645534e-01 2.849871e-01 1.289983e+00 2.487032e+00 2.130414e+00 7.005302e-01 -3.575700e-01 -4.945443e-01
<VARIANCE> 25
 3.850152e+01 1.331327e+01 1.981294e+01 1.489017e+01 1.636034e+01 1.571464e+01 3.643599e+01 2.115059e+01 5.347583e+01 3.337394e+01 1.854608e+01 1.259076e+01 1.358181e+00 1.792252e+00 1.179312e+00 1.623869e+00 6.692646e-01 1.910299e+00 3.320236e+00 2.421445e+00 3.111420e+00 1.835455e+00 1.495956e+00 1.852410e+00 6.526699e-01
<GCONST> 8.921471e+01
<STATE> 4
<MEAN> 25
 -3.357240e+00 2.562278e+00 -2.959056e+00 -2.577522e+00 7.074090e-01 2.013232e+00 4.567198e+00 2.074280e+00 1.078054e+00 2.931376e+00 1.847122e+00 1.323314e+00 -2.066109e-01 -2.434946e-01 1.047462e-01 9.589102e-02 -4.425713e-02 -1.005596e-01 -2.456962e-02 1.830743e-01 3.190180e-01 1.748517e-01 -2.917184e-02 -2.088913e-01 3.061830e-02
<VARIANCE> 25
 1.446844e+01 8.136438e+00 1.696745e+01 2.031487e+01 1.744444e+01 1.131067e+01 1.555437e+01 1.449610e+01 2.271028e+01 1.116724e+01 1.019507e+01 1.736004e+01 5.824416e-01 9.040221e-01 7.468790e-01 9.723020e-01 6.117286e-01 7.868192e-01 8.697734e-01 1.100316e+00 1.492202e+00 1.069454e+00 1.032802e+00 7.335756e-01 1.617856e-01
<GCONST> 7.460462e+01
<TRANSP> 5
 0.000000e+00 1.000000e+00 0.000000e+00 0.000000e+00 0.000000e+00
 0.000000e+00 9.054613e-01 9.453863e-02 0.000000e+00 0.000000e+00
 0.000000e+00 0.000000e+00 7.031919e-01 2.968080e-01 0.000000e+00
 0.000000e+00 0.000000e+00 0.000000e+00 8.877444e-01 1.122556e-01
 0.000000e+00 0.000000e+00 0.000000e+00 0.000000e+00 0.000000e+00
<ENDHMM>
~h "ey"
<BEGINHMM>
<NUMSTATES> 5
<STATE> 2
<MEAN> 25
 7.308443e+00 -4.466610e+00 4.496194e+00 7.793811e+00 7.611113e+00 -8.548832e+00 -1.642082e+01 -4.574711e-01 -2.510767e+00 -5.104547e+00 7.382168e-01 -4.855662e+00 5.828198e-02 -1.072817e-01 4.816851e-01 8.402762e-01 3.263406e-01 -6.020834e-01 -5.414737e-01 4.812463e-01 4.324676e-01 -2.795888e-01 -6.034169e-01 -5.892322e-01 1.075469e-01
<VARIANCE> 25
 1.269194e+01 9.021962e+00 1.492127e+01 2.055576e+01 2.154591e+01 2.140893e+01 3.646881e+01 2.848982e+01 3.461616e+01 2.798454e+01 1.454584e+01 1.701551e+01 9.654584e-01 6.172511e-01 1.005500e+00 9.410125e-01 1.223474e+00 1.199198e+00 3.142512e+00 7.414532e-01 1.676414e+00 1.513459e+00 9.097458e-01 8.447762e-01 1.321423e+00
<GCONST> 8.348365e+01
<STATE> 3
<MEAN> 25
 5.595264e+00 -3.076790e+00 6.270014e+00 1.253482e+01 8.328419e+00 -1.028683e+01 -1.464898e+01 2.678739e+00 1.078413e+00 -5.046231e+00 -4.185938e+00 -7.336703e+00 -2.768740e-01 4.568180e-01 -1.932077e-01 2.270825e-01 -1.807876e-01 5.007506e-01 1.063011e+00 -2.938027e-01 5.300516e-02 3.902504e-01 -2.292888e-01 8.749414e-02 -5.916770e-01
<VARIANCE> 25
 6.014139e+00 1.173957e+01 1.076179e+01 2.359263e+01 1.993609e+01 2.374470e+01 2.852013e+01 2.898792e+01 2.864942e+01 2.815093e+01 9.214625e+00 9.979323e+00 2.884493e-01 3.428076e-01 5.496089e-01 8.575246e-01 5.250035e-01 1.055659e+00 1.410669e+00 1.088298e+00 1.055548e+00 7.477714e-01 7.018530e-01 7.858428e-01 3.803217e-01
<GCONST> 7.480641e+01
<STATE> 4
<MEAN> 25
 1.522224e+00 8.707841e-01 1.698180e+00 9.146571e+00 5.886921e+00 -9.898943e-01 -2.348615e+00 -8.579618e-01 4.553221e-02 -1.626531e+00 -3.021833e+00 -3.288389e+00 -1.189383e+00 4.137542e-01 -6.462764e-01 -1.496674e+00 -9.434692e-01 2.022754e+00 2.225296e+00 -4.553712e-01 2.691247e-01 7.826103e-01 1.564994e-01 8.727654e-01 -1.012495e+00
<VARIANCE> 25
 2.034769e+01 2.759333e+01 2.208770e+01 4.036079e+01 2.631578e+01 4.503045e+01 5.170774e+01 1.467796e+01 1.440655e+01 1.646963e+01 1.273727e+01 2.083735e+01 1.703698e+00 4.250188e+00 1.801051e+00 1.897085e+00 1.722084e+00 4.512437e+00 3.999448e+00 2.934157e+00 1.903679e+00 1.834949e+00 1.428920e+00 1.443350e+00 1.293176e+00
<GCONST> 9.378349e+01
<TRANSP> 5
 0.000000e+00 1.000000e+00 0.000000e+00 0.000000e+00 0.000000e+00
 0.000000e+00 8.722764e-01 1.277236e-01 0.000000e+00 0.000000e+00
 0.000000e+00 0.000000e+00 7.721588e-01 2.278412e-01 0.000000e+00
 0.000000e+00 0.000000e+00 0.000000e+00 6.848974e-01 3.151027e-01
 0.000000e+00 0.000000e+00 0.000000e+00 0.000000e+00 0.000000e+00
<ENDHMM>
~h "hh"
<BEGINHMM>
<NUMSTATES> 5
<STATE> 2
<MEAN> 25
 -5.676232e+00 -8.345742e-01 -1.059859e+00 1.028645e+00 -3.527897e-02 2.704019e+00 5.212339e+00 1.976082e+00 3.402990e+00 2.633016e+00 6.503938e-01 2.452011e+00 -4.997504e-01 -7.842846e-02 -2.074651e-01 -5.270854e-01 -2.645176e-02 4.268339e-01 1.145080e-01 -1.951701e-01 3.850578e-02 2.839592e-01 2.943752e-01 -2.572097e-02 -3.226361e-01
<VARIANCE> 25
 1.801940e+01 5.445070e+00 5.380380e+00 1.956154e+01 1.167611e+01 9.078063e+00 7.383811e+00 6.733784e+00 9.408544e+00 1.133557e+01 1.616170e+01 4.712092e+00 5.339215e-01 1.557523e+00 7.761576e-01 2.177476e+00 5.301892e-01 2.033273e+00 7.809434e-01 1.790721e+00 1.556100e+00 1.721795e+00 1.208865e+00 8.671276e-01 3.451007e-01
<GCONST> 7.348118e+01
<STATE> 3
<MEAN> 25
 -6.715424e+00 -4.390491e-01 -1.655264e+00 1.119951e+00 8.822438e-01 2.588851e+00 3.927664e+00 7.312724e-01 3.585830e+00 3.431211e+00 1.138980e+00 2.743418e+00 -6.606793e-03 -9.244137e-04 -3.902718e-02 -3.062419e-03 -1.413972e-02 -3.743496e-02 -3.177039e-02 1.512203e-02 5.759847e-02 2.722297e-02 1.167543e-02 -1.046234e-02 -2.276199e-02
<VARIANCE> 25
 3.897082e+00 1.959045e+00 2.552662e+00 4.169846e+00 5.170025e+00 4.371212e+00 4.774918e+00 5.882231e+00 5.147175e+00 7.190672e+00 8.090031e+00 4.971747e+00 1.124235e-01 1.040343e-01 2.442335e-01 4.476609e-01 3.590668e-01 5.033769e-01 4.673098e-01 6.604542e-01 5.201639e-01 6.511186e-01 5.188427e-01 4.301042e-01 3.791589e-02
<GCONST> 4.870044e+01
<STATE> 4
<MEAN> 25
 -5.007201e+00 2.558371e-01 -2.124095e+00 5.305802e-01 2.879306e-01 1.714071e+00 2.733673e+00 -3.021447e-01 2.606865e+00 3.064222e+00 9.307762e-01 1.748422e+00 3.210659e-01 2.949359e-02 -1.078143e-01 -2.904655e-01 -1.812357e-01 -2.927799e-01 -3.851074e-01 -2.140611e-01 -4.713946e-02 3.375067e-01 3.326535e-01 -1.690144e-01 2.534456e-01
<VARIANCE> 25
 9.901510e+00 2.237687e+00 4.082136e+00 4.701267e+00 6.000920e+00 7.105369e+00 8.287873e+00 9.335763e+00 1.288809e+01 1.438677e+01 1.294456e+01 9.953871e+00 7.183843e-01 5.370621e-01 9.897883e-01 6.806594e-01 6.209513e-01 8.108915e-01 7.978154e-01 1.334396e+00 1.691631e+00 1.465512e+00 1.647609e+00 1.759193e+00 3.830428e-01
<GCONST> 6.922376e+01
<TRANSP> 5
 0.000000e+00 1.000000e+00 0.000000e+00 0.000000e+00 0.000000e+00
 0.000000e+00 3.462017e-01 6.537983e-01 0.000000e+00 0.000000e+00
 0.000000e+00 0.000000e+00 9.538317e-01 4.616829e-02 0.000000e+00
 0.000000e+00 0.000000e+00 0.000000e+00 8.071846e-01 1.928154e-01
 0.000000e+00 0.000000e+00 0.000000e+00 0.000000e+00 0.000000e+00
<ENDHMM>
~h "ih"
<BEGINHMM>
<NUMSTATES> 5
<STATE> 2
<MEAN> 25
 3.248014e+00 2.380364e+00 3.814440e+00 3.315427e+00 5.440788e+00 4.442102e+00 -2.402530e+00 -4.440310e+00 -1.764510e+00 -7.531323e-01 -1.826632e+00 -4.468363e+00 -1.160342e+00 2.040657e-01 -3.279853e-01 1.917486e-01 -2.180048e-01 5.659196e-01 1.243280e+00 5.048031e-01 8.671332e-01 4.202326e-01 -3.452307e-01 3.427854e-01 -1.198854e+00
<VARIANCE> 25
 4.506683e+01 2.397775e+01 2.837643e+01 2.705173e+01 2.767776e+01 2.787543e+01 5.448201e+01 3.586427e+01 3.340052e+01 2.217928e+01 3.318028e+01 3.331829e+01 2.424453e+00 1.304794e+00 2.995139e+00 2.312613e+00 2.743260e+00 2.907041e+00 3.101885e+00 2.989902e+00 2.851512e+00 2.009822e+00 2.077755e+00 2.842848e+00 2.101289e+00
<GCONST> 9.907238e+01
<STATE> 3
<MEAN> 25
 3.114339e+00 -9.269669e-01 2.087360e+00 1.417158e+00 1.175989e+00 -8.431202e-01 -4.528309e+00 -1.588832e+00 -1.760834e+00 -3.314974e+00 -7.705380e-01 -1.035995e+00 6.943472e-02 -1.680888e-01 -4.938821e-01 -3.416869e-01 -4.185038e-01 -3.605390e-01 2.092105e-02 3.118729e-01 7.220817e-02 -3.139757e-01 -5.975717e-02 5.096031e-01 -7.774020e-03
<VARIANCE> 25
 7.144094e+01 3.219718e+01 3.532857e+01 4.836995e+01 3.767551e+01 4.394282e+01 1.005361e+02 2.469156e+01 3.022979e+01 4.552709e+01 2.192945e+01 2.782868e+01 3.178190e+00 2.783620e+00 3.444069e+00 4.767532e+00 4.036776e+00 3.685804e+00 6.200936e+00 3.030437e+00 2.994957e+00 3.754989e+00 2.181053e+00 2.831268e+00 3.050790e+00
<GCONST> 1.059690e+02
<STATE> 4
<MEAN> 25
 -5.049941e+00 5.699265e-01 -2.673133e+00 3.985001e-01 -2.051115e-01 2.765089e+00 3.870231e+00 8.083166e-01 3.946323e+00 3.276447e+00 5.507333e-01 2.408082e+00 -5.639980e-02 -1.211000e-01 -3.238540e-01 -1.874060e-01 -5.231819e-02 -1.723969e-01 7.248694e-02 1.863218e-01 7.986172e-02 4.237641e-02 1.069196e-01 2.307575e-01 -2.491558e-02
<VARIANCE> 25
 1.001170e+01 1.143435e+01 9.241318e+00 6.391726e+00 9.182401e+00 6.222647e+00 8.973076e+00 1.050397e+01 1.320470e+01 1.458753e+01 6.889465e+00 7.256047e+00 3.838885e-01 6.802831e-01 5.771377e-01 5.563793e-01 7.897741e-01 7.504943e-01 7.009107e-01 9.927931e-01 8.768270e-01 8.279176e-01 7.503262e-01 7.779286e-01 2.612622e-01
<GCONST> 6.696486e+01
<TRANSP> 5
 0.000000e+00 1.000000e+00 0.000000e+00 0.000000e+00 0.000000e+00
 0.000000e+00 6.281794e-01 3.718207e-01 0.000000e+00 0.000000e+00
 0.000000e+00 0.000000e+00 6.527246e-01 3.472753e-01 0.000000e+00
 0.000000e+00 0.000000e+00 0.000000e+00 8.068149e-01 1.931851e-01
 0.000000e+00 0.000000e+00 0.000000e+00 0.000000e+00 0.000000e+00
<ENDHMM>
~h "iy"
<BEGINHMM>
<NUMSTATES> 5
<STATE> 2
<MEAN> 25
 5.665464e+00 -4.931682e+00 7.885898e+00 1.826054e+01 1.164575e+01 -7.401484e+00 -1.351030e+01 1.096651e+00 -2.773827e+00 -1.018382e+01 -5.638496e+00 -5.206631e+00 2.705105e-02 1.588412e-01 9.696802e-02 1.535958e-01 8.923681e-02 -1.238093e-01 -1.566819e-01 1.246391e-01 1.616327e-01 -1.029411e-01 -1.901930e-01 -1.031377e-01 -4.899629e-02
<VARIANCE> 25
 6.786373e+00 1.016148e+01 1.128253e+01 2.261090e+01 1.016340e+01 1.753361e+01 2.376001e+01 1.262185e+01 1.342905e+01 1.428561e+01 1.264759e+01 1.072379e+01 2.349540e-01 4.457681e-01 9.764431e-01 7.155265e-01 1.067393e+00 1.088733e+00 1.335351e+00 7.831177e-01 8.285826e-01 6.872444e-01 5.006867e-01 6.213046e-01 3.608333e-01
<GCONST> 7.160499e+01
<STATE> 3
<MEAN> 25
 4.464821e+00 -3.524790e-01 7.186727e+00 1.367382e+01 1.115914e+01 -2.813138e+00 -1.104559e+01 -2.085893e+00 -2.771729e+00 -6.075902e+00 -4.867583e+00 -6.436254e+00 -4.467143e-01 8.551376e-01 -4.758636e-01 -1.022952e+00 -2.021417e-01 1.435122e+00 1.268578e+00 -6.868032e-01 2.427693e-02 7.253891e-01 2.460909e-01 1.503473e-01 -6.908572e-01
<VARIANCE> 25
 1.524551e+01 1.706758e+01 2.456153e+01 2.802662e+01 2.043949e+01 2.599836e+01 4.007776e+01 3.147720e+01 1.948100e+01 1.495499e+01 1.383285e+01 1.571907e+01 7.574161e-01 9.881860e-01 2.405453e+00 1.795833e+00 1.647365e+00 1.312468e+00 2.566567e+00 1.607955e+00 1.844444e+00 1.176094e+00 1.113643e+00 1.234457e+00 6.968380e-01
<GCONST> 8.660825e+01
<STATE> 4
<MEAN> 25
 -6.838319e-01 1.878975e+00 2.575536e+00 4.508655e+00 6.324833e+00 4.547132e+00 3.815519e-01 -5.930296e-01 -5.196086e-01 -9.306701e-01 -1.183032e+00 -1.541137e+00 -9.345378e-01 8.505522e-02 -7.012239e-01 -1.540083e+00 -8.616595e-01 7.125342e-01 1.518182e+00 5.361893e-01 3.760932e-01 6.548910e-01 6.779720e-01 8.486730e-01 -5.105599e-01
<VARIANCE> 25
 2.901317e+01 1.363935e+01 1.633111e+01 4.014782e+01 2.658155e+01 1.856881e+01 4.599550e+01 2.491736e+01 3.897480e+01 2.273995e+01 1.268649e+01 2.021976e+01 1.670507e+00 9.667377e-01 2.328403e+00 2.613227e+00 1.382243e+00 1.727436e+00 2.893854e+00 1.773322e+00 1.890775e+00 2.181873e+00 1.459631e+00 1.814866e+00 1.024906e+00
<GCONST> 9.120014e+01
<TRANSP> 5
 0.000000e+00 1.000000e+00 0.000000e+00 0.000000e+00 0.000000e+00
 0.000000e+00 9.047095e-01 9.529053e-02 0.000000e+00 0.000000e+00
 0.000000e+00 0.000000e+00 7.034151e-01 2.965849e-01 0.000000e+00
 0.000000e+00 0.000000e+00 0.000000e+00 7.172988e-01 2.827011e-01
 0.000000e+00 0.000000e+00 0.000000e+00 0.000000e+00 0.000000e+00
<ENDHMM>
~h "jh"
<BEGINHMM>
<NUMSTATES> 5
<STATE> 2
<MEAN> 25
 -1.377030e+00 1.591636e-01 -3.036811e+00 1.314156e-01 1.499900e+00 1.221960e+00 1.881335e+00 -7.528411e-01 2.458415e+00 1.772936e+00 -4.380769e-01 -1.076575e-01 1.633514e+00 -2.406107e+00 6.429622e-01 -9.016106e-01 -1.864162e+00 -9.685457e-01 -4.043056e-01 -1.204666e+00 -6.280752e-01 -9.047378e-01 -1.763425e+00 -1.958079e+00 3.997680e+00
<VARIANCE> 25
 5.110032e+01 1.291713e+01 5.218119e+00 2.041020e+01 3.164232e+01 3.209043e+01 3.926069e+01 1.160243e+01 5.485471e+01 3.355513e+01 1.317450e+01 1.438568e+01 2.087808e+00 1.644914e+00 7.018523e-01 3.907474e+00 1.473762e+00 1.542461e-01 2.038822e+00 1.724917e+00 6.843849e-01 4.390906e-01 1.558973e+00 1.556011e+00 9.053369e+00
<GCONST> 8.682018e+01
<STATE> 3
<MEAN> 25
 6.199474e+00 -7.138889e+00 3.015514e+00 -8.254892e-01 -1.473017e-01 -1.550783e+00 -6.479510e+00 -6.156518e+00 -3.096261e+00 -4.172028e+00 -6.286210e-01 -5.826379e+00 1.598208e+00 -1.890490e-01 1.612228e+00 1.293701e+00 1.780761e+00 -2.594303e-01 -2.664596e+00 -1.160413e+00 -2.146422e+00 -1.378129e+00 1.248037e+00 -6.083252e-01 2.379511e+00
<VARIANCE> 25
 2.488138e+01 8.201066e+00 2.298553e+01 7.076854e+01 7.629274e+01 2.456759e+01 3.950697e+01 1.398337e+01 4.957413e+01 2.854837e+01 3.706874e+01 8.635865e+00 3.768337e+00 3.014284e+00 1.463634e+00 2.829913e+00 6.717266e+00 1.256280e+00 6.240027e+00 3.126055e+00 6.656613e+00 2.464784e+00 2.374314e+00 2.195366e+00 8.601959e+00
<GCONST> 1.010892e+02
<STATE> 4
<MEAN> 25
 4.611678e+00 -3.271445e+00 4.828007e+00 1.145855e+01 7.575599e+00 -5.776280e-01 -5.467705e+00 -2.771042e+00 -3.924438e+00 -5.382721e+00 1.535057e+00 -1.841152e+00 -8.307528e-01 -4.354410e-01 8.982353e-01 3.442340e-01 2.508012e-01 2.803475e-01 2.346170e-01 6.074461e-01 7.847967e-01 -2.207167e-01 -3.728103e-01 8.303801e-01 -2.205354e-01
<VARIANCE> 25
 2.583549e+01 3.645329e+01 2.462934e+01 4.739239e+01 9.984229e+00 1.797503e+01 4.110730e+01 3.887560e+01 4.232123e+01 7.906095e+00 1.358159e+01 1.205106e+01 5.248014e+00 8.992284e+00 2.957526e+00 3.628556e+00 5.087252e+00 3.727818e+00 6.512205e+00 2.008718e+00 7.927171e+00 3.689894e+00 2.555290e+00 1.283396e+00 5.987847e+00
<GCONST> 1.014289e+02
<TRANSP> 5
 0.000000e+00 1.000000e+00 0.000000e+00 0.000000e+00 0.000000e+00
 0.000000e+00 4.902946e-01 5.097055e-01 0.000000e+00 0.000000e+00
 0.000000e+00 0.000000e+00 6.505018e-01 3.494982e-01 0.000000e+00
 0.000000e+00 0.000000e+00 0.000000e+00 7.087286e-01 2.912715e-01
 0.000000e+00 0.000000e+00 0.000000e+00 0.000000e+00 0.000000e+00
<ENDHMM>
~h "ng"
<BEGINHMM>
<NUMSTATES> 5
<STATE> 2
<MEAN> 25
 6.495367e-01 4.206516e+00 -1.473070e+00 -2.574586e-01 1.679046e+00 5.304984e+00 3.915012e+00 -8.949233e-01 2.398525e+00 2.867559e+00 -3.084322e+00 -3.793457e+00 -4.881746e-01 -2.219958e-01 -1.154686e-01 6.498928e-02 3.247081e-02 9.327090e-02 1.740389e-01 1.737807e-02 8.959796e-02 9.146011e-02 6.537797e-02 1.246717e-01 -3.426690e-01
<VARIANCE> 25
 1.647894e+01 1.208211e+01 1.210124e+01 2.880391e+01 1.780389e+01 1.208212e+01 8.160399e+00 1.428622e+01 9.205979e+00 7.877550e+00 1.220166e+01 1.946954e+01 2.619215e-01 2.781741e-01 7.361636e-01 6.039300e-01 7.383968e-01 6.753784e-01 6.475346e-01 9.305317e-01 5.081414e-01 6.621998e-01 7.826740e-01 9.305673e-01 1.142407e-01
<GCONST> 6.877079e+01
<STATE> 3
<MEAN> 25
 -5.659922e+00 3.649094e-01 -2.734954e+00 1.161383e+00 1.076921e-01 3.480622e+00 5.658728e+00 1.794204e+00 4.107032e+00 3.899840e+00 5.143161e-01 2.015754e+00 -3.764476e-01 -2.839137e-01 -3.600299e-01 -2.943467e-01 -2.344223e-01 6.474306e-02 6.216831e-01 3.398417e-01 1.627355e-02 3.589514e-01 3.719263e-01 5.906315e-01 -2.505917e-01
<VARIANCE> 25
 9.890321e+00 7.333839e+00 9.603632e+00 1.266621e+01 8.363353e+00 9.565621e+00 9.541581e+00 1.090617e+01 1.095223e+01 5.625181e+00 1.199490e+01 2.217994e+01 3.057043e-01 4.880672e-01 8.447136e-01 6.538106e-01 7.463619e-01 6.967294e-01 1.072786e+00 7.080969e-01 7.809141e-01 5.580065e-01 1.134477e+00 1.017182e+00 1.327067e-01
<GCONST> 6.763154e+01
<STATE> 4
<MEAN> 25
 -6.215213e+00 -4.229853e-02 -4.446701e+00 -3.744198e-01 2.513532e-01 4.415336e+00 6.973217e+00 8.176813e-01 2.730388e+00 5.548218e+00 1.854384e+00 3.272010e+00 -8.805631e-02 -2.239032e-02 -4.198180e-04 -7.188588e-02 3.458063e-02 2.141761e-02 -6.097400e-02 -7.554122e-02 -9.444905e-02 3.349843e-02 5.505476e-02 6.741918e-02 -6.636299e-03
<VARIANCE> 25
 3.112028e+00 2.166085e+00 9.821961e+00 7.316030e+00 5.432094e+00 8.322103e+00 8.338756e+00 7.406291e+00 7.704054e+00 6.954496e+00 6.626346e+00 9.315498e+00 1.091238e-01 1.313590e-01 3.610111e-01 4.750414e-01 4.828628e-01 5.802368e-01 6.375942e-01 6.516324e-01 6.644585e-01 6.680731e-01 8.149942e-01 6.770647e-01 5.936738e-02
<GCONST> 5.577849e+01
<TRANSP> 5
 0.000000e+00 1.000000e+00 0.000000e+00 0.000000e+00 0.000000e+00
 0.000000e+00 8.761827e-01 1.238173e-01 0.000000e+00 0.000000e+00
 0.000000e+00 0.000000e+00 5.675326e-01 4.324674e-01 0.000000e+00
 0.000000e+00 0.000000e+00 0.000000e+00 9.186603e-01 8.133972e-02
 0.000000e+00 0.000000e+00 0.000000e+00 0.000000e+00 0.000000e+00
<ENDHMM>
~h "ow"
<BEGINHMM>
<NUMSTATES> 5
<STATE> 2
<MEAN> 25
 1.049789e+01 6.934741e+00 1.320838e-01 -6.536994e+00 -6.116179e+00 -7.315635e+00 -6.573891e+00 2.807079e+00 2.414221e+00 -5.734414e+00 -4.455693e+00 -1.101655e+00 -1.442064e-01 1.907829e-01 2.616145e-01 3.241513e-01 1.671316e-02 -2.648154e-02 -1.480871e-01 -2.562975e-01 1.774715e-01 3.368075e-01 -6.042367e-03 -1.066961e-01 -2.199369e-01
<VARIANCE> 25
 1.216503e+01 1.867044e+01 1.293309e+01 1.531584e+01 1.474149e+01 2.369971e+01 2.513630e+01 3.321555e+01 3.207999e+01 3.289140e+01 2.890067e+01 2.154647e+01 1.601854e-01 3.259178e-01 3.930135e-01 4.863930e-01 4.369518e-01 8.552750e-01 7.253699e-01 9.809679e-01 1.117519e+00 6.367775e-01 6.772347e-01 7.331121e-01 1.370416e-01
<GCONST> 7.368046e+01
<STATE> 3
<MEAN> 25
 5.875061e+00 7.899179e+00 3.150306e+00 -1.171151e+00 -3.564728e+00 -4.827479e+00 -6.401884e+00 -2.387454e+00 1.172273e+00 -1.591643e+00 -2.523708e+00 -1.792312e+00 -4.778210e-01 -3.203482e-01 -3.355564e-01 3.219357e-01 4.774297e-01 6.030886e-01 6.655644e-01 -1.382031e-01 -3.562378e-01 1.177175e-01 1.942780e-01 -2.639917e-02 -3.493873e-01
<VARIANCE> 25
 1.431366e+01 1.541011e+01 1.467523e+01 1.159454e+01 1.815644e+01 2.366278e+01 2.077293e+01 9.256414e+00 1.613441e+01 1.956728e+01 1.935845e+01 1.425580e+01 7.238995e-01 6.720852e-01 7.491077e-01 6.735155e-01 6.896526e-01 1.310863e+00 1.284270e+00 8.740581e-01 9.469126e-01 1.284389e+00 1.391338e+00 1.043835e+00 2.631041e-01
<GCONST> 7.702068e+01
<STATE> 4
<MEAN> 25
 -4.083946e+00 1.382806e-01 -3.222490e+00 6.469381e-01 -5.582219e-01 1.025623e+00 2.571535e+00 1.211414e+00 3.215698e+00 2.289693e+00 1.088787e+00 2.275719e+00 -2.072674e-01 -1.981793e-01 -1.692240e-01 6.130120e-02 2.116786e-01 2.810709e-01 3.203737e-01 1.268238e-01 8.321604e-02 1.161409e-01 8.445641e-02 1.016983e-02 -1.019290e-01
<VARIANCE> 25
 1.618764e+01 9.385435e+00 8.369477e+00 7.546338e+00 6.919212e+00 7.834430e+00 1.209902e+01 8.997171e+00 1.459662e+01 1.206564e+01 8.342937e+00 1.227604e+01 5.500692e-01 5.615527e-01 6.248542e-01 6.450784e-01 8.241892e-01 1.085275e+00 1.211536e+00 1.031599e+00 1.380314e+00 1.106962e+00 1.049326e+00 1.330147e+00 1.674271e-01
<GCONST> 7.059734e+01
<TRANSP> 5
 0.000000e+00 1.000000e+00 0.000000e+00 0.000000e+00 0.000000e+00
 0.000000e+00 9.214036e-01 7.859636e-02 0.000000e+00 0.000000e+00
 0.000000e+00 0.000000e+00 8.305494e-01 1.694507e-01 0.000000e+00
 0.000000e+00 0.000000e+00 0.000000e+00 8.924751e-01 1.075249e-01
 0.000000e+00 0.000000e+00 0.000000e+00 0.000000e+00 0.000000e+00
<ENDHMM>
~h "oy"
<BEGINHMM>
<NUMSTATES> 5
<STATE> 2
<MEAN> 25
 5.307939e+00 -1.832542e+00 4.463828e+00 -3.180606e+00 -1.458316e+00 1.361905e+00 -2.206769e+00 -4.505189e+00 -4.111388e+00 1.041488e-01 -9.429671e-01 -2.772974e+00 -6.859300e-02 5.860150e-01 -3.655996e-01 -2.249796e+00 -7.067903e-01 -8.697291e-01 -8.862150e-01 1.108911e+00 4.062635e-01 -4.583407e-01 -4.508804e-01 -1.575695e-01 4.744838e-01
<VARIANCE> 25
 1.173325e+02 6.568510e+01 7.020878e+01 3.367799e+01 9.420305e+00 2.106936e+01 7.669556e+01 1.556020e+01 3.627333e+01 3.672688e+01 1.849326e+01 9.614693e+00 1.425504e+01 9.725778e+00 3.402687e+00 2.698356e+00 5.836962e+00 7.712604e-01 7.024796e+00 2.402456e+00 2.389256e+00 5.194087e+00 3.076484e+00 1.447818e+00 1.236015e+00
<GCONST> 1.031194e+02
<STATE> 3
<MEAN> 25
 1.206081e+01 2.246222e+00 -3.489000e-01 -3.847382e+00 4.762948e+00 -3.055089e+00 -1.359620e+01 -2.324345e+00 -4.893692e+00 -5.032994e+00 6.954010e-01 -2.607100e+00 -2.372048e-01 -3.250126e-01 -4.918611e-02 8.881325e-01 7.397683e-01 -3.498290e-01 -2.910636e-01 5.310418e-02 -2.175841e-01 -4.654861e-02 2.814676e-01 -1.810669e-01 -5.370000e-02
<VARIANCE> 25
 7.094886e+01 4.174453e+01 4.720456e+01 6.244689e+01 5.717855e+01 1.557627e+01 7.568401e+01 1.124579e+01 5.658716e+01 4.107545e+01 1.410476e+01 2.052558e+01 5.167204e-01 6.510800e-01 1.054318e+00 4.057444e+00 1.787697e+00 8.964944e-01 1.660347e+00 1.827708e+00 2.608719e+00 1.390895e+00 1.864317e+00 3.285718e+00 2.199958e-01
<GCONST> 9.242010e+01
<STATE> 4
<MEAN> 25
 3.716934e+00 1.985182e+00 -1.942052e+00 -1.960427e+00 3.768029e-01 -7.084886e-01 -4.070911e+00 3.274692e-02 1.945441e+00 -1.500231e+00 -4.824950e-01 1.798381e+00 1.200318e-01 -5.275521e-02 5.961005e-02 1.053472e-01 -3.602449e-02 -6.894586e-02 2.837040e-02 8.124705e-02 -6.526230e-02 -1.025175e-01 -1.964881e-02 -9.534387e-02 1.510640e-01
<VARIANCE> 25
 1.088636e+02 2.534900e+01 2.851497e+01 5.765957e+01 6.804601e+01 4.545089e+01 9.341531e+01 2.610645e+01 5.141337e+01 4.162115e+01 3.104083e+01 2.250539e+01 1.268159e+00 1.531716e+00 2.065109e+00 4.504664e+00 4.325497e+00 3.752073e+00 2.995992e+00 2.359254e+00 3.614251e+00 2.095778e+00 2.997954e+00 2.240441e+00 1.088220e+00
<GCONST> 1.029790e+02
<TRANSP> 5
 0.000000e+00 1.000000e+00 0.000000e+00 0.000000e+00 0.000000e+00
 0.000000e+00 6.084872e-01 3.915128e-01 0.000000e+00 0.000000e+00
 0.000000e+00 0.000000e+00 8.371814e-01 1.628186e-01 0.000000e+00
 0.000000e+00 0.000000e+00 0.000000e+00 9.575952e-01 4.240480e-02
 0.000000e+00 0.000000e+00 0.000000e+00 0.000000e+00 0.000000e+00
<ENDHMM>
~h "sh"
<BEGINHMM>
<NUMSTATES> 5
<STATE> 2
<MEAN> 25
 -7.151277e+00 -1.574320e+01 3.173792e+00 1.014958e+01 1.906865e+00 1.196024e+00 -2.249715e+00 -4.533419e+00 3.777337e+00 4.789461e+00 -1.695595e+00 -2.191038e-01 -4.311063e-01 -5.275398e-02 -4.567048e-01 -2.094966e-01 -1.727576e-01 -1.244693e-01 2.218891e-01 3.369848e-01 3.001032e-01 3.299842e-01 3.334475e-01 4.621537e-01 -3.675090e-01
<VARIANCE> 25
 7.230359e+00 1.555994e+02 1.226542e+01 3.662833e+01 7.062803e+00 1.120063e+01 1.746603e+01 1.594798e+01 1.689786e+01 1.904686e+01 1.078377e+01 1.305309e+01 9.963414e-01 6.085012e+00 1.078160e+00 1.707602e+00 1.077599e+00 5.872037e-01 7.020864e-01 1.238958e+00 1.762316e+00 2.033195e+00 1.713840e+00 1.316215e+00 6.500930e-01
<GCONST> 8.327618e+01
<STATE> 3
<MEAN> 25
 -6.966868e+00 6.997775e-01 -3.209839e+00 -6.394383e-01 -5.520895e-01 2.183357e+00 5.234900e+00 1.735533e+00 3.884093e+00 4.533371e+00 2.184120e+00 3.876326e+00 -1.400071e-02 -6.172983e-02 -1.366447e-01 -8.285133e-02 -4.977461e-02 -3.718667e-02 1.954186e-02 4.963224e-02 5.964486e-02 -8.838665e-02 -5.425769e-02 4.999932e-02 1.012376e-02
<VARIANCE> 25
 1.324806e+00 1.490126e+01 4.499025e+00 4.966409e+00 3.425175e+00 5.319045e+00 6.452098e+00 8.314649e+00 6.632073e+00 5.347499e+00 4.740046e+00 4.459198e+00 1.634196e-01 3.313715e-01 4.862531e-01 4.660671e-01 5.987301e-01 5.346293e-01 6.170944e-01 8.880696e-01 7.630224e-01 5.787976e-01 6.529571e-01 7.656969e-01 6.053647e-02
<GCONST> 5.508467e+01
<STATE> 4
<MEAN> 25
 -2.442572e+00 -1.181620e+01 8.930785e-01 2.930859e+00 -3.581656e-02 4.904633e-01 -1.781781e+00 -3.164966e+00 1.594851e+00 2.622592e+00 3.384648e-01 9.575477e-01 3.851909e-01 -7.906150e-02 -2.246501e-01 2.243503e-02 9.047417e-02 -5.925044e-03 -1.638356e-01 -3.525860e-03 9.167641e-02 -3.919095e-02 -1.535087e-01 -6.425163e-02 1.256079e-01
<VARIANCE> 25
 6.456725e+01 1.158416e+02 6.658103e+01 5.060369e+01 1.691240e+01 2.093357e+01 3.452243e+01 5.881725e+01 2.604095e+01 1.283219e+01 2.889415e+01 1.228231e+01 3.039951e+00 6.802956e+00 4.553745e+00 2.663943e+00 1.573731e+00 1.133622e+00 2.393372e+00 3.560424e+00 2.309551e+00 1.541055e+00 2.245660e+00 1.370971e+00 2.268900e+00
<GCONST> 9.961792e+01
<TRANSP> 5
 0.000000e+00 1.000000e+00 0.000000e+00 0.000000e+00 0.000000e+00
 0.000000e+00 8.550646e-01 1.449354e-01 0.000000e+00 0.000000e+00
 0.000000e+00 0.000000e+00 9.216990e-01 7.830101e-02 0.000000e+00
 0.000000e+00 0.000000e+00 0.000000e+00 9.262590e-01 7.374103e-02
 0.000000e+00 0.000000e+00 0.000000e+00 0.000000e+00 0.000000e+00
<ENDHMM>
~h "th"
<BEGINHMM>
<NUMSTATES> 5
<STATE> 2
<MEAN> 25
 -7.561278e+00 -5.885165e+00 5.034958e-01 -6.198749e+00 2.100296e-01 1.880842e-01 -2.127286e-01 5.330272e-01 2.297002e-01 1.102763e+00 -3.908804e-01 2.212246e+00 7.552730e-02 1.291125e-01 -2.235163e-01 2.181606e-01 -8.391793e-02 -5.256583e-03 1.536454e-01 -9.528051e-02 1.127716e-01 3.589357e-02 2.539256e-01 1.670265e-01 -6.756859e-01
<VARIANCE> 25
 1.251727e+01 1.447380e+01 8.907627e+00 1.993052e+01 1.187259e+01 7.107191e+00 1.494800e+01 2.006682e+01 1.230818e+01 1.661717e+01 9.487681e+00 1.470815e+01 7.046306e-01 1.102085e+00 5.590905e-01 1.576080e+00 8.167918e-01 6.230451e-01 1.011128e+00 1.122084e+00 1.442165e+00 8.970527e-01 7.411504e-01 7.861210e-01 1.480240e+00
<GCONST> 7.590449e+01
<STATE> 3
<MEAN> 25
 -4.612742e+00 -5.720779e-01 -3.808099e+00 4.606697e-01 -7.210942e-01 1.589299e+00 4.062441e+00 1.530232e+00 3.494863e+00 3.183215e+00 1.272218e+00 2.240934e+00 -8.520187e-03 9.092010e-03 -5.128486e-02 4.831082e-02 -5.538788e-03 -2.438471e-02 5.537957e-02 -7.298173e-03 7.698228e-02 4.218434e-02 -3.364671e-02 8.246825e-03 -2.492801e-02
<VARIANCE> 25
 3.351235e+00 3.463513e+00 4.745990e+00 4.528343e+00 4.002704e+00 4.432186e+00 5.963664e+00 5.519243e+00 6.637534e+00 4.658997e+00 5.718953e+00 5.210992e+00 9.891558e-02 1.846903e-01 3.302080e-01 4.054619e-01 4.442199e-01 4.697805e-01 5.684117e-01 5.126344e-01 5.846894e-01 5.931799e-01 6.875505e-01 6.023308e-01 7.724082e-02
<GCONST> 5.134740e+01
<STATE> 4
<MEAN> 25
 -5.605086e+00 -1.087484e+00 -2.381905e+00 1.042745e+00 -5.039346e-02 8.747981e-01 5.512990e+00 1.021743e+00 3.446035e+00 3.167365e+00 2.889951e-01 2.112617e+00 -5.198383e-02 4.994335e-02 4.278375e-01 -1.011565e-01 2.631528e-01 -2.325932e-01 2.219833e-01 -1.853010e-01 -3.445342e-01 -1.797535e-01 -4.412399e-01 -2.228509e-01 4.204448e-01
<VARIANCE> 25
 8.551282e+00 7.881264e+00 6.261659e+00 1.776369e+01 7.710647e+00 1.191504e+01 5.792664e+00 9.842352e+00 6.983380e+00 9.065027e+00 6.997907e+00 4.717827e+00 6.721225e-01 1.364369e+00 8.690141e-01 1.941964e+00 9.349961e-01 1.095738e+00 9.713669e-01 7.682163e-01 9.831938e-01 1.368959e+00 9.451002e-01 8.967517e-01 5.473177e-01
<GCONST> 7.077478e+01
<TRANSP> 5
 0.000000e+00 1.000000e+00 0.000000e+00 0.000000e+00 0.000000e+00
 0.000000e+00 8.284124e-01 1.715877e-01 0.000000e+00 0.000000e+00
 0.000000e+00 0.000000e+00 9.492483e-01 5.075178e-02 0.000000e+00
 0.000000e+00 0.000000e+00 0.000000e+00 7.792574e-01 2.207426e-01
 0.000000e+00 0.000000e+00 0.000000e+00 0.000000e+00 0.000000e+00
<ENDHMM>
~h "uh"
<BEGINHMM>
<NUMSTATES> 5
<STATE> 2
<MEAN> 25
 1.209751e+01 6.381955e+00 1.059671e+00 -2.161849e+00 -2.449512e+00 -8.963394e+00 -8.746183e+00 2.426090e+00 -3.681624e+00 -1.010094e+01 -1.787552e+00 -1.476108e+00 1.489802e-01 -5.371890e-02 4.135100e-01 9.225042e-01 -3.002230e-02 -1.284430e+00 -1.449478e+00 2.334945e-01 7.693506e-01 3.034188e-01 4.069241e-01 -3.627024e-01 6.062076e-02
<VARIANCE> 25
 3.023902e+01 1.769267e+01 7.026106e+01 1.606887e+01 1.041519e+02 1.028180e+02 5.329316e+01 3.299707e+01 2.530516e+02 3.182167e+01 5.238247e+01 1.063289e+01 7.132230e-01 2.014999e+00 5.930901e-01 1.714330e+00 3.789242e+00 2.972208e+00 5.077919e+00 1.644448e+00 5.168293e+00 4.562543e+00 2.784528e+00 9.283138e-01 3.803844e-01
<GCONST> 9.939220e+01
<STATE> 3
<MEAN> 25
 9.931489e+00 5.356081e+00 3.766773e+00 1.031782e+00 -5.510540e+00 -1.148945e+01 -6.335769e+00 3.234488e+00 1.313183e+00 -6.326293e+00 -4.786427e+00 1.043798e+00 -7.826008e-01 -5.812085e-01 -2.527201e-01 5.521292e-01 1.451319e+00 1.785336e+00 6.840281e-01 -4.196550e-01 -4.298039e-01 9.847824e-01 2.189624e-01 -2.420141e-01 -4.982658e-01
<VARIANCE> 25
 1.687499e+01 5.255515e+01 2.837899e+01 1.167907e+01 8.303663e+01 9.662226e+01 5.266052e+01 1.760908e+01 2.544126e+01 2.455173e+01 3.337424e+01 4.712080e+01 1.855577e+00 3.584741e+00 2.327849e+00 1.758691e+00 2.944203e+00 3.890758e+00 3.366241e+00 1.625296e+00 3.124034e+00 4.276248e+00 3.818003e+00 6.423767e+00 1.663498e+00
<GCONST> 1.019013e+02
<STATE> 4
<MEAN> 25
 7.680981e+00 3.689314e+00 2.940170e-01 3.781390e+00 7.277172e+00 -7.441826e-01 -9.951326e+00 -5.189043e+00 -3.532840e+00 -2.317900e+00 -1.777543e-01 -6.343827e+00 -5.212770e-01 4.641135e-01 3.368174e-01 2.227188e-01 -1.461228e-01 4.064897e-01 7.744681e-01 -8.085081e-02 5.183397e-02 7.506892e-02 -3.897326e-01 -1.113500e-01 -6.059040e-01
<VARIANCE> 25
 1.179857e+01 2.049019e+01 1.209418e+01 1.750542e+01 4.747344e+00 1.696077e+01 4.459954e+01 1.189771e+01 2.761273e+01 1.338912e+01 6.939738e+01 3.747208e+01 1.054506e+00 9.624928e-01 1.480302e+00 1.364085e+00 5.072039e-01 1.448123e+00 2.146578e+00 1.132521e+00 2.168023e+00 8.858764e-01 2.044892e+00 2.174487e+00 6.057079e-01
<GCONST> 8.416956e+01
<TRANSP> 5
 0.000000e+00 1.000000e+00 0.000000e+00 0.000000e+00 0.000000e+00
 0.000000e+00 6.888790e-01 3.111211e-01 0.000000e+00 0.000000e+00
 0.000000e+00 0.000000e+00 7.747564e-01 2.252437e-01 0.000000e+00
 0.000000e+00 0.000000e+00 0.000000e+00 9.088888e-01 9.111126e-02
 0.000000e+00 0.000000e+00 0.000000e+00 0.000000e+00 0.000000e+00
<ENDHMM>
~h "uw"
<BEGINHMM>
<NUMSTATES> 5
<STATE> 2
<MEAN> 25
 1.998687e+00 -1.026315e+00 1.612384e+00 2.326813e+00 7.040708e+00 1.114289e+00 -5.992840e+00 -3.088513e+00 -5.826175e+00 -3.289380e+00 -5.525259e-01 -1.286983e+00 -4.574763e-02 1.897197e-01 -7.769412e-01 -2.179724e-01 -1.955172e-01 8.406821e-02 2.422283e-01 -4.573487e-01 -6.715224e-01 -2.910840e-01 5.336813e-01 5.942855e-01 -3.713245e-01
<VARIANCE> 25
 2.905887e+01 4.724679e+01 2.243261e+01 2.980835e+01 5.558725e+01 1.075321e+01 4.839722e+01 3.563457e+01 6.138507e+01 3.298210e+01 2.058782e+01 2.518752e+01 1.671146e+00 1.885163e+00 1.724345e+00 1.595416e+00 1.978410e+00 1.153230e+00 2.752037e+00 2.366685e+00 4.233134e+00 3.265010e+00 9.850358e-01 1.944950e+00 9.692622e-01
<GCONST> 9.549039e+01
<STATE> 3
<MEAN> 25
 1.840142e+00 1.865083e+00 5.798580e-02 -9.474335e-01 4.427631e+00 1.921450e+00 -4.858530e-01 -5.206251e-01 -4.508951e+00 -4.556851e+00 -2.055883e+00 -7.249700e-01 -5.361594e-01 -1.342642e-01 -2.019768e-01 -5.623625e-02 -6.308022e-01 -2.771374e-02 9.574312e-01 2.931750e-01 7.869619e-01 3.659661e-01 -4.461783e-01 1.286204e-01 -3.999802e-01
<VARIANCE> 25
 3.622334e+01 1.599587e+01 9.609220e+00 2.170493e+01 2.850705e+01 1.345197e+01 1.527695e+01 2.205028e+01 4.913600e+01 3.015553e+01 1.567654e+01 2.557684e+01 5.930607e-01 1.317654e+00 1.178921e+00 2.024117e+00 1.562155e+00 1.175576e+00 1.521479e+00 1.466130e+00 1.033352e+00 2.186610e+00 1.276397e+00 2.118613e+00 3.145241e-01
<GCONST> 8.539952e+01
<STATE> 4
<MEAN> 25
 -5.080605e+00 1.507077e-01 -2.898459e+00 1.005175e+00 -6.513970e-01 2.266279e+00 4.156747e+00 -4.329680e-01 2.699813e+00 2.659130e+00 4.206707e-01 2.415021e+00 -2.032316e-01 -1.377135e-01 -8.486254e-02 2.397703e-02 -1.210856e-01 8.092967e-03 8.237638e-02 -8.043482e-02 1.650909e-01 1.735629e-01 8.995456e-02 5.919278e-02 -1.268771e-01
<VARIANCE> 25
 1.598827e+01 3.713395e+00 6.257708e+00 8.623381e+00 7.173861e+00 5.723098e+00 6.330507e+00 5.524047e+00 1.231330e+01 1.813815e+01 1.546733e+01 2.289739e+01 2.178989e-01 3.844003e-01 5.414056e-01 6.414595e-01 7.395289e-01 4.783742e-01 4.706675e-01 5.801027e-01 8.463907e-01 8.150358e-01 7.492327e-01 7.402706e-01 7.826109e-02
<GCONST> 6.318382e+01
<TRANSP> 5
 0.000000e+00 1.000000e+00 0.000000e+00 0.000000e+00 0.000000e+00
 0.000000e+00 7.238876e-01 2.761124e-01 0.000000e+00 0.000000e+00
 0.000000e+00 0.000000e+00 6.552132e-01 3.447868e-01 0.000000e+00
 0.000000e+00 0.000000e+00 0.000000e+00 9.106462e-01 8.935381e-02
 0.000000e+00 0.000000e+00 0.000000e+00 0.000000e+00 0.000000e+00
<ENDHMM>
~h "zh"
<BEGINHMM>
<NUMSTATES> 5
<STATE> 2
<MEAN> 25
 -2.503276e+00 -1.306346e+01 1.042282e+01 1.296109e+01 1.077672e+00 2.636504e+00 -3.604761e+00 -5.307899e+00 5.471277e+00 3.507250e+00 -5.238180e+00 -3.413309e+00 -1.876001e+00 -2.233918e+00 4.168777e-01 -2.111696e-01 -9.683961e-01 7.614078e-01 1.273807e+00 4.018761e-01 1.302223e+00 1.674660e+00 3.795848e-01 2.081371e-01 2.259937e-01
<VARIANCE> 25
 2.162160e+01 5.482233e+01 1.592941e+01 3.914510e+01 7.182833e+00 1.226216e+01 2.292476e+01 3.235779e+01 2.642056e+01 1.956700e+01 1.246746e+01 1.591899e+01 6.240407e-01 2.001917e+00 1.732317e+00 1.862666e+00 9.739151e-01 1.592123e+00 8.355289e-01 2.757081e+00 1.744921e+00 1.098919e+00 1.820516e+00 1.391256e+00 1.164824e-01
<GCONST> 8.418357e+01
<STATE> 3
<MEAN> 25
 -8.460480e+00 -2.031365e+01 7.215498e+00 8.719865e+00 -2.466771e+00 3.569817e+00 -5.357980e-01 -3.284114e+00 7.906182e+00 8.141716e+00 2.829683e-01 -2.794492e+00 1.111579e+00 9.251697e-01 -6.880808e-01 -8.575411e-01 -7.406463e-02 -9.155331e-02 -9.786866e-01 -1.298992e+00 -1.648431e+00 -6.854482e-01 5.422645e-01 -3.878754e-01 -8.310012e-02
<VARIANCE> 25
 9.606027e+00 9.953161e+01 1.957197e+01 3.341436e+01 9.512835e+00 1.415260e+01 1.854692e+01 2.561977e+01 2.265322e+01 1.426182e+01 1.242236e+01 8.241946e+00 2.853299e+00 4.868896e+00 4.833457e-01 6.241987e-01 6.210826e-01 1.189949e+00 1.684012e+00 1.622750e+00 2.384936e+00 1.094676e+00 1.000042e+00 1.110225e+00 4.494040e-01
<GCONST> 8.316608e+01
<STATE> 4
<MEAN> 25
 3.090523e-01 -7.442428e+00 3.392178e+00 5.699269e+00 -3.797272e-01 3.110806e+00 -2.203955e+00 -9.346004e+00 -2.086966e+00 3.347707e+00 -1.445102e-01 -3.409767e+00 2.462076e+00 4.093365e+00 -1.643353e+00 -9.820458e-01 4.554096e-01 4.749620e-02 8.417968e-01 -1.305108e+00 -3.280209e+00 -1.981344e+00 -4.403851e-01 5.416880e-01 -6.697066e-01
<VARIANCE> 25
 2.461327e+01 8.477280e+01 2.266566e+01 3.765247e+01 1.095386e+01 8.993286e+00 2.574475e+01 2.768150e+01 3.811409e+01 1.952534e+01 1.291780e+01 1.228604e+01 2.098720e+00 4.516675e+00 2.134481e+00 9.839992e-01 7.223084e-01 6.887712e-01 3.130339e+00 1.885575e+00 3.656381e+00 1.773932e+00 1.166373e+00 1.319590e+00 9.308703e-01
<GCONST> 8.947564e+01
<TRANSP> 5
 0.000000e+00 1.000000e+00 0.000000e+00 0.000000e+00 0.000000e+00
 0.000000e+00 7.885233e-01 2.114768e-01 0.000000e+00 0.000000e+00
 0.000000e+00 0.000000e+00 6.666160e-01 3.333840e-01 0.000000e+00
 0.000000e+00 0.000000e+00 0.000000e+00 6.261616e-01 3.738384e-01
 0.000000e+00 0.000000e+00 0.000000e+00 0.000000e+00 0.000000e+00
<ENDHMM>
~h "sil"
<BEGINHMM>
<NUMSTATES> 5
<STATE> 2
<MEAN> 25
 -5.866761e+00 1.991223e-01 -3.583571e+00 -2.051823e-01 -4.710364e-01 2.720934e+00 5.138908e+00 1.576764e+00 3.682100e+00 3.869989e+00 1.674670e+00 3.101340e+00 -2.087448e-02 -4.274809e-03 -1.406474e-02 8.794603e-03 -1.689070e-02 -2.022176e-02 3.836282e-03 6.077394e-03 1.075376e-02 2.185095e-02 -4.563092e-04 2.426238e-03 -2.427205e-02
<VARIANCE> 25
