~o
<STREAMINFO> 1 25
<VECSIZE> 25<NULLD><MFCC_D_N_Z_0><DIAGC>
~s "silst"
<MEAN> 25
 -5.348256e+00 -1.046179e+00 -1.836526e+00 2.791741e+00 3.425890e+00 2.696418e+00 4.108959e+00 2.341078e+00 5.081360e+00 3.152122e+00 2.881115e+00 4.242495e+00 -1.284678e-02 7.810690e-02 6.753408e-03 7.004996e-02 -5.494739e-02 2.940793e-02 -1.174424e-01 -4.420369e-02 -1.245610e-01 -5.767587e-02 -3.989766e-02 -9.004385e-02 6.661190e-02
<VARIANCE> 25
 7.743814e+00 6.693376e+00 9.360014e+00 1.029335e+01 9.791121e+00 1.304386e+01 1.421778e+01 1.470063e+01 1.630592e+01 1.419446e+01 1.271668e+01 1.362449e+01 8.062493e-01 8.021382e-01 8.863901e-01 1.086555e+00 1.196923e+00 1.478510e+00 1.646931e+00 1.810664e+00 1.897758e+00 1.785200e+00 1.606366e+00 1.586780e+00 4.185829e-01
<GCONST> 7.772922e+01
~h "b"
<BEGINHMM>
<NUMSTATES> 5
<STATE> 2
<MEAN> 25
 2.758307e+00 7.102381e+00 6.473558e+00 8.062427e+00 5.715194e+00 1.075270e+00 -2.067108e-02 -3.782707e+00 -3.146527e+00 -5.615269e+00 -4.455774e+00 -2.649088e+00 8.347476e-02 4.854261e-01 4.326503e-01 4.437315e-01 2.953615e-01 1.244797e-01 -9.148952e-02 -3.709355e-02 -1.961307e-01 -4.639009e-01 -3.500159e-01 -1.872185e-01 8.627810e-02
<VARIANCE> 25
 1.003508e+01 8.954839e+00 1.159302e+01 7.822781e+00 1.108549e+01 1.660005e+01 1.664016e+01 1.670357e+01 2.238348e+01 1.403074e+01 1.379850e+01 1.563638e+01 1.612038e+00 1.799077e+00 1.434055e+00 1.007756e+00 1.121296e+00 1.572913e+00 2.418657e+00 2.605335e+00 2.683099e+00 2.322674e+00 1.699194e+00 1.364195e+00 9.606418e-01
<GCONST> 8.339030e+01
<STATE> 3
<MEAN> 25
 1.618469e+00 4.553269e+00 3.170013e+00 5.530423e+00 3.554959e+00 5.169504e-01 2.257652e-01 -1.158171e+00 -4.255529e-01 -2.729439e+00 -2.211914e+00 -3.384132e-01 1.354508e+00 -9.714635e-01 -5.333630e-01 -2.507015e+00 -2.913538e+00 -1.152779e+00 -1.596513e+00 3.114280e-01 -3.661249e-01 1.317263e+00 1.213418e+00 3.090197e-01 3.669942e+00
<VARIANCE> 25
 1.690120e+01 8.864212e+00 2.017975e+01 2.077974e+01 3.343722e+01 2.718234e+01 2.837435e+01 1.866908e+01 2.714097e+01 2.130225e+01 2.124486e+01 1.445982e+01 2.421623e+00 2.199804e+00 4.383543e+00 5.234552e+00 4.939120e+00 5.895121e+00 1.381988e+00 3.594766e+00 4.767457e+00 3.581006e+00 3.144509e+00 2.080593e+00 3.875613e+00
<GCONST> 9.801767e+01
<STATE> 4
<MEAN> 25
 8.278481e+00 7.645715e-01 2.477524e+00 -5.088757e+00 -5.429364e+00 -1.299659e+00 -8.598394e+00 -1.869764e+00 -7.226956e+00 2.428397e-01 -2.115037e+00 -4.693799e+00 4.377368e-01 -3.812201e-01 -1.477521e-01 -1.027788e+00 -5.387841e-01 -7.503970e-02 -7.453661e-01 -1.349665e-01 -6.655756e-01 2.896863e-01 2.444406e-01 -2.769115e-01 7.964346e-01
<VARIANCE> 25
 2.750488e+01 2.829301e+01 8.311899e+01 5.541547e+01 6.775597e+01 7.189754e+01 3.761691e+01 4.984545e+01 6.643280e+01 3.940245e+01 4.521464e+01 2.506793e+01 1.666525e+00 2.748216e+00 3.179192e+00 6.214289e+00 5.010476e+00 4.020910e+00 2.344049e+00 3.675058e+00 5.073360e+00 2.924603e+00 2.710388e+00 2.145192e+00 4.207122e+00
<GCONST> 1.075255e+02
<TRANSP> 5
 0.000000e+00 1.000000e+00 0.000000e+00 0.000000e+00 0.000000e+00
 0.000000e+00 8.126815e-01 1.873185e-01 0.000000e+00 0.000000e+00
 0.000000e+00 0.000000e+00 6.393698e-01 3.606302e-01 0.000000e+00
 0.000000e+00 0.000000e+00 0.000000e+00 7.642814e-01 2.357185e-01
 0.000000e+00 0.000000e+00 0.000000e+00 0.000000e+00 0.000000e+00
<ENDHMM>
~h "d"
<BEGINHMM>
<NUMSTATES> 5
<STATE> 2
<MEAN> 25
 1.470758e+00 5.442163e+00 6.943731e+00 8.381823e+00 5.152809e+00 -3.425918e-01 -3.635109e-01 -3.521279e+00 -2.703368e+00 -5.309006e+00 -5.293184e+00 -2.373635e+00 -2.319607e-01 1.688423e-01 -2.293582e-02 -6.860621e-02 3.986493e-01 1.526246e-01 1.041203e-01 -1.971704e-01 -6.731306e-02 -4.066084e-02 -1.115377e-01 -2.267464e-02 2.373554e-01
<VARIANCE> 25
 1.206719e+01 1.420722e+01 1.924009e+01 9.106513e+00 1.997927e+01 2.816252e+01 1.664964e+01 1.914955e+01 1.632363e+01 1.948478e+01 1.643974e+01 1.503788e+01 1.819173e+00 1.366789e+00 1.257941e+00 2.038479e+00 1.653537e+00 2.990533e+00 1.936885e+00 2.623420e+00 2.300371e+00 1.900853e+00 2.558887e+00 1.533732e+00 2.360759e+00
<GCONST> 8.840511e+01
<STATE> 3
<MEAN> 25
 -2.312472e+00 1.082270e+00 3.772449e+00 1.529301e+00 2.199686e+00 -1.248398e+00 3.761780e-01 -2.679932e+00 -1.134447e+00 -2.568716e+00 -6.276373e-01 -8.696530e-01 2.375961e-01 -9.079326e-01 -6.717443e-01 -2.492996e+00 -2.980652e+00 -2.136787e+00 -9.979923e-01 5.385483e-01 -4.499292e-01 7.240294e-01 1.261068e+00 2.387200e-01 4.246751e+00
<VARIANCE> 25
 1.310055e+01 2.433864e+01 2.136229e+01 4.662779e+01 3.519736e+01 3.476881e+01 2.193459e+01 3.263212e+01 2.385186e+01 2.433278e+01 2.117913e+01 1.680528e+01 3.611746e+00 2.709775e+00 3.196524e+00 3.319247e+00 6.206424e+00 3.429508e+00 3.444628e+00 3.825289e+00 2.371412e+00 2.900267e+00 2.318362e+00 1.871663e+00 5.572761e+00
<GCONST> 9.993010e+01
<STATE> 4
<MEAN> 25
 1.822454e+00 1.498716e+00 4.690135e+00 -6.650897e-01 -7.109805e+00 -8.315018e+00 -5.581131e+00 -7.431371e-01 -2.108930e+00 -1.402832e+00 3.207150e-01 -2.061143e-01 6.278661e-01 -3.943925e-01 -8.821752e-01 -7.833672e-02 -4.889262e-01 2.927011e-01 -2.398253e-02 1.148922e+00 8.253103e-01 1.113187e+00 6.645193e-02 -2.590472e-02 -5.227043e-02
<VARIANCE> 25
 2.122754e+01 2.802455e+01 4.173360e+01 1.436304e+01 7.542585e+01 4.418123e+01 3.411684e+01 4.476735e+01 4.320020e+01 2.185111e+01 2.723469e+01 3.509293e+01 5.349144e+00 2.666242e+00 3.983965e+00 3.067394e+00 1.231275e+01 9.922723e+00 6.143197e+00 5.924872e+00 3.799062e+00 2.862883e+00 3.322860e+00 5.542322e+00 5.626550e+00
<GCONST> 1.084746e+02
<TRANSP> 5
 0.000000e+00 1.000000e+00 0.000000e+00 0.000000e+00 0.000000e+00
 0.000000e+00 7.662292e-01 2.337709e-01 0.000000e+00 0.000000e+00
 0.000000e+00 0.000000e+00 5.139116e-01 4.860884e-01 0.000000e+00
 0.000000e+00 0.000000e+00 0.000000e+00 5.101833e-01 4.898167e-01
 0.000000e+00 0.000000e+00 0.000000e+00 0.000000e+00 0.000000e+00
<ENDHMM>
~h "f"
<BEGINHMM>
<NUMSTATES> 5
<STATE> 2
<MEAN> 25
 -5.645510e+00 -2.219521e+00 -1.866522e+00 1.601247e+00 2.413858e+00 2.727624e+00 3.387418e+00 2.239651e+00 4.277077e+00 3.421240e+00 2.449974e+00 4.324022e+00 -7.285558e-02 7.056987e-02 -6.016623e-02 3.304084e-02 -6.272130e-02 3.550656e-02 -5.519771e-02 -3.219973e-02 3.173601e-02 -1.829665e-02 -5.496786e-03 -5.038955e-02 3.314114e-02
<VARIANCE> 25
 8.339937e+00 5.573859e+00 5.288716e+00 1.014714e+01 1.139053e+01 1.063175e+01 1.298572e+01 1.013864e+01 1.122661e+01 1.197084e+01 1.222592e+01 1.228453e+01 2.985498e-01 3.535939e-01 4.192212e-01 7.619605e-01 7.514313e-01 1.047035e+00 1.294533e+00 1.182192e+00 1.033266e+00 1.079684e+00 1.326838e+00 1.346364e+00 1.282504e-01
<GCONST> 6.879022e+01
<STATE> 3
<MEAN> 25
 -6.365342e+00 8.016624e-01 -5.801194e+00 3.403140e+00 -2.303497e-01 2.654547e+00 3.563339e-01 5.320407e-01 3.231680e+00 1.183436e+00 -3.481667e-01 2.480717e+00 1.536725e+00 2.245750e-01 -1.263257e-01 -9.761852e-01 -4.614815e-01 3.950573e-01 -2.963231e-01 -4.135129e-01 -7.539487e-01 -4.581753e-01 -9.328675e-02 -4.058121e-01 9.982064e-01
<VARIANCE> 25
 4.472952e+01 1.376001e+01 1.465796e+01 2.256241e+01 1.141632e+01 1.563346e+01 1.643991e+01 1.262211e+01 2.139055e+01 1.608152e+01 1.161687e+01 1.211220e+01 6.408450e+00 2.090781e+00 1.447264e+00 4.665128e+00 2.245944e+00 3.190305e+00 2.000117e+00 1.338696e+00 2.652984e+00 2.039850e+00 1.688640e+00 1.308297e+00 2.588479e+00
<GCONST> 9.036890e+01
<STATE> 4
<MEAN> 25
 1.317333e+01 -6.144258e+00 -9.133990e+00 -1.526734e+01 -2.884073e+00 1.141677e+01 3.887406e-01 -7.429809e+00 2.422709e+00 -3.287029e+00 2.255557e+00 -1.089990e+01 4.462810e-01 -4.773793e-01 -1.697584e-01 -2.722696e-01 -1.379543e-01 -5.029181e-02 -1.268077e-01 1.954793e-01 1.533838e-01 -2.800181e-01 -5.154085e-02 -6.348773e-01 2.106131e-01
<VARIANCE> 25
 1.222000e+01 3.514238e+01 1.111662e+01 4.040443e+01 2.195407e+01 1.711185e+01 7.780331e+00 1.766418e+01 2.173412e+01 9.165755e+00 1.266180e+01 4.776949e+01 2.099996e+00 1.026037e+00 4.368543e-01 5.129521e+00 1.161617e+00 2.373745e+00 5.565959e-01 1.823360e+00 6.697528e-01 6.619927e-01 1.231695e+00 1.092163e+00 4.201702e-01
<GCONST> 8.188762e+01
<TRANSP> 5
 0.000000e+00 1.000000e+00 0.000000e+00 0.000000e+00 0.000000e+00
 0.000000e+00 9.348884e-01 6.511170e-02 0.000000e+00 0.000000e+00
 0.000000e+00 0.000000e+00 8.821164e-01 1.178835e-01 0.000000e+00
 0.000000e+00 0.000000e+00 0.000000e+00 8.621263e-01 1.378737e-01
 0.000000e+00 0.000000e+00 0.000000e+00 0.000000e+00 0.000000e+00
<ENDHMM>
~h "g"
<BEGINHMM>
<NUMSTATES> 5
<STATE> 2
<MEAN> 25
 -2.263504e+00 -3.043981e+00 3.428976e-01 -2.069791e+00 -7.125504e-01 -1.962056e+00 7.483903e-01 -2.726929e+00 1.601221e+00 2.660762e-01 -1.463225e+00 2.247923e+00 -5.373095e-01 6.446244e-01 1.528114e+00 -1.235619e+00 -1.824534e+00 -1.491428e+00 -4.429935e-01 -2.598674e+00 -1.082888e+00 -5.603130e-01 -6.448850e-01 -9.483071e-02 2.806817e+00
<VARIANCE> 25
 2.553696e+01 3.182298e+01 2.625726e+01 3.075725e+01 4.035386e+01 5.686701e+01 2.198888e+01 5.880299e+01 3.908066e+01 9.232500e+00 3.089452e+01 3.278730e+01 1.700356e+00 3.609842e+00 1.128684e+00 4.250113e+00 3.016579e+00 1.372282e+00 3.318215e+00 4.662847e+00 2.132136e+00 1.626732e+00 4.599477e+00 1.362103e+00 9.688969e+00
<GCONST> 9.994524e+01
<STATE> 3
<MEAN> 25
 1.552063e+00 2.764041e+00 4.884366e+00 3.436549e+00 2.020824e+00 -1.976880e+00 5.147726e-01 -3.464898e+00 -1.485862e+00 -3.481414e+00 -4.293221e+00 -1.468658e+00 -1.882930e-01 1.675876e-01 5.333936e-01 -1.860364e-01 -3.957153e-01 -1.895261e-01 -4.562600e-01 -9.268297e-01 -1.585667e-01 8.864608e-02 -8.891304e-02 1.171060e-01 5.559328e-01
<VARIANCE> 25
 2.888100e+01 3.471294e+01 1.505297e+01 5.542149e+01 3.577036e+01 4.627857e+01 2.531556e+01 3.421297e+01 3.170866e+01 1.030321e+01 3.250063e+01 2.006144e+01 1.810945e+00 5.927067e+00 3.285940e+00 6.822549e+00 3.897110e+00 3.618247e+00 3.139027e+00 3.177600e+00 2.595440e+00 1.550400e+00 2.133586e+00 1.876240e+00 7.528443e+00
<GCONST> 1.012563e+02
<STATE> 4
<MEAN> 25
 2.703845e+00 1.466728e+00 1.556093e+01 -2.575049e+00 -1.244866e+01 -6.854318e+00 -4.878688e+00 -4.821786e+00 -1.211319e+01 1.043051e+00 4.417984e-01 -4.123526e+00 1.020703e+00 -4.562473e-01 -5.137669e-02 1.411816e-01 -1.007473e+00 -1.088012e+00 -9.440269e-02 1.628593e+00 -3.985209e-01 -2.651934e-01 8.118798e-01 -5.744545e-01 7.423303e-01
<VARIANCE> 25
 9.511338e+00 1.344342e+01 4.026452e+01 2.047785e+01 2.405094e+01 3.295296e+01 2.758013e+01 3.282259e+01 7.499390e+01 1.465514e+01 2.387154e+01 1.483246e+01 1.844347e+00 2.025744e+00 7.005498e+00 1.980468e+00 4.748383e+00 1.699306e+00 4.733979e+00 3.433960e+00 8.056706e+00 2.217840e+00 2.540680e+00 2.039173e+00 1.249883e+00
<GCONST> 9.744353e+01
<TRANSP> 5
 0.000000e+00 1.000000e+00 0.000000e+00 0.000000e+00 0.000000e+00
 0.000000e+00 4.177619e-01 5.822381e-01 0.000000e+00 0.000000e+00
 0.000000e+00 0.000000e+00 8.367250e-01 1.632750e-01 0.000000e+00
 0.000000e+00 0.000000e+00 0.000000e+00 8.334201e-01 1.665799e-01
 0.000000e+00 0.000000e+00 0.000000e+00 0.000000e+00 0.000000e+00
<ENDHMM>
~h "k"
<BEGINHMM>
<NUMSTATES> 5
<STATE> 2
<MEAN> 25
 -5.540848e+00 -4.025660e+00 -2.280624e+00 2.874067e+00 2.948264e+00 -9.047254e-01 4.112768e+00 3.021940e+00 5.528732e+00 2.616310e+00 1.334287e+00 6.020589e+00 -6.067650e-02 -6.870907e-01 -5.404006e-01 -5.457659e-01 1.571701e-01 -1.154042e+00 -6.630824e-01 -4.358864e-01 -2.798952e-01 9.750376e-02 -9.513069e-01 4.940969e-02 2.189008e+00
<VARIANCE> 25
 1.152058e+01 2.888193e+01 1.726553e+01 3.480201e+01 1.674078e+01 5.543215e+01 1.651951e+01 2.282403e+01 2.341389e+01 1.400043e+01 2.210546e+01 1.498173e+01 1.975012e+00 3.929502e+00 3.764275e+00 4.932901e+00 2.926138e+00 6.233802e+00 2.516699e+00 3.255719e+00 3.845479e+00 1.880492e+00 3.400818e+00 2.053673e+00 8.725879e+00
<GCONST> 9.857907e+01
<STATE> 3
<MEAN> 25
 -2.505226e+00 -5.367699e+00 -9.689647e+00 -6.570508e-01 9.207222e+00 -3.943914e+00 -2.315236e+00 -3.189974e+00 4.759014e+00 3.110512e+00 -2.129015e+00 6.309375e-01 2.412212e-01 4.319097e-01 -2.223343e-01 -1.203812e+00 5.996960e-02 1.563468e+00 -2.208493e-01 -9.526613e-01 -4.210867e-01 -5.972477e-01 1.232413e-01 -1.136579e+00 1.438566e+00
<VARIANCE> 25
 1.984931e+01 1.235527e+01 5.041714e+01 4.720545e+01 4.833409e+01 9.362792e+01 2.514327e+01 4.549035e+01 4.772253e+01 1.985223e+01 2.687564e+01 2.742842e+01 3.172954e+00 1.902657e+00 4.442176e+00 3.434010e+00 2.223105e+00 1.309670e+01 4.188683e+00 2.195642e+00 4.448593e+00 2.834642e+00 3.630463e+00 3.210309e+00 6.589064e+00
<GCONST> 1.051286e+02
<STATE> 4
<MEAN> 25
 -1.513361e+00 -4.010087e-01 -6.819238e-02 -4.364623e+00 -2.154509e+00 9.947794e-01 3.929878e-01 -2.466206e+00 -1.863061e-01 -2.550026e+00 -1.764097e+00 -4.620028e-01 1.176077e+00 8.317137e-01 5.803533e-01 5.416474e-01 -1.137894e+00 -2.483245e-01 -7.249859e-02 2.366981e-01 -9.273395e-01 -7.236735e-01 1.078125e-01 -7.549437e-01 2.357119e-01
<VARIANCE> 25
 8.497577e+01 3.565430e+01 9.282390e+01 5.686638e+01 6.647442e+01 5.885321e+01 3.689831e+01 4.744589e+01 3.717895e+01 3.792515e+01 2.535003e+01 4.064055e+01 5.489098e+00 3.541311e+00 3.544392e+00 4.726832e+00 3.953512e+00 3.728134e+00 4.068395e+00 4.434670e+00 5.969555e+00 4.187155e+00 2.949442e+00 2.472889e+00 2.873060e+00
<GCONST> 1.100933e+02
<TRANSP> 5
 0.000000e+00 1.000000e+00 0.000000e+00 0.000000e+00 0.000000e+00
 0.000000e+00 7.808900e-01 2.191100e-01 0.000000e+00 0.000000e+00
 0.000000e+00 0.000000e+00 6.675870e-01 3.324129e-01 0.000000e+00
 0.000000e+00 0.000000e+00 0.000000e+00 7.555942e-01 2.444058e-01
 0.000000e+00 0.000000e+00 0.000000e+00 0.000000e+00 0.000000e+00
<ENDHMM>
~h "l"
<BEGINHMM>
<NUMSTATES> 5
<STATE> 2
<MEAN> 25
 1.179408e+01 4.886201e+00 -5.436958e+00 -1.619952e+01 -5.671194e+00 4.512121e+00 -5.204021e+00 -2.834397e+00 -8.322392e+00 -1.934580e-02 7.647084e-01 -4.115072e+00 7.840239e-03 6.271727e-01 1.521740e-01 -1.594674e-01 -1.514874e-01 -7.847987e-02 1.753938e-01 -2.754748e-02 -4.299763e-01 -2.627230e-01 1.110795e-01 4.937277e-01 -5.053332e-01
<VARIANCE> 25
 1.288728e+01 2.789277e+01 2.202962e+01 5.798291e+01 2.358915e+01 3.096350e+01 3.876326e+01 3.107723e+01 4.702704e+01 3.213381e+01 1.949994e+01 3.393029e+01 4.935974e-01 1.151503e+00 8.767362e-01 3.642064e+00 1.470067e+00 2.246184e+00 1.644605e+00 1.792145e+00 2.475958e+00 2.150486e+00 1.588594e+00 1.714519e+00 5.185512e-01
<GCONST> 9.137605e+01
<STATE> 3
<MEAN> 25
 8.527977e+00 5.714145e+00 -3.876012e+00 -1.027990e+01 -3.098737e+00 1.847731e+00 -4.481369e+00 -2.260243e+00 -4.350068e+00 6.655633e-01 -9.342064e-01 -4.128416e+00 -1.476602e+00 -8.740555e-01 1.186496e+00 3.065073e+00 9.203413e-01 -7.471468e-01 2.211149e-01 4.734602e-01 1.742555e+00 3.500725e-02 -6.508567e-01 -2.355245e-01 -7.618638e-01
<VARIANCE> 25
 1.883566e+01 3.327785e+01 2.532214e+01 5.026268e+01 3.425931e+01 2.359147e+01 4.848299e+01 3.861485e+01 4.747041e+01 4.791228e+01 2.883310e+01 4.119458e+01 1.552207e+00 2.460558e+00 1.806685e+00 4.196218e+00 4.081354e+00 3.495559e+00 3.749696e+00 4.893318e+00 3.383553e+00 4.434343e+00 3.222888e+00 3.668420e+00 2.611550e+00
<GCONST> 1.036470e+02
<STATE> 4
<MEAN> 25
 1.285718e+00 3.645457e+00 5.540282e-01 1.197338e+00 2.504031e+00 3.079008e+00 2.137284e+00 2.260300e-01 4.204160e-01 -1.406282e+00 -3.054352e+00 -7.903604e-01 -1.079287e+00 -6.135066e-01 3.333180e-01 1.113566e+00 4.483394e-01 1.822043e-02 5.752741e-01 1.756681e-01 5.261932e-01 -1.312933e-02 1.655260e-01 5.710331e-01 -5.244476e-01
<VARIANCE> 25
 2.356277e+01 2.396331e+01 1.923377e+01 3.144560e+01 3.375806e+01 2.563729e+01 4.146000e+01 3.433945e+01 3.630855e+01 2.180167e+01 2.566857e+01 2.539649e+01 1.613535e+00 1.612926e+00 1.687726e+00 2.401811e+00 3.275235e+00 2.713627e+00 2.964374e+00 2.380467e+00 3.149975e+00 3.364860e+00 2.701197e+00 1.978140e+00 6.203538e-01
<GCONST> 9.592014e+01
<TRANSP> 5
 0.000000e+00 1.000000e+00 0.000000e+00 0.000000e+00 0.000000e+00
 0.000000e+00 8.750152e-01 1.249848e-01 0.000000e+00 0.000000e+00
 0.000000e+00 0.000000e+00 6.600866e-01 3.399135e-01 0.000000e+00
 0.000000e+00 0.000000e+00 0.000000e+00 6.730885e-01 3.269116e-01
 0.000000e+00 0.000000e+00 0.000000e+00 0.000000e+00 0.000000e+00
<ENDHMM>
~h "m"
<BEGINHMM>
<NUMSTATES> 5
<STATE> 2
<MEAN> 25
 7.000075e+00 3.480047e+00 4.593117e+00 5.649096e+00 3.719388e+00 -2.472353e+00 -2.194336e+00 -1.158409e+01 -1.009158e+01 7.524959e-01 -3.666971e+00 -1.369500e+00 5.293452e-01 2.363192e-01 6.126693e-01 8.282701e-01 1.944078e-01 -1.101221e+00 -4.653284e-01 -1.233098e+00 -1.215093e+00 3.189793e-01 -1.152631e-01 5.026005e-03 8.963563e-02
<VARIANCE> 25
 9.820309e+00 1.326682e+01 2.060626e+01 2.398279e+01 1.138755e+01 5.838492e+01 1.359546e+01 4.414973e+01 4.068707e+01 2.704403e+01 1.142409e+01 1.896388e+01 2.036271e+00 1.422842e+00 1.625201e+00 2.101103e+00 1.310286e+00 2.509757e+00 1.890882e+00 4.365625e+00 3.425742e+00 2.357342e+00 9.637629e-01 1.016703e+00 1.126230e+00
<GCONST> 9.007861e+01
<STATE> 3
<MEAN> 25
 1.012432e+01 2.192557e+00 4.002969e+00 5.510345e+00 8.575809e-01 -4.181040e+00 -8.099829e+00 -1.523545e+01 -1.427190e+01 1.164306e+00 -1.380755e+00 -6.093571e+00 4.094532e-01 -1.256337e+00 -4.977317e-01 -4.101277e-01 -9.599698e-01 -7.282667e-01 -6.938315e-01 2.341292e+00 1.291780e+00 -7.536712e-02 -4.607446e-01 -7.964029e-01 9.044976e-01
<VARIANCE> 25
 7.717796e+00 1.657952e+01 3.060986e+01 4.654207e+01 1.366663e+01 4.650768e+01 3.835603e+01 9.440218e+01 9.227410e+01 3.126754e+01 3.029365e+01 3.694615e+01 8.268954e-01 3.587263e+00 2.346128e+00 2.252055e+00 3.148206e+00 1.363152e+00 3.633952e+00 1.267586e+01 7.031531e+00 7.213558e+00 3.022888e+00 3.589364e+00 2.266328e+00
<GCONST> 1.028644e+02
<STATE> 4
<MEAN> 25
 9.257638e+00 -7.396375e-01 1.364815e+00 -3.084774e+00 -8.293921e+00 -5.838400e+00 -7.304370e+00 -3.043157e+00 -7.902704e+00 -7.086034e-01 -2.517073e+00 -5.373740e+00 -1.151322e-01 3.930915e-01 -5.510806e-02 -2.959502e-01 -3.955163e-01 2.153356e-01 3.707067e-01 3.886831e-01 -1.019811e-01 -3.666048e-01 1.791675e-02 2.274434e-01 -3.712039e-01
<VARIANCE> 25
 1.073291e+01 5.238303e+01 6.675471e+01 1.146625e+02 6.576382e+01 6.966587e+01 2.549274e+01 1.121599e+02 6.449690e+01 3.392150e+01 1.834218e+01 1.302038e+01 1.041050e+00 3.185883e+00 2.200616e+00 5.748957e+00 5.226832e+00 2.794970e+00 1.912550e+00 8.188053e+00 4.586733e+00 3.380783e+00 2.092690e+00 1.344985e+00 2.934637e+00
<GCONST> 1.047985e+02
<TRANSP> 5
 0.000000e+00 1.000000e+00 0.000000e+00 0.000000e+00 0.000000e+00
 0.000000e+00 7.129725e-01 2.870275e-01 0.000000e+00 0.000000e+00
 0.000000e+00 0.000000e+00 6.195837e-01 3.804164e-01 0.000000e+00
 0.000000e+00 0.000000e+00 0.000000e+00 8.491842e-01 1.508158e-01
 0.000000e+00 0.000000e+00 0.000000e+00 0.000000e+00 0.000000e+00
<ENDHMM>
~h "n"
<BEGINHMM>
<NUMSTATES> 5
<STATE> 2
<MEAN> 25
 8.633208e+00 3.041880e+00 7.235662e+00 5.835852e+00 -2.846293e+00 -6.316996e+00 -3.347351e+00 -1.118026e+01 -1.187270e+01 3.781252e-01 -5.382726e+00 -5.345366e+00 -2.375641e-01 3.168362e-01 8.659077e-02 2.439332e-01 1.237616e-01 2.762837e-03 -1.742123e-01 -2.638799e-01 2.950127e-01 -1.760850e-01 -6.778843e-02 2.234362e-01 -4.217773e-01
<VARIANCE> 25
 7.810479e+00 1.309476e+01 1.184535e+01 1.601590e+01 1.195308e+01 1.820343e+01 2.229629e+01 2.640188e+01 2.754105e+01 2.068425e+01 1.719403e+01 1.561978e+01 2.246251e-01 6.583194e-01 6.351231e-01 1.568023e+00 9.677294e-01 1.356153e+00 9.171642e-01 2.827563e+00 1.481631e+00 1.944439e+00 9.780213e-01 8.117023e-01 3.084437e-01
<GCONST> 7.847905e+01
<STATE> 3
<MEAN> 25
 1.711970e+00 2.635312e+00 3.187911e+00 3.933471e+00 1.319772e+00 -1.186149e+00 -1.344469e+00 -1.122163e+00 -2.067493e+00 -4.964883e+00 -4.277790e+00 -1.529319e+00 -1.179148e+00 -5.593299e-01 -8.206571e-01 -4.036641e-01 4.870951e-01 9.273003e-01 7.906938e-01 1.275691e+00 1.338343e+00 5.258256e-01 8.499004e-01 7.095960e-01 -4.676198e-01
<VARIANCE> 25
 2.538857e+01 2.084964e+01 2.890687e+01 2.395564e+01 2.561975e+01 3.836864e+01 3.420934e+01 4.571048e+01 3.982265e+01 3.490409e+01 2.956601e+01 2.550086e+01 1.799717e+00 1.760048e+00 2.055181e+00 2.471125e+00 1.836917e+00 3.351908e+00 3.011738e+00 4.769282e+00 3.568303e+00 4.223451e+00 3.138004e+00 2.586413e+00 1.502377e+00
<GCONST> 9.934063e+01
<STATE> 4
<MEAN> 25
 -4.553746e+00 -2.315240e+00 -1.807430e+00 1.507819e+00 3.395863e+00 2.930129e+00 3.993296e+00 2.758092e+00 5.080269e+00 3.130476e+00 2.930634e+00 4.355844e+00 -2.453478e-02 -4.281501e-02 -6.504531e-02 -4.277610e-02 1.593465e-02 4.013897e-02 2.449573e-02 7.566934e-03 1.863703e-02 5.109446e-02 7.891212e-02 3.625133e-02 -3.409907e-02
<VARIANCE> 25
 6.343786e+00 3.872693e+00 8.992514e+00 7.299618e+00 9.309552e+00 1.069791e+01 1.296429e+01 1.573106e+01 1.482016e+01 1.255712e+01 1.208941e+01 1.273534e+01 2.061471e-01 2.749637e-01 4.567357e-01 6.464416e-01 8.249165e-01 9.906135e-01 1.230613e+00 1.372682e+00 1.334069e+00 1.292356e+00 1.241221e+00 1.200806e+00 7.920213e-02
<GCONST> 6.815469e+01
<TRANSP> 5
 0.000000e+00 1.000000e+00 0.000000e+00 0.000000e+00 0.000000e+00
 0.000000e+00 8.940129e-01 1.059871e-01 0.000000e+00 0.000000e+00
 0.000000e+00 0.000000e+00 8.398988e-01 1.601012e-01 0.000000e+00
 0.000000e+00 0.000000e+00 0.000000e+00 9.312067e-01 6.879332e-02
 0.000000e+00 0.000000e+00 0.000000e+00 0.000000e+00 0.000000e+00
<ENDHMM>
~h "p"
<BEGINHMM>
<NUMSTATES> 5
<STATE> 2
<MEAN> 25
 -3.286675e-01 2.825662e+00 -6.195804e+00 -8.357717e-01 4.877920e+00 1.585881e+00 9.824026e-01 -1.471708e-01 2.907676e+00 8.124400e-01 7.110060e-01 6.538498e-01 6.479053e-01 -2.916356e-01 -7.450092e-01 -8.132745e-01 -2.641287e-01 9.269943e-02 -9.021505e-01 2.317559e-01 4.126433e-02 1.519887e-01 -2.201261e-01 -5.737064e-01 1.414419e+00
<VARIANCE> 25
 3.489901e+01 1.058539e+01 4.906657e+01 3.639679e+01 1.480385e+01 3.916814e+01 2.798348e+01 1.727479e+01 2.622684e+01 2.024675e+01 1.543849e+01 2.399301e+01 4.989594e+00 2.865907e+00 2.017178e+00 3.611774e+00 1.823738e+00 6.120076e+00 4.082548e+00 4.618927e+00 5.668168e+00 3.005084e+00 3.624292e+00 3.939013e+00 4.342594e+00
<GCONST> 1.010373e+02
<STATE> 3
<MEAN> 25
 6.052347e+00 -3.721628e+00 -4.410656e+00 -8.418484e-01 3.683580e-01 5.252167e-01 -7.635398e+00 6.688781e+00 4.142746e-01 -3.756578e+00 -8.092607e+00 -2.228745e+00 -3.154514e-01 -9.275588e-01 1.879341e+00 6.100480e-01 -2.201672e+00 -8.743098e-01 4.518294e-01 1.525640e+00 -1.157823e+00 -1.377438e+00 2.250651e-01 1.356052e+00 5.795900e-01
<VARIANCE> 25
 2.222065e+01 2.156650e+01 5.431363e+01 3.777655e+01 2.755293e+01 3.517485e+01 5.900762e+01 3.803079e+01 3.761096e+01 4.549163e+01 4.890055e+01 3.330829e+01 2.887508e+00 2.891361e+00 5.213418e+00 4.975416e+00 3.455078e+00 3.413523e+00 5.212278e+00 3.412588e+00 8.220799e+00 6.641179e+00 5.376626e+00 3.170100e+00 2.955701e+00
<GCONST> 1.078219e+02
<STATE> 4
<MEAN> 25
 7.661046e-01 -1.228389e+00 -9.099284e-01 -5.165659e-01 -3.358260e+00 8.493054e-02 8.706278e-02 2.885537e+00 -6.819286e-01 -8.849533e-01 -1.669571e-01 2.597418e-01 -4.944374e-01 1.203661e-01 5.422665e-01 -1.713984e-01 -6.749234e-01 -2.432177e-01 5.945373e-01 -7.009178e-01 -1.230764e+00 4.647804e-01 1.411753e+00 2.114064e-01 1.256225e-01
<VARIANCE> 25
 4.780465e+01 1.791971e+01 2.603222e+01 5.158017e+01 4.378341e+01 4.126423e+01 2.701866e+01 4.562681e+01 7.614484e+01 4.251073e+01 2.699914e+01 2.067271e+01 1.870843e+00 1.225119e+00 2.523560e+00 1.251331e+00 2.883669e+00 5.563225e-01 3.251930e+00 1.188309e+00 3.512895e+00 3.434683e+00 2.103031e+00 1.463254e+00 1.086463e+00
<GCONST> 9.642677e+01
<TRANSP> 5
 0.000000e+00 1.000000e+00 0.000000e+00 0.000000e+00 0.000000e+00
 0.000000e+00 8.348981e-01 1.651019e-01 0.000000e+00 0.000000e+00
 0.000000e+00 0.000000e+00 5.381647e-01 4.618353e-01 0.000000e+00
 0.000000e+00 0.000000e+00 0.000000e+00 3.377150e-01 6.622850e-01
 0.000000e+00 0.000000e+00 0.000000e+00 0.000000e+00 0.000000e+00
<ENDHMM>
~h "r"
<BEGINHMM>
<NUMSTATES> 5
<STATE> 2
<MEAN> 25
 9.327579e+00 -3.069313e-01 -6.304846e+00 3.016399e+00 2.277351e+00 -6.331139e+00 -1.059905e+01 -2.590485e+00 2.960085e+00 -3.652717e+00 -1.349876e+00 6.876454e-01 9.103479e-01 -1.659660e-01 -9.292814e-01 1.383883e-01 5.412629e-01 -5.557902e-01 -1.788025e+00 -7.182658e-02 9.876765e-01 8.237433e-02 -6.901839e-01 -3.826798e-01 4.862646e-01
<VARIANCE> 25
 5.602766e+01 1.261553e+01 4.997472e+01 3.036388e+01 2.224833e+01 5.837749e+01 6.292145e+01 2.986369e+01 2.606194e+01 3.776320e+01 3.311469e+01 2.365327e+01 2.418022e+00 1.117829e+00 2.748803e+00 1.828247e+00 2.753131e+00 3.045275e+00 3.279398e+00 4.060391e+00 2.391019e+00 2.965292e+00 1.863728e+00 1.859286e+00 2.353735e+00
<GCONST> 9.947708e+01
<STATE> 3
<MEAN> 25
 8.490613e+00 -3.558588e+00 -1.258263e+00 5.710917e+00 -2.854471e+00 -9.071074e+00 -9.914045e+00 2.919132e+00 1.281180e+00 -7.478867e+00 -2.225401e+00 3.919286e-01 -6.401478e-01 -4.653991e-01 2.007888e+00 -1.333025e-01 -1.601543e+00 7.806519e-02 1.521363e+00 7.192606e-01 -1.561036e+00 -3.264699e-01 5.077577e-01 3.169256e-02 1.334937e-01
<VARIANCE> 25
 7.025397e+01 3.896396e+01 9.165450e+01 2.951693e+01 4.972387e+01 5.727705e+01 8.109905e+01 3.612299e+01 6.450754e+01 5.103769e+01 1.959936e+01 2.358845e+01 2.678226e+00 2.317592e+00 3.070827e+00 3.788173e+00 4.079141e+00 4.450308e+00 4.913759e+00 5.058102e+00 4.422948e+00 5.035423e+00 2.575872e+00 3.203874e+00 1.646659e+00
<GCONST> 1.080413e+02
<STATE> 4
<MEAN> 25
 6.611454e+00 -3.543438e+00 5.997451e-01 2.040355e+00 -5.159605e+00 -5.673054e+00 -5.917858e+00 1.853037e+00 -1.184083e+00 -2.944892e+00 -3.915681e-01 -1.281998e-01 -8.929224e-01 1.910186e-01 9.258571e-01 -1.131126e+00 -7.063900e-01 1.371541e+00 8.879420e-01 -1.225865e+00 -9.761465e-01 9.702227e-01 6.167589e-01 -6.074295e-01 -4.212273e-01
<VARIANCE> 25
 5.060371e+01 1.688341e+01 1.189285e+02 1.470362e+01 7.875134e+01 3.301012e+01 5.933182e+01 3.804030e+01 1.144598e+02 2.773427e+01 1.984918e+01 1.909132e+01 7.123446e-01 1.489529e+00 2.128385e+00 1.601527e+00 9.451710e-01 2.417131e+00 3.239424e+00 3.141204e+00 2.072243e+00 1.861792e+00 1.470162e+00 3.254824e+00 6.804312e-01
<GCONST> 9.671153e+01
<TRANSP> 5
 0.000000e+00 1.000000e+00 0.000000e+00 0.000000e+00 0.000000e+00
 0.000000e+00 8.565180e-01 1.434820e-01 0.000000e+00 0.000000e+00
 0.000000e+00 0.000000e+00 7.941884e-01 2.058116e-01 0.000000e+00
 0.000000e+00 0.000000e+00 0.000000e+00 5.034278e-01 4.965722e-01
 0.000000e+00 0.000000e+00 0.000000e+00 0.000000e+00 0.000000e+00
<ENDHMM>
~h "s"
<BEGINHMM>
<NUMSTATES> 5
<STATE> 2
<MEAN> 25
 -9.063394e+00 5.452837e+00 -3.422663e+00 -1.220755e+00 5.215395e+00 -8.762753e+00 2.844863e+00 -7.785691e-01 4.561661e-01 -1.281567e+00 -2.632362e+00 2.152819e+00 -2.762757e+00 1.707379e+00 -1.510661e+00 -7.842537e-01 1.086759e+00 -1.295240e+00 8.880517e-01 -2.285894e-01 3.472927e-01 -5.285141e-01 9.551334e-02 -3.857687e-02 1.811288e+00
<VARIANCE> 25
 4.696214e+01 2.306096e+01 2.515992e+01 1.703127e+01 2.217772e+01 3.997322e+01 3.341159e+01 2.852383e+01 2.086785e+01 2.097909e+01 1.785242e+01 1.729196e+01 5.030079e+00 2.892169e+00 2.510525e+00 1.908250e+00 1.833368e+00 4.263019e+00 4.351841e+00 3.362367e+00 3.453150e+00 2.477010e+00 2.840902e+00 1.716958e+00 1.987565e+00
<GCONST> 9.785719e+01
<STATE> 3
<MEAN> 25
 -1.583400e+01 8.209678e+00 -9.222891e+00 -2.820696e+00 7.984325e+00 -8.377810e+00 6.004745e+00 -4.754452e-02 2.716968e+00 -1.167492e+00 -1.519997e+00 3.192144e+00 4.316745e-01 -2.779781e-01 2.613228e-02 1.570100e-01 -8.339152e-02 3.262541e-01 4.741831e-02 -6.643727e-02 1.382088e-01 3.019937e-01 1.064276e-01 4.088776e-02 -4.836111e-01
<VARIANCE> 25
 1.719074e+01 1.192989e+01 1.519955e+01 1.501428e+01 1.283561e+01 1.962468e+01 1.919832e+01 2.613966e+01 1.854165e+01 1.977789e+01 1.980667e+01 1.624395e+01 1.684876e+00 8.716611e-01 1.258212e+00 1.154057e+00 1.106296e+00 1.560325e+00 1.287882e+00 1.377182e+00 1.485825e+00 1.813312e+00 1.431103e+00 1.442305e+00 1.965240e+00
<GCONST> 8.439391e+01
<STATE> 4
<MEAN> 25
 -5.868173e+00 3.316863e+00 -2.644047e+00 -6.772215e-01 2.456533e+00 -7.773839e+00 2.904866e+00 -1.647828e-01 4.050088e-02 9.282888e-01 -7.217031e-01 1.334633e+00 2.263018e+00 -6.624783e-01 2.155948e+00 9.927295e-03 -2.012184e+00 -2.834957e-01 -1.637692e+00 5.465497e-02 -1.364205e+00 -1.431943e-01 -2.072545e-01 -1.252855e+00 5.493788e-01
<VARIANCE> 25
 5.506964e+01 1.755894e+01 3.748431e+01 1.893103e+01 3.928017e+01 2.517908e+01 2.467575e+01 3.008631e+01 4.225554e+01 2.549062e+01 2.231622e+01 3.325215e+01 5.548613e+00 2.966348e+00 5.056441e+00 2.265641e+00 3.463222e+00 3.775620e+00 3.599906e+00 4.941508e+00 4.059896e+00 2.516775e+00 2.841878e+00 1.967050e+00 3.865425e+00
<GCONST> 1.025699e+02
<TRANSP> 5
 0.000000e+00 1.000000e+00 0.000000e+00 0.000000e+00 0.000000e+00
 0.000000e+00 7.355284e-01 2.644716e-01 0.000000e+00 0.000000e+00
 0.000000e+00 0.000000e+00 9.162619e-01 8.373811e-02 0.000000e+00
 0.000000e+00 0.000000e+00 0.000000e+00 7.359024e-01 2.640976e-01
 0.000000e+00 0.000000e+00 0.000000e+00 0.000000e+00 0.000000e+00
<ENDHMM>
~h "t"
<BEGINHMM>
<NUMSTATES> 5
<STATE> 2
<MEAN> 25
 -5.413535e+00 2.485695e-01 3.131900e+00 -1.937091e+00 1.050739e-01 5.125796e-01 1.784093e-01 -9.523398e-01 -8.603672e-01 4.888278e-01 2.445793e-01 8.031035e-02 -7.334204e-01 2.143539e-01 -9.827870e-02 -8.695754e-01 -2.779920e-01 -6.010931e-01 -9.901753e-02 -6.671594e-02 -2.631764e-01 -2.436634e-03 -2.317727e-01 1.214929e-04 1.864057e+00
<VARIANCE> 25
 2.735712e+01 2.078912e+01 5.790920e+01 3.526428e+01 3.663558e+01 2.681558e+01 2.879686e+01 2.393939e+01 5.677060e+01 2.202515e+01 1.663667e+01 2.787096e+01 1.971281e+00 2.500659e+00 3.813138e+00 3.855503e+00 3.895636e+00 3.703086e+00 3.422544e+00 2.636051e+00 4.961992e+00 3.138242e+00 2.404204e+00 2.866689e+00 1.076572e+01
<GCONST> 1.028124e+02
<STATE> 3
<MEAN> 25
 -4.473997e+00 1.785555e+00 4.823198e+00 -8.522535e-01 -5.293763e-01 -3.056120e+00 1.524155e+00 2.823924e-01 -1.764224e+00 1.551832e+00 -1.445310e+00 1.882501e+00 6.302670e-01 -2.778061e-01 1.779768e-01 1.043205e+00 4.870503e-01 9.424546e-01 3.748160e-01 3.921711e-01 4.817943e-01 3.514661e-01 5.749593e-01 3.807428e-01 -2.149063e+00
<VARIANCE> 25
 2.780735e+01 8.360637e+00 4.771089e+01 2.691545e+01 4.193337e+01 3.645481e+01 3.231247e+01 2.873136e+01 3.029279e+01 2.297471e+01 1.838744e+01 3.166599e+01 3.221118e+00 1.047534e+00 3.156704e+00 2.328624e+00 3.655395e+00 4.138658e+00 3.513555e+00 1.843367e+00 2.533739e+00 2.035746e+00 2.368433e+00 2.444258e+00 3.193572e+00
<GCONST> 9.798489e+01
<STATE> 4
<MEAN> 25
 -4.442164e+00 -1.681388e+00 -8.487448e-01 1.768969e+00 3.079200e+00 2.771404e+00 3.605740e+00 2.051717e+00 3.689309e+00 2.734940e+00 2.360280e+00 3.348142e+00 2.508786e-02 -3.783052e-02 -3.467700e-02 1.617025e-02 -3.030144e-02 3.892417e-02 -1.422729e-02 2.589366e-03 2.397205e-02 -4.943130e-02 5.676007e-02 -1.452178e-02 -4.563446e-02
<VARIANCE> 25
 3.833135e+00 5.635663e+00 1.274999e+01 7.760837e+00 1.274881e+01 1.141730e+01 1.563528e+01 1.343524e+01 1.567092e+01 1.328667e+01 1.167580e+01 1.156415e+01 2.021127e-01 2.471373e-01 5.248965e-01 5.904767e-01 7.619930e-01 1.050565e+00 1.210071e+00 1.354279e+00 1.151865e+00 1.104991e+00 1.082026e+00 1.122283e+00 9.527098e-02
<GCONST> 6.837405e+01
<TRANSP> 5
 0.000000e+00 1.000000e+00 0.000000e+00 0.000000e+00 0.000000e+00
 0.000000e+00 7.636821e-01 2.363180e-01 0.000000e+00 0.000000e+00
 0.000000e+00 0.000000e+00 7.335612e-01 2.664388e-01 0.000000e+00
 0.000000e+00 0.000000e+00 0.000000e+00 9.153481e-01 8.465188e-02
 0.000000e+00 0.000000e+00 0.000000e+00 0.000000e+00 0.000000e+00
<ENDHMM>
~h "v"
<BEGINHMM>
<NUMSTATES> 5
<STATE> 2
<MEAN> 25
 3.813849e-01 9.090928e-01 -3.465175e-01 3.622108e+00 -1.696322e+00 -5.863950e+00 -2.263628e+00 1.317087e+00 2.351688e+00 3.127866e-01 7.164840e-02 1.198068e+00 -1.160776e+00 3.014713e-01 -2.244371e-01 8.626068e-02 5.873008e-01 7.362890e-01 3.435271e-01 -2.309382e-01 7.644438e-01 6.422524e-01 3.225949e-01 4.189581e-01 -9.994392e-01
<VARIANCE> 25
 6.667005e+01 1.359809e+01 1.912409e+01 2.746716e+01 4.386794e+01 5.186838e+01 2.543055e+01 1.958914e+01 2.866438e+01 3.143593e+01 2.702974e+01 2.305069e+01 5.422454e+00 2.134938e+00 1.623026e+00 3.049072e+00 6.287973e+00 7.017591e+00 3.549197e+00 2.286587e+00 2.387094e+00 3.174975e+00 3.915382e+00 2.420259e+00 2.756382e+00
<GCONST> 1.014166e+02
<STATE> 3
<MEAN> 25
 -5.279738e+00 -4.208944e-01 -2.216984e+00 4.154644e+00 8.242404e-01 -6.095604e-01 3.804519e-01 1.023248e+00 3.475016e+00 1.488454e+00 5.643878e-01 2.286474e+00 -1.916167e-01 -4.059236e-01 -1.568806e-01 -1.418248e-01 1.774403e-01 1.629820e-01 1.953267e-01 6.275660e-02 -2.859656e-01 -2.925740e-01 2.130417e-02 3.879345e-02 -1.994204e-01
<VARIANCE> 25
 2.180249e+01 9.378735e+00 1.476759e+01 1.229579e+01 1.500612e+01 1.289509e+01 1.930412e+01 2.146110e+01 2.862759e+01 1.936678e+01 1.943515e+01 2.009342e+01 1.983841e+00 6.041917e-01 1.164557e+00 1.807127e+00 2.638274e+00 2.340100e+00 2.418142e+00 2.182748e+00 3.056918e+00 2.117812e+00 2.488609e+00 1.809498e+00 1.748372e+00
<GCONST> 8.838677e+01
<STATE> 4
<MEAN> 25
 -4.004536e+00 -3.373402e+00 -2.270045e+00 4.045056e+00 4.153317e+00 -3.410381e-01 4.467717e+00 2.964540e+00 5.899676e+00 2.626827e+00 3.453536e+00 5.327421e+00 8.398164e-03 3.895009e-03 -4.466941e-02 -8.401252e-02 4.301846e-02 -1.176865e-02 1.386037e-02 2.444492e-02 7.772674e-02 9.230062e-02 1.435709e-02 2.010434e-02 1.635890e-02
<VARIANCE> 25
 5.614227e+00 6.153437e+00 5.929695e+00 7.036550e+00 1.004205e+01 1.292446e+01 1.165642e+01 1.236401e+01 1.593465e+01 1.387366e+01 1.333447e+01 1.891516e+01 2.428340e-01 3.378792e-01 4.540648e-01 5.517511e-01 6.440059e-01 9.742190e-01 9.401937e-01 1.169167e+00 9.583629e-01 1.473524e+00 1.473204e+00 1.582005e+00 1.705794e-01
<GCONST> 6.915223e+01
<TRANSP> 5
 0.000000e+00 1.000000e+00 0.000000e+00 0.000000e+00 0.000000e+00
 0.000000e+00 7.400378e-01 2.599622e-01 0.000000e+00 0.000000e+00
 0.000000e+00 0.000000e+00 7.865934e-01 2.134066e-01 0.000000e+00
 0.000000e+00 0.000000e+00 0.000000e+00 8.884636e-01 1.115364e-01
 0.000000e+00 0.000000e+00 0.000000e+00 0.000000e+00 0.000000e+00
<ENDHMM>
~h "w"
<BEGINHMM>
<NUMSTATES> 5
<STATE> 2
<MEAN> 25
 6.864029e+00 6.920174e+00 1.142791e+00 -1.628470e+00 -1.250118e+00 -2.424330e+00 -3.637744e+00 -5.439712e+00 -5.922502e+00 -4.168648e+00 -2.881318e+00 -3.054007e+00 1.411310e+00 2.923676e-01 -6.790179e-01 -1.217859e+00 -3.242470e-01 1.327808e-01 -6.322931e-01 -7.712095e-01 -2.511340e+00 4.760742e-02 1.027145e-01 -8.234321e-01 1.615409e+00
<VARIANCE> 25
 2.134857e+01 1.246585e+01 2.242821e+01 3.778373e+01 1.363129e+01 2.360515e+01 2.312587e+01 1.986560e+01 5.743307e+01 3.288621e+01 1.846945e+01 2.002603e+01 1.959258e+00 3.716502e+00 2.451229e+00 2.794564e+00 2.838215e+00 4.708355e+00 3.533006e+00 2.316809e+00 5.997653e+00 6.737421e+00 3.235144e+00 2.387998e+00 1.428331e+00
<GCONST> 9.833824e+01
<STATE> 3
<MEAN> 25
 1.069793e+01 4.658151e-01 -4.400775e+00 -4.010126e+00 7.303239e-01 1.326378e+00 -5.921967e+00 -3.528396e+00 -1.467488e+01 -3.811993e+00 4.607210e-01 -1.064261e+01 1.605540e-01 -1.113709e+00 3.179078e-01 4.902973e-01 3.770176e-02 -2.587329e-01 -7.029927e-01 1.204624e+00 6.850003e-01 -8.555710e-01 -2.708798e-01 -6.050792e-01 6.325852e-01
<VARIANCE> 25
 3.918763e+00 2.120567e+01 4.804453e+01 1.162772e+01 3.377758e+01 4.838260e+01 3.956595e+01 3.355349e+01 4.026574e+01 4.748477e+01 1.761139e+01 2.195679e+01 7.568960e-01 8.514397e-01 4.829072e+00 2.013322e+00 4.201570e+00 5.802257e+00 4.517655e+00 2.590020e+00 3.947177e+00 3.190158e+00 4.537540e+00 2.241833e+00 1.866873e-01
<GCONST> 9.545895e+01
<STATE> 4
<MEAN> 25
 1.174853e+01 -3.382112e+00 -2.175997e+00 -2.098193e+00 1.735117e-01 -1.607749e+00 -8.598760e+00 4.681904e-01 -1.030525e+01 -7.432353e+00 -3.250278e+00 -1.023626e+01 -1.241006e-01 -6.521118e-01 1.530358e+00 -2.531513e-01 -8.606621e-01 -8.326414e-01 3.541259e-01 8.489794e-01 9.211031e-01 -5.665220e-01 -2.111107e+00 1.639126e+00 1.973337e-01
<VARIANCE> 25
 8.888992e+00 2.100531e+01 8.769907e+01 1.432355e+01 4.215945e+01 2.415983e+01 1.818670e+01 4.115893e+01 3.329361e+01 3.726688e+01 1.627610e+01 1.942572e+01 4.448377e-01 1.471347e+00 2.728255e-01 1.527420e+00 5.886729e-01 3.372262e+00 5.546411e-01 1.657796e+00 1.157884e+00 6.175147e-01 1.639025e+00 1.639030e+00 9.802879e-02
<GCONST> 8.236916e+01
<TRANSP> 5
 0.000000e+00 1.000000e+00 0.000000e+00 0.000000e+00 0.000000e+00
 0.000000e+00 8.386554e-01 1.613446e-01 0.000000e+00 0.000000e+00
 0.000000e+00 0.000000e+00 8.339411e-01 1.660589e-01 0.000000e+00
 0.000000e+00 0.000000e+00 0.000000e+00 3.233140e-01 6.766859e-01
 0.000000e+00 0.000000e+00 0.000000e+00 0.000000e+00 0.000000e+00
<ENDHMM>
~h "y"
<BEGINHMM>
<NUMSTATES> 5
<STATE> 2
<MEAN> 25
 1.870600e+00 3.924349e+00 1.205760e+01 2.068208e+00 -7.706401e+00 -2.813323e+00 -6.746556e+00 4.404270e-01 -9.810562e+00 -2.071324e+00 8.930544e-01 -3.258768e+00 6.819119e-01 -3.479193e-01 -3.491558e-01 2.821949e-01 -8.920673e-01 -5.830222e-01 -6.244792e-01 8.498397e-01 -2.406369e-01 -7.085652e-01 4.310938e-01 -2.729217e-01 1.012253e+00
<VARIANCE> 25
 1.178741e+01 2.541019e+01 4.858081e+01 2.013541e+01 7.758813e+01 3.082671e+01 3.988202e+01 2.803167e+01 8.423316e+01 2.742491e+01 2.022695e+01 3.469131e+01 1.328947e+00 2.356406e+00 6.846938e+00 2.989224e+00 5.086115e+00 2.295485e+00 5.306726e+00 3.264618e+00 9.447739e+00 3.343073e+00 2.832940e+00 3.987147e+00 1.127018e+00
<GCONST> 1.030990e+02
<STATE> 3
<MEAN> 25
 9.529844e+00 3.048142e-01 -2.360404e+00 6.395271e-01 -3.572772e-01 -6.822131e-01 -9.214201e+00 1.619105e-01 -6.098096e+00 -4.455365e+00 -2.403271e+00 -8.760919e+00 3.238235e-01 -7.102112e-02 -7.850037e-01 -6.118261e-01 1.127779e+00 4.718150e-01 -3.193418e-01 -2.952249e-01 5.360898e-01 3.742709e-01 -3.963334e-01 -5.417837e-01 -2.077280e-01
<VARIANCE> 25
 5.944835e+00 5.258988e+01 4.218250e+01 4.481191e+01 3.627026e+01 6.475616e+01 4.367494e+01 8.698487e+01 9.799847e+01 5.636934e+01 2.779156e+01 2.989480e+01 6.462379e-01 1.988219e+00 3.007507e+00 2.845680e+00 3.824481e+00 4.517628e+00 4.372578e+00 5.344916e+00 5.000354e+00 4.421805e+00 3.325657e+00 2.869546e+00 1.638180e+00
<GCONST> 1.048238e+02
<STATE> 4
<MEAN> 25
 8.656644e+00 2.811596e-01 -5.413842e-02 2.962117e+00 1.031889e+00 -2.335877e+00 -2.356611e+00 -5.481047e+00 -3.996158e+00 1.539226e+00 -1.217111e+00 -5.809402e+00 -1.600726e-01 4.172745e-01 3.927362e-01 3.747739e-01 -1.413384e-01 -1.647210e-01 3.224591e-01 -6.158219e-01 -1.688877e-01 -4.452629e-03 5.637684e-02 3.613487e-01 -5.002059e-01
<VARIANCE> 25
 8.581564e+00 1.775659e+01 6.484838e+01 3.806885e+01 2.364787e+01 3.875501e+01 3.172782e+01 3.686348e+01 3.125413e+01 1.829035e+01 2.374268e+01 1.784014e+01 2.234616e-01 2.886452e-01 1.726596e+00 6.756551e-01 1.103269e+00 1.436183e+00 1.324629e+00 1.159491e+00 1.550238e+00 1.149305e+00 1.147782e+00 6.547655e-01 2.498861e-01
<GCONST> 8.227451e+01
<TRANSP> 5
 0.000000e+00 1.000000e+00 0.000000e+00 0.000000e+00 0.000000e+00
 0.000000e+00 8.776087e-01 1.223913e-01 0.000000e+00 0.000000e+00
 0.000000e+00 0.000000e+00 8.929892e-01 1.070108e-01 0.000000e+00
 0.000000e+00 0.000000e+00 0.000000e+00 8.978000e-01 1.022000e-01
 0.000000e+00 0.000000e+00 0.000000e+00 0.000000e+00 0.000000e+00
<ENDHMM>
~h "z"
<BEGINHMM>
<NUMSTATES> 5
<STATE> 2
<MEAN> 25
 -1.447710e+01 9.882462e+00 -5.145864e+00 -2.608152e+00 1.036993e+01 -1.080040e+01 1.274348e+00 6.988955e-01 1.575913e+00 -1.756279e-01 -2.613168e+00 2.920996e+00 -4.906532e-01 -2.727367e-01 5.291166e-02 1.621933e-01 3.609756e-01 -3.815618e-01 9.022898e-02 3.542551e-01 5.042102e-02 1.879424e-01 -2.495649e-01 1.360934e-01 -1.030809e-01
<VARIANCE> 25
 6.218311e+01 3.097771e+01 3.430430e+01 1.826311e+01 2.760620e+01 2.029645e+01 3.599746e+01 2.682059e+01 2.718400e+01 2.570903e+01 1.701651e+01 1.703585e+01 6.889304e+00 2.159733e+00 1.747895e+00 1.593867e+00 4.128874e+00 1.950300e+00 1.946545e+00 2.439712e+00 3.188969e+00 2.710246e+00 1.718317e+00 1.191611e+00 1.232256e+00
<GCONST> 9.582121e+01
<STATE> 3
<MEAN> 25
 -5.839850e+00 9.826818e+00 7.887833e-01 2.298935e+00 7.100483e+00 -1.069420e+01 3.035869e+00 -3.878490e+00 -3.043178e+00 -2.274863e+00 -4.360988e+00 1.232026e+00 5.669339e-01 -9.979453e-02 7.458381e-01 1.590991e-01 -7.560314e-01 1.322856e-01 1.239782e-01 -1.100612e-01 -3.562188e-01 -4.328908e-02 2.694623e-01 -1.012278e-01 1.174971e-01
<VARIANCE> 25
 1.830827e+01 3.829921e+01 1.807147e+01 9.878143e+00 2.275521e+01 3.847533e+01 2.897357e+01 1.893094e+01 2.287577e+01 1.536944e+01 1.976762e+01 1.662375e+01 2.766066e+00 2.619871e+00 2.902569e+00 1.078037e+00 3.842097e+00 4.346625e+00 3.201537e+00 2.827361e+00 2.695811e+00 1.581130e+00 1.865677e+00 1.459568e+00 1.554208e+00
<GCONST> 9.345595e+01
<STATE> 4
<MEAN> 25
 -4.463945e+00 -6.032426e-01 1.203722e+00 3.548943e+00 3.214696e+00 1.270580e-01 4.516445e+00 2.294988e+00 3.228703e+00 2.950986e+00 1.356992e+00 3.886036e+00 1.782983e-01 -2.681436e-01 2.290977e-01 1.215388e-01 -3.529512e-01 4.542386e-01 3.496772e-02 2.177290e-01 1.546367e-01 3.612147e-02 2.376422e-01 -8.313566e-03 -1.711710e-01
<VARIANCE> 25
 1.057181e+01 8.213738e+00 2.104444e+01 1.172197e+01 1.594689e+01 2.461897e+01 2.580140e+01 1.970757e+01 2.877686e+01 1.562644e+01 9.805451e+00 1.413576e+01 8.977285e-01 1.244158e+00 1.582910e+00 1.552172e+00 2.200649e+00 2.161911e+00 3.063892e+00 2.515172e+00 2.093446e+00 1.236401e+00 1.117287e+00 1.580565e+00 3.451485e-01
<GCONST> 8.423059e+01
<TRANSP> 5
 0.000000e+00 1.000000e+00 0.000000e+00 0.000000e+00 0.000000e+00
 0.000000e+00 8.922924e-01 1.077076e-01 0.000000e+00 0.000000e+00
 0.000000e+00 0.000000e+00 8.875018e-01 1.124982e-01 0.000000e+00
 0.000000e+00 0.000000e+00 0.000000e+00 8.730565e-01 1.269435e-01
 0.000000e+00 0.000000e+00 0.000000e+00 0.000000e+00 0.000000e+00
<ENDHMM>
~h "aa"
<BEGINHMM>
<NUMSTATES> 5
<STATE> 2
<MEAN> 25
 9.271049e+00 -7.195144e+00 -8.216542e+00 -1.188777e+01 2.794903e-01 1.138495e+01 -3.295701e+00 -3.601997e+00 6.194060e-01 -5.007961e+00 1.183440e+00 -1.428973e+01 3.375600e-01 5.117238e-02 -3.259461e-01 -5.917243e-01 -1.807055e-01 3.050117e-01 -4.691846e-01 -3.358439e-02 8.496469e-02 -5.164423e-01 2.294088e-01 -2.814721e-01 3.448004e-02
<VARIANCE> 25
 1.028573e+01 1.824562e+01 9.482608e+00 3.599641e+01 1.162678e+01 2.513323e+01 2.609249e+01 2.125103e+01 5.220277e+01 4.933484e+01 1.732533e+01 4.005980e+01 5.134241e-01 5.109265e-01 7.052373e-01 2.177827e+00 1.879906e+00 2.397911e+00 1.649028e+00 2.246126e+00 1.741518e+00 2.783473e+00 2.365224e+00 2.355195e+00 6.286928e-01
<GCONST> 8.814431e+01
<STATE> 3
<MEAN> 25
 6.414063e+00 -2.252112e-02 -6.891996e+00 -7.481663e+00 4.524278e-01 9.762622e+00 -2.166507e+00 -1.254276e-01 -2.572397e-01 -2.755779e+00 -2.338206e+00 -9.003067e+00 -1.388976e+00 4.518331e-01 1.696440e+00 1.776583e+00 1.537075e-02 -1.673658e+00 1.792598e+00 1.208866e+00 8.624437e-02 1.455418e+00 -7.266314e-01 2.478883e+00 -2.375869e+00
<VARIANCE> 25
 5.181421e+01 1.837957e+01 1.994597e+01 4.566021e+01 2.049915e+01 2.806575e+01 6.280441e+01 3.389453e+01 3.684247e+01 4.189994e+01 3.912164e+01 3.639807e+01 3.077469e+00 3.048011e+00 2.873572e+00 2.479110e+00 2.306376e+00 2.958024e+00 4.603872e+00 4.691682e+00 3.858068e+00 2.620104e+00 5.706226e+00 1.831820e+00 2.915863e+00
<GCONST> 1.031668e+02
<STATE> 4
<MEAN> 25
 3.015158e+00 -3.040504e+00 2.042834e+00 -2.425038e+00 -4.608359e+00 2.128600e+00 -1.267195e+00 3.674698e+00 1.236589e+00 1.788895e+00 -1.822124e+00 -7.423974e-01 -6.755386e-01 8.470097e-01 1.890406e+00 2.104108e+00 4.774252e-01 -6.565006e-01 5.456515e-01 -2.297881e+00 -1.596509e+00 -3.404905e-01 3.608775e-01 1.856925e+00 -1.280012e+00
<VARIANCE> 25
 5.091497e+01 2.793138e+01 2.584618e+01 3.963049e+01 7.568683e+01 3.833401e+01 6.443525e+01 4.987032e+01 3.431857e+01 1.416330e+01 2.783460e+01 2.369151e+01 3.945664e-01 1.341616e+00 3.816685e+00 2.961204e+00 6.444247e+00 2.448098e+00 2.806930e+00 8.398223e+00 1.075222e+00 3.631223e+00 1.901332e+00 2.577742e+00 1.784875e+00
<GCONST> 1.001028e+02
<TRANSP> 5
 0.000000e+00 1.000000e+00 0.000000e+00 0.000000e+00 0.000000e+00
 0.000000e+00 8.512450e-01 1.487549e-01 0.000000e+00 0.000000e+00
 0.000000e+00 0.000000e+00 6.374336e-01 3.625664e-01 0.000000e+00
 0.000000e+00 0.000000e+00 0.000000e+00 4.270709e-01 5.729291e-01
 0.000000e+00 0.000000e+00 0.000000e+00 0.000000e+00 0.000000e+00
<ENDHMM>
~h "ae"
<BEGINHMM>
<NUMSTATES> 5
<STATE> 2
<MEAN> 25
 1.609075e+00 -7.534998e+00 -1.189328e+00 -5.752747e-01 -3.104970e+00 -4.229408e+00 3.354719e+00 6.656989e+00 -1.800362e+00 -3.176302e+00 -4.431573e+00 -3.679293e+00 2.209661e+00 -2.259314e+00 -1.747063e-01 -1.410447e+00 -9.091269e-01 -9.491932e-01 -1.103080e-01 1.862187e+00 -1.928582e+00 -1.649079e+00 -2.916555e+00 -2.705082e+00 4.201488e+00
<VARIANCE> 25
 2.201344e+01 2.520168e+01 2.117002e+01 1.937358e+01 3.721414e+01 3.047859e+01 2.847271e+01 2.147868e+01 3.420419e+01 1.824794e+01 4.498249e+01 3.233849e+01 1.152101e+00 2.027490e+00 2.147183e+00 1.419301e+00 4.691098e+00 3.428490e+00 2.154727e+00 1.087246e+00 2.955453e+00 2.215935e+00 2.633108e+00 3.021092e+00 4.182617e+00
<GCONST> 9.642650e+01
<STATE> 3
<MEAN> 25
 7.571041e+00 -1.081496e+01 -2.825549e+00 -2.922090e+00 -2.974976e+00 -2.086049e+00 2.891115e+00 6.073403e+00 -2.637432e+00 -8.154969e+00 -8.905357e+00 -9.927026e+00 4.100650e-01 1.310762e-04 -5.089058e-01 1.851871e-01 2.999145e-01 9.511235e-02 -2.991025e-01 -2.971288e-01 4.374374e-01 -8.930163e-02 -1.237665e-01 -1.224991e-01 3.774316e-02
<VARIANCE> 25
 6.450940e+00 2.207963e+01 3.206292e+01 1.445416e+01 2.415341e+01 2.055273e+01 2.090568e+01 2.537696e+01 2.430276e+01 1.487998e+01 2.443201e+01 3.318034e+01 3.661196e-01 1.059544e+00 7.708676e-01 1.184362e+00 1.758000e+00 1.692636e+00 1.150219e+00 1.647136e+00 1.157039e+00 1.521359e+00 1.451263e+00 1.635462e+00 1.062963e+00
<GCONST> 8.429659e+01
<STATE> 4
<MEAN> 25
 8.795547e+00 -5.744968e+00 -4.117674e+00 2.271581e-02 -1.603219e+00 -4.367594e+00 -9.508457e-01 3.079528e+00 -3.511231e-01 -3.315830e+00 -6.756432e+00 -7.652531e+00 -9.103446e-01 2.041049e+00 7.917615e-01 1.004560e+00 5.790726e-01 5.831547e-01 2.633314e-01 -1.766775e+00 -1.908660e-01 1.364599e+00 1.005645e+00 8.815303e-01 -2.530817e+00
<VARIANCE> 25
 1.834065e+01 2.975696e+01 3.966933e+01 3.132990e+01 3.620171e+01 6.374009e+01 4.481799e+01 4.498671e+01 4.729528e+01 2.994625e+01 2.283826e+01 4.252388e+01 3.136382e+00 1.535355e+00 2.198655e+00 4.360347e+00 3.433147e+00 4.371207e+00 2.160597e+00 5.194022e+00 4.877145e+00 3.366416e+00 2.059462e+00 4.374932e+00 2.567715e+00
<GCONST> 1.037599e+02
<TRANSP> 5
 0.000000e+00 1.000000e+00 0.000000e+00 0.000000e+00 0.000000e+00
 0.000000e+00 6.707817e-01 3.292184e-01 0.000000e+00 0.000000e+00
 0.000000e+00 0.000000e+00 8.811058e-01 1.188942e-01 0.000000e+00
 0.000000e+00 0.000000e+00 0.000000e+00 7.392628e-01 2.607372e-01
 0.000000e+00 0.000000e+00 0.000000e+00 0.000000e+00 0.000000e+00
<ENDHMM>
~h "ah"
<BEGINHMM>
<NUMSTATES> 5
<STATE> 2
<MEAN> 25
 2.570285e+00 -2.407835e+00 3.523455e-01 -6.600633e-01 -1.746244e+00 -2.573632e+00 -1.233032e+00 8.614531e-01 -7.983394e-01 -2.281538e+00 -2.791624e+00 -4.689515e+00 1.283743e+00 -3.825329e-01 4.964183e-02 -8.092315e-01 -4.968705e-01 -6.651359e-01 -5.909904e-01 1.446898e-01 -3.912303e-01 -8.938395e-02 -6.270025e-01 -8.167829e-01 1.129301e+00
<VARIANCE> 25
 5.740673e+01 3.658741e+01 6.072612e+01 5.170827e+01 2.970462e+01 5.355678e+01 4.551654e+01 4.807077e+01 5.456907e+01 3.054638e+01 3.187280e+01 5.237317e+01 4.640666e+00 3.135183e+00 3.408465e+00 4.224805e+00 2.998489e+00 4.888710e+00 3.222240e+00 3.043730e+00 3.868051e+00 2.172899e+00 2.870760e+00 4.966813e+00 4.853699e+00
<GCONST> 1.082293e+02
<STATE> 3
<MEAN> 25
 7.478714e+00 -2.124081e+00 1.960948e-03 -2.559927e+00 -2.199152e+00 -3.769755e+00 -4.357270e+00 -2.236344e-01 -2.141202e+00 -1.729332e+00 -3.790390e+00 -5.321886e+00 2.162061e-01 1.054736e+00 2.483406e-01 1.907514e-01 4.821101e-01 6.531585e-01 3.068134e-01 -1.127081e+00 -1.134994e+00 3.938520e-01 3.871116e-01 4.563448e-01 -1.003155e+00
<VARIANCE> 25
 2.831114e+01 3.952073e+01 4.790210e+01 5.005861e+01 2.463080e+01 5.549168e+01 3.625208e+01 4.964038e+01 4.305580e+01 4.011704e+01 3.045878e+01 3.693419e+01 4.428564e+00 2.378579e+00 3.750705e+00 6.531652e+00 3.737309e+00 4.237112e+00 3.217577e+00 5.152203e+00 4.435280e+00 3.677922e+00 3.194675e+00 3.937312e+00 4.042994e+00
<GCONST> 1.077891e+02
<STATE> 4
<MEAN> 25
 5.995124e+00 1.148708e+00 1.146585e+00 -4.333192e-01 -8.767016e-01 -2.046518e+00 -3.290879e+00 -3.212283e+00 -4.880305e+00 -6.267370e-02 -2.919419e+00 -3.951972e+00 9.589963e-02 5.075872e-01 1.441431e-01 -3.954673e-02 3.072634e-02 4.122784e-01 5.583054e-01 -8.559841e-01 -9.959166e-01 5.480384e-01 2.059467e-01 2.188972e-01 -5.540802e-01
<VARIANCE> 25
 4.345380e+01 2.774178e+01 5.207229e+01 6.419830e+01 2.981431e+01 4.139749e+01 4.798293e+01 6.244797e+01 5.303421e+01 3.677882e+01 2.856407e+01 3.423431e+01 3.629833e+00 3.239667e+00 2.740472e+00 5.035585e+00 3.583262e+00 3.856677e+00 3.456841e+00 8.709965e+00 5.283632e+00 4.278594e+00 2.695994e+00 2.656600e+00 2.767321e+00
<GCONST> 1.079660e+02
<TRANSP> 5
 0.000000e+00 1.000000e+00 0.000000e+00 0.000000e+00 0.000000e+00
 0.000000e+00 6.531233e-01 3.468767e-01 0.000000e+00 0.000000e+00
 0.000000e+00 0.000000e+00 3.911942e-01 6.088058e-01 0.000000e+00
 0.000000e+00 0.000000e+00 0.000000e+00 3.978671e-01 6.021329e-01
 0.000000e+00 0.000000e+00 0.000000e+00 0.000000e+00 0.000000e+00
<ENDHMM>
~h "ao"
<BEGINHMM>
<NUMSTATES> 5
<STATE> 2
<MEAN> 25
 7.082761e+00 3.133255e+00 -5.467867e+00 -1.339543e+01 -2.721080e+00 8.356923e+00 2.507323e+00 -1.402589e+00 1.083225e+00 -3.836005e+00 6.940361e-01 -1.766170e+00 2.860724e+00 3.220250e-01 -4.172264e-01 -4.390031e+00 -3.531006e+00 3.001512e-01 -4.747647e-01 4.771881e-03 -7.139857e-01 -9.758419e-01 -2.032612e-02 -1.520223e+00 1.488097e+00
<VARIANCE> 25
 3.137514e+01 2.482204e+01 1.857232e+01 7.548569e+01 6.132658e+01 5.017109e+01 1.421078e+01 2.171484e+01 2.147085e+01 1.389295e+01 8.430212e+00 2.281860e+01 3.296967e+00 1.258444e+00 1.148014e+00 3.946792e+00 3.701872e+00 6.085643e+00 1.349252e+00 1.154004e+00 3.157482e+00 1.746491e+00 1.048313e+00 1.147815e+00 2.656534e+00
<GCONST> 9.393222e+01
<STATE> 3
<MEAN> 25
 1.175411e+01 2.097294e+00 -7.167628e+00 -2.526430e+01 -7.825524e+00 1.056801e+01 3.035511e+00 1.183977e+00 9.030266e-01 -7.242719e+00 -5.052947e-01 -4.244552e+00 2.033786e-02 3.654675e-01 7.335225e-02 -9.918799e-02 -3.471255e-01 -5.828611e-01 9.393594e-02 4.515974e-01 2.244219e-02 3.960627e-02 -2.205184e-01 2.104940e-01 -2.047081e-01
<VARIANCE> 25
 4.558488e+00 2.097562e+01 1.031328e+01 1.177678e+01 2.209006e+01 2.415246e+01 1.207816e+01 1.732793e+01 1.904279e+01 1.644044e+01 9.514851e+00 7.344359e+00 1.332589e-01 3.014576e-01 3.982112e-01 7.800665e-01 7.804078e-01 6.973767e-01 5.196522e-01 6.196128e-01 7.443761e-01 7.510355e-01 7.290606e-01 5.456566e-01 1.618017e-01
<GCONST> 6.747326e+01
<STATE> 4
<MEAN> 25
 9.280777e+00 8.167774e+00 -5.306353e+00 -1.422915e+01 -1.257465e+01 -2.241798e+00 1.484445e+00 3.428635e+00 9.380195e-02 -1.959801e+00 -1.281212e+00 -1.096517e-01 6.584060e-02 -1.529687e-01 -2.868881e-01 4.092335e-01 7.377302e-01 3.812993e-02 4.105070e-02 -3.303568e-01 -6.143135e-01 1.579076e-01 3.777888e-01 4.896131e-01 -1.030450e-02
<VARIANCE> 25
 6.319495e+00 1.130102e+01 1.214083e+01 3.143969e+01 2.529785e+01 2.560531e+01 1.569135e+01 1.429502e+01 2.625594e+01 1.751320e+01 1.562424e+01 1.615862e+01 1.499173e-01 5.943456e-01 6.087978e-01 8.510442e-01 1.213804e+00 1.675671e+00 1.006549e+00 1.015783e+00 1.064257e+00 1.017825e+00 1.442408e+00 9.466136e-01 1.102681e-01
<GCONST> 7.555196e+01
<TRANSP> 5
 0.000000e+00 1.000000e+00 0.000000e+00 0.000000e+00 0.000000e+00
 0.000000e+00 6.903484e-01 3.096517e-01 0.000000e+00 0.000000e+00
 0.000000e+00 0.000000e+00 9.043890e-01 9.561106e-02 0.000000e+00
 0.000000e+00 0.000000e+00 0.000000e+00 8.960444e-01 1.039556e-01
 0.000000e+00 0.000000e+00 0.000000e+00 0.000000e+00 0.000000e+00
<ENDHMM>
~h "aw"
<BEGINHMM>
<NUMSTATES> 5
<STATE> 2
<MEAN> 25
 4.123306e+00 3.972714e+00 4.123313e-01 6.286296e-01 1.955782e+00 -2.641299e+00 -4.626623e+00 -8.906556e+00 -7.730158e+00 -2.721380e+00 2.930025e-01 -3.988056e+00 -1.293749e+00 -2.774909e-01 4.498652e-01 1.859753e-01 3.992579e-01 3.115458e-01 1.104746e+00 4.833799e-01 1.071939e+00 5.114370e-02 -1.191157e-01 1.487233e+00 -1.069872e+00
<VARIANCE> 25
 2.708138e+01 5.201644e+00 4.000981e+01 2.957033e+01 1.230265e+01 2.048886e+01 5.666395e+01 1.326524e+01 3.021136e+01 2.336246e+01 2.228084e+01 3.586123e+01 1.334556e+00 1.170993e+00 2.977714e+00 6.530739e+00 1.522938e+00 3.152684e+00 3.495059e+00 3.358450e+00 5.637373e+00 4.909743e+00 3.249805e+00 5.904657e-01 1.770877e+00
<GCONST> 9.535508e+01
<STATE> 3
<MEAN> 25
 -6.481107e+00 -2.674472e+00 4.480506e+00 -3.774638e+00 -1.369267e+00 -3.137754e+00 2.183804e+00 3.788661e+00 -2.211379e+00 -2.857930e-01 3.930454e-01 2.554933e+00 2.487358e-01 -4.996446e-01 -3.568016e-02 -4.963796e-02 8.222252e-03 -4.569055e-01 2.954930e-01 9.501939e-01 2.645856e-01 1.369254e-01 -2.159538e-01 -4.233319e-02 3.317414e-01
<VARIANCE> 25
 5.190779e+01 1.538916e+01 9.771255e+00 4.040359e+01 2.525021e+01 1.478167e+01 3.580434e+01 4.730633e+01 1.913214e+01 2.215306e+01 4.186183e+01 2.059096e+01 5.532742e+00 2.139971e+00 1.487118e+00 8.981958e+00 3.737172e+00 2.317771e+00 2.648763e+00 5.747927e+00 3.317914e+00 5.028308e+00 6.207379e+00 2.951341e+00 7.505307e+00
<GCONST> 1.024574e+02
<STATE> 4
<MEAN> 25
 -4.527115e+00 3.792064e-03 -7.649073e-01 3.674481e-01 2.255733e+00 8.553925e-01 3.874284e+00 2.826274e+00 4.760137e+00 2.158048e+00 5.223242e+00 5.518172e+00 4.828797e-02 -4.695219e-02 -9.761943e-02 3.880667e-02 -2.332437e-01 2.839548e-01 6.634691e-02 -2.042834e-01 2.353896e-01 -1.868774e-01 2.091244e-01 1.348338e-01 -5.775417e-02
<VARIANCE> 25
 1.066145e+01 2.993520e+00 4.710596e+00 7.255929e+00 1.379133e+01 1.032960e+01 1.157330e+01 1.963138e+01 2.345352e+01 1.196153e+01 1.418875e+01 2.050953e+01 2.319906e-01 4.475408e-01 6.170183e-01 6.519990e-01 1.188708e+00 1.319548e+00 1.083224e+00 1.395947e+00 8.296809e-01 9.558196e-01 1.185681e+00 1.151747e+00 7.868730e-02
<GCONST> 6.986207e+01
<TRANSP> 5
 0.000000e+00 1.000000e+00 0.000000e+00 0.000000e+00 0.000000e+00
 0.000000e+00 8.397428e-01 1.602573e-01 0.000000e+00 0.000000e+00
 0.000000e+00 0.000000e+00 8.296946e-01 1.703055e-01 0.000000e+00
 0.000000e+00 0.000000e+00 0.000000e+00 8.946468e-01 1.053533e-01
 0.000000e+00 0.000000e+00 0.000000e+00 0.000000e+00 0.000000e+00
<ENDHMM>
~h "ay"
<BEGINHMM>
<NUMSTATES> 5
<STATE> 2
<MEAN> 25
 7.200146e+00 -4.053066e-01 6.762217e+00 3.351650e+00 -5.799205e+00 -5.675919e+00 -5.226575e+00 -1.836699e+00 -7.227666e+00 -3.112595e+00 -2.476260e+00 -2.932164e+00 9.041189e-01 -3.214893e-01 2.782296e-01 1.250393e-01 -8.912220e-01 -2.643823e-01 -6.369692e-01 1.269497e+00 -1.873700e-01 -5.082306e-01 -9.485113e-01 -6.381038e-01 1.031540e+00
<VARIANCE> 25
 2.294484e+01 4.006160e+01 5.367636e+01 3.629818e+01 6.192483e+01 3.221488e+01 2.306492e+01 5.869737e+01 6.637764e+01 2.793724e+01 2.290880e+01 3.011588e+01 2.392042e+00 3.170331e+00 5.615687e+00 2.265917e+00 1.713793e+00 4.833785e+00 2.688525e+00 8.656756e+00 8.862995e+00 3.427040e+00 1.496645e+00 1.606611e+00 1.698166e+00
<GCONST> 1.038678e+02
<STATE> 3
<MEAN> 25
 8.776155e+00 -5.565053e+00 -1.124497e+00 -2.370612e+00 -7.849866e+00 -2.485923e+00 -4.065877e+00 6.629609e+00 1.467344e+00 -3.551713e+00 -7.627456e+00 -1.041883e+01 1.010185e-01 4.806231e-02 -5.244569e-01 -2.520069e-01 8.327199e-01 9.155493e-01 1.961112e-01 -3.091030e-01 1.786980e-01 8.887976e-02 -3.144748e-01 -9.039451e-01 -7.249625e-01
<VARIANCE> 25
 8.816127e+00 2.541487e+01 5.997959e+01 1.846707e+01 3.582206e+01 3.103028e+01 4.028000e+01 3.314536e+01 5.641446e+01 2.321956e+01 3.395897e+01 5.731617e+01 1.450294e+00 2.716715e+00 4.526233e+00 1.901730e+00 3.353029e+00 3.475876e+00 2.758540e+00 4.623144e+00 4.064850e+00 1.471631e+00 3.532134e+00 4.186345e+00 2.001652e+00
<GCONST> 1.010323e+02
<STATE> 4
<MEAN> 25
 1.082698e+01 -4.582085e+00 -1.001722e+00 -2.580082e+00 -4.248522e+00 4.859104e-01 -3.995016e+00 3.549942e+00 -3.893180e+00 -5.944832e+00 -2.724401e+00 -1.011941e+01 -4.338719e-02 3.205229e-01 5.252895e-01 6.103123e-02 -1.787817e-01 -4.308450e-01 4.427610e-02 -2.394511e-01 -5.201411e-01 2.715784e-01 2.787146e-01 2.868813e-01 -3.096451e-01
<VARIANCE> 25
 5.374551e+00 2.203917e+01 8.939621e+01 1.573588e+01 8.726294e+01 5.238196e+01 3.340583e+01 3.835553e+01 7.079151e+01 2.728152e+01 2.644516e+01 2.464560e+01 3.120273e-01 8.292847e-01 1.677935e+00 1.863347e+00 2.417296e+00 2.145667e+00 1.874448e+00 2.139022e+00 1.771871e+00 1.377952e+00 1.495667e+00 2.160841e+00 2.624252e-01
<GCONST> 9.114993e+01
<TRANSP> 5
 0.000000e+00 1.000000e+00 0.000000e+00 0.000000e+00 0.000000e+00
 0.000000e+00 6.675355e-01 3.324645e-01 0.000000e+00 0.000000e+00
 0.000000e+00 0.000000e+00 7.402291e-01 2.597709e-01 0.000000e+00
 0.000000e+00 0.000000e+00 0.000000e+00 9.142746e-01 8.572548e-02
 0.000000e+00 0.000000e+00 0.000000e+00 0.000000e+00 0.000000e+00
<ENDHMM>
~h "ch"
<BEGINHMM>
<NUMSTATES> 5
<STATE> 2
<MEAN> 25
 -3.014752e+00 -2.379222e+00 -1.378709e+00 3.231719e+00 2.549731e+00 1.529082e+00 4.184149e+00 2.596020e+00 5.242010e+00 2.344379e+00 6.965041e-01 3.052758e+00 -2.871878e-01 -1.316760e-01 2.378802e-01 -4.399726e-01 4.179259e-02 2.285593e-01 -2.526532e-01 -3.630932e-01 2.376775e-01 6.328235e-02 2.539841e-01 -2.788411e-02 7.206714e-02
<VARIANCE> 25
 3.210955e+00 7.173036e+00 1.076552e+01 7.484396e+00 9.917089e+00 1.315093e+01 1.165639e+01 1.763913e+01 8.790840e+00 1.454692e+01 1.472275e+01 1.535858e+01 7.454722e-01 9.117955e-01 7.337225e-01 1.660752e+00 1.343918e+00 2.454177e+00 1.563501e+00 9.793157e-01 1.086347e+00 2.382456e+00 1.323142e+00 2.110654e+00 1.531884e+00
<GCONST> 7.777729e+01
<STATE> 3
<MEAN> 25
 -1.097985e+01 -2.851090e+00 2.994754e+00 -3.291406e+00 7.151909e-01 7.995069e+00 -5.279909e-01 -8.057156e-01 6.529248e+00 -1.457877e+00 3.660489e+00 4.443330e+00 -3.483677e+00 7.549663e-01 1.772347e+00 -1.396956e+00 -1.249881e+00 8.047785e-01 -3.675357e-02 -2.143171e+00 6.729257e-01 -8.708693e-01 5.457643e-01 -2.963151e-01 2.639593e+00
<VARIANCE> 25
 3.913018e+01 2.549899e+01 1.563971e+01 1.680413e+01 2.250459e+01 1.679934e+01 3.832476e+01 3.041157e+01 1.420977e+01 1.665712e+01 1.045903e+01 3.338345e+00 3.073734e+00 2.615875e+00 1.299628e+00 2.124447e+00 2.223145e+00 3.116742e+00 5.718077e+00 1.853583e+00 1.377360e+00 2.695667e+00 6.990862e-01 1.127530e+00 3.508191e+00
<GCONST> 9.016509e+01
<STATE> 4
<MEAN> 25
 -1.564547e+01 7.158534e-01 9.878346e+00 -2.494351e+00 -5.680909e+00 1.457322e-01 5.420012e+00 -8.267941e+00 4.209646e+00 -3.166393e+00 1.664531e+00 -2.119125e+00 1.857527e+00 4.260302e-02 1.004537e-01 6.391824e-01 -6.706607e-01 -2.058377e+00 -6.293612e-01 -1.539593e-01 -1.159507e+00 -4.324616e-01 -4.675214e-01 -4.527216e-01 4.613807e-01
<VARIANCE> 25
 6.289093e+01 1.290323e+01 1.402496e+01 2.253111e+01 2.110470e+01 4.064343e+01 3.434549e+01 2.120655e+01 2.244545e+01 9.888613e+00 1.998266e+01 1.192688e+01 8.804092e+00 1.532998e+00 2.247812e+00 2.820780e+00 2.463341e+00 3.055177e+00 6.947845e+00 3.197027e+00 1.617506e+00 1.780767e+00 1.522068e+00 1.599031e+00 2.293525e+00
<GCONST> 9.496870e+01
<TRANSP> 5
 0.000000e+00 1.000000e+00 0.000000e+00 0.000000e+00 0.000000e+00
 0.000000e+00 8.679416e-01 1.320585e-01 0.000000e+00 0.000000e+00
 0.000000e+00 0.000000e+00 7.244332e-01 2.755668e-01 0.000000e+00
 0.000000e+00 0.000000e+00 0.000000e+00 8.820314e-01 1.179686e-01
 0.000000e+00 0.000000e+00 0.000000e+00 0.000000e+00 0.000000e+00
<ENDHMM>
~h "dh"
<BEGINHMM>
<NUMSTATES> 5
<STATE> 2
<MEAN> 25
 6.813230e+00 -2.533630e+00 2.896379e+00 1.066280e+01 -4.153644e+00 -1.232935e+01 -9.707350e+00 -2.268440e+00 -6.199790e-01 -4.146687e+00 -2.215751e+00 8.666034e-01 -2.806584e-01 5.473732e-01 -3.585740e-01 4.321524e-01 1.064554e+00 4.194562e-01 4.495890e-02 2.780218e-01 6.074076e-01 -6.924568e-01 -5.298097e-01 4.867651e-01 -8.877779e-01
<VARIANCE> 25
 1.076892e+01 2.610275e+01 2.053476e+01 1.464424e+01 4.207845e+01 6.280272e+01 1.912858e+01 6.443781e+01 5.619804e+01 4.939364e+01 1.153549e+01 4.557574e+01 9.106867e-01 1.328259e+00 1.194369e+00 1.721138e+00 1.333352e+00 2.793334e+00 1.567496e+00 1.097449e+00 1.190349e+00 1.633905e+00 9.399861e-01 1.572609e+00 2.275501e-01
<GCONST> 8.882571e+01
<STATE> 3
<MEAN> 25
 -2.226638e+00 2.748669e+00 3.437748e+00 8.150429e+00 4.489530e+00 1.372579e+00 2.276380e+00 2.229392e-01 8.338547e-01 -3.817991e+00 -4.390423e+00 -9.823788e-01 -1.290895e+00 -7.338266e-01 -3.699771e-01 -7.072321e-01 3.088630e-02 1.082636e+00 1.723809e+00 7.886415e-01 4.850486e-01 1.305300e+00 1.301547e+00 3.988548e-01 -7.920358e-01
<VARIANCE> 25
 8.049335e+00 7.039859e+00 6.059627e+00 7.978014e+00 4.875179e+00 1.016915e+01 2.149708e+01 3.100983e+01 2.088764e+01 1.894903e+01 1.725066e+01 1.749798e+01 4.204346e-01 8.123475e-01 1.167189e+00 1.388631e+00 6.685271e-01 1.802283e+00 2.070818e+00 2.262311e+00 2.143982e+00 1.472302e+00 1.253044e+00 3.878368e+00 2.485804e-01
<GCONST> 7.843684e+01
<STATE> 4
<MEAN> 25
 -7.197990e+00 -1.673727e+00 -1.267570e+00 3.516554e+00 2.896824e+00 3.408316e+00 5.696349e+00 3.411117e+00 4.388753e+00 3.282648e+00 4.639061e+00 5.520763e+00 -7.338364e-02 -2.400473e-02 -1.078392e-01 -1.790241e-02 -2.608166e-02 7.351530e-02 8.230336e-03 -4.997941e-03 4.177452e-02 7.697283e-02 1.306613e-01 -5.373700e-03 -6.157301e-03
<VARIANCE> 25
 8.785607e-01 1.609111e+00 4.359235e+00 4.084146e+00 6.191294e+00 8.047026e+00 7.161244e+00 6.908381e+00 9.342566e+00 1.144099e+01 8.383096e+00 8.140456e+00 9.392004e-02 1.720013e-01 5.191422e-01 5.764799e-01 7.023880e-01 6.163010e-01 9.371552e-01 8.466800e-01 7.997661e-01 1.204964e+00 8.612807e-01 1.040380e+00 3.773770e-02
<GCONST> 5.605285e+01
<TRANSP> 5
 0.000000e+00 1.000000e+00 0.000000e+00 0.000000e+00 0.000000e+00
 0.000000e+00 8.876113e-01 1.123886e-01 0.000000e+00 0.000000e+00
 0.000000e+00 0.000000e+00 8.360364e-01 1.639636e-01 0.000000e+00
 0.000000e+00 0.000000e+00 0.000000e+00 9.656553e-01 3.434475e-02
 0.000000e+00 0.000000e+00 0.000000e+00 0.000000e+00 0.000000e+00
<ENDHMM>
~h "eh"
<BEGINHMM>
<NUMSTATES> 5
<STATE> 2
<MEAN> 25
 5.127603e+00 -4.654064e+00 2.605616e+00 -2.161524e+00 -8.243445e+00 -5.602784e+00 2.286824e+00 6.280835e+00 -3.545576e+00 -1.178552e+00 -3.414104e+00 -5.109940e+00 9.261845e-01 -9.191731e-01 -1.289945e-01 -4.383578e-01 -5.580775e-01 -5.798995e-01 -4.792753e-01 6.349127e-01 -3.384030e-01 -2.150234e-01 -3.067663e-01 -1.104022e+00 1.160437e+00
<VARIANCE> 25
 2.336579e+01 1.836822e+01 3.156073e+01 1.747735e+01 3.772903e+01 3.886646e+01 6.016244e+01 1.997804e+01 2.442856e+01 2.128234e+01 1.785201e+01 2.991117e+01 1.835485e+00 2.616571e+00 2.492913e+00 1.569018e+00 3.551548e+00 2.860018e+00 4.160515e+00 3.065849e+00 3.081112e+00 2.293973e+00 1.952561e+00 3.622468e+00 1.834760e+00
<GCONST> 9.755389e+01
<STATE> 3
<MEAN> 25
 7.661300e+00 -4.916118e+00 2.140745e+00 -4.403155e+00 -7.072848e+00 -6.111456e+00 -4.313072e+00 3.942539e+00 -3.885066e+00 -2.053855e+00 -4.383115e+00 -9.123509e+00 3.762893e-02 4.910852e-01 -1.447364e-01 5.113925e-01 8.499871e-01 2.746966e-01 -2.435395e-01 -6.356125e-01 -1.208572e-01 -2.847192e-02 -2.460969e-01 2.692678e-01 -9.264359e-01
<VARIANCE> 25
 1.158659e+01 2.277116e+01 3.983054e+01 1.566853e+01 3.183605e+01 3.218864e+01 3.654342e+01 4.009215e+01 5.344592e+01 3.529845e+01 2.871031e+01 2.976809e+01 6.309617e-01 1.339544e+00 1.737821e+00 1.911637e+00 2.212327e+00 1.746263e+00 1.644733e+00 2.322615e+00 2.079208e+00 1.849262e+00 2.125865e+00 2.144201e+00 2.122445e+00
<GCONST> 9.381416e+01
<STATE> 4
<MEAN> 25
 5.637640e+00 8.172179e-01 9.567307e-01 2.244765e+00 -1.486488e+00 -4.015728e+00 -3.832375e+00 -1.007436e+00 -3.894871e+00 -2.312571e+00 -5.230526e+00 -6.404963e+00 -5.032945e-01 1.007252e+00 6.109388e-01 6.898458e-01 8.724848e-01 1.198609e+00 2.041461e-02 -1.811424e+00 -3.835278e-01 5.143957e-02 -3.229644e-01 2.959009e-01 -1.131729e+00
<VARIANCE> 25
 2.447179e+01 2.326136e+01 4.907491e+01 3.536110e+01 3.318426e+01 4.840185e+01 2.966928e+01 2.620816e+01 2.077043e+01 2.919990e+01 3.367540e+01 3.057872e+01 4.539910e+00 2.991772e+00 2.615884e+00 7.771466e+00 3.888639e+00 4.028415e+00 3.995390e+00 5.391701e+00 4.768225e+00 5.128167e+00 2.937755e+00 2.411896e+00 4.847430e+00
<GCONST> 1.053083e+02
<TRANSP> 5
 0.000000e+00 1.000000e+00 0.000000e+00 0.000000e+00 0.000000e+00
 0.000000e+00 8.002639e-01 1.997361e-01 0.000000e+00 0.000000e+00
 0.000000e+00 0.000000e+00 8.274313e-01 1.725688e-01 0.000000e+00
 0.000000e+00 0.000000e+00 0.000000e+00 5.798246e-01 4.201754e-01
 0.000000e+00 0.000000e+00 0.000000e+00 0.000000e+00 0.000000e+00
<ENDHMM>
~h "er"
<BEGINHMM>
<NUMSTATES> 5
<STATE> 2
<MEAN> 25
 1.272908e+01 -2.707458e+00 -7.228765e+00 2.791636e+00 2.974845e+00 -1.434070e+01 -1.569526e+01 4.055877e-01 2.596919e+00 -8.618303e+00 -2.561791e+00 3.746279e+00 4.795700e-01 -3.061610e-01 -3.709049e-01 1.240859e-01 1.412102e-01 -5.129153e-01 -8.626398e-01 5.554591e-01 5.013107e-01 -1.307562e-01 -3.109975e-01 1.328438e-01 -3.794418e-02
<VARIANCE> 25
 2.513659e+01 1.175178e+01 3.433516e+01 2.669679e+01 3.438028e+01 5.726605e+01 6.786535e+01 3.517850e+01 3.737852e+01 1.922500e+01 2.816259e+01 1.476484e+01 1.401403e+00 7.664729e-01 2.357496e+00 1.204305e+00 2.823577e+00 2.639070e+00 4.233799e+00 2.210711e+00 2.082656e+00 1.446133e+00 1.334256e+00 1.185632e+00 4.814657e-01
<GCONST> 9.261680e+01
<STATE> 3
<MEAN> 25
 4.980830e+00 -1.470709e+00 -1.241267e+00 4.152995e+00 -4.969857e-01 -1.199927e+01 -6.839515e+00 1.627953e+00 2.240404e+00 -5.603816e+00 -2.552752e+00 1.574405e+00 -1.651752e+00 1.738141e-01 7.208539e-01 -2.575103e-01 -2.416335e-01 1.748057e+00 2.242457e+00 -2.735153e-01 -3.407711e-01 1.086828e+00 4.048861e-01 -5.778136e-01 -5.589060e-01
<VARIANCE> 25
 5.454204e+01 2.592978e+01 3.120991e+01 1.682694e+01 3.380189e+01 6.433076e+01 9.061290e+01 3.832806e+01 2.124790e+01 3.637725e+01 3.658965e+01 4.702529e+01 3.055273e+00 1.489196e+00 2.123581e+00 1.866425e+00 3.885711e+00 4.331007e+00 4.976618e+00 3.514301e+00 2.539671e+00 2.604756e+00 2.685516e+00 2.199736e+00 1.394275e+00
<GCONST> 1.019779e+02
<STATE> 4
<MEAN> 25
 -6.017624e-01 -1.245407e+00 -1.699311e+00 2.372657e+00 3.239142e+00 1.132876e+00 2.388851e+00 1.422951e+00 1.452916e+00 3.182564e+00 -6.398213e-02 -9.368654e-01 -1.538641e-01 3.370837e-01 3.929758e-01 -3.307846e-01 7.396846e-02 2.049510e-01 9.312566e-02 -6.238159e-01 -4.457946e-01 4.065774e-01 5.233138e-02 -4.549028e-01 1.732093e-01
<VARIANCE> 25
 2.791463e+01 1.904456e+01 4.860801e+01 1.942590e+01 2.365270e+01 4.722232e+01 3.021963e+01 2.490258e+01 5.758909e+01 2.043524e+01 3.072601e+01 3.807446e+01 2.042054e+00 7.553114e-01 8.019054e-01 1.172369e+00 1.136534e+00 2.628792e+00 2.988827e+00 1.529002e+00 1.430816e+00 2.417529e+00 2.769096e+00 1.902015e+00 6.976954e-01
<GCONST> 9.237836e+01
<TRANSP> 5
 0.000000e+00 1.000000e+00 0.000000e+00 0.000000e+00 0.000000e+00
 0.000000e+00 9.021888e-01 9.781119e-02 0.000000e+00 0.000000e+00
 0.000000e+00 0.000000e+00 8.290579e-01 1.709421e-01 0.000000e+00
 0.000000e+00 0.000000e+00 0.000000e+00 8.032688e-01 1.967313e-01
 0.000000e+00 0.000000e+00 0.000000e+00 0.000000e+00 0.000000e+00
<ENDHMM>
~h "ey"
<BEGINHMM>
<NUMSTATES> 5
<STATE> 2
<MEAN> 25
 1.451311e+00 8.696263e-01 1.017330e+01 -5.053189e+00 -9.770597e+00 -3.023931e+00 -3.813366e+00 -3.091062e-01 -6.077611e+00 2.339342e+00 -7.802916e-01 -2.894951e+00 4.695745e-01 3.315603e-01 1.797464e+00 -1.031464e+00 -1.521000e+00 4.636469e-01 -1.316504e+00 -6.434941e-01 -1.471744e+00 1.935316e-01 -4.349133e-01 -9.605073e-01 1.457755e+00
<VARIANCE> 25
 1.886360e+01 2.828033e+01 4.059645e+01 2.256273e+01 1.026805e+02 2.954599e+01 9.061069e+01 3.894884e+01 5.999154e+01 1.950752e+01 2.456416e+01 1.806482e+01 1.630025e+00 2.122178e+00 4.002907e+00 2.411521e+00 6.836635e+00 3.263987e+00 5.658952e+00 3.622602e+00 6.165452e+00 2.001065e+00 2.929094e+00 2.492151e+00 5.334208e+00
<GCONST> 1.042016e+02
<STATE> 3
<MEAN> 25
 3.037037e+00 1.623875e+00 1.678391e+01 -8.947506e+00 -1.491330e+01 4.253364e+00 -8.794829e+00 -4.747993e+00 -1.203574e+01 2.871714e+00 -3.006007e+00 -6.276419e+00 -5.870441e-02 3.177063e-01 3.411746e-01 5.301382e-02 2.817281e-01 2.778785e-01 -1.647318e-01 -5.751415e-01 -2.199932e-02 -3.534113e-01 -2.511702e-02 -3.841691e-01 -4.017982e-01
<VARIANCE> 25
 3.093623e+00 8.220876e+00 1.686487e+01 1.153116e+01 1.185027e+01 3.865511e+01 2.317639e+01 2.297345e+01 1.159618e+01 1.234402e+01 1.655986e+01 2.083605e+01 1.224223e-01 3.358715e-01 4.134710e-01 5.233948e-01 5.800111e-01 7.811508e-01 7.015506e-01 7.124829e-01 8.685917e-01 9.248018e-01 6.001920e-01 4.135139e-01 3.777115e-01
<GCONST> 6.887194e+01
<STATE> 4
<MEAN> 25
 2.111540e+00 3.269538e+00 1.380901e+01 -4.237125e-01 -7.789591e+00 -1.197619e+00 -4.946000e+00 -6.298114e+00 -9.931562e+00 -3.862889e+00 -1.822102e+00 -7.705009e+00 -7.528893e-01 -7.325730e-02 -2.467583e+00 2.267762e+00 2.657058e+00 -7.577204e-01 1.473129e+00 4.660204e-01 1.972385e+00 -6.871052e-01 -1.123063e-01 1.346885e+00 -1.938517e+00
<VARIANCE> 25
 1.817755e+01 2.067256e+01 4.436740e+01 4.174176e+01 7.296886e+01 3.807329e+01 3.839798e+01 2.548932e+01 3.712472e+01 1.884629e+01 3.299463e+01 2.168466e+01 3.991908e+00 2.562705e+00 2.048694e+00 3.288108e+00 3.320375e+00 3.940144e+00 3.652811e+00 3.217237e+00 3.753070e+00 2.752854e+00 3.229587e+00 1.471368e+00 1.468354e+00
<GCONST> 1.008853e+02
<TRANSP> 5
 0.000000e+00 1.000000e+00 0.000000e+00 0.000000e+00 0.000000e+00
 0.000000e+00 7.991803e-01 2.008198e-01 0.000000e+00 0.000000e+00
 0.000000e+00 0.000000e+00 9.015004e-01 9.849960e-02 0.000000e+00
 0.000000e+00 0.000000e+00 0.000000e+00 7.583581e-01 2.416419e-01
 0.000000e+00 0.000000e+00 0.000000e+00 0.000000e+00 0.000000e+00
<ENDHMM>
~h "hh"
<BEGINHMM>
<NUMSTATES> 5
<STATE> 2
<MEAN> 25
 -3.553610e+00 -2.520584e+00 -1.272144e+00 3.078153e+00 3.171284e+00 3.547221e+00 1.725092e+00 -1.931437e+00 3.952412e+00 2.159528e+00 3.517565e+00 3.573610e+00 -1.757597e-01 -2.922128e-01 -7.946684e-02 1.162301e-01 -4.481909e-01 1.056212e+00 9.474246e-01 -5.376453e-01 -5.655911e-01 -6.884528e-01 1.421989e-01 -4.452309e-02 3.687382e-01
<VARIANCE> 25
 3.024183e+01 1.770374e+01 4.589161e+01 1.214294e+01 3.686973e+01 2.324885e+01 1.504089e+01 4.081564e+01 3.148887e+01 2.677404e+01 6.159641e+00 2.592278e+01 1.364834e-01 3.918368e-01 1.028349e+00 5.561494e-01 1.033209e+00 9.517487e-01 2.890672e+00 2.255117e+00 1.934866e+00 1.495140e+00 1.751914e+00 1.463831e+00 7.481069e-01
<GCONST> 8.362114e+01
<STATE> 3
<MEAN> 25
 -4.398281e+00 -2.895567e+00 -2.098492e+00 3.319722e+00 2.540760e+00 3.129213e+00 4.016730e+00 1.683778e+00 2.936031e+00 2.563275e-01 2.610155e+00 4.246744e+00 8.182633e-02 -9.761538e-02 1.274067e-01 -3.781672e-01 -1.875635e-01 1.179538e-01 8.731362e-01 7.911326e-02 -1.779215e-01 1.886967e-01 -3.063296e-02 -4.678852e-01 -2.081213e-01
<VARIANCE> 25
 1.502705e+01 2.335402e+01 3.487965e+01 8.064374e+00 3.654113e+01 3.256554e+01 9.382809e+00 2.930127e+01 1.650456e+01 1.534458e+01 3.011626e+01 2.664211e+01 1.582836e-01 7.256159e-01 1.073871e+00 9.225956e-01 1.333110e+00 1.966755e+00 1.298017e+00 8.976255e-01 1.452225e+00 2.369963e+00 6.720753e-01 7.745144e-01 2.243402e-01
<GCONST> 8.039888e+01
<STATE> 4
<MEAN> 25
 -4.910367e+00 -3.900060e-01 -2.165253e-01 2.997511e+00 2.149984e+00 2.387113e+00 3.398468e+00 1.233226e+00 4.302400e+00 1.791478e+00 2.869779e+00 4.145246e+00 7.421171e-02 2.079244e-02 -5.938326e-02 -5.402616e-02 -5.808841e-02 -3.918600e-02 6.742550e-02 1.621333e-02 -7.671205e-02 -4.331921e-02 -9.075164e-02 -6.774954e-02 3.377909e-02
<VARIANCE> 25
 5.607589e+00 2.887556e+00 5.304136e+00 5.969924e+00 7.691086e+00 9.795203e+00 1.203281e+01 1.563433e+01 1.001765e+01 1.229825e+01 1.258389e+01 1.284993e+01 4.624917e-01 3.888003e-01 5.979090e-01 6.256244e-01 7.992383e-01 1.195978e+00 1.314213e+00 1.564978e+00 1.248685e+00 1.527064e+00 1.555085e+00 1.264514e+00 2.930066e-01
<GCONST> 6.971624e+01
<TRANSP> 5
 0.000000e+00 1.000000e+00 0.000000e+00 0.000000e+00 0.000000e+00
 0.000000e+00 1.931367e-01 8.068632e-01 0.000000e+00 0.000000e+00
 0.000000e+00 0.000000e+00 2.004496e-01 7.995504e-01 0.000000e+00
 0.000000e+00 0.000000e+00 0.000000e+00 9.541763e-01 4.582371e-02
 0.000000e+00 0.000000e+00 0.000000e+00 0.000000e+00 0.000000e+00
<ENDHMM>
~h "ih"
<BEGINHMM>
<NUMSTATES> 5
<STATE> 2
<MEAN> 25
 4.755777e+00 2.224393e-01 4.961923e+00 3.961988e-01 -7.934916e+00 -4.081413e+00 -1.158718e+00 -1.870661e+00 -9.190676e+00 -2.294558e+00 -1.544842e+00 -6.079127e+00 -6.731119e-01 2.086568e-01 -2.391702e-01 7.294669e-01 9.421735e-01 7.534787e-01 5.801484e-01 -4.403545e-01 7.782713e-01 1.338713e-01 7.665115e-02 2.044059e-01 -1.463442e+00
<VARIANCE> 25
 2.739165e+01 2.876627e+01 3.946878e+01 4.706577e+01 6.220834e+01 8.734593e+01 4.657825e+01 6.625481e+01 7.143845e+01 2.898160e+01 3.466205e+01 3.612239e+01 2.114592e+00 2.308293e+00 3.779850e+00 3.375658e+00 4.631627e+00 5.784230e+00 2.941177e+00 4.918830e+00 7.475503e+00 2.669565e+00 2.110373e+00 2.346093e+00 4.234010e+00
<GCONST> 1.076744e+02
<STATE> 3
<MEAN> 25
 -5.558797e+00 -1.393049e+00 -2.899408e-01 3.437445e+00 1.624372e+00 1.000653e+00 3.169801e+00 2.528873e+00 3.735767e+00 1.803178e+00 1.750824e+00 1.473378e+00 -4.171680e-01 -6.586673e-01 -5.823713e-01 -5.034264e-01 2.761347e-01 4.856409e-01 2.803497e-01 5.578020e-01 1.012407e+00 7.350404e-01 5.322716e-01 7.809438e-01 -6.239988e-01
<VARIANCE> 25
 2.081938e+01 1.461798e+01 1.749918e+01 3.228205e+01 2.056120e+01 2.238790e+01 2.323718e+01 3.974064e+01 3.081558e+01 2.438901e+01 2.391049e+01 3.154124e+01 1.776048e+00 1.785360e+00 2.598018e+00 3.274079e+00 2.413128e+00 3.147545e+00 2.892116e+00 3.264037e+00 3.937904e+00 2.832246e+00 2.721269e+00 2.806196e+00 2.248444e+00
<GCONST> 9.703173e+01
<STATE> 4
<MEAN> 25
 -4.577135e+00 -1.605641e+00 -2.012048e+00 2.752107e+00 3.682213e+00 3.092184e+00 4.705150e+00 2.780924e+00 5.422293e+00 2.264599e+00 3.086972e+00 4.421238e+00 -1.002551e-02 -3.124169e-02 9.608356e-03 -1.491758e-02 7.653430e-02 1.134445e-01 1.152982e-02 -4.270112e-02 6.166182e-05 4.364123e-02 5.203257e-02 2.638053e-02 -4.344585e-02
<VARIANCE> 25
 5.994920e+00 4.024389e+00 6.604129e+00 6.569429e+00 7.277997e+00 1.051824e+01 1.147736e+01 1.349846e+01 1.423167e+01 1.183537e+01 1.245916e+01 1.060348e+01 2.065018e-01 3.455180e-01 5.016142e-01 5.535141e-01 6.387962e-01 8.736580e-01 1.066132e+00 1.226440e+00 1.228851e+00 1.348471e+00 1.165822e+00 8.990077e-01 8.073619e-02
<GCONST> 6.609026e+01
<TRANSP> 5
 0.000000e+00 1.000000e+00 0.000000e+00 0.000000e+00 0.000000e+00
 0.000000e+00 8.213512e-01 1.786488e-01 0.000000e+00 0.000000e+00
 0.000000e+00 0.000000e+00 7.433345e-01 2.566656e-01 0.000000e+00
 0.000000e+00 0.000000e+00 0.000000e+00 9.143012e-01 8.569886e-02
 0.000000e+00 0.000000e+00 0.000000e+00 0.000000e+00 0.000000e+00
<ENDHMM>
~h "iy"
<BEGINHMM>
<NUMSTATES> 5
<STATE> 2
<MEAN> 25
 1.799828e+00 4.140138e+00 2.284425e+01 -4.718698e+00 -1.209130e+01 2.049525e+00 -1.398041e+01 -6.485316e+00 -1.306588e+01 -3.958214e+00 2.100491e-01 -7.965166e+00 7.797468e-02 1.270331e-01 -7.952234e-02 1.308102e-01 -1.458313e-02 -9.573672e-03 -7.637852e-02 -5.720385e-02 -4.592001e-02 -1.561772e-03 -7.217004e-03 -1.278832e-01 -1.430172e-01
<VARIANCE> 25
 4.693765e+00 7.462154e+00 9.928005e+00 1.435357e+01 1.239921e+01 1.704419e+01 1.472859e+01 9.429173e+00 1.577186e+01 1.394433e+01 8.316450e+00 1.071668e+01 1.340410e-01 4.210787e-01 4.870736e-01 7.646581e-01 7.526889e-01 9.452955e-01 8.444055e-01 5.522135e-01 6.852954e-01 6.456841e-01 5.719054e-01 7.101234e-01 1.075690e-01
<GCONST> 6.572114e+01
<STATE> 3
<MEAN> 25
 3.223769e+00 5.505091e+00 1.729915e+01 8.304623e-01 -1.111585e+01 -3.550684e+00 -7.629971e+00 -8.015451e+00 -1.286170e+01 -3.284410e+00 -7.966903e-01 -5.679595e+00 -7.121243e-02 -4.628227e-02 -1.581183e+00 1.547320e+00 1.115015e+00 -7.060084e-01 1.050213e+00 4.088809e-01 1.096741e+00 -1.900277e-01 -6.451804e-03 8.510913e-01 -8.606915e-01
<VARIANCE> 25
 9.337702e+00 2.738312e+01 2.281879e+01 2.960602e+01 2.688079e+01 2.870332e+01 1.923738e+01 2.378357e+01 3.282473e+01 1.591574e+01 2.475110e+01 2.342962e+01 1.141199e+00 1.964637e+00 2.055594e+00 1.361397e+00 3.009835e+00 2.381075e+00 3.003182e+00 2.228630e+00 3.947343e+00 2.266686e+00 1.953691e+00 2.342624e+00 8.240443e-01
<GCONST> 9.262789e+01
<STATE> 4
<MEAN> 25
 -4.327197e-01 2.592573e+00 5.896585e+00 7.334047e+00 -1.750627e+00 -2.406309e+00 -1.144163e+00 -7.496052e-01 -2.052638e+00 -3.395225e+00 -8.632233e-01 3.093815e-01 -1.280736e+00 -8.296642e-01 -2.630223e+00 5.111156e-01 2.122157e+00 5.530095e-01 1.177610e+00 1.625884e+00 2.683309e+00 7.884152e-02 -2.176983e-01 1.220342e+00 -8.602003e-01
<VARIANCE> 25
 3.760670e+01 1.902319e+01 3.155276e+01 2.085177e+01 3.612777e+01 5.140522e+01 2.837901e+01 3.219997e+01 4.177594e+01 2.829169e+01 1.752195e+01 1.587058e+01 2.989255e+00 2.677292e+00 2.430926e+00 1.360341e+00 3.616705e+00 4.910454e+00 4.006559e+00 2.705484e+00 3.448277e+00 2.702115e+00 3.247086e+00 1.604595e+00 1.766546e+00
<GCONST> 9.904363e+01
<TRANSP> 5
 0.000000e+00 1.000000e+00 0.000000e+00 0.000000e+00 0.000000e+00
 0.000000e+00 9.118783e-01 8.812165e-02 0.000000e+00 0.000000e+00
 0.000000e+00 0.000000e+00 7.334070e-01 2.665930e-01 0.000000e+00
 0.000000e+00 0.000000e+00 0.000000e+00 6.783480e-01 3.216519e-01
 0.000000e+00 0.000000e+00 0.000000e+00 0.000000e+00 0.000000e+00
<ENDHMM>
~h "jh"
<BEGINHMM>
<NUMSTATES> 5
<STATE> 2
<MEAN> 25
 2.597106e-01 -1.414473e+00 -3.058823e+00 1.119461e+00 -2.958426e+00 -1.727031e+00 7.067117e-01 -3.561361e+00 -2.069051e+00 1.106820e+00 5.729532e-01 -5.328619e-01 1.360810e+00 -1.467401e-01 5.861861e-01 -8.274459e-01 -1.985091e+00 -2.437382e+00 -1.683551e+00 -4.742261e-01 -1.663655e+00 -5.311970e-02 -4.067956e-01 -1.730678e+00 4.672849e+00
<VARIANCE> 25
 2.604715e+01 1.689650e+01 2.614854e+01 1.467840e+01 4.097686e+01 4.197483e+01 1.572114e+01 3.489352e+01 2.516695e+01 1.221506e+01 1.223522e+01 3.095285e+01 1.728024e+00 1.087792e+00 4.565276e+00 9.165297e-01 3.948526e+00 4.551450e+00 1.322988e+00 9.710680e+00 4.068445e+00 8.744958e-01 1.054238e+00 2.421757e-01 1.006286e+01
<GCONST> 9.312357e+01
<STATE> 3
<MEAN> 25
 1.230414e+01 -7.029221e+00 -2.684703e+00 -5.678389e+00 -3.611315e+00 -4.111386e+00 -9.036830e+00 -5.235362e-01 1.165570e+00 1.855341e+00 -2.812786e+00 -1.145120e+01 1.219566e-01 4.068412e-02 8.152261e-01 3.527380e-02 -3.163621e-01 -7.737250e-01 -3.015235e-01 4.408391e-01 -5.872687e-01 -8.805951e-02 1.422015e-01 5.733285e-01 -2.106982e-01
<VARIANCE> 25
 4.643875e+00 3.175718e+01 1.579791e+01 1.476686e+01 1.877102e+01 4.951813e+01 1.687219e+01 5.860410e+01 1.452478e+01 1.786250e+01 1.389841e+01 2.460293e+01 8.386582e-01 6.193357e-01 3.243752e+00 1.922646e+00 2.964139e+00 4.605132e+00 9.902572e-01 4.756702e+00 4.518806e+00 1.669802e+00 2.916546e+00 2.899850e+00 3.212117e-01
<GCONST> 8.987642e+01
<STATE> 4
<MEAN> 25
 3.291601e+00 1.325323e+00 1.375456e+01 -6.348650e-01 -6.047688e+00 -5.802277e+00 -6.940608e+00 1.654810e+00 -1.295191e+01 -4.457447e+00 -7.251924e-01 -4.952969e+00 -8.363584e-01 5.749986e-01 4.325465e-01 2.537359e-01 8.792583e-01 1.228581e+00 2.153138e-01 -6.364511e-01 2.204961e-01 -5.171940e-01 -6.361328e-02 8.251461e-02 -9.051832e-01
<VARIANCE> 25
 4.282648e+01 3.949972e+01 1.775771e+01 3.198347e+01 5.217269e+01 4.657149e+01 1.458290e+01 2.749597e+01 4.269529e+01 1.383234e+01 1.003997e+01 1.410161e+01 4.654576e+00 3.582551e+00 3.520246e+00 4.858929e+00 4.410911e+00 3.533331e+00 2.556976e+00 2.912381e+00 7.870121e+00 1.158782e+00 1.181131e+00 2.316005e+00 7.886928e+00
<GCONST> 1.005352e+02
<TRANSP> 5
 0.000000e+00 1.000000e+00 0.000000e+00 0.000000e+00 0.000000e+00
 0.000000e+00 7.502346e-01 2.497654e-01 0.000000e+00 0.000000e+00
 0.000000e+00 0.000000e+00 8.853866e-01 1.146134e-01 0.000000e+00
 0.000000e+00 0.000000e+00 0.000000e+00 9.116287e-01 8.837128e-02
 0.000000e+00 0.000000e+00 0.000000e+00 0.000000e+00 0.000000e+00
<ENDHMM>
~h "ng"
<BEGINHMM>
<NUMSTATES> 5
<STATE> 2
<MEAN> 25
 4.194593e+00 5.138859e-01 -1.005869e+00 6.431705e+00 3.037949e+00 7.916481e-01 2.930096e+00 -5.969618e+00 -2.204209e+00 1.332357e-01 -4.036695e+00 -4.378887e+00 -3.271021e-01 8.621433e-02 1.371441e-01 2.011262e-01 2.529037e-01 6.519331e-02 -2.733500e-02 -8.782519e-02 2.627325e-01 -1.434524e-03 -1.394782e-01 1.311789e-01 -4.072811e-01
<VARIANCE> 25
 1.495108e+01 1.997231e+01 3.512591e+01 1.645929e+01 1.737724e+01 1.513237e+01 1.387293e+01 3.633115e+01 3.260491e+01 1.091921e+01 1.762790e+01 1.478903e+01 2.707272e-01 4.447467e-01 6.919443e-01 5.183027e-01 8.613745e-01 8.922642e-01 6.340729e-01 1.007688e+00 1.112044e+00 7.018656e-01 8.721551e-01 7.577153e-01 1.667240e-01
<GCONST> 7.493192e+01
<STATE> 3
<MEAN> 25
 -2.171202e+00 -1.476614e-01 -2.604301e-01 5.648602e+00 5.466160e+00 1.208879e+00 2.838768e+00 -1.370017e+00 2.162966e+00 -2.936467e-01 -2.705180e+00 2.630415e+00 -9.556955e-01 -9.498758e-01 -1.006629e+00 -7.869320e-01 1.359762e-01 1.148415e-01 9.602767e-01 1.358176e+00 1.573116e+00 8.219260e-01 1.323609e+00 1.510811e+00 -7.549993e-01
<VARIANCE> 25
 8.098962e+00 1.254716e+01 1.485775e+01 1.389367e+01 9.564970e+00 1.468919e+01 1.220187e+01 4.549297e+01 2.505855e+01 1.736591e+01 2.223694e+01 2.341624e+01 7.588587e-01 1.016826e+00 1.103275e+00 1.083020e+00 2.112997e+00 1.217195e+00 1.138229e+00 3.214731e+00 2.385746e+00 2.064284e+00 1.882569e+00 1.858600e+00 2.774341e-01
<GCONST> 8.321861e+01
<STATE> 4
<MEAN> 25
 -5.174035e+00 -3.260482e+00 -2.428370e+00 4.179106e+00 5.236132e+00 1.065009e+00 6.064496e+00 3.076692e+00 7.383519e+00 3.690828e+00 3.095944e+00 6.566236e+00 -1.837742e-02 -7.700000e-07 -7.279007e-03 6.081236e-03 1.306927e-03 -1.972134e-02 -1.770484e-02 2.188339e-03 1.814324e-02 5.125070e-02 7.941164e-02 1.564169e-02 -1.595678e-02
<VARIANCE> 25
 2.430159e+00 3.044387e+00 4.211773e+00 7.515560e+00 6.006552e+00 9.623695e+00 1.067887e+01 1.009127e+01 1.234525e+01 1.326129e+01 1.147956e+01 1.192771e+01 9.792799e-02 2.300156e-01 4.025667e-01 6.359981e-01 7.021843e-01 7.950082e-01 1.160753e+00 1.315638e+00 1.185116e+00 1.308818e+00 1.419943e+00 1.361156e+00 3.244972e-02
<GCONST> 6.251231e+01
<TRANSP> 5
 0.000000e+00 1.000000e+00 0.000000e+00 0.000000e+00 0.000000e+00
 0.000000e+00 8.751798e-01 1.248202e-01 0.000000e+00 0.000000e+00
 0.000000e+00 0.000000e+00 7.295553e-01 2.704447e-01 0.000000e+00
 0.000000e+00 0.000000e+00 0.000000e+00 9.538537e-01 4.614626e-02
 0.000000e+00 0.000000e+00 0.000000e+00 0.000000e+00 0.000000e+00
<ENDHMM>
~h "ow"
<BEGINHMM>
<NUMSTATES> 5
<STATE> 2
<MEAN> 25
 1.054039e+01 2.210685e-01 -7.398290e+00 -8.486544e+00 -3.801415e+00 7.014292e+00 -7.324156e+00 -4.290580e+00 -5.419364e+00 1.332870e+00 3.264093e+00 -2.896498e+00 1.878881e-01 4.067499e-01 -2.592426e-02 -2.662608e-01 -2.790874e-01 5.288661e-01 1.083809e-01 -2.312561e-01 -7.170045e-01 -3.905926e-01 1.276552e-01 1.543144e-01 4.001226e-02
<VARIANCE> 25
 1.281021e+01 1.023468e+01 1.367760e+01 2.432359e+01 2.605254e+01 3.362586e+01 3.403519e+01 2.149640e+01 3.366178e+01 5.165691e+01 2.148200e+01 2.599052e+01 7.900023e-01 6.196573e-01 6.572123e-01 1.450637e+00 1.030030e+00 1.389884e+00 1.089916e+00 1.231296e+00 1.112114e+00 1.302919e+00 1.160181e+00 2.186475e+00 9.093435e-01
<GCONST> 8.488441e+01
<STATE> 3
<MEAN> 25
 8.730623e+00 4.862823e+00 -3.330046e+00 -5.420632e+00 -7.177514e+00 3.308576e+00 -2.377244e+00 -1.692717e+00 -6.786913e+00 -4.737668e+00 -2.085462e+00 -1.376880e+00 -5.338048e-01 -1.213442e-01 4.495520e-01 6.696922e-01 4.040062e-01 -5.994045e-01 2.588483e-01 1.914665e-01 5.160932e-01 1.732269e-01 -3.099818e-01 -1.391377e-02 -5.315686e-01
<VARIANCE> 25
 2.167807e+01 1.470321e+01 1.194758e+01 2.721977e+01 2.420484e+01 2.325729e+01 2.019405e+01 3.161396e+01 3.104562e+01 2.956676e+01 5.497571e+01 3.957707e+01 9.050233e-01 9.720502e-01 5.969633e-01 1.444849e+00 1.502742e+00 1.241349e+00 1.315190e+00 1.862504e+00 2.611587e+00 2.648451e+00 2.012485e+00 1.491536e+00 3.240738e-01
<GCONST> 8.794486e+01
<STATE> 4
<MEAN> 25
 -3.715288e+00 -2.599928e+00 -1.240322e+00 1.056788e+00 2.448279e+00 2.981629e+00 3.505819e+00 2.188076e+00 4.164739e+00 2.758689e+00 2.042161e+00 3.197407e+00 -9.292546e-02 -9.231050e-02 4.826037e-02 8.954567e-02 9.543393e-02 6.394663e-02 1.295901e-01 9.006983e-03 2.489109e-03 -3.845337e-02 -4.027175e-02 9.169431e-03 -6.666667e-02
<VARIANCE> 25
 1.199744e+01 7.114717e+00 5.294311e+00 6.004725e+00 9.638925e+00 1.109572e+01 1.470510e+01 1.198262e+01 1.890342e+01 1.455669e+01 1.634549e+01 1.585348e+01 1.870678e-01 3.553682e-01 5.795298e-01 6.428027e-01 9.781527e-01 1.070886e+00 1.249915e+00 1.370890e+00 1.373052e+00 1.621372e+00 1.773849e+00 1.374356e+00 1.015634e-01
<GCONST> 7.116269e+01
<TRANSP> 5
 0.000000e+00 1.000000e+00 0.000000e+00 0.000000e+00 0.000000e+00
 0.000000e+00 8.977108e-01 1.022892e-01 0.000000e+00 0.000000e+00
 0.000000e+00 0.000000e+00 9.211845e-01 7.881553e-02 0.000000e+00
 0.000000e+00 0.000000e+00 0.000000e+00 9.203702e-01 7.962981e-02
 0.000000e+00 0.000000e+00 0.000000e+00 0.000000e+00 0.000000e+00
<ENDHMM>
~h "oy"
<BEGINHMM>
<NUMSTATES> 5
<STATE> 2
<MEAN> 25
 1.323563e+01 -6.446310e+00 4.629973e+00 -9.501847e-01 -1.404520e+01 -4.363286e+00 -1.066847e+01 2.201122e+00 -8.894095e+00 -1.705112e+00 1.230472e+00 -9.814583e+00 -3.399111e-01 -5.848260e-02 1.044372e+00 1.927834e-01 -6.004730e-02 -6.187757e-01 2.061144e-01 1.414790e-01 -5.283437e-01 -1.502179e-01 -2.276412e-01 -4.874028e-02 -1.057804e-01
<VARIANCE> 25
 1.040161e+01 3.368708e+01 1.042688e+02 1.251676e+01 2.562601e+01 6.472276e+01 4.861462e+01 4.867632e+01 5.954755e+01 2.636009e+01 2.893374e+01 2.866934e+01 7.950007e-01 2.183899e+00 4.186456e+00 1.763968e+00 2.880070e+00 4.944930e+00 3.646676e+00 5.973392e+00 4.500319e+00 2.840287e+00 3.253351e+00 3.667589e+00 4.715234e-01
<GCONST> 1.008063e+02
<STATE> 3
<MEAN> 25
 -5.013710e+00 5.159182e+00 6.013793e+00 4.285941e-01 -1.253083e+00 -1.243526e+01 5.159703e+00 -4.816874e+00 -7.421251e+00 -3.314090e+00 -2.965315e+00 -7.206813e-01 -3.946050e+00 1.157525e+00 -3.733352e+00 -5.589906e-01 3.113710e+00 7.384306e-01 2.350644e+00 4.256048e-01 3.160833e+00 -2.444289e-01 9.259301e-01 1.673657e+00 -4.535062e-02
<VARIANCE> 25
 1.299191e+02 2.472651e+01 5.825540e+01 1.297343e+01 5.003177e+01 5.133154e+01 6.693559e+01 2.252647e+01 5.018288e+01 1.729262e+01 2.628666e+01 4.644827e+01 5.989338e+00 2.418741e+00 2.364246e+00 3.168094e+00 4.163947e+00 5.024638e+00 6.697553e+00 3.476800e+00 5.971041e-01 3.108143e+00 3.691570e+00 2.837723e+00 2.758863e-01
<GCONST> 1.022473e+02
<STATE> 4
<MEAN> 25
 1.015676e+00 1.192829e+00 3.519108e+00 -5.571760e+00 -3.701141e+00 8.856866e-01 1.163516e+00 -3.272519e+00 -3.589544e+00 1.127428e+00 -8.460160e-01 -7.028401e+00 -1.824426e-01 1.295019e+00 -1.369660e+00 -1.335870e+00 1.659125e+00 1.430062e+00 -2.879596e-02 -2.209446e+00 1.435148e+00 1.130883e+00 -8.731533e-01 5.058061e-01 -7.034612e-01
<VARIANCE> 25
 1.991111e+02 2.340395e+01 1.071037e+02 1.158176e+01 6.648601e+01 7.209039e+01 1.231927e+02 1.745813e+01 3.130647e+01 2.042412e+01 4.885476e+00 1.167402e+02 1.600407e-01 7.746905e-01 8.509474e-01 4.029155e+00 2.915416e+00 2.905578e+00 1.485801e+00 5.496887e+00 1.210984e+00 1.561174e+00 8.474237e-01 7.679049e-01 1.793876e-01
<GCONST> 9.234248e+01
<TRANSP> 5
 0.000000e+00 1.000000e+00 0.000000e+00 0.000000e+00 0.000000e+00
 0.000000e+00 9.425358e-01 5.746420e-02 0.000000e+00 0.000000e+00
 0.000000e+00 0.000000e+00 6.817950e-01 3.182049e-01 0.000000e+00
 0.000000e+00 0.000000e+00 0.000000e+00 3.577938e-01 6.422062e-01
 0.000000e+00 0.000000e+00 0.000000e+00 0.000000e+00 0.000000e+00
<ENDHMM>
~h "sh"
<BEGINHMM>
<NUMSTATES> 5
<STATE> 2
<MEAN> 25
 -1.981712e+01 -9.725211e-01 1.089541e+01 -2.386621e+00 -4.651617e+00 -3.114191e-01 5.734807e+00 -2.114960e+00 6.174689e+00 -3.011065e+00 3.743403e+00 2.227324e+00 -5.259152e-01 3.034941e-02 -2.002946e-01 -2.512873e-01 2.315730e-01 3.128790e-01 1.739135e-01 2.642551e-02 6.270400e-01 -1.296269e-02 1.922794e-01 4.261258e-01 -2.285272e-01
<VARIANCE> 25
 2.841210e+01 8.415359e+00 2.457399e+01 1.340998e+01 1.126992e+01 1.911031e+01 3.772585e+01 4.448024e+01 2.538482e+01 1.659046e+01 1.100196e+01 1.191489e+01 5.389656e+00 5.889949e-01 1.388042e+00 1.639998e+00 1.571215e+00 2.110880e+00 2.821994e+00 2.335628e+00 2.525865e+00 1.882797e+00 1.589470e+00 9.107372e-01 7.823545e-01
<GCONST> 8.768432e+01
<STATE> 3
<MEAN> 25
 -9.333389e+00 -1.956311e+00 1.570328e+00 2.247942e-01 5.295846e-01 2.258514e+00 4.753967e+00 9.310744e-01 7.290494e+00 -6.176444e-01 5.219144e+00 4.501313e+00 7.667002e-01 -3.577156e-01 -7.598554e-02 9.412131e-02 1.652977e-01 5.734114e-01 4.272550e-02 8.625144e-01 -3.611087e-01 -9.914778e-03 -3.615776e-01 9.618288e-02 -6.656048e-01
<VARIANCE> 25
 4.082257e+01 1.441285e+00 2.719805e+01 1.459312e+01 2.433037e+01 2.467960e+01 8.549139e+00 1.264122e+01 1.296645e+01 1.506055e+01 4.540009e+00 1.321545e+01 6.328259e-01 7.114085e-01 2.118653e+00 8.615012e-01 2.722170e+00 3.102731e+00 1.493486e+00 2.035799e+00 1.274583e+00 1.636565e+00 2.354322e-01 7.592072e-01 1.032492e+00
<GCONST> 7.854939e+01
<STATE> 4
<MEAN> 25
 -1.463993e+01 -7.738962e-01 7.854469e+00 -3.459741e+00 -3.377165e+00 -3.288934e+00 5.479544e+00 -3.638041e+00 4.685338e+00 -5.202552e+00 3.135387e+00 2.261648e+00 2.084218e+00 2.060795e-01 2.694149e-02 8.297899e-02 -2.831632e-01 -6.839062e-01 -1.000333e+00 -1.109669e+00 -6.427659e-01 -2.729820e-01 -5.532393e-01 -8.460450e-01 2.697932e-01
<VARIANCE> 25
 6.731236e+01 1.407094e+01 1.753984e+01 2.106761e+01 2.203352e+01 7.294253e+01 3.121139e+01 6.323923e+01 3.218019e+01 2.602705e+01 2.076965e+01 1.301850e+01 1.413825e+01 1.747477e+00 3.124071e+00 1.199864e+00 2.752768e+00 3.403841e+00 3.828228e+00 6.787005e+00 5.075765e+00 2.530241e+00 8.013076e-01 1.490446e+00 1.570381e+00
<GCONST> 9.921788e+01
<TRANSP> 5
 0.000000e+00 1.000000e+00 0.000000e+00 0.000000e+00 0.000000e+00
 0.000000e+00 9.004095e-01 9.959059e-02 0.000000e+00 0.000000e+00
 0.000000e+00 0.000000e+00 5.477067e-01 4.522933e-01 0.000000e+00
 0.000000e+00 0.000000e+00 0.000000e+00 8.092302e-01 1.907698e-01
 0.000000e+00 0.000000e+00 0.000000e+00 0.000000e+00 0.000000e+00
<ENDHMM>
~h "sp"
<BEGINHMM>
<NUMSTATES> 3
<STATE> 2
~s "silst"
<TRANSP> 3
 0.000000e+00 5.300961e-01 4.699040e-01
 0.000000e+00 9.178054e-01 8.219465e-02
 0.000000e+00 0.000000e+00 0.000000e+00
<ENDHMM>
~h "th"
<BEGINHMM>
<NUMSTATES> 5
<STATE> 2
<MEAN> 25
 -6.344016e+00 8.939921e-01 -2.581689e+00 2.329216e+00 -1.663238e-02 2.259273e+00 1.569426e+00 -1.196835e+00 2.332257e+00 -8.819835e-02 2.588812e-01 2.591069e+00 -1.259506e+00 -4.610034e-01 -4.231638e-01 -1.293651e-01 3.829911e-02 4.811002e-01 5.599352e-01 2.240773e-01 2.952623e-01 2.641149e-01 6.086652e-01 7.905493e-01 -4.750440e-01
<VARIANCE> 25
 1.408394e+01 1.491103e+01 1.958307e+01 6.030715e+00 1.123467e+01 1.474382e+01 1.205952e+01 1.239463e+01 1.350832e+01 8.960770e+00 1.351125e+01 1.458839e+01 1.747802e+00 1.647065e+00 1.991266e+00 7.620875e-01 1.466633e+00 1.205397e+00 1.381131e+00 1.023341e+00 1.426150e+00 1.717517e+00 1.515943e+00 1.844257e+00 7.929419e-01
<GCONST> 8.034462e+01
<STATE> 3
<MEAN> 25
 -7.288706e+00 -2.103440e+00 -3.880912e+00 -1.673744e-01 -2.702680e-01 9.726677e-01 7.802237e-01 1.221400e+00 4.269712e+00 1.027020e+00 2.831115e-01 2.371449e+00 2.152915e-01 3.851373e-02 1.073333e-01 -7.730038e-02 1.950854e-01 -3.149378e-01 -5.404370e-02 2.527296e-01 2.502990e-01 1.179317e-01 -8.278294e-02 -1.525419e-01 -3.429436e-02
<VARIANCE> 25
 1.109517e+01 2.595242e+00 8.352537e+00 7.553159e+00 1.043110e+01 1.330332e+01 1.531751e+01 1.355595e+01 1.600095e+01 1.426356e+01 1.509852e+01 1.008116e+01 4.309983e-01 3.056666e-01 8.206210e-01 4.514267e-01 8.660830e-01 1.041584e+00 1.214123e+00 1.190549e+00 1.583784e+00 1.584534e+00 1.698771e+00 1.024953e+00 2.579876e+00
<GCONST> 7.384375e+01
<STATE> 4
<MEAN> 25
 -4.949608e+00 -8.649766e-01 -1.799710e-01 8.615583e-01 4.099748e+00 4.138172e+00 4.300451e+00 1.941384e+00 4.590671e+00 3.002000e+00 2.636922e+00 4.536994e+00 -2.146553e-02 6.514436e-02 3.739611e-01 5.133021e-02 -4.910702e-02 -1.072459e-01 -3.827509e-02 -2.620384e-01 -2.415915e-01 -2.720154e-01 -2.557393e-01 -2.515832e-01 1.816715e-01
<VARIANCE> 25
 7.211141e+00 5.393337e+00 1.053290e+01 1.299474e+01 8.631792e+00 1.244203e+01 7.532437e+00 1.387321e+01 9.650624e+00 1.566134e+01 1.376305e+01 1.335030e+01 1.099631e+00 1.016334e+00 2.232094e+00 1.871897e+00 9.264122e-01 1.675849e+00 1.281605e+00 1.695870e+00 1.195080e+00 2.048340e+00 2.541743e+00 1.573490e+00 1.095947e+00
<GCONST> 7.921451e+01
<TRANSP> 5
 0.000000e+00 1.000000e+00 0.000000e+00 0.000000e+00 0.000000e+00
 0.000000e+00 7.308259e-01 2.691741e-01 0.000000e+00 0.000000e+00
 0.000000e+00 0.000000e+00 8.156165e-01 1.843835e-01 0.000000e+00
 0.000000e+00 0.000000e+00 0.000000e+00 8.654900e-01 1.345100e-01
 0.000000e+00 0.000000e+00 0.000000e+00 0.000000e+00 0.000000e+00
<ENDHMM>
~h "uh"
<BEGINHMM>
<NUMSTATES> 5
<STATE> 2
<MEAN> 25
 1.328939e+01 -4.125963e+00 -4.916079e+00 -8.720263e-01 -1.542646e+00 -7.549681e+00 -1.861585e+01 2.227058e+00 -4.019687e+00 -4.645453e+00 4.717955e+00 -1.416945e+00 -1.384086e-01 -5.883501e-01 1.110631e+00 3.483807e-02 -5.473158e-01 -7.489942e-01 1.793010e-01 1.014272e+00 -4.286776e-01 1.870091e-01 -1.569925e-01 -1.955596e-01 -1.153275e-01
<VARIANCE> 25
 1.505663e+01 4.001357e+01 2.581668e+01 3.490260e+01 7.050014e+01 1.499331e+02 7.071560e+01 7.683396e+01 4.636372e+01 4.931638e+01 2.477092e+01 2.382180e+01 2.507746e+00 1.103857e+00 2.617692e+00 4.166050e+00 6.987530e+00 3.183353e+00 6.727540e+00 3.870577e+00 7.730566e+00 1.559700e+00 2.414086e+00 4.589157e+00 2.649740e+00
<GCONST> 1.067710e+02
<STATE> 3
<MEAN> 25
 8.348907e+00 -5.973453e+00 8.443124e+00 -4.154567e+00 -1.307673e+01 -4.359463e+00 -6.446362e+00 4.723565e+00 -1.395730e+01 -1.737728e+00 4.042194e+00 -4.839287e+00 -1.099718e+00 1.325842e+00 5.927048e-01 1.755080e-01 1.613322e-01 1.628289e+00 1.993172e+00 -2.097537e+00 -1.466317e-01 1.724424e+00 -2.203786e+00 -4.796371e-01 -1.586520e+00
<VARIANCE> 25
 1.039712e+01 4.065878e+01 7.727666e+01 3.822525e+01 8.072783e+01 5.196391e+01 4.219768e+01 2.964240e+01 4.076044e+01 5.838398e+01 2.949299e+01 4.820011e+01 8.106377e-01 2.813070e+00 1.839552e+00 5.812491e+00 8.432985e+00 4.885926e+00 3.280753e+00 5.177849e+00 6.366119e+00 6.641875e+00 3.755499e+00 2.749931e+00 3.610806e+00
<GCONST> 1.076000e+02
<STATE> 4
<MEAN> 25
 9.213504e+00 1.701495e+00 4.636605e+00 2.101434e+00 -7.002190e+00 -1.729717e+00 -2.117545e+00 -1.125769e+01 -9.346852e+00 3.828384e+00 -2.728938e+00 -4.931128e+00 -4.820169e-01 6.146629e-01 -3.299507e-01 7.998907e-01 1.140272e+00 -2.106470e-01 -1.715235e-01 -1.317510e-01 1.216646e+00 -7.836966e-01 -3.529684e-01 7.237834e-01 -1.219231e+00
<VARIANCE> 25
 1.038488e+01 9.395222e+00 2.003666e+01 4.154437e+01 3.164639e+01 2.998975e+01 6.023485e+00 2.736077e+01 2.248380e+01 4.373309e+01 1.655239e+01 3.109124e+01 1.897459e+00 1.543052e+00 9.105517e-01 2.805107e+00 1.932606e+00 2.147812e+00 1.665288e-01 2.914958e+00 2.758263e+00 9.032205e-01 5.935115e-01 3.073612e-01 2.088820e+00
<GCONST> 8.500700e+01
<TRANSP> 5
 0.000000e+00 1.000000e+00 0.000000e+00 0.000000e+00 0.000000e+00
 0.000000e+00 8.496886e-01 1.503114e-01 0.000000e+00 0.000000e+00
 0.000000e+00 0.000000e+00 6.709780e-01 3.290220e-01 0.000000e+00
 0.000000e+00 0.000000e+00 0.000000e+00 7.368411e-01 2.631589e-01
 0.000000e+00 0.000000e+00 0.000000e+00 0.000000e+00 0.000000e+00
<ENDHMM>
~h "uw"
<BEGINHMM>
<NUMSTATES> 5
<STATE> 2
<MEAN> 25
 3.278211e+00 1.630962e+00 7.041162e+00 3.924249e+00 -2.556123e+00 -5.652234e+00 -8.044591e+00 -2.539356e+00 -7.207535e+00 -3.818308e+00 1.096502e+00 -4.966905e-01 -1.630321e-01 8.707952e-02 -2.192653e-01 8.065215e-02 3.835625e-01 1.709975e-01 1.458560e-01 3.158433e-02 2.269493e-01 5.166505e-02 -1.046859e-01 6.032871e-02 -3.151723e-01
<VARIANCE> 25
 1.978527e+01 2.140231e+01 3.927967e+01 1.333666e+01 4.074597e+01 3.939806e+01 3.461771e+01 4.246304e+01 5.112724e+01 2.710537e+01 2.500903e+01 1.523916e+01 1.032275e+00 8.990718e-01 1.786212e+00 7.215660e-01 1.780723e+00 2.900669e+00 2.768770e+00 2.600126e+00 2.765460e+00 2.072556e+00 1.943136e+00 1.332379e+00 1.179301e+00
<GCONST> 9.276505e+01
<STATE> 3
<MEAN> 25
 5.369537e+00 -5.321669e+00 -6.226386e+00 -3.464227e+00 1.493872e+00 6.368638e+00 -2.747925e+00 1.906912e+00 1.591332e+00 -3.817432e-01 -6.645072e+00 -1.007644e+01 -6.347412e-01 -3.494299e-01 -1.285905e-01 6.436254e-02 2.603565e-01 1.502548e-01 7.080286e-01 1.175139e-01 6.121777e-01 1.010393e-01 2.248014e-01 5.804378e-01 -5.180970e-01
<VARIANCE> 25
 2.743990e+01 2.375739e+01 2.562909e+01 4.669227e+01 2.259565e+01 1.476428e+01 4.241838e+01 2.212126e+01 1.020923e+01 1.785205e+01 4.873373e+01 7.779398e+01 7.258306e-01 1.766126e+00 1.760650e+00 2.506681e+00 1.497482e+00 1.095784e+00 1.332756e+00 1.745243e+00 1.565119e+00 2.504113e+00 2.595044e+00 2.225011e+00 6.111589e-01
<GCONST> 9.131330e+01
<STATE> 4
<MEAN> 25
 -5.818483e+00 -2.168175e+00 -1.059070e+00 1.834905e+00 3.537672e+00 1.661514e+00 4.460688e+00 2.369278e+00 5.634386e+00 2.357119e+00 3.530793e+00 5.397612e+00 -9.220368e-02 -5.259781e-02 5.815683e-02 -7.735026e-03 -1.296616e-02 -4.092363e-02 3.675985e-02 5.624277e-02 1.281740e-01 2.089361e-01 1.769316e-01 7.437363e-02 -5.920194e-02
<VARIANCE> 25
 5.671208e+00 3.442000e+00 5.156803e+00 5.248031e+00 7.572941e+00 6.483403e+00 1.480837e+01 1.838662e+01 2.049086e+01 1.501373e+01 1.390756e+01 1.186493e+01 1.748099e-01 3.216215e-01 5.711914e-01 5.279881e-01 5.851629e-01 8.120611e-01 1.359564e+00 1.691572e+00 1.446198e+00 2.112891e+00 1.521272e+00 1.160088e+00 7.482395e-02
<GCONST> 6.765620e+01
<TRANSP> 5
 0.000000e+00 1.000000e+00 0.000000e+00 0.000000e+00 0.000000e+00
 0.000000e+00 9.315009e-01 6.849918e-02 0.000000e+00 0.000000e+00
 0.000000e+00 0.000000e+00 8.297054e-01 1.702946e-01 0.000000e+00
 0.000000e+00 0.000000e+00 0.000000e+00 9.312263e-01 6.877362e-02
 0.000000e+00 0.000000e+00 0.000000e+00 0.000000e+00 0.000000e+00
<ENDHMM>
~h "zh"
<BEGINHMM>
<NUMSTATES> 5
<STATE> 2
<MEAN> 25
 -7.011653e+00 6.498843e+00 1.626514e+01 -2.639439e+00 -5.659232e+00 1.480738e+00 -4.160299e-01 -9.654198e+00 -3.710049e+00 -4.732722e+00 1.205850e+00 -4.489285e+00 -1.699688e+00 5.152371e-02 -2.221774e-01 2.774086e-01 9.799759e-01 3.919446e-01 1.205496e+00 -5.799546e-02 1.351948e+00 -1.583732e-01 9.514325e-02 4.671828e-01 -7.375427e-02
<VARIANCE> 25
 6.352586e+01 4.159698e+00 1.108841e+01 1.595149e+01 2.712011e+01 5.747063e+01 7.320058e+01 1.128611e+01 4.938657e+01 2.311599e+01 1.553399e+01 2.048955e+01 2.360481e+00 9.760422e-01 7.506009e-01 1.064838e+00 1.680212e+00 3.069936e+00 3.277729e+00 2.110993e+00 2.833786e+00 1.657815e+00 1.080327e+00 1.304130e+00 1.232166e-01
<GCONST> 8.755229e+01
<STATE> 3
<MEAN> 25
 -2.499984e+00 -2.820174e+00 3.030203e+00 -3.468783e+00 -4.463037e+00 -5.271706e+00 1.557935e+00 1.504637e+00 -1.542991e-01 -2.410705e+00 -1.066822e+00 -3.497382e+00 1.352323e+00 -4.155282e-01 -1.017290e+00 9.014834e-02 -2.781685e-02 -8.006544e-01 -5.115561e-01 6.739004e-01 -2.767304e-01 1.033578e-01 -3.591436e-02 2.345046e-01 -4.654446e-01
<VARIANCE> 25
 1.523522e+02 3.992400e+01 9.170344e+01 1.801022e+01 3.761042e+01 4.410039e+01 1.008459e+02 8.184478e+01 6.010219e+01 2.059483e+01 3.531268e+01 6.084544e+01 7.460249e+00 2.419856e+00 1.625530e+00 1.453089e+00 2.890778e+00 5.002714e+00 5.548398e+00 3.471087e+00 5.626188e+00 2.755761e+00 2.150716e+00 3.396352e+00 1.691900e+00
<GCONST> 1.079332e+02
<STATE> 4
<MEAN> 25
 -4.585974e+00 -5.195013e-01 -7.533847e+00 2.258014e+00 5.921522e+00 3.312986e+00 5.351760e+00 3.884637e+00 7.541426e+00 2.878204e+00 3.675892e+00 5.271941e+00 8.000538e-02 -1.545488e-02 -7.287186e-02 7.902987e-02 2.794659e-02 -2.994264e-02 -1.203158e-01 1.603039e-02 -4.739405e-02 -1.173083e-02 5.820601e-02 1.388525e-01 -4.474000e-02
<VARIANCE> 25
 6.862431e+00 1.934693e+00 1.188268e+01 4.633082e+00 1.068965e+01 2.865384e+01 1.099784e+01 1.154646e+01 1.815737e+01 2.433717e+01 1.262623e+01 1.106841e+01 5.987955e-01 2.500222e-01 5.155280e-01 6.415181e-01 4.697697e-01 1.172598e+00 2.047580e+00 1.514599e+00 1.451378e+00 1.979566e+00 1.465915e+00 1.506158e+00 1.477086e-01
<GCONST> 7.160574e+01
<TRANSP> 5
 0.000000e+00 1.000000e+00 0.000000e+00 0.000000e+00 0.000000e+00
