~o
<STREAMINFO> 1 25
<VECSIZE> 25<NULLD><MFCC_D_N_Z_0><DIAGC>
~s "silst"
<MEAN> 25
 -5.771918e+00 -8.557045e-01 -2.422250e+00 2.925968e+00 3.340933e+00 3.043345e+00 4.173671e+00 2.506428e+00 5.370235e+00 3.395881e+00 2.898765e+00 4.559470e+00 -8.066952e-02 9.315427e-02 -5.416583e-02 7.242836e-02 -1.285801e-01 6.142360e-02 -1.832629e-01 3.597668e-02 -1.545916e-01 -2.103882e-02 -1.720114e-02 -9.746489e-02 9.933662e-02
<VARIANCE> 25
 8.335349e+00 8.001962e+00 1.196193e+01 1.151933e+01 1.025781e+01 1.433918e+01 1.404474e+01 1.437756e+01 1.606771e+01 1.480806e+01 1.332143e+01 1.318477e+01 9.572286e-01 9.702818e-01 1.017204e+00 1.219499e+00 1.365695e+00 1.714891e+00 1.725173e+00 1.954262e+00 1.999407e+00 1.777243e+00 1.595553e+00 1.602517e+00 4.974968e-01
<GCONST> 7.972876e+01
~h "b"
<BEGINHMM>
<NUMSTATES> 5
<STATE> 2
<MEAN> 25
 2.713242e+00 6.947126e+00 6.265440e+00 7.807115e+00 5.476084e+00 9.211764e-01 -2.684867e-02 -3.766514e+00 -3.011297e+00 -5.328902e+00 -4.333521e+00 -2.510079e+00 1.917745e-01 6.304407e-01 5.674165e-01 5.268886e-01 3.593011e-01 9.638709e-02 -2.056476e-01 -1.943691e-01 -3.648170e-01 -6.905139e-01 -4.760070e-01 -2.897390e-01 1.105181e-01
<VARIANCE> 25
 1.138777e+01 1.003384e+01 1.276904e+01 9.177927e+00 1.100779e+01 1.622529e+01 1.628165e+01 1.659288e+01 2.262670e+01 1.510824e+01 1.429348e+01 1.590361e+01 1.737811e+00 1.848518e+00 1.380931e+00 1.085542e+00 1.078222e+00 1.567084e+00 2.392008e+00 2.677390e+00 2.722634e+00 2.345743e+00 1.838484e+00 1.537624e+00 1.223090e+00
<GCONST> 8.454227e+01
<STATE> 3
<MEAN> 25
 1.466375e+00 4.821492e+00 3.361652e+00 5.950692e+00 4.550874e+00 1.338447e+00 7.073640e-01 -1.317833e+00 -5.857069e-01 -3.130183e+00 -2.664280e+00 -5.885709e-01 1.110239e+00 -9.360363e-01 -7.477168e-01 -2.276950e+00 -2.536436e+00 -9.017311e-01 -1.300977e+00 3.818025e-01 -1.867282e-02 1.384562e+00 1.112338e+00 3.562856e-01 3.216529e+00
<VARIANCE> 25
 1.609163e+01 8.504880e+00 1.987865e+01 2.028198e+01 2.795292e+01 2.430911e+01 2.923406e+01 1.869657e+01 2.763545e+01 2.113831e+01 2.034565e+01 1.477091e+01 2.727873e+00 1.934568e+00 3.508748e+00 4.977662e+00 4.543077e+00 5.292036e+00 2.058259e+00 3.515309e+00 4.030844e+00 3.207546e+00 2.876819e+00 1.934364e+00 4.440181e+00
<GCONST> 9.721506e+01
<STATE> 4
<MEAN> 25
 8.162496e+00 6.500744e-01 2.613232e+00 -4.673373e+00 -5.519153e+00 -1.982980e+00 -8.511948e+00 -1.618531e+00 -7.123924e+00 2.249664e-02 -2.047949e+00 -4.528651e+00 4.299461e-01 -4.462250e-01 -3.511982e-02 -1.016733e+00 -6.697820e-01 -2.109201e-01 -7.646801e-01 -6.616123e-02 -7.077283e-01 2.926212e-01 3.396290e-01 -2.903555e-01 8.869308e-01
<VARIANCE> 25
 2.728262e+01 2.833244e+01 7.750905e+01 5.487164e+01 6.549689e+01 7.809039e+01 3.955827e+01 4.789061e+01 6.649448e+01 3.974100e+01 4.351808e+01 2.571067e+01 1.748774e+00 2.782824e+00 3.415416e+00 6.517591e+00 6.120911e+00 4.687088e+00 2.425424e+00 3.695798e+00 5.510991e+00 2.998152e+00 2.996658e+00 2.121510e+00 5.100550e+00
<GCONST> 1.084574e+02
<TRANSP> 5
 0.000000e+00 1.000000e+00 0.000000e+00 0.000000e+00 0.000000e+00
 0.000000e+00 8.152521e-01 1.847478e-01 0.000000e+00 0.000000e+00
 0.000000e+00 0.000000e+00 6.507441e-01 3.492559e-01 0.000000e+00
 0.000000e+00 0.000000e+00 0.000000e+00 7.724555e-01 2.275444e-01
 0.000000e+00 0.000000e+00 0.000000e+00 0.000000e+00 0.000000e+00
<ENDHMM>
~h "d"
<BEGINHMM>
<NUMSTATES> 5
<STATE> 2
<MEAN> 25
 1.269112e+00 5.490956e+00 7.139930e+00 8.287365e+00 5.314999e+00 -2.470912e-01 -3.667199e-01 -3.532153e+00 -2.599315e+00 -5.230884e+00 -5.134036e+00 -2.078246e+00 -1.105626e-01 2.119859e-01 3.303607e-02 -1.035797e-01 2.864502e-01 -2.866206e-02 -3.350826e-02 -2.837555e-01 -2.088847e-01 -1.081597e-01 -1.781044e-01 -1.252603e-01 4.492806e-01
<VARIANCE> 25
 1.311628e+01 1.439522e+01 1.843617e+01 1.128547e+01 1.836745e+01 2.542878e+01 1.581495e+01 1.982300e+01 1.664411e+01 1.950820e+01 1.675796e+01 1.527665e+01 1.867803e+00 1.478509e+00 1.493017e+00 2.347882e+00 1.788437e+00 2.770333e+00 2.022244e+00 2.841012e+00 2.413539e+00 2.122289e+00 2.799261e+00 1.619573e+00 3.036598e+00
<GCONST> 8.962250e+01
<STATE> 3
<MEAN> 25
 -1.665064e+00 1.506321e+00 3.747175e+00 1.374892e+00 8.647507e-01 -2.148967e+00 3.146641e-01 -2.955054e+00 -2.172219e+00 -2.878175e+00 -8.146046e-01 -1.443189e+00 4.862782e-01 -8.185039e-01 -7.151354e-01 -2.160669e+00 -3.051970e+00 -1.966919e+00 -1.058577e+00 6.910238e-01 -3.404568e-01 7.126485e-01 8.687435e-01 1.012943e-01 4.019277e+00
<VARIANCE> 25
 1.273765e+01 2.254233e+01 2.020711e+01 4.516171e+01 5.767312e+01 3.825416e+01 2.405129e+01 3.695257e+01 2.267801e+01 2.260024e+01 1.995995e+01 1.643545e+01 3.508096e+00 3.031890e+00 3.285457e+00 4.162341e+00 7.096335e+00 3.549525e+00 3.415024e+00 4.578520e+00 2.788393e+00 2.825920e+00 2.881557e+00 2.343934e+00 6.237562e+00
<GCONST> 1.017054e+02
<STATE> 4
<MEAN> 25
 2.073802e+00 1.287110e+00 4.212979e+00 -3.473542e-01 -6.295488e+00 -7.613250e+00 -5.075907e+00 1.292141e-01 -1.400484e+00 -1.428805e+00 -6.537218e-01 -7.557148e-01 4.368182e-01 -4.912332e-01 -8.129442e-01 -2.057097e-01 -2.681240e-01 4.102544e-01 -4.117855e-02 9.280566e-01 6.419555e-01 1.145835e+00 2.588342e-01 -2.796693e-01 1.630714e-01
<VARIANCE> 25
 2.480853e+01 3.032875e+01 4.030862e+01 1.749682e+01 7.665151e+01 5.174339e+01 4.051539e+01 4.213201e+01 4.136361e+01 2.337808e+01 2.613158e+01 3.764965e+01 5.709745e+00 2.893825e+00 3.791017e+00 3.353906e+00 1.076919e+01 9.650060e+00 6.298520e+00 6.518067e+00 3.678464e+00 3.053757e+00 2.822741e+00 4.965755e+00 5.722015e+00
<GCONST> 1.091321e+02
<TRANSP> 5
 0.000000e+00 1.000000e+00 0.000000e+00 0.000000e+00 0.000000e+00
 0.000000e+00 7.558574e-01 2.441426e-01 0.000000e+00 0.000000e+00
 0.000000e+00 0.000000e+00 4.922736e-01 5.077264e-01 0.000000e+00
 0.000000e+00 0.000000e+00 0.000000e+00 4.328056e-01 5.671944e-01
 0.000000e+00 0.000000e+00 0.000000e+00 0.000000e+00 0.000000e+00
<ENDHMM>
~h "f"
<BEGINHMM>
<NUMSTATES> 5
<STATE> 2
<MEAN> 25
 -5.598092e+00 -2.181065e+00 -1.819260e+00 1.712481e+00 2.357764e+00 2.632863e+00 3.404448e+00 2.205463e+00 4.211671e+00 3.330380e+00 2.383091e+00 4.353475e+00 -6.762168e-02 6.659381e-02 -4.640275e-02 8.209092e-04 -7.264160e-02 5.570951e-02 -5.528009e-02 -3.252996e-02 3.561819e-02 7.927585e-03 4.029954e-03 -5.813076e-02 2.924959e-02
<VARIANCE> 25
 8.491120e+00 5.150672e+00 5.930246e+00 9.803162e+00 1.092610e+01 1.101911e+01 1.354107e+01 1.151967e+01 1.307881e+01 1.279017e+01 1.239568e+01 1.264234e+01 3.154490e-01 3.582132e-01 4.502720e-01 7.479604e-01 7.561320e-01 1.106814e+00 1.318276e+00 1.402495e+00 1.274793e+00 1.216941e+00 1.316080e+00 1.391788e+00 1.539583e-01
<GCONST> 7.014361e+01
<STATE> 3
<MEAN> 25
 -6.964517e+00 7.063423e-01 -6.404118e+00 3.603596e+00 -1.696553e-01 2.473841e+00 3.798772e-01 5.353389e-01 3.337384e+00 1.311007e+00 -1.746254e-01 2.478372e+00 1.589790e+00 2.587052e-01 -3.866040e-02 -7.964551e-01 -3.560338e-01 4.014546e-01 -2.585109e-01 -4.642335e-01 -7.999711e-01 -4.838085e-01 -9.533225e-02 -4.466209e-01 1.157945e+00
<VARIANCE> 25
 3.609249e+01 1.419055e+01 1.305761e+01 1.553423e+01 1.078153e+01 1.527496e+01 1.564325e+01 1.089597e+01 1.881098e+01 1.469921e+01 1.040966e+01 1.277505e+01 6.609377e+00 2.189259e+00 1.512450e+00 4.184854e+00 1.951042e+00 2.677134e+00 1.876149e+00 1.186473e+00 2.565172e+00 1.812270e+00 1.499095e+00 1.331311e+00 2.574713e+00
<GCONST> 8.839689e+01
<STATE> 4
<MEAN> 25
 1.304178e+01 -6.179201e+00 -9.060129e+00 -1.461448e+01 -2.942371e+00 1.087102e+01 3.842277e-01 -6.888158e+00 2.396547e+00 -3.401938e+00 1.827601e+00 -1.086971e+01 4.940060e-01 -4.023451e-01 -1.722780e-01 -2.877833e-01 -1.765170e-01 -1.089920e-01 -1.428333e-01 2.558191e-01 9.747521e-02 -3.371456e-01 -1.154483e-01 -5.298669e-01 2.137723e-01
<VARIANCE> 25
 1.621362e+01 3.595658e+01 1.100184e+01 4.588513e+01 2.123781e+01 2.054953e+01 8.745975e+00 2.163507e+01 2.336507e+01 8.920471e+00 1.549568e+01 5.127068e+01 2.341274e+00 1.152201e+00 4.973189e-01 5.490633e+00 1.327893e+00 2.938100e+00 5.784242e-01 1.876810e+00 7.958731e-01 7.915007e-01 1.221766e+00 1.203159e+00 4.672255e-01
<GCONST> 8.448062e+01
<TRANSP> 5
 0.000000e+00 1.000000e+00 0.000000e+00 0.000000e+00 0.000000e+00
 0.000000e+00 9.420105e-01 5.798947e-02 0.000000e+00 0.000000e+00
 0.000000e+00 0.000000e+00 8.616053e-01 1.383947e-01 0.000000e+00
 0.000000e+00 0.000000e+00 0.000000e+00 8.717600e-01 1.282401e-01
 0.000000e+00 0.000000e+00 0.000000e+00 0.000000e+00 0.000000e+00
<ENDHMM>
~h "g"
<BEGINHMM>
<NUMSTATES> 5
<STATE> 2
<MEAN> 25
 -7.802806e-01 -3.455315e+00 7.289528e-01 -1.850657e+00 -7.039985e-01 -3.299362e+00 1.572463e+00 -3.401378e+00 -5.382409e-01 1.528341e-01 -1.709828e+00 2.444811e-01 -1.009851e+00 9.336667e-02 1.215472e+00 -1.584589e+00 -2.008352e+00 -1.803806e+00 -4.441241e-01 -2.131889e+00 -1.107212e+00 -2.078733e-02 3.988703e-01 6.826061e-01 2.951332e+00
<VARIANCE> 25
 2.939556e+01 2.595786e+01 2.684530e+01 2.334538e+01 5.543123e+01 7.621642e+01 2.312961e+01 6.460124e+01 4.799477e+01 1.066431e+01 2.912127e+01 4.807486e+01 1.293855e+00 2.695739e+00 1.802196e+00 3.268468e+00 3.247586e+00 1.844157e+00 2.994662e+00 6.157932e+00 2.894504e+00 1.011713e+00 5.704558e+00 1.171387e+00 1.043478e+01
<GCONST> 1.012112e+02
<STATE> 3
<MEAN> 25
 4.749081e-01 1.691580e+00 4.831674e+00 2.245343e+00 3.687010e-01 -4.909481e+00 3.744100e-01 -2.955691e+00 -2.776721e+00 -2.971040e+00 -2.334236e+00 2.546799e-01 -3.735466e-01 2.079407e-01 4.916179e-01 -1.348859e-01 -2.755747e-01 -1.786041e-01 -7.787536e-01 -7.375194e-01 5.240808e-02 -2.740221e-02 1.988612e-01 4.249912e-01 2.543615e-01
<VARIANCE> 25
 3.614331e+01 2.739583e+01 1.894168e+01 5.528268e+01 3.979633e+01 3.697834e+01 2.695577e+01 4.899885e+01 3.601054e+01 1.108077e+01 4.991060e+01 2.098488e+01 1.330357e+00 4.947428e+00 3.595827e+00 7.754711e+00 5.877168e+00 5.300593e+00 3.187174e+00 3.220500e+00 3.234451e+00 1.532877e+00 3.692733e+00 2.126956e+00 9.210597e+00
<GCONST> 1.040842e+02
<STATE> 4
<MEAN> 25
 3.431595e+00 1.080838e+00 7.513485e+00 -3.309077e+00 -8.140759e+00 -5.932494e+00 -3.058867e+00 -4.104023e+00 -6.595217e+00 6.871387e-01 4.201758e-02 -2.416521e+00 7.435342e-01 -2.155614e-01 -1.265674e-01 -1.073989e-02 -6.144483e-01 -7.558967e-01 3.028997e-02 1.100381e+00 -9.788065e-02 -1.359109e-01 3.607662e-01 -5.287624e-01 5.170016e-01
<VARIANCE> 25
 3.058014e+01 1.621610e+01 7.072062e+01 2.839422e+01 5.767745e+01 6.043314e+01 3.431222e+01 4.181664e+01 5.643909e+01 1.827768e+01 2.495598e+01 2.194975e+01 2.572789e+00 3.033920e+00 6.766732e+00 2.589975e+00 5.245162e+00 6.996926e+00 6.116461e+00 4.981218e+00 8.051623e+00 4.130720e+00 3.605811e+00 2.675711e+00 2.621193e+00
<GCONST> 1.071008e+02
<TRANSP> 5
 0.000000e+00 1.000000e+00 0.000000e+00 0.000000e+00 0.000000e+00
 0.000000e+00 4.404701e-01 5.595300e-01 0.000000e+00 0.000000e+00
 0.000000e+00 0.000000e+00 6.816268e-01 3.183733e-01 0.000000e+00
 0.000000e+00 0.000000e+00 0.000000e+00 8.771570e-01 1.228430e-01
 0.000000e+00 0.000000e+00 0.000000e+00 0.000000e+00 0.000000e+00
<ENDHMM>
~h "k"
<BEGINHMM>
<NUMSTATES> 5
<STATE> 2
<MEAN> 25
 -5.115467e+00 -4.840664e+00 -3.020082e+00 2.269718e+00 3.157857e+00 -2.589701e+00 3.416706e+00 2.847976e+00 4.936380e+00 2.631710e+00 4.794620e-01 6.031474e+00 2.187636e-02 -6.579173e-01 -6.359455e-01 -6.944937e-01 2.624288e-01 -1.501252e+00 -8.717090e-01 -6.398056e-01 -3.629570e-01 1.640606e-01 -1.325608e+00 -1.498462e-01 2.837749e+00
<VARIANCE> 25
 1.208251e+01 2.665743e+01 3.107465e+01 4.196096e+01 2.342965e+01 5.738606e+01 1.832830e+01 2.513838e+01 2.717117e+01 1.504884e+01 2.459150e+01 1.502036e+01 2.266009e+00 3.708589e+00 4.176260e+00 5.437443e+00 3.385031e+00 5.724648e+00 2.636135e+00 2.936982e+00 4.171879e+00 1.998134e+00 2.910809e+00 2.210199e+00 8.813917e+00
<GCONST> 1.005775e+02
<STATE> 3
<MEAN> 25
 -2.645760e+00 -4.734796e+00 -8.211393e+00 -9.115947e-01 8.505610e+00 -3.568749e+00 -2.402397e+00 -3.284547e+00 4.753659e+00 2.957375e+00 -2.349515e+00 5.577565e-01 3.901410e-02 7.584885e-01 5.429339e-02 -1.012657e+00 -7.222304e-02 2.034263e+00 3.381709e-02 -7.825829e-01 -2.205021e-01 -7.356756e-01 4.456248e-01 -1.147770e+00 7.537218e-01
<VARIANCE> 25
 2.344693e+01 1.370464e+01 5.233823e+01 5.420552e+01 5.432558e+01 8.721862e+01 2.850997e+01 4.433587e+01 4.707726e+01 2.020622e+01 2.618641e+01 2.878349e+01 3.585894e+00 2.367433e+00 3.489222e+00 3.792342e+00 2.013428e+00 1.181332e+01 4.049945e+00 2.218813e+00 4.503918e+00 2.906276e+00 3.169998e+00 3.474963e+00 5.155245e+00
<GCONST> 1.054556e+02
<STATE> 4
<MEAN> 25
 1.495929e-01 2.517526e-01 -6.916184e-01 -3.802323e+00 -3.313253e+00 8.106003e-01 9.101458e-02 -1.842971e+00 -4.957632e-01 -2.422515e+00 -1.605883e+00 -1.885258e+00 1.028479e+00 6.200147e-01 4.591309e-01 5.663923e-01 -9.923539e-01 -2.352756e-01 -2.244038e-02 2.118182e-01 -8.714671e-01 -7.018067e-01 1.358532e-01 -7.679306e-01 2.167209e-01
<VARIANCE> 25
 1.011641e+02 3.711292e+01 8.878246e+01 5.107250e+01 8.090438e+01 6.353435e+01 3.925774e+01 4.303526e+01 4.146599e+01 4.107854e+01 2.968220e+01 4.770525e+01 5.301871e+00 3.878037e+00 3.638284e+00 4.736480e+00 4.136897e+00 3.986340e+00 4.109706e+00 4.652474e+00 5.518549e+00 4.394946e+00 2.980679e+00 2.595044e+00 2.748919e+00
<GCONST> 1.111393e+02
<TRANSP> 5
 0.000000e+00 1.000000e+00 0.000000e+00 0.000000e+00 0.000000e+00
 0.000000e+00 7.641962e-01 2.358038e-01 0.000000e+00 0.000000e+00
 0.000000e+00 0.000000e+00 6.413844e-01 3.586157e-01 0.000000e+00
 0.000000e+00 0.000000e+00 0.000000e+00 7.426051e-01 2.573949e-01
 0.000000e+00 0.000000e+00 0.000000e+00 0.000000e+00 0.000000e+00
<ENDHMM>
~h "l"
<BEGINHMM>
<NUMSTATES> 5
<STATE> 2
<MEAN> 25
 1.170160e+01 4.733734e+00 -5.304457e+00 -1.570868e+01 -5.520200e+00 4.308388e+00 -5.475834e+00 -3.109122e+00 -8.198656e+00 2.939243e-01 6.046073e-01 -4.056590e+00 -3.043118e-03 6.009045e-01 1.302850e-01 -1.732575e-01 -1.395513e-01 -3.991160e-02 1.609823e-01 8.755283e-03 -3.952356e-01 -2.515939e-01 1.326603e-01 4.940807e-01 -4.967079e-01
<VARIANCE> 25
 1.272908e+01 2.870762e+01 2.133114e+01 6.123755e+01 2.403555e+01 3.251359e+01 3.964663e+01 3.208917e+01 4.752562e+01 3.225697e+01 2.183883e+01 3.242883e+01 5.573108e-01 1.348588e+00 8.817265e-01 3.746035e+00 1.546962e+00 2.371403e+00 1.684257e+00 1.919455e+00 2.648956e+00 2.173009e+00 1.632468e+00 1.736608e+00 5.801631e-01
<GCONST> 9.236061e+01
<STATE> 3
<MEAN> 25
 7.658910e+00 5.841115e+00 -3.342545e+00 -9.014771e+00 -2.740718e+00 1.666899e+00 -4.085726e+00 -1.523881e+00 -3.844478e+00 4.600351e-01 -1.177769e+00 -3.620145e+00 -1.522655e+00 -9.425437e-01 1.154813e+00 2.970771e+00 9.640610e-01 -5.908001e-01 4.848658e-01 5.431192e-01 1.658729e+00 8.920453e-03 -5.812777e-01 -2.130207e-01 -8.058858e-01
<VARIANCE> 25
 2.049265e+01 3.329225e+01 2.464199e+01 5.540066e+01 3.460048e+01 2.315737e+01 5.220029e+01 4.154511e+01 4.558770e+01 4.531757e+01 2.865703e+01 3.789034e+01 1.528957e+00 2.476839e+00 1.755728e+00 4.069160e+00 3.871329e+00 3.522048e+00 3.771622e+00 4.247416e+00 3.367678e+00 4.387569e+00 3.158555e+00 3.373473e+00 2.482081e+00
<GCONST> 1.033353e+02
<STATE> 4
<MEAN> 25
 3.287401e-01 2.852357e+00 4.230434e-01 1.309166e+00 2.723192e+00 2.851868e+00 2.285614e+00 2.765677e-01 1.313362e+00 -9.170593e-01 -2.607881e+00 -8.982664e-02 -8.436106e-01 -5.207942e-01 2.133153e-01 7.953994e-01 2.810385e-01 -1.554907e-01 3.546348e-01 1.031450e-01 4.682964e-01 1.575740e-02 1.655526e-01 4.488774e-01 -3.511470e-01
<VARIANCE> 25
 2.587789e+01 2.416177e+01 1.870722e+01 3.213733e+01 3.354214e+01 2.848354e+01 3.857333e+01 3.075110e+01 3.585683e+01 2.272243e+01 2.586807e+01 2.915014e+01 1.586987e+00 1.478577e+00 1.520863e+00 2.167646e+00 3.043434e+00 2.740441e+00 2.996234e+00 2.320599e+00 2.963423e+00 3.158486e+00 2.696353e+00 1.992061e+00 5.973095e-01
<GCONST> 9.556130e+01
<TRANSP> 5
 0.000000e+00 1.000000e+00 0.000000e+00 0.000000e+00 0.000000e+00
 0.000000e+00 8.782529e-01 1.217472e-01 0.000000e+00 0.000000e+00
 0.000000e+00 0.000000e+00 6.722693e-01 3.277307e-01 0.000000e+00
 0.000000e+00 0.000000e+00 0.000000e+00 6.797859e-01 3.202142e-01
 0.000000e+00 0.000000e+00 0.000000e+00 0.000000e+00 0.000000e+00
<ENDHMM>
~h "m"
<BEGINHMM>
<NUMSTATES> 5
<STATE> 2
<MEAN> 25
 1.765486e+00 1.324635e+00 -3.707342e+00 3.027889e+00 3.119371e+00 -2.047638e+00 -4.693821e-01 -6.560934e+00 -4.944565e+00 -1.104901e+00 -2.858700e+00 -8.274207e-01 1.285711e+00 5.043163e-01 1.142249e-01 1.517021e-01 2.050674e-01 -6.210206e-01 -1.395620e+00 -1.311327e+00 -1.088022e+00 1.102457e-01 -5.112340e-01 -3.770211e-01 8.773142e-01
<VARIANCE> 25
 4.750931e+01 3.379306e+01 8.668596e+01 4.129536e+01 1.036446e+01 2.854796e+01 2.457714e+01 6.602744e+01 6.608818e+01 1.305807e+01 2.027923e+01 2.476825e+01 6.482250e+00 2.332533e+00 6.114179e+00 5.957736e+00 1.875788e+00 6.281008e+00 2.806186e+00 5.896448e+00 5.944308e+00 3.464195e+00 1.899035e+00 2.136197e+00 3.847551e+00
<GCONST> 1.049293e+02
<STATE> 3
<MEAN> 25
 1.042264e+01 1.433286e+00 -1.666919e+00 1.343852e+00 1.394763e+00 -9.738073e-01 -7.135046e+00 -8.848557e+00 -1.024422e+01 -8.180689e-01 -1.264351e+00 -4.757349e+00 9.937809e-01 -1.178359e+00 -6.128045e-01 -1.015889e+00 -1.012851e+00 2.968748e-01 -7.739671e-01 1.440191e+00 4.283962e-01 -2.671965e-01 5.963638e-03 -1.121195e+00 1.143783e+00
<VARIANCE> 25
 1.150301e+01 2.614254e+01 7.953297e+01 7.579492e+01 1.569383e+01 7.020774e+01 3.495685e+01 1.067181e+02 1.143305e+02 5.427643e+01 3.522680e+01 2.789434e+01 2.453681e+00 3.939250e+00 2.931638e+00 4.384649e+00 3.821465e+00 3.622451e+00 6.690980e+00 1.423739e+01 9.758707e+00 6.369073e+00 4.998408e+00 3.836227e+00 2.163086e+00
<GCONST> 1.110712e+02
<STATE> 4
<MEAN> 25
 1.012190e+01 -1.471204e-02 1.303197e+00 -2.440432e+00 -6.514402e+00 -4.139553e+00 -6.976529e+00 -5.607891e+00 -9.562217e+00 -1.633183e+00 -2.299442e+00 -6.657260e+00 -1.332411e-01 2.722442e-01 2.273641e-01 9.210237e-02 -1.979750e-01 -1.177255e-01 2.009729e-01 4.590176e-02 -1.541233e-01 -2.057220e-01 -1.309150e-01 1.672766e-01 -3.328996e-01
<VARIANCE> 25
 1.234990e+01 4.308042e+01 7.248725e+01 1.289250e+02 6.317693e+01 8.453647e+01 2.958969e+01 1.343698e+02 5.953728e+01 3.683774e+01 1.719172e+01 2.346878e+01 9.319735e-01 2.872215e+00 2.393933e+00 6.142625e+00 4.711847e+00 2.748212e+00 1.983149e+00 9.315670e+00 4.152795e+00 3.577787e+00 2.005570e+00 1.896745e+00 2.428638e+00
<GCONST> 1.060028e+02
<TRANSP> 5
 0.000000e+00 1.000000e+00 0.000000e+00 0.000000e+00 0.000000e+00
 0.000000e+00 6.393993e-01 3.606007e-01 0.000000e+00 0.000000e+00
 0.000000e+00 0.000000e+00 6.256248e-01 3.743752e-01 0.000000e+00
 0.000000e+00 0.000000e+00 0.000000e+00 8.908949e-01 1.091051e-01
 0.000000e+00 0.000000e+00 0.000000e+00 0.000000e+00 0.000000e+00
<ENDHMM>
~h "n"
<BEGINHMM>
<NUMSTATES> 5
<STATE> 2
<MEAN> 25
 8.598698e+00 2.588446e+00 6.770426e+00 4.909333e+00 -3.010622e+00 -5.979987e+00 -3.319027e+00 -9.453717e+00 -1.161569e+01 -5.452223e-01 -5.247240e+00 -5.567688e+00 -1.905464e-01 2.762277e-01 7.464213e-02 2.701696e-01 1.584818e-01 -3.041835e-02 -9.814420e-02 -3.205474e-01 1.518379e-01 -1.428890e-01 -9.446009e-02 2.228009e-01 -4.426923e-01
<VARIANCE> 25
 8.331648e+00 1.555500e+01 1.584456e+01 2.090617e+01 1.392636e+01 2.073500e+01 2.521748e+01 4.615290e+01 2.830505e+01 2.842063e+01 1.713683e+01 1.698234e+01 2.835089e-01 7.342782e-01 8.167428e-01 1.815182e+00 1.128342e+00 1.565856e+00 1.118863e+00 3.630995e+00 1.851033e+00 2.310869e+00 1.098027e+00 9.592433e-01 3.955542e-01
<GCONST> 8.307608e+01
<STATE> 3
<MEAN> 25
 1.792963e+00 2.636307e+00 3.011296e+00 4.392878e+00 1.704959e+00 -9.424386e-01 -1.096734e+00 -1.342832e+00 -1.913576e+00 -4.915809e+00 -4.609966e+00 -1.663715e+00 -1.238072e+00 -5.383626e-01 -8.701815e-01 -2.621039e-01 5.927880e-01 9.239541e-01 8.177819e-01 1.284603e+00 1.442869e+00 6.777968e-01 9.063898e-01 7.825472e-01 -5.453016e-01
<VARIANCE> 25
 2.318392e+01 2.174383e+01 2.691952e+01 1.986237e+01 2.466167e+01 3.770805e+01 3.324650e+01 4.629474e+01 3.686763e+01 3.218500e+01 2.875932e+01 2.359763e+01 1.774792e+00 1.813717e+00 1.822464e+00 2.218847e+00 1.783061e+00 3.282610e+00 3.057175e+00 4.870734e+00 3.673766e+00 4.011040e+00 3.242886e+00 2.697516e+00 1.426109e+00
<GCONST> 9.847240e+01
<STATE> 4
<MEAN> 25
 -4.518859e+00 -2.303199e+00 -1.683709e+00 1.460750e+00 3.377667e+00 2.925732e+00 4.013367e+00 2.792724e+00 5.038127e+00 3.151913e+00 2.816461e+00 4.253909e+00 -4.132482e-02 -4.832289e-02 -6.613397e-02 -5.997312e-02 1.075466e-02 3.707989e-02 4.270227e-02 1.945332e-02 3.835586e-02 7.067917e-02 1.099677e-01 5.838133e-02 -3.571587e-02
<VARIANCE> 25
 5.877227e+00 4.419406e+00 8.044863e+00 7.755698e+00 8.697035e+00 1.071991e+01 1.255649e+01 1.628788e+01 1.481102e+01 1.282294e+01 1.225354e+01 1.257814e+01 2.610064e-01 3.059533e-01 5.152618e-01 7.487534e-01 8.166301e-01 9.907748e-01 1.254041e+00 1.404029e+00 1.378275e+00 1.388880e+00 1.299422e+00 1.210052e+00 1.193531e-01
<GCONST> 6.932777e+01
<TRANSP> 5
 0.000000e+00 1.000000e+00 0.000000e+00 0.000000e+00 0.000000e+00
 0.000000e+00 9.104100e-01 8.958992e-02 0.000000e+00 0.000000e+00
 0.000000e+00 0.000000e+00 8.159689e-01 1.840310e-01 0.000000e+00
 0.000000e+00 0.000000e+00 0.000000e+00 9.291455e-01 7.085447e-02
 0.000000e+00 0.000000e+00 0.000000e+00 0.000000e+00 0.000000e+00
<ENDHMM>
~h "p"
<BEGINHMM>
<NUMSTATES> 5
<STATE> 2
<MEAN> 25
 3.001572e-01 2.078668e+00 -6.165709e+00 -1.081865e+00 4.524745e+00 1.632827e+00 3.604510e-01 1.118095e-01 2.883722e+00 1.235733e+00 -1.147589e-01 -4.710649e-01 5.595984e-01 -4.058927e-01 -2.791986e-01 -3.655182e-01 -3.914128e-01 -1.508276e-01 -8.573606e-01 4.696420e-01 2.154884e-02 -7.453376e-02 -5.294748e-01 -4.959164e-01 1.304406e+00
<VARIANCE> 25
 3.581976e+01 1.316526e+01 5.093294e+01 2.879188e+01 1.479881e+01 3.625733e+01 4.210619e+01 1.968098e+01 2.386604e+01 2.164779e+01 2.615183e+01 3.113615e+01 4.859740e+00 3.255584e+00 2.894064e+00 4.876323e+00 2.450322e+00 5.505183e+00 4.211716e+00 5.420988e+00 5.964053e+00 3.518963e+00 3.855387e+00 4.118856e+00 5.188582e+00
<GCONST> 1.039422e+02
<STATE> 3
<MEAN> 25
 5.380987e+00 -3.124695e+00 -2.392556e+00 -8.526111e-02 -9.572317e-01 -1.665416e-01 -6.193528e+00 6.834127e+00 -1.353399e-01 -5.274648e+00 -7.807323e+00 -6.790186e-01 -3.788282e-01 -5.124792e-01 1.559033e+00 7.682565e-02 -2.143703e+00 -6.257852e-01 8.708103e-01 9.734181e-01 -1.626455e+00 -1.144896e+00 9.976773e-01 1.605892e+00 5.051937e-01
<VARIANCE> 25
 2.158181e+01 2.832579e+01 4.431414e+01 4.047182e+01 2.286548e+01 3.008143e+01 4.416919e+01 4.074124e+01 4.269403e+01 3.732693e+01 5.405735e+01 2.259078e+01 3.260946e+00 2.386973e+00 6.311506e+00 4.815820e+00 4.460911e+00 3.554777e+00 5.120263e+00 2.241921e+00 7.502354e+00 7.443809e+00 2.371675e+00 3.529972e+00 3.378802e+00
<GCONST> 1.064001e+02
<STATE> 4
<MEAN> 25
 1.351445e+00 -1.332366e+00 -1.506563e+00 -1.155213e+00 -2.497879e+00 6.227398e-01 -7.791820e-01 2.211671e+00 -8.006942e-01 -1.225327e+00 -6.271734e-01 1.860883e-01 -5.486785e-01 -1.611656e-01 3.250896e-01 2.462596e-03 -6.385287e-01 -1.443427e-01 5.382016e-01 -5.266798e-01 -1.029969e+00 4.427637e-01 1.593876e+00 2.946268e-01 5.360714e-02
<VARIANCE> 25
 5.058578e+01 2.181828e+01 2.862526e+01 5.509272e+01 3.686155e+01 4.543620e+01 2.760847e+01 4.784040e+01 7.791695e+01 5.174745e+01 3.287608e+01 2.132968e+01 2.128999e+00 1.303947e+00 2.920903e+00 1.494845e+00 3.414419e+00 7.761781e-01 3.496277e+00 1.030884e+00 4.654257e+00 3.250763e+00 1.809475e+00 1.391017e+00 1.116289e+00
<GCONST> 9.828246e+01
<TRANSP> 5
 0.000000e+00 1.000000e+00 0.000000e+00 0.000000e+00 0.000000e+00
 0.000000e+00 8.057843e-01 1.942157e-01 0.000000e+00 0.000000e+00
 0.000000e+00 0.000000e+00 4.101730e-01 5.898269e-01 0.000000e+00
 0.000000e+00 0.000000e+00 0.000000e+00 2.063169e-01 7.936832e-01
 0.000000e+00 0.000000e+00 0.000000e+00 0.000000e+00 0.000000e+00
<ENDHMM>
~h "r"
<BEGINHMM>
<NUMSTATES> 5
<STATE> 2
<MEAN> 25
 9.047580e+00 -3.458720e-01 -6.190170e+00 3.146229e+00 2.122130e+00 -6.374417e+00 -1.026967e+01 -2.226145e+00 2.941412e+00 -3.858080e+00 -9.933116e-01 9.510648e-01 7.889177e-01 -2.001469e-01 -8.868905e-01 1.209609e-01 5.633013e-01 -5.657314e-01 -1.703555e+00 -1.215414e-01 9.973204e-01 1.012280e-01 -6.889759e-01 -4.097021e-01 4.343735e-01
<VARIANCE> 25
 6.329610e+01 1.312818e+01 4.978264e+01 3.171292e+01 2.348547e+01 6.471030e+01 6.854922e+01 2.901298e+01 2.521073e+01 3.984887e+01 3.193883e+01 2.310363e+01 2.087833e+00 1.271411e+00 2.623190e+00 1.935645e+00 2.699048e+00 3.099122e+00 3.143963e+00 3.778425e+00 2.516943e+00 2.926881e+00 1.929368e+00 1.864741e+00 2.290918e+00
<GCONST> 9.977782e+01
<STATE> 3
<MEAN> 25
 7.302936e+00 -2.766383e+00 -1.238771e+00 5.326041e+00 -2.024727e+00 -8.432272e+00 -9.161006e+00 2.741781e+00 2.134369e+00 -6.178915e+00 -2.257047e+00 8.838359e-02 -7.148835e-01 -4.386271e-01 1.724413e+00 -1.610770e-01 -1.321780e+00 1.737819e-01 1.490126e+00 5.331499e-01 -1.321576e+00 -1.308077e-01 4.725107e-01 4.287322e-02 -5.188589e-02
<VARIANCE> 25
 6.949776e+01 3.239428e+01 8.168915e+01 3.116938e+01 5.062190e+01 5.636399e+01 7.931097e+01 3.397544e+01 6.686438e+01 5.431180e+01 2.182255e+01 2.344471e+01 2.658713e+00 2.182716e+00 3.383739e+00 3.645058e+00 4.367333e+00 4.775755e+00 4.607091e+00 4.637078e+00 4.824951e+00 4.797965e+00 2.724166e+00 3.217875e+00 1.965691e+00
<GCONST> 1.081577e+02
<STATE> 4
<MEAN> 25
 -1.665891e+00 -2.617404e+00 -9.004048e-01 2.144172e+00 8.064883e-01 3.927941e-01 1.256488e+00 1.823277e+00 2.437233e+00 4.904780e-01 1.474259e+00 2.287910e+00 -2.851298e-01 1.031953e-01 4.789618e-01 -3.951944e-01 -2.750963e-01 4.184229e-01 2.916218e-01 -4.253111e-01 -3.071095e-01 3.762523e-01 1.617893e-01 -7.643691e-02 -7.408204e-02
<VARIANCE> 25
 4.393641e+01 1.046925e+01 4.418148e+01 9.285106e+00 4.116297e+01 3.364676e+01 4.769812e+01 2.331821e+01 4.848972e+01 2.308575e+01 1.640531e+01 1.563181e+01 7.814596e-01 6.944759e-01 1.340437e+00 1.426894e+00 1.100485e+00 2.260105e+00 1.939160e+00 2.280369e+00 1.454520e+00 1.659711e+00 1.640025e+00 1.660588e+00 8.884351e-01
<GCONST> 8.910987e+01
<TRANSP> 5
 0.000000e+00 1.000000e+00 0.000000e+00 0.000000e+00 0.000000e+00
 0.000000e+00 8.518170e-01 1.481830e-01 0.000000e+00 0.000000e+00
 0.000000e+00 0.000000e+00 8.143688e-01 1.856311e-01 0.000000e+00
 0.000000e+00 0.000000e+00 0.000000e+00 7.004952e-01 2.995048e-01
 0.000000e+00 0.000000e+00 0.000000e+00 0.000000e+00 0.000000e+00
<ENDHMM>
~h "s"
<BEGINHMM>
<NUMSTATES> 5
<STATE> 2
<MEAN> 25
 -1.141532e+01 6.748303e+00 -4.736129e+00 -1.549801e+00 5.863627e+00 -9.306744e+00 3.756559e+00 -6.697127e-01 5.514467e-01 -1.562635e+00 -1.969605e+00 2.307027e+00 -2.159278e+00 1.303746e+00 -1.387712e+00 -6.312741e-01 8.767680e-01 -6.870007e-01 6.540454e-01 -1.406484e-01 3.162129e-01 -3.898731e-01 1.426123e-01 2.096760e-02 1.364926e+00
<VARIANCE> 25
 4.819001e+01 2.202924e+01 2.543884e+01 1.645737e+01 1.997214e+01 3.059471e+01 2.997471e+01 2.910907e+01 2.174342e+01 1.917859e+01 1.716107e+01 1.854117e+01 4.711306e+00 2.424256e+00 2.127900e+00 1.819312e+00 1.686009e+00 4.019115e+00 3.308950e+00 2.929683e+00 3.076895e+00 2.186684e+00 2.300539e+00 1.549749e+00 2.020349e+00
<GCONST> 9.578867e+01
<STATE> 3
<MEAN> 25
 -1.530262e+01 7.684458e+00 -9.080861e+00 -2.821306e+00 7.948641e+00 -7.830567e+00 5.877595e+00 4.220843e-02 3.000805e+00 -6.042676e-01 -1.479751e+00 3.411603e+00 6.146547e-01 -4.162887e-01 2.087849e-01 2.033301e-01 -2.586415e-01 2.692630e-01 -1.819045e-02 -9.906121e-02 9.139968e-02 3.262983e-01 6.770821e-02 -1.117285e-02 -5.167856e-01
<VARIANCE> 25
 2.021422e+01 1.341587e+01 1.694541e+01 1.568163e+01 1.329419e+01 1.985389e+01 1.976225e+01 2.596994e+01 1.719177e+01 2.181852e+01 2.043733e+01 1.585834e+01 1.808407e+00 8.190787e-01 1.257990e+00 1.288735e+00 1.206436e+00 1.790531e+00 1.385239e+00 1.375868e+00 1.441077e+00 1.805176e+00 1.474562e+00 1.392442e+00 2.520855e+00
<GCONST> 8.554818e+01
<STATE> 4
<MEAN> 25
 -2.795870e+00 2.926903e+00 -8.190448e-01 2.651650e-01 -4.533400e-01 -7.523657e+00 1.393532e+00 -1.588950e+00 -3.029310e+00 -1.058471e+00 -7.528211e-01 5.155146e-03 1.892962e+00 -5.707353e-01 1.930264e+00 -2.452258e-02 -1.656001e+00 -3.441462e-01 -1.456688e+00 1.430536e-01 -1.331873e+00 -5.573704e-02 -1.113847e-01 -1.128990e+00 4.250785e-01
<VARIANCE> 25
 7.126847e+01 1.950201e+01 5.191252e+01 2.343472e+01 5.698421e+01 3.055756e+01 3.049132e+01 4.223490e+01 7.079920e+01 2.560420e+01 2.263345e+01 2.960473e+01 6.098280e+00 3.119380e+00 6.053161e+00 2.229062e+00 4.079275e+00 3.532201e+00 4.077126e+00 5.820978e+00 5.148655e+00 2.569937e+00 2.645796e+00 2.174638e+00 3.770655e+00
<GCONST> 1.059629e+02
<TRANSP> 5
 0.000000e+00 1.000000e+00 0.000000e+00 0.000000e+00 0.000000e+00
 0.000000e+00 8.045914e-01 1.954087e-01 0.000000e+00 0.000000e+00
 0.000000e+00 0.000000e+00 9.110478e-01 8.895227e-02 0.000000e+00
 0.000000e+00 0.000000e+00 0.000000e+00 7.503389e-01 2.496612e-01
 0.000000e+00 0.000000e+00 0.000000e+00 0.000000e+00 0.000000e+00
<ENDHMM>
~h "t"
<BEGINHMM>
<NUMSTATES> 5
<STATE> 2
<MEAN> 25
 -5.564739e+00 7.370760e-01 4.008343e+00 -2.275276e+00 -5.225382e-01 8.014792e-02 1.850694e-01 -1.208295e+00 -1.293970e+00 2.168903e-01 -4.670781e-02 -8.266999e-02 -5.732692e-01 2.320074e-01 5.994117e-02 -6.164668e-01 -1.346512e-01 -5.772501e-01 -1.172907e-01 -7.577187e-02 -4.079361e-01 -1.327410e-02 -3.546953e-01 -3.821908e-02 1.641068e+00
<VARIANCE> 25
 2.649041e+01 2.560456e+01 6.011734e+01 3.140071e+01 4.013232e+01 2.932458e+01 2.904572e+01 2.742804e+01 5.808828e+01 2.559023e+01 1.781220e+01 2.729577e+01 2.697513e+00 2.968895e+00 4.352347e+00 4.259693e+00 4.638047e+00 3.825475e+00 3.586752e+00 2.745324e+00 4.957204e+00 2.904723e+00 2.211919e+00 2.799630e+00 1.225280e+01
<GCONST> 1.044113e+02
<STATE> 3
<MEAN> 25
 -4.464059e+00 1.829059e+00 5.201498e+00 -5.527300e-01 -7.909030e-01 -4.064558e+00 1.324397e+00 7.997817e-01 -2.218603e+00 1.541100e+00 -1.318696e+00 1.868495e+00 5.785885e-01 -3.148830e-01 1.330862e-01 1.077102e+00 6.159680e-01 1.026726e+00 3.227748e-01 4.871768e-01 5.438824e-01 3.460743e-01 5.803257e-01 3.860561e-01 -2.315547e+00
<VARIANCE> 25
 2.852123e+01 8.780426e+00 4.746806e+01 2.777823e+01 3.929427e+01 3.188396e+01 3.079220e+01 2.672011e+01 2.869694e+01 2.128727e+01 1.994690e+01 3.217559e+01 3.182967e+00 1.255024e+00 3.542157e+00 2.294868e+00 4.117305e+00 4.584284e+00 3.499696e+00 1.926945e+00 2.678576e+00 2.058645e+00 2.445136e+00 2.470512e+00 3.459897e+00
<GCONST> 9.845337e+01
<STATE> 4
<MEAN> 25
 -4.500314e+00 -1.627284e+00 -9.705061e-01 1.773607e+00 3.254125e+00 2.878402e+00 3.707141e+00 2.098687e+00 3.836446e+00 2.727892e+00 2.361356e+00 3.512943e+00 3.360590e-02 -3.830951e-02 -5.589779e-02 1.035848e-02 -1.687019e-02 6.790248e-02 -3.352918e-02 -2.381893e-02 3.375388e-02 -6.076450e-02 6.668692e-02 -1.207113e-02 -5.194795e-02
<VARIANCE> 25
 3.892570e+00 5.437849e+00 1.276101e+01 7.652664e+00 1.269787e+01 1.134838e+01 1.560710e+01 1.285710e+01 1.537991e+01 1.301984e+01 1.178076e+01 1.191349e+01 2.662661e-01 2.879589e-01 5.718749e-01 6.440551e-01 8.330446e-01 1.113611e+00 1.331635e+00 1.327441e+00 1.151753e+00 1.113477e+00 1.161720e+00 1.168991e+00 1.348367e-01
<GCONST> 6.957536e+01
<TRANSP> 5
 0.000000e+00 1.000000e+00 0.000000e+00 0.000000e+00 0.000000e+00
 0.000000e+00 7.450123e-01 2.549878e-01 0.000000e+00 0.000000e+00
 0.000000e+00 0.000000e+00 6.829258e-01 3.170742e-01 0.000000e+00
 0.000000e+00 0.000000e+00 0.000000e+00 9.225650e-01 7.743495e-02
 0.000000e+00 0.000000e+00 0.000000e+00 0.000000e+00 0.000000e+00
<ENDHMM>
~h "v"
<BEGINHMM>
<NUMSTATES> 5
<STATE> 2
<MEAN> 25
 -7.502483e-01 9.447315e-01 -5.907918e-01 4.067177e+00 -1.585227e+00 -5.511490e+00 -1.851995e+00 1.269133e+00 2.760377e+00 5.451179e-01 4.102498e-03 1.390925e+00 -1.065155e+00 1.224236e-01 -3.911783e-01 -1.249745e-01 4.842073e-01 5.576871e-01 2.385421e-01 -1.224244e-01 8.650137e-01 7.381303e-01 3.493170e-01 3.996218e-01 -8.829856e-01
<VARIANCE> 25
 6.453240e+01 1.284632e+01 1.929906e+01 2.672166e+01 4.034469e+01 4.789140e+01 2.519883e+01 1.692680e+01 2.839165e+01 3.055638e+01 2.723217e+01 2.384482e+01 5.593129e+00 2.015165e+00 1.827301e+00 2.748530e+00 6.382186e+00 7.043069e+00 3.538394e+00 2.258291e+00 2.221540e+00 3.089073e+00 3.992892e+00 2.434557e+00 3.025891e+00
<GCONST> 1.010039e+02
<STATE> 3
<MEAN> 25
 -4.297316e+00 -5.020936e-01 -1.348425e+00 4.314180e+00 1.182854e+00 -8.390933e-01 1.934939e-01 6.778683e-01 3.246463e+00 1.233247e+00 7.460037e-01 2.118590e+00 -2.451659e-01 -4.194565e-01 -1.275360e-01 -8.296792e-02 3.080191e-01 2.757756e-01 2.588871e-01 7.721368e-03 -4.622274e-01 -4.346305e-01 -7.331949e-02 3.748357e-03 -1.880503e-01
<VARIANCE> 25
 2.184239e+01 1.100056e+01 1.296367e+01 1.230852e+01 1.577957e+01 1.416696e+01 2.226120e+01 2.428096e+01 3.317051e+01 1.853064e+01 2.180567e+01 2.228798e+01 2.167438e+00 6.585686e-01 1.163655e+00 1.906035e+00 2.953957e+00 2.757149e+00 2.814946e+00 2.443480e+00 3.382861e+00 2.453004e+00 2.918513e+00 1.903377e+00 1.760961e+00
<GCONST> 9.038540e+01
<STATE> 4
<MEAN> 25
 -3.972329e+00 -3.261176e+00 -2.292970e+00 3.867364e+00 4.083663e+00 -1.657039e-01 4.256817e+00 2.831384e+00 5.710179e+00 2.781608e+00 3.258507e+00 5.066359e+00 1.602883e-03 -4.716963e-03 -8.372159e-02 -9.134166e-02 1.552368e-03 -8.075868e-03 1.522544e-02 4.731381e-02 6.194103e-02 4.202836e-02 5.001608e-03 7.122682e-03 3.762077e-02
<VARIANCE> 25
 5.862865e+00 5.975950e+00 6.268832e+00 7.457413e+00 9.752607e+00 1.324639e+01 1.275912e+01 1.240787e+01 1.586567e+01 1.408220e+01 1.328688e+01 1.905218e+01 2.598408e-01 3.393312e-01 4.871602e-01 5.572136e-01 7.155132e-01 9.876801e-01 9.622350e-01 1.173954e+00 1.064822e+00 1.500739e+00 1.458043e+00 1.570835e+00 1.855387e-01
<GCONST> 6.987224e+01
<TRANSP> 5
 0.000000e+00 1.000000e+00 0.000000e+00 0.000000e+00 0.000000e+00
 0.000000e+00 7.451966e-01 2.548033e-01 0.000000e+00 0.000000e+00
 0.000000e+00 0.000000e+00 7.312894e-01 2.687106e-01 0.000000e+00
 0.000000e+00 0.000000e+00 0.000000e+00 8.964983e-01 1.035018e-01
 0.000000e+00 0.000000e+00 0.000000e+00 0.000000e+00 0.000000e+00
<ENDHMM>
~h "w"
<BEGINHMM>
<NUMSTATES> 5
<STATE> 2
<MEAN> 25
 3.314455e+00 5.263458e+00 3.101993e+00 -5.938480e-01 2.274845e-01 -1.494507e+00 -2.782978e+00 -5.345091e+00 -4.010045e+00 -2.998335e+00 -3.616999e+00 -2.646461e+00 8.269088e-01 2.522669e-01 2.674847e-01 -5.435450e-01 -5.489993e-01 -8.478515e-02 -4.785824e-01 -5.680320e-01 -1.930714e+00 -7.413775e-02 -3.294731e-02 -7.452497e-01 1.282751e+00
<VARIANCE> 25
 3.891100e+01 2.501148e+01 2.563022e+01 4.945936e+01 2.515304e+01 2.127464e+01 2.842949e+01 2.421093e+01 5.663092e+01 3.029486e+01 2.088943e+01 1.986809e+01 2.445703e+00 3.903759e+00 4.523448e+00 4.864553e+00 3.064793e+00 3.157575e+00 3.272722e+00 2.602889e+00 5.390564e+00 4.534548e+00 2.799280e+00 2.166773e+00 3.466470e+00
<GCONST> 1.022667e+02
<STATE> 3
<MEAN> 25
 7.665554e+00 8.176079e-01 7.498805e+00 2.719350e-01 -4.816938e+00 -4.813131e+00 -7.736324e+00 -4.727137e+00 -1.340824e+01 -1.996907e+00 2.224382e-01 -4.272180e+00 1.974703e-01 -2.207987e-01 -3.218199e-02 5.675422e-02 -1.415448e-03 -3.990439e-02 -4.193013e-02 4.030135e-01 2.451606e-02 -1.933689e-01 -9.194271e-02 -8.150683e-02 1.480452e-01
<VARIANCE> 25
 1.481692e+01 1.379605e+01 1.410680e+02 2.534653e+01 8.526189e+01 5.057456e+01 2.593299e+01 3.492424e+01 7.857115e+01 3.325626e+01 1.360337e+01 3.491226e+01 1.156484e+00 1.101456e+00 3.522613e+00 2.317349e+00 4.919555e+00 3.592874e+00 3.342580e+00 4.017263e+00 4.860663e+00 3.218358e+00 2.119778e+00 1.933271e+00 6.896987e-01
<GCONST> 1.002585e+02
<STATE> 4
<MEAN> 25
 6.522678e+00 2.841883e+00 1.277027e+01 -1.217311e+00 -6.750587e+00 -7.403311e+00 -7.047297e+00 -3.992504e+00 -1.303386e+01 -2.753365e+00 -8.872636e-01 -1.813752e+00 -1.228646e-02 1.461760e-01 4.132880e-02 -6.640925e-02 4.613648e-01 6.038247e-02 -5.929858e-01 -6.691490e-02 7.058456e-01 -1.259240e-01 -3.095161e-01 -2.725619e-02 -2.459417e-01
<VARIANCE> 25
 6.520311e+00 8.793178e+00 8.524412e+01 3.657586e+01 5.445613e+01 2.966154e+01 1.783593e+01 1.923703e+01 1.747569e+01 6.528282e+01 5.810078e+00 1.561599e+01 3.071450e-01 6.198798e-01 1.190542e+00 8.167373e-01 1.496020e+00 8.969004e-01 6.466149e-01 1.204539e+00 1.634193e+00 1.012089e+00 1.025697e+00 8.848475e-01 1.955819e-01
<GCONST> 7.994529e+01
<TRANSP> 5
 0.000000e+00 1.000000e+00 0.000000e+00 0.000000e+00 0.000000e+00
 0.000000e+00 8.949834e-01 1.050166e-01 0.000000e+00 0.000000e+00
 0.000000e+00 0.000000e+00 8.609626e-01 1.390374e-01 0.000000e+00
 0.000000e+00 0.000000e+00 0.000000e+00 7.544452e-01 2.455548e-01
 0.000000e+00 0.000000e+00 0.000000e+00 0.000000e+00 0.000000e+00
<ENDHMM>
~h "y"
<BEGINHMM>
<NUMSTATES> 5
<STATE> 2
<MEAN> 25
 1.964959e+00 3.771833e+00 1.185479e+01 2.072525e+00 -7.695055e+00 -3.005841e+00 -6.622395e+00 3.914968e-01 -9.665181e+00 -2.061245e+00 7.093439e-01 -3.190768e+00 7.227764e-01 -3.030123e-01 -3.062966e-01 3.583592e-01 -8.758152e-01 -6.475494e-01 -6.717919e-01 8.657492e-01 -3.351839e-01 -7.144231e-01 3.853806e-01 -3.072808e-01 9.672195e-01
<VARIANCE> 25
 1.261715e+01 2.537821e+01 4.942318e+01 2.064763e+01 7.522066e+01 3.157150e+01 4.082281e+01 2.927828e+01 8.537411e+01 2.915732e+01 2.208352e+01 3.354616e+01 1.525165e+00 2.331639e+00 6.984979e+00 3.183064e+00 5.364658e+00 2.400087e+00 5.272183e+00 3.253026e+00 1.013529e+01 3.224468e+00 3.118769e+00 3.954630e+00 1.123383e+00
<GCONST> 1.038133e+02
<STATE> 3
<MEAN> 25
 9.460332e+00 5.297552e-01 -2.413542e+00 4.559216e-01 -2.039478e-01 -6.315560e-01 -9.168442e+00 -8.084375e-02 -6.060122e+00 -4.209263e+00 -2.425154e+00 -8.753044e+00 3.092930e-01 -5.983753e-02 -7.236834e-01 -6.163481e-01 1.079403e+00 5.016472e-01 -2.769954e-01 -3.116653e-01 4.881247e-01 3.786851e-01 -3.949105e-01 -5.491196e-01 -2.070283e-01
<VARIANCE> 25
 6.175425e+00 5.208035e+01 3.952472e+01 4.594810e+01 3.398465e+01 6.282569e+01 4.512090e+01 8.789760e+01 9.598988e+01 6.024789e+01 2.878719e+01 3.071970e+01 6.505811e-01 2.027905e+00 3.117537e+00 2.888585e+00 3.863874e+00 4.584868e+00 4.408685e+00 5.447603e+00 5.168698e+00 4.534873e+00 3.240990e+00 2.899296e+00 1.685089e+00
<GCONST> 1.050688e+02
<STATE> 4
<MEAN> 25
 8.798340e+00 6.388818e-02 -3.734250e-01 2.958888e+00 1.015766e+00 -2.313615e+00 -2.540597e+00 -5.358755e+00 -3.707876e+00 1.395286e+00 -1.278250e+00 -5.906481e+00 -1.866293e-01 4.247550e-01 3.438975e-01 3.520880e-01 -7.665785e-02 -1.091308e-01 3.301947e-01 -6.111994e-01 -1.618088e-01 1.186725e-02 1.115614e-01 3.607542e-01 -5.292770e-01
<VARIANCE> 25
 8.271666e+00 1.888530e+01 6.524645e+01 3.546098e+01 2.344322e+01 3.930262e+01 3.131775e+01 3.734426e+01 3.184497e+01 1.651651e+01 2.228565e+01 1.704256e+01 2.492470e-01 3.179381e-01 1.691038e+00 6.743940e-01 1.154671e+00 1.503314e+00 1.314542e+00 1.192458e+00 1.388822e+00 1.087518e+00 1.215471e+00 6.487626e-01 2.795832e-01
<GCONST> 8.233741e+01
<TRANSP> 5
 0.000000e+00 1.000000e+00 0.000000e+00 0.000000e+00 0.000000e+00
 0.000000e+00 8.837457e-01 1.162544e-01 0.000000e+00 0.000000e+00
 0.000000e+00 0.000000e+00 8.899958e-01 1.100042e-01 0.000000e+00
 0.000000e+00 0.000000e+00 0.000000e+00 9.024938e-01 9.750623e-02
 0.000000e+00 0.000000e+00 0.000000e+00 0.000000e+00 0.000000e+00
<ENDHMM>
~h "z"
<BEGINHMM>
<NUMSTATES> 5
<STATE> 2
<MEAN> 25
 -1.363233e+01 9.384229e+00 -4.596737e+00 -2.250868e+00 1.001228e+01 -1.045140e+01 9.788120e-01 4.694486e-01 1.229246e+00 -2.964841e-01 -2.760024e+00 2.636581e+00 -5.297499e-01 -6.601566e-02 4.727585e-02 1.645808e-01 4.626072e-01 -4.581927e-01 1.349622e-01 2.289595e-01 6.011512e-02 1.790558e-01 -2.841845e-01 1.416618e-01 -5.637380e-02
<VARIANCE> 25
 7.298753e+01 3.199776e+01 3.940733e+01 1.931372e+01 2.971649e+01 2.262072e+01 3.803480e+01 2.725854e+01 3.004730e+01 2.667462e+01 1.729336e+01 1.873788e+01 6.583417e+00 2.310791e+00 1.795918e+00 1.562591e+00 3.932183e+00 2.267808e+00 2.394980e+00 2.581805e+00 3.463058e+00 2.890036e+00 1.643311e+00 1.405767e+00 1.389557e+00
<GCONST> 9.749302e+01
<STATE> 3
<MEAN> 25
 -7.031401e+00 9.820617e+00 -3.947741e-02 2.089650e+00 7.766055e+00 -9.986526e+00 3.432223e+00 -3.378761e+00 -1.722328e+00 -1.793854e+00 -4.236163e+00 1.966201e+00 3.548816e-01 -1.106415e-01 5.494249e-01 5.028636e-02 -5.994632e-01 9.920271e-02 1.592071e-01 -1.571389e-02 -3.381504e-01 -1.883025e-02 3.087329e-01 -6.572646e-02 9.257157e-02
<VARIANCE> 25
 1.203291e+01 4.753200e+01 1.464018e+01 1.099208e+01 1.780762e+01 4.807318e+01 2.825971e+01 2.354391e+01 2.530019e+01 1.748114e+01 1.912601e+01 1.597887e+01 2.234836e+00 1.783087e+00 2.197235e+00 1.037292e+00 2.418926e+00 3.824484e+00 3.312144e+00 2.812962e+00 2.722613e+00 1.510861e+00 1.913057e+00 1.459878e+00 1.527205e+00
<GCONST> 9.197151e+01
<STATE> 4
<MEAN> 25
 -4.365347e+00 -6.364489e-01 -2.167750e-01 3.303160e+00 3.725781e+00 4.249660e-01 4.089470e+00 1.908119e+00 3.582839e+00 3.010193e+00 2.200098e+00 4.065328e+00 1.976658e-01 -2.083280e-01 1.979149e-01 4.745182e-02 -2.629207e-01 3.594849e-01 5.708192e-02 1.033712e-01 8.316150e-02 1.222070e-03 1.417702e-01 -1.089263e-01 -1.094118e-01
<VARIANCE> 25
 3.692346e+00 8.976765e+00 9.038586e+00 9.923571e+00 8.341784e+00 2.630959e+01 1.808591e+01 1.836926e+01 2.183357e+01 1.083113e+01 1.243383e+01 1.363788e+01 1.012142e+00 1.034559e+00 1.313750e+00 1.144740e+00 2.002760e+00 1.958849e+00 1.863432e+00 2.274814e+00 1.456994e+00 1.000636e+00 1.055567e+00 1.386908e+00 1.833303e-01
<GCONST> 7.806743e+01
<TRANSP> 5
 0.000000e+00 1.000000e+00 0.000000e+00 0.000000e+00 0.000000e+00
 0.000000e+00 8.951805e-01 1.048195e-01 0.000000e+00 0.000000e+00
 0.000000e+00 0.000000e+00 8.823548e-01 1.176451e-01 0.000000e+00
 0.000000e+00 0.000000e+00 0.000000e+00 9.103294e-01 8.967063e-02
 0.000000e+00 0.000000e+00 0.000000e+00 0.000000e+00 0.000000e+00
<ENDHMM>
~h "aa"
<BEGINHMM>
<NUMSTATES> 5
<STATE> 2
<MEAN> 25
 9.245238e+00 -7.094596e+00 -8.497424e+00 -1.179899e+01 4.704291e-01 1.153267e+01 -3.272336e+00 -3.960227e+00 1.872190e-01 -5.137578e+00 1.371418e+00 -1.451381e+01 3.958811e-01 1.369537e-01 -3.807263e-01 -6.504898e-01 -3.303136e-01 2.928015e-01 -4.179517e-01 6.847858e-02 7.595360e-03 -5.943282e-01 9.967516e-02 -2.995417e-01 9.260704e-02
<VARIANCE> 25
 1.088452e+01 1.873968e+01 8.751850e+00 3.247472e+01 1.116749e+01 2.498291e+01 2.642360e+01 2.248493e+01 4.923776e+01 5.076999e+01 1.712474e+01 3.666623e+01 1.009266e+00 9.770886e-01 7.128855e-01 2.444077e+00 1.987044e+00 2.200766e+00 1.754213e+00 1.988140e+00 1.858243e+00 2.871640e+00 2.299127e+00 2.522517e+00 1.073312e+00
<GCONST> 8.996829e+01
<STATE> 3
<MEAN> 25
 6.265930e+00 3.759867e-02 -6.754784e+00 -7.227804e+00 -2.124162e-01 9.551273e+00 -2.736353e+00 1.259368e+00 -1.030145e-01 -2.623109e+00 -2.327910e+00 -8.792692e+00 -1.423623e+00 2.675073e-01 1.777829e+00 1.804184e+00 -1.070074e-01 -1.643687e+00 1.660282e+00 1.249219e+00 2.914801e-01 1.510612e+00 -6.752731e-01 2.315840e+00 -2.225934e+00
<VARIANCE> 25
 6.227005e+01 2.355767e+01 1.835752e+01 4.736113e+01 2.092361e+01 2.869991e+01 6.215591e+01 4.843244e+01 4.159205e+01 4.105965e+01 4.770800e+01 3.568747e+01 3.013074e+00 2.558447e+00 3.185369e+00 2.361442e+00 2.757960e+00 3.307071e+00 5.126586e+00 5.145267e+00 3.687358e+00 2.395465e+00 5.450981e+00 2.513366e+00 3.278651e+00
<GCONST> 1.048227e+02
<STATE> 4
<MEAN> 25
 2.381196e+00 -1.999874e+00 1.287707e+00 -2.096857e+00 -5.102078e+00 2.931698e+00 -8.649877e-01 3.440929e+00 1.218056e+00 1.338126e+00 -1.574740e+00 -1.321864e+00 -6.585612e-01 8.266650e-01 1.791648e+00 2.145097e+00 6.737789e-01 -5.356131e-01 7.739252e-01 -2.564207e+00 -1.226120e+00 -1.142651e-02 3.948182e-01 1.702489e+00 -1.431906e+00
<VARIANCE> 25
 6.600699e+01 3.450958e+01 3.555464e+01 4.774439e+01 7.095476e+01 4.287228e+01 6.171331e+01 5.506977e+01 3.608221e+01 1.505687e+01 2.280577e+01 2.384810e+01 6.938012e-01 1.608455e+00 3.922241e+00 3.105352e+00 5.973691e+00 2.593202e+00 2.955642e+00 7.875038e+00 2.263746e+00 4.494596e+00 2.421067e+00 2.806282e+00 1.821892e+00
<GCONST> 1.031956e+02
<TRANSP> 5
 0.000000e+00 1.000000e+00 0.000000e+00 0.000000e+00 0.000000e+00
 0.000000e+00 8.517262e-01 1.482738e-01 0.000000e+00 0.000000e+00
 0.000000e+00 0.000000e+00 6.294481e-01 3.705519e-01 0.000000e+00
 0.000000e+00 0.000000e+00 0.000000e+00 3.904667e-01 6.095333e-01
 0.000000e+00 0.000000e+00 0.000000e+00 0.000000e+00 0.000000e+00
<ENDHMM>
~h "ae"
<BEGINHMM>
<NUMSTATES> 5
<STATE> 2
<MEAN> 25
 -9.218013e-02 -6.193460e+00 -9.000371e-01 -2.127613e-01 -2.019090e+00 -2.489295e+00 3.669674e+00 5.373332e+00 -7.218189e-01 -2.089278e+00 -2.753377e+00 -2.593485e+00 2.058803e+00 -1.988893e+00 1.241228e-01 -1.161372e+00 -1.323801e+00 -1.198981e+00 -1.155118e-02 1.555193e+00 -2.055156e+00 -1.651299e+00 -2.588004e+00 -2.462784e+00 4.081095e+00
<VARIANCE> 25
 1.963895e+01 2.875412e+01 2.435167e+01 1.612929e+01 3.693011e+01 2.706162e+01 3.024824e+01 2.062326e+01 3.776141e+01 1.720821e+01 3.860865e+01 3.443904e+01 1.474485e+00 2.762490e+00 2.214894e+00 1.704761e+00 3.810775e+00 2.932470e+00 1.960522e+00 2.147742e+00 2.735088e+00 2.284958e+00 3.403739e+00 4.216979e+00 5.238677e+00
<GCONST> 9.800575e+01
<STATE> 3
<MEAN> 25
 7.373697e+00 -1.070383e+01 -2.614336e+00 -2.889290e+00 -3.082462e+00 -2.273774e+00 3.015529e+00 6.195550e+00 -2.661534e+00 -8.057829e+00 -9.031765e+00 -9.741859e+00 5.010977e-01 -1.026869e-01 -5.231402e-01 1.019667e-01 2.735985e-01 1.261252e-01 -3.143269e-01 -2.118377e-01 3.862136e-01 -1.385514e-01 -2.335017e-01 -2.050808e-01 1.933663e-01
<VARIANCE> 25
 7.332958e+00 2.397739e+01 2.965856e+01 1.366319e+01 2.398121e+01 1.717870e+01 1.975815e+01 2.830353e+01 2.242999e+01 1.518404e+01 2.503283e+01 3.059108e+01 5.062517e-01 1.185089e+00 7.149152e-01 1.319409e+00 1.653997e+00 1.720043e+00 1.130967e+00 1.832987e+00 1.124252e+00 1.408162e+00 1.426688e+00 1.706795e+00 1.554893e+00
<GCONST> 8.493593e+01
<STATE> 4
<MEAN> 25
 8.432609e+00 -6.316673e+00 -4.477795e+00 -1.384076e+00 -2.774339e+00 -3.721370e+00 1.337793e-01 3.577603e+00 -2.205272e-01 -3.173100e+00 -6.927161e+00 -9.114872e+00 -8.191097e-01 1.952882e+00 8.443851e-01 9.213490e-01 3.997437e-01 3.596973e-01 2.241088e-01 -1.453460e+00 -1.126678e-01 1.203818e+00 1.108355e+00 1.079242e+00 -2.405464e+00
<VARIANCE> 25
 1.814729e+01 3.192669e+01 4.657642e+01 3.468821e+01 3.057896e+01 7.121445e+01 2.657098e+01 4.064222e+01 4.725253e+01 3.070131e+01 2.258675e+01 3.602278e+01 3.096784e+00 1.824456e+00 1.850475e+00 4.466165e+00 3.022525e+00 3.844653e+00 2.095205e+00 4.523062e+00 4.407322e+00 3.346676e+00 2.026628e+00 4.133790e+00 2.753020e+00
<GCONST> 1.027231e+02
<TRANSP> 5
 0.000000e+00 1.000000e+00 0.000000e+00 0.000000e+00 0.000000e+00
 0.000000e+00 6.857421e-01 3.142579e-01 0.000000e+00 0.000000e+00
 0.000000e+00 0.000000e+00 8.815551e-01 1.184450e-01 0.000000e+00
 0.000000e+00 0.000000e+00 0.000000e+00 7.406424e-01 2.593576e-01
 0.000000e+00 0.000000e+00 0.000000e+00 0.000000e+00 0.000000e+00
<ENDHMM>
~h "ah"
<BEGINHMM>
<NUMSTATES> 5
<STATE> 2
<MEAN> 25
 3.670660e+00 -2.864262e+00 -1.156280e+00 -1.347591e+00 -1.047142e+00 -2.233267e+00 -1.823433e+00 7.115761e-01 -5.953393e-01 -2.167491e+00 -3.284111e+00 -5.947173e+00 1.137627e+00 -4.302269e-01 -5.114730e-02 -7.725319e-01 -3.980641e-01 -5.183451e-01 -6.109067e-01 5.635186e-02 -1.844625e-01 -1.368024e-01 -6.927662e-01 -7.353845e-01 1.072758e+00
<VARIANCE> 25
 5.621714e+01 4.012748e+01 6.976015e+01 5.410364e+01 2.820322e+01 5.441087e+01 4.441786e+01 5.148764e+01 5.775280e+01 3.037666e+01 3.494164e+01 6.482594e+01 4.780377e+00 3.246329e+00 3.449129e+00 4.054894e+00 2.915408e+00 4.855991e+00 3.276635e+00 3.300467e+00 4.179039e+00 2.189810e+00 3.196951e+00 5.403622e+00 5.166924e+00
<GCONST> 1.092870e+02
<STATE> 3
<MEAN> 25
 5.263370e+00 -1.219403e+00 2.819834e-01 -1.768393e+00 -1.728956e+00 -3.409780e+00 -3.783963e+00 -4.132036e-01 -1.141340e+00 -1.252293e+00 -3.564051e+00 -4.305535e+00 3.308825e-01 8.948859e-01 1.278274e-01 9.207059e-02 2.623247e-01 5.330195e-01 3.258938e-01 -7.948362e-01 -8.129418e-01 3.431751e-01 3.847092e-01 4.298356e-01 -7.402671e-01
<VARIANCE> 25
 4.985889e+01 4.114693e+01 4.990782e+01 5.613284e+01 2.737730e+01 5.736856e+01 4.338360e+01 4.867951e+01 4.283395e+01 3.309989e+01 3.446713e+01 3.624747e+01 6.128347e+00 2.803490e+00 3.706051e+00 6.287266e+00 4.220448e+00 5.374097e+00 3.983493e+00 5.083760e+00 5.082209e+00 3.487067e+00 3.151273e+00 4.252060e+00 4.698472e+00
<GCONST> 1.100522e+02
<STATE> 4
<MEAN> 25
 4.194560e+00 9.695381e-01 1.081754e+00 -2.430265e-01 1.074997e-01 -8.190800e-01 -1.836122e+00 -2.700087e+00 -3.178497e+00 1.211972e-01 -2.158230e+00 -2.363013e+00 1.892706e-01 3.942785e-01 7.543643e-02 -7.459671e-02 1.287350e-01 3.288392e-01 4.694605e-01 -3.528691e-01 -7.144852e-01 2.449692e-01 2.639519e-01 1.877296e-01 -4.158653e-01
<VARIANCE> 25
 5.199494e+01 2.721498e+01 5.070926e+01 6.554472e+01 3.872755e+01 3.936861e+01 3.969784e+01 6.550830e+01 4.770624e+01 3.768406e+01 2.576806e+01 3.642010e+01 4.011118e+00 2.909121e+00 2.695012e+00 4.701652e+00 3.248817e+00 3.897625e+00 3.791800e+00 6.446116e+00 5.122944e+00 3.787931e+00 2.799171e+00 2.760514e+00 2.636083e+00
<GCONST> 1.075530e+02
<TRANSP> 5
 0.000000e+00 1.000000e+00 0.000000e+00 0.000000e+00 0.000000e+00
 0.000000e+00 6.423255e-01 3.576745e-01 0.000000e+00 0.000000e+00
 0.000000e+00 0.000000e+00 3.581051e-01 6.418949e-01 0.000000e+00
 0.000000e+00 0.000000e+00 0.000000e+00 4.168582e-01 5.831419e-01
 0.000000e+00 0.000000e+00 0.000000e+00 0.000000e+00 0.000000e+00
<ENDHMM>
~h "ao"
<BEGINHMM>
<NUMSTATES> 5
<STATE> 2
<MEAN> 25
 5.848082e+00 2.966834e+00 -5.732872e+00 -1.183075e+01 -1.314982e+00 8.682056e+00 2.684785e+00 -1.695729e+00 1.639688e+00 -3.380244e+00 3.544396e-01 -1.662824e+00 3.177891e+00 5.365893e-01 -3.434205e-01 -4.490347e+00 -3.614913e+00 2.944221e-01 -3.685200e-01 9.502157e-02 -8.430118e-01 -1.061806e+00 -5.829130e-02 -1.413154e+00 1.373120e+00
<VARIANCE> 25
 3.712860e+01 3.046841e+01 2.091331e+01 8.524993e+01 6.796564e+01 5.186084e+01 1.466085e+01 2.189451e+01 2.292876e+01 1.321158e+01 9.489733e+00 2.328998e+01 3.106430e+00 1.447799e+00 1.267513e+00 3.893592e+00 3.401460e+00 5.979225e+00 1.518834e+00 1.169913e+00 3.388499e+00 1.652021e+00 1.184248e+00 1.305185e+00 2.781199e+00
<GCONST> 9.538268e+01
<STATE> 3
<MEAN> 25
 1.173976e+01 1.829774e+00 -7.220736e+00 -2.527914e+01 -7.624912e+00 1.099851e+01 3.021274e+00 8.822565e-01 1.058349e+00 -7.406704e+00 -3.257618e-01 -4.321209e+00 3.045541e-02 3.476805e-01 6.880598e-02 -1.959612e-01 -4.250177e-01 -5.150321e-01 8.923833e-02 4.790418e-01 4.921669e-02 -1.069993e-03 -2.148270e-01 2.215085e-01 -1.613885e-01
<VARIANCE> 25
 4.565841e+00 2.026938e+01 1.034747e+01 1.162394e+01 2.289715e+01 2.203567e+01 1.258094e+01 1.682770e+01 1.902339e+01 1.551204e+01 9.377537e+00 7.446920e+00 1.475649e-01 3.203699e-01 4.111371e-01 8.882380e-01 8.245794e-01 6.351112e-01 5.304877e-01 6.417665e-01 7.295004e-01 7.400372e-01 7.166563e-01 5.399703e-01 2.081347e-01
<GCONST> 6.785789e+01
<STATE> 4
<MEAN> 25
 9.517574e+00 8.000128e+00 -5.410237e+00 -1.489702e+01 -1.226618e+01 -1.762965e+00 1.629555e+00 3.442578e+00 -1.665817e-01 -2.135412e+00 -1.275928e+00 -2.413356e-01 5.655875e-02 -1.386795e-01 -2.531308e-01 4.566594e-01 6.959029e-01 -4.064406e-02 -1.991069e-02 -3.287838e-01 -5.764287e-01 1.817406e-01 3.599073e-01 4.199561e-01 -3.446592e-02
<VARIANCE> 25
 6.994353e+00 1.161014e+01 1.267949e+01 3.671445e+01 2.591961e+01 2.685628e+01 1.710659e+01 1.440538e+01 2.579865e+01 1.776309e+01 1.565844e+01 1.563526e+01 1.495248e-01 5.953203e-01 6.038796e-01 8.734434e-01 1.277635e+00 1.808743e+00 1.088476e+00 1.018496e+00 1.068132e+00 1.047092e+00 1.414082e+00 9.897440e-01 1.196925e-01
<GCONST> 7.637498e+01
<TRANSP> 5
 0.000000e+00 1.000000e+00 0.000000e+00 0.000000e+00 0.000000e+00
 0.000000e+00 7.060604e-01 2.939397e-01 0.000000e+00 0.000000e+00
 0.000000e+00 0.000000e+00 9.010919e-01 9.890813e-02 0.000000e+00
 0.000000e+00 0.000000e+00 0.000000e+00 9.054950e-01 9.450505e-02
 0.000000e+00 0.000000e+00 0.000000e+00 0.000000e+00 0.000000e+00
<ENDHMM>
~h "aw"
<BEGINHMM>
<NUMSTATES> 5
<STATE> 2
<MEAN> 25
 4.177660e+00 3.537930e+00 -6.083834e-01 9.459321e-01 1.941271e+00 -2.218416e+00 -4.325866e+00 -8.543262e+00 -6.927505e+00 -2.986751e+00 -1.039746e-02 -4.610587e+00 -1.188187e+00 -2.889432e-01 4.230151e-01 -1.652150e-01 3.537155e-01 4.125058e-01 9.183569e-01 5.264815e-01 9.512987e-01 3.570928e-01 2.334189e-01 1.416109e+00 -9.382852e-01
<VARIANCE> 25
 2.970895e+01 6.743726e+00 5.093861e+01 2.792013e+01 1.376657e+01 2.024688e+01 5.172350e+01 1.371366e+01 3.286905e+01 2.273211e+01 2.165127e+01 4.054878e+01 1.762307e+00 1.698727e+00 2.736408e+00 7.437432e+00 1.354331e+00 2.880692e+00 3.672641e+00 4.065162e+00 6.238969e+00 4.850233e+00 3.877229e+00 8.191503e-01 2.740011e+00
<GCONST> 9.784320e+01
<STATE> 3
<MEAN> 25
 -8.187135e+00 -2.404255e+00 4.754475e+00 -5.507123e+00 -1.580828e+00 -3.263501e+00 2.502716e-01 4.264806e+00 -2.244662e+00 -8.569443e-02 2.449080e+00 3.305540e+00 1.000895e-01 -5.958886e-01 -5.335129e-02 1.447084e-01 -3.575847e-01 -6.175033e-01 4.529917e-01 1.169962e+00 2.398023e-01 2.210771e-01 -3.124380e-01 6.282274e-02 1.456713e-01
<VARIANCE> 25
 4.238796e+01 1.390896e+01 1.049813e+01 3.474339e+01 1.858639e+01 1.614384e+01 2.555560e+01 5.216822e+01 2.251607e+01 2.100990e+01 3.041816e+01 1.795042e+01 5.694376e+00 1.912550e+00 1.604896e+00 9.614753e+00 3.784245e+00 2.056702e+00 2.937398e+00 5.735364e+00 3.520679e+00 5.034288e+00 7.115759e+00 3.303699e+00 8.299932e+00
<GCONST> 1.017356e+02
<STATE> 4
<MEAN> 25
 -4.904264e+00 -1.166604e-01 -6.847054e-01 4.031386e-01 2.283518e+00 9.719797e-01 4.083251e+00 2.875324e+00 4.754948e+00 2.474312e+00 5.118108e+00 5.658422e+00 5.838663e-02 -2.449541e-02 -4.958690e-02 5.696331e-02 -1.203318e-01 3.870862e-01 5.800883e-02 -2.298054e-01 2.353188e-01 -1.430327e-01 1.575778e-01 3.361434e-02 -4.166969e-02
<VARIANCE> 25
 7.297275e+00 3.833823e+00 5.590628e+00 7.219576e+00 1.587350e+01 1.089430e+01 1.303364e+01 1.908294e+01 2.187558e+01 1.088125e+01 1.518979e+01 1.904080e+01 3.218446e-01 4.775977e-01 6.524206e-01 6.873488e-01 1.441340e+00 1.408158e+00 1.194188e+00 1.506606e+00 8.175882e-01 1.065660e+00 1.260943e+00 1.197733e+00 2.430913e-01
<GCONST> 7.226572e+01
<TRANSP> 5
 0.000000e+00 1.000000e+00 0.000000e+00 0.000000e+00 0.000000e+00
 0.000000e+00 8.458213e-01 1.541788e-01 0.000000e+00 0.000000e+00
 0.000000e+00 0.000000e+00 7.853861e-01 2.146139e-01 0.000000e+00
 0.000000e+00 0.000000e+00 0.000000e+00 9.005100e-01 9.948999e-02
 0.000000e+00 0.000000e+00 0.000000e+00 0.000000e+00 0.000000e+00
<ENDHMM>
~h "ay"
<BEGINHMM>
<NUMSTATES> 5
<STATE> 2
<MEAN> 25
 8.072309e+00 -1.711601e+00 4.703668e+00 3.166867e+00 -5.569143e+00 -6.396178e+00 -6.269079e+00 -6.774881e-01 -5.469726e+00 -3.631855e+00 -3.048348e+00 -2.499085e+00 8.643045e-01 -4.113327e-01 1.625074e-01 3.332945e-02 -8.266788e-01 -2.279164e-01 -5.126773e-01 1.113702e+00 -1.396252e-01 -5.527523e-01 -7.851272e-01 -4.807908e-01 9.015048e-01
<VARIANCE> 25
 3.149799e+01 4.185892e+01 6.494028e+01 3.034895e+01 6.142319e+01 2.676677e+01 3.653533e+01 7.116357e+01 6.073081e+01 2.889420e+01 2.267862e+01 2.786842e+01 2.773057e+00 2.818380e+00 6.734575e+00 2.105740e+00 2.452260e+00 4.100866e+00 3.554389e+00 8.459617e+00 7.570139e+00 2.863005e+00 1.916461e+00 2.042775e+00 1.651527e+00
<GCONST> 1.052669e+02
<STATE> 3
<MEAN> 25
 8.673047e+00 -5.515582e+00 -4.088951e-01 -1.991769e+00 -8.381139e+00 -3.609499e+00 -3.123744e+00 6.796369e+00 1.438679e+00 -3.346160e+00 -7.007352e+00 -9.566374e+00 -2.743608e-02 2.230164e-01 -8.694382e-02 -1.508884e-01 6.316764e-01 7.561091e-01 -3.122628e-03 -4.565605e-01 -1.319883e-01 3.131511e-01 -2.043211e-02 -4.152238e-01 -8.208344e-01
<VARIANCE> 25
 1.177912e+01 2.545024e+01 5.643716e+01 1.824327e+01 3.321003e+01 3.643402e+01 4.112845e+01 3.053282e+01 5.737046e+01 2.212067e+01 3.907947e+01 6.250403e+01 1.517467e+00 2.446789e+00 4.973616e+00 1.791556e+00 3.478320e+00 3.421118e+00 2.805072e+00 4.029742e+00 4.258556e+00 1.471484e+00 3.250850e+00 5.256891e+00 1.859701e+00
<GCONST> 1.014624e+02
<STATE> 4
<MEAN> 25
 1.082463e+01 -4.505029e+00 -1.125279e+00 -2.593414e+00 -4.015448e+00 7.892358e-01 -4.374074e+00 3.556828e+00 -4.094610e+00 -6.133398e+00 -2.577873e+00 -9.979330e+00 -5.193523e-02 2.887793e-01 5.181088e-01 -2.472420e-02 -1.640017e-01 -2.747146e-01 9.386376e-02 -3.172456e-01 -4.784260e-01 2.700423e-01 2.536856e-01 1.265097e-01 -2.866845e-01
<VARIANCE> 25
 6.209069e+00 2.100871e+01 9.083598e+01 1.580872e+01 9.103086e+01 5.364106e+01 3.442350e+01 3.636830e+01 6.775481e+01 2.729108e+01 2.600061e+01 2.531055e+01 3.328475e-01 8.776347e-01 1.584938e+00 1.694022e+00 2.356759e+00 1.964245e+00 1.853248e+00 2.075071e+00 1.873055e+00 1.357458e+00 1.620483e+00 1.999439e+00 2.552406e-01
<GCONST> 9.110487e+01
<TRANSP> 5
 0.000000e+00 1.000000e+00 0.000000e+00 0.000000e+00 0.000000e+00
 0.000000e+00 7.453163e-01 2.546837e-01 0.000000e+00 0.000000e+00
 0.000000e+00 0.000000e+00 7.530507e-01 2.469493e-01 0.000000e+00
 0.000000e+00 0.000000e+00 0.000000e+00 9.092280e-01 9.077203e-02
 0.000000e+00 0.000000e+00 0.000000e+00 0.000000e+00 0.000000e+00
<ENDHMM>
~h "ch"
<BEGINHMM>
<NUMSTATES> 5
<STATE> 2
<MEAN> 25
 -2.938668e+00 -2.331583e+00 -1.413940e+00 3.324924e+00 2.534931e+00 1.457574e+00 4.353326e+00 2.908957e+00 5.168466e+00 1.952590e+00 6.041247e-01 3.157167e+00 -2.703052e-01 -8.579054e-02 2.148601e-01 -3.861812e-01 6.566689e-02 2.652191e-01 -2.010523e-01 -3.965972e-01 2.633139e-01 1.430807e-01 2.375614e-01 -1.619311e-02 -6.106132e-02
<VARIANCE> 25
 3.492511e+00 5.966270e+00 1.136246e+01 7.554341e+00 1.026396e+01 1.328180e+01 1.129441e+01 1.903507e+01 8.860536e+00 1.754097e+01 1.475069e+01 1.542652e+01 6.784699e-01 9.117073e-01 7.474062e-01 1.670228e+00 1.348933e+00 2.400091e+00 1.477693e+00 1.204490e+00 1.112023e+00 2.423420e+00 1.255174e+00 1.951271e+00 1.766788e+00
<GCONST> 7.814436e+01
<STATE> 3
<MEAN> 25
 -9.081668e+00 -4.093903e+00 2.281415e+00 -2.979715e+00 1.052096e+00 7.112759e+00 -1.068946e+00 -4.753912e-01 6.348042e+00 -1.608560e+00 3.292935e+00 4.539742e+00 -3.712608e+00 7.783095e-01 1.868944e+00 -1.764437e+00 -1.060308e+00 1.045593e+00 -6.403972e-01 -2.101069e+00 8.079104e-01 -1.057898e+00 6.230456e-01 -8.313745e-02 2.633589e+00
<VARIANCE> 25
 3.327856e+01 2.541041e+01 1.574458e+01 1.981598e+01 2.262735e+01 2.026455e+01 3.969671e+01 3.328142e+01 1.617649e+01 1.815750e+01 1.024228e+01 3.203448e+00 2.724781e+00 2.836644e+00 1.319101e+00 1.475861e+00 2.192517e+00 2.995786e+00 5.093399e+00 2.248630e+00 1.232760e+00 2.563258e+00 9.983128e-01 1.539289e+00 3.698847e+00
<GCONST> 9.083759e+01
<STATE> 4
<MEAN> 25
 -1.721614e+01 8.698556e-01 9.736283e+00 -2.785962e+00 -5.417109e+00 1.640859e+00 5.896283e+00 -7.825786e+00 4.820341e+00 -2.719858e+00 2.282602e+00 -1.712080e+00 1.340497e+00 1.159529e-01 3.096472e-01 8.142483e-01 -7.354171e-01 -2.061905e+00 -7.048720e-02 -1.092527e-01 -1.085425e+00 -3.795253e-01 -5.232559e-01 -5.429933e-01 6.780000e-01
<VARIANCE> 25
 3.843962e+01 1.140291e+01 1.136410e+01 2.184841e+01 1.972424e+01 3.752145e+01 2.763501e+01 2.366496e+01 1.583703e+01 9.962581e+00 1.864320e+01 1.410710e+01 8.843255e+00 1.558780e+00 1.591634e+00 2.424603e+00 2.665175e+00 2.977455e+00 5.888340e+00 2.961222e+00 1.575022e+00 1.823440e+00 1.262763e+00 1.500541e+00 2.540047e+00
<GCONST> 9.279786e+01
<TRANSP> 5
 0.000000e+00 1.000000e+00 0.000000e+00 0.000000e+00 0.000000e+00
 0.000000e+00 8.650430e-01 1.349570e-01 0.000000e+00 0.000000e+00
 0.000000e+00 0.000000e+00 6.880451e-01 3.119549e-01 0.000000e+00
 0.000000e+00 0.000000e+00 0.000000e+00 8.805804e-01 1.194196e-01
 0.000000e+00 0.000000e+00 0.000000e+00 0.000000e+00 0.000000e+00
<ENDHMM>
~h "dh"
<BEGINHMM>
<NUMSTATES> 5
<STATE> 2
<MEAN> 25
 6.640100e+00 -2.177642e+00 2.897606e+00 1.076640e+01 -3.897343e+00 -1.177835e+01 -9.584291e+00 -2.635103e+00 -7.685541e-01 -4.232035e+00 -2.371203e+00 7.841740e-01 -3.164119e-01 5.948623e-01 -3.898654e-01 4.144918e-01 1.086875e+00 4.589930e-01 7.335222e-02 2.984449e-01 5.777811e-01 -6.691668e-01 -5.012903e-01 4.644011e-01 -8.891401e-01
<VARIANCE> 25
 1.147030e+01 2.725471e+01 1.984332e+01 1.266571e+01 4.113405e+01 6.812275e+01 1.936341e+01 6.648212e+01 5.693808e+01 5.055978e+01 1.231223e+01 4.605197e+01 8.327451e-01 1.144296e+00 1.143965e+00 1.739470e+00 1.259464e+00 2.732745e+00 1.573352e+00 1.082602e+00 1.142157e+00 1.585520e+00 9.730099e-01 1.544203e+00 2.175083e-01
<GCONST> 8.850649e+01
<STATE> 3
<MEAN> 25
 -1.970168e+00 2.854330e+00 3.377568e+00 8.616501e+00 4.740173e+00 1.207483e+00 2.235472e+00 3.938351e-01 6.155275e-01 -4.217332e+00 -4.903362e+00 -1.437380e+00 -1.367256e+00 -7.831253e-01 -3.267662e-01 -5.797938e-01 5.583026e-02 1.209195e+00 1.931174e+00 9.162364e-01 4.742100e-01 1.428188e+00 1.237498e+00 2.269977e-01 -8.316947e-01
<VARIANCE> 25
 7.577927e+00 6.425840e+00 6.350418e+00 6.764848e+00 4.002538e+00 1.167900e+01 2.164183e+01 3.011438e+01 2.206794e+01 1.483099e+01 1.397573e+01 1.566562e+01 4.292186e-01 8.860632e-01 1.283012e+00 1.403665e+00 6.480954e-01 1.846735e+00 1.934275e+00 2.118122e+00 2.325540e+00 1.262342e+00 1.327714e+00 3.817570e+00 2.734545e-01
<GCONST> 7.771161e+01
<STATE> 4
<MEAN> 25
 -7.189713e+00 -1.611679e+00 -1.183372e+00 3.534863e+00 2.963144e+00 3.392599e+00 5.705354e+00 3.313555e+00 4.356988e+00 3.303760e+00 4.615646e+00 5.454998e+00 -9.080070e-02 -2.501021e-02 -1.130798e-01 -4.791627e-02 -2.539517e-02 7.197376e-02 -5.608594e-03 -2.440776e-02 4.571990e-02 9.184925e-02 1.772420e-01 1.351288e-02 -1.090736e-02
<VARIANCE> 25
 9.292476e-01 1.719473e+00 4.548865e+00 4.019961e+00 6.266440e+00 7.865468e+00 7.050713e+00 7.310472e+00 9.551724e+00 1.140745e+01 8.430260e+00 8.652819e+00 1.046925e-01 1.841175e-01 5.176838e-01 6.241702e-01 6.981479e-01 6.253156e-01 9.199378e-01 8.913860e-01 9.173384e-01 1.230922e+00 9.137558e-01 1.184901e+00 4.160567e-02
<GCONST> 5.705809e+01
<TRANSP> 5
 0.000000e+00 1.000000e+00 0.000000e+00 0.000000e+00 0.000000e+00
 0.000000e+00 8.891355e-01 1.108646e-01 0.000000e+00 0.000000e+00
 0.000000e+00 0.000000e+00 8.132392e-01 1.867609e-01 0.000000e+00
 0.000000e+00 0.000000e+00 0.000000e+00 9.670055e-01 3.299451e-02
 0.000000e+00 0.000000e+00 0.000000e+00 0.000000e+00 0.000000e+00
<ENDHMM>
~h "eh"
<BEGINHMM>
<NUMSTATES> 5
<STATE> 2
<MEAN> 25
 5.863647e+00 -5.101076e+00 2.689432e+00 -2.816594e+00 -8.557199e+00 -6.334289e+00 1.363618e+00 6.441296e+00 -3.265188e+00 -1.045262e+00 -3.566458e+00 -5.843151e+00 8.093420e-01 -7.819307e-01 -6.460640e-02 -3.723201e-01 -4.287940e-01 -4.602036e-01 -5.122374e-01 4.648576e-01 -2.554896e-01 -2.489837e-01 -3.406494e-01 -1.037178e+00 9.709566e-01
<VARIANCE> 25
 1.768219e+01 1.769491e+01 2.885339e+01 1.757570e+01 3.649395e+01 3.491306e+01 5.738684e+01 2.078279e+01 2.360329e+01 2.286580e+01 1.710666e+01 3.160418e+01 1.745600e+00 2.360818e+00 2.415658e+00 1.601725e+00 3.535985e+00 2.731347e+00 3.892689e+00 2.696313e+00 2.866767e+00 2.196411e+00 1.929960e+00 3.646070e+00 2.003187e+00
<GCONST> 9.661307e+01
<STATE> 3
<MEAN> 25
 7.649266e+00 -3.931252e+00 2.120614e+00 -3.429967e+00 -6.042060e+00 -5.644760e+00 -4.747446e+00 2.735832e+00 -4.064274e+00 -2.218149e+00 -4.514646e+00 -8.910105e+00 -1.204575e-01 7.594338e-01 -2.597560e-02 7.685676e-01 9.747037e-01 4.245693e-01 -7.752773e-02 -6.614184e-01 -1.976692e-01 -1.588522e-01 -3.442171e-01 4.039809e-01 -1.228154e+00
<VARIANCE> 25
 1.388670e+01 2.603816e+01 3.993582e+01 2.253117e+01 3.081813e+01 3.172048e+01 3.561305e+01 4.186920e+01 5.202390e+01 3.578466e+01 3.104990e+01 2.909617e+01 9.509820e-01 1.557516e+00 1.602273e+00 2.371238e+00 2.392289e+00 1.922349e+00 1.745391e+00 2.420970e+00 2.222002e+00 2.186492e+00 2.235430e+00 2.135427e+00 2.813334e+00
<GCONST> 9.604014e+01
<STATE> 4
<MEAN> 25
 5.114527e+00 8.346878e-01 1.836980e+00 1.982687e+00 -1.616051e+00 -3.931023e+00 -3.609621e+00 -3.392728e-01 -4.223765e+00 -3.079517e+00 -5.366030e+00 -6.163224e+00 -3.806531e-01 3.591125e-01 5.394802e-01 4.363245e-01 4.286069e-01 7.386742e-01 -1.239690e-01 -1.885205e+00 -4.310439e-01 6.391366e-01 1.245812e-01 4.407185e-01 -7.761784e-01
<VARIANCE> 25
 2.233576e+01 2.279438e+01 3.943611e+01 2.896194e+01 3.945879e+01 4.525872e+01 2.358496e+01 3.035422e+01 2.434208e+01 3.319827e+01 2.988328e+01 3.320501e+01 3.736310e+00 3.198298e+00 3.059578e+00 5.151607e+00 4.640587e+00 4.793070e+00 2.968935e+00 6.964982e+00 4.789226e+00 4.974700e+00 1.672685e+00 1.873805e+00 3.297157e+00
<GCONST> 1.037518e+02
<TRANSP> 5
 0.000000e+00 1.000000e+00 0.000000e+00 0.000000e+00 0.000000e+00
 0.000000e+00 8.182296e-01 1.817704e-01 0.000000e+00 0.000000e+00
 0.000000e+00 0.000000e+00 8.208092e-01 1.791908e-01 0.000000e+00
 0.000000e+00 0.000000e+00 0.000000e+00 4.063078e-01 5.936922e-01
 0.000000e+00 0.000000e+00 0.000000e+00 0.000000e+00 0.000000e+00
<ENDHMM>
~h "er"
<BEGINHMM>
<NUMSTATES> 5
<STATE> 2
<MEAN> 25
 1.258677e+01 -2.954113e+00 -7.032812e+00 2.748271e+00 2.691330e+00 -1.478094e+01 -1.559639e+01 6.771147e-01 2.745622e+00 -8.793145e+00 -2.692620e+00 3.786764e+00 3.663806e-01 -2.282878e-01 -2.891563e-01 9.364403e-02 8.296897e-02 -4.080692e-01 -7.095995e-01 4.659221e-01 3.760521e-01 -1.819200e-02 -2.334751e-01 1.747667e-01 -1.126668e-01
<VARIANCE> 25
 2.620791e+01 1.297497e+01 3.548254e+01 2.481128e+01 3.565792e+01 5.828341e+01 6.880318e+01 3.389824e+01 3.754177e+01 1.870895e+01 2.862360e+01 1.578182e+01 2.041940e+00 8.508807e-01 2.699511e+00 1.249361e+00 2.924212e+00 2.578998e+00 5.554175e+00 2.285196e+00 2.239839e+00 1.388909e+00 1.507843e+00 1.379638e+00 5.841662e-01
<GCONST> 9.427721e+01
<STATE> 3
<MEAN> 25
 3.330045e+00 -6.888747e-01 -9.057556e-01 3.967677e+00 -2.596440e-01 -1.071872e+01 -5.363048e+00 8.793309e-01 2.212039e+00 -4.479215e+00 -2.242696e+00 1.095180e+00 -1.622778e+00 1.118189e-01 4.816250e-01 -2.453267e-01 9.311162e-02 2.029075e+00 2.130330e+00 -1.568248e-01 -4.230378e-02 1.031203e+00 3.621111e-01 -7.253132e-01 -5.938846e-01
<VARIANCE> 25
 5.244240e+01 2.411351e+01 3.095368e+01 1.806007e+01 2.956100e+01 6.553541e+01 9.057059e+01 4.126259e+01 1.624960e+01 3.815305e+01 3.641122e+01 5.144434e+01 3.263011e+00 1.538221e+00 1.692661e+00 1.915969e+00 3.377571e+00 4.276736e+00 5.128053e+00 3.560302e+00 1.886053e+00 2.741800e+00 2.875967e+00 2.184054e+00 1.298542e+00
<GCONST> 1.012824e+02
<STATE> 4
<MEAN> 25
 -6.207682e-01 -1.335874e+00 -1.924789e+00 2.461226e+00 3.514949e+00 1.143967e+00 2.425370e+00 1.795893e+00 1.860210e+00 2.711892e+00 -3.887679e-01 -9.344195e-01 -1.446491e-01 2.846587e-01 3.662437e-01 -2.673799e-01 1.109630e-01 1.915414e-01 -4.199129e-03 -6.594715e-01 -3.810975e-01 3.794198e-01 3.258037e-02 -4.022333e-01 1.507619e-01
<VARIANCE> 25
 2.678261e+01 1.889380e+01 4.579337e+01 1.944869e+01 2.065100e+01 4.417410e+01 2.987074e+01 2.748421e+01 5.396448e+01 2.422372e+01 3.186753e+01 3.692717e+01 1.930122e+00 7.753792e-01 8.547285e-01 1.103557e+00 1.186402e+00 2.483740e+00 2.845308e+00 1.580842e+00 1.458090e+00 2.267663e+00 2.640394e+00 1.902892e+00 6.748630e-01
<GCONST> 9.208403e+01
<TRANSP> 5
 0.000000e+00 1.000000e+00 0.000000e+00 0.000000e+00 0.000000e+00
 0.000000e+00 9.081695e-01 9.183045e-02 0.000000e+00 0.000000e+00
 0.000000e+00 0.000000e+00 7.977055e-01 2.022946e-01 0.000000e+00
 0.000000e+00 0.000000e+00 0.000000e+00 8.095214e-01 1.904786e-01
 0.000000e+00 0.000000e+00 0.000000e+00 0.000000e+00 0.000000e+00
<ENDHMM>
~h "ey"
<BEGINHMM>
<NUMSTATES> 5
<STATE> 2
<MEAN> 25
 2.423719e+00 6.065667e-03 1.155380e+01 -5.659404e+00 -1.219328e+01 -2.174978e+00 -5.180779e+00 1.986411e-02 -8.064636e+00 2.591862e+00 -2.173053e-01 -3.423421e+00 2.125765e-01 3.485301e-01 1.418817e+00 -7.827178e-01 -1.035671e+00 5.388403e-01 -9.999421e-01 -8.007671e-01 -1.130641e+00 2.010168e-01 -3.468476e-01 -7.251436e-01 9.594537e-01
<VARIANCE> 25
 1.445139e+01 2.464335e+01 3.700688e+01 2.106086e+01 9.114957e+01 3.115176e+01 7.238737e+01 2.983018e+01 5.536390e+01 1.812321e+01 2.451318e+01 1.752407e+01 1.266684e+00 1.578446e+00 3.199150e+00 1.974792e+00 5.330300e+00 2.579928e+00 4.447120e+00 2.774085e+00 4.717364e+00 1.549192e+00 2.286523e+00 1.935164e+00 4.115872e+00
<GCONST> 9.964458e+01
<STATE> 3
<MEAN> 25
 2.706148e+00 2.503558e+00 1.739751e+01 -9.237843e+00 -1.401274e+01 5.906757e+00 -9.379735e+00 -6.024788e+00 -1.211796e+01 2.005342e+00 -3.868274e+00 -7.667552e+00 3.445728e-02 3.178556e-01 4.149219e-02 4.408573e-01 5.799894e-01 1.659640e-02 1.325010e-01 -4.402649e-01 1.252721e-01 -6.113815e-01 1.923262e-02 -3.463960e-01 -7.082828e-01
<VARIANCE> 25
 3.437385e+00 7.634235e+00 1.963885e+01 1.446403e+01 1.288229e+01 3.091338e+01 2.433762e+01 1.898147e+01 1.331450e+01 1.448400e+01 1.428469e+01 2.070309e+01 1.798283e-01 4.381664e-01 9.842274e-01 1.335126e+00 9.830840e-01 1.109128e+00 1.088143e+00 8.714613e-01 9.740632e-01 1.099379e+00 7.654612e-01 5.127254e-01 7.618384e-01
<GCONST> 7.456413e+01
<STATE> 4
<MEAN> 25
 1.241691e+00 2.215728e+00 1.066147e+01 2.065808e+00 -4.263417e+00 -3.415333e-01 -2.690960e+00 -4.271134e+00 -6.905650e+00 -3.749540e+00 -1.675521e+00 -5.914698e+00 -1.084033e+00 -1.331697e-01 -2.404560e+00 1.813604e+00 2.311086e+00 -5.781176e-01 1.529914e+00 8.546888e-01 2.235499e+00 -3.134012e-01 2.072882e-01 1.592462e+00 -1.438825e+00
<VARIANCE> 25
 1.547675e+01 1.815471e+01 4.200479e+01 2.935249e+01 7.916312e+01 2.609776e+01 3.163974e+01 2.362516e+01 4.506726e+01 2.073535e+01 2.953040e+01 2.121099e+01 3.840585e+00 1.934894e+00 2.290699e+00 4.669888e+00 4.545542e+00 3.138831e+00 3.093529e+00 2.895242e+00 2.999537e+00 3.668396e+00 3.419294e+00 1.263819e+00 1.342100e+00
<GCONST> 9.961445e+01
<TRANSP> 5
 0.000000e+00 1.000000e+00 0.000000e+00 0.000000e+00 0.000000e+00
 0.000000e+00 8.567067e-01 1.432933e-01 0.000000e+00 0.000000e+00
 0.000000e+00 0.000000e+00 8.792458e-01 1.207542e-01 0.000000e+00
 0.000000e+00 0.000000e+00 0.000000e+00 6.911305e-01 3.088695e-01
 0.000000e+00 0.000000e+00 0.000000e+00 0.000000e+00 0.000000e+00
<ENDHMM>
~h "hh"
<BEGINHMM>
<NUMSTATES> 5
<STATE> 2
<MEAN> 25
 -3.588548e+00 -2.562275e+00 -1.038337e+00 2.969000e+00 3.550254e+00 3.499323e+00 2.151965e+00 -1.563942e+00 3.392215e+00 1.486309e+00 3.297129e+00 4.048191e+00 -2.358419e-01 -3.054295e-01 -3.262057e-02 7.244694e-02 -3.368387e-01 9.503896e-01 9.162138e-01 -4.114023e-01 -5.625833e-01 -5.369499e-01 3.675435e-01 1.741420e-01 3.179863e-01
<VARIANCE> 25
 2.962161e+01 1.533097e+01 4.191668e+01 1.203424e+01 3.534444e+01 2.466115e+01 1.630912e+01 4.349432e+01 2.362313e+01 2.262183e+01 9.201466e+00 2.532583e+01 1.800543e-01 4.274967e-01 1.126825e+00 7.146577e-01 1.349328e+00 1.253223e+00 2.834780e+00 2.315788e+00 2.126420e+00 2.074369e+00 1.693861e+00 1.544041e+00 7.311617e-01
<GCONST> 8.511436e+01
<STATE> 3
<MEAN> 25
 -3.828341e+00 -3.095393e+00 -1.855032e+00 3.583305e+00 3.180729e+00 3.824744e+00 3.501808e+00 5.961472e-01 2.830399e+00 1.015125e-01 2.067259e+00 2.984902e+00 1.044253e-01 -1.212121e-01 -1.271049e-01 -2.795459e-01 -1.746771e-01 3.429436e-01 7.845030e-01 2.780469e-02 -2.925489e-01 4.485534e-02 -1.446690e-01 -4.498916e-01 -1.276926e-01
<VARIANCE> 25
 1.541193e+01 2.628090e+01 3.435167e+01 6.845409e+00 3.704832e+01 2.775441e+01 8.902197e+00 2.948492e+01 1.945985e+01 1.603089e+01 2.761497e+01 3.388348e+01 1.888274e-01 6.247236e-01 7.460825e-01 6.952829e-01 1.127574e+00 1.508651e+00 1.406003e+00 9.006804e-01 1.273980e+00 2.063250e+00 7.233896e-01 7.098512e-01 2.052650e-01
<GCONST> 7.919128e+01
<STATE> 4
<MEAN> 25
 -4.932738e+00 -3.901222e-01 -2.814498e-01 2.989385e+00 2.124931e+00 2.402321e+00 3.476049e+00 1.300125e+00 4.338828e+00 1.738659e+00 2.841042e+00 4.121961e+00 8.053455e-02 5.090073e-03 -6.797823e-02 -6.528345e-02 -8.307029e-02 -5.743641e-02 9.920058e-02 4.060974e-02 -8.440782e-02 -4.320594e-02 -1.045446e-01 -8.606356e-02 4.561346e-02
<VARIANCE> 25
 5.790311e+00 3.117517e+00 5.753808e+00 6.089680e+00 7.714254e+00 9.730424e+00 1.232642e+01 1.564678e+01 9.917017e+00 1.262640e+01 1.280456e+01 1.296206e+01 4.721497e-01 4.214184e-01 6.387919e-01 6.470266e-01 8.281273e-01 1.205803e+00 1.419330e+00 1.615978e+00 1.278700e+00 1.544130e+00 1.573903e+00 1.268891e+00 3.153257e-01
<GCONST> 7.046722e+01
<TRANSP> 5
 0.000000e+00 1.000000e+00 0.000000e+00 0.000000e+00 0.000000e+00
 0.000000e+00 1.982603e-01 8.017398e-01 0.000000e+00 0.000000e+00
 0.000000e+00 0.000000e+00 2.592500e-01 7.407500e-01 0.000000e+00
 0.000000e+00 0.000000e+00 0.000000e+00 9.544771e-01 4.552289e-02
 0.000000e+00 0.000000e+00 0.000000e+00 0.000000e+00 0.000000e+00
<ENDHMM>
~h "ih"
<BEGINHMM>
<NUMSTATES> 5
<STATE> 2
<MEAN> 25
 4.377441e+00 2.000955e-01 4.773092e+00 1.825599e-01 -7.614004e+00 -3.148292e+00 -5.606796e-01 -9.681296e-01 -7.983327e+00 -1.917916e+00 -1.909293e+00 -7.014491e+00 -8.598670e-01 2.032013e-01 -5.605251e-01 7.892992e-01 1.310259e+00 1.053833e+00 8.616006e-01 -4.466136e-01 1.246233e+00 2.497449e-01 7.415979e-02 3.341423e-01 -1.766273e+00
<VARIANCE> 25
 2.468096e+01 3.051811e+01 3.678667e+01 5.117100e+01 6.787164e+01 9.000287e+01 5.037269e+01 5.997421e+01 7.651374e+01 3.131439e+01 3.511610e+01 3.555989e+01 1.668971e+00 2.267926e+00 3.277234e+00 3.581971e+00 3.926362e+00 6.191425e+00 2.392346e+00 4.547401e+00 7.002700e+00 2.973990e+00 2.378227e+00 2.536830e+00 3.394931e+00
<GCONST> 1.071813e+02
<STATE> 3
<MEAN> 25
 -5.696802e+00 -1.370717e+00 -2.501628e-01 3.553235e+00 1.913084e+00 1.083362e+00 3.462549e+00 2.187528e+00 3.776164e+00 1.916578e+00 1.919693e+00 1.737945e+00 -5.622970e-01 -8.089155e-01 -6.228949e-01 -4.657810e-01 1.547864e-01 3.985488e-01 3.415019e-01 4.678805e-01 1.007059e+00 7.311505e-01 5.882230e-01 8.659485e-01 -4.582495e-01
<VARIANCE> 25
 2.003731e+01 1.763235e+01 1.749614e+01 3.318039e+01 2.075513e+01 2.221424e+01 2.313444e+01 4.224633e+01 2.997887e+01 2.365137e+01 2.338708e+01 3.247764e+01 1.733506e+00 2.138703e+00 2.465776e+00 3.582182e+00 2.490990e+00 3.269476e+00 2.749951e+00 3.397008e+00 3.838166e+00 2.866080e+00 2.858735e+00 2.789062e+00 2.154167e+00
<GCONST> 9.745525e+01
<STATE> 4
<MEAN> 25
 -4.818590e+00 -1.657234e+00 -2.016637e+00 2.811049e+00 3.798666e+00 3.160742e+00 5.009738e+00 2.866284e+00 5.441509e+00 2.293585e+00 3.116518e+00 4.450968e+00 -1.958986e-02 -5.171153e-02 -9.218484e-03 -3.655942e-02 5.563914e-02 8.258685e-02 -3.905311e-03 -4.033644e-03 1.218263e-02 5.714623e-02 3.778523e-02 5.104594e-02 -4.153173e-02
<VARIANCE> 25
 6.316720e+00 4.296860e+00 7.067453e+00 6.864984e+00 7.418391e+00 1.101938e+01 1.098895e+01 1.419193e+01 1.462221e+01 1.156739e+01 1.274159e+01 1.065667e+01 2.296588e-01 3.904685e-01 5.280243e-01 6.385362e-01 6.513690e-01 9.260257e-01 1.012875e+00 1.220862e+00 1.183577e+00 1.268746e+00 1.141760e+00 9.265578e-01 1.060220e-01
<GCONST> 6.705173e+01
<TRANSP> 5
 0.000000e+00 1.000000e+00 0.000000e+00 0.000000e+00 0.000000e+00
 0.000000e+00 7.820070e-01 2.179931e-01 0.000000e+00 0.000000e+00
 0.000000e+00 0.000000e+00 7.105135e-01 2.894865e-01 0.000000e+00
 0.000000e+00 0.000000e+00 0.000000e+00 9.071992e-01 9.280072e-02
 0.000000e+00 0.000000e+00 0.000000e+00 0.000000e+00 0.000000e+00
<ENDHMM>
~h "iy"
<BEGINHMM>
<NUMSTATES> 5
<STATE> 2
<MEAN> 25
 1.792530e+00 4.152330e+00 2.274270e+01 -4.841927e+00 -1.193940e+01 1.949918e+00 -1.372006e+01 -6.542871e+00 -1.312615e+01 -3.957964e+00 1.077403e-01 -7.842029e+00 1.028481e-01 1.260839e-01 4.006007e-02 2.494992e-02 -1.128357e-01 1.368116e-01 -1.578694e-01 -6.689887e-02 -9.058548e-02 1.778737e-02 2.669241e-02 -1.768507e-01 -1.255606e-01
<VARIANCE> 25
 4.507412e+00 7.800008e+00 1.051416e+01 1.550696e+01 1.373506e+01 1.983427e+01 1.605642e+01 9.771673e+00 1.490661e+01 1.407572e+01 9.150840e+00 1.057530e+01 3.287708e-01 5.716521e-01 9.041262e-01 1.072458e+00 1.146153e+00 1.404865e+00 1.052440e+00 5.993887e-01 7.634324e-01 7.175841e-01 6.132292e-01 6.832373e-01 1.400965e-01
<GCONST> 7.005840e+01
<STATE> 3
<MEAN> 25
 3.382680e+00 5.154997e+00 1.689524e+01 1.317791e+00 -1.078789e+01 -3.588801e+00 -7.107656e+00 -7.592554e+00 -1.250845e+01 -3.440312e+00 -4.331735e-01 -5.435685e+00 -2.189755e-02 -2.562258e-01 -1.442152e+00 1.609581e+00 9.231334e-01 -5.348305e-01 9.753360e-01 4.800109e-01 1.144292e+00 -1.818121e-01 -3.436707e-02 9.445048e-01 -8.770363e-01
<VARIANCE> 25
 9.780478e+00 2.680706e+01 2.197182e+01 2.658575e+01 2.793559e+01 3.005299e+01 2.063223e+01 2.399421e+01 3.330253e+01 1.539782e+01 2.204008e+01 2.250013e+01 1.219972e+00 2.124374e+00 2.667238e+00 1.194887e+00 4.356462e+00 2.582880e+00 3.375452e+00 2.175832e+00 4.086979e+00 2.087221e+00 2.116059e+00 2.251639e+00 8.704293e-01
<GCONST> 9.336188e+01
<STATE> 4
<MEAN> 25
 -8.961152e-01 2.249808e+00 5.536064e+00 7.340798e+00 -1.329223e+00 -1.917316e+00 -7.527473e-01 -1.640880e-01 -1.295032e+00 -3.035909e+00 -7.199125e-01 6.209967e-01 -1.240503e+00 -8.056558e-01 -2.480828e+00 4.352341e-01 1.888038e+00 4.250094e-01 1.141373e+00 1.674713e+00 2.464862e+00 1.304764e-01 -1.730134e-01 1.182763e+00 -8.025762e-01
<VARIANCE> 25
 3.700787e+01 1.795296e+01 3.255195e+01 1.981141e+01 4.339045e+01 4.915139e+01 2.688544e+01 3.129696e+01 4.394024e+01 2.802398e+01 1.795688e+01 1.549352e+01 3.019675e+00 2.494411e+00 2.663112e+00 1.513993e+00 3.758995e+00 4.928526e+00 3.838717e+00 2.614870e+00 3.742234e+00 2.934193e+00 3.263576e+00 1.618311e+00 1.694579e+00
<GCONST> 9.928619e+01
<TRANSP> 5
 0.000000e+00 1.000000e+00 0.000000e+00 0.000000e+00 0.000000e+00
 0.000000e+00 9.160873e-01 8.391266e-02 0.000000e+00 0.000000e+00
 0.000000e+00 0.000000e+00 7.505519e-01 2.494480e-01 0.000000e+00
 0.000000e+00 0.000000e+00 0.000000e+00 6.739466e-01 3.260534e-01
 0.000000e+00 0.000000e+00 0.000000e+00 0.000000e+00 0.000000e+00
<ENDHMM>
~h "jh"
<BEGINHMM>
<NUMSTATES> 5
<STATE> 2
<MEAN> 25
 1.908301e-01 -1.408290e+00 -3.045696e+00 1.341434e+00 -3.166342e+00 -1.849233e+00 5.951376e-01 -3.309473e+00 -2.071902e+00 9.328476e-01 3.442495e-01 -3.156229e-01 1.433146e+00 -1.566800e-01 4.975581e-01 -8.338087e-01 -1.904887e+00 -2.368715e+00 -1.608075e+00 -4.414068e-01 -1.717052e+00 -7.198469e-02 -5.362282e-01 -1.719402e+00 4.646488e+00
<VARIANCE> 25
 2.462163e+01 1.694897e+01 2.611975e+01 1.193730e+01 4.106469e+01 4.132713e+01 1.705330e+01 3.843416e+01 2.514336e+01 1.326952e+01 1.641030e+01 2.584361e+01 1.607473e+00 1.110329e+00 4.780148e+00 9.366360e-01 4.503474e+00 5.236513e+00 1.659791e+00 9.678232e+00 3.815542e+00 8.603538e-01 7.276198e-01 2.458775e-01 1.038803e+01
<GCONST> 9.332894e+01
<STATE> 3
<MEAN> 25
 1.241275e+01 -7.296546e+00 -3.343972e+00 -5.848643e+00 -3.223764e+00 -3.271945e+00 -8.755109e+00 -7.965598e-01 1.485070e+00 1.822234e+00 -3.094224e+00 -1.207665e+01 1.716803e-01 4.592836e-03 6.513550e-01 -6.439699e-02 -2.009215e-01 -6.053509e-01 -2.833620e-01 3.341593e-01 -3.279814e-01 -1.065900e-02 1.241656e-01 3.773978e-01 -2.063141e-01
<VARIANCE> 25
 4.615966e+00 3.180088e+01 1.293683e+01 1.419696e+01 1.700782e+01 4.433954e+01 1.709404e+01 5.451225e+01 1.196641e+01 1.828782e+01 1.506972e+01 2.063370e+01 7.998634e-01 5.926479e-01 3.166292e+00 2.032283e+00 2.992957e+00 5.103882e+00 9.104102e-01 5.069684e+00 4.014631e+00 1.667937e+00 2.921881e+00 3.122061e+00 3.223651e-01
<GCONST> 8.909083e+01
<STATE> 4
<MEAN> 25
 3.322794e+00 8.974971e-01 1.323297e+01 -6.909415e-01 -5.667687e+00 -5.641415e+00 -7.044454e+00 1.685497e+00 -1.216645e+01 -4.495392e+00 -8.732721e-01 -4.795771e+00 -9.601614e-01 5.171487e-01 4.643622e-01 1.377910e-01 7.302287e-01 1.191183e+00 1.687811e-01 -5.320650e-01 1.850689e-01 -5.118437e-01 5.385913e-02 1.836522e-01 -7.167312e-01
<VARIANCE> 25
 4.438085e+01 4.033670e+01 1.998987e+01 2.996307e+01 5.583731e+01 5.299579e+01 1.432518e+01 2.842622e+01 4.669296e+01 1.424527e+01 9.644603e+00 1.337666e+01 5.111654e+00 3.452850e+00 3.485794e+00 4.824549e+00 4.340650e+00 3.643466e+00 2.506691e+00 2.947240e+00 8.414041e+00 1.174950e+00 1.286329e+00 2.250393e+00 7.847508e+00
<GCONST> 1.010622e+02
<TRANSP> 5
 0.000000e+00 1.000000e+00 0.000000e+00 0.000000e+00 0.000000e+00
 0.000000e+00 7.506225e-01 2.493776e-01 0.000000e+00 0.000000e+00
 0.000000e+00 0.000000e+00 8.847840e-01 1.152160e-01 0.000000e+00
 0.000000e+00 0.000000e+00 0.000000e+00 9.191465e-01 8.085355e-02
 0.000000e+00 0.000000e+00 0.000000e+00 0.000000e+00 0.000000e+00
<ENDHMM>
~h "ng"
<BEGINHMM>
<NUMSTATES> 5
<STATE> 2
<MEAN> 25
 4.147155e+00 6.406571e-01 -9.077317e-01 6.501411e+00 3.088930e+00 6.861576e-01 2.758644e+00 -6.225606e+00 -2.252460e+00 1.306560e-01 -3.954715e+00 -4.328276e+00 -3.295816e-01 7.153469e-02 1.050541e-01 1.450713e-01 2.431585e-01 5.263993e-02 -2.452711e-02 -7.082681e-02 2.658270e-01 -9.052768e-03 -1.072463e-01 1.989136e-01 -4.301886e-01
<VARIANCE> 25
 1.521292e+01 1.950644e+01 3.502569e+01 1.620592e+01 1.739234e+01 1.562478e+01 1.396424e+01 3.089722e+01 3.248993e+01 1.073899e+01 1.696734e+01 1.485396e+01 3.047298e-01 4.522046e-01 7.247373e-01 5.646349e-01 7.423970e-01 8.702779e-01 7.055226e-01 1.085173e+00 1.091089e+00 6.865519e-01 9.152874e-01 8.642572e-01 1.766872e-01
<GCONST> 7.520165e+01
<STATE> 3
<MEAN> 25
 -2.567649e+00 -4.133812e-01 -7.093147e-01 5.373416e+00 5.409725e+00 1.299094e+00 3.296428e+00 -1.402636e+00 2.487284e+00 9.157181e-03 -1.939938e+00 3.342150e+00 -9.542353e-01 -9.290550e-01 -1.017737e+00 -8.016560e-01 4.530653e-02 1.745589e-01 9.792312e-01 1.558730e+00 1.518958e+00 8.478929e-01 1.390899e+00 1.473113e+00 -7.089293e-01
<VARIANCE> 25
 7.629129e+00 1.219133e+01 1.586035e+01 1.432624e+01 9.507757e+00 1.398131e+01 1.130135e+01 3.696654e+01 2.589308e+01 1.683558e+01 2.438535e+01 2.353238e+01 7.926423e-01 1.001658e+00 1.158386e+00 1.052768e+00 2.009320e+00 1.284899e+00 1.198088e+00 2.849968e+00 2.464464e+00 2.278308e+00 1.974231e+00 1.882875e+00 2.803306e-01
<GCONST> 8.317097e+01
<STATE> 4
<MEAN> 25
 -5.222772e+00 -3.054984e+00 -2.469595e+00 3.942858e+00 5.307976e+00 1.443413e+00 6.097850e+00 3.194759e+00 7.328073e+00 3.725433e+00 3.091508e+00 6.454980e+00 -2.080710e-02 1.555741e-03 -1.225563e-02 1.345298e-02 5.695347e-03 -1.846720e-02 -1.211973e-02 -8.831173e-05 2.393144e-02 5.096458e-02 6.776328e-02 7.885821e-03 -1.114034e-02
<VARIANCE> 25
 2.331793e+00 3.230604e+00 5.698161e+00 7.649912e+00 6.117887e+00 1.080272e+01 1.063955e+01 1.033135e+01 1.241655e+01 1.312490e+01 1.094737e+01 1.155994e+01 1.001427e-01 2.205251e-01 4.056318e-01 6.373996e-01 6.701331e-01 7.996240e-01 1.140054e+00 1.314361e+00 1.207765e+00 1.326167e+00 1.412271e+00 1.340892e+00 3.313707e-02
<GCONST> 6.288350e+01
<TRANSP> 5
 0.000000e+00 1.000000e+00 0.000000e+00 0.000000e+00 0.000000e+00
 0.000000e+00 8.787797e-01 1.212203e-01 0.000000e+00 0.000000e+00
 0.000000e+00 0.000000e+00 7.082789e-01 2.917211e-01 0.000000e+00
 0.000000e+00 0.000000e+00 0.000000e+00 9.588256e-01 4.117439e-02
 0.000000e+00 0.000000e+00 0.000000e+00 0.000000e+00 0.000000e+00
<ENDHMM>
~h "ow"
<BEGINHMM>
<NUMSTATES> 5
<STATE> 2
<MEAN> 25
 1.050355e+01 1.056123e-01 -7.374222e+00 -8.438840e+00 -3.741766e+00 6.798419e+00 -7.350924e+00 -4.329798e+00 -5.186080e+00 1.549271e+00 3.246105e+00 -2.956005e+00 2.115979e-01 4.059830e-01 -3.196322e-02 -3.231947e-01 -2.867823e-01 5.957555e-01 7.892495e-02 -2.838670e-01 -7.604604e-01 -3.242733e-01 1.664000e-01 1.384001e-01 6.242374e-02
<VARIANCE> 25
 1.327012e+01 9.963799e+00 1.376486e+01 2.454671e+01 2.582725e+01 3.537380e+01 3.348798e+01 2.074839e+01 3.450105e+01 5.048546e+01 2.097294e+01 2.541433e+01 8.362854e-01 6.072385e-01 6.564730e-01 1.539721e+00 1.056838e+00 1.397918e+00 1.125577e+00 1.207229e+00 1.112530e+00 1.314010e+00 1.140087e+00 2.276419e+00 9.488166e-01
<GCONST> 8.506727e+01
<STATE> 3
<MEAN> 25
 9.116268e+00 4.822550e+00 -3.809033e+00 -5.943124e+00 -7.451685e+00 3.654415e+00 -2.636325e+00 -1.774570e+00 -7.150568e+00 -4.852039e+00 -1.806280e+00 -1.295811e+00 -5.007674e-01 -5.057111e-02 4.396403e-01 6.406657e-01 3.487318e-01 -6.225640e-01 2.910119e-01 2.296425e-01 4.543335e-01 7.341656e-02 -3.746217e-01 -3.184449e-02 -5.251775e-01
<VARIANCE> 25
 1.919178e+01 1.471486e+01 1.068498e+01 2.490536e+01 2.087361e+01 2.374147e+01 2.177198e+01 3.255124e+01 2.849648e+01 3.042328e+01 5.635456e+01 3.864243e+01 8.980761e-01 9.485014e-01 5.743478e-01 1.386678e+00 1.448618e+00 1.145515e+00 1.266183e+00 1.795300e+00 2.438087e+00 2.619077e+00 1.980233e+00 1.480405e+00 3.242597e-01
<GCONST> 8.713737e+01
<STATE> 4
<MEAN> 25
 -3.523641e+00 -2.409423e+00 -1.124536e+00 1.082750e+00 2.377982e+00 2.904612e+00 3.348977e+00 2.079236e+00 3.895506e+00 2.621220e+00 1.931487e+00 3.117134e+00 -1.299885e-01 -1.280938e-01 5.935672e-02 1.129709e-01 1.384289e-01 5.296473e-02 1.214611e-01 2.331210e-02 6.743789e-02 2.412453e-02 -2.744653e-02 3.469101e-02 -8.930040e-02
<VARIANCE> 25
 1.242031e+01 8.180336e+00 5.605873e+00 6.553815e+00 1.045813e+01 1.207993e+01 1.467464e+01 1.168294e+01 1.953206e+01 1.511147e+01 1.665417e+01 1.652881e+01 2.595235e-01 4.016434e-01 5.928856e-01 7.317657e-01 1.042374e+00 1.275723e+00 1.376623e+00 1.376163e+00 1.582860e+00 1.753072e+00 1.707538e+00 1.336977e+00 1.402776e-01
<GCONST> 7.317005e+01
<TRANSP> 5
 0.000000e+00 1.000000e+00 0.000000e+00 0.000000e+00 0.000000e+00
 0.000000e+00 8.944199e-01 1.055801e-01 0.000000e+00 0.000000e+00
 0.000000e+00 0.000000e+00 9.186042e-01 8.139573e-02 0.000000e+00
 0.000000e+00 0.000000e+00 0.000000e+00 9.255140e-01 7.448595e-02
 0.000000e+00 0.000000e+00 0.000000e+00 0.000000e+00 0.000000e+00
<ENDHMM>
~h "oy"
<BEGINHMM>
<NUMSTATES> 5
<STATE> 2
<MEAN> 25
 1.167305e+01 -7.254779e+00 6.700430e+00 -3.386090e-01 -1.272126e+01 -6.841533e+00 -1.077995e+01 1.892381e+00 -9.239459e+00 -2.667951e+00 1.293561e+00 -8.266350e+00 -5.260314e-01 2.862029e-01 8.159859e-01 7.398696e-02 1.303172e-01 -6.452388e-01 4.812368e-01 -8.660689e-03 -3.973221e-01 -2.837856e-01 -1.402561e-01 3.265132e-01 -2.213201e-01
<VARIANCE> 25
 1.994828e+01 2.717135e+01 9.852078e+01 1.280893e+01 3.651927e+01 6.287208e+01 4.885431e+01 5.931846e+01 6.803185e+01 2.141823e+01 2.651822e+01 3.124280e+01 3.675805e+00 2.467463e+00 6.337111e+00 1.660430e+00 4.804145e+00 4.484630e+00 6.288447e+00 6.335422e+00 5.076606e+00 2.677046e+00 3.307563e+00 3.801947e+00 4.921665e-01
<GCONST> 1.048428e+02
<STATE> 3
<MEAN> 25
 -1.083604e+01 5.350408e+00 6.138768e-01 -6.392176e-01 1.749763e+00 -1.005371e+01 7.702358e+00 -1.785111e+00 -3.699866e+00 -4.609025e+00 -2.584856e-01 9.199660e-01 -2.843224e+00 3.282892e-01 -3.288620e+00 -1.389831e+00 1.984033e+00 1.602880e+00 5.091858e-01 6.489950e-01 2.682228e+00 4.054542e-01 8.493921e-01 9.675415e-01 -8.840667e-02
<VARIANCE> 25
 1.268327e+02 2.901449e+01 4.989463e+01 1.462865e+01 5.721772e+01 4.041026e+01 6.352338e+01 9.794199e+00 4.600884e+01 1.201526e+01 1.530965e+01 6.217917e+01 6.730580e+00 7.175069e-01 3.219295e+00 8.973225e-01 1.741436e+00 1.817004e+00 3.906843e+00 3.897009e+00 1.454197e+00 2.890359e+00 4.519162e+00 2.739976e+00 2.801011e-01
<GCONST> 9.729299e+01
<STATE> 4
<MEAN> 25
 -3.971060e+00 2.066993e+00 -3.557130e-01 -4.126409e+00 -2.111154e-01 -4.590505e+00 5.581131e-01 -1.257933e+00 -2.037789e+00 2.218570e-01 -1.665391e-01 -4.153984e+00 -1.119397e-01 1.259023e+00 -1.155130e+00 -1.444741e+00 2.154190e+00 1.172079e+00 -4.618975e-01 -1.878700e+00 9.159222e-01 1.326158e+00 -1.156040e+00 -1.291782e-01 -3.713185e-01
<VARIANCE> 25
 2.218083e+02 3.005011e+01 9.133324e+01 8.917641e+00 7.729764e+01 6.584763e+01 1.122542e+02 7.834445e+00 3.413033e+01 1.710131e+01 5.643807e+00 1.146355e+02 1.680836e-01 8.436600e-01 1.194433e+00 4.431879e+00 2.504996e+00 3.484282e+00 1.070350e+00 6.041706e+00 1.533367e+00 2.257179e+00 4.719044e-01 8.429435e-01 3.633809e-01
<GCONST> 9.266398e+01
<TRANSP> 5
 0.000000e+00 1.000000e+00 0.000000e+00 0.000000e+00 0.000000e+00
 0.000000e+00 9.372148e-01 6.278524e-02 0.000000e+00 0.000000e+00
 0.000000e+00 0.000000e+00 6.163669e-01 3.836331e-01 0.000000e+00
 0.000000e+00 0.000000e+00 0.000000e+00 6.273447e-04 9.993727e-01
 0.000000e+00 0.000000e+00 0.000000e+00 0.000000e+00 0.000000e+00
<ENDHMM>
~h "sh"
<BEGINHMM>
<NUMSTATES> 5
<STATE> 2
<MEAN> 25
 -1.953790e+01 -9.507822e-01 1.093129e+01 -2.148536e+00 -4.723771e+00 -4.194947e-01 5.658422e+00 -2.243051e+00 6.029975e+00 -2.919263e+00 3.765423e+00 2.295038e+00 -5.927714e-01 1.659977e-02 -2.657616e-01 -2.205055e-01 2.738181e-01 3.743632e-01 2.061108e-01 7.914782e-02 6.857876e-01 -1.148289e-02 2.188320e-01 4.846996e-01 -2.594332e-01
<VARIANCE> 25
 3.031976e+01 8.305090e+00 2.357946e+01 1.478175e+01 1.093709e+01 1.958091e+01 3.778708e+01 4.290671e+01 2.629184e+01 1.717879e+01 1.135913e+01 1.216190e+01 5.786547e+00 6.240013e-01 1.494392e+00 1.646343e+00 1.569165e+00 2.138485e+00 2.780030e+00 2.350144e+00 2.766195e+00 1.848388e+00 1.635323e+00 9.524629e-01 8.012432e-01
<GCONST> 8.825346e+01
<STATE> 3
<MEAN> 25
 -6.617284e+00 -2.234110e+00 -2.424097e+00 1.476873e+00 3.369899e+00 2.147557e+00 4.723326e+00 2.703017e+00 7.444856e+00 1.547138e+00 5.486424e+00 5.409300e+00 3.851472e-01 -2.226621e-01 -9.245142e-03 -4.137636e-02 1.244069e-01 3.669147e-01 4.228892e-02 4.167604e-01 -9.268194e-02 -7.450223e-03 -2.445979e-01 9.131747e-02 -2.945886e-01
<VARIANCE> 25
 2.894191e+01 1.515461e+00 2.537556e+01 1.174738e+01 1.820489e+01 1.402754e+01 6.478424e+00 1.040436e+01 9.607994e+00 1.548355e+01 6.693271e+00 1.422510e+01 4.563566e-01 3.732638e-01 7.746148e-01 9.350238e-01 1.436613e+00 1.815225e+00 1.101739e+00 1.513846e+00 9.976994e-01 1.283861e+00 3.833751e-01 9.896957e-01 5.166059e-01
<GCONST> 7.273276e+01
<STATE> 4
<MEAN> 25
 -1.551032e+01 -1.009300e+00 7.534239e+00 -3.428241e+00 -3.075876e+00 -3.303873e+00 5.905197e+00 -3.294571e+00 5.275083e+00 -4.911224e+00 3.668053e+00 2.640686e+00 1.636655e+00 1.127667e-01 1.872499e-01 4.037825e-02 -3.330177e-01 -4.642050e-01 -8.062434e-01 -9.369370e-01 -5.245074e-01 -3.132325e-01 -4.718015e-01 -7.506570e-01 2.872392e-01
<VARIANCE> 25
 6.004037e+01 1.403469e+01 1.877453e+01 2.231400e+01 2.319374e+01 6.963074e+01 2.905554e+01 5.801585e+01 2.905108e+01 2.675027e+01 1.882362e+01 1.193003e+01 1.290749e+01 1.819378e+00 3.010355e+00 1.103456e+00 2.831284e+00 2.720814e+00 3.492650e+00 6.999386e+00 5.088615e+00 2.601088e+00 7.817436e-01 1.522874e+00 1.681240e+00
<GCONST> 9.847977e+01
<TRANSP> 5
 0.000000e+00 1.000000e+00 0.000000e+00 0.000000e+00 0.000000e+00
 0.000000e+00 9.033197e-01 9.668039e-02 0.000000e+00 0.000000e+00
 0.000000e+00 0.000000e+00 7.641837e-01 2.358162e-01 0.000000e+00
 0.000000e+00 0.000000e+00 0.000000e+00 7.929958e-01 2.070042e-01
 0.000000e+00 0.000000e+00 0.000000e+00 0.000000e+00 0.000000e+00
<ENDHMM>
~h "sp"
<BEGINHMM>
<NUMSTATES> 3
<STATE> 2
~s "silst"
<TRANSP> 3
 0.000000e+00 5.006845e-01 4.993155e-01
 0.000000e+00 9.072055e-01 9.279446e-02
 0.000000e+00 0.000000e+00 0.000000e+00
<ENDHMM>
~h "th"
<BEGINHMM>
<NUMSTATES> 5
<STATE> 2
<MEAN> 25
 -6.789900e+00 -8.970702e-02 -2.631758e+00 2.054109e+00 5.508426e-02 1.821102e+00 1.138415e+00 -4.698928e-01 2.221174e+00 7.105583e-02 2.032329e-01 3.270311e+00 -1.208119e+00 -6.163110e-01 -3.913717e-01 -2.227472e-01 1.046451e-01 5.493453e-01 6.299213e-01 1.398270e-01 3.690312e-01 5.347061e-01 6.433838e-01 7.396687e-01 -6.386771e-01
<VARIANCE> 25
 1.059554e+01 1.398770e+01 1.250761e+01 6.133027e+00 1.062579e+01 1.578337e+01 1.252065e+01 1.208916e+01 1.695678e+01 1.161544e+01 1.071665e+01 1.529953e+01 1.563800e+00 1.528070e+00 1.639546e+00 4.944952e-01 8.769122e-01 1.264424e+00 1.512487e+00 8.433161e-01 1.912190e+00 2.023577e+00 1.079273e+00 2.027571e+00 4.769964e-01
<GCONST> 7.821404e+01
<STATE> 3
<MEAN> 25
 -5.731513e+00 -2.402416e+00 -2.945008e+00 9.952304e-01 9.534823e-01 1.093221e+00 1.942461e+00 2.124548e+00 4.840723e+00 1.998368e+00 2.191209e+00 3.417661e+00 1.530791e-01 4.854514e-03 4.249447e-02 -3.430611e-03 1.002865e-01 -7.481353e-02 -3.379161e-02 1.302898e-01 1.200550e-01 5.419419e-02 -4.550724e-02 -8.452070e-02 -1.901360e-01
<VARIANCE> 25
 1.235781e+01 3.275389e+00 7.591406e+00 7.189837e+00 9.929904e+00 1.002422e+01 1.144914e+01 1.390935e+01 1.230696e+01 1.412692e+01 1.507437e+01 9.776194e+00 3.152675e-01 2.369845e-01 4.303648e-01 3.636885e-01 7.115159e-01 9.698786e-01 1.169785e+00 1.426990e+00 1.444794e+00 1.610102e+00 1.383158e+00 8.263169e-01 8.751880e-01
<GCONST> 7.000687e+01
<STATE> 4
<MEAN> 25
 -4.676337e+00 -7.927862e-01 -3.483098e-01 1.794832e+00 4.231604e+00 4.087710e+00 4.277883e+00 1.875438e+00 4.633400e+00 3.210672e+00 2.264281e+00 3.675631e+00 -3.892993e-02 1.026837e-01 1.060459e-01 -1.551453e-02 1.007972e-01 3.311606e-02 5.291566e-02 -1.953790e-01 -1.554905e-01 -2.066969e-01 -6.389328e-02 -9.262041e-02 1.813973e-01
<VARIANCE> 25
 5.541945e+00 4.498438e+00 8.058233e+00 9.049180e+00 7.946530e+00 1.073250e+01 8.729267e+00 1.172053e+01 9.779332e+00 1.519474e+01 1.452202e+01 1.348547e+01 6.684000e-01 5.896466e-01 1.369843e+00 1.069621e+00 9.855421e-01 1.285161e+00 1.077536e+00 1.309126e+00 1.170089e+00 1.833077e+00 2.188253e+00 1.489848e+00 7.456434e-01
<GCONST> 7.448752e+01
<TRANSP> 5
 0.000000e+00 1.000000e+00 0.000000e+00 0.000000e+00 0.000000e+00
 0.000000e+00 7.079216e-01 2.920783e-01 0.000000e+00 0.000000e+00
 0.000000e+00 0.000000e+00 9.178820e-01 8.211800e-02 0.000000e+00
 0.000000e+00 0.000000e+00 0.000000e+00 9.070925e-01 9.290753e-02
 0.000000e+00 0.000000e+00 0.000000e+00 0.000000e+00 0.000000e+00
<ENDHMM>
~h "uh"
<BEGINHMM>
<NUMSTATES> 5
<STATE> 2
<MEAN> 25
 1.325222e+01 -3.762076e+00 -4.924526e+00 -1.344583e+00 -1.597348e+00 -6.873809e+00 -1.831325e+01 1.692278e+00 -4.193137e+00 -4.437500e+00 5.032496e+00 -1.393286e+00 -1.360502e-01 -5.473844e-01 1.022228e+00 2.389379e-02 -5.115180e-01 -7.887045e-01 1.143693e-01 9.775292e-01 -5.078154e-01 1.328867e-01 -1.814357e-01 -1.811781e-01 -1.293966e-01
<VARIANCE> 25
 1.581873e+01 4.189998e+01 2.531492e+01 4.111559e+01 6.849481e+01 1.581627e+02 7.182869e+01 8.216370e+01 4.667937e+01 4.890038e+01 2.658795e+01 2.415846e+01 2.459224e+00 1.164293e+00 2.727049e+00 4.100976e+00 6.970425e+00 3.196141e+00 6.687551e+00 3.846364e+00 7.787750e+00 1.521759e+00 2.395237e+00 4.504130e+00 2.662972e+00
<GCONST> 1.072105e+02
<STATE> 3
<MEAN> 25
 7.550527e+00 -5.574897e+00 9.459116e+00 -4.322041e+00 -1.429947e+01 -3.680273e+00 -5.181022e+00 3.826099e+00 -1.335044e+01 -1.603591e+00 3.176850e+00 -5.272897e+00 -7.596120e-01 1.243853e+00 4.641805e-01 2.291007e-01 -1.450105e-01 1.587827e+00 1.675303e+00 -2.117123e+00 -3.114145e-01 1.389087e+00 -1.860137e+00 -5.439365e-01 -1.274152e+00
<VARIANCE> 25
 1.586918e+01 4.336731e+01 6.231718e+01 3.861677e+01 6.073044e+01 5.625282e+01 4.826089e+01 4.444311e+01 4.928105e+01 6.051151e+01 3.434921e+01 5.324956e+01 9.396477e-01 3.004128e+00 2.347248e+00 6.477076e+00 7.374593e+00 4.912902e+00 4.268145e+00 5.380044e+00 5.495637e+00 6.240245e+00 3.856544e+00 2.881413e+00 4.043627e+00
<GCONST> 1.094092e+02
<STATE> 4
<MEAN> 25
 9.094500e+00 1.182073e+00 5.161644e+00 2.084394e+00 -7.606181e+00 -2.817431e+00 -3.231554e+00 -1.027170e+01 -9.000106e+00 2.194234e+00 -1.908254e+00 -4.754951e+00 -3.951789e-01 6.203706e-01 -2.086721e-01 5.631053e-01 1.094697e+00 -2.173780e-01 -5.780058e-02 3.524324e-02 8.711718e-01 -6.200266e-01 -4.387642e-01 6.715505e-01 -1.009448e+00
<VARIANCE> 25
 1.244922e+01 1.464021e+01 2.235875e+01 4.148038e+01 3.282221e+01 3.102637e+01 1.391605e+01 4.151230e+01 2.320494e+01 3.932372e+01 2.677858e+01 2.543435e+01 1.252772e+00 1.821192e+00 8.155292e-01 2.218261e+00 2.506846e+00 2.232290e+00 5.205778e-01 2.399065e+00 1.489537e+00 2.104612e+00 1.682971e+00 5.263445e-01 1.259228e+00
<GCONST> 8.922349e+01
<TRANSP> 5
 0.000000e+00 1.000000e+00 0.000000e+00 0.000000e+00 0.000000e+00
 0.000000e+00 8.558446e-01 1.441554e-01 0.000000e+00 0.000000e+00
 0.000000e+00 0.000000e+00 6.759230e-01 3.240770e-01 0.000000e+00
 0.000000e+00 0.000000e+00 0.000000e+00 7.602742e-01 2.397259e-01
 0.000000e+00 0.000000e+00 0.000000e+00 0.000000e+00 0.000000e+00
<ENDHMM>
~h "uw"
<BEGINHMM>
<NUMSTATES> 5
<STATE> 2
<MEAN> 25
 3.339886e+00 1.282395e+00 6.331808e+00 3.707297e+00 -3.015479e+00 -5.324181e+00 -8.265953e+00 -2.272012e+00 -7.160497e+00 -3.309508e+00 1.759778e+00 -6.681081e-01 -4.542911e-02 1.827424e-01 -2.551295e-01 4.764455e-02 3.132399e-01 2.205534e-01 1.068754e-01 -1.548494e-01 2.401930e-01 1.187913e-01 -4.733998e-02 -1.864819e-02 -1.939288e-01
<VARIANCE> 25
 2.435329e+01 2.484117e+01 3.969857e+01 1.390696e+01 3.946806e+01 4.084916e+01 4.018029e+01 5.022726e+01 5.444185e+01 2.488185e+01 2.600294e+01 1.655771e+01 1.321060e+00 1.151011e+00 1.646695e+00 8.544685e-01 1.816754e+00 2.879808e+00 2.689911e+00 3.383654e+00 2.847980e+00 2.184504e+00 2.354553e+00 1.633332e+00 1.543581e+00
<GCONST> 9.517034e+01
<STATE> 3
<MEAN> 25
 6.062512e+00 -5.422987e+00 -6.561663e+00 -3.872489e+00 1.008568e+00 6.436654e+00 -3.353359e+00 1.686756e+00 1.445451e+00 -2.837007e-01 -6.888558e+00 -1.071916e+01 -5.847973e-01 -1.984566e-01 -4.216839e-02 2.143035e-01 2.979978e-01 1.431991e-01 6.424136e-01 1.677568e-02 4.223182e-01 -6.629770e-02 1.308200e-01 5.975701e-01 -4.915614e-01
<VARIANCE> 25
 2.099698e+01 2.488182e+01 2.392145e+01 4.485660e+01 2.074781e+01 1.517691e+01 3.970191e+01 2.600941e+01 1.035473e+01 1.651659e+01 4.844427e+01 7.248692e+01 7.035527e-01 1.640190e+00 1.633623e+00 2.320908e+00 1.438500e+00 1.141265e+00 1.417069e+00 1.609092e+00 1.094506e+00 2.197310e+00 2.510305e+00 2.196047e+00 7.274118e-01
<GCONST> 9.024368e+01
<STATE> 4
<MEAN> 25
 -5.321800e+00 -1.246756e+00 -6.857746e-01 2.257193e+00 3.596491e+00 1.537480e+00 3.844326e+00 1.693535e+00 4.931231e+00 1.595373e+00 3.122683e+00 5.566613e+00 -1.632942e-01 -6.746037e-02 8.435251e-02 -7.803932e-03 -1.248851e-02 -7.465290e-02 9.587447e-02 1.188095e-01 1.070447e-01 1.057999e-01 1.175193e-01 9.052123e-02 -9.434585e-02
<VARIANCE> 25
 1.104674e+01 4.706080e+00 6.796005e+00 5.894842e+00 8.757666e+00 7.841705e+00 2.453849e+01 2.474563e+01 2.916630e+01 1.660574e+01 1.698826e+01 1.194105e+01 2.678826e-01 3.075131e-01 5.950949e-01 5.761595e-01 6.556572e-01 9.245797e-01 1.417317e+00 1.753391e+00 1.448781e+00 2.302605e+00 1.524933e+00 1.075768e+00 8.649119e-02
<GCONST> 7.181683e+01
<TRANSP> 5
 0.000000e+00 1.000000e+00 0.000000e+00 0.000000e+00 0.000000e+00
 0.000000e+00 9.153010e-01 8.469906e-02 0.000000e+00 0.000000e+00
 0.000000e+00 0.000000e+00 8.200296e-01 1.799704e-01 0.000000e+00
 0.000000e+00 0.000000e+00 0.000000e+00 9.208753e-01 7.912467e-02
 0.000000e+00 0.000000e+00 0.000000e+00 0.000000e+00 0.000000e+00
<ENDHMM>
~h "zh"
<BEGINHMM>
<NUMSTATES> 5
<STATE> 2
<MEAN> 25
 -5.390653e+00 6.571024e+00 1.667142e+01 -3.088165e+00 -6.719172e+00 1.372648e+00 -1.976560e+00 -9.664468e+00 -4.742495e+00 -4.729528e+00 9.625273e-01 -4.936561e+00 -1.707491e+00 2.162543e-01 -1.828565e-01 3.090763e-01 9.595975e-01 2.409046e-01 1.148288e+00 -3.304106e-01 1.474610e+00 -3.066813e-01 1.556211e-01 5.104835e-01 -6.660439e-02
<VARIANCE> 25
 5.174617e+01 3.916464e+00 1.117270e+01 1.586874e+01 2.439339e+01 5.781481e+01 5.845743e+01 1.216960e+01 4.729992e+01 2.497474e+01 1.429852e+01 2.058605e+01 2.312633e+00 9.068789e-01 9.440060e-01 1.178895e+00 1.673265e+00 2.991263e+00 3.359728e+00 2.081484e+00 2.702521e+00 1.740018e+00 1.091529e+00 1.369263e+00 1.181893e-01
<GCONST> 8.723170e+01
<STATE> 3
<MEAN> 25
 -5.808110e+00 -1.198443e+00 6.255402e+00 -2.715141e+00 -4.687029e+00 -4.581205e+00 2.856061e+00 -7.879980e-01 -3.705338e-01 -3.048914e+00 6.538135e-01 -1.806923e+00 1.392053e+00 -6.112013e-01 -1.086995e+00 3.085714e-02 -1.155106e-01 -8.119167e-01 -4.288066e-01 9.105292e-01 -4.508052e-01 1.800249e-01 -7.556875e-02 1.673181e-01 -2.528988e-01
<VARIANCE> 25
 1.558388e+02 3.766107e+01 6.450574e+01 1.526144e+01 3.730244e+01 5.004460e+01 1.140538e+02 7.791402e+01 5.823491e+01 2.036644e+01 2.289939e+01 3.960093e+01 7.647247e+00 2.334658e+00 1.518006e+00 1.264094e+00 2.944926e+00 5.275771e+00 5.998630e+00 3.412281e+00 5.379323e+00 2.867031e+00 1.712563e+00 2.610194e+00 1.293875e+00
<GCONST> 1.058160e+02
<STATE> 4
<MEAN> 25
 -4.393112e+00 -4.503388e-01 -7.419075e+00 2.288808e+00 5.410190e+00 2.608501e+00 5.072112e+00 3.705932e+00 7.288388e+00 2.992843e+00 4.116463e+00 5.143700e+00 1.713827e-01 -1.061486e-02 -1.302054e-01 8.657917e-02 9.115534e-02 -2.472147e-02 -1.339589e-01 9.066860e-02 -2.794194e-02 -5.092143e-02 -6.695118e-02 1.010164e-01 -6.426369e-02
<VARIANCE> 25
 9.011960e+00 2.537822e+00 1.445863e+01 5.588731e+00 1.574377e+01 3.338499e+01 1.379486e+01 1.511641e+01 2.572131e+01 2.865966e+01 1.247868e+01 1.229709e+01 1.253159e+00 2.831275e-01 5.876082e-01 6.352848e-01 5.840323e-01 1.776667e+00 2.647888e+00 1.603446e+00 1.685574e+00 2.267988e+00 1.305228e+00 1.551892e+00 2.499991e-01
<GCONST> 7.683150e+01
<TRANSP> 5
 0.000000e+00 1.000000e+00 0.000000e+00 0.000000e+00 0.000000e+00
