~o
<STREAMINFO> 1 25
<VECSIZE> 25<NULLD><MFCC_D_N_Z_0><DIAGC>
~s "silst"
<MEAN> 25
 -4.774814e+00 -1.342596e+00 -2.432457e+00 2.232196e+00 3.211737e+00 2.731157e+00 3.643259e+00 2.406155e+00 4.955097e+00 2.922776e+00 2.386919e+00 3.832083e+00 -2.426001e-02 6.957317e-02 2.159385e-03 4.213961e-02 -4.781980e-02 3.950949e-02 -6.545980e-02 -3.773049e-03 -9.188864e-02 -2.229761e-02 -1.647123e-02 -6.099445e-02 5.529470e-02
<VARIANCE> 25
 8.035244e+00 6.605033e+00 1.028420e+01 1.085242e+01 9.592234e+00 1.235125e+01 1.514254e+01 1.404820e+01 1.553934e+01 1.387781e+01 1.546981e+01 1.418251e+01 6.462359e-01 6.981336e-01 7.859491e-01 9.587903e-01 1.069913e+00 1.353284e+00 1.489226e+00 1.691940e+00 1.718834e+00 1.584859e+00 1.456385e+00 1.360160e+00 3.097114e-01
<GCONST> 7.626183e+01
~h "b"
<BEGINHMM>
<NUMSTATES> 5
<STATE> 2
<MEAN> 25
 3.380666e+00 6.976045e+00 5.929538e+00 7.683377e+00 5.688263e+00 1.404652e+00 5.078789e-02 -3.381504e+00 -2.311677e+00 -4.714847e+00 -3.967090e+00 -2.479626e+00 1.035072e-01 4.569404e-01 3.817629e-01 4.139299e-01 3.397954e-01 6.618093e-02 -1.407717e-01 -4.194668e-02 -1.451640e-01 -5.146851e-01 -3.611737e-01 -1.806054e-01 1.565896e-01
<VARIANCE> 25
 1.377066e+01 1.075322e+01 1.360616e+01 8.544930e+00 1.049260e+01 1.591145e+01 1.597068e+01 1.816940e+01 2.643701e+01 1.843344e+01 1.477527e+01 1.314071e+01 1.921784e+00 2.111217e+00 1.645062e+00 1.073600e+00 1.222814e+00 1.546916e+00 2.368053e+00 2.942076e+00 3.162163e+00 2.402265e+00 1.943334e+00 1.601332e+00 1.207940e+00
<GCONST> 8.584608e+01
<STATE> 3
<MEAN> 25
 1.603850e+00 4.316705e+00 2.841079e+00 4.803187e+00 4.658236e+00 1.221725e+00 3.728084e-01 -1.638505e+00 -2.467288e-01 -2.393721e+00 -1.731039e+00 -6.391333e-01 1.026526e+00 -9.341242e-01 -8.013626e-01 -2.335737e+00 -2.318080e+00 -8.514600e-01 -1.447381e+00 4.494629e-01 1.061616e-01 1.230306e+00 9.825919e-01 6.236664e-02 3.325325e+00
<VARIANCE> 25
 1.876431e+01 1.409067e+01 2.124817e+01 2.605812e+01 2.250387e+01 2.136765e+01 2.868340e+01 2.163466e+01 2.395746e+01 2.178291e+01 2.161844e+01 1.529065e+01 3.027199e+00 2.706131e+00 3.198416e+00 4.092283e+00 4.361128e+00 5.432009e+00 2.535876e+00 4.741220e+00 4.518688e+00 3.418242e+00 3.580325e+00 2.975571e+00 3.998255e+00
<GCONST> 9.932125e+01
<STATE> 4
<MEAN> 25
 8.637655e+00 1.530726e+00 9.946342e-01 -4.980647e+00 -5.889542e+00 -9.784392e-01 -7.048526e+00 -1.686041e-01 -3.475492e+00 -6.030413e-02 -1.322559e-01 -2.868595e+00 1.009471e+00 -1.462572e+00 -3.019480e-01 -2.247721e+00 -2.046914e+00 2.586184e-02 -1.214402e+00 1.080098e+00 -6.848873e-01 8.220233e-01 3.106578e-01 -5.380324e-01 2.457593e+00
<VARIANCE> 25
 3.231849e+01 2.861305e+01 4.326528e+01 6.446356e+01 6.672374e+01 1.015277e+02 4.590277e+01 3.306663e+01 4.918580e+01 3.269910e+01 3.372924e+01 2.942324e+01 2.233954e+00 3.168165e+00 4.684694e+00 8.132621e+00 7.171736e+00 8.599409e+00 3.661314e+00 5.141411e+00 7.313584e+00 4.586143e+00 4.168579e+00 3.578846e+00 5.286022e+00
<GCONST> 1.116735e+02
<TRANSP> 5
 0.000000e+00 1.000000e+00 0.000000e+00 0.000000e+00 0.000000e+00
 0.000000e+00 8.142675e-01 1.857325e-01 0.000000e+00 0.000000e+00
 0.000000e+00 0.000000e+00 6.290429e-01 3.709571e-01 0.000000e+00
 0.000000e+00 0.000000e+00 0.000000e+00 5.373893e-01 4.626107e-01
 0.000000e+00 0.000000e+00 0.000000e+00 0.000000e+00 0.000000e+00
<ENDHMM>
~h "d"
<BEGINHMM>
<NUMSTATES> 5
<STATE> 2
<MEAN> 25
 2.006494e+00 5.059199e+00 6.945856e+00 7.512885e+00 3.864445e+00 -1.927271e+00 -4.339388e-01 -2.088878e+00 -2.232789e+00 -3.484074e+00 -4.381811e+00 -1.866913e+00 4.026807e-02 5.000633e-01 1.469193e-01 4.615857e-01 5.179821e-01 3.657781e-02 7.183644e-02 -2.291607e-01 -1.371302e-01 -3.776565e-01 -4.153094e-01 3.338298e-02 2.480473e-01
<VARIANCE> 25
 1.747034e+01 2.058132e+01 2.096236e+01 2.216870e+01 3.171443e+01 3.296748e+01 2.085574e+01 2.638683e+01 2.208501e+01 2.926817e+01 1.980185e+01 1.663975e+01 2.619888e+00 1.879621e+00 3.136621e+00 3.377839e+00 3.794957e+00 3.776451e+00 2.473411e+00 3.043032e+00 3.283053e+00 2.821351e+00 3.031589e+00 1.392130e+00 3.514918e+00
<GCONST> 9.706342e+01
<STATE> 3
<MEAN> 25
 -8.498521e-01 1.492533e+00 5.231687e+00 9.919206e-01 -5.808767e-02 -3.716882e+00 -3.689250e-01 -1.659300e+00 -2.374073e+00 -1.343362e+00 -1.218770e+00 -8.656309e-01 3.132527e-01 -6.888431e-01 -1.263944e-01 -1.505904e+00 -2.478755e+00 -1.741220e+00 -7.268246e-01 6.363351e-01 -4.287478e-01 6.945554e-01 7.526241e-01 2.895071e-01 2.901158e+00
<VARIANCE> 25
 2.052116e+01 2.230043e+01 2.630195e+01 4.194197e+01 6.869111e+01 5.283146e+01 3.695990e+01 3.574157e+01 2.810594e+01 2.559990e+01 1.943861e+01 1.785249e+01 4.666308e+00 2.911558e+00 4.112009e+00 4.923011e+00 7.847812e+00 4.875232e+00 3.668028e+00 6.016887e+00 3.830328e+00 2.740095e+00 2.806982e+00 2.553647e+00 8.194277e+00
<GCONST> 1.056693e+02
<STATE> 4
<MEAN> 25
 2.343916e+00 -6.932697e-01 3.994954e+00 7.371331e-01 -5.384228e+00 -7.226592e+00 -3.225905e+00 1.291001e+00 -5.538788e-01 4.821821e-01 -2.139539e-01 5.662442e-01 4.253037e-01 -8.394554e-01 -1.006197e+00 -7.481381e-02 1.905452e-01 1.075275e+00 -1.236318e-01 9.079461e-01 8.128288e-01 7.136196e-01 4.790935e-01 -2.188942e-01 1.175105e-01
<VARIANCE> 25
 2.166606e+01 3.296301e+01 3.894519e+01 2.666245e+01 5.857278e+01 4.415487e+01 5.189809e+01 5.384601e+01 4.137056e+01 1.897664e+01 2.922067e+01 2.931983e+01 4.653494e+00 2.008497e+00 3.620875e+00 3.581282e+00 7.761134e+00 6.409498e+00 4.698184e+00 6.626635e+00 4.066085e+00 3.490023e+00 2.704323e+00 4.483215e+00 3.682333e+00
<GCONST> 1.072697e+02
<TRANSP> 5
 0.000000e+00 1.000000e+00 0.000000e+00 0.000000e+00 0.000000e+00
 0.000000e+00 6.873016e-01 3.126984e-01 0.000000e+00 0.000000e+00
 0.000000e+00 0.000000e+00 5.919511e-01 4.080489e-01 0.000000e+00
 0.000000e+00 0.000000e+00 0.000000e+00 3.531926e-01 6.468074e-01
 0.000000e+00 0.000000e+00 0.000000e+00 0.000000e+00 0.000000e+00
<ENDHMM>
~h "f"
<BEGINHMM>
<NUMSTATES> 5
<STATE> 2
<MEAN> 25
 -4.705343e+00 -3.370649e+00 -2.188583e+00 9.202898e-01 2.556626e+00 1.224092e+00 3.825328e+00 2.692563e+00 4.357345e+00 2.718723e+00 2.046856e+00 4.148992e+00 -8.971255e-02 4.067384e-02 -3.748382e-02 -2.294761e-02 -6.562461e-02 2.640120e-02 -6.986968e-02 -7.215586e-02 -1.150688e-02 4.379606e-02 -2.938541e-02 -5.175094e-02 7.103565e-03
<VARIANCE> 25
 8.797112e+00 5.127369e+00 6.256109e+00 9.938285e+00 9.906055e+00 1.254709e+01 1.335392e+01 1.271548e+01 1.230719e+01 1.573468e+01 1.360588e+01 1.673455e+01 3.422115e-01 3.119779e-01 4.731508e-01 7.440013e-01 7.631433e-01 1.098167e+00 1.262105e+00 1.429029e+00 1.199219e+00 1.467179e+00 1.307011e+00 1.431346e+00 1.624958e-01
<GCONST> 7.104335e+01
<STATE> 3
<MEAN> 25
 -8.587505e+00 1.802845e-02 -5.194359e+00 2.666454e+00 -9.632719e-02 1.836161e+00 5.157968e-01 7.241392e-01 2.741436e+00 2.196037e+00 -1.173413e-01 2.976794e+00 7.239956e-01 2.073463e-01 -7.835179e-02 -3.169626e-01 -2.354189e-01 2.081807e-01 -1.722046e-01 -2.736760e-01 -3.421298e-01 -2.139524e-01 -6.199637e-02 -1.847107e-01 4.837896e-01
<VARIANCE> 25
 2.301694e+01 1.216222e+01 1.209470e+01 2.260192e+01 1.166899e+01 1.644365e+01 1.419050e+01 1.411758e+01 1.766143e+01 1.512967e+01 1.101778e+01 1.313089e+01 4.626589e+00 1.412882e+00 1.325923e+00 2.428292e+00 1.578619e+00 1.894931e+00 1.773081e+00 1.391980e+00 2.046548e+00 1.752373e+00 1.405402e+00 1.436975e+00 2.935132e+00
<GCONST> 8.641437e+01
<STATE> 4
<MEAN> 25
 1.175294e+01 -5.534422e+00 -8.529353e+00 -1.388533e+01 -2.910869e+00 1.002846e+01 3.898404e-01 -6.508182e+00 1.952482e+00 -3.095011e+00 1.745217e+00 -9.593196e+00 7.531524e-01 -3.880973e-01 -1.262995e-01 -4.635617e-01 -2.785520e-01 6.920426e-02 -2.166090e-01 1.210003e-01 -3.049866e-02 -3.638969e-01 -7.378535e-02 -5.785062e-01 3.056108e-01
<VARIANCE> 25
 4.319390e+01 3.704224e+01 1.329410e+01 5.213357e+01 2.120944e+01 3.058802e+01 1.034891e+01 2.273709e+01 2.470532e+01 1.185752e+01 1.541280e+01 5.843536e+01 3.141935e+00 1.484813e+00 1.032715e+00 6.046491e+00 1.849208e+00 3.376027e+00 6.680080e-01 1.801339e+00 1.196805e+00 8.787594e-01 1.239884e+00 1.277364e+00 6.215344e-01
<GCONST> 8.970783e+01
<TRANSP> 5
 0.000000e+00 1.000000e+00 0.000000e+00 0.000000e+00 0.000000e+00
 0.000000e+00 9.385117e-01 6.148838e-02 0.000000e+00 0.000000e+00
 0.000000e+00 0.000000e+00 8.944080e-01 1.055920e-01 0.000000e+00
 0.000000e+00 0.000000e+00 0.000000e+00 8.242686e-01 1.757315e-01
 0.000000e+00 0.000000e+00 0.000000e+00 0.000000e+00 0.000000e+00
<ENDHMM>
~h "g"
<BEGINHMM>
<NUMSTATES> 5
<STATE> 2
<MEAN> 25
 -1.558499e+00 -1.090098e+00 1.126740e+00 1.119594e+00 3.240190e+00 2.566250e-02 1.230708e+00 -2.155859e+00 2.247333e+00 -1.540997e+00 -2.934036e+00 1.897604e+00 -4.008071e-01 -2.401296e-01 8.646981e-01 -1.823095e+00 -1.751670e+00 -1.341707e+00 -6.654807e-01 -2.972593e+00 -6.710219e-01 -2.248057e-01 -7.770380e-01 1.039249e-01 3.389587e+00
<VARIANCE> 25
 1.658878e+01 3.440767e+01 2.452172e+01 4.495659e+01 2.797522e+01 2.605192e+01 1.767403e+01 4.087858e+01 1.985486e+01 1.290138e+01 3.263355e+01 3.108227e+01 2.499611e+00 4.877912e+00 2.138387e+00 6.685189e+00 2.438324e+00 1.128983e+00 3.506625e+00 2.509643e+00 2.193986e+00 2.770855e+00 1.657305e+00 2.719835e+00 5.057786e+00
<GCONST> 9.822087e+01
<STATE> 3
<MEAN> 25
 -8.379140e-01 3.914589e+00 5.686937e+00 2.648686e-01 1.662852e+00 8.396672e-01 -4.653917e-01 -5.931496e+00 1.680041e+00 -1.266243e+00 -5.865273e+00 -3.251269e-01 8.777808e-02 4.496420e-01 1.233220e+00 -2.987329e-01 -1.228617e+00 -6.244984e-01 -4.133979e-01 -5.854858e-01 -9.881853e-01 2.526807e-01 3.251117e-01 -1.736437e-01 1.314538e+00
<VARIANCE> 25
 5.903073e+01 3.381549e+01 2.355870e+01 6.625122e+01 3.006451e+01 2.615204e+01 2.088625e+01 2.448524e+01 3.243033e+01 1.982278e+01 1.550947e+01 2.395672e+01 6.178697e+00 5.455218e+00 4.195549e+00 5.584024e+00 5.189285e+00 3.643396e+00 3.445421e+00 2.191893e+00 3.599725e+00 1.733791e+00 2.496045e+00 2.156628e+00 3.085438e+00
<GCONST> 1.024610e+02
<STATE> 4
<MEAN> 25
 3.433807e+00 2.945533e+00 1.220782e+01 -8.070768e-01 -8.553943e+00 -6.435582e+00 -4.106436e+00 -4.214488e+00 -9.163661e+00 1.530006e+00 5.737993e-01 -3.146400e+00 6.828448e-01 -3.456592e-01 -4.496981e-01 1.485969e-01 -4.347365e-01 -8.100255e-01 -1.532202e-02 1.116434e+00 -9.265257e-02 -3.175966e-01 6.660202e-01 -2.321985e-01 6.738787e-01
<VARIANCE> 25
 1.924792e+01 1.991547e+01 8.600845e+01 2.322889e+01 8.693149e+01 3.297705e+01 3.031156e+01 3.978345e+01 8.811626e+01 1.549070e+01 2.043981e+01 1.882413e+01 2.849143e+00 2.331520e+00 6.161437e+00 1.816075e+00 4.759479e+00 2.087686e+00 3.937143e+00 4.755280e+00 6.568830e+00 2.258509e+00 2.338783e+00 2.135190e+00 1.208642e+00
<GCONST> 1.017523e+02
<TRANSP> 5
 0.000000e+00 1.000000e+00 0.000000e+00 0.000000e+00 0.000000e+00
 0.000000e+00 4.915658e-01 5.084342e-01 0.000000e+00 0.000000e+00
 0.000000e+00 0.000000e+00 7.829224e-01 2.170776e-01 0.000000e+00
 0.000000e+00 0.000000e+00 0.000000e+00 8.436912e-01 1.563088e-01
 0.000000e+00 0.000000e+00 0.000000e+00 0.000000e+00 0.000000e+00
<ENDHMM>
~h "k"
<BEGINHMM>
<NUMSTATES> 5
<STATE> 2
<MEAN> 25
 -5.470130e+00 -3.333196e+00 -1.993859e+00 2.770229e+00 2.806397e+00 5.814770e-01 4.074748e+00 2.475485e+00 5.154138e+00 3.015103e+00 1.682353e+00 5.599638e+00 -2.759261e-01 -8.718186e-01 -3.898059e-01 -5.512971e-01 9.992874e-02 -1.175130e+00 -3.974363e-01 -3.308174e-01 -4.014428e-01 1.156801e-01 -7.286026e-01 2.216933e-01 2.028585e+00
<VARIANCE> 25
 1.037737e+01 2.491466e+01 1.197834e+01 2.690107e+01 1.415897e+01 3.191349e+01 1.877628e+01 2.051561e+01 2.297256e+01 1.285494e+01 2.035278e+01 1.774776e+01 1.819205e+00 4.194382e+00 3.944339e+00 4.335478e+00 2.799796e+00 4.857783e+00 3.081595e+00 3.430623e+00 3.776740e+00 1.893909e+00 3.312267e+00 2.221266e+00 7.516743e+00
<GCONST> 9.674187e+01
<STATE> 3
<MEAN> 25
 -3.551706e+00 -6.446713e+00 -7.352131e+00 -4.763123e-01 6.971292e+00 -6.825401e+00 -9.731542e-01 -1.917207e+00 3.093670e+00 3.665445e+00 -2.697774e+00 2.231315e+00 -2.151555e-02 3.096090e-01 8.440346e-02 -1.169132e+00 2.941168e-02 3.501189e-01 -3.638853e-01 -8.582151e-01 -3.158079e-01 -5.464468e-01 -1.769753e-01 -9.397120e-01 2.385928e+00
<VARIANCE> 25
 2.303896e+01 1.738509e+01 6.664382e+01 4.647618e+01 5.825395e+01 5.708607e+01 3.255567e+01 4.973387e+01 5.003354e+01 1.904731e+01 2.357317e+01 2.306809e+01 3.654236e+00 2.781310e+00 5.327777e+00 4.198717e+00 2.884617e+00 1.367520e+01 4.330572e+00 2.936138e+00 4.733003e+00 2.913640e+00 4.178231e+00 3.105058e+00 6.810801e+00
<GCONST> 1.073849e+02
<STATE> 4
<MEAN> 25
 -3.542776e+00 -3.566662e-01 1.015087e-02 -6.261109e+00 -5.488761e-01 1.185089e+00 1.776007e+00 -2.970547e+00 1.102264e+00 -1.382569e+00 -3.941620e-01 3.042038e-01 6.535904e-01 6.849308e-01 5.483038e-01 4.017924e-01 -8.447110e-01 2.772158e-01 1.701873e-01 3.302178e-02 -4.461114e-01 -6.526154e-01 1.414007e-01 -5.500877e-01 2.234149e-01
<VARIANCE> 25
 9.974087e+01 3.617761e+01 8.088047e+01 5.459960e+01 6.396538e+01 7.484398e+01 4.714427e+01 5.040859e+01 4.307335e+01 3.244308e+01 3.061968e+01 3.236929e+01 6.092672e+00 3.864529e+00 3.625153e+00 4.355090e+00 3.902361e+00 4.020277e+00 4.111780e+00 4.495546e+00 5.147480e+00 4.012098e+00 2.562464e+00 2.648858e+00 2.873850e+00
<GCONST> 1.105059e+02
<TRANSP> 5
 0.000000e+00 1.000000e+00 0.000000e+00 0.000000e+00 0.000000e+00
 0.000000e+00 7.341859e-01 2.658141e-01 0.000000e+00 0.000000e+00
 0.000000e+00 0.000000e+00 6.471643e-01 3.528357e-01 0.000000e+00
 0.000000e+00 0.000000e+00 0.000000e+00 7.497777e-01 2.502223e-01
 0.000000e+00 0.000000e+00 0.000000e+00 0.000000e+00 0.000000e+00
<ENDHMM>
~h "l"
<BEGINHMM>
<NUMSTATES> 5
<STATE> 2
<MEAN> 25
 1.106956e+01 5.271122e+00 -6.205092e+00 -1.441438e+01 -4.927705e+00 5.792112e+00 -4.113495e+00 -2.149832e+00 -7.803945e+00 1.115033e+00 1.000076e+00 -4.580360e+00 9.761515e-02 7.698226e-01 8.328306e-02 -2.912163e-01 -2.144212e-01 -4.993410e-02 1.313329e-01 -3.924365e-02 -5.589029e-01 -2.738325e-01 1.476950e-01 5.619798e-01 -5.021718e-01
<VARIANCE> 25
 1.170934e+01 2.241590e+01 2.034245e+01 6.610395e+01 2.870950e+01 4.138771e+01 3.388760e+01 3.140620e+01 4.760422e+01 3.546738e+01 2.366874e+01 3.548890e+01 6.233220e-01 1.223064e+00 9.210482e-01 3.477107e+00 1.515345e+00 2.714666e+00 1.623079e+00 2.106603e+00 3.034983e+00 2.347229e+00 1.836892e+00 1.732263e+00 6.312894e-01
<GCONST> 9.313349e+01
<STATE> 3
<MEAN> 25
 7.209610e+00 6.717623e+00 -3.283797e+00 -6.376563e+00 -1.857706e+00 2.355701e+00 -3.792902e+00 -2.817125e+00 -3.639790e+00 1.062124e+00 -4.374618e-01 -1.967819e+00 -1.030388e+00 -7.633159e-01 9.143025e-01 1.959383e+00 7.599018e-01 -5.235894e-01 3.006172e-01 3.076472e-01 1.432517e+00 -1.774625e-01 -6.008943e-01 -7.063139e-02 -5.281789e-01
<VARIANCE> 25
 1.507763e+01 2.747105e+01 2.141162e+01 5.120312e+01 3.313062e+01 2.914106e+01 4.344117e+01 4.263898e+01 4.690285e+01 4.020281e+01 3.488171e+01 3.829551e+01 1.385280e+00 2.201857e+00 1.683090e+00 4.530931e+00 3.616996e+00 3.534543e+00 3.461195e+00 4.679661e+00 3.394959e+00 3.724858e+00 3.069700e+00 3.388818e+00 2.147459e+00
<GCONST> 1.022326e+02
<STATE> 4
<MEAN> 25
 1.554468e+00 2.949807e+00 -7.718596e-01 1.863208e+00 3.022284e+00 4.123283e+00 2.087464e+00 -3.315168e-01 6.527615e-01 -1.373338e+00 -1.971256e+00 -6.842630e-02 -5.827904e-01 -6.327629e-01 1.517451e-01 4.171431e-01 9.625281e-02 -2.967318e-01 1.944969e-01 1.156318e-01 3.694765e-01 -4.770659e-05 1.503312e-01 3.000616e-01 -2.732182e-01
<VARIANCE> 25
 2.666403e+01 3.222984e+01 2.085841e+01 3.486356e+01 2.916245e+01 3.390788e+01 3.317467e+01 3.980244e+01 3.543525e+01 2.155176e+01 3.025726e+01 3.471721e+01 8.651898e-01 1.058264e+00 1.115261e+00 2.386996e+00 2.070266e+00 2.282072e+00 2.118118e+00 2.262747e+00 2.676843e+00 2.849489e+00 2.596439e+00 2.101428e+00 4.433301e-01
<GCONST> 9.389562e+01
<TRANSP> 5
 0.000000e+00 1.000000e+00 0.000000e+00 0.000000e+00 0.000000e+00
 0.000000e+00 8.468559e-01 1.531441e-01 0.000000e+00 0.000000e+00
 0.000000e+00 0.000000e+00 7.419885e-01 2.580115e-01 0.000000e+00
 0.000000e+00 0.000000e+00 0.000000e+00 7.379131e-01 2.620870e-01
 0.000000e+00 0.000000e+00 0.000000e+00 0.000000e+00 0.000000e+00
<ENDHMM>
~h "m"
<BEGINHMM>
<NUMSTATES> 5
<STATE> 2
<MEAN> 25
 3.377277e+00 2.709341e+00 3.736432e+00 3.664868e+00 6.806625e-02 4.189073e-01 -1.299149e+00 -6.795183e+00 -6.277550e+00 -6.226354e-01 9.823145e-01 -5.399544e+00 1.353744e+00 1.329846e+00 1.819547e+00 1.852176e+00 4.423787e-01 -6.030092e-01 -6.980079e-01 -2.792301e+00 -2.265836e+00 2.064661e-02 4.305792e-01 -8.256780e-01 3.109727e-01
<VARIANCE> 25
 4.158430e+01 2.087292e+01 3.854484e+01 3.776205e+01 2.206966e+01 2.795440e+01 2.276629e+01 4.521210e+01 4.652192e+01 2.215495e+01 3.188035e+01 3.293994e+01 4.044543e+00 2.715349e+00 4.001528e+00 3.982600e+00 2.855495e+00 4.392294e+00 3.206915e+00 3.903435e+00 4.774473e+00 4.253408e+00 4.333728e+00 4.427630e+00 3.346414e+00
<GCONST> 1.046467e+02
<STATE> 3
<MEAN> 25
 7.691509e+00 4.398821e+00 7.186370e+00 8.903327e+00 1.657544e+00 -3.594936e+00 -2.631660e+00 -1.247909e+01 -1.028772e+01 9.878747e-02 5.308007e-01 -7.206887e+00 7.349852e-02 1.706341e-01 6.524015e-02 1.995816e-01 1.109071e-01 -3.459754e-01 -4.120978e-02 2.251697e-02 1.189827e-01 9.936946e-03 -7.587355e-02 -5.108164e-02 -4.213417e-02
<VARIANCE> 25
 1.002340e+01 8.330314e+00 1.740092e+01 9.290005e+00 9.270404e+00 3.852607e+01 3.077459e+01 4.917314e+01 3.912199e+01 2.567861e+01 4.588910e+01 2.804589e+01 6.832410e-01 8.980093e-01 1.137203e+00 1.894097e+00 1.219936e+00 1.642740e+00 1.528007e+00 2.685549e+00 2.556336e+00 2.732426e+00 1.874446e+00 2.045836e+00 7.780046e-01
<GCONST> 8.815253e+01
<STATE> 4
<MEAN> 25
 3.052937e+00 3.517436e+00 8.730233e+00 3.604873e+00 -3.246468e+00 -2.906375e+00 -2.819143e+00 -6.588041e+00 -5.574790e+00 -4.829423e+00 1.311942e+00 -4.868508e+00 -5.718920e-01 -5.267029e-01 -5.839735e-02 -7.585568e-01 -5.419979e-01 5.175566e-01 6.663025e-01 1.389879e+00 6.838562e-01 -3.845934e-01 -1.810753e-01 5.807167e-01 3.501258e-01
<VARIANCE> 25
 4.483780e+01 5.024177e+01 4.649220e+01 4.649042e+01 6.417573e+01 5.046801e+01 4.288895e+01 1.049188e+02 4.315461e+01 2.924270e+01 4.504577e+01 2.824982e+01 2.806595e+00 2.074960e+00 3.808258e+00 4.562655e+00 6.327949e+00 3.844575e+00 3.422193e+00 6.439695e+00 4.078437e+00 3.633273e+00 2.506107e+00 2.635542e+00 2.904046e+00
<GCONST> 1.086805e+02
<TRANSP> 5
 0.000000e+00 1.000000e+00 0.000000e+00 0.000000e+00 0.000000e+00
 0.000000e+00 5.113869e-01 4.886131e-01 0.000000e+00 0.000000e+00
 0.000000e+00 0.000000e+00 8.298998e-01 1.701002e-01 0.000000e+00
 0.000000e+00 0.000000e+00 0.000000e+00 7.881699e-01 2.118300e-01
 0.000000e+00 0.000000e+00 0.000000e+00 0.000000e+00 0.000000e+00
<ENDHMM>
~h "n"
<BEGINHMM>
<NUMSTATES> 5
<STATE> 2
<MEAN> 25
 8.190551e+00 3.306388e+00 7.174195e+00 5.767803e+00 -2.259111e+00 -5.594151e+00 -3.077098e+00 -1.031337e+01 -1.098288e+01 -4.889088e-01 -5.201914e+00 -5.142671e+00 -2.077440e-01 2.724635e-01 6.880593e-02 2.619362e-01 1.212560e-01 2.492690e-02 -1.439241e-01 -3.399338e-01 1.745823e-01 -1.283436e-01 -1.505896e-01 2.028698e-01 -4.624650e-01
<VARIANCE> 25
 8.350170e+00 1.182440e+01 1.304130e+01 1.757356e+01 1.486427e+01 2.162415e+01 2.290888e+01 3.840779e+01 3.078313e+01 2.399849e+01 1.730918e+01 1.463440e+01 3.315516e-01 7.276781e-01 8.206200e-01 1.754509e+00 1.168172e+00 1.519900e+00 1.026821e+00 3.598077e+00 1.964069e+00 2.159913e+00 1.052197e+00 9.823127e-01 4.629560e-01
<GCONST> 8.219759e+01
<STATE> 3
<MEAN> 25
 1.203598e+00 2.819740e+00 3.520238e+00 3.630632e+00 1.693920e+00 -1.164737e+00 -1.735507e+00 -1.837202e+00 -2.227957e+00 -4.997469e+00 -4.554242e+00 -1.533166e+00 -1.387395e+00 -7.660183e-01 -1.081216e+00 -4.921265e-01 5.541594e-01 8.888435e-01 9.991531e-01 1.493191e+00 1.583596e+00 6.688645e-01 9.408578e-01 9.044298e-01 -5.357261e-01
<VARIANCE> 25
 2.587180e+01 2.096114e+01 2.563912e+01 2.366478e+01 2.495137e+01 4.142147e+01 3.261761e+01 4.823669e+01 3.823157e+01 3.309378e+01 2.997119e+01 2.519491e+01 2.031450e+00 1.868933e+00 2.071578e+00 2.463799e+00 1.992952e+00 3.521566e+00 2.998521e+00 4.658237e+00 3.602826e+00 4.157129e+00 3.167190e+00 2.604130e+00 1.581359e+00
<GCONST> 9.954662e+01
<STATE> 4
<MEAN> 25
 -4.347155e+00 -2.531097e+00 -2.165597e+00 1.171073e+00 3.152674e+00 2.592234e+00 3.736266e+00 2.812011e+00 4.741772e+00 2.884016e+00 2.174289e+00 3.814409e+00 -4.879067e-02 -6.604575e-02 -8.701495e-02 -5.387866e-02 2.264642e-02 2.628545e-02 3.142080e-02 1.814565e-02 2.480280e-02 7.358693e-02 8.717574e-02 5.717137e-02 -4.216558e-02
<VARIANCE> 25
 7.396628e+00 5.397118e+00 9.667507e+00 1.012743e+01 9.012410e+00 1.082740e+01 1.429875e+01 1.603619e+01 1.679310e+01 1.370907e+01 1.552599e+01 1.466296e+01 2.504917e-01 3.398120e-01 5.769134e-01 7.700658e-01 8.506933e-01 9.699283e-01 1.220630e+00 1.388330e+00 1.551772e+00 1.458725e+00 1.342848e+00 1.203286e+00 1.211881e-01
<GCONST> 7.134700e+01
<TRANSP> 5
 0.000000e+00 1.000000e+00 0.000000e+00 0.000000e+00 0.000000e+00
 0.000000e+00 8.963098e-01 1.036902e-01 0.000000e+00 0.000000e+00
 0.000000e+00 0.000000e+00 7.925012e-01 2.074987e-01 0.000000e+00
 0.000000e+00 0.000000e+00 0.000000e+00 9.348640e-01 6.513605e-02
 0.000000e+00 0.000000e+00 0.000000e+00 0.000000e+00 0.000000e+00
<ENDHMM>
~h "p"
<BEGINHMM>
<NUMSTATES> 5
<STATE> 2
<MEAN> 25
 -2.092466e+00 1.017502e+00 -1.783363e-01 7.351916e-01 5.317322e+00 2.570527e+00 3.170647e+00 1.321544e+00 4.398461e+00 2.284103e+00 1.691294e+00 1.798219e+00 -9.030766e-01 -3.063140e-01 2.849031e-01 -5.722087e-02 3.424968e-01 -2.931930e-01 2.223773e-01 7.226918e-02 3.758717e-01 7.199759e-01 6.451198e-01 5.039490e-01 1.603367e+00
<VARIANCE> 25
 1.461435e+01 1.426055e+01 2.951410e+01 2.446404e+01 2.838536e+01 2.588431e+01 3.153028e+01 2.186101e+01 2.644314e+01 2.446298e+01 1.922554e+01 1.551255e+01 2.894006e+00 2.345215e+00 5.120576e+00 3.511468e+00 3.320475e+00 3.582433e+00 4.459219e+00 3.578879e+00 3.542267e+00 2.588405e+00 3.211220e+00 2.686373e+00 5.580356e+00
<GCONST> 9.931410e+01
<STATE> 3
<MEAN> 25
 -2.314474e-01 7.158514e-01 -2.591866e+00 -8.470111e-01 3.801570e+00 1.260618e+00 1.946666e-01 -1.205798e+00 1.319597e+00 3.349272e+00 3.668048e-01 2.099386e-01 1.183758e+00 -2.887266e-01 -4.498059e-01 -2.199730e-01 -1.020713e+00 3.558472e-01 -1.593106e+00 -1.192536e-01 -4.598936e-01 -4.471112e-01 -8.937868e-01 -5.913698e-01 8.904084e-01
<VARIANCE> 25
 7.710925e+01 3.170186e+01 1.202893e+02 5.257084e+01 3.449752e+01 4.300855e+01 8.254250e+01 3.907953e+01 3.366859e+01 3.936618e+01 3.254560e+01 3.047505e+01 7.772937e+00 4.322245e+00 4.945508e+00 4.957248e+00 3.554550e+00 5.205739e+00 4.512370e+00 5.499681e+00 6.135617e+00 4.065153e+00 3.552486e+00 3.446366e+00 3.131832e+00
<GCONST> 1.116772e+02
<STATE> 4
<MEAN> 25
 7.228716e-01 -3.184777e+00 -2.764787e+00 -1.604689e+00 -4.088632e-01 -4.729343e-01 -3.102784e+00 3.512367e-02 7.345930e-01 2.426143e-01 -2.526577e+00 -3.619628e-01 1.764913e-02 9.540123e-02 3.405972e-01 -9.768640e-03 -6.405191e-01 -1.691318e-01 8.954864e-02 3.420234e-02 -5.817680e-01 -4.223159e-01 1.604293e-01 9.224637e-02 5.461080e-02
<VARIANCE> 25
 3.074047e+01 1.274900e+01 2.341502e+01 2.260700e+01 1.571028e+01 1.680025e+01 3.227361e+01 4.103544e+01 2.750717e+01 3.203933e+01 3.589262e+01 1.881427e+01 1.418059e+00 1.435127e+00 2.932080e+00 1.882855e+00 2.895568e+00 1.828406e+00 3.388716e+00 2.781956e+00 3.159635e+00 2.731232e+00 2.080396e+00 2.360028e+00 7.670360e-01
<GCONST> 9.406105e+01
<TRANSP> 5
 0.000000e+00 1.000000e+00 0.000000e+00 0.000000e+00 0.000000e+00
 0.000000e+00 7.438157e-01 2.561843e-01 0.000000e+00 0.000000e+00
 0.000000e+00 0.000000e+00 6.538618e-01 3.461382e-01 0.000000e+00
 0.000000e+00 0.000000e+00 0.000000e+00 7.154768e-01 2.845232e-01
 0.000000e+00 0.000000e+00 0.000000e+00 0.000000e+00 0.000000e+00
<ENDHMM>
~h "r"
<BEGINHMM>
<NUMSTATES> 5
<STATE> 2
<MEAN> 25
 7.751005e+00 -6.201591e-01 -4.413042e+00 4.607902e+00 7.126889e-02 -5.417758e+00 -8.336884e+00 5.385588e-02 1.092979e+00 -5.301749e+00 7.947523e-01 2.019514e+00 1.226365e+00 -4.206242e-01 -8.304703e-01 1.097624e+00 6.171830e-01 -1.358492e+00 -2.262446e+00 3.647277e-01 1.112212e+00 -8.532898e-01 -6.924610e-01 -1.661236e-01 3.559193e-01
<VARIANCE> 25
 7.481298e+01 1.944388e+01 7.881617e+01 4.111072e+01 2.899970e+01 8.108433e+01 8.207976e+01 5.335696e+01 4.524254e+01 4.997329e+01 4.444179e+01 2.744070e+01 3.707975e+00 1.543275e+00 3.610464e+00 1.977895e+00 3.905635e+00 3.204706e+00 4.329392e+00 3.916026e+00 4.655374e+00 4.845212e+00 2.807659e+00 2.637688e+00 2.404738e+00
<GCONST> 1.073535e+02
<STATE> 3
<MEAN> 25
 1.059930e+01 -2.628200e+00 -2.734933e+00 6.783464e+00 -2.183931e+00 -9.687714e+00 -1.229399e+01 2.329321e+00 4.288071e-01 -8.122287e+00 -1.113396e+00 1.511766e+00 -5.971283e-01 -1.079222e-01 1.399631e+00 -5.610300e-01 -9.813048e-01 5.709519e-01 1.305246e+00 -8.056500e-02 -1.158973e+00 3.259620e-01 1.968044e-01 -1.877834e-01 -1.231195e-01
<VARIANCE> 25
 3.295436e+01 2.458704e+01 8.417492e+01 3.627244e+01 5.156220e+01 4.201583e+01 5.977781e+01 4.409850e+01 6.454733e+01 5.355755e+01 3.083335e+01 3.041017e+01 1.839150e+00 1.776975e+00 4.699422e+00 2.877383e+00 4.787468e+00 3.704168e+00 4.507848e+00 5.398290e+00 5.102570e+00 4.563464e+00 3.086434e+00 2.599239e+00 1.638878e+00
<GCONST> 1.067976e+02
<STATE> 4
<MEAN> 25
 5.370847e+00 -2.813633e+00 -3.443592e+00 1.775652e+00 -6.922947e-01 -3.244746e+00 -5.793412e+00 8.794119e-01 3.190121e+00 -1.630233e+00 -1.590970e+00 1.587370e-01 -3.962753e-01 -9.074835e-02 3.055467e-01 -5.238441e-01 -4.927306e-01 6.682272e-01 6.968169e-01 -1.831250e-01 -1.143136e-01 5.084286e-01 2.178474e-01 -2.516552e-01 -1.240891e-01
<VARIANCE> 25
 5.354952e+01 1.217883e+01 5.861417e+01 1.825673e+01 4.709456e+01 3.983395e+01 6.306359e+01 3.160128e+01 5.526137e+01 3.097164e+01 2.463238e+01 1.589349e+01 6.944206e-01 8.461998e-01 1.857850e+00 1.571109e+00 1.585539e+00 2.249067e+00 2.401953e+00 2.520022e+00 2.061941e+00 1.750127e+00 1.472222e+00 2.564503e+00 4.491318e-01
<GCONST> 9.337504e+01
<TRANSP> 5
 0.000000e+00 1.000000e+00 0.000000e+00 0.000000e+00 0.000000e+00
 0.000000e+00 7.770911e-01 2.229089e-01 0.000000e+00 0.000000e+00
 0.000000e+00 0.000000e+00 7.955174e-01 2.044826e-01 0.000000e+00
 0.000000e+00 0.000000e+00 0.000000e+00 6.722789e-01 3.277211e-01
 0.000000e+00 0.000000e+00 0.000000e+00 0.000000e+00 0.000000e+00
<ENDHMM>
~h "s"
<BEGINHMM>
<NUMSTATES> 5
<STATE> 2
<MEAN> 25
 -1.284585e+01 5.691426e+00 -2.423171e+00 -2.806702e+00 7.269539e+00 -9.136359e+00 4.896036e+00 6.416299e-01 3.468671e-01 -8.354585e-01 -2.160432e+00 3.236206e+00 -2.674243e+00 1.487555e+00 -9.130059e-01 -7.056190e-01 1.288420e+00 -5.890811e-01 9.512684e-01 9.839456e-02 2.339879e-01 -3.188166e-01 2.354438e-01 4.182482e-01 1.464083e+00
<VARIANCE> 25
 6.602299e+01 2.587625e+01 3.179481e+01 1.974625e+01 2.874940e+01 3.322364e+01 2.994623e+01 3.995380e+01 2.199963e+01 1.882711e+01 1.920431e+01 1.996606e+01 4.980058e+00 2.189210e+00 2.365305e+00 2.110905e+00 2.134418e+00 4.491014e+00 3.600593e+00 2.403054e+00 2.787826e+00 2.039031e+00 2.281525e+00 1.768890e+00 1.928085e+00
<GCONST> 9.796157e+01
<STATE> 3
<MEAN> 25
 -1.820899e+01 8.279993e+00 -7.168206e+00 -3.973729e+00 9.418624e+00 -8.051197e+00 6.630592e+00 8.565213e-01 2.175616e+00 -8.908182e-01 -1.370658e+00 4.169838e+00 6.894899e-01 -4.128965e-01 5.854215e-02 9.277643e-02 -3.027021e-01 1.590082e-01 -1.343495e-01 -1.265429e-01 7.232349e-02 2.733299e-01 2.445691e-02 -1.672395e-01 -4.950453e-01
<VARIANCE> 25
 2.500814e+01 1.123166e+01 2.580874e+01 1.801180e+01 1.708632e+01 1.743515e+01 1.976819e+01 2.753684e+01 1.940475e+01 1.975196e+01 1.841097e+01 1.669696e+01 2.157088e+00 8.104292e-01 1.197646e+00 1.111316e+00 1.209657e+00 1.568761e+00 1.381388e+00 1.676594e+00 1.545364e+00 1.873036e+00 1.484364e+00 1.501936e+00 1.865607e+00
<GCONST> 8.621301e+01
<STATE> 4
<MEAN> 25
 -6.524530e+00 2.303660e+00 -3.383407e+00 -2.026850e+00 3.479282e+00 -5.298841e+00 2.446024e+00 -7.917153e-01 1.977094e+00 7.056320e-01 -1.400184e+00 9.743769e-01 2.119267e+00 -9.821304e-01 8.494176e-01 2.860571e-01 -1.462087e+00 4.374331e-01 -9.502443e-01 -1.858865e-01 -4.817169e-01 1.048713e-01 -2.239619e-01 -8.045989e-01 -4.194070e-02
<VARIANCE> 25
 4.273490e+01 2.089765e+01 3.234189e+01 2.205528e+01 2.278951e+01 3.367712e+01 2.750837e+01 3.162721e+01 2.728211e+01 2.988842e+01 1.683247e+01 3.236441e+01 6.040157e+00 2.031080e+00 4.523001e+00 2.180262e+00 2.408260e+00 3.761173e+00 3.984170e+00 3.871530e+00 3.082218e+00 2.675833e+00 1.969414e+00 2.194937e+00 4.342796e+00
<GCONST> 1.005047e+02
<TRANSP> 5
 0.000000e+00 1.000000e+00 0.000000e+00 0.000000e+00 0.000000e+00
 0.000000e+00 8.095351e-01 1.904649e-01 0.000000e+00 0.000000e+00
 0.000000e+00 0.000000e+00 9.033067e-01 9.669327e-02 0.000000e+00
 0.000000e+00 0.000000e+00 0.000000e+00 7.278529e-01 2.721471e-01
 0.000000e+00 0.000000e+00 0.000000e+00 0.000000e+00 0.000000e+00
<ENDHMM>
~h "t"
<BEGINHMM>
<NUMSTATES> 5
<STATE> 2
<MEAN> 25
 -5.990323e+00 -1.286942e+00 3.354605e+00 -2.576507e+00 -5.428507e-01 -4.190293e-01 1.219573e+00 -2.025458e+00 -7.404295e-01 1.251096e-01 2.182838e-01 1.075901e+00 -1.641894e+00 -1.261831e-01 4.106192e-01 -8.256397e-01 -3.653749e-01 -6.026482e-01 5.287998e-01 2.122374e-01 -2.692757e-01 -1.146451e-02 2.757285e-01 4.814114e-01 2.140747e+00
<VARIANCE> 25
 4.227502e+01 2.714638e+01 4.740569e+01 3.902682e+01 3.465279e+01 3.109278e+01 3.430164e+01 2.839366e+01 5.173796e+01 2.604447e+01 1.941906e+01 2.796115e+01 4.372882e+00 2.945074e+00 4.752204e+00 4.743804e+00 3.976907e+00 4.218132e+00 4.171378e+00 3.678777e+00 6.089515e+00 3.621546e+00 3.158267e+00 3.133902e+00 1.176399e+01
<GCONST> 1.069547e+02
<STATE> 3
<MEAN> 25
 -6.064088e+00 -5.615804e-02 6.474698e+00 -7.167835e-02 -3.052050e-01 -3.898936e+00 4.449616e+00 2.406612e+00 -1.077845e+00 6.981254e-01 4.955669e-03 2.990029e+00 1.732953e+00 3.346356e-01 2.523571e-01 1.351332e+00 2.663642e-01 3.996600e-01 -1.978271e-01 3.423752e-01 3.299609e-01 1.694816e-01 3.999658e-02 -1.195758e-01 -1.543763e+00
<VARIANCE> 25
 7.987387e+01 3.104244e+01 3.830286e+01 4.917609e+01 4.915793e+01 5.219602e+01 4.645952e+01 4.491431e+01 2.964893e+01 2.855857e+01 2.332380e+01 2.621839e+01 5.555725e+00 2.829304e+00 3.724968e+00 2.521883e+00 3.864968e+00 5.608870e+00 4.215120e+00 3.577293e+00 3.408202e+00 2.881328e+00 2.534940e+00 2.649738e+00 3.502859e+00
<GCONST> 1.061815e+02
<STATE> 4
<MEAN> 25
 -3.465529e+00 -3.980921e-01 6.810673e-01 1.791283e+00 2.736609e+00 2.309019e+00 3.767634e+00 1.815176e+00 2.885175e+00 2.414974e+00 1.544690e+00 2.397774e+00 3.572597e-01 -6.704007e-02 -2.461642e-01 8.813008e-03 -1.964193e-01 1.945372e-01 -3.526585e-01 -1.016716e-01 -1.627841e-02 -2.032011e-01 1.621793e-01 -1.596178e-01 -1.870868e-01
<VARIANCE> 25
 2.019864e+01 1.149779e+01 2.310174e+01 1.585631e+01 3.025089e+01 3.087241e+01 3.342978e+01 2.215646e+01 2.481859e+01 2.294888e+01 1.729973e+01 2.160628e+01 1.518002e+00 6.816719e-01 2.406407e+00 1.378098e+00 2.291929e+00 1.774462e+00 2.792940e+00 2.124976e+00 1.918779e+00 1.444779e+00 1.756811e+00 2.182652e+00 5.562142e-01
<GCONST> 8.920752e+01
<TRANSP> 5
 0.000000e+00 1.000000e+00 0.000000e+00 0.000000e+00 0.000000e+00
 0.000000e+00 7.698480e-01 2.301519e-01 0.000000e+00 0.000000e+00
 0.000000e+00 0.000000e+00 7.686493e-01 2.313507e-01 0.000000e+00
 0.000000e+00 0.000000e+00 0.000000e+00 7.650115e-01 2.349885e-01
 0.000000e+00 0.000000e+00 0.000000e+00 0.000000e+00 0.000000e+00
<ENDHMM>
~h "v"
<BEGINHMM>
<NUMSTATES> 5
<STATE> 2
<MEAN> 25
 -1.567804e+00 1.437034e+00 8.216136e-02 4.705343e+00 -9.194244e-03 -3.233034e+00 -1.220389e+00 3.286771e-01 2.148795e+00 1.029007e-01 -5.568348e-01 1.143235e+00 -1.028014e+00 -6.841370e-02 -5.010270e-01 -1.992537e-01 6.145887e-01 5.553487e-01 5.803739e-01 1.565293e-01 8.415734e-01 6.186701e-01 2.985881e-01 4.394796e-01 -7.189958e-01
<VARIANCE> 25
 4.983379e+01 1.326846e+01 2.002058e+01 2.607915e+01 2.932197e+01 3.886747e+01 2.388472e+01 1.674885e+01 2.310824e+01 2.496110e+01 2.553217e+01 2.363194e+01 5.360848e+00 1.999035e+00 2.621991e+00 2.332353e+00 4.888285e+00 5.831126e+00 3.942122e+00 2.308195e+00 3.348236e+00 2.968531e+00 3.125135e+00 2.154261e+00 2.541683e+00
<GCONST> 9.936610e+01
<STATE> 3
<MEAN> 25
 -3.028982e+00 1.126508e+00 -5.447963e-01 4.870717e+00 2.680685e+00 1.064529e-01 2.812661e-01 2.703637e-01 2.591718e+00 7.972097e-01 5.924945e-01 1.186453e+00 -9.151974e-01 -3.877451e-01 -2.230704e-01 -1.345012e-01 3.085482e-01 3.427011e-01 6.154023e-01 3.335493e-01 6.448513e-02 -1.435788e-01 -4.672626e-02 1.700818e-01 -9.143486e-02
<VARIANCE> 25
 3.720745e+01 1.536177e+01 2.807748e+01 1.596935e+01 2.030516e+01 1.821265e+01 2.520330e+01 2.639090e+01 3.041247e+01 2.218818e+01 1.956231e+01 2.231795e+01 2.255251e+00 8.958857e-01 1.285201e+00 2.046829e+00 2.550883e+00 2.158533e+00 1.742887e+00 1.785308e+00 2.607906e+00 2.282520e+00 2.540939e+00 1.240912e+00 1.587346e+00
<GCONST> 9.131316e+01
<STATE> 4
<MEAN> 25
 -3.318141e+00 -3.559829e+00 -2.294721e+00 2.009155e+00 3.044550e+00 2.369785e-01 2.725051e+00 2.086528e+00 4.610665e+00 2.154140e+00 7.894347e-01 3.862105e+00 1.591947e-03 -1.446471e-03 -1.381004e-02 -3.131370e-02 1.929473e-02 -1.082540e-02 3.554635e-02 3.369411e-02 6.093798e-03 2.211825e-02 -1.085973e-02 1.528570e-02 4.420507e-02
<VARIANCE> 25
 6.386467e+00 7.508477e+00 8.125710e+00 1.496393e+01 1.163915e+01 1.130675e+01 1.508717e+01 1.200820e+01 1.753191e+01 1.526828e+01 1.939505e+01 1.682034e+01 2.576643e-01 3.293556e-01 5.333847e-01 6.884459e-01 8.570496e-01 1.098110e+00 1.036154e+00 1.139295e+00 1.287497e+00 1.587858e+00 1.386006e+00 1.364574e+00 1.803879e-01
<GCONST> 7.235085e+01
<TRANSP> 5
 0.000000e+00 1.000000e+00 0.000000e+00 0.000000e+00 0.000000e+00
 0.000000e+00 7.544964e-01 2.455035e-01 0.000000e+00 0.000000e+00
 0.000000e+00 0.000000e+00 6.025822e-01 3.974178e-01 0.000000e+00
 0.000000e+00 0.000000e+00 0.000000e+00 9.051301e-01 9.486996e-02
 0.000000e+00 0.000000e+00 0.000000e+00 0.000000e+00 0.000000e+00
<ENDHMM>
~h "w"
<BEGINHMM>
<NUMSTATES> 5
<STATE> 2
<MEAN> 25
 8.639784e+00 5.701234e+00 -1.284960e+00 -3.008667e+00 7.783660e-02 2.246358e+00 -3.459886e+00 -3.279725e+00 -4.716834e+00 -2.011809e+00 2.497780e-01 -3.369210e+00 5.604682e-01 -2.985800e-01 -1.133364e-04 -9.015298e-02 -3.568839e-01 -2.274809e-01 -6.339716e-01 3.187150e-01 -2.798654e-01 -6.528615e-02 8.008822e-02 -8.187923e-01 1.121488e+00
<VARIANCE> 25
 1.852560e+01 2.266364e+01 3.203066e+01 3.306316e+01 1.940936e+01 4.390701e+01 3.452855e+01 2.810882e+01 6.985789e+01 4.363065e+01 4.141516e+01 4.011906e+01 2.373295e+00 3.661025e+00 3.176952e+00 4.094629e+00 2.879214e+00 8.111497e+00 4.177160e+00 5.044323e+00 7.316572e+00 5.659073e+00 5.242480e+00 3.687589e+00 1.574141e+00
<GCONST> 1.060806e+02
<STATE> 3
<MEAN> 25
 9.339395e+00 -3.541631e+00 -9.124276e-01 3.900983e+00 -5.928493e+00 -5.940100e+00 -5.364279e+00 1.020679e+01 -2.137558e+00 -4.894321e+00 7.066731e-01 -3.443298e+00 -8.655921e-02 -2.750793e-01 6.309847e-01 1.362725e-01 -1.033316e+00 -1.299142e+00 4.954359e-01 6.877840e-01 -6.340997e-01 -2.207539e-01 -1.703095e-01 9.477420e-01 -9.295372e-02
<VARIANCE> 25
 1.232044e+01 1.411709e+01 3.371448e+01 2.621459e+01 3.572901e+01 1.988097e+01 6.866701e+01 8.804468e+01 4.940338e+01 3.329576e+01 4.392262e+01 4.455632e+01 4.664173e-01 1.070627e+00 1.966018e+00 1.275299e+00 1.986847e+00 2.714588e+00 2.847611e+00 4.389235e+00 3.120358e+00 2.726538e+00 4.396062e+00 2.822153e+00 3.052194e-01
<GCONST> 9.605535e+01
<STATE> 4
<MEAN> 25
 1.009815e+01 -5.101913e-01 1.946562e+00 1.302027e+00 -4.633154e+00 -3.798268e+00 -3.270667e+00 -1.605441e+00 -1.023693e+01 -1.721009e+00 -1.573096e+00 -7.523790e+00 -8.412282e-02 -1.225478e-01 2.738902e-01 -2.708625e-01 -2.926396e-01 6.357591e-02 2.050840e-01 2.187364e-01 -8.059287e-02 -1.365258e-01 -2.696340e-03 2.368629e-01 -3.314592e-02
<VARIANCE> 25
 8.600282e+00 3.722167e+01 3.356279e+01 2.536057e+01 4.085883e+01 3.027302e+01 2.573653e+01 7.061137e+01 6.304397e+01 5.899665e+01 2.735370e+01 3.927711e+01 1.992883e-01 9.173746e-01 1.242856e+00 9.507529e-01 1.604558e+00 1.220996e+00 1.913135e+00 1.929689e+00 2.008841e+00 1.830464e+00 1.983134e+00 1.332964e+00 2.893509e-01
<GCONST> 8.976889e+01
<TRANSP> 5
 0.000000e+00 1.000000e+00 0.000000e+00 0.000000e+00 0.000000e+00
 0.000000e+00 8.884214e-01 1.115787e-01 0.000000e+00 0.000000e+00
 0.000000e+00 0.000000e+00 7.506896e-01 2.493104e-01 0.000000e+00
 0.000000e+00 0.000000e+00 0.000000e+00 7.998102e-01 2.001897e-01
 0.000000e+00 0.000000e+00 0.000000e+00 0.000000e+00 0.000000e+00
<ENDHMM>
~h "y"
<BEGINHMM>
<NUMSTATES> 5
<STATE> 2
<MEAN> 25
 1.260742e-01 5.458621e+00 1.351704e+01 3.043765e+00 -4.569208e+00 -2.624778e+00 -2.691229e+00 -4.693614e+00 -7.238325e+00 -1.618442e-03 4.268219e-01 -1.592040e+00 1.088619e+00 4.891234e-01 1.131383e+00 8.377178e-01 -1.929097e+00 -9.251458e-01 -7.815667e-01 8.009535e-01 -2.227639e+00 -1.016040e+00 9.575122e-01 -9.009727e-01 7.121117e-01
<VARIANCE> 25
 2.074034e+01 2.024653e+01 6.351821e+01 2.533342e+01 6.292147e+01 3.648301e+01 5.187043e+01 4.786035e+01 7.041611e+01 2.042985e+01 3.292384e+01 2.876460e+01 3.923092e+00 3.167145e+00 5.340079e+00 4.871445e+00 3.936702e+00 3.319907e+00 5.932631e+00 4.681704e+00 6.934703e+00 2.899828e+00 3.653620e+00 3.326020e+00 1.287641e+00
<GCONST> 1.064752e+02
<STATE> 3
<MEAN> 25
 6.450727e+00 1.035127e+00 3.783801e+00 3.097658e+00 -6.127707e+00 -2.292495e+00 -8.259089e+00 1.919849e+00 -7.331523e+00 -4.938902e+00 1.105107e+00 -6.541206e+00 4.836111e-01 -2.032520e-01 -1.273323e+00 -8.909133e-02 1.018930e+00 2.667849e-01 -4.019650e-02 -2.269864e-01 8.968025e-01 1.338462e-02 -4.563548e-01 -2.977227e-01 -9.564990e-02
<VARIANCE> 25
 1.888990e+01 4.903836e+01 1.002277e+02 3.218616e+01 7.579781e+01 6.851044e+01 4.715708e+01 5.735588e+01 9.103278e+01 2.631115e+01 3.923175e+01 3.846904e+01 7.340633e-01 1.684033e+00 3.668718e+00 2.163979e+00 5.234330e+00 4.102973e+00 4.486979e+00 5.110126e+00 4.404123e+00 3.536765e+00 3.219630e+00 2.660891e+00 1.093474e+00
<GCONST> 1.058818e+02
<STATE> 4
<MEAN> 25
 8.087180e+00 2.337659e+00 3.668273e+00 5.070991e+00 1.020313e+00 -7.011387e-01 -1.981975e+00 -6.955560e+00 -5.913425e+00 7.538045e-02 -1.508824e+00 -6.275322e+00 -1.696654e-01 2.500257e-01 2.382714e-01 9.718677e-02 1.594133e-01 -1.421808e-01 1.119551e-01 -1.447726e-01 -1.907273e-02 3.375985e-02 -2.130030e-01 3.987927e-01 -3.616008e-01
<VARIANCE> 25
 1.102698e+01 1.892330e+01 6.755407e+01 2.787169e+01 3.027065e+01 4.764219e+01 2.785355e+01 4.245973e+01 3.557168e+01 2.062480e+01 2.340163e+01 2.178957e+01 4.067520e-01 4.196897e-01 2.130695e+00 1.258335e+00 1.548895e+00 1.852088e+00 1.798266e+00 2.764755e+00 2.242251e+00 1.431957e+00 1.423552e+00 8.727029e-01 5.097400e-01
<GCONST> 8.859563e+01
<TRANSP> 5
 0.000000e+00 1.000000e+00 0.000000e+00 0.000000e+00 0.000000e+00
 0.000000e+00 8.067610e-01 1.932389e-01 0.000000e+00 0.000000e+00
 0.000000e+00 0.000000e+00 8.210676e-01 1.789325e-01 0.000000e+00
 0.000000e+00 0.000000e+00 0.000000e+00 8.399342e-01 1.600658e-01
 0.000000e+00 0.000000e+00 0.000000e+00 0.000000e+00 0.000000e+00
<ENDHMM>
~h "z"
<BEGINHMM>
<NUMSTATES> 5
<STATE> 2
<MEAN> 25
 -9.140106e+00 1.225016e+01 3.106383e+00 -1.477119e+00 9.381370e+00 -8.079975e+00 1.227333e+00 -3.133755e+00 -2.637567e+00 -2.850567e+00 -3.300802e+00 1.952399e+00 -2.323843e+00 6.763929e-01 -5.364838e-01 -4.428608e-01 1.479563e+00 -4.515193e-01 4.436062e-01 6.753436e-01 5.593777e-01 1.906341e-01 -1.365949e-01 2.116531e-01 5.224044e-01
<VARIANCE> 25
 8.136971e+01 2.711107e+01 5.149783e+01 3.632280e+01 4.633934e+01 5.499015e+01 3.003978e+01 2.605958e+01 3.029077e+01 1.434745e+01 2.068826e+01 1.644699e+01 4.684520e+00 2.105912e+00 2.159693e+00 2.448436e+00 4.457330e+00 4.026382e+00 2.667197e+00 2.880665e+00 2.482280e+00 2.342388e+00 1.605545e+00 1.398807e+00 4.415091e-01
<GCONST> 9.822280e+01
<STATE> 3
<MEAN> 25
 -1.696306e+01 7.369935e+00 -2.856698e+00 -5.898840e+00 1.038189e+01 -9.551022e+00 3.639803e+00 2.598140e+00 4.468021e-01 6.620294e-01 -3.069399e+00 3.809800e+00 1.268267e+00 -8.773087e-01 1.764359e-01 2.531632e-01 -7.709229e-01 4.577063e-02 -1.751932e-02 -1.474377e-01 -2.978855e-01 2.096253e-01 4.307357e-03 -2.700001e-01 -6.724672e-01
<VARIANCE> 25
 5.177949e+01 2.893541e+01 2.466855e+01 3.143593e+01 1.441085e+01 2.991562e+01 3.565160e+01 2.570932e+01 2.460724e+01 2.181942e+01 1.679481e+01 1.695949e+01 2.807061e+00 9.896421e-01 2.013290e+00 1.337062e+00 1.767548e+00 2.518492e+00 2.013982e+00 2.196906e+00 2.242874e+00 1.736316e+00 1.877955e+00 1.474840e+00 1.629684e+00
<GCONST> 9.259623e+01
<STATE> 4
<MEAN> 25
 -3.819510e+00 -2.671309e+00 -2.635988e+00 -1.232808e+00 3.167634e+00 -9.627847e-01 2.600693e+00 1.233869e+00 1.945741e+00 1.638667e+00 -7.137131e-01 1.153431e+00 2.984295e-01 -1.837234e-01 1.671874e-01 2.441492e-01 -3.721496e-01 4.182279e-01 -6.259342e-02 4.624768e-02 1.294344e-01 -2.872331e-02 1.187425e-01 -4.091737e-02 -1.215757e-01
<VARIANCE> 25
 1.185546e+01 1.868964e+01 1.871694e+01 1.194038e+01 1.259124e+01 2.722400e+01 2.775259e+01 2.262346e+01 2.196299e+01 2.189067e+01 1.280153e+01 1.699685e+01 1.840299e+00 1.372866e+00 1.297805e+00 1.294423e+00 2.118827e+00 2.858331e+00 3.020292e+00 2.531967e+00 2.054787e+00 2.136714e+00 1.327957e+00 1.503717e+00 7.778814e-01
<GCONST> 8.779533e+01
<TRANSP> 5
 0.000000e+00 1.000000e+00 0.000000e+00 0.000000e+00 0.000000e+00
 0.000000e+00 8.750678e-01 1.249322e-01 0.000000e+00 0.000000e+00
 0.000000e+00 0.000000e+00 8.960092e-01 1.039907e-01 0.000000e+00
 0.000000e+00 0.000000e+00 0.000000e+00 9.128882e-01 8.711182e-02
 0.000000e+00 0.000000e+00 0.000000e+00 0.000000e+00 0.000000e+00
<ENDHMM>
~h "aa"
<BEGINHMM>
<NUMSTATES> 5
<STATE> 2
<MEAN> 25
 5.852151e+00 -3.551323e+00 -2.703706e+00 -4.154427e+00 -8.418303e-01 6.834346e+00 6.481184e-01 1.769403e+00 1.996459e+00 1.476419e-01 -3.730481e-01 -8.682113e+00 1.005747e+00 -7.633416e-01 -9.851682e-01 -1.214620e+00 -4.844695e-01 2.018286e+00 -1.808706e-01 -2.897454e-01 -8.415512e-02 -4.237055e-01 6.380637e-01 -1.344457e+00 1.033501e+00
<VARIANCE> 25
 2.428610e+01 3.302297e+01 2.181829e+01 5.687138e+01 2.801546e+01 6.189634e+01 4.883216e+01 3.951578e+01 2.677721e+01 3.828527e+01 2.706373e+01 6.230201e+01 2.828540e+00 2.068432e+00 1.588736e+00 3.946665e+00 2.903277e+00 4.833525e+00 2.574807e+00 2.543331e+00 2.995130e+00 3.762590e+00 3.099487e+00 4.090365e+00 1.671521e+00
<GCONST> 1.027424e+02
<STATE> 3
<MEAN> 25
 9.026872e+00 -5.034319e+00 -6.655392e+00 -1.035529e+01 1.279032e-01 1.666080e+01 -8.210213e-02 -3.069680e+00 1.207627e+00 -8.579245e-01 2.063051e+00 -1.118200e+01 8.218695e-02 2.906341e-01 -1.962867e-01 1.444968e-01 -1.338558e-01 -6.817441e-02 -2.284159e-01 -3.800117e-02 -4.112537e-01 2.922841e-01 -1.413533e-01 2.485319e-01 -3.335372e-01
<VARIANCE> 25
 7.759760e+00 2.377390e+01 1.031514e+01 2.569893e+01 1.326212e+01 4.212735e+01 3.829394e+01 3.476117e+01 5.046056e+01 4.559326e+01 2.799331e+01 3.800478e+01 2.142882e-01 9.500932e-01 4.854793e-01 8.466622e-01 9.921350e-01 1.678848e+00 1.617287e+00 2.430029e+00 1.347648e+00 1.420636e+00 1.279348e+00 1.536658e+00 4.482988e-01
<GCONST> 8.489586e+01
<STATE> 4
<MEAN> 25
 5.083866e+00 -9.380764e-01 -4.340624e+00 -4.471437e+00 -1.331716e+00 7.648847e+00 -1.746642e+00 -1.586578e-01 -1.489652e+00 3.184388e+00 -3.210365e+00 -5.604743e+00 -1.408052e+00 7.914374e-01 9.544954e-01 8.963002e-01 2.615303e-01 -1.957192e+00 4.663810e-01 7.297492e-02 1.267384e-01 -1.833440e-01 1.802278e-01 1.773707e+00 -1.549258e+00
<VARIANCE> 25
 4.827966e+01 2.556664e+01 2.569717e+01 2.545900e+01 2.962092e+01 6.897485e+01 4.820210e+01 5.514081e+01 2.819241e+01 5.065675e+01 3.846095e+01 3.383714e+01 3.573186e+00 2.654655e+00 2.989448e+00 1.697938e+00 2.687403e+00 4.993469e+00 4.049320e+00 6.891696e+00 3.361245e+00 3.299947e+00 4.306291e+00 2.310818e+00 3.165326e+00
<GCONST> 1.051475e+02
<TRANSP> 5
 0.000000e+00 1.000000e+00 0.000000e+00 0.000000e+00 0.000000e+00
 0.000000e+00 7.499089e-01 2.500911e-01 0.000000e+00 0.000000e+00
 0.000000e+00 0.000000e+00 8.511383e-01 1.488617e-01 0.000000e+00
 0.000000e+00 0.000000e+00 0.000000e+00 6.956791e-01 3.043209e-01
 0.000000e+00 0.000000e+00 0.000000e+00 0.000000e+00 0.000000e+00
<ENDHMM>
~h "ae"
<BEGINHMM>
<NUMSTATES> 5
<STATE> 2
<MEAN> 25
 1.022781e+00 -2.613051e+00 -1.004349e+00 6.927643e-01 -1.276764e+00 -8.727841e-01 2.335120e+00 2.762246e+00 8.175293e-02 -1.724626e+00 7.267590e-02 -1.004488e+00 1.235490e+00 -1.927632e+00 2.799996e-01 -9.398859e-01 -9.926724e-01 -6.001421e-01 2.044618e-01 1.485425e+00 -1.111701e+00 -1.357122e+00 -1.223568e+00 -1.859473e+00 3.205436e+00
<VARIANCE> 25
 2.757768e+01 4.026932e+01 4.073867e+01 2.234890e+01 3.620482e+01 4.230890e+01 3.766719e+01 3.294112e+01 4.236750e+01 2.857059e+01 3.236372e+01 4.314948e+01 2.544927e+00 2.063699e+00 3.222034e+00 1.794878e+00 4.467350e+00 4.248359e+00 3.299103e+00 2.545960e+00 6.303317e+00 3.359012e+00 5.801003e+00 6.273239e+00 6.028728e+00
<GCONST> 1.055003e+02
<STATE> 3
<MEAN> 25
 6.687110e+00 -9.387970e+00 -1.731762e+00 -2.593586e+00 -3.327516e+00 -1.476549e+00 3.616996e+00 6.114103e+00 -2.656380e+00 -7.514155e+00 -7.413048e+00 -9.324006e+00 4.707215e-01 -1.812944e-01 -4.404713e-01 4.756264e-02 2.135714e-01 1.429442e-01 -1.721998e-01 -2.664315e-03 3.123852e-01 -3.474554e-01 -3.610160e-01 -3.972479e-01 3.690036e-01
<VARIANCE> 25
 7.995127e+00 2.723439e+01 3.475229e+01 1.521910e+01 2.693495e+01 3.071626e+01 2.441045e+01 2.921916e+01 3.031347e+01 1.885325e+01 3.597652e+01 3.721460e+01 6.184486e-01 1.172427e+00 8.925021e-01 1.306314e+00 1.858007e+00 1.757915e+00 1.343428e+00 1.881379e+00 1.235951e+00 1.434750e+00 1.721811e+00 2.233819e+00 1.728315e+00
<GCONST> 8.884687e+01
<STATE> 4
<MEAN> 25
 7.018813e+00 -6.411155e+00 -2.861004e+00 1.503959e+00 -2.448405e+00 -2.784845e+00 2.480239e+00 2.767258e+00 -1.029103e-01 -5.529501e+00 -3.800867e+00 -6.659843e+00 -4.482308e-01 1.400927e+00 5.202811e-01 8.414025e-01 2.670259e-01 -6.544267e-02 -1.404911e-01 -1.368772e+00 -2.005815e-01 1.299587e+00 5.516374e-01 7.107085e-01 -1.929102e+00
<VARIANCE> 25
 1.737340e+01 3.294248e+01 5.820474e+01 2.893338e+01 3.285423e+01 5.082466e+01 4.842904e+01 5.953296e+01 5.790512e+01 4.049466e+01 3.533809e+01 4.468909e+01 2.250987e+00 2.152934e+00 2.169474e+00 3.040192e+00 3.187347e+00 3.057247e+00 2.483773e+00 5.163587e+00 3.963881e+00 3.586615e+00 1.907248e+00 3.924282e+00 2.802287e+00
<GCONST> 1.042278e+02
<TRANSP> 5
 0.000000e+00 1.000000e+00 0.000000e+00 0.000000e+00 0.000000e+00
 0.000000e+00 7.203679e-01 2.796321e-01 0.000000e+00 0.000000e+00
 0.000000e+00 0.000000e+00 8.612001e-01 1.387999e-01 0.000000e+00
 0.000000e+00 0.000000e+00 0.000000e+00 7.956651e-01 2.043349e-01
 0.000000e+00 0.000000e+00 0.000000e+00 0.000000e+00 0.000000e+00
<ENDHMM>
~h "ah"
<BEGINHMM>
<NUMSTATES> 5
<STATE> 2
<MEAN> 25
 4.013490e+00 -3.592836e+00 -7.704956e-01 -2.183413e+00 -2.900141e+00 -2.198505e+00 -2.655353e+00 1.818189e+00 4.802953e-02 -9.291692e-01 -2.987112e+00 -5.395941e+00 1.378963e+00 -2.670650e-01 -2.581984e-01 -6.169935e-01 -1.731260e-01 -6.864744e-02 -4.041343e-01 -1.300784e-01 -4.463291e-01 4.441536e-02 -5.017506e-01 -1.075823e+00 9.176348e-01
<VARIANCE> 25
 5.025252e+01 4.355477e+01 5.921152e+01 4.250626e+01 3.490513e+01 6.510161e+01 4.375441e+01 5.572067e+01 3.765748e+01 2.463944e+01 3.334734e+01 6.052618e+01 4.444920e+00 3.145275e+00 2.791129e+00 3.616961e+00 3.606058e+00 5.207839e+00 3.499540e+00 4.101516e+00 3.664635e+00 2.585384e+00 3.139200e+00 4.299317e+00 4.693800e+00
<GCONST> 1.083830e+02
<STATE> 3
<MEAN> 25
 7.202051e+00 -1.491525e+00 -7.127967e-01 -2.030025e+00 -2.199966e+00 -1.684320e+00 -2.949171e+00 -1.057018e+00 -1.310269e+00 -5.371059e-01 -3.469288e+00 -6.084908e+00 1.175138e-01 1.188867e+00 1.098437e-01 3.691508e-01 8.500971e-01 4.857518e-01 4.327395e-01 -9.553600e-01 -6.961123e-01 5.593385e-01 3.459903e-01 5.393624e-01 -1.445257e+00
<VARIANCE> 25
 2.742138e+01 3.230895e+01 6.229545e+01 4.720555e+01 2.423849e+01 7.022083e+01 4.179349e+01 4.956957e+01 4.616401e+01 3.221391e+01 3.807410e+01 4.507490e+01 3.796373e+00 2.341863e+00 3.397905e+00 5.398286e+00 2.939756e+00 4.376621e+00 2.785603e+00 5.274466e+00 4.802813e+00 3.320254e+00 3.403426e+00 4.193627e+00 3.166470e+00
<GCONST> 1.074645e+02
<STATE> 4
<MEAN> 25
 5.396882e+00 4.204362e-01 -6.719518e-02 9.297922e-01 2.452235e-01 7.770528e-01 4.164379e-01 -7.022387e-01 -1.289278e+00 9.481233e-01 -1.677413e+00 -3.208054e+00 -1.937469e-01 4.898909e-01 1.603946e-02 9.464803e-02 4.764591e-01 2.054777e-01 2.058859e-01 -3.286532e-01 -4.554458e-01 2.905679e-01 3.339242e-01 4.134740e-01 -7.037818e-01
<VARIANCE> 25
 3.182427e+01 1.925031e+01 4.094464e+01 7.021972e+01 2.467989e+01 4.601010e+01 3.844677e+01 6.519853e+01 5.125277e+01 3.528836e+01 4.288176e+01 3.705553e+01 1.894544e+00 2.054046e+00 2.130999e+00 3.067138e+00 2.135952e+00 3.028611e+00 2.406111e+00 3.942812e+00 3.683174e+00 3.046914e+00 2.440050e+00 2.504924e+00 1.147632e+00
<GCONST> 1.017802e+02
<TRANSP> 5
 0.000000e+00 1.000000e+00 0.000000e+00 0.000000e+00 0.000000e+00
 0.000000e+00 6.087837e-01 3.912162e-01 0.000000e+00 0.000000e+00
 0.000000e+00 0.000000e+00 3.989323e-01 6.010677e-01 0.000000e+00
 0.000000e+00 0.000000e+00 0.000000e+00 5.176709e-01 4.823291e-01
 0.000000e+00 0.000000e+00 0.000000e+00 0.000000e+00 0.000000e+00
<ENDHMM>
~h "ao"
<BEGINHMM>
<NUMSTATES> 5
<STATE> 2
<MEAN> 25
 3.557785e+00 2.736446e+00 -4.987181e+00 -8.740822e+00 -4.942842e-01 7.531209e+00 1.926638e+00 -1.564251e+00 1.119848e+00 -3.131563e+00 4.316306e-01 -1.103109e+00 3.938355e+00 1.124110e+00 -3.474883e-01 -4.334276e+00 -3.587521e+00 1.047992e+00 -3.913430e-01 2.266847e-02 -1.240898e+00 -1.397875e+00 -7.851162e-02 -9.978071e-01 1.193333e+00
<VARIANCE> 25
 5.414412e+01 3.580444e+01 2.419579e+01 7.383917e+01 7.353623e+01 4.719933e+01 1.950515e+01 2.253921e+01 3.420745e+01 1.539959e+01 1.311122e+01 2.117286e+01 4.181916e+00 1.880110e+00 1.233812e+00 4.391472e+00 4.110990e+00 7.826004e+00 1.898460e+00 1.440336e+00 3.204047e+00 1.631338e+00 1.379198e+00 2.073944e+00 3.055216e+00
<GCONST> 9.918631e+01
<STATE> 3
<MEAN> 25
 1.164842e+01 1.893299e+00 -7.040982e+00 -2.322401e+01 -6.830895e+00 1.307527e+01 2.337720e+00 -1.765664e+00 -6.159102e-01 -6.929982e+00 5.046461e-01 -4.559863e+00 2.475425e-01 2.942814e-01 1.281334e-01 -7.453179e-01 -8.175572e-01 -2.256983e-01 3.827864e-03 4.739712e-01 2.197441e-01 -7.832618e-02 -2.668707e-01 7.017566e-02 7.720107e-02
<VARIANCE> 25
 8.930182e+00 3.384599e+01 1.634616e+01 2.759950e+01 3.558257e+01 3.290278e+01 2.048484e+01 1.114485e+01 2.010882e+01 1.834771e+01 1.220939e+01 1.050107e+01 4.797213e-01 6.199047e-01 6.163229e-01 1.694793e+00 1.502386e+00 1.239091e+00 6.844760e-01 1.246279e+00 1.017952e+00 1.121417e+00 1.090930e+00 8.570048e-01 5.564523e-01
<GCONST> 7.980265e+01
<STATE> 4
<MEAN> 25
 1.072119e+01 6.669480e+00 -5.587971e+00 -1.661064e+01 -1.095326e+01 2.179056e+00 1.145925e+00 3.411202e+00 -7.849277e-01 -3.769781e+00 -1.825180e-01 -9.429688e-01 6.086650e-02 -6.059022e-02 -2.450168e-01 4.288185e-01 5.344858e-01 -2.743876e-01 -4.183544e-02 -1.406093e-02 -3.905177e-01 9.808864e-02 2.656970e-01 3.749366e-01 -1.031862e-01
<VARIANCE> 25
 8.862794e+00 1.903802e+01 1.619118e+01 6.448203e+01 2.644691e+01 4.507439e+01 1.858657e+01 1.444680e+01 3.776941e+01 2.277637e+01 2.235278e+01 1.687498e+01 1.209546e-01 5.185677e-01 6.005731e-01 7.841231e-01 1.171924e+00 1.699615e+00 1.181648e+00 1.258180e+00 1.407060e+00 1.143490e+00 1.348141e+00 1.142615e+00 1.332639e-01
<GCONST> 7.984818e+01
<TRANSP> 5
 0.000000e+00 1.000000e+00 0.000000e+00 0.000000e+00 0.000000e+00
 0.000000e+00 6.704881e-01 3.295120e-01 0.000000e+00 0.000000e+00
 0.000000e+00 0.000000e+00 7.988929e-01 2.011072e-01 0.000000e+00
 0.000000e+00 0.000000e+00 0.000000e+00 9.268998e-01 7.310022e-02
 0.000000e+00 0.000000e+00 0.000000e+00 0.000000e+00 0.000000e+00
<ENDHMM>
~h "aw"
<BEGINHMM>
<NUMSTATES> 5
<STATE> 2
<MEAN> 25
 7.512683e+00 -3.686547e+00 -5.185019e+00 -2.052475e+00 2.461213e-01 6.999255e+00 -3.318056e+00 2.897268e+00 3.004085e+00 -2.262460e+00 -3.668883e+00 -9.401054e+00 3.089769e-01 6.269253e-01 -4.552946e-01 7.359936e-02 1.398745e-01 4.779735e-01 -7.636005e-01 -9.053391e-01 -2.306222e-01 -1.066717e-01 9.314517e-01 1.162291e-01 -4.930369e-01
<VARIANCE> 25
 4.823148e+00 1.288899e+01 2.065786e+01 3.133875e+01 2.490381e+01 6.000487e+01 6.646123e+01 4.160062e+01 2.034305e+01 7.402693e+01 4.005095e+01 1.627179e+01 1.969049e-01 7.785624e-01 5.443193e-01 9.217317e-01 1.410862e+00 1.047373e+00 2.156560e+00 1.717974e+00 1.551357e+00 2.313443e+00 3.512130e+00 1.470862e+00 2.517788e-01
<GCONST> 8.625644e+01
<STATE> 3
<MEAN> 25
 9.820779e+00 5.302484e+00 -3.973835e+00 -1.387327e+00 -1.419591e+00 5.293727e+00 -5.181796e+00 -8.635932e+00 -6.900151e+00 -1.879601e+00 5.236843e+00 -5.590059e+00 -3.268646e-01 2.003073e-01 1.179729e+00 1.127460e+00 3.141312e-01 -1.780142e+00 1.974489e-01 -6.823456e-01 -6.612480e-01 -1.361215e-01 -9.943398e-01 5.246228e-01 -1.122976e+00
<VARIANCE> 25
 4.312990e+00 1.805170e+01 1.643087e+01 2.019512e+01 1.307145e+01 5.268994e+01 7.514291e+01 3.160912e+01 4.090255e+01 5.800831e+01 5.313253e+01 1.941037e+01 5.625392e-01 8.125002e-01 1.243829e+00 2.696244e+00 1.758952e+00 1.903153e+00 2.923976e+00 2.786886e+00 4.234289e+00 4.227062e+00 4.471937e+00 1.679227e+00 4.284072e-01
<GCONST> 9.291087e+01
<STATE> 4
<MEAN> 25
 2.753378e+00 2.162721e+00 2.049806e+00 4.463221e+00 3.470274e+00 -1.486383e+00 -2.481743e+00 -2.889714e+00 -7.499521e-01 -1.146323e+00 -1.662248e+00 -4.877855e-01 -1.264368e+00 -1.019913e+00 5.337678e-01 1.991983e-01 2.471306e-01 -6.121356e-03 1.511247e+00 1.751087e+00 1.813152e+00 2.893257e-01 -2.667842e-01 1.263102e+00 -7.532156e-01
<VARIANCE> 25
 1.899265e+01 1.252559e+01 1.127517e+01 1.137774e+01 1.259413e+01 1.704887e+01 3.728601e+01 4.151538e+01 4.026392e+01 1.840912e+01 2.929156e+01 2.363643e+01 4.617749e-01 1.082299e+00 3.650392e+00 2.246416e+00 1.451014e+00 3.073772e+00 4.282666e+00 3.202734e+00 2.354686e+00 4.621483e+00 2.328156e+00 1.680597e+00 6.792323e-01
<GCONST> 9.102428e+01
<TRANSP> 5
 0.000000e+00 1.000000e+00 0.000000e+00 0.000000e+00 0.000000e+00
 0.000000e+00 9.151096e-01 8.489044e-02 0.000000e+00 0.000000e+00
 0.000000e+00 0.000000e+00 8.454962e-01 1.545037e-01 0.000000e+00
 0.000000e+00 0.000000e+00 0.000000e+00 6.836046e-01 3.163954e-01
 0.000000e+00 0.000000e+00 0.000000e+00 0.000000e+00 0.000000e+00
<ENDHMM>
~h "ay"
<BEGINHMM>
<NUMSTATES> 5
<STATE> 2
<MEAN> 25
 8.306661e+00 -3.310192e+00 4.966604e+00 2.136451e+00 -7.761879e+00 -4.777746e+00 -5.091294e+00 2.111097e+00 -4.785873e+00 -3.785442e+00 -3.395775e+00 -3.586605e+00 5.687299e-01 -3.911183e-01 3.476549e-02 -9.916995e-02 -3.970469e-01 7.580018e-02 -3.897251e-01 8.355634e-01 1.082546e-02 -3.029267e-01 -7.504528e-01 -7.375550e-01 6.247686e-01
<VARIANCE> 25
 1.696838e+01 4.166337e+01 5.875965e+01 3.151463e+01 6.230046e+01 4.087501e+01 2.800224e+01 7.159889e+01 6.968079e+01 2.768756e+01 2.791264e+01 3.024309e+01 1.990181e+00 2.661700e+00 6.168603e+00 1.970935e+00 2.675172e+00 3.917975e+00 2.902287e+00 7.337873e+00 6.894530e+00 2.797242e+00 2.277229e+00 2.273071e+00 1.468039e+00
<GCONST> 1.043416e+02
<STATE> 3
<MEAN> 25
 8.372310e+00 -5.496470e+00 8.169226e-01 -1.657910e+00 -1.002866e+01 -3.775256e+00 -2.807550e+00 5.758635e+00 3.999509e-01 -2.150228e+00 -4.606243e+00 -8.737897e+00 -3.742915e-01 8.462165e-01 2.172345e-01 -1.524896e-01 8.169265e-01 6.063394e-01 -1.423916e-01 -9.952999e-01 -3.806959e-01 4.372956e-01 1.702099e-01 -2.736796e-01 -1.146929e+00
<VARIANCE> 25
 1.345811e+01 2.501063e+01 6.646659e+01 2.057924e+01 4.829735e+01 4.279625e+01 4.456840e+01 3.365839e+01 7.056995e+01 1.926236e+01 4.330512e+01 6.211656e+01 1.628293e+00 2.041847e+00 3.551206e+00 1.820934e+00 3.580086e+00 3.794739e+00 2.301509e+00 3.218005e+00 3.312080e+00 1.246448e+00 3.179350e+00 4.196556e+00 1.919455e+00
<GCONST> 1.013862e+02
<STATE> 4
<MEAN> 25
 1.065058e+01 -4.461775e+00 -1.549005e+00 -2.275912e+00 -3.726166e+00 6.243107e-01 -3.653541e+00 4.366577e+00 -2.870244e+00 -5.494481e+00 -2.922737e+00 -9.909113e+00 -6.133834e-02 2.950358e-01 5.727388e-01 9.424510e-02 -1.870183e-01 -3.804896e-01 1.478224e-01 -2.653304e-01 -5.252463e-01 2.107400e-01 2.215746e-01 2.824965e-01 -3.202475e-01
<VARIANCE> 25
 6.973660e+00 2.382450e+01 7.765730e+01 1.862696e+01 7.358111e+01 5.397239e+01 3.125747e+01 4.923286e+01 6.661982e+01 2.835436e+01 2.861148e+01 3.263371e+01 2.903154e-01 9.054306e-01 1.424102e+00 1.673258e+00 2.446712e+00 2.160872e+00 1.722047e+00 2.305840e+00 1.836025e+00 1.316061e+00 1.679145e+00 2.085741e+00 2.605920e-01
<GCONST> 9.171256e+01
<TRANSP> 5
 0.000000e+00 1.000000e+00 0.000000e+00 0.000000e+00 0.000000e+00
 0.000000e+00 7.731206e-01 2.268794e-01 0.000000e+00 0.000000e+00
 0.000000e+00 0.000000e+00 7.046755e-01 2.953245e-01 0.000000e+00
 0.000000e+00 0.000000e+00 0.000000e+00 9.104329e-01 8.956711e-02
 0.000000e+00 0.000000e+00 0.000000e+00 0.000000e+00 0.000000e+00
<ENDHMM>
~h "ch"
<BEGINHMM>
<NUMSTATES> 5
<STATE> 2
<MEAN> 25
 -3.576482e+00 -1.935739e+00 -7.801957e-01 3.890406e+00 2.627444e+00 1.256204e+00 3.963943e+00 2.594126e+00 5.248130e+00 2.450280e+00 3.429532e-01 3.428851e+00 -2.331012e-01 -1.143129e-01 1.627139e-01 -3.218093e-01 7.481936e-02 3.498693e-01 -1.679995e-01 -1.741119e-01 2.469642e-01 1.870258e-01 2.854639e-01 -6.075018e-02 -1.564328e-01
<VARIANCE> 25
 4.779772e+00 6.901526e+00 1.110958e+01 8.244794e+00 9.700224e+00 1.317688e+01 1.300289e+01 2.038169e+01 8.941162e+00 1.423270e+01 1.591405e+01 1.313259e+01 6.636341e-01 9.901305e-01 8.866521e-01 1.506961e+00 1.480039e+00 2.206674e+00 1.682585e+00 1.641947e+00 1.485653e+00 2.195502e+00 1.349393e+00 1.592190e+00 1.380567e+00
<GCONST> 7.891851e+01
<STATE> 3
<MEAN> 25
 -9.020485e+00 -4.147206e+00 2.274570e+00 -2.988278e+00 1.118228e+00 7.039766e+00 -1.168494e+00 -5.203600e-01 6.291409e+00 -1.667923e+00 3.272138e+00 4.502519e+00 -3.741229e+00 7.951539e-01 1.878912e+00 -1.802021e+00 -1.068426e+00 1.103668e+00 -7.006257e-01 -2.117339e+00 8.586281e-01 -1.055552e+00 6.101433e-01 -7.179684e-02 2.650246e+00
<VARIANCE> 25
 3.316230e+01 2.549632e+01 1.575127e+01 2.015948e+01 2.298552e+01 1.964400e+01 3.993624e+01 3.386460e+01 1.626686e+01 1.845842e+01 1.042269e+01 3.014471e+00 2.675483e+00 2.853020e+00 1.313054e+00 1.438371e+00 2.227476e+00 2.917672e+00 4.908058e+00 2.233514e+00 1.151694e+00 2.544758e+00 1.002205e+00 1.504602e+00 3.769037e+00
<GCONST> 9.066914e+01
<STATE> 4
<MEAN> 25
 -1.706099e+01 8.039212e-01 9.622980e+00 -2.750171e+00 -5.366865e+00 1.588146e+00 5.870989e+00 -7.701392e+00 4.829873e+00 -2.708724e+00 2.259227e+00 -1.653791e+00 1.349742e+00 1.066881e-01 2.835318e-01 7.896737e-01 -7.351909e-01 -2.061102e+00 -1.042711e-01 -1.448437e-01 -1.080130e+00 -3.968361e-01 -5.121526e-01 -5.325524e-01 6.617632e-01
<VARIANCE> 25
 3.967251e+01 1.158253e+01 1.204808e+01 2.169112e+01 1.957920e+01 3.976139e+01 2.749092e+01 2.421190e+01 1.590293e+01 9.962767e+00 1.852192e+01 1.450198e+01 9.007273e+00 1.559488e+00 1.717963e+00 2.427258e+00 2.628341e+00 2.947688e+00 6.184654e+00 3.009237e+00 1.557071e+00 1.838418e+00 1.253987e+00 1.510328e+00 2.571431e+00
<GCONST> 9.313583e+01
<TRANSP> 5
 0.000000e+00 1.000000e+00 0.000000e+00 0.000000e+00 0.000000e+00
 0.000000e+00 9.012484e-01 9.875163e-02 0.000000e+00 0.000000e+00
 0.000000e+00 0.000000e+00 6.800505e-01 3.199496e-01 0.000000e+00
 0.000000e+00 0.000000e+00 0.000000e+00 8.826517e-01 1.173483e-01
 0.000000e+00 0.000000e+00 0.000000e+00 0.000000e+00 0.000000e+00
<ENDHMM>
~h "dh"
<BEGINHMM>
<NUMSTATES> 5
<STATE> 2
<MEAN> 25
 2.238905e+00 4.488915e+00 4.838246e+00 5.228351e+00 -1.940857e+00 -5.838172e+00 -3.397329e+00 -1.891369e+00 -3.413223e+00 -7.781507e-01 -1.436655e+00 -1.397977e+00 1.084479e+00 -1.381756e+00 1.731907e-01 -1.198178e+00 -1.787004e+00 -1.001874e+00 -1.073265e+00 1.505602e+00 8.087389e-01 1.157078e-01 2.241410e-01 -8.086981e-01 1.583993e+00
<VARIANCE> 25
 4.250058e+01 2.512381e+01 3.003577e+01 2.257725e+01 2.895627e+01 2.807680e+01 4.248485e+01 3.540441e+01 1.366491e+01 2.193336e+01 2.387718e+01 2.087645e+01 4.016974e+00 3.285897e+00 3.912066e+00 3.650336e+00 2.390687e+00 3.827880e+00 3.324252e+00 4.021911e+00 1.635517e+00 3.057975e+00 2.410287e+00 2.344305e+00 1.494600e+00
<GCONST> 9.915993e+01
<STATE> 3
<MEAN> 25
 4.736119e+00 4.673297e-01 5.730878e+00 3.790965e+00 -6.659140e+00 -8.122537e+00 -4.022189e+00 2.782916e+00 1.435004e+00 -3.887233e+00 1.675770e-01 1.518246e-01 5.703892e-01 -5.204339e-01 -1.292589e+00 7.460809e-01 -1.175447e-01 5.904653e-02 -5.066058e-01 7.687078e-02 4.475971e-01 -9.372078e-01 2.671487e-01 4.227864e-01 -1.249405e-02
<VARIANCE> 25
 5.420881e+00 4.114733e+01 3.557550e+01 2.773191e+01 2.542768e+01 3.708027e+01 4.421455e+01 2.625209e+01 1.183589e+01 1.933277e+01 5.290569e+01 4.600362e+01 1.012972e+00 1.299128e+00 1.880845e+00 3.273510e+00 1.481296e+00 8.875551e-01 8.554254e-01 1.486606e+00 9.453818e-01 2.211696e+00 8.304694e-01 2.839879e+00 5.228152e-01
<GCONST> 8.893768e+01
<STATE> 4
<MEAN> 25
 3.383743e+00 -1.075643e+00 9.359075e-01 4.659022e+00 -5.859252e+00 -5.069831e+00 -3.443915e+00 2.047920e+00 2.631592e+00 -1.478407e+00 -2.482160e+00 -2.666023e+00 5.180073e-01 -2.288412e-01 -1.036452e-02 1.013487e+00 -7.167677e-01 -5.890569e-01 -6.581846e-01 -8.901892e-02 -8.703660e-02 -8.653753e-02 7.027796e-01 4.754890e-01 -4.141456e-01
<VARIANCE> 25
 3.413987e+01 2.893096e+01 1.397060e+01 4.359363e+01 4.932836e+01 5.178243e+01 4.679466e+01 2.413217e+01 7.252698e+00 2.440112e+01 3.355880e+01 4.459098e+01 5.030521e+00 2.508966e+00 2.058196e+00 2.990409e+00 3.766707e+00 5.180898e+00 4.478989e+00 2.396037e+00 8.481556e-01 2.988312e+00 1.426656e+00 2.123752e+00 3.949399e+00
<GCONST> 9.972501e+01
<TRANSP> 5
 0.000000e+00 1.000000e+00 0.000000e+00 0.000000e+00 0.000000e+00
 0.000000e+00 7.845424e-01 2.154575e-01 0.000000e+00 0.000000e+00
 0.000000e+00 0.000000e+00 6.888105e-01 3.111894e-01 0.000000e+00
 0.000000e+00 0.000000e+00 0.000000e+00 6.533134e-01 3.466865e-01
 0.000000e+00 0.000000e+00 0.000000e+00 0.000000e+00 0.000000e+00
<ENDHMM>
~h "eh"
<BEGINHMM>
<NUMSTATES> 5
<STATE> 2
<MEAN> 25
 5.094240e+00 -4.465669e+00 2.575347e+00 -1.575346e+00 -6.450874e+00 -6.516964e+00 5.699465e-01 5.016950e+00 -3.909905e+00 4.090808e-02 -2.773116e+00 -4.791005e+00 1.177450e+00 -9.428480e-01 -8.441192e-02 -6.053973e-01 -6.770765e-01 -5.682270e-01 -6.273741e-01 6.952246e-01 -3.265563e-01 -3.078164e-01 -3.454971e-01 -1.243897e+00 1.329017e+00
<VARIANCE> 25
 2.710106e+01 2.299442e+01 3.370344e+01 2.641502e+01 4.559882e+01 3.788674e+01 5.983139e+01 3.997190e+01 3.189182e+01 2.639872e+01 2.119863e+01 3.441389e+01 2.615194e+00 3.164048e+00 3.043192e+00 1.990998e+00 4.157928e+00 3.423434e+00 4.206870e+00 3.939938e+00 3.870417e+00 2.618327e+00 2.180026e+00 4.292762e+00 3.075047e+00
<GCONST> 1.027893e+02
<STATE> 3
<MEAN> 25
 6.657945e+00 -4.375695e+00 2.926256e+00 -2.837302e+00 -7.190351e+00 -6.027856e+00 -1.594606e+00 4.484913e+00 -4.256646e+00 -2.337298e+00 -4.466586e+00 -7.763783e+00 -6.307127e-02 5.923249e-01 -2.452763e-01 3.942147e-01 8.465994e-01 3.351560e-01 -1.646195e-01 -6.006680e-01 7.758377e-02 -3.026078e-02 -3.371820e-01 6.880028e-02 -9.436982e-01
<VARIANCE> 25
 1.067530e+01 2.373341e+01 3.601366e+01 2.132645e+01 3.991654e+01 3.291240e+01 5.821029e+01 3.401021e+01 4.230403e+01 3.318314e+01 2.450043e+01 2.708624e+01 7.034910e-01 1.534114e+00 1.716116e+00 2.037015e+00 2.588496e+00 2.413441e+00 2.309941e+00 2.145150e+00 2.259071e+00 1.932760e+00 1.954396e+00 1.804348e+00 2.787110e+00
<GCONST> 9.516115e+01
<STATE> 4
<MEAN> 25
 4.016639e+00 5.443327e-01 -1.235843e+00 -8.956357e-02 2.700594e-01 -1.525077e+00 -2.272705e+00 -8.039994e-02 -5.221631e-01 -1.791719e-01 -3.602994e+00 -6.212473e+00 -5.131776e-01 1.041852e+00 2.111694e-01 7.100902e-02 8.199999e-01 1.184865e+00 -7.465245e-02 -1.756253e+00 -4.109022e-01 2.460776e-01 1.448772e-01 4.596623e-01 -6.140447e-01
<VARIANCE> 25
 4.899789e+01 3.344334e+01 4.331100e+01 3.099056e+01 3.848504e+01 3.819179e+01 5.199892e+01 3.328745e+01 3.138269e+01 2.623726e+01 3.598129e+01 4.435544e+01 3.390934e+00 1.420255e+00 2.292528e+00 4.288767e+00 2.477752e+00 3.466722e+00 2.536505e+00 3.975989e+00 3.816881e+00 3.069917e+00 2.472320e+00 2.598054e+00 2.560821e+00
<GCONST> 1.029692e+02
<TRANSP> 5
 0.000000e+00 1.000000e+00 0.000000e+00 0.000000e+00 0.000000e+00
 0.000000e+00 7.316787e-01 2.683213e-01 0.000000e+00 0.000000e+00
 0.000000e+00 0.000000e+00 8.317229e-01 1.682771e-01 0.000000e+00
 0.000000e+00 0.000000e+00 0.000000e+00 5.796282e-01 4.203719e-01
 0.000000e+00 0.000000e+00 0.000000e+00 0.000000e+00 0.000000e+00
<ENDHMM>
~h "er"
<BEGINHMM>
<NUMSTATES> 5
<STATE> 2
<MEAN> 25
 1.167544e+01 -4.783242e-01 -3.861637e+00 8.179404e+00 -1.246206e+00 -1.005940e+01 -1.522050e+01 4.845920e+00 1.377281e+00 -7.705472e+00 1.368629e+00 5.553363e+00 2.216624e-01 -2.914731e-02 -5.154502e-01 2.667895e-01 2.767080e-01 -1.669707e-01 -7.082719e-01 4.570176e-01 3.990727e-01 -2.053581e-01 -2.876264e-01 1.105979e-01 -2.247738e-01
<VARIANCE> 25
 1.176776e+01 1.391837e+01 4.424363e+01 4.569144e+01 4.413788e+01 5.044234e+01 5.060171e+01 5.008785e+01 4.222520e+01 2.875652e+01 3.760766e+01 1.691183e+01 7.817535e-01 6.241559e-01 1.428346e+00 1.102594e+00 1.714651e+00 1.898491e+00 2.746070e+00 1.860116e+00 1.880701e+00 1.505880e+00 1.390454e+00 1.245143e+00 3.293987e-01
<GCONST> 9.078724e+01
<STATE> 3
<MEAN> 25
 5.518397e+00 -5.228956e-01 -1.505378e+00 8.601404e+00 -1.092788e+00 -8.165643e+00 -7.663425e+00 5.040735e+00 1.239198e+00 -7.058782e+00 -3.611952e+00 4.048907e+00 -1.297932e+00 -2.604307e-01 5.475649e-01 -8.998401e-01 -4.296196e-02 1.064299e+00 2.007963e+00 -5.114993e-01 -4.876983e-01 6.343969e-01 -2.372672e-01 -5.984265e-01 -7.077873e-01
<VARIANCE> 25
 2.579464e+01 1.948818e+01 2.255252e+01 3.628042e+01 3.096270e+01 5.601658e+01 6.476369e+01 4.062852e+01 4.049510e+01 2.713279e+01 3.406258e+01 2.651148e+01 1.339610e+00 1.038449e+00 2.022064e+00 2.384641e+00 3.043008e+00 3.877245e+00 3.471149e+00 3.150059e+00 2.729831e+00 2.443164e+00 2.872470e+00 1.935686e+00 8.420949e-01
<GCONST> 9.821984e+01
<STATE> 4
<MEAN> 25
 -1.154058e+00 -3.261009e+00 -4.079371e+00 -1.846570e+00 5.192052e-01 4.249943e-01 -7.364290e-01 6.123902e-01 2.410275e+00 1.283770e+00 -1.908714e+00 5.796509e-01 -1.510122e-01 1.407274e-02 -1.555645e-02 -1.976445e-01 8.590548e-02 2.299793e-01 1.668175e-01 -7.741521e-02 9.189565e-02 3.398700e-01 1.799437e-01 -4.560493e-02 -8.306696e-02
<VARIANCE> 25
 7.091744e+00 5.327927e+00 1.347776e+01 1.155319e+01 1.368640e+01 1.917295e+01 1.634858e+01 1.779399e+01 2.000422e+01 1.985032e+01 1.438687e+01 1.525453e+01 5.031479e-01 4.939852e-01 9.047855e-01 1.201118e+00 1.139330e+00 1.571359e+00 1.918268e+00 1.770202e+00 1.721380e+00 1.728824e+00 1.655682e+00 1.745716e+00 2.086265e-01
<GCONST> 7.832578e+01
<TRANSP> 5
 0.000000e+00 1.000000e+00 0.000000e+00 0.000000e+00 0.000000e+00
 0.000000e+00 9.107273e-01 8.927264e-02 0.000000e+00 0.000000e+00
 0.000000e+00 0.000000e+00 8.489570e-01 1.510430e-01 0.000000e+00
 0.000000e+00 0.000000e+00 0.000000e+00 9.232409e-01 7.675906e-02
 0.000000e+00 0.000000e+00 0.000000e+00 0.000000e+00 0.000000e+00
<ENDHMM>
~h "ey"
<BEGINHMM>
<NUMSTATES> 5
<STATE> 2
<MEAN> 25
 3.515731e+00 -5.617160e-01 1.192011e+01 -2.884733e+00 -1.422818e+01 -3.241414e+00 -1.938854e+00 2.554462e+00 -8.810237e+00 2.074899e+00 2.474767e+00 -2.862951e+00 8.272844e-02 3.029541e-01 1.571389e+00 -7.905722e-01 -1.345527e+00 6.158901e-01 -6.627434e-01 -9.269676e-01 -1.371675e+00 4.490057e-01 -3.793250e-02 -7.820844e-01 8.675282e-01
<VARIANCE> 25
 1.213030e+01 1.904440e+01 3.064066e+01 4.156321e+01 3.201356e+01 3.765629e+01 5.011855e+01 2.790089e+01 3.803090e+01 2.021434e+01 3.349923e+01 2.236244e+01 1.162933e+00 1.243645e+00 2.116524e+00 2.109380e+00 3.338433e+00 1.911505e+00 3.489591e+00 1.942105e+00 3.700419e+00 1.289186e+00 1.946663e+00 1.749158e+00 3.213090e+00
<GCONST> 9.572741e+01
<STATE> 3
<MEAN> 25
 2.354930e+00 2.944367e+00 1.645254e+01 -6.318235e+00 -1.462347e+01 3.307909e+00 -4.799205e+00 -5.514858e+00 -1.023331e+01 2.214416e+00 -5.129071e-01 -5.814541e+00 -1.930505e-02 2.977690e-01 3.080350e-01 7.070196e-02 3.596088e-01 4.896095e-02 -1.741924e-01 -6.380225e-01 -1.764197e-02 -2.902325e-01 -3.301436e-02 -3.037757e-01 -4.451701e-01
<VARIANCE> 25
 5.182582e+00 1.174152e+01 1.691685e+01 3.342230e+01 1.179861e+01 3.661033e+01 6.429113e+01 2.715824e+01 2.399591e+01 1.597969e+01 3.482474e+01 2.001068e+01 1.545232e-01 3.677383e-01 4.739836e-01 5.801465e-01 5.822428e-01 1.009090e+00 8.874518e-01 1.082038e+00 1.063006e+00 9.989175e-01 8.462796e-01 5.916980e-01 2.880871e-01
<GCONST> 7.581477e+01
<STATE> 4
<MEAN> 25
 2.404272e+00 1.549104e+00 1.013116e+01 1.029801e+00 -6.766272e+00 -1.587978e+00 5.163282e-01 -2.563276e+00 -6.735393e+00 -2.990819e+00 -1.074074e-01 -6.448032e+00 -2.129060e-01 -1.426337e-01 -1.713703e+00 1.038172e+00 1.810028e+00 -2.258249e-01 2.830870e-01 4.838812e-01 1.087174e+00 -1.956686e-01 -4.649493e-01 6.596072e-01 -1.185526e+00
<VARIANCE> 25
 1.039538e+01 3.005623e+01 7.324643e+01 3.184574e+01 5.000673e+01 4.372678e+01 6.760920e+01 7.996980e+01 4.452789e+01 2.768904e+01 3.105849e+01 2.561780e+01 2.270552e+00 1.335208e+00 2.330491e+00 4.065621e+00 3.302306e+00 4.333024e+00 4.404808e+00 2.627856e+00 2.945732e+00 2.724366e+00 2.742517e+00 2.125766e+00 1.402923e+00
<GCONST> 1.021796e+02
<TRANSP> 5
 0.000000e+00 1.000000e+00 0.000000e+00 0.000000e+00 0.000000e+00
 0.000000e+00 7.738143e-01 2.261857e-01 0.000000e+00 0.000000e+00
 0.000000e+00 0.000000e+00 8.811083e-01 1.188918e-01 0.000000e+00
 0.000000e+00 0.000000e+00 0.000000e+00 7.894768e-01 2.105232e-01
 0.000000e+00 0.000000e+00 0.000000e+00 0.000000e+00 0.000000e+00
<ENDHMM>
~h "hh"
<BEGINHMM>
<NUMSTATES> 5
<STATE> 2
<MEAN> 25
 1.382406e+00 -6.741456e+00 -4.073151e+00 -2.435175e+00 2.207333e+00 6.275524e+00 6.892512e-01 -1.953817e+00 6.126277e-01 -1.537143e+00 -9.635709e-01 -5.351426e+00 -1.511586e-01 -4.888715e-01 2.843621e-01 2.915460e-01 5.705766e-01 5.144129e-02 5.318999e-01 -4.218814e-01 -3.062953e-01 -1.535716e-01 3.522733e-01 6.943879e-01 3.915109e-01
<VARIANCE> 25
 4.231944e+01 4.957732e+01 3.176963e+01 2.388881e+01 3.340200e+01 3.248400e+01 3.167600e+01 1.508633e+01 1.643419e+01 2.007384e+01 2.566133e+01 8.315096e+01 1.020506e+00 2.679021e+00 1.200822e+00 1.482579e+00 1.424624e+00 2.317382e+00 2.450750e+00 2.031560e+00 1.497224e+00 1.582290e+00 1.486328e+00 2.272238e+00 1.322840e+00
<GCONST> 9.359218e+01
<STATE> 3
<MEAN> 25
 -2.517997e+00 -6.181096e+00 -3.535117e+00 -9.574652e-01 5.065671e+00 3.355080e+00 1.262308e+00 -4.558211e+00 -1.591498e+00 1.347017e+00 4.804338e+00 4.243679e+00 -3.570450e-02 -1.554775e-02 -1.351242e-01 1.166133e-02 -5.044900e-02 1.509180e-01 3.543379e-01 3.823045e-01 -1.163317e-01 3.507068e-01 1.574632e-01 1.036447e-03 1.855724e-01
<VARIANCE> 25
 1.945619e+01 2.656726e+01 3.688979e+01 2.066556e+01 4.419268e+01 2.704652e+01 1.869547e+01 3.270948e+01 4.280793e+01 2.649022e+01 4.949043e+01 7.224262e+01 7.342507e-01 1.289031e+00 1.032815e+00 1.038523e+00 8.572189e-01 1.348368e+00 1.590980e+00 2.157351e+00 1.938127e+00 1.654842e+00 1.147524e+00 8.748083e-01 8.746164e-01
<GCONST> 8.997699e+01
<STATE> 4
<MEAN> 25
 -4.308382e+00 -5.169597e-01 -1.133870e-01 3.177562e+00 2.122277e+00 2.714707e+00 3.383575e+00 8.598698e-01 3.820027e+00 1.011360e+00 2.529403e+00 3.489804e+00 1.229677e-01 -4.515799e-02 -1.077001e-01 -6.234409e-02 -1.597338e-01 -1.407353e-02 1.569614e-01 1.660254e-01 -1.364166e-01 -5.246255e-02 -1.625817e-01 -1.164654e-01 8.890171e-02
<VARIANCE> 25
 5.923678e+00 4.043580e+00 7.612008e+00 6.849470e+00 9.330590e+00 9.628021e+00 1.288220e+01 1.304039e+01 1.245812e+01 1.396660e+01 1.377785e+01 1.664317e+01 7.293829e-01 6.001748e-01 6.889639e-01 7.207015e-01 9.579809e-01 1.171606e+00 1.689937e+00 1.607859e+00 1.389839e+00 1.505626e+00 1.566444e+00 1.395484e+00 4.182745e-01
<GCONST> 7.353056e+01
<TRANSP> 5
 0.000000e+00 1.000000e+00 0.000000e+00 0.000000e+00 0.000000e+00
 0.000000e+00 6.084526e-01 3.915474e-01 0.000000e+00 0.000000e+00
 0.000000e+00 0.000000e+00 5.379932e-01 4.620068e-01 0.000000e+00
 0.000000e+00 0.000000e+00 0.000000e+00 9.306678e-01 6.933221e-02
 0.000000e+00 0.000000e+00 0.000000e+00 0.000000e+00 0.000000e+00
<ENDHMM>
~h "ih"
<BEGINHMM>
<NUMSTATES> 5
<STATE> 2
<MEAN> 25
 3.744200e+00 6.729761e-01 7.500622e+00 1.261838e-01 -9.189207e+00 -5.817460e+00 -1.392880e+00 -1.523187e+00 -1.034310e+01 -1.179551e+00 -1.243483e-01 -4.209985e+00 -1.588551e-01 2.673289e-01 -6.742208e-03 3.952904e-01 3.933208e-01 3.483961e-01 1.510079e-01 -5.531715e-01 -2.046021e-02 -5.177500e-02 2.314982e-05 -1.227859e-01 -7.593833e-01
<VARIANCE> 25
 2.517729e+01 2.621503e+01 4.110358e+01 3.974238e+01 6.383429e+01 8.250459e+01 4.837193e+01 6.218583e+01 7.120734e+01 2.997543e+01 2.632196e+01 3.381284e+01 3.251612e+00 2.664140e+00 5.215480e+00 3.304251e+00 8.401049e+00 6.597995e+00 4.551183e+00 5.132477e+00 9.352278e+00 2.725232e+00 2.805348e+00 2.022334e+00 6.430320e+00
<GCONST> 1.098801e+02
<STATE> 3
<MEAN> 25
 -9.175577e-01 7.859696e-01 1.708790e+00 1.945794e+00 -2.745659e-01 -2.344308e+00 1.509557e+00 -8.478808e-01 -3.095518e-01 1.660772e-01 -6.542448e-01 -2.775906e-01 -6.749104e-01 -5.684326e-01 -5.794089e-01 -3.571500e-01 8.478259e-01 5.219170e-01 4.778857e-01 7.309651e-01 1.419404e+00 4.122322e-01 2.471579e-01 4.380439e-01 -3.459862e-01
<VARIANCE> 25
 3.272536e+01 3.455488e+01 3.235916e+01 2.683423e+01 2.952812e+01 4.445825e+01 5.382247e+01 5.545877e+01 3.876706e+01 2.597248e+01 2.495176e+01 3.013297e+01 2.507469e+00 1.797525e+00 3.306349e+00 2.289640e+00 2.624215e+00 4.248923e+00 2.596763e+00 3.700029e+00 3.982653e+00 3.097561e+00 2.089307e+00 1.793754e+00 3.147408e+00
<GCONST> 1.016469e+02
<STATE> 4
<MEAN> 25
 -1.370729e+00 -2.008622e+00 -2.589468e-01 -2.739241e-01 6.022572e-02 -9.733732e-01 9.829980e-01 2.160815e+00 2.305596e+00 1.819061e+00 -6.923429e-01 9.998056e-02 5.760301e-02 -3.563044e-02 -3.711091e-01 -3.549972e-02 3.883353e-01 4.614815e-01 -2.161737e-01 -1.988914e-01 2.968650e-01 2.587380e-01 1.908953e-01 1.339635e-01 -4.798405e-01
<VARIANCE> 25
 4.722936e+01 2.887010e+01 2.717161e+01 2.614630e+01 3.031215e+01 3.960668e+01 7.715827e+01 3.372797e+01 3.977824e+01 2.418742e+01 3.488379e+01 5.378760e+01 1.075291e+00 1.575191e+00 1.138902e+00 1.723623e+00 1.822671e+00 1.806734e+00 1.178744e+00 1.919045e+00 2.174876e+00 1.401557e+00 1.402275e+00 1.839793e+00 1.091867e+00
<GCONST> 9.445133e+01
<TRANSP> 5
 0.000000e+00 1.000000e+00 0.000000e+00 0.000000e+00 0.000000e+00
 0.000000e+00 8.189239e-01 1.810761e-01 0.000000e+00 0.000000e+00
 0.000000e+00 0.000000e+00 5.377181e-01 4.622819e-01 0.000000e+00
 0.000000e+00 0.000000e+00 0.000000e+00 6.900802e-01 3.099198e-01
 0.000000e+00 0.000000e+00 0.000000e+00 0.000000e+00 0.000000e+00
<ENDHMM>
~h "iy"
<BEGINHMM>
<NUMSTATES> 5
<STATE> 2
<MEAN> 25
 1.828079e+00 4.441222e+00 2.174250e+01 -4.151188e+00 -1.144442e+01 1.626563e+00 -1.207378e+01 -7.371655e+00 -1.246481e+01 -3.953443e+00 7.778905e-02 -7.407076e+00 1.203048e-01 1.425243e-01 2.508436e-01 -1.362878e-01 -3.324850e-01 2.761682e-01 -3.135576e-01 -1.273918e-01 -1.824624e-01 -8.663715e-03 1.115222e-01 -2.940574e-01 -1.799123e-02
<VARIANCE> 25
 5.865378e+00 9.346025e+00 1.732802e+01 2.049098e+01 2.085651e+01 2.404784e+01 3.037506e+01 1.953404e+01 1.818094e+01 1.721624e+01 1.260740e+01 1.375806e+01 5.641469e-01 7.878469e-01 1.677236e+00 1.607759e+00 1.997750e+00 1.816499e+00 1.483572e+00 1.059197e+00 1.009892e+00 1.043520e+00 9.037463e-01 1.148799e+00 3.162392e-01
<GCONST> 8.018960e+01
<STATE> 3
<MEAN> 25
 3.225921e+00 5.232453e+00 1.625893e+01 1.809341e+00 -1.078533e+01 -3.109720e+00 -5.990993e+00 -7.354929e+00 -1.159956e+01 -3.710752e+00 1.014212e+00 -4.875175e+00 -8.900586e-02 -1.159926e-01 -1.619629e+00 1.494718e+00 1.247303e+00 -6.768820e-01 1.000892e+00 7.041301e-01 1.318019e+00 -8.035360e-02 -1.572791e-01 1.007552e+00 -9.121836e-01
<VARIANCE> 25
 1.228434e+01 2.888498e+01 2.898310e+01 3.276539e+01 3.395220e+01 3.242419e+01 2.608893e+01 3.611469e+01 3.579171e+01 2.184564e+01 3.125150e+01 2.549273e+01 1.532949e+00 2.290012e+00 2.230817e+00 1.840424e+00 3.402213e+00 2.785024e+00 3.313144e+00 2.658824e+00 3.569473e+00 2.421082e+00 2.357394e+00 2.719272e+00 9.391786e-01
<GCONST> 9.691328e+01
<STATE> 4
<MEAN> 25
 6.233315e-01 3.088125e+00 6.556763e+00 6.327096e+00 -3.537156e+00 -2.117814e+00 -7.071921e-01 -1.305038e+00 -1.651349e+00 -3.514539e+00 1.443357e-01 -3.460924e-01 -7.144479e-01 -5.907902e-01 -1.827836e+00 5.183154e-01 1.664004e+00 3.288140e-01 7.680178e-01 1.163764e+00 1.873705e+00 6.491912e-02 -2.564585e-01 6.195521e-01 -6.481189e-01
<VARIANCE> 25
 3.836528e+01 2.661827e+01 3.396045e+01 2.390278e+01 5.572215e+01 4.089153e+01 2.652243e+01 4.348112e+01 4.153889e+01 2.701194e+01 2.522337e+01 1.664922e+01 2.050690e+00 2.137954e+00 3.209531e+00 1.337733e+00 3.843620e+00 3.649272e+00 3.044112e+00 3.681571e+00 3.737408e+00 2.761871e+00 3.076194e+00 3.051087e+00 1.299134e+00
<GCONST> 1.002473e+02
<TRANSP> 5
 0.000000e+00 1.000000e+00 0.000000e+00 0.000000e+00 0.000000e+00
 0.000000e+00 9.029201e-01 9.707987e-02 0.000000e+00 0.000000e+00
 0.000000e+00 0.000000e+00 6.731360e-01 3.268640e-01 0.000000e+00
 0.000000e+00 0.000000e+00 0.000000e+00 6.218689e-01 3.781311e-01
 0.000000e+00 0.000000e+00 0.000000e+00 0.000000e+00 0.000000e+00
<ENDHMM>
~h "jh"
<BEGINHMM>
<NUMSTATES> 5
<STATE> 2
<MEAN> 25
 -1.033331e-01 -1.219666e+00 -1.316242e+00 2.376843e+00 -3.104377e+00 -3.892581e+00 9.529843e-01 -2.916582e+00 -3.397809e+00 1.177432e-02 1.066353e+00 9.554171e-01 1.046381e+00 3.591092e-01 1.388219e+00 -9.271194e-01 -1.908626e+00 -2.259429e+00 -1.345051e+00 -1.161347e+00 -2.276956e+00 3.421355e-02 -5.595184e-01 -1.499547e+00 4.413646e+00
<VARIANCE> 25
 1.918729e+01 1.515320e+01 4.295459e+01 2.273242e+01 3.751060e+01 7.403564e+01 1.561466e+01 4.882370e+01 3.744080e+01 2.383623e+01 7.727966e+00 1.275285e+01 1.703917e+00 4.939362e-01 6.346105e+00 9.213686e-01 4.577994e+00 5.078722e+00 1.382291e+00 8.295209e+00 4.867626e+00 2.400888e+00 7.373196e-01 8.262501e-01 1.269348e+01
<GCONST> 9.613669e+01
<STATE> 3
<MEAN> 25
 1.058744e+01 -2.697911e+00 4.187656e+00 -3.815611e+00 -6.579646e+00 -7.747786e+00 -1.077040e+01 -1.342205e+00 -6.248775e+00 1.755610e+00 -1.354488e+00 -6.426671e+00 1.054571e-01 1.559437e-01 1.014182e+00 -4.542748e-01 3.265059e-01 2.024275e-01 -6.016452e-01 2.741872e-01 -5.852070e-01 -4.080906e-02 -7.064571e-02 -3.931059e-01 -4.863136e-01
<VARIANCE> 25
 8.974618e+00 8.979070e+00 5.306360e+01 2.519524e+01 3.969455e+01 3.341693e+01 1.200506e+01 3.654539e+01 8.800687e+01 2.086050e+01 1.372493e+01 2.757936e+01 1.716125e+00 1.389490e+00 3.470042e+00 1.922628e+00 2.926599e+00 4.087411e+00 1.974072e+00 5.477244e+00 6.995280e+00 1.875219e+00 3.036065e+00 2.492990e+00 1.060960e+00
<GCONST> 9.654659e+01
<STATE> 4
<MEAN> 25
 -4.524795e+00 -2.830063e-02 6.370388e+00 -1.727854e+00 -1.689132e+00 2.662878e+00 -1.290806e+00 -1.820436e+00 -1.974468e+00 -4.188185e+00 5.391955e-01 -1.572964e+00 -3.679606e-01 2.496395e-01 -2.745838e-01 -2.015707e-01 1.006914e-01 7.631710e-01 3.348849e-01 -3.093883e-01 7.527663e-01 -2.376266e-01 1.113820e-01 8.716275e-02 8.978469e-02
<VARIANCE> 25
 8.931863e+01 4.253197e+01 8.819303e+01 4.757087e+01 3.480601e+01 8.218590e+01 3.208300e+01 3.190159e+01 8.332517e+01 1.854292e+01 2.795790e+01 3.189962e+01 1.020116e+01 4.060279e+00 1.970701e+00 6.192764e+00 4.155479e+00 8.569388e+00 3.540242e+00 3.502677e+00 4.915558e+00 1.997076e+00 2.252580e+00 2.626991e+00 5.911862e+00
<GCONST> 1.097119e+02
<TRANSP> 5
 0.000000e+00 1.000000e+00 0.000000e+00 0.000000e+00 0.000000e+00
 0.000000e+00 6.665499e-01 3.334501e-01 0.000000e+00 0.000000e+00
 0.000000e+00 0.000000e+00 8.453503e-01 1.546496e-01 0.000000e+00
 0.000000e+00 0.000000e+00 0.000000e+00 9.417571e-01 5.824279e-02
 0.000000e+00 0.000000e+00 0.000000e+00 0.000000e+00 0.000000e+00
<ENDHMM>
~h "ng"
<BEGINHMM>
<NUMSTATES> 5
<STATE> 2
<MEAN> 25
 4.712985e+00 1.351041e+00 -3.492498e-01 5.850072e+00 2.523061e+00 4.369138e-01 1.376484e+00 -7.336242e+00 -3.469303e+00 -1.551993e-01 -3.635519e+00 -4.640516e+00 -3.904568e-01 1.087989e-02 1.294012e-01 1.080761e-01 2.358365e-01 1.636774e-01 1.313003e-01 1.678558e-03 1.175631e-01 -3.773633e-03 -2.731007e-02 3.387626e-01 -5.154985e-01
<VARIANCE> 25
 1.396841e+01 1.510277e+01 4.543260e+01 1.438410e+01 1.807187e+01 1.584444e+01 2.179930e+01 3.028956e+01 3.524994e+01 1.094824e+01 1.586865e+01 1.178204e+01 3.804849e-01 4.417919e-01 9.751971e-01 5.727071e-01 7.976090e-01 9.602973e-01 1.121732e+00 1.462787e+00 1.371940e+00 7.484798e-01 1.156942e+00 8.567436e-01 1.951914e-01
<GCONST> 7.736412e+01
<STATE> 3
<MEAN> 25
 -3.152507e+00 -5.422785e-01 -8.334270e-01 5.285183e+00 5.189149e+00 1.894574e+00 3.814806e+00 -4.972911e-01 2.591662e+00 6.628499e-02 -1.737547e+00 3.317236e+00 -1.009946e+00 -9.554832e-01 -9.742219e-01 -8.380867e-01 1.620947e-02 4.750943e-01 1.067402e+00 1.582646e+00 1.531024e+00 1.075131e+00 1.569231e+00 1.791912e+00 -6.623539e-01
<VARIANCE> 25
 8.603579e+00 1.207186e+01 1.621040e+01 1.516966e+01 1.078376e+01 1.634519e+01 1.022592e+01 3.478209e+01 2.788052e+01 1.446052e+01 2.313230e+01 2.168492e+01 6.593363e-01 9.858716e-01 1.183911e+00 8.589777e-01 1.679429e+00 1.995117e+00 1.304229e+00 2.603546e+00 3.288149e+00 2.527050e+00 1.773540e+00 1.476099e+00 2.184496e-01
<GCONST> 8.293438e+01
<STATE> 4
<MEAN> 25
 -5.335287e+00 -2.800053e+00 -2.609252e+00 3.693954e+00 5.392371e+00 1.990775e+00 6.166714e+00 3.306446e+00 7.224308e+00 3.816730e+00 3.251345e+00 6.294854e+00 -1.603573e-02 -4.446600e-03 -1.124441e-02 2.151132e-02 1.943208e-02 -2.056409e-02 -1.928790e-02 -2.009940e-02 3.002935e-02 5.100742e-02 5.952295e-02 1.196165e-02 -1.313852e-02
<VARIANCE> 25
 2.384348e+00 3.478430e+00 8.064893e+00 7.994814e+00 6.524023e+00 1.258722e+01 1.037734e+01 1.039093e+01 1.222837e+01 1.301183e+01 1.071314e+01 1.137351e+01 1.164695e-01 2.310197e-01 3.987040e-01 6.997594e-01 7.171403e-01 8.119870e-01 1.103950e+00 1.301350e+00 1.212764e+00 1.316045e+00 1.335742e+00 1.287660e+00 3.606876e-02
<GCONST> 6.380699e+01
<TRANSP> 5
 0.000000e+00 1.000000e+00 0.000000e+00 0.000000e+00 0.000000e+00
 0.000000e+00 9.057825e-01 9.421757e-02 0.000000e+00 0.000000e+00
 0.000000e+00 0.000000e+00 7.385402e-01 2.614599e-01 0.000000e+00
 0.000000e+00 0.000000e+00 0.000000e+00 9.640805e-01 3.591952e-02
 0.000000e+00 0.000000e+00 0.000000e+00 0.000000e+00 0.000000e+00
<ENDHMM>
~h "ow"
<BEGINHMM>
<NUMSTATES> 5
<STATE> 2
<MEAN> 25
 1.094068e+01 1.172713e+00 -5.943828e+00 -9.149239e+00 -4.996631e+00 7.218117e+00 -6.814904e+00 -4.456454e+00 -5.854798e+00 9.546136e-01 4.013056e+00 -2.625151e+00 1.220977e-01 4.813121e-01 7.430028e-02 -2.041678e-01 -2.270305e-01 2.877707e-01 2.221354e-01 -1.192645e-01 -5.432117e-01 -5.297018e-01 -6.369132e-02 2.721900e-01 -1.896380e-01
<VARIANCE> 25
 9.325428e+00 1.742563e+01 1.591259e+01 2.131594e+01 2.389855e+01 3.026614e+01 3.359288e+01 2.620851e+01 3.599168e+01 4.707955e+01 2.021978e+01 3.018052e+01 4.627509e-01 5.569358e-01 4.706177e-01 1.043511e+00 8.669454e-01 1.248319e+00 9.044847e-01 1.070242e+00 1.081683e+00 1.233546e+00 1.294332e+00 1.518615e+00 5.811355e-01
<GCONST> 8.247838e+01
<STATE> 3
<MEAN> 25
 8.841235e+00 5.491010e+00 -1.440495e+00 -3.977416e+00 -5.935326e+00 2.328891e+00 -2.652709e+00 -1.845510e+00 -5.755634e+00 -5.427234e+00 -2.897403e+00 -2.225659e+00 -5.857872e-01 -2.971028e-01 3.088093e-01 7.591147e-01 5.100928e-01 -5.105064e-01 1.506792e-01 9.801611e-02 4.696991e-01 3.430344e-01 -1.478402e-01 -5.578988e-02 -5.238923e-01
<VARIANCE> 25
 1.705838e+01 1.773434e+01 1.906127e+01 2.901052e+01 2.482185e+01 2.001209e+01 2.275460e+01 3.142557e+01 3.266338e+01 2.678482e+01 4.972237e+01 4.169483e+01 1.013037e+00 9.347822e-01 8.356931e-01 1.737973e+00 1.574203e+00 1.416099e+00 1.719093e+00 2.300431e+00 2.785469e+00 2.406263e+00 2.288494e+00 1.733024e+00 3.757356e-01
<GCONST> 8.996243e+01
<STATE> 4
<MEAN> 25
 -3.241457e+00 -2.676974e+00 -1.447371e+00 6.179153e-01 1.956489e+00 2.236352e+00 2.694862e+00 1.473122e+00 3.256413e+00 2.583680e+00 1.601246e+00 2.282612e+00 -1.620582e-01 -1.436718e-01 -8.126508e-03 7.378225e-02 1.036446e-01 2.897513e-02 1.014810e-01 4.103673e-02 9.634569e-02 1.133336e-01 7.920795e-02 1.339457e-01 -8.891196e-02
<VARIANCE> 25
 1.217146e+01 8.048912e+00 7.830181e+00 8.258899e+00 1.026562e+01 1.401782e+01 1.768116e+01 1.394979e+01 2.125753e+01 1.522617e+01 1.699050e+01 1.729129e+01 2.990969e-01 4.728405e-01 6.777018e-01 7.423261e-01 1.149771e+00 1.343380e+00 1.577656e+00 1.449848e+00 1.663123e+00 1.642333e+00 1.736049e+00 1.408227e+00 1.579476e-01
<GCONST> 7.531294e+01
<TRANSP> 5
 0.000000e+00 1.000000e+00 0.000000e+00 0.000000e+00 0.000000e+00
 0.000000e+00 9.261816e-01 7.381847e-02 0.000000e+00 0.000000e+00
 0.000000e+00 0.000000e+00 9.179479e-01 8.205219e-02 0.000000e+00
 0.000000e+00 0.000000e+00 0.000000e+00 9.135237e-01 8.647627e-02
 0.000000e+00 0.000000e+00 0.000000e+00 0.000000e+00 0.000000e+00
<ENDHMM>
~h "oy"
<BEGINHMM>
<NUMSTATES> 5
<STATE> 2
<MEAN> 25
 1.307654e+01 -6.177823e+00 4.228305e+00 -8.180499e-01 -1.371585e+01 -4.948737e+00 -1.068246e+01 1.903111e+00 -8.176579e+00 -1.809183e+00 8.954254e-01 -9.705704e+00 -1.605496e-01 -1.464626e-01 9.902445e-01 2.368119e-01 -1.867051e-01 -6.831092e-01 6.056459e-02 2.037191e-01 -6.883731e-01 -3.479917e-01 -1.589221e-01 8.932301e-02 -8.928736e-02
<VARIANCE> 25
 1.363169e+01 3.634059e+01 1.021394e+02 1.235461e+01 3.157849e+01 6.157104e+01 4.709473e+01 4.917380e+01 6.216512e+01 2.686964e+01 3.050592e+01 3.008973e+01 1.828372e+00 2.007747e+00 4.543467e+00 1.560339e+00 2.928099e+00 4.785319e+00 4.479452e+00 5.918343e+00 4.124122e+00 2.428427e+00 3.196188e+00 3.496447e+00 5.046561e-01
<GCONST> 1.020661e+02
<STATE> 3
<MEAN> 25
 -1.306442e+00 3.970016e+00 8.713203e+00 1.875970e+00 -2.960311e+00 -1.344823e+01 3.119391e+00 -3.919213e+00 -1.085195e+01 -3.725593e+00 -3.855771e+00 -1.207291e+00 -4.540036e+00 1.492538e+00 -3.674114e+00 -2.898697e-01 3.401469e+00 4.544397e-01 3.052969e+00 4.326302e-01 3.079638e+00 -4.332632e-01 8.308181e-01 1.640353e+00 1.002857e-01
<VARIANCE> 25
 1.022683e+02 4.739328e+01 3.110201e+01 4.634819e+00 6.226040e+01 5.143353e+01 6.938809e+01 5.410889e+01 2.608340e+01 1.883048e+01 2.434982e+01 2.833258e+01 5.401947e+00 2.295432e+00 4.230447e+00 3.220074e+00 4.858016e+00 5.545994e+00 6.175986e+00 3.045956e+00 1.883508e+00 3.076891e+00 4.681032e+00 3.503258e+00 1.496426e-01
<GCONST> 1.024518e+02
<STATE> 4
<MEAN> 25
 3.025667e+00 -1.907405e+00 6.814045e+00 -4.295497e+00 -7.720219e+00 -3.980786e-01 1.174374e-01 -5.466603e-02 -7.088092e+00 -6.100640e-01 5.386906e-01 -8.849636e+00 -6.216629e-01 1.254501e+00 -1.361042e+00 -2.054960e+00 1.498724e+00 1.854270e+00 2.251068e-01 -2.383555e+00 2.071815e+00 1.862332e+00 -4.352210e-01 -3.196990e-01 -7.408511e-01
<VARIANCE> 25
 1.652697e+02 3.056456e+01 7.545059e+01 1.357987e+01 5.102879e+01 5.873684e+01 1.013537e+02 1.365717e+01 7.753262e+01 1.399603e+01 9.956236e+00 7.708992e+01 9.541302e-01 1.055624e+00 3.949363e+00 1.670689e+00 3.235847e+00 1.212937e+00 8.647463e-01 4.648515e+00 5.343643e-01 2.006259e+00 2.490662e+00 2.757875e+00 2.602558e-01
<GCONST> 9.558044e+01
<TRANSP> 5
 0.000000e+00 1.000000e+00 0.000000e+00 0.000000e+00 0.000000e+00
 0.000000e+00 9.405671e-01 5.943292e-02 0.000000e+00 0.000000e+00
 0.000000e+00 0.000000e+00 6.009613e-01 3.990388e-01 0.000000e+00
 0.000000e+00 0.000000e+00 0.000000e+00 5.088257e-01 4.911743e-01
 0.000000e+00 0.000000e+00 0.000000e+00 0.000000e+00 0.000000e+00
<ENDHMM>
~h "sh"
<BEGINHMM>
<NUMSTATES> 5
<STATE> 2
<MEAN> 25
 -2.118324e+01 -5.964979e-01 1.213387e+01 -2.943595e+00 -4.632052e+00 -1.361426e+00 7.629169e+00 -2.994646e+00 4.234808e+00 -3.373968e+00 3.266534e+00 2.535061e+00 -2.775952e-01 -1.002450e-01 -2.499278e-01 -1.707613e-01 2.103340e-02 2.774794e-02 8.953668e-02 1.498874e-01 6.402609e-01 -3.590760e-01 -5.767832e-03 1.467314e-01 -3.795628e-02
<VARIANCE> 25
 4.287276e+01 1.154259e+01 1.859529e+01 1.536311e+01 1.077657e+01 3.398525e+01 2.969559e+01 3.138087e+01 3.048795e+01 1.810172e+01 1.512082e+01 1.186752e+01 1.011760e+01 1.256307e+00 1.358786e+00 1.823992e+00 1.743240e+00 2.494767e+00 2.595385e+00 2.690964e+00 2.872756e+00 2.048626e+00 1.773821e+00 1.221453e+00 9.032656e-01
<GCONST> 9.135732e+01
<STATE> 3
<MEAN> 25
 -5.800893e+00 -7.897587e-01 6.367704e+00 1.604222e+00 -3.746738e+00 -4.870615e+00 2.998741e+00 -1.164866e+00 5.895133e+00 -4.193322e+00 3.038671e-01 2.799383e+00 3.230336e+00 -1.570317e-01 -1.229366e+00 3.090583e-01 2.897266e-01 5.383441e-01 -1.791858e+00 1.230366e-01 -4.213473e-01 7.116413e-01 -8.493209e-01 -5.759262e-01 -8.515898e-01
<VARIANCE> 25
 6.994743e+01 9.491755e+00 1.807060e+01 2.016025e+01 1.808618e+01 6.582344e+01 3.001050e+01 3.468787e+01 2.217093e+01 2.661461e+01 2.416425e+01 1.740381e+01 5.046082e+00 1.224903e+00 2.063167e+00 1.182160e+00 1.411881e+00 4.133832e+00 3.127569e+00 3.782317e+00 1.713220e+00 2.959946e+00 1.436038e+00 2.693243e+00 2.276331e+00
<GCONST> 9.554150e+01
<STATE> 4
<MEAN> 25
 -2.838138e+00 -2.200703e+00 3.598018e+00 3.012121e-01 -1.899566e+00 -4.566656e-01 2.198642e+00 -6.909751e-01 4.098527e+00 -2.382209e+00 5.738987e-01 8.112774e-01 2.237465e+00 1.563646e-01 -6.132941e-01 -4.174713e-02 3.455459e-01 5.581459e-01 -9.704237e-01 -9.862636e-01 -1.129377e+00 3.181782e-01 -3.077474e-01 -6.298931e-01 -3.895037e-01
<VARIANCE> 25
 7.768054e+01 4.698976e+00 4.122113e+01 2.129151e+01 2.884033e+01 4.234239e+01 3.809115e+01 2.249252e+01 2.487487e+01 2.643305e+01 1.755269e+01 1.436098e+01 4.317176e+00 1.679309e+00 1.994024e+00 1.677442e+00 1.895762e+00 2.377532e+00 2.541875e+00 4.815115e+00 2.616724e+00 1.522096e+00 2.717770e+00 1.609417e+00 1.853395e+00
<GCONST> 9.517652e+01
<TRANSP> 5
 0.000000e+00 1.000000e+00 0.000000e+00 0.000000e+00 0.000000e+00
 0.000000e+00 9.242833e-01 7.571670e-02 0.000000e+00 0.000000e+00
 0.000000e+00 0.000000e+00 5.609998e-01 4.390002e-01 0.000000e+00
 0.000000e+00 0.000000e+00 0.000000e+00 2.875809e-01 7.124192e-01
 0.000000e+00 0.000000e+00 0.000000e+00 0.000000e+00 0.000000e+00
<ENDHMM>
~h "sp"
<BEGINHMM>
<NUMSTATES> 3
<STATE> 2
~s "silst"
<TRANSP> 3
 0.000000e+00 5.799541e-01 4.200459e-01
 0.000000e+00 9.395503e-01 6.044974e-02
 0.000000e+00 0.000000e+00 0.000000e+00
<ENDHMM>
~h "th"
<BEGINHMM>
<NUMSTATES> 5
<STATE> 2
<MEAN> 25
 -5.917607e+00 -1.431966e+00 -1.849209e+00 1.749271e+00 3.484880e+00 2.361485e+00 2.584111e+00 1.770262e+00 4.044882e+00 3.721088e-01 6.552445e-01 4.448498e+00 -5.776228e-01 -4.198801e-01 -4.283746e-01 -3.935342e-01 -1.442207e-01 3.601533e-01 4.179712e-01 -2.419681e-01 2.794777e-01 5.699775e-01 8.075991e-01 5.564018e-01 -4.823715e-01
<VARIANCE> 25
 8.686634e+00 5.626534e+00 1.308794e+01 6.637642e+00 1.241886e+01 1.153253e+01 1.951361e+01 1.703604e+01 1.353800e+01 2.091446e+01 1.913403e+01 9.791089e+00 7.625709e-01 9.187757e-01 9.479619e-01 4.672621e-01 8.700006e-01 1.563856e+00 2.120349e+00 1.178675e+00 1.622031e+00 3.655827e+00 1.120483e+00 1.165785e+00 4.628232e-01
<GCONST> 7.728090e+01
<STATE> 3
<MEAN> 25
 -4.496347e+00 -2.044106e+00 -1.345309e+00 1.282895e+00 3.441849e+00 3.008560e+00 3.450928e+00 2.043640e+00 4.882915e+00 3.469043e+00 3.510274e+00 4.582722e+00 -2.657898e-03 -9.391803e-03 6.883564e-02 4.532566e-02 7.093161e-02 -1.172224e-02 -3.083852e-03 6.636254e-02 3.660480e-03 1.379351e-02 -2.946831e-02 -4.824921e-02 -3.523116e-02
<VARIANCE> 25
 4.551527e+00 3.119862e+00 4.766324e+00 4.780545e+00 8.713825e+00 1.041512e+01 8.796950e+00 1.339491e+01 1.172441e+01 1.174154e+01 1.149629e+01 9.948355e+00 1.480716e-01 2.115282e-01 3.539641e-01 4.189026e-01 7.729086e-01 9.761664e-01 9.859308e-01 1.511537e+00 1.436379e+00 1.526787e+00 1.443707e+00 1.123249e+00 2.673457e-01
<GCONST> 6.536262e+01
<STATE> 4
<MEAN> 25
 -6.578106e+00 -1.759195e-01 -2.011782e+00 2.970678e-01 1.067709e+00 9.927088e-01 1.828773e+00 3.223810e-01 3.804298e+00 3.386120e-01 4.114465e-01 1.901677e+00 1.022673e-01 1.970638e-01 3.595341e-01 -7.280528e-02 -1.669520e-01 -1.291552e-01 -1.495932e-01 -3.353853e-01 -2.191354e-01 -2.499363e-01 -3.438191e-01 -3.857812e-01 5.956798e-01
<VARIANCE> 25
 1.546612e+01 1.234778e+01 1.695436e+01 1.430324e+01 1.738555e+01 1.708732e+01 1.466472e+01 1.794305e+01 1.268274e+01 1.648368e+01 1.553883e+01 1.836318e+01 2.093104e+00 1.522328e+00 2.394792e+00 1.770711e+00 1.343199e+00 1.775878e+00 1.750127e+00 2.271159e+00 1.393729e+00 2.202646e+00 2.287537e+00 1.701335e+00 3.310336e+00
<GCONST> 8.748346e+01
<TRANSP> 5
 0.000000e+00 1.000000e+00 0.000000e+00 0.000000e+00 0.000000e+00
 0.000000e+00 7.523111e-01 2.476889e-01 0.000000e+00 0.000000e+00
 0.000000e+00 0.000000e+00 9.409127e-01 5.908735e-02 0.000000e+00
 0.000000e+00 0.000000e+00 0.000000e+00 8.995832e-01 1.004168e-01
 0.000000e+00 0.000000e+00 0.000000e+00 0.000000e+00 0.000000e+00
<ENDHMM>
~h "uh"
<BEGINHMM>
<NUMSTATES> 5
<STATE> 2
<MEAN> 25
 1.291804e+01 -2.052913e+00 -5.280723e+00 -2.094737e+00 -1.577490e+00 -5.241442e+00 -1.663984e+01 1.142606e+00 -4.861733e+00 -4.970259e+00 5.908388e+00 -1.535161e+00 -1.466971e-01 -3.215128e-01 9.228872e-01 2.271460e-01 -2.359002e-01 -8.455036e-01 -4.670889e-01 4.724942e-01 -1.114982e+00 4.252727e-02 9.680768e-02 -3.990846e-01 2.423554e-01
<VARIANCE> 25
 1.483997e+01 6.029324e+01 2.095756e+01 4.686470e+01 5.958058e+01 1.687618e+02 9.416924e+01 8.279765e+01 4.639550e+01 4.830506e+01 4.057682e+01 2.119121e+01 2.054528e+00 1.254399e+00 3.764623e+00 4.454637e+00 7.221718e+00 5.489499e+00 7.099222e+00 5.396070e+00 5.387170e+00 2.358826e+00 5.409459e+00 3.307895e+00 2.027161e+00
<GCONST> 1.095072e+02
<STATE> 3
<MEAN> 25
 5.851160e+00 -1.791078e+00 1.058349e+01 -8.326978e-01 -1.005003e+01 -5.478372e+00 -4.813489e+00 9.719929e-01 -1.182993e+01 -4.762036e+00 1.585632e+00 -4.505728e+00 -6.478989e-01 9.442385e-01 4.239189e-01 -1.339986e-01 -3.416689e-02 4.838834e-01 1.224093e+00 -1.243794e+00 6.838016e-02 9.932007e-01 -1.151455e+00 -2.665174e-01 -1.141136e+00
<VARIANCE> 25
 1.537230e+01 5.580603e+01 3.563696e+01 7.011149e+01 9.223316e+01 5.842053e+01 4.213723e+01 4.894042e+01 4.491179e+01 5.858195e+01 4.178458e+01 2.736587e+01 1.386538e+00 3.974799e+00 2.823858e+00 7.615622e+00 9.325218e+00 6.695077e+00 6.601756e+00 5.621584e+00 4.533407e+00 4.756224e+00 5.559626e+00 2.382621e+00 5.911081e+00
<GCONST> 1.116199e+02
<STATE> 4
<MEAN> 25
 9.015635e+00 2.439959e+00 4.728248e+00 2.121966e+00 -6.278916e+00 -2.697973e+00 -2.550748e+00 -1.084257e+01 -9.106502e+00 2.718465e+00 -2.220270e+00 -4.696377e+00 -5.994256e-01 4.771289e-01 -2.398795e-01 6.110579e-01 1.210526e+00 2.987293e-02 1.886988e-01 1.843293e-01 1.611170e+00 -4.343213e-01 -4.288443e-01 8.479651e-01 -1.437121e+00
<VARIANCE> 25
 1.138743e+01 1.373183e+01 1.609739e+01 2.956220e+01 4.465005e+01 3.762376e+01 1.189270e+01 3.182558e+01 1.407334e+01 4.223320e+01 1.439603e+01 1.800990e+01 2.469427e+00 1.145670e+00 7.179607e-01 2.409145e+00 2.396732e+00 2.807464e+00 1.044463e+00 2.943560e+00 4.753160e+00 2.427383e+00 7.722549e-01 5.869563e-01 2.492725e+00
<GCONST> 8.965752e+01
<TRANSP> 5
 0.000000e+00 1.000000e+00 0.000000e+00 0.000000e+00 0.000000e+00
 0.000000e+00 8.471957e-01 1.528043e-01 0.000000e+00 0.000000e+00
 0.000000e+00 0.000000e+00 7.725207e-01 2.274793e-01 0.000000e+00
 0.000000e+00 0.000000e+00 0.000000e+00 6.876451e-01 3.123548e-01
 0.000000e+00 0.000000e+00 0.000000e+00 0.000000e+00 0.000000e+00
<ENDHMM>
~h "uw"
<BEGINHMM>
<NUMSTATES> 5
<STATE> 2
<MEAN> 25
 4.502014e+00 1.918145e+00 9.530086e+00 5.600077e+00 -4.532275e+00 -7.240010e+00 -8.837746e+00 -1.607436e+00 -1.028999e+01 -4.516474e+00 3.438698e+00 -9.350575e-01 3.149414e-01 2.026614e-01 -4.401998e-01 -1.163220e-01 5.013027e-01 8.300159e-02 -3.685747e-01 -3.589557e-01 1.981333e-01 1.573205e-01 -3.058752e-01 9.017316e-02 -4.187474e-01
<VARIANCE> 25
 1.280840e+01 2.562962e+01 4.232236e+01 1.611215e+01 4.134930e+01 3.969476e+01 2.949859e+01 3.537395e+01 3.938411e+01 3.487815e+01 2.668514e+01 1.596158e+01 6.190441e-01 1.285183e+00 1.633627e+00 1.067505e+00 1.939308e+00 2.240878e+00 2.255672e+00 2.219492e+00 2.588985e+00 1.974727e+00 2.373153e+00 1.352500e+00 5.331200e-01
<GCONST> 9.147502e+01
<STATE> 3
<MEAN> 25
 5.710169e+00 7.573798e+00 1.880033e+00 3.914280e+00 5.380001e-01 1.245453e+00 -7.589933e+00 -6.379627e+00 -9.837302e+00 -2.954051e+00 -2.105764e+00 3.134356e-01 -6.615616e-01 -5.600781e-01 -2.257312e-01 1.537822e-01 1.055985e-01 5.900624e-02 8.222457e-01 6.382730e-01 8.185183e-01 -2.515610e-02 -4.261846e-01 9.748970e-02 -4.684006e-01
<VARIANCE> 25
 1.878997e+01 2.962602e+01 2.807195e+01 1.639029e+01 1.975374e+01 3.276205e+01 3.916866e+01 2.819115e+01 5.980678e+01 3.315787e+01 3.233052e+01 2.309168e+01 6.298844e-01 1.053557e+00 1.613112e+00 1.534062e+00 1.482065e+00 1.881929e+00 2.869232e+00 2.268289e+00 2.519501e+00 2.576909e+00 2.630293e+00 2.143867e+00 6.198115e-01
<GCONST> 9.260459e+01
<STATE> 4
<MEAN> 25
 -2.234016e+00 -2.743466e+00 -2.277553e+00 -3.691513e-01 9.328098e-01 5.130059e-02 4.012885e-01 4.766130e-01 2.526740e+00 1.131506e+00 -1.025254e+00 1.544041e+00 -1.813981e-01 -1.839218e-01 -6.328754e-02 -7.522169e-02 2.677930e-02 -2.201297e-02 1.383966e-01 1.640923e-01 1.881979e-01 1.159627e-01 7.523722e-02 1.364606e-01 -3.624103e-02
<VARIANCE> 25
 1.018705e+01 8.833302e+00 1.584043e+01 1.397727e+01 1.174696e+01 1.285506e+01 1.899661e+01 2.034981e+01 2.975660e+01 1.652546e+01 1.526152e+01 1.761951e+01 3.694432e-01 5.915710e-01 6.854146e-01 9.716609e-01 9.577484e-01 1.208181e+00 1.622695e+00 1.474549e+00 2.028317e+00 1.875854e+00 1.300988e+00 9.995874e-01 1.269098e-01
<GCONST> 7.723941e+01
<TRANSP> 5
 0.000000e+00 1.000000e+00 0.000000e+00 0.000000e+00 0.000000e+00
 0.000000e+00 8.246917e-01 1.753083e-01 0.000000e+00 0.000000e+00
 0.000000e+00 0.000000e+00 8.085338e-01 1.914662e-01 0.000000e+00
 0.000000e+00 0.000000e+00 0.000000e+00 8.770810e-01 1.229190e-01
 0.000000e+00 0.000000e+00 0.000000e+00 0.000000e+00 0.000000e+00
<ENDHMM>
~h "zh"
<BEGINHMM>
<NUMSTATES> 5
<STATE> 2
<MEAN> 25
 -5.782500e+00 6.350738e+00 1.461216e+01 -2.828999e+00 -5.606391e+00 1.333735e+00 -1.344536e+00 -8.978007e+00 -3.902239e+00 -4.402033e+00 1.301559e+00 -4.531719e+00 -1.417790e+00 -3.952356e-02 2.863539e-02 2.317920e-01 5.879356e-01 2.926494e-01 1.120937e+00 -1.659423e-01 1.113650e+00 -2.283445e-01 1.294424e-01 3.540932e-01 -3.702293e-02
<VARIANCE> 25
 6.650871e+01 8.136408e+00 3.207518e+01 1.610564e+01 3.643900e+01 5.484862e+01 6.698903e+01 1.445008e+01 4.755006e+01 2.155844e+01 1.370595e+01 2.046993e+01 3.192557e+00 1.258789e+00 1.602096e+00 1.183880e+00 2.858416e+00 3.068342e+00 3.439856e+00 2.378816e+00 3.474833e+00 1.962635e+00 1.046587e+00 1.605251e+00 1.403171e-01
<GCONST> 9.231196e+01
<STATE> 3
<MEAN> 25
 -8.381125e+00 3.073086e-02 8.377523e+00 -1.560142e+00 -3.613140e+00 -5.832938e+00 5.457744e+00 -3.821054e+00 -4.451523e-01 -4.859789e+00 2.044815e+00 1.041886e+00 2.484757e+00 -7.768433e-01 -1.304036e+00 1.062856e-01 -5.488723e-01 -1.734858e+00 -1.687480e+00 1.314589e+00 -1.147134e+00 6.594438e-02 9.594052e-03 5.311586e-01 -1.998210e-02
<VARIANCE> 25
 1.192550e+02 1.544905e+01 2.590906e+01 1.409027e+01 2.816214e+01 6.602593e+01 1.002093e+02 3.498403e+01 6.261126e+01 2.179734e+01 9.562561e+00 1.858663e+01 6.634427e+00 1.865461e+00 1.254830e+00 1.238474e+00 2.722042e+00 5.179635e+00 6.043875e+00 3.513324e+00 5.068788e+00 3.531773e+00 1.222224e+00 2.085373e+00 9.483379e-01
<GCONST> 9.988089e+01
<STATE> 4
<MEAN> 25
 -3.533962e+00 -4.334635e-01 -6.475775e+00 2.052018e+00 4.080623e+00 1.307734e+00 2.951618e+00 3.857496e+00 5.399370e+00 2.429280e+00 3.685878e+00 5.530201e+00 1.769964e-01 -9.149359e-02 -3.343589e-01 1.414229e-02 1.326358e-01 2.948888e-02 -1.620252e-01 2.405520e-01 1.966582e-01 4.424275e-02 -2.192834e-01 -3.509719e-02 -2.382525e-02
<VARIANCE> 25
 1.857264e+01 4.347841e+00 2.295676e+01 5.997506e+00 3.816456e+01 6.466399e+01 3.700035e+01 1.509775e+01 4.910662e+01 3.362442e+01 1.193768e+01 1.038028e+01 4.297944e-01 4.956723e-01 8.146120e-01 7.072431e-01 4.146939e-01 1.078075e+00 1.832274e+00 1.030964e+00 2.406952e+00 1.809879e+00 1.052248e+00 1.041279e+00 1.639192e-01
<GCONST> 7.911662e+01
<TRANSP> 5
 0.000000e+00 1.000000e+00 0.000000e+00 0.000000e+00 0.000000e+00
