~o
<STREAMINFO> 1 25
<VECSIZE> 25<NULLD><MFCC_D_N_Z_0><DIAGC>
~h "b"
<BEGINHMM>
<NUMSTATES> 5
<STATE> 2
<MEAN> 25
 2.291570e+00 6.183817e+00 5.156904e+00 7.010485e+00 5.175514e+00 1.331363e+00 1.018088e-01 -3.144973e+00 -1.618984e+00 -4.601866e+00 -3.417971e+00 -1.739616e+00 2.261415e-01 7.282400e-01 7.562165e-01 6.063142e-01 3.271740e-01 -1.451520e-01 -3.825251e-01 -3.681111e-01 -5.902792e-01 -8.090148e-01 -4.507735e-01 -2.840014e-01 1.980585e-01
<VARIANCE> 25
 1.833863e+01 1.464567e+01 1.950895e+01 1.540757e+01 1.284948e+01 1.685258e+01 1.722000e+01 1.800238e+01 2.433542e+01 2.176991e+01 2.060268e+01 1.820120e+01 2.226018e+00 2.373723e+00 1.650565e+00 1.870309e+00 1.350372e+00 1.659632e+00 2.049420e+00 2.868076e+00 2.662639e+00 2.472410e+00 2.065978e+00 1.789198e+00 1.927692e+00
<GCONST> 8.977784e+01
<STATE> 3
<MEAN> 25
 1.420244e+00 5.039639e+00 4.256884e+00 6.121358e+00 4.888407e+00 9.669322e-01 -1.376761e-01 -1.931294e+00 -1.193005e+00 -3.739365e+00 -2.835067e+00 -1.395534e+00 6.151298e-01 -1.001446e+00 -6.670555e-01 -2.064393e+00 -1.813139e+00 -5.579085e-01 -8.358751e-01 3.783631e-01 1.033428e-01 1.075994e+00 8.245239e-01 1.373424e-01 2.704201e+00
<VARIANCE> 25
 2.039327e+01 1.258058e+01 2.253134e+01 2.678749e+01 2.559632e+01 2.302807e+01 2.791754e+01 1.732443e+01 2.202170e+01 2.595586e+01 2.149911e+01 1.651255e+01 3.233290e+00 1.791078e+00 2.635734e+00 4.691418e+00 4.886483e+00 4.513521e+00 2.690935e+00 2.898051e+00 3.306177e+00 3.043795e+00 2.913068e+00 2.038546e+00 5.440273e+00
<GCONST> 9.788108e+01
<STATE> 4
<MEAN> 25
 7.059497e+00 3.733370e-01 3.452116e+00 -4.259550e+00 -5.789066e+00 -3.329012e+00 -8.283488e+00 -1.485300e+00 -7.043214e+00 -5.607114e-01 -1.623224e+00 -4.162973e+00 2.879659e-01 -3.413450e-01 8.267101e-02 -7.920380e-01 -6.857615e-01 -2.520612e-01 -5.768235e-01 -3.659741e-02 -5.929084e-01 3.230302e-01 2.756226e-01 -2.374655e-01 7.010558e-01
<VARIANCE> 25
 3.674826e+01 2.874319e+01 7.391482e+01 4.835854e+01 6.661497e+01 7.736228e+01 4.351580e+01 4.824695e+01 6.308400e+01 4.150843e+01 4.149348e+01 2.780976e+01 2.037574e+00 3.072989e+00 3.303478e+00 6.622731e+00 8.635815e+00 5.614899e+00 3.529568e+00 3.656999e+00 5.611353e+00 3.076191e+00 3.158111e+00 2.372876e+00 6.735383e+00
<GCONST> 1.103382e+02
<TRANSP> 5
 0.000000e+00 1.000000e+00 0.000000e+00 0.000000e+00 0.000000e+00
 0.000000e+00 7.649133e-01 2.350867e-01 0.000000e+00 0.000000e+00
 0.000000e+00 0.000000e+00 6.781705e-01 3.218295e-01 0.000000e+00
 0.000000e+00 0.000000e+00 0.000000e+00 7.938026e-01 2.061974e-01
 0.000000e+00 0.000000e+00 0.000000e+00 0.000000e+00 0.000000e+00
<ENDHMM>
~h "d"
<BEGINHMM>
<NUMSTATES> 5
<STATE> 2
<MEAN> 25
 9.380065e-01 4.797103e+00 6.842231e+00 7.875824e+00 4.339987e+00 7.773545e-02 -9.152011e-01 -3.677592e+00 -2.451577e+00 -4.924029e+00 -4.568994e+00 -2.046950e+00 -7.150151e-02 2.124050e-01 -1.398262e-01 -2.931690e-01 3.372879e-02 -2.971846e-01 -2.156875e-01 -6.114770e-02 -2.824703e-01 -2.312196e-01 -1.815106e-01 -9.969002e-02 8.697438e-01
<VARIANCE> 25
 1.621724e+01 1.662811e+01 2.171848e+01 1.654792e+01 2.599930e+01 1.848759e+01 2.015556e+01 2.700574e+01 1.967853e+01 2.493497e+01 1.355871e+01 1.573066e+01 2.321690e+00 1.511247e+00 1.684777e+00 3.128925e+00 2.520243e+00 2.541682e+00 2.222922e+00 3.326717e+00 2.900342e+00 2.057380e+00 2.729645e+00 1.848939e+00 3.570706e+00
<GCONST> 9.291501e+01
<STATE> 3
<MEAN> 25
 -8.926239e-01 2.042451e+00 3.302688e+00 1.812441e+00 -2.414092e-01 -2.370128e+00 -2.127102e-01 -1.252735e+00 -1.815701e+00 -2.697793e+00 -1.516475e+00 -1.362479e+00 4.894868e-01 -6.147680e-01 -7.916428e-01 -1.608041e+00 -2.268648e+00 -1.379492e+00 -6.336972e-01 8.014848e-01 2.647158e-02 7.271119e-01 4.764007e-01 -8.082174e-03 2.831441e+00
<VARIANCE> 25
 1.658395e+01 2.101661e+01 2.101316e+01 3.837357e+01 7.310859e+01 3.698354e+01 2.416875e+01 3.381239e+01 2.123313e+01 1.593285e+01 2.076079e+01 1.793916e+01 3.143715e+00 2.431990e+00 3.417254e+00 4.018423e+00 7.385262e+00 4.224390e+00 2.789312e+00 4.809445e+00 3.646114e+00 2.246576e+00 3.036113e+00 2.596030e+00 7.213448e+00
<GCONST> 1.016797e+02
<STATE> 4
<MEAN> 25
 1.065410e+00 1.066078e+00 2.093227e+00 5.169999e-01 -3.632193e+00 -5.694941e+00 -2.586789e+00 6.730924e-01 4.670416e-01 -5.310830e-01 -1.896913e+00 -4.005802e-01 2.616814e-01 -5.676304e-01 -6.818983e-01 -3.991515e-01 -1.958184e-01 3.913963e-01 -1.665920e-01 3.747227e-01 3.953357e-01 8.568761e-01 4.829895e-01 -3.912994e-01 4.200523e-01
<VARIANCE> 25
 2.597356e+01 2.766028e+01 4.093102e+01 2.540472e+01 5.764275e+01 5.670007e+01 3.901405e+01 4.209872e+01 4.024664e+01 1.739383e+01 2.573006e+01 4.306395e+01 4.657254e+00 2.437652e+00 3.717786e+00 3.541699e+00 7.001707e+00 8.735582e+00 4.288625e+00 5.949214e+00 3.648618e+00 2.478560e+00 2.490248e+00 4.328247e+00 4.507000e+00
<GCONST> 1.069735e+02
<TRANSP> 5
 0.000000e+00 1.000000e+00 0.000000e+00 0.000000e+00 0.000000e+00
 0.000000e+00 5.944943e-01 4.055057e-01 0.000000e+00 0.000000e+00
 0.000000e+00 0.000000e+00 4.799711e-01 5.200289e-01 0.000000e+00
 0.000000e+00 0.000000e+00 0.000000e+00 3.522257e-01 6.477743e-01
 0.000000e+00 0.000000e+00 0.000000e+00 0.000000e+00 0.000000e+00
<ENDHMM>
~h "f"
<BEGINHMM>
<NUMSTATES> 5
<STATE> 2
<MEAN> 25
 -5.429295e+00 -2.211104e+00 -1.997166e+00 2.133521e+00 2.508757e+00 2.286722e+00 3.766968e+00 2.693908e+00 4.587526e+00 3.124993e+00 2.314247e+00 4.634983e+00 -1.020877e-01 6.662314e-02 -6.726176e-02 -2.741811e-03 -7.871299e-02 8.323200e-02 -4.325448e-02 -6.510217e-02 2.683637e-02 4.412368e-02 1.531796e-02 -1.417729e-02 -2.073225e-02
<VARIANCE> 25
 8.641029e+00 5.991554e+00 7.678282e+00 1.094940e+01 1.083343e+01 1.320144e+01 1.412597e+01 1.400026e+01 1.410272e+01 1.343823e+01 1.336082e+01 1.290500e+01 3.752890e-01 4.162277e-01 5.210798e-01 8.417978e-01 7.950702e-01 1.174615e+00 1.287405e+00 1.494057e+00 1.353591e+00 1.377614e+00 1.341211e+00 1.359044e+00 2.358119e-01
<GCONST> 7.265379e+01
<STATE> 3
<MEAN> 25
 -7.352406e+00 4.412179e-01 -6.788475e+00 3.563870e+00 -1.569679e-01 2.533146e+00 2.442232e-01 3.798085e-01 3.264372e+00 1.313053e+00 -1.539849e-01 2.395411e+00 1.494417e+00 2.076278e-01 -4.979023e-02 -8.245829e-01 -4.105037e-01 3.163255e-01 -3.505041e-01 -5.455322e-01 -9.289911e-01 -5.204679e-01 -1.367161e-01 -4.981953e-01 1.219219e+00
<VARIANCE> 25
 3.514781e+01 1.155031e+01 1.069977e+01 1.654702e+01 1.219517e+01 1.581264e+01 1.493348e+01 1.099411e+01 1.884972e+01 1.575072e+01 1.013548e+01 1.278975e+01 6.649603e+00 1.742485e+00 1.393950e+00 4.058749e+00 1.872035e+00 2.749677e+00 1.825773e+00 1.296685e+00 2.556800e+00 1.953610e+00 1.564950e+00 1.268845e+00 2.727597e+00
<GCONST> 8.803155e+01
<STATE> 4
<MEAN> 25
 1.253935e+01 -6.201653e+00 -8.970716e+00 -1.360024e+01 -3.048934e+00 9.938813e+00 2.878914e-01 -5.530030e+00 1.237189e+00 -2.759344e+00 8.100047e-01 -9.851861e+00 6.195387e-01 -2.901518e-01 -1.102596e-01 -3.763067e-01 -2.167615e-01 -3.000414e-02 -1.368602e-01 3.031389e-01 -2.423483e-02 -3.516832e-01 -1.397542e-01 -4.076272e-01 2.566862e-01
<VARIANCE> 25
 2.848354e+01 4.236938e+01 1.200112e+01 5.620481e+01 2.385276e+01 3.048840e+01 1.130201e+01 2.744287e+01 2.331317e+01 8.150327e+00 1.836856e+01 5.413587e+01 2.879387e+00 1.501083e+00 7.581673e-01 6.056837e+00 1.626866e+00 3.822129e+00 7.353244e-01 1.941795e+00 1.046850e+00 8.516200e-01 1.301080e+00 1.329816e+00 5.811032e-01
<GCONST> 8.909454e+01
<TRANSP> 5
 0.000000e+00 1.000000e+00 0.000000e+00 0.000000e+00 0.000000e+00
 0.000000e+00 9.575126e-01 4.248743e-02 0.000000e+00 0.000000e+00
 0.000000e+00 0.000000e+00 8.470314e-01 1.529687e-01 0.000000e+00
 0.000000e+00 0.000000e+00 0.000000e+00 8.521433e-01 1.478566e-01
 0.000000e+00 0.000000e+00 0.000000e+00 0.000000e+00 0.000000e+00
<ENDHMM>
~h "g"
<BEGINHMM>
<NUMSTATES> 5
<STATE> 2
<MEAN> 25
 5.220501e-01 -3.106560e+00 1.693458e-01 -1.238681e+00 -1.164763e-02 -3.726212e+00 1.575339e+00 -8.103978e-01 -8.859933e-02 -2.095870e-01 -1.897280e+00 -1.081589e+00 -1.274039e-01 7.149705e-02 1.006213e+00 -9.411110e-01 -1.766569e+00 -1.932887e+00 -1.883949e-01 -1.281820e+00 -6.786256e-01 -3.631708e-01 -2.437649e-01 2.161590e-01 2.255379e+00
<VARIANCE> 25
 2.652893e+01 3.599493e+01 2.986150e+01 2.066367e+01 4.772976e+01 7.415981e+01 2.204982e+01 7.134226e+01 5.019560e+01 1.092925e+01 3.690279e+01 4.488058e+01 2.647858e+00 4.431607e+00 1.666425e+00 4.972952e+00 2.983407e+00 3.787948e+00 2.998191e+00 6.460679e+00 3.599543e+00 1.505726e+00 6.562531e+00 2.451792e+00 1.218349e+01
<GCONST> 1.054199e+02
<STATE> 3
<MEAN> 25
 1.860428e-01 2.047416e+00 4.776966e+00 2.063099e+00 3.446347e-01 -4.491700e+00 1.892739e-02 -3.697835e+00 -2.185012e+00 -2.687203e+00 -2.947155e+00 2.834142e-01 -4.242282e-01 9.427986e-02 5.848241e-01 -3.937536e-01 -4.193315e-01 -4.493422e-01 -6.191058e-01 -6.342916e-01 -3.208622e-02 6.371294e-02 1.673636e-01 3.922862e-01 6.311818e-01
<VARIANCE> 25
 3.437157e+01 3.194032e+01 2.035268e+01 5.517213e+01 3.927795e+01 3.460988e+01 2.572992e+01 4.954631e+01 3.445185e+01 1.214410e+01 4.830537e+01 2.074663e+01 1.467611e+00 4.617575e+00 3.456132e+00 7.113297e+00 5.700199e+00 4.889525e+00 3.243426e+00 3.617661e+00 3.030691e+00 1.663316e+00 4.158055e+00 2.204830e+00 8.142695e+00
<GCONST> 1.041195e+02
<STATE> 4
<MEAN> 25
 3.303173e+00 7.961911e-01 6.605710e+00 -2.177015e+00 -7.237379e+00 -7.361426e+00 -2.639578e+00 -2.776340e+00 -5.569635e+00 2.008517e-01 -5.492238e-01 -3.460995e+00 5.439136e-01 -3.818723e-02 -2.288258e-01 1.015547e-01 -3.600143e-01 -5.654417e-01 -1.075848e-01 7.953473e-01 -1.559772e-02 -1.370250e-01 1.831200e-01 -4.167175e-01 3.128239e-01
<VARIANCE> 25
 2.626440e+01 2.448388e+01 5.944550e+01 3.564206e+01 5.348344e+01 6.588891e+01 3.456429e+01 4.331876e+01 4.822823e+01 2.008724e+01 2.332922e+01 2.534134e+01 2.719275e+00 3.754138e+00 6.075466e+00 2.808918e+00 5.215417e+00 6.888634e+00 5.777795e+00 4.639307e+00 6.728657e+00 3.824414e+00 3.235904e+00 2.606552e+00 3.459945e+00
<GCONST> 1.074604e+02
<TRANSP> 5
 0.000000e+00 1.000000e+00 0.000000e+00 0.000000e+00 0.000000e+00
 0.000000e+00 6.159894e-01 3.840106e-01 0.000000e+00 0.000000e+00
 0.000000e+00 0.000000e+00 6.942317e-01 3.057683e-01 0.000000e+00
 0.000000e+00 0.000000e+00 0.000000e+00 9.034278e-01 9.657212e-02
 0.000000e+00 0.000000e+00 0.000000e+00 0.000000e+00 0.000000e+00
<ENDHMM>
~h "k"
<BEGINHMM>
<NUMSTATES> 5
<STATE> 2
<MEAN> 25
 -4.784943e+00 -4.245907e+00 -3.266440e+00 1.897572e+00 3.615032e+00 -2.369812e+00 3.092719e+00 2.318321e+00 4.200635e+00 2.404060e+00 7.133629e-01 5.441962e+00 1.721019e-01 -5.821012e-01 -5.996241e-01 -5.655590e-01 3.422930e-01 -1.421790e+00 -8.389023e-01 -5.327384e-01 -4.325929e-01 1.603584e-01 -1.117561e+00 -2.403858e-01 2.589577e+00
<VARIANCE> 25
 1.614204e+01 2.247154e+01 3.822524e+01 4.467791e+01 2.620823e+01 6.799038e+01 2.046881e+01 3.222622e+01 2.982081e+01 1.639460e+01 2.758620e+01 1.650664e+01 2.683595e+00 2.772901e+00 4.449924e+00 4.942432e+00 3.231000e+00 7.090248e+00 2.960262e+00 3.380291e+00 4.295933e+00 1.998234e+00 3.652912e+00 2.556432e+00 8.993082e+00
<GCONST> 1.026870e+02
<STATE> 3
<MEAN> 25
 -2.019736e+00 -3.362586e+00 -4.780897e+00 -6.100952e-01 6.163472e+00 -3.868098e+00 -1.692809e+00 -2.325899e+00 3.184598e+00 1.914989e+00 -2.611821e+00 5.159499e-01 3.891961e-01 7.706578e-01 7.728908e-02 -7.053018e-01 -2.641665e-01 1.551851e+00 1.823341e-02 -4.508056e-01 -3.103900e-01 -5.569751e-01 4.036940e-01 -1.053535e+00 6.854776e-01
<VARIANCE> 25
 2.800948e+01 2.331281e+01 7.530334e+01 4.899898e+01 5.832335e+01 8.073486e+01 3.013030e+01 4.922942e+01 5.246127e+01 2.256722e+01 2.719759e+01 2.718396e+01 4.126016e+00 2.592314e+00 3.495229e+00 5.126464e+00 2.611867e+00 1.286914e+01 4.449777e+00 3.034577e+00 5.303602e+00 3.304935e+00 3.472437e+00 3.328984e+00 5.183283e+00
<GCONST> 1.084136e+02
<STATE> 4
<MEAN> 25
 2.349861e+00 3.926678e-01 -1.388161e+00 -3.606089e+00 -3.617115e+00 1.205175e+00 -1.617212e-01 -1.074019e+00 -1.242561e+00 -2.060152e+00 -1.190885e+00 -3.012871e+00 7.358205e-01 3.397166e-01 3.936466e-01 3.576753e-01 -9.313313e-01 8.184622e-02 -7.845735e-03 2.631895e-02 -6.206827e-01 -5.623338e-01 1.732655e-01 -7.217365e-01 1.528744e-01
<VARIANCE> 25
 9.496922e+01 3.949860e+01 9.018029e+01 4.851103e+01 8.900510e+01 6.981245e+01 4.512198e+01 4.131057e+01 4.134957e+01 4.482744e+01 2.889167e+01 4.500536e+01 4.942012e+00 3.912837e+00 3.928364e+00 5.012987e+00 4.595734e+00 5.134490e+00 4.183983e+00 4.953005e+00 5.271166e+00 4.706100e+00 3.050310e+00 2.618636e+00 3.057333e+00
<GCONST> 1.120618e+02
<TRANSP> 5
 0.000000e+00 1.000000e+00 0.000000e+00 0.000000e+00 0.000000e+00
 0.000000e+00 7.723714e-01 2.276286e-01 0.000000e+00 0.000000e+00
 0.000000e+00 0.000000e+00 6.924479e-01 3.075521e-01 0.000000e+00
 0.000000e+00 0.000000e+00 0.000000e+00 7.573507e-01 2.426493e-01
 0.000000e+00 0.000000e+00 0.000000e+00 0.000000e+00 0.000000e+00
<ENDHMM>
~h "l"
<BEGINHMM>
<NUMSTATES> 5
<STATE> 2
<MEAN> 25
 1.155346e+01 4.560984e+00 -4.986823e+00 -1.546359e+01 -5.410227e+00 4.423257e+00 -5.738862e+00 -3.180788e+00 -7.982254e+00 1.664717e-01 5.781164e-01 -4.141924e+00 -2.921103e-03 5.530748e-01 1.190073e-01 -1.229505e-01 -1.077651e-01 -4.992991e-03 1.256443e-01 2.603025e-02 -2.980880e-01 -2.325673e-01 1.118716e-01 4.002626e-01 -4.884844e-01
<VARIANCE> 25
 1.364740e+01 2.957586e+01 2.003003e+01 6.494270e+01 2.380033e+01 3.388214e+01 3.981919e+01 3.390086e+01 4.928931e+01 3.317149e+01 2.300743e+01 3.285074e+01 6.973202e-01 1.539215e+00 9.410771e-01 4.343653e+00 1.647821e+00 2.698420e+00 1.795273e+00 2.068077e+00 2.925967e+00 2.259004e+00 1.711995e+00 1.946762e+00 7.671952e-01
<GCONST> 9.415575e+01
<STATE> 3
<MEAN> 25
 7.504531e+00 5.331606e+00 -1.638298e+00 -7.297569e+00 -3.446892e+00 1.459038e+00 -3.483921e+00 -1.768693e+00 -5.107200e+00 -3.215650e-01 -1.739150e+00 -3.959392e+00 -1.267754e+00 -7.037173e-01 9.421041e-01 2.447649e+00 8.556159e-01 -4.492718e-01 5.137507e-01 2.696407e-01 1.189386e+00 8.127335e-02 -4.180977e-01 -1.613951e-01 -7.339551e-01
<VARIANCE> 25
 2.025516e+01 3.636351e+01 2.959465e+01 5.753805e+01 4.388065e+01 2.722585e+01 5.136185e+01 5.319660e+01 5.382875e+01 3.602485e+01 2.573258e+01 3.916934e+01 1.789513e+00 2.424361e+00 1.656571e+00 4.750310e+00 3.537786e+00 3.386172e+00 3.043696e+00 4.712811e+00 4.017519e+00 3.787593e+00 3.004718e+00 2.892621e+00 1.904663e+00
<GCONST> 1.036792e+02
<STATE> 4
<MEAN> 25
 -1.315997e+00 1.580782e+00 3.470674e-01 2.146631e+00 2.663272e+00 2.096541e+00 2.527700e+00 7.198333e-01 2.588834e+00 3.445245e-01 -9.012941e-01 6.781739e-01 -6.125196e-01 -3.132211e-01 1.637829e-01 6.197558e-01 2.336765e-01 -1.422297e-01 2.243396e-01 8.950253e-02 3.914970e-01 -2.665269e-02 7.257867e-02 3.096211e-01 -2.493803e-01
<VARIANCE> 25
 3.260461e+01 2.311480e+01 1.892080e+01 3.231847e+01 2.676665e+01 2.054561e+01 2.963231e+01 2.980398e+01 4.265847e+01 2.413005e+01 2.657575e+01 3.387443e+01 1.183077e+00 1.041937e+00 1.136708e+00 2.160959e+00 1.868893e+00 1.952981e+00 1.984252e+00 1.916557e+00 2.367676e+00 2.372913e+00 2.191153e+00 1.697178e+00 6.282332e-01
<GCONST> 9.213335e+01
<TRANSP> 5
 0.000000e+00 1.000000e+00 0.000000e+00 0.000000e+00 0.000000e+00
 0.000000e+00 8.785523e-01 1.214477e-01 0.000000e+00 0.000000e+00
 0.000000e+00 0.000000e+00 6.508976e-01 3.491024e-01 0.000000e+00
 0.000000e+00 0.000000e+00 0.000000e+00 7.703640e-01 2.296360e-01
 0.000000e+00 0.000000e+00 0.000000e+00 0.000000e+00 0.000000e+00
<ENDHMM>
~h "m"
<BEGINHMM>
<NUMSTATES> 5
<STATE> 2
<MEAN> 25
 1.452710e+00 1.194074e+00 -3.937023e+00 2.460718e+00 3.064577e+00 -1.906785e+00 -3.521545e-01 -5.938354e+00 -3.854280e+00 -8.750805e-01 -2.495662e+00 -8.411795e-01 1.147886e+00 5.128163e-01 5.138541e-02 1.190215e-01 1.449968e-01 -7.494841e-01 -1.212045e+00 -1.601525e+00 -1.395646e+00 2.155826e-01 -5.262569e-01 -3.141441e-01 8.377115e-01
<VARIANCE> 25
 5.197309e+01 3.076257e+01 7.956435e+01 4.300830e+01 1.231861e+01 3.045689e+01 2.368806e+01 6.169975e+01 6.701400e+01 1.381823e+01 1.769908e+01 2.626015e+01 6.345073e+00 2.362991e+00 7.568799e+00 6.052660e+00 1.784431e+00 5.856754e+00 2.633495e+00 6.457165e+00 5.939656e+00 3.640746e+00 2.001169e+00 2.093487e+00 4.497865e+00
<GCONST> 1.053714e+02
<STATE> 3
<MEAN> 25
 9.925084e+00 1.555770e+00 -2.243763e+00 1.223063e+00 1.321765e+00 -6.975994e-01 -6.942837e+00 -8.969047e+00 -9.544280e+00 -5.585393e-01 -1.544203e+00 -4.761723e+00 9.379934e-01 -8.968344e-01 -4.430471e-01 -8.284981e-01 -7.193286e-01 3.890612e-01 -7.680857e-01 1.297243e+00 3.562736e-01 -2.688918e-01 -4.147064e-02 -9.809697e-01 8.707098e-01
<VARIANCE> 25
 1.375994e+01 2.600732e+01 8.058614e+01 8.292654e+01 1.835879e+01 6.811894e+01 3.553258e+01 1.055630e+02 1.067900e+02 4.577795e+01 3.365406e+01 2.554659e+01 3.141552e+00 4.099907e+00 2.790051e+00 5.594228e+00 3.746788e+00 4.399263e+00 6.346530e+00 1.244063e+01 9.031283e+00 5.888218e+00 4.709853e+00 3.369751e+00 2.337702e+00
<GCONST> 1.113088e+02
<STATE> 4
<MEAN> 25
 9.947513e+00 -4.956779e-02 3.158432e+00 -3.197572e+00 -7.580785e+00 -3.802818e+00 -6.606015e+00 -4.414840e+00 -1.086806e+01 -1.843637e+00 -2.332194e+00 -6.823258e+00 -2.747123e-01 1.904460e-01 2.934387e-01 1.572363e-01 -1.326117e-01 -4.985861e-02 1.753094e-01 1.012236e-01 -1.364875e-02 -1.901965e-01 -1.364262e-01 1.904798e-01 -2.846719e-01
<VARIANCE> 25
 1.245171e+01 4.229599e+01 9.013797e+01 1.168477e+02 6.469020e+01 7.689201e+01 2.945724e+01 1.249579e+02 6.303021e+01 3.368246e+01 1.725052e+01 2.158949e+01 1.302167e+00 2.659054e+00 2.340132e+00 5.896625e+00 4.571716e+00 2.846974e+00 2.042634e+00 9.174286e+00 4.313451e+00 3.265276e+00 1.732601e+00 1.958821e+00 2.331076e+00
<GCONST> 1.058560e+02
<TRANSP> 5
 0.000000e+00 1.000000e+00 0.000000e+00 0.000000e+00 0.000000e+00
 0.000000e+00 6.594061e-01 3.405939e-01 0.000000e+00 0.000000e+00
 0.000000e+00 0.000000e+00 6.917881e-01 3.082119e-01 0.000000e+00
 0.000000e+00 0.000000e+00 0.000000e+00 9.043951e-01 9.560488e-02
 0.000000e+00 0.000000e+00 0.000000e+00 0.000000e+00 0.000000e+00
<ENDHMM>
~h "n"
<BEGINHMM>
<NUMSTATES> 5
<STATE> 2
<MEAN> 25
 7.984872e+00 2.367968e+00 6.795644e+00 4.115391e+00 -3.331795e+00 -5.288375e+00 -3.005433e+00 -8.451249e+00 -1.084977e+01 -1.136497e+00 -5.457404e+00 -5.520823e+00 -1.908536e-01 2.503304e-01 3.205112e-02 2.898743e-01 2.049461e-01 -4.610237e-02 -9.234115e-02 -3.621466e-01 1.375458e-01 -9.590007e-02 -1.125576e-01 1.952335e-01 -4.645743e-01
<VARIANCE> 25
 9.619174e+00 1.557978e+01 1.925589e+01 2.585711e+01 1.836714e+01 2.394915e+01 2.366115e+01 5.362146e+01 3.167840e+01 2.925438e+01 1.793542e+01 1.546839e+01 3.662207e-01 7.589198e-01 9.625603e-01 1.980147e+00 1.393422e+00 1.790575e+00 1.130626e+00 4.015019e+00 2.013341e+00 2.216400e+00 1.190996e+00 1.094307e+00 5.352371e-01
<GCONST> 8.578389e+01
<STATE> 3
<MEAN> 25
 2.273664e+00 2.236801e+00 2.428581e+00 4.576504e+00 1.698719e+00 -1.770428e+00 -1.620736e+00 -2.630571e+00 -2.338673e+00 -4.548130e+00 -5.203736e+00 -1.942479e+00 -1.198155e+00 -5.514875e-01 -8.281311e-01 -1.658235e-01 6.748931e-01 8.639362e-01 8.374003e-01 1.197129e+00 1.452881e+00 7.227643e-01 9.408594e-01 9.027413e-01 -6.478220e-01
<VARIANCE> 25
 2.216665e+01 2.183809e+01 2.810224e+01 1.781331e+01 2.050997e+01 3.620097e+01 2.679779e+01 4.665782e+01 3.880979e+01 3.040926e+01 2.898416e+01 2.248865e+01 1.758303e+00 1.639916e+00 1.638211e+00 1.559044e+00 1.422211e+00 3.083002e+00 3.000518e+00 4.375908e+00 3.853042e+00 3.813782e+00 3.171744e+00 2.555679e+00 9.771981e-01
<GCONST> 9.644602e+01
<STATE> 4
<MEAN> 25
 -4.126874e+00 -2.136781e+00 -1.664612e+00 1.452426e+00 3.155685e+00 2.834744e+00 3.725261e+00 2.589510e+00 4.629572e+00 2.961697e+00 2.654594e+00 3.869061e+00 -5.486255e-02 -3.958984e-02 -6.486601e-02 -6.768983e-02 3.408158e-03 3.651955e-02 3.988072e-02 3.418123e-02 5.938556e-02 8.494376e-02 1.313966e-01 5.872184e-02 -3.545228e-02
<VARIANCE> 25
 7.877886e+00 5.660649e+00 9.861297e+00 1.060369e+01 9.516300e+00 1.208921e+01 1.334519e+01 1.838279e+01 1.845757e+01 1.455857e+01 1.423335e+01 1.301870e+01 3.960033e-01 3.929538e-01 5.784796e-01 8.156942e-01 9.066072e-01 1.010452e+00 1.283751e+00 1.439724e+00 1.583416e+00 1.602928e+00 1.517417e+00 1.321104e+00 2.008595e-01
<GCONST> 7.339472e+01
<TRANSP> 5
 0.000000e+00 1.000000e+00 0.000000e+00 0.000000e+00 0.000000e+00
 0.000000e+00 9.085950e-01 9.140503e-02 0.000000e+00 0.000000e+00
 0.000000e+00 0.000000e+00 7.410679e-01 2.589321e-01 0.000000e+00
 0.000000e+00 0.000000e+00 0.000000e+00 9.264361e-01 7.356388e-02
 0.000000e+00 0.000000e+00 0.000000e+00 0.000000e+00 0.000000e+00
<ENDHMM>
~h "p"
<BEGINHMM>
<NUMSTATES> 5
<STATE> 2
<MEAN> 25
 -1.447759e+00 9.296350e-01 -3.381100e+00 -1.453527e+00 2.611549e+00 7.655667e-01 7.683642e-01 -1.275111e+00 2.696565e+00 -2.104612e-01 -4.207501e-01 -6.075613e-01 3.894270e-01 -2.954588e-01 4.074807e-01 2.336520e-02 -4.887436e-01 -6.928165e-01 -5.978901e-01 2.956053e-01 -2.775117e-01 -5.209650e-01 -7.081134e-01 -1.695609e-01 1.088581e+00
<VARIANCE> 25
 7.107146e+01 2.089972e+01 8.379947e+01 3.317561e+01 3.128723e+01 3.684529e+01 4.560579e+01 3.755508e+01 3.151150e+01 2.959614e+01 3.778464e+01 2.995939e+01 7.089983e+00 3.231923e+00 3.769459e+00 5.980689e+00 3.525782e+00 5.212039e+00 5.341509e+00 5.058757e+00 5.908536e+00 4.427654e+00 3.226058e+00 4.375859e+00 6.106293e+00
<GCONST> 1.097220e+02
<STATE> 3
<MEAN> 25
 4.972198e+00 -1.329401e+00 3.206076e-02 -1.416530e+00 -1.886150e+00 -2.284817e+00 -4.968923e+00 3.969942e+00 -1.715209e+00 -5.038170e+00 -6.724349e+00 -2.423368e-03 -4.013923e-01 -6.583650e-01 6.934397e-01 -7.284572e-02 -1.477775e+00 -5.281999e-01 2.015358e-01 1.049861e+00 -1.128745e+00 -3.314952e-02 1.003176e+00 1.470638e+00 3.430446e-01
<VARIANCE> 25
 2.264948e+01 3.525668e+01 3.067767e+01 4.462595e+01 1.891684e+01 4.621608e+01 5.335019e+01 6.500262e+01 5.437825e+01 3.496589e+01 3.987404e+01 2.303845e+01 4.044517e+00 2.529011e+00 6.729488e+00 3.638678e+00 5.489036e+00 2.586015e+00 7.484301e+00 2.322887e+00 7.713316e+00 5.810126e+00 2.894096e+00 3.850069e+00 3.644269e+00
<GCONST> 1.076878e+02
<STATE> 4
<MEAN> 25
 5.716485e+00 -9.307866e-01 -1.798208e+00 4.163912e-01 -9.636711e-01 -9.304970e+00 -7.382926e+00 1.753901e+00 2.206771e+00 -4.136298e+00 -4.746386e+00 3.175122e+00 -2.525110e-01 -8.955753e-02 -2.642285e-01 2.326470e-01 9.886198e-03 1.190940e-01 4.128919e-01 -1.825360e-01 2.300631e-01 2.651217e-01 4.385348e-01 6.754469e-02 -2.398186e-01
<VARIANCE> 25
 5.579374e+01 1.169876e+01 2.557406e+01 2.764391e+01 3.133274e+01 1.154926e+02 7.000312e+01 2.898467e+01 6.217691e+01 3.713922e+01 3.150074e+01 1.826448e+01 1.504395e+00 9.215221e-01 2.844635e+00 1.177950e+00 3.259155e+00 1.095358e+00 3.521387e+00 1.547181e+00 3.911305e+00 2.721290e+00 2.704221e+00 1.405367e+00 8.856438e-01
<GCONST> 9.698022e+01
<TRANSP> 5
 0.000000e+00 1.000000e+00 0.000000e+00 0.000000e+00 0.000000e+00
 0.000000e+00 8.173086e-01 1.826914e-01 0.000000e+00 0.000000e+00
 0.000000e+00 0.000000e+00 3.643182e-01 6.356817e-01 0.000000e+00
 0.000000e+00 0.000000e+00 0.000000e+00 5.494843e-01 4.505156e-01
 0.000000e+00 0.000000e+00 0.000000e+00 0.000000e+00 0.000000e+00
<ENDHMM>
~h "r"
<BEGINHMM>
<NUMSTATES> 5
<STATE> 2
<MEAN> 25
 9.075473e+00 -6.581166e-01 -5.709805e+00 2.936968e+00 1.801456e+00 -6.923850e+00 -1.000842e+01 -1.784457e+00 2.671102e+00 -4.432445e+00 -3.471347e-01 1.234720e+00 7.120451e-01 -2.342552e-01 -8.382592e-01 1.259583e-01 6.147462e-01 -4.646436e-01 -1.538714e+00 4.884848e-02 1.039861e+00 1.702435e-01 -7.443458e-01 -5.064304e-01 3.425819e-01
<VARIANCE> 25
 6.808128e+01 1.464983e+01 5.237654e+01 2.898491e+01 2.279875e+01 7.430539e+01 7.126610e+01 3.151193e+01 2.457512e+01 4.322049e+01 3.169081e+01 2.096320e+01 2.290029e+00 1.455347e+00 3.039533e+00 1.972062e+00 3.011153e+00 3.115048e+00 3.466590e+00 4.302682e+00 3.229959e+00 3.370868e+00 1.989489e+00 2.042602e+00 2.178795e+00
<GCONST> 1.012999e+02
<STATE> 3
<MEAN> 25
 7.769948e+00 -2.685158e+00 -2.584364e+00 4.099668e+00 -8.185021e-01 -7.974826e+00 -9.519815e+00 2.274763e+00 2.364907e+00 -4.711967e+00 -2.382778e+00 -2.076199e-01 -7.518870e-01 -3.509884e-01 1.366441e+00 -1.548320e-02 -9.703179e-01 1.574388e-01 1.368367e+00 5.845047e-01 -9.044151e-01 3.751256e-02 3.237363e-01 1.955064e-01 -1.939775e-01
<VARIANCE> 25
 5.779182e+01 2.869926e+01 7.808912e+01 2.707655e+01 5.201856e+01 5.182660e+01 6.491514e+01 3.267180e+01 6.187247e+01 5.989373e+01 2.534176e+01 2.952209e+01 3.162594e+00 2.006297e+00 4.171288e+00 3.197637e+00 5.301291e+00 4.365853e+00 4.878449e+00 4.168451e+00 6.116957e+00 4.646865e+00 3.309366e+00 3.183868e+00 2.695617e+00
<GCONST> 1.086977e+02
<STATE> 4
<MEAN> 25
 -3.484447e+00 -2.124248e+00 -9.589688e-01 2.635118e+00 2.677611e+00 1.524485e+00 3.003795e+00 2.247762e+00 4.127841e+00 2.376973e+00 1.792973e+00 3.071550e+00 -1.303197e-01 -1.250932e-02 1.288771e-01 -1.442867e-01 -1.627533e-01 2.129914e-01 2.378950e-01 -1.651544e-01 -1.822389e-01 1.306725e-01 5.321308e-02 -7.256236e-02 -1.472369e-02
<VARIANCE> 25
 3.267248e+01 7.438845e+00 1.881123e+01 9.483621e+00 2.019404e+01 2.441655e+01 3.620041e+01 1.828901e+01 2.749147e+01 1.982855e+01 1.380835e+01 1.544001e+01 4.457236e-01 5.377318e-01 1.021175e+00 9.940185e-01 1.126382e+00 1.442701e+00 1.724089e+00 1.906149e+00 1.920044e+00 1.541621e+00 1.471455e+00 1.753068e+00 5.075949e-01
<GCONST> 8.260000e+01
<TRANSP> 5
 0.000000e+00 1.000000e+00 0.000000e+00 0.000000e+00 0.000000e+00
 0.000000e+00 8.200247e-01 1.799753e-01 0.000000e+00 0.000000e+00
 0.000000e+00 0.000000e+00 7.945246e-01 2.054754e-01 0.000000e+00
 0.000000e+00 0.000000e+00 0.000000e+00 8.884400e-01 1.115600e-01
 0.000000e+00 0.000000e+00 0.000000e+00 0.000000e+00 0.000000e+00
<ENDHMM>
~h "s"
<BEGINHMM>
<NUMSTATES> 5
<STATE> 2
<MEAN> 25
 -1.286325e+01 7.224123e+00 -5.690257e+00 -1.677997e+00 6.308860e+00 -8.321395e+00 4.363447e+00 -3.752681e-01 1.365392e+00 -1.636585e+00 -1.392437e+00 2.674567e+00 -1.694134e+00 7.862044e-01 -1.032411e+00 -4.641210e-01 5.870155e-01 -3.740780e-01 4.463580e-01 9.099150e-02 3.312779e-01 -2.328658e-01 2.210021e-01 1.037446e-01 9.439045e-01
<VARIANCE> 25
 4.381027e+01 2.222802e+01 3.183535e+01 1.829147e+01 2.035191e+01 3.419499e+01 2.856159e+01 2.976997e+01 2.351992e+01 1.782936e+01 1.889869e+01 1.749800e+01 4.860002e+00 2.184456e+00 2.165371e+00 1.834729e+00 1.886552e+00 3.335703e+00 2.709355e+00 2.792986e+00 2.404860e+00 1.924305e+00 1.917405e+00 1.460773e+00 1.966629e+00
<GCONST> 9.516932e+01
<STATE> 3
<MEAN> 25
 -1.478994e+01 6.592828e+00 -8.615025e+00 -2.736732e+00 7.573749e+00 -7.086039e+00 5.610049e+00 3.456560e-01 3.429053e+00 -2.451985e-01 -8.564484e-01 3.378660e+00 8.536691e-01 -4.868309e-01 3.804067e-01 1.722637e-01 -3.941363e-01 1.843143e-01 -3.498136e-02 -1.556844e-01 -1.387478e-02 3.896644e-01 4.719114e-02 -1.314277e-01 -4.783548e-01
<VARIANCE> 25
 2.409639e+01 1.643426e+01 2.178866e+01 1.565476e+01 1.816203e+01 2.228213e+01 2.291486e+01 2.751762e+01 1.868593e+01 2.409862e+01 2.017319e+01 1.587827e+01 2.213192e+00 8.480533e-01 1.448201e+00 1.361255e+00 1.321019e+00 1.805775e+00 1.558454e+00 1.423587e+00 1.651641e+00 1.915084e+00 1.550612e+00 1.364634e+00 3.027492e+00
<GCONST> 8.807291e+01
<STATE> 4
<MEAN> 25
 -3.980166e+00 2.668828e+00 -1.339633e+00 -2.818877e-01 -2.775588e-01 -7.043789e+00 1.778619e+00 -1.015010e+00 -2.407218e+00 -5.725812e-01 -7.403917e-01 4.935955e-01 1.105872e+00 -2.747065e-01 1.092175e+00 2.382795e-02 -8.389751e-01 -2.006713e-01 -8.692718e-01 -1.678881e-03 -6.888927e-01 -2.184448e-02 -2.270988e-01 -5.823379e-01 2.475768e-01
<VARIANCE> 25
 6.846272e+01 3.108343e+01 6.124510e+01 2.238221e+01 6.899665e+01 4.467287e+01 3.414557e+01 3.390944e+01 7.334191e+01 2.353307e+01 2.652388e+01 2.888396e+01 5.421118e+00 2.769218e+00 5.878361e+00 2.054388e+00 4.481058e+00 3.928433e+00 3.980260e+00 4.462955e+00 6.234218e+00 2.341846e+00 2.675999e+00 2.547495e+00 3.914189e+00
<GCONST> 1.069261e+02
<TRANSP> 5
 0.000000e+00 1.000000e+00 0.000000e+00 0.000000e+00 0.000000e+00
 0.000000e+00 8.669658e-01 1.330342e-01 0.000000e+00 0.000000e+00
 0.000000e+00 0.000000e+00 8.765625e-01 1.234375e-01 0.000000e+00
 0.000000e+00 0.000000e+00 0.000000e+00 8.228110e-01 1.771890e-01
 0.000000e+00 0.000000e+00 0.000000e+00 0.000000e+00 0.000000e+00
<ENDHMM>
~h "t"
<BEGINHMM>
<NUMSTATES> 5
<STATE> 2
<MEAN> 25
 -5.248949e+00 1.093723e+00 5.013663e+00 -1.915797e+00 -1.115557e+00 -3.905405e-01 2.021403e-01 -1.462459e+00 -2.195381e+00 -2.871179e-01 -3.737282e-01 -3.282263e-01 -4.387918e-01 2.123733e-01 1.328928e-01 -3.692587e-01 -1.222999e-01 -5.661519e-01 -5.922434e-02 4.006630e-02 -3.198698e-01 8.711886e-02 -2.464535e-01 1.910642e-02 1.246138e+00
<VARIANCE> 25
 2.751411e+01 2.565226e+01 6.200917e+01 3.143694e+01 4.456661e+01 3.147193e+01 2.761977e+01 2.633109e+01 5.865199e+01 2.327469e+01 1.638861e+01 2.467789e+01 3.451518e+00 3.094377e+00 4.616608e+00 4.492558e+00 4.899323e+00 4.195968e+00 3.518368e+00 2.715194e+00 5.051960e+00 2.850963e+00 2.263510e+00 2.845317e+00 1.284422e+01
<GCONST> 1.049019e+02
<STATE> 3
<MEAN> 25
 -3.947121e+00 1.341860e+00 6.032907e+00 1.451674e-01 -1.852025e+00 -4.732976e+00 5.288908e-01 1.172146e+00 -3.132264e+00 1.020648e+00 -2.218332e-01 1.781060e+00 5.375642e-01 -3.230980e-01 2.586464e-01 8.926070e-01 4.454278e-01 6.119356e-01 4.716654e-03 6.599820e-01 3.629996e-01 1.918936e-01 6.068963e-01 4.387580e-01 -1.929288e+00
<VARIANCE> 25
 3.059711e+01 1.158983e+01 5.236184e+01 2.954650e+01 4.403227e+01 3.307797e+01 4.020435e+01 2.329885e+01 3.404087e+01 2.251131e+01 2.495604e+01 2.994131e+01 3.002882e+00 1.364112e+00 3.292127e+00 2.201661e+00 3.822835e+00 5.112973e+00 3.482882e+00 1.991051e+00 2.774162e+00 2.302925e+00 2.165469e+00 2.499434e+00 4.438350e+00
<GCONST> 9.987985e+01
<STATE> 4
<MEAN> 25
 -4.809215e+00 -1.421693e+00 -8.266651e-01 1.919355e+00 3.379287e+00 2.865725e+00 3.591012e+00 2.180995e+00 3.841136e+00 2.581712e+00 2.688896e+00 3.790545e+00 2.459914e-02 -5.319382e-02 -1.059718e-01 5.985274e-03 5.507163e-03 4.715229e-02 -6.387381e-02 -2.309486e-02 4.659937e-02 -6.552275e-02 6.644466e-02 -3.505101e-02 -5.748161e-02
<VARIANCE> 25
 4.867688e+00 5.489083e+00 1.527269e+01 8.094678e+00 1.548848e+01 1.334313e+01 1.870752e+01 1.283425e+01 1.810797e+01 1.365211e+01 1.273123e+01 1.245164e+01 3.742331e-01 4.018727e-01 7.567069e-01 7.181061e-01 1.066547e+00 1.191270e+00 1.504778e+00 1.426655e+00 1.193473e+00 1.252541e+00 1.232920e+00 1.284712e+00 2.759328e-01
<GCONST> 7.351125e+01
<TRANSP> 5
 0.000000e+00 1.000000e+00 0.000000e+00 0.000000e+00 0.000000e+00
 0.000000e+00 7.660342e-01 2.339658e-01 0.000000e+00 0.000000e+00
 0.000000e+00 0.000000e+00 6.581134e-01 3.418867e-01 0.000000e+00
 0.000000e+00 0.000000e+00 0.000000e+00 9.214772e-01 7.852283e-02
 0.000000e+00 0.000000e+00 0.000000e+00 0.000000e+00 0.000000e+00
<ENDHMM>
~h "v"
<BEGINHMM>
<NUMSTATES> 5
<STATE> 2
<MEAN> 25
 -2.750049e+00 6.545041e-02 -7.043636e-01 4.273348e+00 -2.853717e-01 -3.512556e+00 -3.338822e-01 1.448831e+00 3.262877e+00 1.715000e+00 4.143920e-01 2.043754e+00 -6.407408e-01 -2.626829e-01 -5.208726e-01 -2.062884e-01 2.514648e-01 1.003427e-01 2.802042e-01 3.587242e-01 7.790743e-01 6.276964e-01 4.534692e-01 4.242778e-01 -7.580307e-01
<VARIANCE> 25
 4.888775e+01 8.888276e+00 2.309886e+01 2.747487e+01 3.272522e+01 3.686938e+01 2.978554e+01 1.928430e+01 2.699368e+01 2.264547e+01 2.531642e+01 2.441760e+01 4.670155e+00 1.437403e+00 2.087598e+00 2.199316e+00 4.656049e+00 5.112245e+00 4.280454e+00 2.082797e+00 3.131051e+00 3.500288e+00 3.510002e+00 2.784006e+00 2.894004e+00
<GCONST> 9.928752e+01
<STATE> 3
<MEAN> 25
 -3.240496e+00 -2.831982e-01 -1.697197e+00 3.907460e+00 1.332671e+00 -8.870776e-01 7.455332e-01 1.588044e+00 3.664608e+00 2.061792e+00 7.368762e-01 2.135918e+00 -5.131350e-01 -3.597046e-01 -3.413289e-01 8.720668e-02 5.138568e-01 5.647521e-01 4.693709e-01 5.773216e-02 -2.016722e-01 -2.525593e-01 1.786922e-01 1.296491e-01 -3.353167e-01
<VARIANCE> 25
 2.942133e+01 1.007608e+01 1.750687e+01 2.009622e+01 1.780002e+01 1.970020e+01 2.129850e+01 2.595691e+01 2.552570e+01 1.988652e+01 2.112800e+01 2.969265e+01 2.208373e+00 6.232913e-01 1.584365e+00 1.933995e+00 3.169955e+00 2.871098e+00 2.030745e+00 2.285131e+00 2.564247e+00 3.003580e+00 3.074509e+00 1.953715e+00 1.587116e+00
<GCONST> 9.182687e+01
<STATE> 4
<MEAN> 25
 -4.523065e+00 -2.413169e+00 -2.716119e+00 3.286087e+00 4.075027e+00 1.156843e+00 3.885738e+00 2.809058e+00 5.601265e+00 3.034101e+00 2.554772e+00 4.423368e+00 2.740994e-02 -6.041951e-02 -3.014299e-02 -7.516946e-02 2.532995e-02 -1.497565e-02 7.561707e-02 -2.251892e-02 -4.368718e-02 1.532068e-02 6.763623e-03 1.302102e-02 1.014846e-03
<VARIANCE> 25
 6.880651e+00 5.537136e+00 1.005115e+01 9.624815e+00 1.108111e+01 1.207163e+01 1.433807e+01 1.068459e+01 1.549807e+01 1.288266e+01 1.273593e+01 1.754950e+01 4.391761e-01 4.641719e-01 6.400437e-01 7.859313e-01 8.530679e-01 1.030685e+00 1.204018e+00 1.280306e+00 1.214350e+00 1.416767e+00 1.585986e+00 1.591948e+00 3.177264e-01
<GCONST> 7.314182e+01
<TRANSP> 5
 0.000000e+00 1.000000e+00 0.000000e+00 0.000000e+00 0.000000e+00
 0.000000e+00 6.538604e-01 3.461396e-01 0.000000e+00 0.000000e+00
 0.000000e+00 0.000000e+00 4.321119e-01 5.678882e-01 0.000000e+00
 0.000000e+00 0.000000e+00 0.000000e+00 9.262764e-01 7.372358e-02
 0.000000e+00 0.000000e+00 0.000000e+00 0.000000e+00 0.000000e+00
<ENDHMM>
~h "w"
<BEGINHMM>
<NUMSTATES> 5
<STATE> 2
<MEAN> 25
 2.430974e+00 3.200545e+00 3.551856e+00 -8.067847e-01 -7.952234e-01 4.703549e-01 -2.612225e+00 -5.723740e+00 -5.395506e+00 -2.121494e+00 -3.190323e+00 -2.781833e+00 5.129010e-01 3.363387e-02 6.751477e-01 -2.771105e-01 -6.569017e-01 -4.288946e-02 -4.505112e-01 -3.703507e-01 -1.738746e+00 6.356365e-03 1.213996e-01 -4.374591e-01 1.066089e+00
<VARIANCE> 25
 5.289923e+01 3.143956e+01 4.426523e+01 4.295737e+01 4.093170e+01 2.816544e+01 3.013904e+01 2.742766e+01 7.670959e+01 3.006576e+01 2.364259e+01 1.485666e+01 2.618403e+00 3.176792e+00 5.616456e+00 4.545760e+00 4.240547e+00 3.713930e+00 3.187625e+00 3.006626e+00 5.868170e+00 3.762379e+00 2.692187e+00 1.687437e+00 4.199102e+00
<GCONST> 1.047043e+02
<STATE> 3
<MEAN> 25
 7.558339e+00 6.161394e-01 9.657714e+00 8.337327e-01 -6.192837e+00 -6.436878e+00 -8.065541e+00 -4.001383e+00 -1.224617e+01 -2.236633e+00 1.582599e-01 -2.923584e+00 1.725934e-01 -8.241207e-02 -5.993093e-03 -8.759851e-02 -2.457993e-02 -2.848788e-01 9.996601e-02 3.566248e-01 -1.977298e-01 -2.638020e-01 6.578900e-02 1.072493e-01 7.810493e-02
<VARIANCE> 25
 1.616733e+01 1.250898e+01 1.307639e+02 2.848893e+01 8.253355e+01 4.432207e+01 2.558175e+01 3.966921e+01 8.228674e+01 3.628497e+01 1.505153e+01 2.919075e+01 1.059520e+00 1.106259e+00 3.287359e+00 2.345507e+00 4.359347e+00 3.828980e+00 2.931167e+00 4.624409e+00 5.338887e+00 3.642875e+00 2.143893e+00 2.058600e+00 7.828246e-01
<GCONST> 1.005240e+02
<STATE> 4
<MEAN> 25
 6.596065e+00 3.795012e+00 1.163185e+01 8.801631e-01 -3.557214e+00 -8.196200e+00 -9.777038e+00 -4.666316e+00 -1.213702e+01 -4.847368e+00 -3.548462e-02 -2.249203e+00 -8.433307e-02 3.068124e-01 -1.544841e-01 1.788945e-02 5.199717e-01 2.034160e-01 -2.337728e-01 -2.964795e-01 5.442130e-01 9.684750e-02 -3.400879e-01 1.222089e-02 -3.597881e-01
<VARIANCE> 25
 4.395789e+00 1.691095e+01 5.902319e+01 2.926423e+01 6.046176e+01 2.967979e+01 2.483901e+01 4.200897e+01 1.740186e+01 5.565067e+01 8.754967e+00 1.399805e+01 2.390664e-01 4.940385e-01 8.686210e-01 6.144170e-01 1.111072e+00 9.143726e-01 1.143429e+00 1.253266e+00 1.231514e+00 1.041859e+00 1.066249e+00 1.137457e+00 1.506827e-01
<GCONST> 7.999795e+01
<TRANSP> 5
 0.000000e+00 1.000000e+00 0.000000e+00 0.000000e+00 0.000000e+00
 0.000000e+00 8.616439e-01 1.383561e-01 0.000000e+00 0.000000e+00
 0.000000e+00 0.000000e+00 8.384076e-01 1.615923e-01 0.000000e+00
 0.000000e+00 0.000000e+00 0.000000e+00 8.693198e-01 1.306802e-01
 0.000000e+00 0.000000e+00 0.000000e+00 0.000000e+00 0.000000e+00
<ENDHMM>
~h "y"
<BEGINHMM>
<NUMSTATES> 5
<STATE> 2
<MEAN> 25
 2.217188e+00 3.720662e+00 1.121830e+01 2.153888e+00 -7.078071e+00 -3.018335e+00 -6.754107e+00 2.069376e-01 -9.333677e+00 -2.320766e+00 5.651550e-01 -3.295924e+00 6.862975e-01 -1.370671e-01 -1.193817e-01 4.149858e-01 -7.984440e-01 -6.274393e-01 -7.590960e-01 7.067571e-01 -3.808908e-01 -7.820274e-01 1.673085e-01 -3.706491e-01 8.987325e-01
<VARIANCE> 25
 1.527517e+01 2.625837e+01 5.149077e+01 2.068796e+01 7.580394e+01 3.372170e+01 4.230719e+01 3.072647e+01 8.406444e+01 3.323758e+01 2.323435e+01 3.190954e+01 1.508127e+00 2.678094e+00 7.159042e+00 2.979819e+00 5.468678e+00 2.505467e+00 5.454161e+00 3.518635e+00 9.987619e+00 3.329800e+00 3.531922e+00 3.904099e+00 1.209228e+00
<GCONST> 1.048186e+02
<STATE> 3
<MEAN> 25
 9.360120e+00 1.325113e+00 -1.988108e+00 7.381183e-01 -4.610631e-01 -5.316495e-01 -9.002075e+00 -7.953523e-01 -6.084350e+00 -4.513889e+00 -2.719336e+00 -8.889906e+00 1.964486e-01 -1.137275e-01 -6.350340e-01 -5.193228e-01 8.834957e-01 4.207561e-01 -5.444707e-02 -1.958443e-01 5.069888e-01 4.088306e-01 -4.275246e-01 -4.819591e-01 -1.980049e-01
<VARIANCE> 25
 6.308860e+00 5.419786e+01 3.500524e+01 4.301499e+01 3.563349e+01 5.852066e+01 4.680531e+01 8.938477e+01 9.352776e+01 5.245413e+01 2.714509e+01 2.909536e+01 8.003697e-01 2.078296e+00 3.472922e+00 3.069269e+00 3.957176e+00 4.533828e+00 4.748839e+00 5.641355e+00 4.863112e+00 4.653390e+00 3.581654e+00 3.018712e+00 1.817751e+00
<GCONST> 1.053981e+02
<STATE> 4
<MEAN> 25
 8.912892e+00 8.438218e-02 -2.998073e-01 3.409059e+00 1.010640e+00 -1.864461e+00 -2.612460e+00 -5.267400e+00 -3.528983e+00 8.235594e-01 -2.234949e+00 -6.517486e+00 -2.137679e-01 3.825747e-01 2.956439e-01 2.776656e-01 4.329588e-02 -1.064615e-01 2.693510e-01 -5.213568e-01 -1.377121e-01 8.157352e-02 1.135700e-01 3.694887e-01 -5.147007e-01
<VARIANCE> 25
 7.966668e+00 2.215026e+01 6.556182e+01 2.822653e+01 2.442949e+01 4.107425e+01 3.227081e+01 4.492862e+01 3.786084e+01 1.447861e+01 2.378031e+01 1.615154e+01 2.942831e-01 3.494208e-01 1.657085e+00 7.644833e-01 1.341290e+00 1.462856e+00 1.447630e+00 1.511302e+00 1.192688e+00 1.039360e+00 1.500389e+00 7.116288e-01 3.555581e-01
<GCONST> 8.375619e+01
<TRANSP> 5
 0.000000e+00 1.000000e+00 0.000000e+00 0.000000e+00 0.000000e+00
 0.000000e+00 8.907125e-01 1.092875e-01 0.000000e+00 0.000000e+00
 0.000000e+00 0.000000e+00 8.860320e-01 1.139680e-01 0.000000e+00
 0.000000e+00 0.000000e+00 0.000000e+00 9.075393e-01 9.246072e-02
 0.000000e+00 0.000000e+00 0.000000e+00 0.000000e+00 0.000000e+00
<ENDHMM>
~h "z"
<BEGINHMM>
<NUMSTATES> 5
<STATE> 2
<MEAN> 25
 -1.304585e+01 8.852298e+00 -4.147829e+00 -1.628799e+00 9.823667e+00 -9.461219e+00 1.378570e+00 1.277149e-01 1.169632e+00 -9.034086e-02 -2.453801e+00 2.632617e+00 -4.662924e-01 4.292492e-02 7.380167e-02 1.335353e-01 3.450038e-01 -5.582896e-01 1.450587e-01 1.462403e-01 -2.204804e-03 1.528195e-01 -2.764861e-01 7.074160e-02 4.967884e-02
<VARIANCE> 25
 7.192458e+01 3.525464e+01 3.785698e+01 2.137361e+01 3.213036e+01 2.843645e+01 3.952071e+01 2.686961e+01 2.830064e+01 2.565438e+01 1.791788e+01 1.749927e+01 5.535773e+00 2.145085e+00 1.753456e+00 1.422101e+00 3.884846e+00 2.744122e+00 2.927494e+00 2.431116e+00 3.376503e+00 2.846507e+00 1.641589e+00 1.489946e+00 1.466582e+00
<GCONST> 9.785943e+01
<STATE> 3
<MEAN> 25
 -7.207371e+00 9.300561e+00 -2.367263e-01 1.459618e+00 7.611001e+00 -1.000814e+01 2.997930e+00 -2.477951e+00 -1.243124e+00 -1.141953e+00 -4.030181e+00 2.049656e+00 3.239622e-01 -1.619626e-01 4.814623e-01 -2.388785e-02 -4.728862e-01 1.829998e-01 1.959103e-01 5.345687e-02 -4.471868e-01 -1.484113e-01 1.798753e-01 -8.184679e-02 9.399609e-02
<VARIANCE> 25
 1.290936e+01 5.836801e+01 1.639549e+01 1.039431e+01 1.547057e+01 5.072556e+01 2.828705e+01 2.726734e+01 2.562671e+01 2.098353e+01 2.035061e+01 1.741109e+01 1.996607e+00 1.739761e+00 1.977888e+00 9.655093e-01 1.703499e+00 3.931484e+00 3.314402e+00 2.577049e+00 2.539034e+00 1.490054e+00 2.035292e+00 1.663123e+00 1.220171e+00
<GCONST> 9.186866e+01
<STATE> 4
<MEAN> 25
 -4.544596e+00 -7.941433e-02 -5.279789e-01 3.359235e+00 3.695384e+00 2.426946e-01 4.002006e+00 1.313357e+00 3.374983e+00 2.728087e+00 1.863657e+00 4.015405e+00 2.658367e-01 -1.837925e-01 2.084088e-01 8.300361e-02 -2.516529e-01 2.608062e-01 2.647784e-02 7.328893e-02 5.739378e-02 -1.300232e-02 9.907313e-02 -1.630218e-01 -4.191514e-02
<VARIANCE> 25
 4.154306e+00 1.561686e+01 7.981382e+00 1.053818e+01 9.755968e+00 3.617249e+01 1.650079e+01 1.831548e+01 2.362879e+01 1.190835e+01 1.410662e+01 1.484688e+01 1.056839e+00 8.887118e-01 1.292623e+00 1.210997e+00 1.756065e+00 1.974936e+00 1.685596e+00 2.112981e+00 1.483997e+00 9.252506e-01 1.163754e+00 1.574412e+00 2.114871e-01
<GCONST> 7.938125e+01
<TRANSP> 5
 0.000000e+00 1.000000e+00 0.000000e+00 0.000000e+00 0.000000e+00
 0.000000e+00 9.032114e-01 9.678857e-02 0.000000e+00 0.000000e+00
 0.000000e+00 0.000000e+00 8.628709e-01 1.371291e-01 0.000000e+00
 0.000000e+00 0.000000e+00 0.000000e+00 9.151453e-01 8.485475e-02
 0.000000e+00 0.000000e+00 0.000000e+00 0.000000e+00 0.000000e+00
<ENDHMM>
~h "aa"
<BEGINHMM>
<NUMSTATES> 5
<STATE> 2
<MEAN> 25
 8.530793e+00 -7.169490e+00 -8.413136e+00 -1.183604e+01 1.077635e+00 1.135585e+01 -2.823121e+00 -4.788919e+00 6.766376e-01 -3.895894e+00 1.352481e+00 -1.521985e+01 7.043707e-01 3.574567e-01 -2.074897e-01 -6.533033e-01 -5.331675e-01 1.816293e-01 -4.617501e-01 -1.069673e-01 -2.273526e-01 -6.898943e-01 7.498215e-02 -4.864703e-01 1.456765e-01
<VARIANCE> 25
 1.897181e+01 1.846049e+01 9.239355e+00 2.712627e+01 1.658698e+01 2.677008e+01 2.546881e+01 2.109070e+01 4.073465e+01 4.885634e+01 1.586905e+01 3.786116e+01 1.852595e+00 1.459519e+00 9.317309e-01 3.346285e+00 2.583797e+00 2.048868e+00 1.720873e+00 2.053907e+00 1.916401e+00 3.084130e+00 2.082328e+00 6.525072e+00 2.177983e+00
<GCONST> 9.393114e+01
<STATE> 3
<MEAN> 25
 5.996786e+00 7.278249e-01 -4.484776e+00 -4.907130e+00 1.154377e+00 7.717638e+00 -2.146188e+00 7.814036e-02 -1.253861e+00 -2.135931e+00 -1.327820e+00 -8.071466e+00 -1.425867e+00 4.937991e-01 1.589783e+00 2.293779e+00 7.478903e-02 -1.305620e+00 1.438195e+00 1.469981e+00 1.621810e-01 7.202403e-01 -7.521294e-01 2.304858e+00 -2.079076e+00
<VARIANCE> 25
 4.969355e+01 2.762660e+01 3.553181e+01 5.420011e+01 2.096021e+01 3.167112e+01 6.535918e+01 3.701476e+01 4.286569e+01 4.714339e+01 4.613341e+01 4.114239e+01 2.633708e+00 2.560087e+00 2.438397e+00 4.217476e+00 3.381609e+00 2.860031e+00 5.543179e+00 3.748629e+00 3.176728e+00 3.310330e+00 4.264116e+00 3.107265e+00 3.371844e+00
<GCONST> 1.058783e+02
<STATE> 4
<MEAN> 25
 3.873028e+00 1.393747e+00 2.886969e+00 2.331300e+00 -1.311719e+00 1.655214e+00 2.623498e-01 1.695773e+00 -1.491755e-01 -1.379211e+00 -1.628827e+00 -1.454178e+00 -1.825434e-01 3.448882e-01 5.906898e-01 -4.399746e-02 -2.892119e-01 1.202734e-01 3.118946e-01 -1.232669e+00 -5.213751e-01 -5.840973e-02 4.084770e-01 8.472367e-01 -1.489595e-01
<VARIANCE> 25
 4.261784e+01 3.999302e+01 3.317761e+01 7.253194e+01 8.021786e+01 2.800265e+01 4.416903e+01 4.407946e+01 3.356693e+01 2.253457e+01 2.022404e+01 2.148374e+01 1.711877e+00 2.063645e+00 5.473983e+00 1.517102e+01 6.530899e+00 4.655757e+00 3.125760e+00 6.161303e+00 3.233891e+00 3.642283e+00 3.090299e+00 3.539524e+00 5.924237e+00
<GCONST> 1.078593e+02
<TRANSP> 5
 0.000000e+00 1.000000e+00 0.000000e+00 0.000000e+00 0.000000e+00
 0.000000e+00 8.631939e-01 1.368061e-01 0.000000e+00 0.000000e+00
 0.000000e+00 0.000000e+00 6.893520e-01 3.106480e-01 0.000000e+00
 0.000000e+00 0.000000e+00 0.000000e+00 5.871319e-01 4.128681e-01
 0.000000e+00 0.000000e+00 0.000000e+00 0.000000e+00 0.000000e+00
<ENDHMM>
~h "ae"
<BEGINHMM>
<NUMSTATES> 5
<STATE> 2
<MEAN> 25
 -2.091484e-01 -4.732358e+00 1.659764e-01 -1.404345e-01 -2.407637e+00 -1.751791e+00 4.860729e+00 4.096409e+00 -8.124993e-01 -1.677595e+00 -1.600919e+00 -2.146227e+00 1.720576e+00 -1.686148e+00 2.625295e-02 -6.654085e-01 -1.024440e+00 -9.995404e-01 7.641907e-03 1.267023e+00 -1.717206e+00 -1.446592e+00 -2.115904e+00 -1.793472e+00 3.259481e+00
<VARIANCE> 25
 1.827499e+01 2.692121e+01 2.635116e+01 1.609524e+01 4.042569e+01 2.239587e+01 3.599643e+01 1.999046e+01 4.070391e+01 1.630065e+01 2.813176e+01 3.260453e+01 2.689415e+00 2.973883e+00 1.948318e+00 1.453826e+00 3.657167e+00 2.002014e+00 1.757087e+00 2.391799e+00 3.243219e+00 2.277363e+00 3.970009e+00 5.024191e+00 7.294877e+00
<GCONST> 9.842802e+01
<STATE> 3
<MEAN> 25
 7.207466e+00 -1.101663e+01 -2.818601e+00 -2.624408e+00 -2.774662e+00 -2.221558e+00 2.728931e+00 6.391043e+00 -2.457630e+00 -8.222731e+00 -9.339313e+00 -9.657456e+00 6.053314e-01 -2.396449e-01 -5.402526e-01 -1.629002e-03 2.379022e-01 2.153700e-01 -3.344561e-01 -6.891551e-02 2.463293e-01 -2.773319e-01 -4.163335e-01 -3.887427e-01 4.442584e-01
<VARIANCE> 25
 7.824913e+00 2.653524e+01 2.624076e+01 1.469826e+01 2.500791e+01 1.487479e+01 1.581318e+01 3.013989e+01 2.134827e+01 1.497260e+01 2.464620e+01 3.121058e+01 6.858656e-01 1.509195e+00 7.543288e-01 1.489524e+00 1.843496e+00 1.621565e+00 1.193690e+00 1.978562e+00 1.233307e+00 1.488341e+00 1.845209e+00 2.256930e+00 2.308396e+00
<GCONST> 8.671190e+01
<STATE> 4
<MEAN> 25
 8.806472e+00 -4.083079e+00 -5.109530e+00 -3.396012e+00 -3.953234e+00 -3.153938e+00 -7.496296e-01 1.842010e+00 -1.205049e+00 -2.982695e+00 -5.950328e+00 -9.502601e+00 -5.763158e-01 1.402725e+00 5.845177e-01 4.920084e-01 3.518786e-01 1.644632e-01 1.340285e-01 -9.986911e-01 -3.439805e-02 8.810619e-01 7.321708e-01 8.354854e-01 -1.741821e+00
<VARIANCE> 25
 1.720076e+01 5.590927e+01 3.995174e+01 6.722048e+01 3.216269e+01 4.599751e+01 2.403949e+01 5.019083e+01 4.580201e+01 3.567736e+01 3.426500e+01 3.105899e+01 2.797420e+00 1.768136e+00 2.541404e+00 4.473853e+00 2.686702e+00 2.918888e+00 1.831345e+00 4.360453e+00 3.843721e+00 3.325404e+00 2.073406e+00 3.432138e+00 2.869274e+00
<GCONST> 1.032062e+02
<TRANSP> 5
 0.000000e+00 1.000000e+00 0.000000e+00 0.000000e+00 0.000000e+00
 0.000000e+00 6.909187e-01 3.090813e-01 0.000000e+00 0.000000e+00
 0.000000e+00 0.000000e+00 8.731729e-01 1.268271e-01 0.000000e+00
 0.000000e+00 0.000000e+00 0.000000e+00 8.115329e-01 1.884671e-01
 0.000000e+00 0.000000e+00 0.000000e+00 0.000000e+00 0.000000e+00
<ENDHMM>
~h "ah"
<BEGINHMM>
<NUMSTATES> 5
<STATE> 2
<MEAN> 25
 3.435986e+00 -2.542539e+00 -1.592684e+00 -2.068820e+00 -1.337378e+00 -1.167663e+00 -8.720350e-01 1.236590e-01 1.023305e+00 -2.507549e+00 -2.922933e+00 -5.553763e+00 7.908615e-01 -1.624410e-01 -2.284800e-01 -5.823561e-01 -1.733871e-01 -2.459539e-01 -4.173487e-01 -7.953175e-03 -1.721868e-02 -4.094939e-02 -5.393391e-01 -6.230823e-01 7.263319e-01
<VARIANCE> 25
 6.637080e+01 4.489102e+01 6.346060e+01 6.570770e+01 2.918685e+01 6.570746e+01 4.099110e+01 5.568972e+01 5.315897e+01 2.978607e+01 3.678751e+01 6.763403e+01 4.486147e+00 3.129262e+00 3.142415e+00 3.625949e+00 2.887904e+00 4.153725e+00 3.556385e+00 3.881098e+00 3.889123e+00 2.642990e+00 2.791599e+00 3.688959e+00 4.710711e+00
<GCONST> 1.091569e+02
<STATE> 3
<MEAN> 25
 2.646196e+00 -1.791568e-01 3.690165e-01 -1.181578e+00 -1.311046e+00 -2.732691e+00 -1.815253e+00 -3.517309e-01 2.152883e-01 -1.025496e+00 -3.115402e+00 -3.307425e+00 3.209532e-01 6.577170e-01 1.622221e-01 -8.108392e-02 2.028203e-01 4.749228e-01 1.846043e-01 -6.382304e-01 -6.572030e-01 2.750931e-01 1.826526e-01 2.350986e-01 -4.007099e-01
<VARIANCE> 25
 8.050329e+01 4.123830e+01 4.750454e+01 5.456634e+01 3.004068e+01 5.345530e+01 4.965438e+01 4.885688e+01 4.229562e+01 3.209803e+01 3.351114e+01 4.258833e+01 5.295246e+00 3.001025e+00 2.926263e+00 4.647475e+00 3.791677e+00 5.236774e+00 3.771893e+00 4.979692e+00 4.821836e+00 3.289412e+00 2.698475e+00 3.456949e+00 3.745232e+00
<GCONST> 1.091818e+02
<STATE> 4
<MEAN> 25
 1.136277e+00 8.132780e-01 1.102721e+00 5.836839e-01 5.950919e-01 -2.750525e-01 -3.571206e-01 -1.973236e+00 -7.643002e-01 -7.818960e-02 -1.686482e+00 -1.358815e+00 3.080837e-01 1.997056e-01 4.092079e-02 -1.579723e-01 5.555370e-02 2.425067e-01 1.453262e-01 -3.973180e-01 -6.618109e-01 -4.793652e-03 2.448069e-01 1.350567e-01 -3.327502e-01
<VARIANCE> 25
 7.124474e+01 2.749508e+01 4.452868e+01 5.602268e+01 3.584874e+01 3.908108e+01 3.802546e+01 6.232695e+01 5.845107e+01 3.483155e+01 2.938824e+01 3.586714e+01 3.626479e+00 2.907360e+00 2.016684e+00 3.757356e+00 2.940025e+00 3.829023e+00 3.520291e+00 5.149844e+00 4.518102e+00 3.345630e+00 2.381196e+00 2.695065e+00 2.240624e+00
<GCONST> 1.060244e+02
<TRANSP> 5
 0.000000e+00 1.000000e+00 0.000000e+00 0.000000e+00 0.000000e+00
 0.000000e+00 6.902888e-01 3.097112e-01 0.000000e+00 0.000000e+00
 0.000000e+00 0.000000e+00 3.673530e-01 6.326469e-01 0.000000e+00
 0.000000e+00 0.000000e+00 0.000000e+00 4.888808e-01 5.111192e-01
 0.000000e+00 0.000000e+00 0.000000e+00 0.000000e+00 0.000000e+00
<ENDHMM>
~h "ao"
<BEGINHMM>
<NUMSTATES> 5
<STATE> 2
<MEAN> 25
 5.248977e+00 2.703638e+00 -5.547703e+00 -1.015137e+01 -4.031920e-01 8.798132e+00 2.696940e+00 -1.764791e+00 1.957381e+00 -3.189537e+00 2.858634e-01 -1.236646e+00 3.201065e+00 5.936211e-01 -1.985984e-01 -4.267059e+00 -3.434968e+00 3.199925e-01 -1.691891e-01 2.073555e-01 -7.486645e-01 -9.337556e-01 5.468030e-02 -1.249309e+00 1.029816e+00
<VARIANCE> 25
 3.844722e+01 3.374839e+01 2.664729e+01 1.034768e+02 6.283216e+01 4.583457e+01 1.468986e+01 1.988106e+01 2.499949e+01 1.310962e+01 9.127508e+00 2.189953e+01 2.953158e+00 1.461493e+00 1.297034e+00 4.106421e+00 3.866379e+00 5.102316e+00 1.424785e+00 1.206705e+00 3.266563e+00 1.394464e+00 1.033290e+00 1.495962e+00 3.030609e+00
<GCONST> 9.548900e+01
<STATE> 3
<MEAN> 25
 1.165288e+01 1.755601e+00 -7.260892e+00 -2.512103e+01 -7.506367e+00 1.128034e+01 3.053916e+00 5.489880e-01 1.256347e+00 -7.580876e+00 -1.203617e-01 -4.398953e+00 5.308185e-02 3.338177e-01 7.639531e-02 -3.103391e-01 -4.878715e-01 -4.459272e-01 5.771411e-02 4.697825e-01 8.911855e-02 -4.425914e-02 -2.581687e-01 1.995669e-01 -1.191656e-01
<VARIANCE> 25
 4.904637e+00 2.052044e+01 1.020701e+01 1.332193e+01 2.479990e+01 2.283142e+01 1.307410e+01 1.551279e+01 1.943795e+01 1.463036e+01 9.160297e+00 7.483969e+00 1.691789e-01 3.294851e-01 4.244407e-01 1.000345e+00 9.486840e-01 6.857588e-01 5.437133e-01 6.793808e-01 7.268115e-01 7.608470e-01 7.980058e-01 6.208807e-01 2.592824e-01
<GCONST> 6.918626e+01
<STATE> 4
<MEAN> 25
 9.716130e+00 7.682994e+00 -5.536260e+00 -1.547805e+01 -1.175190e+01 -9.710512e-01 1.534055e+00 3.368306e+00 -5.596123e-01 -2.307566e+00 -1.170216e+00 -2.331602e-01 3.065557e-02 -1.239231e-01 -2.494675e-01 5.338608e-01 6.896794e-01 -9.879936e-02 -8.866581e-02 -3.221369e-01 -5.447586e-01 2.119402e-01 3.696844e-01 3.828751e-01 -5.406776e-02
<VARIANCE> 25
 7.376915e+00 1.308479e+01 1.325519e+01 4.293518e+01 2.808562e+01 3.220191e+01 1.718475e+01 1.504172e+01 2.537807e+01 1.765881e+01 1.736489e+01 1.557991e+01 1.617426e-01 6.049364e-01 6.183236e-01 9.720280e-01 1.279376e+00 1.828256e+00 1.265393e+00 1.025996e+00 1.131205e+00 1.021450e+00 1.311823e+00 9.480790e-01 1.305509e-01
<GCONST> 7.753241e+01
<TRANSP> 5
 0.000000e+00 1.000000e+00 0.000000e+00 0.000000e+00 0.000000e+00
 0.000000e+00 7.101885e-01 2.898116e-01 0.000000e+00 0.000000e+00
 0.000000e+00 0.000000e+00 8.970131e-01 1.029869e-01 0.000000e+00
 0.000000e+00 0.000000e+00 0.000000e+00 9.149842e-01 8.501579e-02
 0.000000e+00 0.000000e+00 0.000000e+00 0.000000e+00 0.000000e+00
<ENDHMM>
~h "aw"
<BEGINHMM>
<NUMSTATES> 5
<STATE> 2
<MEAN> 25
 3.976989e+00 2.873271e+00 -1.536158e+00 9.283457e-01 1.968612e+00 -1.539892e+00 -3.018245e+00 -7.486821e+00 -6.520357e+00 -3.223761e+00 -1.450902e-01 -4.891487e+00 -9.865425e-01 -2.216993e-01 3.202284e-01 -7.200357e-01 3.501930e-01 3.939185e-01 6.314886e-01 4.371074e-01 7.463217e-01 8.171252e-01 6.771526e-01 1.248836e+00 -7.180815e-01
<VARIANCE> 25
 3.392252e+01 1.079171e+01 6.086241e+01 3.260413e+01 1.464335e+01 1.439253e+01 2.979951e+01 1.655247e+01 3.744563e+01 2.629727e+01 2.325684e+01 4.609143e+01 1.812772e+00 1.924940e+00 2.815045e+00 7.434666e+00 1.701213e+00 2.756125e+00 3.591840e+00 5.112687e+00 6.390141e+00 4.388717e+00 4.037632e+00 1.135235e+00 3.295124e+00
<GCONST> 9.965931e+01
<STATE> 3
<MEAN> 25
 -7.841561e+00 -2.078482e+00 4.357711e+00 -5.039533e+00 -1.845015e+00 -2.833271e+00 2.117231e-01 3.298819e+00 -2.331141e+00 -4.141403e-01 2.323030e+00 2.918507e+00 1.113660e-01 -6.851776e-01 -1.397526e-02 2.994299e-01 -5.037665e-01 -7.007985e-01 3.039825e-01 1.100010e+00 2.211801e-01 -1.697192e-02 -4.577435e-01 6.736890e-02 1.437614e-01
<VARIANCE> 25
 4.505422e+01 1.417604e+01 1.294439e+01 3.492428e+01 1.646375e+01 1.589159e+01 2.573567e+01 5.369723e+01 2.319152e+01 1.953313e+01 2.901525e+01 1.568007e+01 5.635055e+00 1.887224e+00 1.671091e+00 8.712770e+00 2.785824e+00 1.693002e+00 2.490175e+00 4.959188e+00 3.672370e+00 4.067438e+00 6.545697e+00 3.341078e+00 7.590769e+00
<GCONST> 1.004774e+02
<STATE> 4
<MEAN> 25
 -5.107800e+00 -1.619676e-01 -6.373259e-01 1.698112e-01 2.383247e+00 1.112528e+00 4.021372e+00 3.033059e+00 4.721308e+00 2.578990e+00 5.333872e+00 5.841208e+00 1.427441e-02 -4.418497e-02 -3.894756e-02 -5.037182e-04 -3.372817e-02 4.650279e-01 -1.219309e-02 -1.962306e-01 2.270176e-01 -1.493517e-01 1.536164e-01 2.271575e-02 7.152461e-04
<VARIANCE> 25
 7.211188e+00 3.727242e+00 5.916360e+00 7.807110e+00 1.479287e+01 1.388864e+01 1.274662e+01 2.041065e+01 2.173409e+01 1.132969e+01 1.480058e+01 1.774694e+01 3.553631e-01 5.191540e-01 7.853923e-01 7.050912e-01 1.826716e+00 1.431057e+00 1.655112e+00 1.601987e+00 8.539261e-01 1.584677e+00 1.186657e+00 1.152407e+00 6.664286e-01
<GCONST> 7.489923e+01
<TRANSP> 5
 0.000000e+00 1.000000e+00 0.000000e+00 0.000000e+00 0.000000e+00
 0.000000e+00 8.317817e-01 1.682182e-01 0.000000e+00 0.000000e+00
 0.000000e+00 0.000000e+00 7.797679e-01 2.202321e-01 0.000000e+00
 0.000000e+00 0.000000e+00 0.000000e+00 9.101182e-01 8.988177e-02
 0.000000e+00 0.000000e+00 0.000000e+00 0.000000e+00 0.000000e+00
<ENDHMM>
~h "ay"
<BEGINHMM>
<NUMSTATES> 5
<STATE> 2
<MEAN> 25
 6.981603e+00 -1.917014e+00 3.469317e+00 3.005158e+00 -5.648781e+00 -5.905444e+00 -5.234997e+00 9.195732e-01 -2.758264e+00 -4.711421e+00 -2.590932e+00 -2.686200e+00 6.091467e-01 -3.014042e-01 2.467666e-01 1.053899e-02 -6.472666e-01 -1.708401e-01 -4.532091e-01 6.519333e-01 -1.120534e-01 -4.668436e-01 -4.927732e-01 -1.982272e-01 6.658947e-01
<VARIANCE> 25
 5.863662e+01 4.154681e+01 6.824860e+01 3.844321e+01 6.085072e+01 4.122038e+01 4.910023e+01 6.671881e+01 7.359972e+01 3.622017e+01 2.281513e+01 2.998984e+01 2.968584e+00 2.318201e+00 6.238197e+00 2.445969e+00 2.917165e+00 3.927107e+00 4.361610e+00 7.096645e+00 7.250523e+00 3.613296e+00 2.219949e+00 2.407404e+00 1.761959e+00
<GCONST> 1.079888e+02
<STATE> 3
<MEAN> 25
 7.362884e+00 -3.337575e+00 3.399344e-01 -1.252274e+00 -7.551557e+00 -3.697807e+00 -3.242670e+00 5.456165e+00 1.239113e+00 -3.108506e+00 -5.327995e+00 -7.190126e+00 -3.530926e-01 5.063821e-01 6.017572e-02 -7.658028e-02 6.589125e-01 8.025886e-01 -9.460948e-02 -6.835600e-01 -1.852551e-01 3.835994e-01 2.658224e-01 -1.091798e-01 -9.183124e-01
<VARIANCE> 25
 2.624291e+01 2.663270e+01 5.955482e+01 2.467955e+01 4.328383e+01 5.171567e+01 4.272070e+01 3.324857e+01 6.009986e+01 2.895604e+01 4.575359e+01 6.994991e+01 2.360725e+00 2.231825e+00 4.007007e+00 2.669538e+00 4.424717e+00 4.212101e+00 3.025244e+00 3.499232e+00 3.899222e+00 1.817816e+00 3.316177e+00 4.164026e+00 2.061616e+00
<GCONST> 1.049181e+02
<STATE> 4
<MEAN> 25
 9.798224e+00 -2.714545e+00 3.945715e-01 -2.472470e+00 -2.841002e+00 1.931996e+00 -5.596531e+00 2.147332e+00 -5.661644e+00 -6.720837e+00 -2.264950e+00 -9.262205e+00 -1.161720e-01 1.946002e-01 4.909694e-01 -7.398903e-02 -1.765470e-01 -1.033596e-01 2.724532e-01 -3.436098e-01 -4.166815e-01 2.759287e-01 2.285240e-01 2.176549e-02 -2.290284e-01
<VARIANCE> 25
 1.400716e+01 2.809704e+01 1.283291e+02 1.943284e+01 9.148517e+01 3.659664e+01 4.424664e+01 3.576228e+01 7.364845e+01 2.875478e+01 2.383345e+01 3.030284e+01 4.195898e-01 9.097099e-01 1.655976e+00 2.060807e+00 2.563767e+00 2.062928e+00 2.073044e+00 2.049901e+00 2.025528e+00 1.476411e+00 1.714867e+00 1.958660e+00 2.892728e-01
<GCONST> 9.391041e+01
<TRANSP> 5
 0.000000e+00 1.000000e+00 0.000000e+00 0.000000e+00 0.000000e+00
 0.000000e+00 8.407653e-01 1.592347e-01 0.000000e+00 0.000000e+00
 0.000000e+00 0.000000e+00 7.602053e-01 2.397947e-01 0.000000e+00
 0.000000e+00 0.000000e+00 0.000000e+00 8.980606e-01 1.019394e-01
 0.000000e+00 0.000000e+00 0.000000e+00 0.000000e+00 0.000000e+00
<ENDHMM>
~h "ch"
<BEGINHMM>
<NUMSTATES> 5
<STATE> 2
<MEAN> 25
 -3.392627e+00 -1.656826e+00 -7.811534e-01 4.081582e+00 2.533015e+00 3.139641e-01 3.843863e+00 2.455814e+00 4.499794e+00 1.507438e+00 -1.320792e-01 3.545348e+00 -1.018979e-01 -1.508700e-02 1.621966e-01 -9.284241e-02 7.043007e-02 4.809891e-01 -1.448377e-01 -1.317694e-01 3.165444e-01 3.138750e-01 2.674212e-01 -5.942626e-02 -5.442132e-01
<VARIANCE> 25
 7.005712e+00 8.594618e+00 1.188203e+01 8.765665e+00 1.150911e+01 1.867582e+01 1.403069e+01 2.130532e+01 1.192321e+01 2.064239e+01 1.807882e+01 1.381497e+01 8.448699e-01 9.555913e-01 8.870629e-01 1.782753e+00 1.654071e+00 2.398882e+00 1.875490e+00 1.939902e+00 1.592278e+00 2.272114e+00 1.416750e+00 1.532090e+00 2.206224e+00
<GCONST> 8.255378e+01
<STATE> 3
<MEAN> 25
 -7.820207e+00 -2.898703e+00 1.854928e+00 -2.165180e+00 2.020136e+00 6.179049e+00 -1.030834e+00 6.369731e-01 4.497039e+00 -2.229513e+00 2.438806e+00 3.548747e+00 -3.140840e+00 5.448958e-01 1.553957e+00 -1.544444e+00 -7.395558e-01 1.209334e+00 -7.883192e-01 -1.701632e+00 8.585826e-01 -8.367377e-01 5.059967e-01 5.620740e-02 2.277551e+00
<VARIANCE> 25
 4.831000e+01 3.097091e+01 1.655333e+01 2.438335e+01 1.915264e+01 2.166231e+01 3.930950e+01 2.652081e+01 2.391254e+01 1.783658e+01 8.139462e+00 4.279721e+00 3.658090e+00 3.217812e+00 1.398877e+00 2.066232e+00 3.069868e+00 2.585438e+00 4.972989e+00 2.221392e+00 1.088704e+00 2.362399e+00 1.224949e+00 1.469405e+00 4.631153e+00
<GCONST> 9.290773e+01
<STATE> 4
<MEAN> 25
 -1.796734e+01 1.777534e+00 9.231687e+00 -3.070129e+00 -5.112204e+00 3.160038e+00 4.493543e+00 -7.485840e+00 5.120819e+00 -2.486884e+00 2.380671e+00 -1.570386e+00 8.067456e-01 1.507379e-01 4.904577e-01 9.783445e-01 -7.202920e-01 -1.655869e+00 3.108487e-01 -2.861364e-01 -7.412947e-01 -2.349218e-01 -3.495105e-01 -7.350547e-01 8.073342e-01
<VARIANCE> 25
 3.583086e+01 1.087167e+01 1.339200e+01 2.187418e+01 1.667703e+01 2.875711e+01 2.322402e+01 2.030574e+01 1.448939e+01 9.724554e+00 1.911500e+01 1.440302e+01 7.227230e+00 1.439944e+00 1.298082e+00 1.641392e+00 2.842772e+00 3.224811e+00 4.310486e+00 3.236927e+00 2.024658e+00 1.480045e+00 1.258763e+00 8.909771e-01 2.833924e+00
<GCONST> 9.069090e+01
<TRANSP> 5
 0.000000e+00 1.000000e+00 0.000000e+00 0.000000e+00 0.000000e+00
 0.000000e+00 9.066846e-01 9.331541e-02 0.000000e+00 0.000000e+00
 0.000000e+00 0.000000e+00 6.883562e-01 3.116439e-01 0.000000e+00
 0.000000e+00 0.000000e+00 0.000000e+00 8.447734e-01 1.552267e-01
 0.000000e+00 0.000000e+00 0.000000e+00 0.000000e+00 0.000000e+00
<ENDHMM>
~h "dh"
<BEGINHMM>
<NUMSTATES> 5
<STATE> 2
<MEAN> 25
 6.185703e+00 -1.492094e+00 2.936157e+00 1.076943e+01 -3.222178e+00 -1.085445e+01 -8.983871e+00 -3.142691e+00 -1.220989e+00 -4.331937e+00 -2.696788e+00 5.219020e-01 -3.667465e-01 5.975028e-01 -3.791130e-01 3.533255e-01 1.068748e+00 4.447755e-01 1.429894e-01 3.825274e-01 5.751383e-01 -5.901780e-01 -4.732878e-01 3.053866e-01 -8.874976e-01
<VARIANCE> 25
 1.396050e+01 3.000319e+01 1.922633e+01 1.125535e+01 4.116790e+01 7.610497e+01 2.343906e+01 6.667950e+01 5.436992e+01 5.058730e+01 1.243879e+01 4.479645e+01 7.771220e-01 1.095085e+00 1.078842e+00 1.720743e+00 1.188381e+00 2.434682e+00 1.623847e+00 1.009979e+00 1.125629e+00 1.534669e+00 1.037360e+00 1.560458e+00 2.135322e-01
<GCONST> 8.850691e+01
<STATE> 3
<MEAN> 25
 -1.741972e+00 2.490060e+00 3.154327e+00 9.111025e+00 4.776473e+00 7.622294e-01 1.878337e+00 1.116442e+00 1.429749e+00 -4.250622e+00 -5.022517e+00 -9.605628e-01 -1.452429e+00 -8.099085e-01 -2.973118e-01 -5.616159e-01 1.164341e-01 1.482604e+00 2.056789e+00 8.340814e-01 4.292102e-01 1.510754e+00 1.246571e+00 2.716611e-01 -8.787426e-01
<VARIANCE> 25
 9.166808e+00 4.847312e+00 6.501030e+00 6.864924e+00 4.876727e+00 1.769861e+01 2.696198e+01 2.309538e+01 2.379875e+01 1.436396e+01 1.323626e+01 1.811930e+01 4.136687e-01 9.752749e-01 1.479458e+00 1.515976e+00 8.573307e-01 1.961864e+00 1.933663e+00 2.429445e+00 2.516902e+00 1.167447e+00 1.346575e+00 3.656352e+00 2.902795e-01
<GCONST> 7.914764e+01
<STATE> 4
<MEAN> 25
 -7.255353e+00 -1.508780e+00 -1.130076e+00 3.560831e+00 3.080711e+00 3.291095e+00 5.654827e+00 3.263383e+00 4.419491e+00 3.374699e+00 4.540336e+00 5.246603e+00 -8.564105e-02 -2.756797e-02 -1.111746e-01 -6.830295e-02 -5.382408e-02 4.230949e-02 -2.725807e-02 -5.922596e-03 7.570869e-02 9.842212e-02 1.807763e-01 5.980359e-02 -1.687782e-02
<VARIANCE> 25
 1.088618e+00 1.877801e+00 4.355562e+00 3.974355e+00 6.488684e+00 7.831630e+00 7.296568e+00 7.533715e+00 1.089551e+01 1.137625e+01 8.787339e+00 1.000391e+01 1.204800e-01 2.099682e-01 5.056395e-01 6.300687e-01 7.378061e-01 6.671644e-01 9.269995e-01 9.182541e-01 1.132164e+00 1.269517e+00 9.684032e-01 1.425600e+00 4.931927e-02
<GCONST> 5.872944e+01
<TRANSP> 5
 0.000000e+00 1.000000e+00 0.000000e+00 0.000000e+00 0.000000e+00
 0.000000e+00 8.901109e-01 1.098892e-01 0.000000e+00 0.000000e+00
 0.000000e+00 0.000000e+00 7.899815e-01 2.100186e-01 0.000000e+00
 0.000000e+00 0.000000e+00 0.000000e+00 9.693879e-01 3.061211e-02
 0.000000e+00 0.000000e+00 0.000000e+00 0.000000e+00 0.000000e+00
<ENDHMM>
~h "eh"
<BEGINHMM>
<NUMSTATES> 5
<STATE> 2
<MEAN> 25
 6.126779e+00 -4.694462e+00 2.405704e+00 -2.939616e+00 -8.089141e+00 -5.939969e+00 9.484707e-01 6.228022e+00 -3.184678e+00 -8.552915e-01 -3.920140e+00 -5.982800e+00 8.179322e-01 -6.848453e-01 1.648512e-01 -2.140936e-01 -6.619512e-01 -3.806493e-01 -6.332702e-01 4.111477e-01 -2.809237e-01 -2.912671e-01 -3.117273e-01 -8.873367e-01 8.392086e-01
<VARIANCE> 25
 1.941408e+01 2.221446e+01 3.207193e+01 1.946225e+01 4.061475e+01 3.615558e+01 5.590990e+01 2.478116e+01 2.482203e+01 2.302150e+01 1.907783e+01 3.323777e+01 2.214280e+00 2.699024e+00 2.688924e+00 2.125065e+00 4.241446e+00 3.165902e+00 4.254140e+00 2.575731e+00 3.207286e+00 2.277303e+00 2.151100e+00 4.422703e+00 2.801645e+00
<GCONST> 9.956976e+01
<STATE> 3
<MEAN> 25
 7.682367e+00 -1.746294e+00 2.201658e+00 -1.066430e+00 -5.020030e+00 -6.155772e+00 -4.222106e+00 9.654420e-01 -3.120834e+00 -2.675360e+00 -4.566020e+00 -7.225019e+00 -1.081902e-01 5.902869e-01 5.445252e-02 7.256731e-01 9.292303e-01 3.574580e-01 4.910266e-02 -7.092425e-01 -2.756774e-01 -3.145367e-01 -1.945783e-01 3.120382e-01 -1.075387e+00
<VARIANCE> 25
 2.243934e+01 3.943996e+01 2.900515e+01 3.374138e+01 3.379003e+01 2.900250e+01 4.659276e+01 5.817176e+01 4.997655e+01 3.374604e+01 2.713974e+01 3.854328e+01 1.938914e+00 1.937838e+00 1.638880e+00 2.377567e+00 2.457622e+00 1.821308e+00 2.036799e+00 3.296308e+00 3.023211e+00 2.391436e+00 2.192036e+00 2.417627e+00 2.648936e+00
<GCONST> 9.950102e+01
<STATE> 4
<MEAN> 25
 4.897048e+00 -5.301607e-01 1.838701e+00 9.613284e-01 -9.129600e-01 -2.281168e+00 -2.353110e+00 6.544319e-01 -3.311687e+00 -3.090346e+00 -3.789006e+00 -4.996830e+00 -4.017709e-01 2.633105e-01 2.212868e-01 1.911462e-01 4.822199e-01 6.558019e-01 -1.308278e-01 -1.328470e+00 -7.067516e-02 7.594864e-01 2.872631e-01 4.997557e-01 -9.870776e-01
<VARIANCE> 25
 3.309497e+01 1.954228e+01 3.244908e+01 2.520016e+01 4.644048e+01 4.870432e+01 3.890429e+01 4.028582e+01 3.878588e+01 3.196601e+01 2.981994e+01 3.895553e+01 2.419405e+00 1.795594e+00 2.525862e+00 3.686702e+00 3.000036e+00 3.116077e+00 2.970160e+00 6.010064e+00 3.686733e+00 4.238418e+00 1.564830e+00 2.145075e+00 1.684085e+00
<GCONST> 1.016853e+02
<TRANSP> 5
 0.000000e+00 1.000000e+00 0.000000e+00 0.000000e+00 0.000000e+00
 0.000000e+00 7.769647e-01 2.230354e-01 0.000000e+00 0.000000e+00
 0.000000e+00 0.000000e+00 7.944010e-01 2.055989e-01 0.000000e+00
 0.000000e+00 0.000000e+00 0.000000e+00 3.929833e-01 6.070167e-01
 0.000000e+00 0.000000e+00 0.000000e+00 0.000000e+00 0.000000e+00
<ENDHMM>
~h "er"
<BEGINHMM>
<NUMSTATES> 5
<STATE> 2
<MEAN> 25
 1.189477e+01 -3.098060e+00 -7.136041e+00 2.670008e+00 2.749144e+00 -1.258580e+01 -1.366040e+01 4.333347e-01 2.148393e+00 -7.645077e+00 -1.885590e+00 2.331102e+00 2.377715e-01 -1.851211e-01 -1.353798e-01 1.016740e-01 -2.934160e-02 -3.378254e-01 -5.249001e-01 3.747836e-01 2.161662e-01 -4.153709e-02 -1.193727e-01 1.737892e-01 -1.662051e-02
<VARIANCE> 25
 3.202839e+01 1.618145e+01 3.649957e+01 2.945085e+01 3.704470e+01 8.017011e+01 8.714435e+01 3.360149e+01 3.632331e+01 3.416336e+01 2.590224e+01 3.043353e+01 3.123475e+00 1.188813e+00 2.710364e+00 1.478209e+00 2.937297e+00 2.794811e+00 5.875500e+00 2.422665e+00 2.414101e+00 1.701645e+00 1.834738e+00 2.357852e+00 1.075520e+00
<GCONST> 9.936044e+01
<STATE> 3
<MEAN> 25
 2.390898e+00 -5.633603e-01 -6.858107e-01 3.679320e+00 -7.930385e-01 -9.861891e+00 -4.734912e+00 8.112281e-01 2.152932e+00 -3.731205e+00 -6.574804e-01 1.310272e+00 -1.460474e+00 1.023170e-01 3.059326e-01 -1.883094e-01 2.716284e-01 1.992681e+00 2.074703e+00 -1.730097e-01 9.848537e-02 9.185041e-01 1.013795e-01 -8.110046e-01 -5.083748e-01
<VARIANCE> 25
 5.598317e+01 2.692595e+01 3.431607e+01 1.971960e+01 2.844018e+01 6.789483e+01 9.360775e+01 4.453157e+01 1.491684e+01 4.172024e+01 2.403206e+01 5.847312e+01 3.228635e+00 1.659677e+00 1.346658e+00 2.181830e+00 3.408762e+00 4.603444e+00 4.853295e+00 3.676436e+00 1.648084e+00 3.007988e+00 2.669526e+00 2.104206e+00 1.351258e+00
<GCONST> 1.013838e+02
<STATE> 4
<MEAN> 25
 -7.521276e-01 -1.419140e+00 -2.063865e+00 2.534657e+00 3.554371e+00 1.096752e+00 2.786035e+00 1.752872e+00 2.113446e+00 2.712226e+00 -1.246985e-01 -7.406460e-01 -1.520467e-01 2.472981e-01 3.500039e-01 -2.748719e-01 6.930041e-02 2.034137e-01 -4.055133e-02 -6.090610e-01 -3.170214e-01 2.547216e-01 -1.017174e-01 -4.366618e-01 1.360246e-01
<VARIANCE> 25
 2.835297e+01 1.749847e+01 4.656041e+01 1.937129e+01 2.077975e+01 5.010823e+01 3.037461e+01 2.887828e+01 5.334268e+01 2.789176e+01 3.155763e+01 3.671761e+01 1.532811e+00 7.865506e-01 8.109134e-01 1.202495e+00 1.323220e+00 2.280937e+00 2.437145e+00 1.580992e+00 1.764990e+00 2.098807e+00 2.280117e+00 1.714576e+00 5.903965e-01
<GCONST> 9.180460e+01
<TRANSP> 5
 0.000000e+00 1.000000e+00 0.000000e+00 0.000000e+00 0.000000e+00
 0.000000e+00 9.183751e-01 8.162487e-02 0.000000e+00 0.000000e+00
 0.000000e+00 0.000000e+00 7.559340e-01 2.440660e-01 0.000000e+00
 0.000000e+00 0.000000e+00 0.000000e+00 8.283367e-01 1.716633e-01
 0.000000e+00 0.000000e+00 0.000000e+00 0.000000e+00 0.000000e+00
<ENDHMM>
~h "ey"
<BEGINHMM>
<NUMSTATES> 5
<STATE> 2
<MEAN> 25
 2.772541e+00 5.685832e-01 1.221318e+01 -6.114556e+00 -1.233818e+01 -4.135239e-01 -6.980128e+00 -4.384141e-01 -9.498706e+00 2.894738e+00 -1.208726e+00 -3.251113e+00 1.372542e-01 3.362577e-01 1.231772e+00 -6.546373e-01 -6.865027e-01 6.277035e-01 -8.346596e-01 -7.725350e-01 -9.265426e-01 1.536623e-01 -3.821819e-01 -6.006085e-01 5.761508e-01
<VARIANCE> 25
 1.001710e+01 2.026857e+01 3.469399e+01 2.204966e+01 7.771948e+01 3.828656e+01 5.709033e+01 2.941107e+01 4.480650e+01 1.715922e+01 2.043532e+01 1.528802e+01 1.036632e+00 1.166964e+00 2.958804e+00 1.521752e+00 4.670522e+00 2.202307e+00 3.876759e+00 2.464911e+00 4.290869e+00 1.550303e+00 1.625206e+00 1.386832e+00 3.028146e+00
<GCONST> 9.581208e+01
<STATE> 3
<MEAN> 25
 2.590340e+00 2.959863e+00 1.749448e+01 -8.341755e+00 -1.304078e+01 5.655030e+00 -8.728930e+00 -6.918783e+00 -1.154745e+01 1.032596e+00 -3.987526e+00 -8.460190e+00 -5.998243e-03 3.019524e-01 -3.519518e-01 8.009203e-01 9.262453e-01 -7.632897e-02 3.758432e-01 -2.809892e-01 4.024492e-01 -7.027246e-01 5.579139e-02 -2.537508e-01 -9.794612e-01
<VARIANCE> 25
 4.303556e+00 8.814555e+00 2.428317e+01 2.638091e+01 1.974030e+01 3.873709e+01 3.025153e+01 1.758633e+01 2.079233e+01 1.752442e+01 1.489238e+01 1.982233e+01 3.913496e-01 6.372477e-01 2.033669e+00 2.156663e+00 1.954324e+00 1.435912e+00 1.595850e+00 1.085907e+00 1.492701e+00 1.128970e+00 9.299670e-01 8.208224e-01 1.193719e+00
<GCONST> 8.264738e+01
<STATE> 4
<MEAN> 25
 5.063022e-01 1.940417e+00 8.402177e+00 1.977877e+00 -1.420716e+00 1.147429e+00 -7.267654e-01 -3.258848e+00 -4.338945e+00 -2.206309e+00 -1.921374e+00 -4.546876e+00 -6.963017e-01 -3.030138e-01 -1.870537e+00 1.259043e+00 1.666015e+00 -5.508566e-01 1.227296e+00 8.028477e-01 1.619535e+00 -1.555280e-01 6.155492e-01 1.280039e+00 -1.079938e+00
<VARIANCE> 25
 1.335599e+01 1.649906e+01 4.137963e+01 2.696892e+01 5.081541e+01 1.535486e+01 3.426604e+01 2.686821e+01 4.530248e+01 2.915759e+01 1.986872e+01 2.672690e+01 2.176302e+00 1.421461e+00 2.448309e+00 4.162964e+00 3.832213e+00 2.609874e+00 2.508955e+00 2.672303e+00 3.476956e+00 3.573465e+00 2.332593e+00 1.438998e+00 9.857845e-01
<GCONST> 9.667809e+01
<TRANSP> 5
 0.000000e+00 1.000000e+00 0.000000e+00 0.000000e+00 0.000000e+00
 0.000000e+00 8.694425e-01 1.305574e-01 0.000000e+00 0.000000e+00
 0.000000e+00 0.000000e+00 8.551438e-01 1.448561e-01 0.000000e+00
 0.000000e+00 0.000000e+00 0.000000e+00 6.407965e-01 3.592034e-01
 0.000000e+00 0.000000e+00 0.000000e+00 0.000000e+00 0.000000e+00
<ENDHMM>
~h "hh"
<BEGINHMM>
<NUMSTATES> 5
<STATE> 2
<MEAN> 25
 -2.241840e+00 -2.712003e+00 -1.464469e+00 2.914427e+00 2.950088e+00 2.025944e+00 3.556828e+00 2.324187e-01 2.526625e+00 -5.249518e-01 8.722166e-01 1.657274e+00 -4.161206e-01 -2.492373e-01 -1.159286e-01 2.854821e-01 1.333439e-01 6.780370e-01 6.963000e-01 1.613700e-01 -1.686818e-01 -1.027306e-01 3.029244e-01 1.877915e-01 -6.073058e-02
<VARIANCE> 25
 1.997298e+01 2.099681e+01 3.034797e+01 7.248544e+00 3.440470e+01 3.036419e+01 1.329873e+01 3.774466e+01 1.864613e+01 2.113799e+01 2.114840e+01 4.761206e+01 2.970708e-01 4.203727e-01 1.271029e+00 8.027912e-01 1.066620e+00 2.600350e+00 1.923207e+00 1.533006e+00 2.392659e+00 2.226855e+00 1.560159e+00 1.065354e+00 4.788183e-01
<GCONST> 8.492632e+01
<STATE> 3
<MEAN> 25
 -3.598106e+00 -2.330441e+00 -1.496058e+00 3.184875e+00 3.994249e+00 3.210636e+00 4.565472e+00 5.127372e-01 3.512396e+00 1.294217e-01 9.935648e-01 2.410060e+00 9.240977e-02 -7.435270e-02 -7.772499e-02 -1.171170e-01 -1.310397e-01 4.807941e-01 2.900425e-01 2.362275e-01 -1.410340e-01 1.867201e-01 -1.555959e-01 -2.062051e-01 -3.894822e-03
<VARIANCE> 25
 1.252776e+01 2.381780e+01 2.146951e+01 5.874022e+00 3.582132e+01 2.463675e+01 1.445774e+01 2.937715e+01 2.018367e+01 1.924507e+01 2.172369e+01 3.284148e+01 2.393747e-01 7.460020e-01 8.235984e-01 4.495727e-01 7.672716e-01 1.832479e+00 1.326398e+00 1.255788e+00 1.346379e+00 1.959576e+00 1.210178e+00 6.311346e-01 1.924607e-01
<GCONST> 7.903643e+01
<STATE> 4
<MEAN> 25
 -5.013284e+00 -6.432902e-01 -4.148169e-01 3.035398e+00 2.103852e+00 2.250433e+00 3.389191e+00 1.641834e+00 4.290772e+00 1.821218e+00 2.663589e+00 3.865339e+00 7.735259e-02 -3.893917e-02 -4.727870e-02 -7.570343e-02 -1.041891e-01 -3.769281e-02 1.092377e-01 7.551203e-02 -9.900528e-02 -3.693517e-02 -9.401015e-02 -1.104327e-01 8.753841e-02
<VARIANCE> 25
 7.029346e+00 4.668176e+00 6.665830e+00 8.759951e+00 8.373921e+00 1.072389e+01 1.858796e+01 1.818511e+01 1.167451e+01 1.294514e+01 1.243259e+01 1.417786e+01 5.282067e-01 6.529728e-01 7.150968e-01 8.034030e-01 9.131057e-01 1.303995e+00 1.802109e+00 1.851931e+00 1.452699e+00 1.474830e+00 1.393169e+00 1.294461e+00 4.307195e-01
<GCONST> 7.428616e+01
<TRANSP> 5
 0.000000e+00 1.000000e+00 0.000000e+00 0.000000e+00 0.000000e+00
 0.000000e+00 2.194214e-01 7.805786e-01 0.000000e+00 0.000000e+00
 0.000000e+00 0.000000e+00 4.450434e-01 5.549566e-01 0.000000e+00
 0.000000e+00 0.000000e+00 0.000000e+00 9.504659e-01 4.953406e-02
 0.000000e+00 0.000000e+00 0.000000e+00 0.000000e+00 0.000000e+00
<ENDHMM>
~h "ih"
<BEGINHMM>
<NUMSTATES> 5
<STATE> 2
<MEAN> 25
 2.774168e+00 -2.225168e-01 1.884039e+00 1.712008e-01 -3.501909e+00 -3.725771e+00 -1.353468e+00 1.431787e+00 -4.130660e+00 -3.248176e+00 -3.104987e+00 -6.245649e+00 -7.295958e-01 -1.715159e-02 -6.203451e-01 7.199014e-01 1.097947e+00 1.076949e+00 7.078626e-01 -2.941003e-02 1.113848e+00 4.770738e-01 2.044086e-01 4.081917e-01 -1.393174e+00
<VARIANCE> 25
 3.481995e+01 3.426015e+01 3.129598e+01 5.186388e+01 4.438811e+01 6.129731e+01 4.413414e+01 4.595584e+01 6.596512e+01 3.588000e+01 3.787004e+01 5.041094e+01 2.309136e+00 2.813832e+00 3.245317e+00 3.408994e+00 2.895737e+00 5.054337e+00 2.242079e+00 4.186366e+00 6.862621e+00 3.384716e+00 3.074274e+00 2.955845e+00 4.799116e+00
<GCONST> 1.073889e+02
<STATE> 3
<MEAN> 25
 -5.603540e+00 -1.218664e+00 -5.339653e-01 3.803397e+00 1.837871e+00 5.104795e-01 3.564268e+00 1.661704e+00 3.366791e+00 1.559839e+00 1.666114e+00 1.590490e+00 -6.000386e-01 -7.763293e-01 -5.196906e-01 -3.118578e-01 1.517013e-01 4.271832e-01 3.158853e-01 4.299810e-01 9.657080e-01 7.368910e-01 7.476795e-01 8.192188e-01 -4.819459e-01
<VARIANCE> 25
 2.208659e+01 2.279828e+01 1.750116e+01 3.703152e+01 2.250158e+01 2.400225e+01 2.558496e+01 4.592548e+01 3.044583e+01 2.244091e+01 2.715567e+01 3.173880e+01 1.792827e+00 2.296757e+00 2.066466e+00 3.924444e+00 1.774804e+00 3.396121e+00 2.553048e+00 3.325466e+00 3.673461e+00 2.933120e+00 2.774315e+00 2.483037e+00 2.582849e+00
<GCONST> 9.798888e+01
<STATE> 4
<MEAN> 25
 -4.669797e+00 -1.649578e+00 -2.051941e+00 2.929701e+00 3.754107e+00 3.145618e+00 4.908931e+00 2.762938e+00 5.503883e+00 2.517250e+00 2.968812e+00 4.506599e+00 -6.279672e-03 -8.465353e-02 1.414109e-02 -5.589292e-02 1.226778e-02 9.975962e-02 2.339743e-02 4.881542e-02 4.792816e-02 5.834433e-02 2.925128e-02 5.686457e-02 -5.846294e-02
<VARIANCE> 25
 5.777477e+00 5.141690e+00 7.638357e+00 6.307201e+00 7.857381e+00 1.211770e+01 1.072996e+01 1.334084e+01 1.404841e+01 1.274243e+01 1.213410e+01 1.071688e+01 3.346656e-01 5.322843e-01 5.881440e-01 6.311440e-01 7.881919e-01 1.211727e+00 1.144320e+00 1.251547e+00 1.238179e+00 1.306485e+00 1.255705e+00 9.984279e-01 2.094106e-01
<GCONST> 6.952910e+01
<TRANSP> 5
 0.000000e+00 1.000000e+00 0.000000e+00 0.000000e+00 0.000000e+00
 0.000000e+00 7.784916e-01 2.215084e-01 0.000000e+00 0.000000e+00
 0.000000e+00 0.000000e+00 6.362528e-01 3.637473e-01 0.000000e+00
 0.000000e+00 0.000000e+00 0.000000e+00 9.275571e-01 7.244293e-02
 0.000000e+00 0.000000e+00 0.000000e+00 0.000000e+00 0.000000e+00
<ENDHMM>
~h "iy"
<BEGINHMM>
<NUMSTATES> 5
<STATE> 2
<MEAN> 25
 1.615599e+00 4.130571e+00 2.242618e+01 -4.661016e+00 -1.186840e+01 1.464525e+00 -1.310914e+01 -6.790028e+00 -1.287710e+01 -3.568720e+00 -1.232898e-02 -7.645618e+00 1.025175e-01 4.694589e-02 1.781219e-01 -9.133221e-03 -2.213234e-01 2.097285e-01 -2.579627e-01 -5.657884e-02 -1.613248e-01 8.194975e-03 9.028803e-02 -2.261399e-01 -8.708816e-02
<VARIANCE> 25
 4.402977e+00 8.671502e+00 1.525618e+01 1.541970e+01 1.785416e+01 2.386031e+01 2.155457e+01 1.160926e+01 1.499932e+01 1.277948e+01 1.046255e+01 1.130663e+01 4.822707e-01 7.545099e-01 1.199790e+00 1.312553e+00 1.572909e+00 1.583229e+00 1.057567e+00 7.434390e-01 7.987041e-01 8.786505e-01 7.697620e-01 7.659107e-01 2.111342e-01
<GCONST> 7.433308e+01
<STATE> 3
<MEAN> 25
 3.543921e+00 4.918589e+00 1.684040e+01 1.461502e+00 -1.016245e+01 -2.730307e+00 -7.308598e+00 -7.258451e+00 -1.270900e+01 -3.340848e+00 -1.731500e-01 -6.255586e+00 1.459946e-02 -1.432895e-01 -1.373050e+00 1.562927e+00 9.007339e-01 -6.186256e-01 9.991425e-01 3.437907e-01 9.978653e-01 -2.044553e-01 -4.813525e-02 8.901729e-01 -8.205190e-01
<VARIANCE> 25
 8.583088e+00 2.436791e+01 3.283700e+01 2.638913e+01 3.909070e+01 3.052980e+01 2.336570e+01 1.917362e+01 3.963902e+01 1.480485e+01 2.173809e+01 2.116566e+01 1.258750e+00 1.827967e+00 2.423511e+00 1.170728e+00 3.319971e+00 2.618278e+00 3.059118e+00 1.980151e+00 3.754457e+00 1.853875e+00 1.615644e+00 1.821559e+00 7.034107e-01
<GCONST> 9.225788e+01
<STATE> 4
<MEAN> 25
 -1.811546e+00 1.296885e+00 3.776564e+00 6.660786e+00 -6.749547e-01 -1.837259e+00 1.261921e-01 4.006983e-01 -3.304593e-01 -1.257497e+00 8.525145e-01 1.576089e+00 -6.597051e-01 -4.946908e-01 -1.664119e+00 3.622977e-01 1.243890e+00 2.308040e-01 6.939381e-01 9.865046e-01 1.623722e+00 1.061412e-01 -1.285680e-01 8.509279e-01 -5.991620e-01
<VARIANCE> 25
 3.410415e+01 1.730520e+01 4.270592e+01 1.729881e+01 4.156227e+01 3.757499e+01 3.080029e+01 2.931068e+01 5.565434e+01 3.195426e+01 1.800958e+01 2.009485e+01 2.051149e+00 1.920404e+00 3.180235e+00 1.429688e+00 3.605890e+00 3.612581e+00 3.440855e+00 2.471384e+00 4.380349e+00 2.638491e+00 2.639489e+00 1.760587e+00 1.359368e+00
<GCONST> 9.834959e+01
<TRANSP> 5
 0.000000e+00 1.000000e+00 0.000000e+00 0.000000e+00 0.000000e+00
 0.000000e+00 9.136605e-01 8.633952e-02 0.000000e+00 0.000000e+00
 0.000000e+00 0.000000e+00 7.170209e-01 2.829792e-01 0.000000e+00
 0.000000e+00 0.000000e+00 0.000000e+00 7.928377e-01 2.071622e-01
 0.000000e+00 0.000000e+00 0.000000e+00 0.000000e+00 0.000000e+00
<ENDHMM>
~h "jh"
<BEGINHMM>
<NUMSTATES> 5
<STATE> 2
<MEAN> 25
 -6.112933e-01 -5.306146e-01 -2.265828e+00 1.071850e+00 -4.140641e+00 -1.964950e+00 -4.397016e-01 -3.351371e+00 -2.029327e+00 1.064591e+00 4.983749e-01 1.281141e+00 1.711862e+00 -5.932921e-01 4.832784e-01 -5.257460e-01 -2.223204e+00 -2.537751e+00 -2.007074e+00 2.032957e-01 -1.629636e+00 -1.009127e-01 -8.182650e-01 -1.821521e+00 5.031590e+00
<VARIANCE> 25
 1.919660e+01 7.543567e+00 1.935874e+01 8.841289e+00 4.428614e+01 3.884765e+01 2.692422e+01 5.448820e+01 2.474862e+01 1.257382e+01 8.407329e+00 2.216912e+01 1.627397e+00 2.077189e+00 3.169368e+00 1.150326e+00 3.420149e+00 2.373219e+00 9.030088e-01 1.304741e+01 3.764288e+00 1.493323e+00 6.496410e-01 6.641185e-01 8.407410e+00
<GCONST> 9.186158e+01
<STATE> 3
<MEAN> 25
 1.219755e+01 -7.862332e+00 -3.514457e+00 -5.417633e+00 -3.512438e+00 -3.340657e+00 -8.614507e+00 -3.195331e-03 1.342445e+00 1.333700e+00 -3.664242e+00 -1.191624e+01 3.122166e-01 -1.449405e-01 4.037966e-01 -2.467293e-01 6.667314e-02 -2.927655e-01 -8.942484e-02 1.728487e-01 -2.001858e-01 -3.896325e-02 -1.719826e-02 9.481755e-02 -1.848218e-01
<VARIANCE> 25
 5.609338e+00 3.136442e+01 1.176009e+01 1.483886e+01 1.659580e+01 4.036892e+01 1.578465e+01 5.375449e+01 1.077657e+01 1.875747e+01 1.677610e+01 1.883933e+01 8.937672e-01 9.089867e-01 3.138424e+00 2.054309e+00 3.359300e+00 5.619938e+00 1.001029e+00 4.799788e+00 3.651784e+00 1.525885e+00 2.866096e+00 3.357466e+00 5.124753e-01
<GCONST> 9.007154e+01
<STATE> 4
<MEAN> 25
 4.044937e+00 -6.105217e-01 1.223667e+01 -1.483088e+00 -6.223029e+00 -6.478204e+00 -7.486734e+00 2.285776e+00 -1.135470e+01 -3.636853e+00 -1.698772e+00 -4.223171e+00 -6.716305e-01 1.604687e-01 2.088109e-01 -1.631102e-01 6.870023e-01 7.905378e-01 1.124114e-01 -2.043240e-01 3.046316e-01 -2.956070e-01 -4.148534e-02 1.137940e-03 -4.513809e-01
<VARIANCE> 25
 4.587734e+01 4.892276e+01 2.320944e+01 3.138348e+01 5.380540e+01 5.593674e+01 1.421923e+01 2.901914e+01 4.624191e+01 1.806722e+01 1.319303e+01 1.478398e+01 5.372866e+00 3.795679e+00 3.525157e+00 4.754574e+00 4.027074e+00 4.100790e+00 2.380568e+00 3.536093e+00 7.518001e+00 1.427097e+00 1.298291e+00 2.258581e+00 7.117490e+00
<GCONST> 1.024675e+02
<TRANSP> 5
 0.000000e+00 1.000000e+00 0.000000e+00 0.000000e+00 0.000000e+00
 0.000000e+00 8.252867e-01 1.747133e-01 0.000000e+00 0.000000e+00
 0.000000e+00 0.000000e+00 8.971717e-01 1.028283e-01 0.000000e+00
 0.000000e+00 0.000000e+00 0.000000e+00 9.325019e-01 6.749814e-02
 0.000000e+00 0.000000e+00 0.000000e+00 0.000000e+00 0.000000e+00
<ENDHMM>
~h "ng"
<BEGINHMM>
<NUMSTATES> 5
<STATE> 2
<MEAN> 25
 3.650446e+00 3.064950e-01 -1.437097e+00 6.714386e+00 3.598779e+00 3.552054e-01 2.587857e+00 -5.583538e+00 -1.574662e+00 2.100091e-02 -3.997630e+00 -3.694450e+00 -4.046513e-01 1.038378e-02 -1.684351e-02 8.924802e-02 2.442978e-01 2.357354e-01 4.422495e-02 -4.974085e-03 1.856797e-01 7.544979e-02 1.262201e-01 3.294595e-01 -5.086899e-01
<VARIANCE> 25
 1.602999e+01 1.807530e+01 3.299258e+01 1.633158e+01 1.459601e+01 1.834234e+01 1.656068e+01 2.821743e+01 3.315832e+01 1.250853e+01 1.682179e+01 1.872706e+01 4.300253e-01 5.476923e-01 8.606050e-01 6.825426e-01 7.105888e-01 1.172211e+00 8.533517e-01 1.066782e+00 1.148795e+00 1.058485e+00 1.156423e+00 1.155183e+00 1.533896e-01
<GCONST> 7.777827e+01
<STATE> 3
<MEAN> 25
 -3.332975e+00 -1.028332e+00 -1.039046e+00 5.571155e+00 5.789207e+00 1.859161e+00 3.761285e+00 -1.149531e+00 3.019389e+00 1.105214e+00 -8.943310e-01 4.144856e+00 -7.976255e-01 -8.161671e-01 -8.000223e-01 -7.212800e-01 2.000344e-01 3.449709e-01 1.027295e+00 1.580489e+00 1.249060e+00 8.112139e-01 1.460899e+00 1.315501e+00 -5.424574e-01
<VARIANCE> 25
 5.336810e+00 9.514004e+00 1.280643e+01 1.523131e+01 9.327497e+00 1.552642e+01 1.056552e+01 3.046048e+01 2.378324e+01 1.316048e+01 2.152771e+01 1.956667e+01 7.235073e-01 8.894116e-01 1.062417e+00 9.448670e-01 1.357552e+00 1.219603e+00 1.497347e+00 2.177836e+00 3.075714e+00 3.044978e+00 2.341003e+00 1.810045e+00 1.769679e-01
<GCONST> 8.088493e+01
<STATE> 4
<MEAN> 25
 -4.452808e+00 -2.062619e+00 -2.473241e+00 3.311549e+00 4.970099e+00 1.582144e+00 5.670553e+00 2.872312e+00 6.018235e+00 3.000852e+00 3.561157e+00 5.671670e+00 -2.134598e-02 2.879609e-02 -2.080502e-02 2.636643e-02 -3.820566e-02 -9.484822e-02 -2.665213e-02 4.129221e-02 5.629035e-02 2.403778e-02 1.078167e-01 3.430396e-02 3.295383e-03
<VARIANCE> 25
 3.893866e+00 4.780370e+00 5.176338e+00 8.590081e+00 7.422156e+00 1.232658e+01 1.152816e+01 1.038893e+01 1.499880e+01 1.280351e+01 1.081898e+01 1.157624e+01 1.190660e-01 2.402075e-01 4.614105e-01 7.514488e-01 8.328902e-01 9.195954e-01 1.125359e+00 1.193314e+00 1.575872e+00 1.463314e+00 1.366200e+00 1.238068e+00 5.832504e-02
<GCONST> 6.598926e+01
<TRANSP> 5
 0.000000e+00 1.000000e+00 0.000000e+00 0.000000e+00 0.000000e+00
 0.000000e+00 8.754594e-01 1.245405e-01 0.000000e+00 0.000000e+00
 0.000000e+00 0.000000e+00 6.123846e-01 3.876154e-01 0.000000e+00
 0.000000e+00 0.000000e+00 0.000000e+00 9.437871e-01 5.621296e-02
 0.000000e+00 0.000000e+00 0.000000e+00 0.000000e+00 0.000000e+00
<ENDHMM>
~h "ow"
<BEGINHMM>
<NUMSTATES> 5
<STATE> 2
<MEAN> 25
 1.011884e+01 8.775262e-02 -7.206709e+00 -8.204553e+00 -3.687090e+00 6.565650e+00 -7.037288e+00 -4.184152e+00 -4.917008e+00 1.681312e+00 3.180483e+00 -2.691627e+00 2.636323e-01 4.304594e-01 -8.838458e-02 -3.392440e-01 -3.628510e-01 5.123065e-01 9.008957e-02 -3.456790e-01 -7.762576e-01 -2.711510e-01 1.547537e-01 8.838630e-02 1.073857e-01
<VARIANCE> 25
 1.792142e+01 1.077526e+01 1.427966e+01 2.482933e+01 2.654936e+01 3.407672e+01 3.483706e+01 2.126152e+01 3.785126e+01 4.879676e+01 2.148052e+01 2.677242e+01 9.986371e-01 5.682725e-01 7.056431e-01 1.729762e+00 1.142916e+00 1.234717e+00 1.258055e+00 1.287255e+00 1.211626e+00 1.207848e+00 1.167231e+00 2.293613e+00 1.125338e+00
<GCONST> 8.631505e+01
<STATE> 3
<MEAN> 25
 9.136563e+00 4.632941e+00 -4.111984e+00 -6.138041e+00 -7.513675e+00 3.755128e+00 -2.788201e+00 -1.689001e+00 -6.957109e+00 -4.631285e+00 -1.330992e+00 -1.252197e+00 -4.987717e-01 -4.545928e-02 4.266370e-01 5.385721e-01 2.644428e-01 -6.384888e-01 2.735424e-01 2.859448e-01 5.139582e-01 9.366342e-02 -3.895907e-01 -4.437831e-03 -5.036072e-01
<VARIANCE> 25
 2.083314e+01 1.576899e+01 9.538006e+00 2.267320e+01 2.044151e+01 2.435629e+01 2.515773e+01 3.381094e+01 2.965007e+01 3.348740e+01 5.861444e+01 4.150317e+01 9.388504e-01 9.954206e-01 5.422797e-01 1.177583e+00 1.361982e+00 1.189847e+00 1.308811e+00 1.739383e+00 2.467981e+00 2.819902e+00 2.049847e+00 1.517907e+00 3.146052e-01
<GCONST> 8.747967e+01
<STATE> 4
<MEAN> 25
 -3.539371e+00 -2.036974e+00 -1.213933e+00 1.172745e+00 2.284157e+00 3.015376e+00 3.063374e+00 2.013321e+00 3.769328e+00 2.387225e+00 1.853835e+00 3.072930e+00 -1.183812e-01 -9.353833e-02 4.837068e-02 1.185031e-01 1.144028e-01 1.018573e-02 1.086168e-01 2.624622e-03 4.341651e-02 1.181286e-02 -3.825003e-02 3.220817e-03 -8.653730e-02
<VARIANCE> 25
 1.527787e+01 9.979635e+00 6.836681e+00 8.089705e+00 1.197420e+01 1.122899e+01 1.615684e+01 1.405639e+01 2.110602e+01 1.594169e+01 1.763943e+01 1.645708e+01 4.080632e-01 4.956727e-01 6.412202e-01 8.211788e-01 9.986675e-01 1.161108e+00 1.407259e+00 1.623878e+00 1.594986e+00 1.740905e+00 1.759485e+00 1.386800e+00 2.244890e-01
<GCONST> 7.595713e+01
<TRANSP> 5
 0.000000e+00 1.000000e+00 0.000000e+00 0.000000e+00 0.000000e+00
 0.000000e+00 8.939930e-01 1.060070e-01 0.000000e+00 0.000000e+00
 0.000000e+00 0.000000e+00 9.129255e-01 8.707450e-02 0.000000e+00
 0.000000e+00 0.000000e+00 0.000000e+00 9.328567e-01 6.714322e-02
 0.000000e+00 0.000000e+00 0.000000e+00 0.000000e+00 0.000000e+00
<ENDHMM>
~h "oy"
<BEGINHMM>
<NUMSTATES> 5
<STATE> 2
<MEAN> 25
 1.044186e+01 -6.746083e+00 6.844645e+00 1.184501e-01 -1.173982e+01 -7.973718e+00 -1.016340e+01 1.604183e+00 -8.415013e+00 -2.787627e+00 1.093315e+00 -7.678046e+00 -5.834949e-01 2.463948e-01 5.310984e-01 7.117201e-02 2.257626e-01 -7.715542e-01 4.752046e-01 1.592187e-01 -3.617495e-01 -3.942728e-01 -9.416036e-02 5.204317e-01 -2.275695e-01
<VARIANCE> 25
 4.118096e+01 3.476731e+01 9.243878e+01 1.293765e+01 5.218849e+01 5.517176e+01 6.946252e+01 5.993262e+01 7.203841e+01 2.025492e+01 2.776612e+01 3.002100e+01 5.426134e+00 2.446139e+00 7.581768e+00 1.517907e+00 5.096615e+00 4.690176e+00 6.895366e+00 5.926760e+00 5.382874e+00 2.394676e+00 3.552459e+00 3.684955e+00 5.244355e-01
<GCONST> 1.070070e+02
<STATE> 3
<MEAN> 25
 -1.313429e+01 4.637557e+00 -2.610901e+00 -1.578825e+00 2.778636e+00 -9.224413e+00 7.135808e+00 -2.118926e-01 -2.745516e+00 -4.696988e+00 4.268375e-01 2.767963e+00 -1.728478e+00 2.174019e-01 -1.894410e+00 -1.453766e+00 1.435708e+00 1.496440e+00 -1.321285e-01 3.712597e-01 1.699369e+00 9.491561e-01 1.489688e-01 6.804898e-01 7.560650e-02
<VARIANCE> 25
 1.375575e+02 3.410910e+01 3.808387e+01 8.700211e+00 6.166000e+01 2.574462e+01 6.481815e+01 1.743841e+01 4.692239e+01 1.280608e+01 1.186099e+01 4.041867e+01 3.379522e+00 5.890326e-01 5.533367e+00 8.210608e-01 2.015427e+00 1.607535e+00 2.231998e+00 3.270969e+00 2.783341e+00 2.606306e+00 3.816536e+00 2.142751e+00 1.594089e-01
<GCONST> 9.478709e+01
<STATE> 4
<MEAN> 25
 -6.599439e+00 5.713074e-01 -1.938987e+00 2.537780e+00 3.981989e+00 -5.682209e-01 3.941430e+00 1.166882e+00 3.068975e+00 8.717363e-01 -8.010001e-01 2.929885e+00 2.253260e-01 -6.926824e-02 6.880438e-02 4.003051e-02 2.227472e-02 2.554677e-01 -5.851354e-02 -7.449670e-02 9.515133e-02 9.963048e-02 -1.629652e-02 -8.234344e-02 -3.311871e-01
<VARIANCE> 25
 5.152460e+01 1.738671e+01 1.904926e+01 3.140292e+01 2.336817e+01 4.243755e+01 2.174082e+01 2.170787e+01 2.888132e+01 1.812466e+01 1.931237e+01 2.627988e+01 1.869942e+00 1.494843e+00 1.708037e+00 2.533127e+00 2.035309e+00 2.637570e+00 1.630752e+00 3.317689e+00 1.337680e+00 2.355110e+00 2.252941e+00 2.197926e+00 1.484411e+00
<GCONST> 9.368876e+01
<TRANSP> 5
 0.000000e+00 1.000000e+00 0.000000e+00 0.000000e+00 0.000000e+00
 0.000000e+00 9.357919e-01 6.420818e-02 0.000000e+00 0.000000e+00
 0.000000e+00 0.000000e+00 6.455160e-01 3.544841e-01 0.000000e+00
 0.000000e+00 0.000000e+00 0.000000e+00 9.404562e-01 5.954377e-02
 0.000000e+00 0.000000e+00 0.000000e+00 0.000000e+00 0.000000e+00
<ENDHMM>
~h "sh"
<BEGINHMM>
<NUMSTATES> 5
<STATE> 2
<MEAN> 25
 -1.938783e+01 -1.238407e+00 1.099192e+01 -2.361237e+00 -4.654384e+00 -3.869574e-01 5.050301e+00 -2.538286e+00 6.461816e+00 -2.798612e+00 3.816849e+00 2.427469e+00 -5.494786e-01 -4.123325e-02 -2.143207e-01 -1.223986e-01 1.992865e-01 2.901531e-01 1.899084e-01 1.275087e-01 7.542657e-01 3.606838e-02 2.938541e-01 4.702451e-01 -2.808812e-01
<VARIANCE> 25
 3.385504e+01 7.600085e+00 2.880427e+01 1.326009e+01 1.070243e+01 2.778463e+01 3.639645e+01 4.745359e+01 2.602522e+01 1.882868e+01 1.334115e+01 1.267612e+01 5.914262e+00 5.802875e-01 1.407924e+00 1.628499e+00 1.439802e+00 1.808246e+00 2.283102e+00 2.484528e+00 2.576693e+00 2.025390e+00 1.888212e+00 1.156577e+00 7.445976e-01
<GCONST> 8.881047e+01
<STATE> 3
<MEAN> 25
 -5.842614e+00 -1.425317e+00 -2.515064e+00 2.009205e+00 3.426511e+00 2.504504e+00 4.853616e+00 3.206548e+00 6.745376e+00 3.098175e+00 4.183697e+00 5.125847e+00 2.631903e-01 -2.019116e-01 -6.537424e-02 7.489450e-02 1.741054e-01 1.867609e-01 1.844267e-02 2.053989e-01 -2.539290e-02 1.457821e-01 -8.983191e-02 4.156425e-02 -2.082424e-01
<VARIANCE> 25
 1.284441e+01 3.152947e+00 1.522551e+01 6.898539e+00 1.350997e+01 1.192890e+01 8.130450e+00 1.214261e+01 7.803612e+00 1.552039e+01 1.067757e+01 1.093533e+01 6.219875e-01 3.805464e-01 4.811706e-01 8.001930e-01 8.263413e-01 1.137050e+00 1.103581e+00 2.108375e+00 9.892391e-01 1.384563e+00 8.234236e-01 9.039588e-01 3.587956e-01
<GCONST> 7.091512e+01
<STATE> 4
<MEAN> 25
 -1.436517e+01 -8.945414e-01 5.687192e+00 -2.220028e+00 -1.653479e+00 -3.183881e+00 5.672636e+00 -2.900913e+00 5.984301e+00 -2.887013e+00 5.071656e+00 3.544082e+00 5.772470e-01 -4.140879e-01 2.174121e-01 3.565442e-02 -4.645473e-01 -1.712845e-01 -6.146229e-01 -2.719462e-01 -8.464332e-02 -5.340135e-01 -4.249448e-01 -3.740537e-01 6.881454e-01
<VARIANCE> 25
 7.274552e+01 2.135541e+01 2.671482e+01 2.260984e+01 2.175861e+01 4.046542e+01 1.848806e+01 5.790597e+01 2.954766e+01 3.984813e+01 1.502425e+01 1.302622e+01 1.037277e+01 5.259768e+00 3.554914e+00 1.465734e+00 3.064711e+00 2.751395e+00 3.209337e+00 4.286148e+00 4.548531e+00 2.566082e+00 1.024482e+00 1.605537e+00 2.157551e+00
<GCONST> 9.993019e+01
<TRANSP> 5
 0.000000e+00 1.000000e+00 0.000000e+00 0.000000e+00 0.000000e+00
 0.000000e+00 8.856294e-01 1.143706e-01 0.000000e+00 0.000000e+00
 0.000000e+00 0.000000e+00 8.674518e-01 1.325482e-01 0.000000e+00
 0.000000e+00 0.000000e+00 0.000000e+00 7.510896e-01 2.489104e-01
 0.000000e+00 0.000000e+00 0.000000e+00 0.000000e+00 0.000000e+00
<ENDHMM>
~h "th"
<BEGINHMM>
<NUMSTATES> 5
<STATE> 2
<MEAN> 25
 -7.061102e+00 -1.028850e+00 -3.114073e+00 1.483360e+00 3.520164e-01 1.932046e+00 1.424498e+00 1.360842e-01 2.729212e+00 7.070879e-01 8.801842e-01 3.759539e+00 -9.112250e-01 -5.321126e-01 -3.060621e-01 -2.838308e-01 -3.937402e-02 3.548125e-01 5.042284e-01 3.652257e-03 2.348956e-01 5.843464e-01 6.524618e-01 5.813258e-01 -5.729578e-01
<VARIANCE> 25
 1.009152e+01 1.056701e+01 8.852014e+00 6.767783e+00 1.240372e+01 1.557241e+01 1.359525e+01 1.379109e+01 1.568028e+01 1.384833e+01 1.140199e+01 1.234878e+01 1.313867e+00 1.457537e+00 1.460323e+00 4.893233e-01 8.248322e-01 1.186672e+00 1.533502e+00 7.997062e-01 1.743138e+00 1.674309e+00 1.198554e+00 1.709153e+00 4.893717e-01
<GCONST> 7.710416e+01
<STATE> 3
<MEAN> 25
 -5.316971e+00 -2.186029e+00 -2.313715e+00 9.809818e-01 1.563106e+00 1.806334e+00 2.751477e+00 2.181994e+00 4.234462e+00 2.498899e+00 2.301083e+00 3.754186e+00 9.648304e-02 -1.846720e-03 3.885699e-02 -1.655031e-02 5.551208e-02 -3.136287e-02 -6.267514e-03 9.987052e-02 8.500682e-02 3.742240e-02 -2.859568e-03 -2.879819e-02 -1.564681e-01
<VARIANCE> 25
 9.753065e+00 3.696961e+00 7.585471e+00 6.579355e+00 9.999875e+00 1.061704e+01 1.153260e+01 1.269516e+01 1.251034e+01 1.299190e+01 1.204903e+01 9.952768e+00 2.675819e-01 2.133690e-01 4.245035e-01 4.202269e-01 6.904874e-01 8.435706e-01 1.062460e+00 1.362291e+00 1.550244e+00 1.414855e+00 1.280238e+00 1.025088e+00 6.280956e-01
<GCONST> 6.880598e+01
<STATE> 4
<MEAN> 25
 -4.448177e+00 -1.273781e+00 -4.566312e-01 1.705753e+00 4.163687e+00 3.446019e+00 3.905491e+00 1.660789e+00 4.743719e+00 3.053049e+00 2.634980e+00 3.784156e+00 2.241752e-02 8.032499e-02 1.633226e-01 8.716582e-03 9.739909e-02 -4.621872e-02 -5.260589e-03 -2.190147e-01 -1.733495e-01 -2.063760e-01 -1.101410e-01 -1.410784e-01 1.230295e-01
<VARIANCE> 25
 4.257097e+00 4.627129e+00 7.778159e+00 8.721745e+00 7.978161e+00 9.743048e+00 8.333759e+00 1.235635e+01 9.423534e+00 1.475265e+01 1.420908e+01 1.451115e+01 5.741380e-01 4.835953e-01 1.253750e+00 9.497667e-01 9.791581e-01 1.126534e+00 9.605584e-01 1.492235e+00 1.172772e+00 1.761240e+00 1.974691e+00 1.596891e+00 6.800388e-01
<GCONST> 7.323536e+01
<TRANSP> 5
 0.000000e+00 1.000000e+00 0.000000e+00 0.000000e+00 0.000000e+00
 0.000000e+00 6.955054e-01 3.044946e-01 0.000000e+00 0.000000e+00
 0.000000e+00 0.000000e+00 9.393116e-01 6.068843e-02 0.000000e+00
 0.000000e+00 0.000000e+00 0.000000e+00 9.181749e-01 8.182503e-02
 0.000000e+00 0.000000e+00 0.000000e+00 0.000000e+00 0.000000e+00
<ENDHMM>
~h "uh"
<BEGINHMM>
<NUMSTATES> 5
<STATE> 2
<MEAN> 25
 1.206374e+01 -3.350121e+00 -3.978017e+00 -1.686984e+00 -2.060983e+00 -6.601988e+00 -1.631367e+01 1.508565e+00 -4.255658e+00 -4.128975e+00 4.728289e+00 -1.206592e+00 2.841832e-02 -4.994066e-01 8.782239e-01 -2.164335e-01 -6.570446e-01 -7.138017e-01 1.941539e-02 5.635920e-01 -2.420680e-01 -8.311115e-02 -2.869257e-01 -2.389483e-01 2.749702e-01
<VARIANCE> 25
 3.633826e+01 4.255497e+01 2.527676e+01 4.815392e+01 6.694520e+01 1.657029e+02 1.112140e+02 8.615941e+01 4.626970e+01 5.369423e+01 2.964825e+01 2.737778e+01 2.469616e+00 1.295539e+00 2.951339e+00 4.497599e+00 7.218633e+00 3.835419e+00 6.627148e+00 4.123431e+00 6.192348e+00 9.443411e-01 3.045797e+00 4.603860e+00 4.704440e+00
<GCONST> 1.097263e+02
<STATE> 3
<MEAN> 25
 3.284713e+00 -4.328634e+00 1.032566e+01 -5.100269e+00 -1.410403e+01 -4.245434e+00 -1.051393e+00 1.367881e+00 -8.169460e+00 -4.263231e-01 1.294005e+00 -3.916223e+00 4.976575e-03 8.548235e-01 7.968882e-01 5.957725e-02 -8.024847e-01 1.119580e+00 2.457032e-01 -1.065591e+00 -5.133642e-01 4.370550e-01 -5.993686e-01 -6.212464e-01 -3.077806e-01
<VARIANCE> 25
 4.281155e+01 3.604043e+01 3.897935e+01 4.298587e+01 6.111699e+01 4.209890e+01 7.831532e+01 4.248495e+01 7.299586e+01 4.663789e+01 4.085955e+01 4.687708e+01 2.182361e+00 3.503835e+00 1.978890e+00 5.879752e+00 7.716116e+00 3.717956e+00 7.496956e+00 5.612637e+00 4.169683e+00 4.382279e+00 5.747532e+00 4.309747e+00 7.529164e+00
<GCONST> 1.120836e+02
<STATE> 4
<MEAN> 25
 6.765767e+00 4.368529e-01 8.001242e+00 1.235587e+00 -1.047332e+01 -6.295049e+00 -6.713851e+00 -8.053439e+00 -7.815235e+00 -1.747939e+00 -8.161578e-01 -4.675759e+00 -1.620913e-01 3.709573e-01 -1.780647e-01 3.811796e-01 7.272316e-01 -8.498145e-02 -2.281885e-03 -8.919980e-02 3.317126e-01 -3.961683e-01 -2.456767e-01 4.004913e-01 -6.509292e-01
<VARIANCE> 25
 1.679130e+01 2.742361e+01 2.073607e+01 3.215046e+01 7.145133e+01 3.371043e+01 1.602957e+01 6.198819e+01 1.951408e+01 3.597017e+01 5.015959e+01 2.352672e+01 1.475178e+00 2.551000e+00 1.196585e+00 1.999304e+00 4.080959e+00 2.870364e+00 1.096605e+00 4.849603e+00 1.853600e+00 2.377448e+00 2.828535e+00 1.266071e+00 1.182895e+00
<GCONST> 9.615309e+01
<TRANSP> 5
 0.000000e+00 1.000000e+00 0.000000e+00 0.000000e+00 0.000000e+00
 0.000000e+00 8.648640e-01 1.351359e-01 0.000000e+00 0.000000e+00
 0.000000e+00 0.000000e+00 7.903185e-01 2.096815e-01 0.000000e+00
 0.000000e+00 0.000000e+00 0.000000e+00 9.130284e-01 8.697163e-02
 0.000000e+00 0.000000e+00 0.000000e+00 0.000000e+00 0.000000e+00
<ENDHMM>
~h "uw"
<BEGINHMM>
<NUMSTATES> 5
<STATE> 2
<MEAN> 25
 4.194437e+00 2.074136e+00 1.951180e+00 5.254108e+00 6.410337e-01 -3.679421e+00 -8.194287e+00 -2.316579e+00 -4.855206e+00 -2.539459e+00 -1.415032e+00 6.305418e-01 1.626586e-01 1.938476e-01 -4.201943e-01 1.511817e-02 3.730010e-01 4.549859e-01 -1.564182e-01 -4.643183e-01 1.685339e-01 1.205948e-01 -2.347196e-01 -2.523754e-01 1.451063e-02
<VARIANCE> 25
 2.504857e+01 2.161507e+01 3.892097e+01 2.772058e+01 3.084879e+01 3.776006e+01 8.667097e+01 4.024788e+01 4.834203e+01 2.644442e+01 4.135919e+01 1.857899e+01 1.277928e+00 1.208792e+00 1.263655e+00 1.714046e+00 1.694547e+00 2.009286e+00 4.215324e+00 3.744333e+00 3.889649e+00 3.556845e+00 3.261833e+00 1.572171e+00 1.433463e+00
<GCONST> 9.805396e+01
<STATE> 3
<MEAN> 25
 6.055761e+00 -5.167588e+00 -6.238781e+00 -4.156118e+00 6.970209e-01 6.027097e+00 -3.874875e+00 1.572256e+00 1.201014e+00 -3.568740e-01 -6.698232e+00 -1.091721e+01 -5.151240e-01 -1.836934e-01 -9.711956e-02 1.270122e-01 3.399883e-01 2.541849e-01 6.509249e-01 -1.428298e-01 3.712497e-01 9.632418e-03 1.951356e-01 5.289146e-01 -5.026596e-01
<VARIANCE> 25
 2.203147e+01 2.760404e+01 2.660833e+01 4.109099e+01 1.933069e+01 2.245073e+01 3.974495e+01 2.722740e+01 1.406065e+01 1.632790e+01 4.900367e+01 7.088280e+01 8.046436e-01 1.740046e+00 1.544351e+00 2.165673e+00 1.473857e+00 1.241988e+00 1.391670e+00 1.843638e+00 1.254479e+00 2.146585e+00 2.660445e+00 2.362197e+00 7.584704e-01
<GCONST> 9.164622e+01
<STATE> 4
<MEAN> 25
 -4.633575e+00 -8.967758e-01 -7.169223e-01 2.394316e+00 3.114988e+00 1.441523e+00 3.421358e+00 1.096911e+00 4.416755e+00 1.752527e+00 2.955001e+00 5.126970e+00 -1.777702e-01 -6.312717e-02 8.207313e-02 8.410691e-02 1.652853e-02 -1.786680e-02 1.220074e-01 1.815729e-01 1.059178e-01 1.204585e-01 1.161812e-01 1.357453e-01 -1.143125e-01
<VARIANCE> 25
 1.474708e+01 5.946368e+00 8.965222e+00 6.291818e+00 8.382051e+00 8.552819e+00 2.925514e+01 2.987913e+01 3.360358e+01 1.524765e+01 1.733749e+01 1.437294e+01 3.420143e-01 4.337052e-01 7.404433e-01 5.288209e-01 6.800135e-01 9.671625e-01 1.380339e+00 1.914635e+00 1.794633e+00 2.041511e+00 1.746649e+00 1.320707e+00 1.032399e-01
<GCONST> 7.482678e+01
<TRANSP> 5
 0.000000e+00 1.000000e+00 0.000000e+00 0.000000e+00 0.000000e+00
 0.000000e+00 8.765665e-01 1.234335e-01 0.000000e+00 0.000000e+00
 0.000000e+00 0.000000e+00 8.087097e-01 1.912902e-01 0.000000e+00
 0.000000e+00 0.000000e+00 0.000000e+00 9.249085e-01 7.509154e-02
 0.000000e+00 0.000000e+00 0.000000e+00 0.000000e+00 0.000000e+00
<ENDHMM>
~h "zh"
<BEGINHMM>
<NUMSTATES> 5
<STATE> 2
<MEAN> 25
 -3.863761e+00 6.177179e+00 1.628521e+01 -3.319831e+00 -7.423437e+00 1.204405e+00 -3.038433e+00 -8.992093e+00 -5.730914e+00 -4.413784e+00 6.787052e-01 -5.208779e+00 -1.628580e+00 3.053501e-01 -1.323257e-01 3.615170e-01 8.519887e-01 3.676200e-02 1.119311e+00 -5.216707e-01 1.442287e+00 -4.136702e-01 2.025980e-01 4.843291e-01 -6.089639e-02
<VARIANCE> 25
 4.940305e+01 7.090294e+00 1.746162e+01 1.548839e+01 2.631832e+01 5.507095e+01 4.889569e+01 1.516428e+01 4.349522e+01 2.539674e+01 1.247273e+01 1.949976e+01 2.558163e+00 1.032166e+00 1.141887e+00 1.228049e+00 1.896724e+00 2.844180e+00 3.415488e+00 2.258769e+00 3.033293e+00 1.886005e+00 1.080190e+00 1.535956e+00 1.258306e-01
<GCONST> 8.900967e+01
<STATE> 3
<MEAN> 25
 -6.755091e+00 -6.691553e-01 6.927696e+00 -2.737797e+00 -4.510819e+00 -3.912713e+00 3.435502e+00 -1.688063e+00 4.899545e-02 -3.150472e+00 9.212818e-01 -1.858397e+00 1.159027e+00 -5.753443e-01 -9.951600e-01 1.810836e-02 -1.145671e-01 -5.709155e-01 -2.790937e-01 8.395292e-01 -4.059914e-01 2.406770e-01 -1.112697e-01 1.305726e-01 -2.638795e-01
<VARIANCE> 25
 1.545484e+02 3.865328e+01 6.458679e+01 1.412269e+01 3.606334e+01 4.866516e+01 1.126437e+02 7.636687e+01 5.701186e+01 1.938103e+01 2.363054e+01 3.900557e+01 7.877546e+00 2.267901e+00 1.544569e+00 1.268587e+00 2.937451e+00 5.372417e+00 5.845231e+00 3.250047e+00 5.256813e+00 2.605509e+00 1.728876e+00 2.323684e+00 1.267392e+00
<GCONST> 1.053251e+02
<STATE> 4
<MEAN> 25
 -4.452157e+00 -4.022605e-01 -7.275107e+00 2.202573e+00 5.304604e+00 2.748581e+00 5.158203e+00 3.604947e+00 7.242853e+00 3.096798e+00 4.061727e+00 5.094844e+00 2.256093e-01 -1.829466e-02 -1.217657e-01 8.589143e-02 1.003128e-01 -5.788319e-02 -1.335779e-01 9.263518e-02 -3.362697e-02 -6.824777e-02 -6.945009e-02 9.683322e-02 -6.957301e-02
<VARIANCE> 25
 8.227508e+00 2.667246e+00 1.648852e+01 6.416590e+00 1.809067e+01 2.828461e+01 1.390217e+01 1.653600e+01 2.757327e+01 2.662979e+01 1.262336e+01 1.128799e+01 1.583998e+00 3.591660e-01 6.289759e-01 6.438890e-01 5.725816e-01 2.133866e+00 2.687817e+00 1.648628e+00 1.801645e+00 2.475366e+00 1.359161e+00 1.648041e+00 2.631272e-01
<GCONST> 7.811799e+01
<TRANSP> 5
 0.000000e+00 1.000000e+00 0.000000e+00 0.000000e+00 0.000000e+00
 0.000000e+00 8.931631e-01 1.068369e-01 0.000000e+00 0.000000e+00
 0.000000e+00 0.000000e+00 9.126012e-01 8.739875e-02 0.000000e+00
 0.000000e+00 0.000000e+00 0.000000e+00 8.981301e-01 1.018699e-01
 0.000000e+00 0.000000e+00 0.000000e+00 0.000000e+00 0.000000e+00
<ENDHMM>
~h "sil"
<BEGINHMM>
<NUMSTATES> 5
<STATE> 2
<MEAN> 25
 -4.600128e+00 -1.767555e+00 -2.257432e+00 2.450135e+00 3.832664e+00 2.936484e+00 4.318220e+00 2.562836e+00 5.482084e+00 3.100464e+00 3.123439e+00 4.959864e+00 -9.669995e-03 -4.808181e-03 -3.250946e-03 -1.383873e-02 6.677637e-03 1.012008e-02 2.365869e-02 -8.862640e-03 2.065432e-02 2.450985e-02 4.822633e-02 2.304321e-02 -2.432757e-02
<VARIANCE> 25
