~o
<STREAMINFO> 1 25
<VECSIZE> 25<NULLD><MFCC_D_N_Z_0><DIAGC>
~s "silst"
<MEAN> 25
 -4.807952e+00 -1.415759e+00 -2.153929e+00 2.309153e+00 3.353501e+00 2.805887e+00 3.932085e+00 2.479653e+00 5.064996e+00 2.947462e+00 2.519132e+00 3.915179e+00 -1.289593e-02 4.042080e-02 1.181377e-02 2.531714e-02 -3.225848e-02 1.011247e-02 -2.860803e-02 -3.047404e-02 -4.470361e-02 -1.251232e-02 4.294122e-03 -4.130245e-02 2.419459e-02
<VARIANCE> 25
 7.015103e+00 5.702672e+00 9.910548e+00 1.006550e+01 9.530240e+00 1.128651e+01 1.453359e+01 1.348237e+01 1.499873e+01 1.350585e+01 1.453164e+01 1.413281e+01 4.975347e-01 5.504251e-01 7.061288e-01 8.782138e-01 9.796497e-01 1.184466e+00 1.383963e+00 1.567536e+00 1.570781e+00 1.530566e+00 1.438753e+00 1.381773e+00 2.354492e-01
<GCONST> 7.409879e+01
~h "b"
<BEGINHMM>
<NUMSTATES> 5
<STATE> 2
<MEAN> 25
 3.520229e+00 7.229089e+00 6.249664e+00 7.831711e+00 5.672689e+00 1.399415e+00 1.653396e-03 -3.496745e+00 -2.573062e+00 -4.950946e+00 -4.078321e+00 -2.516500e+00 8.880204e-03 3.994532e-01 3.510995e-01 3.917991e-01 3.399680e-01 1.106469e-01 -7.535701e-02 5.259611e-02 -7.439060e-02 -4.441340e-01 -3.358757e-01 -1.283124e-01 8.102793e-02
<VARIANCE> 25
 1.297608e+01 9.274297e+00 1.158216e+01 8.188511e+00 1.043660e+01 1.584161e+01 1.605740e+01 1.866032e+01 2.657490e+01 1.833925e+01 1.426564e+01 1.336701e+01 1.693829e+00 1.969789e+00 1.509379e+00 9.981982e-01 1.237663e+00 1.558770e+00 2.312656e+00 2.809445e+00 3.164252e+00 2.371502e+00 1.929613e+00 1.549289e+00 9.099295e-01
<GCONST> 8.469914e+01
<STATE> 3
<MEAN> 25
 1.338418e+00 4.159916e+00 2.481006e+00 5.039949e+00 4.845733e+00 1.301030e+00 4.818236e-01 -1.576490e+00 -2.373576e-01 -2.408506e+00 -1.727731e+00 -4.475359e-01 1.083473e+00 -8.291831e-01 -7.681249e-01 -2.189935e+00 -2.303391e+00 -1.018662e+00 -1.537295e+00 2.294477e-01 -8.446093e-03 1.093740e+00 1.022233e+00 1.071372e-01 3.311038e+00
<VARIANCE> 25
 1.827603e+01 1.439516e+01 2.124529e+01 2.140664e+01 2.210438e+01 1.940537e+01 2.714891e+01 2.106717e+01 2.282057e+01 2.070745e+01 2.167172e+01 1.375145e+01 3.016122e+00 2.651751e+00 3.249400e+00 4.028139e+00 4.586210e+00 4.988856e+00 2.269354e+00 4.915337e+00 4.328293e+00 3.385397e+00 3.378370e+00 2.704108e+00 3.730319e+00
<GCONST> 9.831133e+01
<STATE> 4
<MEAN> 25
 8.915826e+00 2.165557e+00 1.301503e-01 -4.893334e+00 -5.353363e+00 4.538587e-02 -6.340579e+00 -7.339853e-01 -2.356063e+00 2.010244e-01 3.393201e-01 -2.592810e+00 1.164302e+00 -1.542505e+00 -4.969901e-01 -2.563347e+00 -2.124281e+00 1.375109e-01 -1.256247e+00 1.247718e+00 -5.511866e-01 1.073593e+00 3.705778e-01 -6.153684e-01 2.658370e+00
<VARIANCE> 25
 3.158700e+01 2.334768e+01 3.569716e+01 7.158164e+01 6.005892e+01 9.405867e+01 3.976014e+01 3.368414e+01 4.789275e+01 3.247990e+01 2.845574e+01 2.781933e+01 2.608638e+00 3.308441e+00 4.121177e+00 8.477321e+00 6.262713e+00 8.551195e+00 3.591031e+00 5.278470e+00 7.106740e+00 4.325990e+00 4.385607e+00 3.807650e+00 5.499221e+00
<GCONST> 1.108361e+02
<TRANSP> 5
 0.000000e+00 1.000000e+00 0.000000e+00 0.000000e+00 0.000000e+00
 0.000000e+00 8.096868e-01 1.903132e-01 0.000000e+00 0.000000e+00
 0.000000e+00 0.000000e+00 6.210508e-01 3.789493e-01 0.000000e+00
 0.000000e+00 0.000000e+00 0.000000e+00 4.910493e-01 5.089507e-01
 0.000000e+00 0.000000e+00 0.000000e+00 0.000000e+00 0.000000e+00
<ENDHMM>
~h "d"
<BEGINHMM>
<NUMSTATES> 5
<STATE> 2
<MEAN> 25
 2.206790e+00 5.319686e+00 7.085715e+00 7.932099e+00 4.118809e+00 -1.714345e+00 -3.297194e-01 -2.416410e+00 -2.311215e+00 -3.687558e+00 -4.883231e+00 -2.062789e+00 -9.725945e-02 3.929109e-01 1.287611e-01 1.863705e-01 4.194013e-01 1.494848e-01 1.798016e-01 -2.186396e-01 -2.727331e-02 -2.011609e-01 -1.800246e-01 8.769906e-02 2.850888e-01
<VARIANCE> 25
 1.420583e+01 1.760866e+01 2.134683e+01 1.697872e+01 2.821406e+01 3.178885e+01 1.959366e+01 2.445370e+01 2.107949e+01 2.893569e+01 1.834022e+01 1.490048e+01 2.244908e+00 1.838757e+00 2.449518e+00 3.225195e+00 3.138701e+00 3.570634e+00 2.103814e+00 2.755684e+00 2.787380e+00 2.601428e+00 2.486244e+00 1.332437e+00 3.254039e+00
<GCONST> 9.437406e+01
<STATE> 3
<MEAN> 25
 -1.375183e+00 8.696673e-01 4.695068e+00 6.845323e-01 4.205535e-01 -3.460022e+00 2.334323e-01 -2.316664e+00 -2.052680e+00 -1.583093e+00 -8.841164e-01 -7.987190e-01 3.134488e-01 -6.427715e-01 5.955388e-02 -1.770610e+00 -2.857179e+00 -2.069056e+00 -9.210157e-01 3.946733e-01 -8.085751e-01 5.695933e-01 9.065544e-01 1.761891e-01 3.460163e+00
<VARIANCE> 25
 1.906218e+01 2.275361e+01 3.091697e+01 4.590755e+01 5.939769e+01 4.989384e+01 3.466687e+01 3.852584e+01 3.073557e+01 2.991660e+01 2.063530e+01 1.823195e+01 4.286017e+00 3.180071e+00 4.153637e+00 4.943275e+00 6.702403e+00 3.866470e+00 3.503668e+00 6.003141e+00 3.329515e+00 2.674791e+00 2.713969e+00 2.292728e+00 7.337754e+00
<GCONST> 1.051656e+02
<STATE> 4
<MEAN> 25
 2.459032e+00 2.116289e-01 4.678686e+00 8.158299e-02 -6.485602e+00 -7.933017e+00 -3.677086e+00 7.267743e-01 -2.088995e+00 -2.058678e-01 4.018293e-01 4.774840e-01 5.509565e-01 -7.417784e-01 -9.819199e-01 3.319823e-02 1.265394e-01 9.822476e-01 -1.184382e-01 1.234675e+00 9.413741e-01 7.658595e-01 3.600510e-01 -5.400680e-02 -1.693138e-01
<VARIANCE> 25
 1.991973e+01 3.030861e+01 3.885633e+01 2.118003e+01 5.848583e+01 4.396700e+01 4.945979e+01 5.302187e+01 4.291858e+01 2.355594e+01 2.532741e+01 2.800355e+01 5.107736e+00 2.276761e+00 3.678337e+00 3.365050e+00 9.930764e+00 6.746443e+00 5.742745e+00 6.561303e+00 3.875695e+00 3.531559e+00 2.993788e+00 4.380834e+00 4.029534e+00
<GCONST> 1.076571e+02
<TRANSP> 5
 0.000000e+00 1.000000e+00 0.000000e+00 0.000000e+00 0.000000e+00
 0.000000e+00 7.130692e-01 2.869308e-01 0.000000e+00 0.000000e+00
 0.000000e+00 0.000000e+00 5.728137e-01 4.271863e-01 0.000000e+00
 0.000000e+00 0.000000e+00 0.000000e+00 4.355562e-01 5.644438e-01
 0.000000e+00 0.000000e+00 0.000000e+00 0.000000e+00 0.000000e+00
<ENDHMM>
~h "f"
<BEGINHMM>
<NUMSTATES> 5
<STATE> 2
<MEAN> 25
 -4.826722e+00 -3.495254e+00 -2.147245e+00 3.931595e-01 2.281550e+00 1.142971e+00 3.735790e+00 2.329717e+00 4.103263e+00 2.716827e+00 1.726964e+00 3.922869e+00 -6.406681e-02 4.184677e-02 -3.611068e-02 -1.607659e-02 -4.647456e-02 2.637242e-03 -7.591927e-02 -8.278011e-02 -3.112711e-02 2.053161e-02 -4.511471e-02 -4.271117e-02 6.949138e-03
<VARIANCE> 25
 8.955189e+00 5.180943e+00 5.187860e+00 9.550944e+00 1.170594e+01 1.300885e+01 1.369053e+01 1.229438e+01 1.308705e+01 1.573030e+01 1.355936e+01 1.625881e+01 2.884607e-01 2.800853e-01 4.257489e-01 6.822204e-01 7.214916e-01 1.199003e+00 1.330986e+00 1.399588e+00 1.219276e+00 1.458135e+00 1.234963e+00 1.326760e+00 1.515668e-01
<GCONST> 7.046908e+01
<STATE> 3
<MEAN> 25
 -8.454494e+00 5.219593e-02 -5.056043e+00 2.807164e+00 2.255492e-02 1.806142e+00 6.311998e-01 7.541878e-01 2.723354e+00 2.067105e+00 -4.415980e-02 3.099887e+00 6.807480e-01 2.230148e-01 -6.802793e-02 -3.079979e-01 -2.940036e-01 1.738122e-01 -1.728528e-01 -2.487215e-01 -3.211081e-01 -2.052567e-01 -6.928448e-02 -1.943078e-01 4.432766e-01
<VARIANCE> 25
 2.313425e+01 1.172202e+01 1.278172e+01 2.248319e+01 1.156808e+01 1.619141e+01 1.409645e+01 1.434953e+01 1.807122e+01 1.580909e+01 1.221830e+01 1.313123e+01 4.427078e+00 1.416318e+00 1.508830e+00 2.377494e+00 1.853492e+00 1.968924e+00 1.817910e+00 1.460603e+00 2.159329e+00 1.824164e+00 1.575010e+00 1.462844e+00 2.896009e+00
<GCONST> 8.713887e+01
<STATE> 4
<MEAN> 25
 1.176572e+01 -5.390405e+00 -8.541439e+00 -1.393014e+01 -2.920355e+00 1.037682e+01 3.531235e-01 -6.657838e+00 1.917033e+00 -3.031346e+00 1.818899e+00 -9.572952e+00 7.766855e-01 -4.294461e-01 -1.501329e-01 -5.339629e-01 -2.204652e-01 1.513023e-01 -2.497423e-01 1.286284e-01 1.624965e-02 -3.378880e-01 -6.323987e-02 -6.514868e-01 3.164706e-01
<VARIANCE> 25
 4.219017e+01 3.610321e+01 1.638432e+01 5.305752e+01 2.224086e+01 2.653952e+01 1.084928e+01 2.162877e+01 2.387514e+01 1.104923e+01 1.486124e+01 5.660505e+01 3.152434e+00 1.511554e+00 9.135922e-01 6.088657e+00 1.450847e+00 3.281422e+00 6.996673e-01 1.746790e+00 1.089170e+00 8.740125e-01 1.265914e+00 1.280810e+00 6.374704e-01
<GCONST> 8.921416e+01
<TRANSP> 5
 0.000000e+00 1.000000e+00 0.000000e+00 0.000000e+00 0.000000e+00
 0.000000e+00 9.288579e-01 7.114211e-02 0.000000e+00 0.000000e+00
 0.000000e+00 0.000000e+00 9.018314e-01 9.816859e-02 0.000000e+00
 0.000000e+00 0.000000e+00 0.000000e+00 8.225846e-01 1.774153e-01
 0.000000e+00 0.000000e+00 0.000000e+00 0.000000e+00 0.000000e+00
<ENDHMM>
~h "g"
<BEGINHMM>
<NUMSTATES> 5
<STATE> 2
<MEAN> 25
 -1.522270e+00 -1.293840e+00 8.146005e-01 8.217131e-01 3.374633e+00 5.316758e-01 1.058052e+00 -2.961211e+00 1.841682e+00 -1.843492e+00 -2.651558e+00 1.841984e+00 -2.879686e-01 -2.861578e-02 9.651141e-01 -1.669819e+00 -1.707661e+00 -1.358307e+00 -5.682958e-01 -2.846410e+00 -7.286425e-01 -2.428909e-01 -7.465342e-01 -4.504612e-02 3.183568e+00
<VARIANCE> 25
 1.688483e+01 3.468353e+01 2.248937e+01 5.085596e+01 2.687166e+01 2.458832e+01 1.918517e+01 4.540648e+01 1.957799e+01 1.325936e+01 2.678392e+01 3.363272e+01 2.274262e+00 4.604232e+00 1.947035e+00 6.371701e+00 2.408338e+00 1.017215e+00 3.134103e+00 2.438576e+00 1.930609e+00 3.040709e+00 1.679945e+00 2.383314e+00 4.916269e+00
<GCONST> 9.753349e+01
<STATE> 3
<MEAN> 25
 -7.660684e-01 4.461411e+00 6.050519e+00 4.653915e-01 1.450056e+00 9.149666e-01 -5.326799e-01 -5.685068e+00 1.757940e+00 -1.129358e+00 -6.174803e+00 -5.164472e-01 2.282526e-01 5.314353e-01 1.384612e+00 -1.159514e-01 -1.252746e+00 -6.244827e-01 -4.135816e-01 -4.109119e-01 -1.087052e+00 2.556364e-01 3.396758e-01 -2.426271e-01 1.156807e+00
<VARIANCE> 25
 5.996540e+01 2.881481e+01 2.343323e+01 6.202091e+01 3.055869e+01 2.506373e+01 2.015066e+01 2.220405e+01 3.278713e+01 1.896327e+01 1.480072e+01 1.955722e+01 6.620812e+00 5.451217e+00 4.672834e+00 5.435750e+00 5.321543e+00 3.696396e+00 3.481606e+00 2.049427e+00 3.797438e+00 1.859251e+00 2.485007e+00 2.361908e+00 2.768716e+00
<GCONST> 1.020360e+02
<STATE> 4
<MEAN> 25
 3.465863e+00 2.941931e+00 1.249169e+01 -6.599565e-01 -8.475427e+00 -6.414667e+00 -4.238070e+00 -4.374200e+00 -9.644352e+00 1.680726e+00 8.846062e-01 -3.248804e+00 6.255475e-01 -4.792986e-01 -5.126342e-01 1.045990e-01 -3.866532e-01 -7.856530e-01 -6.194048e-02 1.106607e+00 -9.829731e-02 -3.223593e-01 7.473652e-01 -1.510456e-01 6.879295e-01
<VARIANCE> 25
 1.803759e+01 1.923726e+01 8.811565e+01 2.376959e+01 9.013838e+01 3.160010e+01 3.105383e+01 3.860316e+01 8.873041e+01 1.575741e+01 1.896245e+01 1.951201e+01 2.732165e+00 1.931819e+00 5.103641e+00 1.940948e+00 4.611413e+00 2.143121e+00 3.970202e+00 4.939250e+00 5.947032e+00 2.158965e+00 2.280753e+00 2.049565e+00 1.256249e+00
<GCONST> 1.011896e+02
<TRANSP> 5
 0.000000e+00 1.000000e+00 0.000000e+00 0.000000e+00 0.000000e+00
 0.000000e+00 5.862578e-01 4.137422e-01 0.000000e+00 0.000000e+00
 0.000000e+00 0.000000e+00 7.803289e-01 2.196711e-01 0.000000e+00
 0.000000e+00 0.000000e+00 0.000000e+00 8.340431e-01 1.659569e-01
 0.000000e+00 0.000000e+00 0.000000e+00 0.000000e+00 0.000000e+00
<ENDHMM>
~h "k"
<BEGINHMM>
<NUMSTATES> 5
<STATE> 2
<MEAN> 25
 -5.509998e+00 -3.092927e+00 -2.050632e+00 3.075632e+00 2.863445e+00 8.993457e-01 4.205659e+00 2.574354e+00 5.346284e+00 2.944674e+00 1.925091e+00 5.647575e+00 -2.363501e-01 -8.790256e-01 -4.256099e-01 -5.143611e-01 1.015573e-01 -1.153462e+00 -4.113307e-01 -3.349282e-01 -3.826112e-01 9.617364e-02 -7.063977e-01 2.207122e-01 1.965623e+00
<VARIANCE> 25
 9.864095e+00 2.402649e+01 9.619115e+00 2.381179e+01 1.258843e+01 2.890185e+01 1.733836e+01 1.955910e+01 2.088549e+01 1.216405e+01 1.950305e+01 1.791358e+01 1.667736e+00 4.242248e+00 3.820307e+00 4.170008e+00 2.738912e+00 4.786654e+00 2.977730e+00 3.365228e+00 3.698267e+00 1.897786e+00 3.362363e+00 2.138772e+00 7.068448e+00
<GCONST> 9.544556e+01
<STATE> 3
<MEAN> 25
 -3.563545e+00 -6.595668e+00 -7.736974e+00 -6.533319e-01 7.486352e+00 -6.210828e+00 -1.152651e+00 -2.047521e+00 3.641664e+00 3.651882e+00 -2.430752e+00 2.092322e+00 -9.903948e-02 1.053896e-01 -2.802726e-02 -1.342102e+00 2.081874e-02 3.479967e-01 -3.083737e-01 -8.418899e-01 -3.329176e-01 -4.567825e-01 -1.794985e-01 -8.616607e-01 2.510966e+00
<VARIANCE> 25
 2.199237e+01 1.684367e+01 6.439382e+01 4.470705e+01 5.719585e+01 6.413712e+01 3.059184e+01 4.866799e+01 4.916864e+01 1.827272e+01 2.344045e+01 2.366847e+01 3.483619e+00 2.589702e+00 5.183762e+00 4.249521e+00 2.968617e+00 1.426585e+01 4.491684e+00 3.001985e+00 4.766715e+00 2.873308e+00 4.288463e+00 2.697339e+00 7.004104e+00
<GCONST> 1.071105e+02
<STATE> 4
<MEAN> 25
 -4.645008e+00 -4.731580e-01 -8.716342e-01 -7.456722e+00 -4.790856e-01 1.696443e+00 2.597063e+00 -3.385918e+00 1.270846e+00 -5.761672e-01 -7.179772e-01 1.069938e+00 7.589016e-01 8.503876e-01 6.648958e-01 5.158235e-01 -8.893672e-01 2.034949e-01 1.668188e-01 4.552092e-02 -5.206876e-01 -7.176558e-01 9.045658e-02 -5.519556e-01 3.288585e-01
<VARIANCE> 25
 9.023755e+01 3.629218e+01 7.369604e+01 4.954839e+01 5.986339e+01 7.488570e+01 4.089656e+01 4.819993e+01 4.172695e+01 2.938639e+01 3.064417e+01 3.299462e+01 5.706702e+00 3.620219e+00 2.948333e+00 3.820415e+00 3.441886e+00 3.476498e+00 4.179977e+00 4.247318e+00 4.825156e+00 3.611715e+00 2.323986e+00 2.641128e+00 2.369658e+00
<GCONST> 1.086124e+02
<TRANSP> 5
 0.000000e+00 1.000000e+00 0.000000e+00 0.000000e+00 0.000000e+00
 0.000000e+00 7.238320e-01 2.761680e-01 0.000000e+00 0.000000e+00
 0.000000e+00 0.000000e+00 6.456925e-01 3.543075e-01 0.000000e+00
 0.000000e+00 0.000000e+00 0.000000e+00 7.142220e-01 2.857780e-01
 0.000000e+00 0.000000e+00 0.000000e+00 0.000000e+00 0.000000e+00
<ENDHMM>
~h "l"
<BEGINHMM>
<NUMSTATES> 5
<STATE> 2
<MEAN> 25
 1.092968e+01 5.453335e+00 -6.397360e+00 -1.476323e+01 -5.116530e+00 5.803219e+00 -3.460664e+00 -1.690153e+00 -7.531864e+00 1.316260e+00 1.099762e+00 -4.424959e+00 6.050806e-02 7.526423e-01 1.092682e-01 -2.159801e-01 -2.115652e-01 -1.078924e-01 1.184357e-01 -1.896029e-02 -5.539756e-01 -2.881250e-01 1.012834e-01 6.079548e-01 -5.546257e-01
<VARIANCE> 25
 1.176913e+01 2.088784e+01 1.967926e+01 5.934402e+01 2.794593e+01 3.970251e+01 2.946046e+01 2.731488e+01 4.233380e+01 3.373471e+01 2.311377e+01 3.561413e+01 5.536886e-01 1.035422e+00 8.520303e-01 3.118938e+00 1.361472e+00 2.552785e+00 1.431995e+00 2.006975e+00 2.687706e+00 2.242321e+00 1.822912e+00 1.694352e+00 5.063899e-01
<GCONST> 9.115988e+01
<STATE> 3
<MEAN> 25
 7.534231e+00 6.411478e+00 -3.325942e+00 -6.860106e+00 -1.886827e+00 2.238961e+00 -4.501561e+00 -3.204266e+00 -3.654198e+00 1.660751e+00 9.586140e-03 -2.520276e+00 -1.036684e+00 -8.006163e-01 9.687110e-01 2.113169e+00 7.495655e-01 -5.957596e-01 2.058004e-01 3.448325e-01 1.506850e+00 -1.362147e-01 -6.483873e-01 -2.278443e-01 -4.203448e-01
<VARIANCE> 25
 1.646339e+01 2.987901e+01 2.107623e+01 5.291977e+01 3.384338e+01 3.116984e+01 4.372157e+01 4.533185e+01 4.806671e+01 4.350312e+01 3.368140e+01 3.828215e+01 1.629832e+00 2.468498e+00 1.791708e+00 4.673912e+00 3.887115e+00 3.778915e+00 3.766382e+00 5.021312e+00 4.068860e+00 4.013665e+00 3.242374e+00 3.568556e+00 2.511401e+00
<GCONST> 1.038291e+02
<STATE> 4
<MEAN> 25
 1.805549e+00 3.325283e+00 -7.323577e-01 1.569237e+00 2.700444e+00 3.921415e+00 1.813094e+00 -6.379304e-01 8.678347e-02 -1.617415e+00 -2.375706e+00 -2.241068e-01 -6.551384e-01 -6.946096e-01 1.704915e-01 4.986340e-01 1.710404e-01 -3.208856e-01 2.632376e-01 1.015372e-01 4.343395e-01 -1.005330e-01 1.300056e-01 3.683015e-01 -3.240993e-01
<VARIANCE> 25
 2.628520e+01 3.361459e+01 2.011927e+01 3.446775e+01 2.823068e+01 3.469098e+01 3.491218e+01 3.996876e+01 3.524973e+01 2.090204e+01 3.069913e+01 3.509811e+01 9.051158e-01 1.164653e+00 1.156289e+00 2.501838e+00 2.306963e+00 2.537082e+00 2.345770e+00 2.286056e+00 2.657552e+00 3.065881e+00 2.811435e+00 2.179192e+00 4.972870e-01
<GCONST> 9.475825e+01
<TRANSP> 5
 0.000000e+00 1.000000e+00 0.000000e+00 0.000000e+00 0.000000e+00
 0.000000e+00 8.460760e-01 1.539240e-01 0.000000e+00 0.000000e+00
 0.000000e+00 0.000000e+00 7.160161e-01 2.839839e-01 0.000000e+00
 0.000000e+00 0.000000e+00 0.000000e+00 7.423173e-01 2.576827e-01
 0.000000e+00 0.000000e+00 0.000000e+00 0.000000e+00 0.000000e+00
<ENDHMM>
~h "m"
<BEGINHMM>
<NUMSTATES> 5
<STATE> 2
<MEAN> 25
 4.018634e+00 2.871326e+00 4.320765e+00 4.256232e+00 -1.002055e-01 8.323644e-02 -1.619469e+00 -8.000172e+00 -7.295532e+00 -8.787539e-01 1.344044e+00 -5.710589e+00 1.295216e+00 1.203230e+00 1.689803e+00 2.105811e+00 6.443562e-01 -8.085892e-01 -6.794541e-01 -2.757004e+00 -2.250308e+00 1.969318e-02 4.661686e-01 -7.530135e-01 2.051337e-01
<VARIANCE> 25
 3.935651e+01 1.757140e+01 3.748046e+01 3.923498e+01 2.065011e+01 2.751231e+01 2.152300e+01 5.180840e+01 5.075359e+01 2.326325e+01 3.109194e+01 3.120107e+01 3.658916e+00 2.626622e+00 4.384000e+00 4.018832e+00 3.134409e+00 4.241250e+00 3.045221e+00 4.028988e+00 4.821902e+00 4.774785e+00 4.205860e+00 4.367860e+00 3.375070e+00
<GCONST> 1.045794e+02
<STATE> 3
<MEAN> 25
 7.703826e+00 4.407505e+00 7.174374e+00 8.931848e+00 1.733176e+00 -3.805103e+00 -2.516423e+00 -1.227250e+01 -1.037328e+01 3.873281e-01 4.989901e-01 -7.155221e+00 7.069052e-02 2.076068e-01 3.297856e-02 1.013877e-01 6.416923e-02 -2.846208e-01 -2.215636e-02 5.147539e-02 1.410765e-01 6.962804e-02 -6.129898e-02 -5.306810e-02 -5.081125e-02
<VARIANCE> 25
 9.736259e+00 8.015322e+00 1.726334e+01 8.922046e+00 9.034535e+00 3.870943e+01 3.057722e+01 4.925714e+01 3.697703e+01 2.474229e+01 4.607761e+01 2.892558e+01 5.556464e-01 8.720703e-01 8.318893e-01 1.145605e+00 9.749718e-01 1.356543e+00 1.453470e+00 2.314957e+00 2.263753e+00 2.461547e+00 1.710737e+00 1.903529e+00 6.540295e-01
<GCONST> 8.572371e+01
<STATE> 4
<MEAN> 25
 3.118701e+00 3.917656e+00 8.365292e+00 3.860837e+00 -2.477033e+00 -2.436384e+00 -2.486887e+00 -7.435371e+00 -5.132808e+00 -4.710898e+00 1.570679e+00 -4.932247e+00 -5.773962e-01 -6.614468e-01 -5.590839e-02 -9.373736e-01 -6.915602e-01 5.631578e-01 6.293951e-01 1.564255e+00 7.408541e-01 -4.484470e-01 -2.107179e-01 6.268777e-01 5.426204e-01
<VARIANCE> 25
 4.581713e+01 4.691154e+01 4.716129e+01 4.532195e+01 5.959070e+01 4.597464e+01 3.962202e+01 9.414872e+01 3.916535e+01 2.966119e+01 4.411959e+01 2.917002e+01 2.982763e+00 1.866330e+00 4.007849e+00 4.522707e+00 5.965536e+00 3.916984e+00 3.336617e+00 6.121292e+00 4.009583e+00 3.828137e+00 2.501153e+00 2.624427e+00 2.463199e+00
<GCONST> 1.079411e+02
<TRANSP> 5
 0.000000e+00 1.000000e+00 0.000000e+00 0.000000e+00 0.000000e+00
 0.000000e+00 5.323681e-01 4.676319e-01 0.000000e+00 0.000000e+00
 0.000000e+00 0.000000e+00 8.230833e-01 1.769167e-01 0.000000e+00
 0.000000e+00 0.000000e+00 0.000000e+00 7.873782e-01 2.126218e-01
 0.000000e+00 0.000000e+00 0.000000e+00 0.000000e+00 0.000000e+00
<ENDHMM>
~h "n"
<BEGINHMM>
<NUMSTATES> 5
<STATE> 2
<MEAN> 25
 8.274274e+00 3.523433e+00 7.457599e+00 6.275238e+00 -2.108557e+00 -5.749571e+00 -3.189169e+00 -1.129885e+01 -1.127705e+01 -2.104367e-02 -5.228352e+00 -5.030385e+00 -2.307133e-01 2.841752e-01 7.885746e-02 2.003364e-01 9.098301e-02 3.837685e-02 -1.750681e-01 -2.489667e-01 2.556392e-01 -1.629062e-01 -1.392875e-01 1.927044e-01 -4.358303e-01
<VARIANCE> 25
 8.232819e+00 1.146177e+01 1.077137e+01 1.451448e+01 1.324969e+01 2.100893e+01 2.156267e+01 2.713127e+01 3.039217e+01 2.140519e+01 1.758048e+01 1.420546e+01 3.180468e-01 6.795087e-01 7.232065e-01 1.542066e+00 1.086547e+00 1.358095e+00 9.432408e-01 3.095324e+00 1.726301e+00 2.012232e+00 1.028898e+00 9.061836e-01 4.147888e-01
<GCONST> 7.987782e+01
<STATE> 3
<MEAN> 25
 1.092570e+00 2.756791e+00 3.664514e+00 3.586106e+00 1.753897e+00 -1.056089e+00 -1.470178e+00 -1.597024e+00 -2.006636e+00 -4.913268e+00 -4.256161e+00 -1.368319e+00 -1.292964e+00 -7.510554e-01 -1.013322e+00 -5.299871e-01 4.726067e-01 8.356621e-01 9.365727e-01 1.409052e+00 1.451184e+00 6.236446e-01 8.547192e-01 8.164104e-01 -5.128792e-01
<VARIANCE> 25
 2.617310e+01 1.956237e+01 2.511021e+01 2.348724e+01 2.558962e+01 3.971406e+01 3.485322e+01 4.600316e+01 3.953548e+01 3.444695e+01 2.990991e+01 2.529832e+01 1.982548e+00 1.712087e+00 2.059700e+00 2.431517e+00 2.024099e+00 3.327516e+00 2.906558e+00 4.601332e+00 3.665230e+00 4.114282e+00 3.113691e+00 2.543355e+00 1.447095e+00
<GCONST> 9.920033e+01
<STATE> 4
<MEAN> 25
 -4.438623e+00 -2.554341e+00 -2.213660e+00 1.035074e+00 3.143762e+00 2.563143e+00 3.732639e+00 2.821374e+00 4.780101e+00 2.945973e+00 2.309589e+00 3.960680e+00 -3.750448e-02 -5.747068e-02 -7.512382e-02 -5.325664e-02 1.993533e-02 2.542313e-02 3.038401e-02 1.869381e-02 2.227103e-02 5.794706e-02 8.070122e-02 5.140334e-02 -3.558289e-02
<VARIANCE> 25
 6.871352e+00 4.736987e+00 9.235898e+00 9.331549e+00 8.824911e+00 1.100878e+01 1.434024e+01 1.566136e+01 1.674425e+01 1.335835e+01 1.521603e+01 1.493354e+01 2.158927e-01 3.072999e-01 5.245502e-01 7.189575e-01 8.300482e-01 9.670807e-01 1.224132e+00 1.382229e+00 1.476564e+00 1.416534e+00 1.312656e+00 1.238345e+00 9.467303e-02
<GCONST> 7.019743e+01
<TRANSP> 5
 0.000000e+00 1.000000e+00 0.000000e+00 0.000000e+00 0.000000e+00
 0.000000e+00 8.854198e-01 1.145802e-01 0.000000e+00 0.000000e+00
 0.000000e+00 0.000000e+00 8.127602e-01 1.872397e-01 0.000000e+00
 0.000000e+00 0.000000e+00 0.000000e+00 9.334841e-01 6.651592e-02
 0.000000e+00 0.000000e+00 0.000000e+00 0.000000e+00 0.000000e+00
<ENDHMM>
~h "p"
<BEGINHMM>
<NUMSTATES> 5
<STATE> 2
<MEAN> 25
 -2.213277e+00 7.187363e-01 5.347474e-02 1.189360e+00 5.660698e+00 2.526834e+00 3.183748e+00 1.769637e+00 4.784443e+00 2.710124e+00 2.029056e+00 2.138889e+00 -8.562719e-01 -2.907369e-01 3.553476e-01 -1.917270e-02 5.266960e-01 -1.465299e-01 2.441314e-01 6.595550e-02 2.987433e-01 7.610433e-01 7.149608e-01 5.254471e-01 1.631714e+00
<VARIANCE> 25
 1.321259e+01 1.475109e+01 3.018803e+01 2.580520e+01 2.872231e+01 2.294462e+01 3.361911e+01 2.264002e+01 2.615903e+01 2.416221e+01 1.784340e+01 1.412348e+01 3.045877e+00 2.296318e+00 5.097842e+00 3.319539e+00 3.187103e+00 3.499529e+00 3.922327e+00 3.292700e+00 3.495388e+00 2.674500e+00 3.154997e+00 2.530840e+00 4.870124e+00
<GCONST> 9.862121e+01
<STATE> 3
<MEAN> 25
 5.551092e-02 7.957236e-01 -3.012650e+00 -9.712509e-01 3.846927e+00 9.599658e-01 -3.624412e-01 -1.562266e+00 7.287219e-01 2.937371e+00 5.160941e-01 2.051030e-01 1.287161e+00 -1.859446e-01 -4.818234e-01 -2.773368e-01 -1.116706e+00 1.956992e-01 -1.569711e+00 -1.285834e-01 -5.845241e-01 -5.466881e-01 -9.403747e-01 -6.360468e-01 8.260014e-01
<VARIANCE> 25
 7.730826e+01 3.178924e+01 1.088492e+02 5.211393e+01 3.043376e+01 4.294085e+01 7.434762e+01 3.796523e+01 4.057492e+01 3.909481e+01 3.192944e+01 3.105855e+01 6.733702e+00 4.533045e+00 4.755505e+00 5.108369e+00 3.209032e+00 5.108234e+00 4.278198e+00 6.065605e+00 6.913806e+00 3.933102e+00 3.055655e+00 3.284553e+00 2.787829e+00
<GCONST> 1.110827e+02
<STATE> 4
<MEAN> 25
 -2.450462e-01 -2.935769e+00 -2.936401e+00 -1.811822e+00 3.071712e-01 -5.563409e-01 -2.705714e+00 5.890250e-01 1.324499e+00 1.145098e+00 -2.232362e+00 -4.981067e-01 8.693272e-02 1.842624e-01 2.225800e-01 7.437182e-03 -4.673777e-01 -4.968923e-02 7.012666e-02 4.562629e-03 -4.497432e-01 -2.857181e-01 5.678780e-02 6.282546e-02 6.208020e-02
<VARIANCE> 25
 2.263647e+01 1.184174e+01 1.859152e+01 1.687373e+01 1.390873e+01 1.298752e+01 2.352543e+01 3.660057e+01 2.656410e+01 2.500237e+01 2.655709e+01 1.499036e+01 1.081377e+00 1.345234e+00 2.207442e+00 1.687931e+00 2.346212e+00 1.583220e+00 2.792644e+00 2.786988e+00 2.662360e+00 2.232410e+00 1.807258e+00 1.939780e+00 6.382292e-01
<GCONST> 8.936844e+01
<TRANSP> 5
 0.000000e+00 1.000000e+00 0.000000e+00 0.000000e+00 0.000000e+00
 0.000000e+00 7.453361e-01 2.546639e-01 0.000000e+00 0.000000e+00
 0.000000e+00 0.000000e+00 6.810258e-01 3.189742e-01 0.000000e+00
 0.000000e+00 0.000000e+00 0.000000e+00 8.307239e-01 1.692761e-01
 0.000000e+00 0.000000e+00 0.000000e+00 0.000000e+00 0.000000e+00
<ENDHMM>
~h "r"
<BEGINHMM>
<NUMSTATES> 5
<STATE> 2
<MEAN> 25
 8.338462e+00 -1.112755e-01 -4.955132e+00 4.169425e+00 5.113257e-01 -4.697899e+00 -8.098735e+00 -8.382534e-01 5.761004e-01 -4.894585e+00 9.594018e-01 1.970452e+00 1.285208e+00 -4.096241e-01 -8.007640e-01 1.103959e+00 7.183358e-01 -1.266286e+00 -2.309298e+00 4.477171e-01 1.266093e+00 -7.684153e-01 -5.823718e-01 -1.026913e-01 3.530020e-01
<VARIANCE> 25
 7.037130e+01 2.146987e+01 7.665971e+01 3.905209e+01 2.778955e+01 8.110529e+01 7.562386e+01 4.846735e+01 5.127292e+01 4.623359e+01 4.704716e+01 2.720384e+01 3.764442e+00 1.681160e+00 3.232237e+00 1.842183e+00 3.416472e+00 3.142943e+00 4.120035e+00 4.453812e+00 4.231262e+00 4.844805e+00 2.779991e+00 2.308031e+00 1.730422e+00
<GCONST> 1.064643e+02
<STATE> 3
<MEAN> 25
 1.101493e+01 -3.208493e+00 -1.723979e+00 8.037192e+00 -3.212517e+00 -1.029478e+01 -1.260067e+01 3.683171e+00 -3.454467e-01 -9.696017e+00 -4.441357e-01 2.258760e+00 -6.841333e-01 -4.233338e-02 1.857582e+00 -5.326675e-01 -1.268636e+00 4.783109e-01 1.546659e+00 -1.303144e-01 -1.469617e+00 9.289233e-02 2.909033e-01 -2.132450e-01 -4.579886e-02
<VARIANCE> 25
 2.453301e+01 2.811957e+01 8.744952e+01 3.417833e+01 4.938999e+01 4.321957e+01 5.672250e+01 4.763258e+01 6.424202e+01 4.937851e+01 3.169343e+01 2.833477e+01 1.944234e+00 1.985259e+00 4.063957e+00 3.277175e+00 4.893772e+00 4.055538e+00 4.188118e+00 5.870721e+00 4.805569e+00 4.969270e+00 3.221370e+00 2.734290e+00 1.574487e+00
<GCONST> 1.068489e+02
<STATE> 4
<MEAN> 25
 8.865337e+00 -1.937653e+00 -3.393399e+00 2.815455e+00 -3.767281e-01 -5.463707e+00 -9.263036e+00 8.260314e-02 3.519739e+00 -2.703694e+00 -2.309265e+00 4.355768e-02 -5.146913e-01 -2.518744e-02 2.679760e-01 -8.021998e-01 -5.553873e-01 8.827050e-01 8.242568e-01 -2.663744e-01 -2.563513e-01 6.604068e-01 2.538423e-01 -3.993132e-01 -1.858004e-01
<VARIANCE> 25
 4.715827e+01 1.414480e+01 6.682976e+01 1.717672e+01 5.244774e+01 4.076732e+01 6.091383e+01 3.696401e+01 5.560975e+01 3.032865e+01 2.403742e+01 1.706156e+01 8.671411e-01 9.563655e-01 2.198538e+00 1.652202e+00 2.168740e+00 2.349092e+00 2.932225e+00 2.851101e+00 2.429760e+00 1.935952e+00 1.615876e+00 2.619128e+00 6.269111e-01
<GCONST> 9.570802e+01
<TRANSP> 5
 0.000000e+00 1.000000e+00 0.000000e+00 0.000000e+00 0.000000e+00
 0.000000e+00 7.834437e-01 2.165563e-01 0.000000e+00 0.000000e+00
 0.000000e+00 0.000000e+00 7.668505e-01 2.331494e-01 0.000000e+00
 0.000000e+00 0.000000e+00 0.000000e+00 6.732293e-01 3.267707e-01
 0.000000e+00 0.000000e+00 0.000000e+00 0.000000e+00 0.000000e+00
<ENDHMM>
~h "s"
<BEGINHMM>
<NUMSTATES> 5
<STATE> 2
<MEAN> 25
 -1.119556e+01 4.729760e+00 -1.620921e+00 -2.499739e+00 6.676291e+00 -8.694209e+00 4.376310e+00 6.163560e-01 3.436395e-01 -6.839617e-01 -2.537187e+00 2.950772e+00 -2.984452e+00 1.693726e+00 -9.010834e-01 -8.017269e-01 1.396697e+00 -9.150608e-01 1.123148e+00 3.125868e-02 2.301674e-01 -3.306165e-01 1.801224e-01 4.146715e-01 1.657058e+00
<VARIANCE> 25
 6.897119e+01 2.657869e+01 3.181021e+01 2.045846e+01 3.063996e+01 3.845673e+01 3.187906e+01 4.314451e+01 2.166271e+01 1.977167e+01 1.928836e+01 1.945596e+01 4.985093e+00 2.275861e+00 2.708293e+00 2.229896e+00 2.294452e+00 4.601432e+00 4.039704e+00 2.593439e+00 3.172970e+00 2.215853e+00 2.537651e+00 1.827115e+00 1.878815e+00
<GCONST> 9.927278e+01
<STATE> 3
<MEAN> 25
 -1.879145e+01 8.716839e+00 -7.296837e+00 -4.009175e+00 9.462870e+00 -8.321134e+00 6.695323e+00 8.214055e-01 1.981020e+00 -1.274335e+00 -1.355679e+00 4.158769e+00 3.964944e-01 -2.876116e-01 -4.542575e-02 2.925340e-02 -1.300980e-01 1.690066e-01 -7.094327e-02 -2.658487e-02 9.967531e-02 2.067934e-01 1.177676e-02 -1.083500e-01 -3.554298e-01
<VARIANCE> 25
 2.132091e+01 9.985252e+00 2.477936e+01 1.677296e+01 1.698336e+01 1.717839e+01 1.980165e+01 2.633161e+01 2.058704e+01 1.711502e+01 1.824946e+01 1.671297e+01 1.698186e+00 7.546133e-01 1.104753e+00 9.933384e-01 1.190732e+00 1.407313e+00 1.214073e+00 1.530984e+00 1.517911e+00 1.804268e+00 1.413384e+00 1.399871e+00 1.471890e+00
<GCONST> 8.440836e+01
<STATE> 4
<MEAN> 25
 -7.748043e+00 2.747283e+00 -3.799702e+00 -2.184269e+00 4.517000e+00 -5.704860e+00 3.231227e+00 -4.703522e-01 2.152626e+00 1.033652e+00 -1.269228e+00 1.709955e+00 2.229820e+00 -1.009506e+00 8.169755e-01 3.567627e-01 -1.455544e+00 4.951348e-01 -9.110802e-01 -2.803088e-01 -4.368730e-01 1.733234e-01 -1.032052e-01 -6.977558e-01 -3.331525e-01
<VARIANCE> 25
 4.410711e+01 1.910313e+01 2.984553e+01 2.431791e+01 2.583925e+01 3.162973e+01 2.700792e+01 3.299772e+01 2.436517e+01 3.039991e+01 1.698300e+01 3.211795e+01 5.588927e+00 1.857593e+00 3.977855e+00 2.176654e+00 2.136569e+00 3.685549e+00 3.704451e+00 3.663517e+00 2.759228e+00 2.616990e+00 2.062321e+00 2.354031e+00 4.667552e+00
<GCONST> 9.994617e+01
<TRANSP> 5
 0.000000e+00 1.000000e+00 0.000000e+00 0.000000e+00 0.000000e+00
 0.000000e+00 7.816778e-01 2.183221e-01 0.000000e+00 0.000000e+00
 0.000000e+00 0.000000e+00 9.028005e-01 9.719951e-02 0.000000e+00
 0.000000e+00 0.000000e+00 0.000000e+00 7.789693e-01 2.210307e-01
 0.000000e+00 0.000000e+00 0.000000e+00 0.000000e+00 0.000000e+00
<ENDHMM>
~h "t"
<BEGINHMM>
<NUMSTATES> 5
<STATE> 2
<MEAN> 25
 -6.275948e+00 -1.188355e+00 3.354787e+00 -2.415921e+00 -4.699520e-01 -4.527487e-01 1.379108e+00 -1.900492e+00 -1.002398e+00 1.975842e-01 1.720530e-01 1.121127e+00 -1.569192e+00 -1.286073e-01 3.716232e-01 -8.978624e-01 -4.072537e-01 -4.976649e-01 4.343899e-01 2.009382e-01 -2.698974e-01 1.695295e-02 2.961440e-01 3.922721e-01 2.142062e+00
<VARIANCE> 25
 3.968404e+01 2.730235e+01 5.328969e+01 3.916401e+01 3.663735e+01 2.989978e+01 3.006307e+01 2.887265e+01 5.377388e+01 2.380445e+01 1.940670e+01 2.789811e+01 4.350048e+00 3.032026e+00 5.026398e+00 4.440330e+00 3.757991e+00 4.010099e+00 3.850745e+00 3.644345e+00 5.767579e+00 3.479885e+00 3.012873e+00 2.816214e+00 1.103143e+01
<GCONST> 1.063696e+02
<STATE> 3
<MEAN> 25
 -6.175008e+00 -9.509333e-02 6.792604e+00 -1.251515e-01 -5.282762e-01 -3.960147e+00 4.291032e+00 2.158896e+00 -1.119902e+00 4.846583e-01 -1.341024e-01 2.880741e+00 1.900240e+00 3.133739e-01 3.190005e-01 1.444215e+00 2.396776e-01 4.737512e-01 -2.014300e-01 3.582069e-01 3.432420e-01 2.057166e-01 1.479911e-02 -1.797492e-01 -1.632148e+00
<VARIANCE> 25
 8.102731e+01 3.204083e+01 3.624207e+01 4.984610e+01 4.969080e+01 5.153234e+01 4.764485e+01 4.754879e+01 2.969075e+01 2.945615e+01 2.433810e+01 2.556119e+01 5.302871e+00 2.854192e+00 3.817635e+00 2.369405e+00 4.028209e+00 5.520007e+00 4.382308e+00 3.581885e+00 3.492502e+00 2.855052e+00 2.502291e+00 2.714812e+00 3.287066e+00
<GCONST> 1.062684e+02
<STATE> 4
<MEAN> 25
 -1.609442e+00 -6.265990e-01 1.786263e+00 1.808010e+00 1.369208e+00 8.727202e-01 2.026019e+00 2.055730e+00 1.843614e+00 1.201944e+00 8.270044e-01 1.964491e+00 6.622822e-01 -1.112939e-01 -4.558592e-01 -6.413475e-02 -2.978407e-01 3.282280e-01 -5.649678e-01 1.723181e-02 -9.082587e-02 -2.754398e-01 2.618628e-01 -2.862430e-01 -3.624617e-01
<VARIANCE> 25
 3.164791e+01 1.816194e+01 3.679707e+01 2.308737e+01 4.556728e+01 4.347525e+01 4.572832e+01 3.230320e+01 3.741042e+01 2.839932e+01 2.177196e+01 2.573571e+01 2.533353e+00 1.050160e+00 3.707349e+00 1.903270e+00 3.289963e+00 2.567869e+00 3.503972e+00 2.604441e+00 2.757106e+00 1.634992e+00 2.063817e+00 2.119109e+00 7.018945e-01
<GCONST> 9.713655e+01
<TRANSP> 5
 0.000000e+00 1.000000e+00 0.000000e+00 0.000000e+00 0.000000e+00
 0.000000e+00 7.874572e-01 2.125428e-01 0.000000e+00 0.000000e+00
 0.000000e+00 0.000000e+00 7.580292e-01 2.419708e-01 0.000000e+00
 0.000000e+00 0.000000e+00 0.000000e+00 5.991054e-01 4.008946e-01
 0.000000e+00 0.000000e+00 0.000000e+00 0.000000e+00 0.000000e+00
<ENDHMM>
~h "v"
<BEGINHMM>
<NUMSTATES> 5
<STATE> 2
<MEAN> 25
 7.542923e-02 1.364345e+00 2.558650e-01 4.162611e+00 -8.471905e-01 -4.566227e+00 -1.682267e+00 6.242149e-01 2.285013e+00 1.989504e-01 -4.580439e-01 1.067362e+00 -1.160837e+00 2.729375e-01 -2.465714e-01 -8.955981e-03 7.922019e-01 7.974499e-01 5.915683e-01 4.990154e-03 8.457935e-01 6.420949e-01 3.406593e-01 4.988571e-01 -8.728225e-01
<VARIANCE> 25
 5.725531e+01 1.465657e+01 2.103256e+01 2.737936e+01 3.740054e+01 4.748711e+01 2.428541e+01 1.882965e+01 2.525818e+01 2.702837e+01 2.721187e+01 2.335449e+01 5.518270e+00 2.509817e+00 2.536741e+00 2.861217e+00 5.742050e+00 6.624720e+00 3.590874e+00 2.265218e+00 2.662189e+00 3.073419e+00 3.473026e+00 2.298630e+00 2.781641e+00
<GCONST> 1.011705e+02
<STATE> 3
<MEAN> 25
 -3.937111e+00 1.209471e+00 -2.863664e-01 4.814842e+00 2.465529e+00 2.763759e-01 9.225441e-01 5.761620e-01 3.208874e+00 8.200260e-01 5.857399e-01 1.714416e+00 -5.959002e-01 -3.870744e-01 -1.022653e-01 -1.555090e-01 1.449528e-01 1.464355e-01 3.474359e-01 2.232392e-01 -8.858676e-02 -1.614294e-01 1.553303e-02 1.083012e-01 -8.191898e-02
<VARIANCE> 25
 2.775951e+01 1.841977e+01 2.307587e+01 1.439650e+01 1.831389e+01 1.640393e+01 2.291422e+01 2.335914e+01 2.903494e+01 2.086837e+01 1.848951e+01 1.895967e+01 2.507897e+00 9.833642e-01 1.312207e+00 1.759871e+00 2.440150e+00 2.230119e+00 2.223730e+00 2.238304e+00 2.961511e+00 2.226820e+00 2.352212e+00 1.489956e+00 1.789508e+00
<GCONST> 9.100483e+01
<STATE> 4
<MEAN> 25
 -3.323184e+00 -3.743843e+00 -2.427395e+00 2.080052e+00 2.943250e+00 -4.856903e-02 2.920778e+00 2.323853e+00 4.684019e+00 2.008012e+00 1.053874e+00 4.195047e+00 4.622971e-03 7.434208e-03 -2.577781e-02 -2.922468e-02 3.219027e-02 -1.504067e-02 1.873438e-02 1.667647e-02 2.938995e-02 5.714723e-02 1.843535e-02 1.536122e-02 3.619073e-02
<VARIANCE> 25
 5.809711e+00 7.396783e+00 8.113040e+00 1.467088e+01 1.168167e+01 1.150450e+01 1.546799e+01 1.246142e+01 1.703888e+01 1.525879e+01 2.021601e+01 1.785435e+01 2.151620e-01 3.296851e-01 4.915046e-01 6.650493e-01 7.750487e-01 1.104966e+00 1.012329e+00 1.135358e+00 1.179746e+00 1.540607e+00 1.336463e+00 1.403006e+00 1.607924e-01
<GCONST> 7.171687e+01
<TRANSP> 5
 0.000000e+00 1.000000e+00 0.000000e+00 0.000000e+00 0.000000e+00
 0.000000e+00 6.974137e-01 3.025863e-01 0.000000e+00 0.000000e+00
 0.000000e+00 0.000000e+00 7.516305e-01 2.483695e-01 0.000000e+00
 0.000000e+00 0.000000e+00 0.000000e+00 9.077997e-01 9.220027e-02
 0.000000e+00 0.000000e+00 0.000000e+00 0.000000e+00 0.000000e+00
<ENDHMM>
~h "w"
<BEGINHMM>
<NUMSTATES> 5
<STATE> 2
<MEAN> 25
 8.566802e+00 5.916728e+00 -1.386929e+00 -3.141464e+00 1.966170e-01 2.484927e+00 -3.255810e+00 -3.457491e+00 -4.775828e+00 -1.979368e+00 3.492036e-01 -3.028419e+00 6.214498e-01 -2.226129e-01 -6.081185e-02 -1.523269e-01 -3.042094e-01 -1.285527e-01 -6.916617e-01 2.131221e-01 -3.245782e-01 -5.388440e-02 1.540628e-01 -8.556876e-01 1.149447e+00
<VARIANCE> 25
 1.965449e+01 2.142914e+01 3.077973e+01 3.281836e+01 1.893649e+01 4.068190e+01 3.269389e+01 2.742716e+01 6.913918e+01 4.254013e+01 4.125469e+01 3.894226e+01 2.380217e+00 3.748618e+00 2.704636e+00 4.070909e+00 2.624923e+00 7.661138e+00 3.976544e+00 4.766349e+00 7.541812e+00 5.650429e+00 4.986819e+00 3.532825e+00 1.546045e+00
<GCONST> 1.053092e+02
<STATE> 3
<MEAN> 25
 9.346640e+00 -3.494106e+00 -1.065886e+00 3.771776e+00 -5.779219e+00 -5.456264e+00 -5.208965e+00 9.550079e+00 -1.445939e+00 -4.796030e+00 7.968590e-01 -3.735497e+00 -9.484531e-02 -3.870016e-01 7.412353e-01 2.761828e-01 -1.076760e+00 -1.450030e+00 5.271924e-01 9.043058e-01 -4.955676e-01 -3.038503e-01 -3.311555e-01 9.254541e-01 -4.867499e-02
<VARIANCE> 25
 1.213312e+01 1.294233e+01 3.020597e+01 2.567250e+01 3.883799e+01 2.299846e+01 7.359425e+01 8.731195e+01 4.714172e+01 3.467252e+01 4.616409e+01 4.687506e+01 4.569695e-01 1.066439e+00 2.327806e+00 1.328998e+00 1.882779e+00 3.157765e+00 2.826006e+00 4.611469e+00 2.996867e+00 2.997092e+00 4.786781e+00 2.977733e+00 2.946990e-01
<GCONST> 9.668948e+01
<STATE> 4
<MEAN> 25
 1.041694e+01 -5.364575e-01 1.924240e+00 1.267240e+00 -3.987692e+00 -3.733647e+00 -3.670761e+00 -1.787848e+00 -1.101980e+01 -1.958651e+00 -2.093243e+00 -7.855947e+00 -9.467451e-02 -1.442655e-01 3.611780e-01 -2.443140e-01 -3.411610e-01 -8.249802e-03 2.930610e-01 3.145793e-01 -1.420018e-01 -1.506788e-01 -4.029238e-02 2.234267e-01 3.060070e-03
<VARIANCE> 25
 7.361442e+00 3.744432e+01 3.423835e+01 2.645272e+01 3.175882e+01 3.002384e+01 2.275605e+01 7.138637e+01 5.546791e+01 6.342385e+01 2.395312e+01 3.851578e+01 2.347188e-01 8.925667e-01 1.492171e+00 8.977914e-01 1.971250e+00 1.237701e+00 1.956411e+00 1.783220e+00 2.155005e+00 1.844494e+00 2.130886e+00 1.343453e+00 2.498353e-01
<GCONST> 8.953634e+01
<TRANSP> 5
 0.000000e+00 1.000000e+00 0.000000e+00 0.000000e+00 0.000000e+00
 0.000000e+00 8.867058e-01 1.132942e-01 0.000000e+00 0.000000e+00
 0.000000e+00 0.000000e+00 7.625843e-01 2.374157e-01 0.000000e+00
 0.000000e+00 0.000000e+00 0.000000e+00 7.891802e-01 2.108198e-01
 0.000000e+00 0.000000e+00 0.000000e+00 0.000000e+00 0.000000e+00
<ENDHMM>
~h "y"
<BEGINHMM>
<NUMSTATES> 5
<STATE> 2
<MEAN> 25
 1.704618e-01 5.711905e+00 1.398153e+01 2.894089e+00 -5.004410e+00 -2.199806e+00 -2.935703e+00 -4.698086e+00 -7.483628e+00 -4.864126e-02 5.142569e-01 -1.816087e+00 1.050973e+00 4.404338e-01 1.026400e+00 7.259954e-01 -1.897866e+00 -7.616013e-01 -7.130446e-01 7.475123e-01 -2.132113e+00 -8.629681e-01 9.682837e-01 -8.489050e-01 7.342092e-01
<VARIANCE> 25
 1.856248e+01 1.906478e+01 5.874066e+01 2.383440e+01 5.887165e+01 3.680391e+01 5.264750e+01 4.415051e+01 6.628289e+01 1.995106e+01 3.061533e+01 2.871174e+01 3.677595e+00 2.980533e+00 5.110485e+00 4.699145e+00 3.722792e+00 3.217811e+00 5.752052e+00 4.432579e+00 6.705527e+00 2.980805e+00 3.469543e+00 3.170830e+00 1.255353e+00
<GCONST> 1.053737e+02
<STATE> 3
<MEAN> 25
 6.735537e+00 2.881983e-01 2.837488e+00 3.365281e+00 -5.874239e+00 -2.623109e+00 -7.990220e+00 2.651915e+00 -6.430741e+00 -5.401703e+00 8.822867e-01 -6.550964e+00 5.159833e-01 -2.346045e-01 -1.382579e+00 -1.210138e-01 1.236266e+00 2.113943e-01 -1.912544e-01 -2.417326e-01 9.497464e-01 -4.724928e-03 -4.807735e-01 -4.147655e-01 -1.102198e-01
<VARIANCE> 25
 1.780947e+01 4.866076e+01 1.003308e+02 3.296150e+01 7.943534e+01 7.045302e+01 4.702122e+01 5.466806e+01 1.043464e+02 2.413454e+01 3.928021e+01 3.885878e+01 7.328511e-01 1.644774e+00 3.504722e+00 2.298250e+00 4.967478e+00 4.234043e+00 3.936283e+00 5.135594e+00 4.324895e+00 3.477321e+00 3.228644e+00 2.501418e+00 9.052919e-01
<GCONST> 1.054847e+02
<STATE> 4
<MEAN> 25
 8.243264e+00 2.069613e+00 2.795484e+00 5.045819e+00 1.479336e+00 -5.594909e-01 -2.076912e+00 -6.740302e+00 -5.606497e+00 3.271861e-01 -1.305476e+00 -6.494648e+00 -1.536727e-01 2.604173e-01 2.489704e-01 9.632174e-02 1.281443e-01 -1.019678e-01 1.330138e-01 -1.948481e-01 -8.891653e-02 8.918965e-02 -1.545038e-01 4.221724e-01 -3.936579e-01
<VARIANCE> 25
 9.682766e+00 1.641862e+01 7.099687e+01 2.585832e+01 2.813000e+01 4.921912e+01 2.861664e+01 4.100943e+01 3.660804e+01 1.843870e+01 2.447533e+01 2.112095e+01 3.312404e-01 3.685194e-01 2.060653e+00 1.161261e+00 1.351049e+00 1.758760e+00 1.791122e+00 2.721054e+00 2.244738e+00 1.294222e+00 1.390119e+00 8.157509e-01 4.540544e-01
<GCONST> 8.721592e+01
<TRANSP> 5
 0.000000e+00 1.000000e+00 0.000000e+00 0.000000e+00 0.000000e+00
 0.000000e+00 8.153670e-01 1.846329e-01 0.000000e+00 0.000000e+00
 0.000000e+00 0.000000e+00 8.148731e-01 1.851269e-01 0.000000e+00
 0.000000e+00 0.000000e+00 0.000000e+00 8.393763e-01 1.606237e-01
 0.000000e+00 0.000000e+00 0.000000e+00 0.000000e+00 0.000000e+00
<ENDHMM>
~h "z"
<BEGINHMM>
<NUMSTATES> 5
<STATE> 2
<MEAN> 25
 -8.716200e+00 1.245449e+01 3.006554e+00 -1.146325e+00 9.201531e+00 -8.341420e+00 1.369325e+00 -3.366439e+00 -2.811289e+00 -2.854426e+00 -3.423419e+00 1.890985e+00 -2.254523e+00 7.149489e-01 -5.162154e-01 -3.796766e-01 1.497213e+00 -4.246093e-01 4.648496e-01 6.138913e-01 4.794642e-01 1.850268e-01 -1.790409e-01 2.175134e-01 5.240964e-01
<VARIANCE> 25
 7.378928e+01 2.769547e+01 5.086677e+01 3.456670e+01 4.715141e+01 5.431954e+01 2.941595e+01 2.467516e+01 2.966627e+01 1.339819e+01 2.053973e+01 1.635151e+01 4.781048e+00 2.031729e+00 2.080980e+00 2.231969e+00 4.241129e+00 4.087795e+00 2.701682e+00 2.939235e+00 2.589258e+00 2.341791e+00 1.617752e+00 1.482361e+00 4.316464e-01
<GCONST> 9.784985e+01
<STATE> 3
<MEAN> 25
 -1.756857e+01 7.451077e+00 -2.690463e+00 -6.179772e+00 1.045713e+01 -9.606486e+00 3.629012e+00 2.796263e+00 5.105250e-01 6.373641e-01 -2.893249e+00 3.902444e+00 1.247615e+00 -9.548299e-01 1.957588e-01 2.136332e-01 -8.144127e-01 -3.665831e-02 -4.607690e-02 -7.010331e-02 -2.520135e-01 2.248682e-01 2.343253e-02 -2.182155e-01 -6.468050e-01
<VARIANCE> 25
 4.938800e+01 2.630183e+01 2.629381e+01 3.051642e+01 1.497694e+01 3.058573e+01 3.573224e+01 2.391407e+01 2.508612e+01 2.186226e+01 1.709525e+01 1.657297e+01 3.001376e+00 1.005592e+00 2.210990e+00 1.371544e+00 1.933509e+00 2.443868e+00 1.914589e+00 2.165390e+00 2.275280e+00 1.736880e+00 1.891748e+00 1.455713e+00 1.591923e+00
<GCONST> 9.267628e+01
<STATE> 4
<MEAN> 25
 -4.104318e+00 -2.582215e+00 -2.968821e+00 -1.626147e+00 3.069751e+00 -1.265633e+00 2.322571e+00 1.148956e+00 1.486955e+00 1.280115e+00 -8.350093e-01 1.011057e+00 3.726293e-01 -2.089972e-01 1.505364e-01 2.610692e-01 -4.009437e-01 4.784120e-01 -1.101070e-01 9.483055e-03 9.190343e-02 -3.096318e-02 1.396142e-01 -6.563072e-02 -1.799720e-01
<VARIANCE> 25
 1.322286e+01 2.006350e+01 2.217977e+01 1.218733e+01 1.575548e+01 2.662633e+01 2.939713e+01 2.450927e+01 2.258408e+01 2.207236e+01 1.327202e+01 1.742896e+01 2.235934e+00 1.553637e+00 1.511672e+00 1.448551e+00 2.411958e+00 2.995795e+00 3.310776e+00 2.795336e+00 2.220297e+00 2.201259e+00 1.331255e+00 1.583889e+00 9.778503e-01
<GCONST> 8.994386e+01
<TRANSP> 5
 0.000000e+00 1.000000e+00 0.000000e+00 0.000000e+00 0.000000e+00
 0.000000e+00 8.753529e-01 1.246471e-01 0.000000e+00 0.000000e+00
 0.000000e+00 0.000000e+00 8.939207e-01 1.060793e-01 0.000000e+00
 0.000000e+00 0.000000e+00 0.000000e+00 9.030291e-01 9.697084e-02
 0.000000e+00 0.000000e+00 0.000000e+00 0.000000e+00 0.000000e+00
<ENDHMM>
~h "aa"
<BEGINHMM>
<NUMSTATES> 5
<STATE> 2
<MEAN> 25
 5.102933e+00 -1.644471e+00 -1.482736e+00 -2.159977e+00 3.260333e-02 5.076213e+00 -1.918011e-01 1.484159e+00 1.706167e+00 -6.098282e-01 -1.418299e-01 -6.427227e+00 1.093508e+00 -5.612939e-01 -9.265121e-01 -1.133132e+00 -5.254399e-01 1.676626e+00 -3.075594e-01 -1.593654e-01 -1.288598e-02 -3.230675e-01 5.382274e-01 -1.333935e+00 1.219464e+00
<VARIANCE> 25
 3.237711e+01 3.681915e+01 3.743451e+01 5.107275e+01 3.216777e+01 5.791167e+01 5.178414e+01 4.196297e+01 2.558114e+01 3.344474e+01 2.932475e+01 6.828554e+01 4.367453e+00 2.168797e+00 2.320815e+00 4.261368e+00 3.267587e+00 5.443301e+00 3.460168e+00 3.197502e+00 3.094575e+00 3.858958e+00 2.995049e+00 4.423653e+00 1.885063e+00
<GCONST> 1.056738e+02
<STATE> 3
<MEAN> 25
 9.212765e+00 -5.413483e+00 -6.767758e+00 -1.050660e+01 -1.263825e-01 1.642797e+01 -3.254832e-01 -2.985916e+00 1.284053e+00 -9.703016e-01 1.865275e+00 -1.160035e+01 7.031355e-02 1.540745e-01 -2.061440e-01 1.152288e-01 4.683444e-03 2.862718e-02 -1.010403e-01 -4.649111e-02 -3.091805e-01 2.145115e-01 -1.443454e-01 2.272961e-01 -2.399799e-01
<VARIANCE> 25
 5.282886e+00 2.559115e+01 1.060295e+01 2.455381e+01 1.351236e+01 4.078524e+01 3.791317e+01 3.164890e+01 4.640386e+01 4.192485e+01 2.701798e+01 3.835241e+01 1.616670e-01 8.022410e-01 4.637119e-01 7.817128e-01 1.008965e+00 1.597101e+00 1.409912e+00 2.056320e+00 1.261365e+00 1.374110e+00 1.183827e+00 1.462314e+00 3.038055e-01
<GCONST> 8.272579e+01
<STATE> 4
<MEAN> 25
 5.587572e+00 -1.304067e+00 -4.531472e+00 -4.789788e+00 -1.472918e+00 7.823841e+00 -2.129133e+00 -1.535063e-02 -1.428898e+00 3.028814e+00 -3.174761e+00 -6.102753e+00 -1.386496e+00 8.762796e-01 9.087903e-01 9.963394e-01 2.849417e-01 -2.004383e+00 5.118250e-01 6.604084e-02 1.046911e-01 -8.385282e-02 1.411181e-01 1.735431e+00 -1.652418e+00
<VARIANCE> 25
 4.597304e+01 2.685344e+01 3.048281e+01 2.650783e+01 3.162913e+01 7.317200e+01 4.491086e+01 5.344141e+01 3.064338e+01 5.521562e+01 3.783155e+01 3.362488e+01 3.080566e+00 2.774245e+00 2.764783e+00 1.675190e+00 2.797488e+00 4.857012e+00 4.014138e+00 6.642694e+00 3.107661e+00 3.105554e+00 4.285715e+00 2.297136e+00 2.825603e+00
<GCONST> 1.050358e+02
<TRANSP> 5
 0.000000e+00 1.000000e+00 0.000000e+00 0.000000e+00 0.000000e+00
 0.000000e+00 8.033646e-01 1.966354e-01 0.000000e+00 0.000000e+00
 0.000000e+00 0.000000e+00 8.633921e-01 1.366080e-01 0.000000e+00
 0.000000e+00 0.000000e+00 0.000000e+00 7.231914e-01 2.768086e-01
 0.000000e+00 0.000000e+00 0.000000e+00 0.000000e+00 0.000000e+00
<ENDHMM>
~h "ae"
<BEGINHMM>
<NUMSTATES> 5
<STATE> 2
<MEAN> 25
 1.821966e+00 -3.597648e+00 -7.520906e-01 2.098541e-01 -1.469758e+00 -1.548564e+00 2.563899e+00 3.796051e+00 -3.691462e-01 -2.203692e+00 -8.775906e-01 -1.887450e+00 1.331077e+00 -1.922455e+00 1.750852e-01 -9.665541e-01 -9.283485e-01 -4.846244e-01 1.964251e-01 1.557011e+00 -1.155085e+00 -1.536549e+00 -1.398866e+00 -2.043316e+00 3.417575e+00
<VARIANCE> 25
 2.462604e+01 4.177362e+01 3.429699e+01 2.320933e+01 3.496305e+01 4.934861e+01 3.674649e+01 3.377834e+01 4.301244e+01 2.912391e+01 4.004206e+01 4.647589e+01 2.330649e+00 2.201038e+00 3.204751e+00 1.741232e+00 4.432022e+00 4.712461e+00 3.271229e+00 2.317078e+00 6.001317e+00 3.098220e+00 5.580264e+00 5.740455e+00 5.175050e+00
<GCONST> 1.052539e+02
<STATE> 3
<MEAN> 25
 6.888250e+00 -9.137988e+00 -1.646932e+00 -2.492343e+00 -3.228316e+00 -1.162350e+00 3.355973e+00 5.937786e+00 -2.542195e+00 -7.572097e+00 -6.995587e+00 -9.241205e+00 3.674370e-01 -4.893974e-02 -4.229632e-01 1.234214e-01 2.740018e-01 1.635957e-01 -2.014018e-01 -1.606767e-01 3.473388e-01 -1.480608e-01 -1.831153e-01 -3.242376e-01 1.351883e-01
<VARIANCE> 25
 7.116823e+00 2.714852e+01 3.793623e+01 1.565098e+01 2.710375e+01 3.007089e+01 2.447872e+01 2.870818e+01 3.006765e+01 1.829365e+01 3.897153e+01 4.066148e+01 4.355395e-01 9.994355e-01 8.630295e-01 1.230106e+00 1.688165e+00 1.808032e+00 1.364697e+00 1.823250e+00 1.126156e+00 1.566112e+00 1.431227e+00 2.039911e+00 1.174952e+00
<GCONST> 8.758907e+01
<STATE> 4
<MEAN> 25
 6.882839e+00 -6.058153e+00 -2.669325e+00 1.798869e+00 -2.122934e+00 -2.910524e+00 2.697700e+00 2.122595e+00 -1.801576e-01 -4.999439e+00 -3.655623e+00 -6.227378e+00 -5.124002e-01 1.520357e+00 5.996934e-01 9.392270e-01 2.506018e-01 -1.091023e-02 -9.706987e-02 -1.473848e+00 -2.838420e-01 1.320227e+00 5.599992e-01 8.377392e-01 -2.115911e+00
<VARIANCE> 25
 1.831569e+01 3.518324e+01 6.017307e+01 2.880860e+01 3.517650e+01 4.973767e+01 5.139904e+01 6.103320e+01 5.959773e+01 4.348528e+01 3.289318e+01 4.090302e+01 2.396078e+00 2.204575e+00 2.285156e+00 3.208680e+00 3.326229e+00 3.162707e+00 2.577762e+00 5.516694e+00 4.208210e+00 3.688818e+00 1.910814e+00 3.915110e+00 2.734686e+00
<GCONST> 1.048812e+02
<TRANSP> 5
 0.000000e+00 1.000000e+00 0.000000e+00 0.000000e+00 0.000000e+00
 0.000000e+00 7.355627e-01 2.644373e-01 0.000000e+00 0.000000e+00
 0.000000e+00 0.000000e+00 8.657083e-01 1.342917e-01 0.000000e+00
 0.000000e+00 0.000000e+00 0.000000e+00 7.824009e-01 2.175991e-01
 0.000000e+00 0.000000e+00 0.000000e+00 0.000000e+00 0.000000e+00
<ENDHMM>
~h "ah"
<BEGINHMM>
<NUMSTATES> 5
<STATE> 2
<MEAN> 25
 4.552469e+00 -3.838930e+00 -7.166417e-01 -2.170770e+00 -3.509251e+00 -2.809043e+00 -3.133428e+00 2.085823e+00 -4.269558e-01 -9.239736e-01 -3.175064e+00 -5.750857e+00 1.377866e+00 -3.477111e-01 -3.169740e-01 -7.105329e-01 -1.581098e-01 2.712727e-02 -4.824647e-01 2.094623e-02 -3.586175e-01 3.255653e-02 -6.095352e-01 -1.229789e+00 1.033055e+00
<VARIANCE> 25
 4.492054e+01 4.128209e+01 5.352571e+01 4.077324e+01 3.612793e+01 6.397564e+01 4.584294e+01 5.981171e+01 3.710237e+01 2.562830e+01 2.863054e+01 6.095536e+01 3.688648e+00 2.867583e+00 3.021492e+00 3.508990e+00 3.434080e+00 5.333860e+00 3.248335e+00 3.591067e+00 3.679530e+00 2.670014e+00 2.944749e+00 4.244877e+00 4.379212e+00
<GCONST> 1.075161e+02
<STATE> 3
<MEAN> 25
 7.454010e+00 -1.815020e+00 -8.602385e-01 -2.471968e+00 -2.627744e+00 -2.234382e+00 -3.552119e+00 -2.568321e-01 -1.441274e+00 -8.432209e-01 -4.169993e+00 -7.065290e+00 -1.798068e-03 1.308911e+00 1.711734e-01 5.979775e-01 9.402657e-01 4.647576e-01 5.505489e-01 -1.099412e+00 -7.045170e-01 4.032841e-01 2.374153e-01 6.137240e-01 -1.723710e+00
<VARIANCE> 25
 2.376207e+01 3.315556e+01 6.847038e+01 4.414010e+01 2.668710e+01 6.810808e+01 4.291604e+01 5.402322e+01 5.411602e+01 3.145428e+01 4.153128e+01 5.614140e+01 3.492895e+00 2.379434e+00 3.277161e+00 5.130974e+00 2.685638e+00 4.255752e+00 2.756720e+00 5.118230e+00 4.682602e+00 3.124178e+00 3.664078e+00 3.912987e+00 3.147262e+00
<GCONST> 1.075932e+02
<STATE> 4
<MEAN> 25
 5.660939e+00 2.624311e-01 -3.632336e-02 1.605252e+00 -1.316054e-02 1.493397e-01 4.463096e-01 -6.672446e-01 -1.668074e+00 2.208600e-01 -2.637094e+00 -3.897647e+00 -1.748142e-01 5.289238e-01 4.452426e-02 1.756162e-01 5.100739e-01 3.072564e-01 2.698627e-01 -5.366238e-01 -4.919412e-01 3.274910e-01 3.334380e-01 4.471089e-01 -8.748960e-01
<VARIANCE> 25
 2.930519e+01 1.684547e+01 4.346290e+01 5.968552e+01 2.583694e+01 4.196024e+01 4.367377e+01 7.060214e+01 5.146405e+01 3.625573e+01 4.035770e+01 3.479180e+01 1.958667e+00 2.070070e+00 2.341723e+00 3.149156e+00 2.037357e+00 2.829523e+00 2.456121e+00 4.806310e+00 3.586612e+00 3.114147e+00 2.564437e+00 2.684314e+00 1.011080e+00
<GCONST> 1.017822e+02
<TRANSP> 5
 0.000000e+00 1.000000e+00 0.000000e+00 0.000000e+00 0.000000e+00
 0.000000e+00 6.080202e-01 3.919798e-01 0.000000e+00 0.000000e+00
 0.000000e+00 0.000000e+00 4.648665e-01 5.351335e-01 0.000000e+00
 0.000000e+00 0.000000e+00 0.000000e+00 5.242152e-01 4.757847e-01
 0.000000e+00 0.000000e+00 0.000000e+00 0.000000e+00 0.000000e+00
<ENDHMM>
~h "ao"
<BEGINHMM>
<NUMSTATES> 5
<STATE> 2
<MEAN> 25
 4.473151e+00 3.362649e+00 -4.820475e+00 -9.309158e+00 -1.627013e+00 7.282290e+00 1.962914e+00 -1.449924e+00 6.400675e-01 -3.575302e+00 2.192083e-01 -1.378685e+00 3.910011e+00 1.021233e+00 -4.492297e-01 -4.404437e+00 -3.656483e+00 9.915742e-01 -4.869030e-01 -1.720611e-03 -1.081790e+00 -1.338750e+00 2.803957e-03 -1.083286e+00 1.318769e+00
<VARIANCE> 25
 5.350171e+01 3.350499e+01 2.095080e+01 7.446685e+01 7.335021e+01 4.721288e+01 1.859614e+01 2.303934e+01 2.928770e+01 1.590724e+01 1.452506e+01 2.277887e+01 4.072200e+00 1.951418e+00 1.111138e+00 3.879115e+00 3.788633e+00 7.871907e+00 1.556063e+00 1.566855e+00 3.392320e+00 1.748463e+00 1.361059e+00 2.005193e+00 2.661788e+00
<GCONST> 9.853010e+01
<STATE> 3
<MEAN> 25
 1.177120e+01 1.671823e+00 -7.277857e+00 -2.425354e+01 -7.364638e+00 1.207945e+01 2.865297e+00 -5.525814e-01 9.760163e-01 -7.559072e+00 3.431481e-01 -4.370721e+00 9.976804e-02 3.256861e-01 9.877116e-02 -4.323684e-01 -5.545523e-01 -3.075329e-01 3.718068e-03 5.025280e-01 1.917758e-01 -7.444329e-03 -2.325166e-01 1.972449e-01 -5.161380e-02
<VARIANCE> 25
 6.934616e+00 2.388855e+01 1.396616e+01 2.255923e+01 3.018547e+01 2.793894e+01 1.737070e+01 1.264903e+01 2.601561e+01 1.615045e+01 1.061287e+01 9.077565e+00 2.558755e-01 5.831461e-01 5.440551e-01 1.265411e+00 1.086792e+00 8.504879e-01 6.341841e-01 9.731063e-01 9.788038e-01 9.935336e-01 9.077650e-01 6.614450e-01 4.097381e-01
<GCONST> 7.528058e+01
<STATE> 4
<MEAN> 25
 1.042936e+01 7.689914e+00 -5.033281e+00 -1.536253e+01 -1.157723e+01 7.510360e-01 7.559900e-01 3.754992e+00 -1.464729e+00 -2.814795e+00 -5.092445e-01 -6.148551e-01 8.287475e-02 -1.338623e-01 -2.583243e-01 4.526278e-01 6.256340e-01 -2.622931e-01 3.704449e-02 -9.239050e-02 -5.467620e-01 9.978336e-02 3.569507e-01 4.090403e-01 -7.640399e-02
<VARIANCE> 25
 9.569980e+00 1.607528e+01 1.515172e+01 5.191922e+01 2.592883e+01 4.129397e+01 1.790930e+01 1.542393e+01 3.464535e+01 2.022568e+01 2.195982e+01 1.644426e+01 1.150992e-01 4.639701e-01 6.031475e-01 7.710260e-01 1.219381e+00 1.939227e+00 1.131977e+00 1.297503e+00 1.299475e+00 1.284069e+00 1.497955e+00 1.305573e+00 1.318059e-01
<GCONST> 7.939509e+01
<TRANSP> 5
 0.000000e+00 1.000000e+00 0.000000e+00 0.000000e+00 0.000000e+00
 0.000000e+00 6.727577e-01 3.272423e-01 0.000000e+00 0.000000e+00
 0.000000e+00 0.000000e+00 8.522016e-01 1.477984e-01 0.000000e+00
 0.000000e+00 0.000000e+00 0.000000e+00 9.109343e-01 8.906572e-02
 0.000000e+00 0.000000e+00 0.000000e+00 0.000000e+00 0.000000e+00
<ENDHMM>
~h "aw"
<BEGINHMM>
<NUMSTATES> 5
<STATE> 2
<MEAN> 25
 7.519037e+00 -3.863578e+00 -5.204129e+00 -2.007674e+00 3.342967e-01 6.905837e+00 -3.127197e+00 3.043102e+00 3.017673e+00 -2.417971e+00 -4.008827e+00 -9.385416e+00 3.048924e-01 5.941061e-01 -4.479101e-01 6.188329e-02 1.433778e-01 4.827235e-01 -7.735991e-01 -8.499783e-01 -1.813207e-01 -5.474825e-02 8.706377e-01 9.320343e-02 -4.807405e-01
<VARIANCE> 25
 4.840943e+00 1.118812e+01 2.075492e+01 3.167788e+01 2.519168e+01 6.063580e+01 6.531307e+01 4.045954e+01 2.044736e+01 7.393865e+01 3.493452e+01 1.622984e+01 2.001804e-01 7.510024e-01 5.631707e-01 9.136303e-01 1.415455e+00 1.060264e+00 2.188267e+00 1.546993e+00 1.396033e+00 2.202326e+00 3.394769e+00 1.474986e+00 2.493510e-01
<GCONST> 8.571074e+01
<STATE> 3
<MEAN> 25
 9.800802e+00 5.236131e+00 -4.117373e+00 -1.468736e+00 -1.437115e+00 5.549457e+00 -5.280345e+00 -8.402068e+00 -6.514541e+00 -1.505839e+00 5.526659e+00 -5.715710e+00 -2.927458e-01 2.845749e-01 1.155278e+00 1.130146e+00 2.567979e-01 -1.751373e+00 1.662771e-01 -8.440185e-01 -7.871363e-01 -1.999722e-01 -8.045794e-01 5.063781e-01 -1.104967e+00
<VARIANCE> 25
 4.294993e+00 1.837964e+01 1.539790e+01 1.995205e+01 1.289347e+01 5.152396e+01 7.471867e+01 3.038572e+01 4.129649e+01 5.799676e+01 5.336563e+01 1.994775e+01 5.376444e-01 8.982767e-01 1.398344e+00 2.658589e+00 1.739783e+00 1.926877e+00 2.696041e+00 2.909419e+00 4.218115e+00 4.282174e+00 5.106934e+00 1.579182e+00 3.992744e-01
<GCONST> 9.293900e+01
<STATE> 4
<MEAN> 25
 3.192677e+00 2.492792e+00 2.706238e+00 4.877882e+00 3.112192e+00 -1.967821e+00 -3.208238e+00 -3.952967e+00 -1.416968e+00 -1.535480e+00 -1.967916e+00 -1.048827e+00 -1.348415e+00 -9.621776e-01 6.035559e-01 3.379584e-01 2.956450e-01 -1.369844e-01 1.663696e+00 1.839387e+00 1.890112e+00 1.090373e-01 -4.330276e-01 1.385403e+00 -8.782241e-01
<VARIANCE> 25
 1.753554e+01 1.247271e+01 1.010096e+01 1.093453e+01 1.526693e+01 1.785404e+01 4.000852e+01 4.477164e+01 4.310258e+01 1.900549e+01 3.116354e+01 2.256424e+01 6.228871e-01 1.035145e+00 3.745206e+00 2.242167e+00 1.525869e+00 2.911119e+00 5.252177e+00 3.024098e+00 2.166213e+00 5.297944e+00 2.325732e+00 1.672643e+00 5.622264e-01
<GCONST> 9.157007e+01
<TRANSP> 5
 0.000000e+00 1.000000e+00 0.000000e+00 0.000000e+00 0.000000e+00
 0.000000e+00 9.138775e-01 8.612248e-02 0.000000e+00 0.000000e+00
 0.000000e+00 0.000000e+00 8.494164e-01 1.505836e-01 0.000000e+00
 0.000000e+00 0.000000e+00 0.000000e+00 6.882379e-01 3.117621e-01
 0.000000e+00 0.000000e+00 0.000000e+00 0.000000e+00 0.000000e+00
<ENDHMM>
~h "ay"
<BEGINHMM>
<NUMSTATES> 5
<STATE> 2
<MEAN> 25
 7.994267e+00 -2.291372e+00 4.991625e+00 3.090544e+00 -6.710388e+00 -3.947741e+00 -4.907304e+00 1.474257e+00 -5.292059e+00 -3.316177e+00 -3.492962e+00 -3.199263e+00 7.106153e-01 -4.460117e-01 1.655855e-01 -7.150598e-02 -5.022612e-01 2.411538e-02 -5.807711e-01 9.296873e-01 -1.094627e-01 -4.209700e-01 -9.350821e-01 -6.536750e-01 7.401872e-01
<VARIANCE> 25
 1.684170e+01 4.258090e+01 5.662260e+01 2.951380e+01 6.090492e+01 4.072989e+01 2.640580e+01 7.359049e+01 7.225971e+01 2.862864e+01 2.861118e+01 2.740858e+01 2.081656e+00 3.073471e+00 5.997390e+00 2.191524e+00 2.645032e+00 4.288550e+00 2.805019e+00 8.017706e+00 7.739022e+00 3.161659e+00 2.038743e+00 1.997281e+00 1.476396e+00
<GCONST> 1.045958e+02
<STATE> 3
<MEAN> 25
 8.491133e+00 -5.682017e+00 2.258276e+00 -1.441895e+00 -1.077637e+01 -3.204576e+00 -2.566896e+00 4.669747e+00 -7.632445e-01 -2.638155e+00 -4.080193e+00 -6.748345e+00 -3.343710e-01 7.436205e-01 2.241071e-01 -4.039639e-01 6.716898e-01 6.511982e-01 -1.564992e-01 -1.279493e+00 -5.507038e-01 3.918024e-01 6.244865e-02 -7.877401e-01 -8.882802e-01
<VARIANCE> 25
 1.118834e+01 2.097078e+01 8.325780e+01 2.335270e+01 6.085913e+01 3.727173e+01 4.322093e+01 3.881862e+01 9.519421e+01 2.004909e+01 4.085349e+01 3.540036e+01 1.525333e+00 2.167768e+00 5.000492e+00 1.850929e+00 3.721785e+00 3.469049e+00 1.844511e+00 3.987156e+00 4.403566e+00 1.211532e+00 3.464164e+00 3.510856e+00 1.504129e+00
<GCONST> 1.015158e+02
<STATE> 4
<MEAN> 25
 1.073734e+01 -4.654274e+00 -1.398627e+00 -2.331794e+00 -4.035740e+00 3.408915e-01 -3.618659e+00 4.454324e+00 -2.848834e+00 -5.414703e+00 -2.908381e+00 -9.886792e+00 -4.415476e-02 3.034698e-01 5.894724e-01 1.075366e-01 -2.073403e-01 -4.700212e-01 8.135769e-02 -2.412784e-01 -5.497928e-01 2.336352e-01 2.354508e-01 3.517411e-01 -3.203339e-01
<VARIANCE> 25
 5.684973e+00 2.391703e+01 7.836832e+01 1.769710e+01 7.193587e+01 5.589861e+01 3.058674e+01 5.063481e+01 6.806885e+01 2.785877e+01 2.780875e+01 3.161974e+01 2.737963e-01 8.606362e-01 1.529297e+00 1.694646e+00 2.385265e+00 2.256323e+00 1.753244e+00 2.196673e+00 1.784299e+00 1.330865e+00 1.586254e+00 2.168360e+00 2.437177e-01
<GCONST> 9.129221e+01
<TRANSP> 5
 0.000000e+00 1.000000e+00 0.000000e+00 0.000000e+00 0.000000e+00
 0.000000e+00 7.248530e-01 2.751471e-01 0.000000e+00 0.000000e+00
 0.000000e+00 0.000000e+00 6.624363e-01 3.375637e-01 0.000000e+00
 0.000000e+00 0.000000e+00 0.000000e+00 9.135181e-01 8.648198e-02
 0.000000e+00 0.000000e+00 0.000000e+00 0.000000e+00 0.000000e+00
<ENDHMM>
~h "ch"
<BEGINHMM>
<NUMSTATES> 5
<STATE> 2
<MEAN> 25
 -3.638443e+00 -1.870767e+00 -7.457390e-01 3.835964e+00 2.699798e+00 1.262048e+00 3.883715e+00 2.406019e+00 5.293454e+00 2.608815e+00 3.483749e-01 3.365592e+00 -2.349722e-01 -1.224445e-01 1.811867e-01 -3.309256e-01 5.839491e-02 3.544622e-01 -1.803134e-01 -1.842177e-01 2.507499e-01 1.450798e-01 2.776705e-01 -9.194014e-02 -9.260249e-02
<VARIANCE> 25
 4.645889e+00 6.893493e+00 1.117334e+01 8.193698e+00 9.381138e+00 1.327258e+01 1.276392e+01 1.915774e+01 9.014165e+00 1.306354e+01 1.606213e+01 1.316028e+01 6.820297e-01 1.006102e+00 8.900105e-01 1.526601e+00 1.494268e+00 2.249627e+00 1.715821e+00 1.566445e+00 1.510325e+00 2.164438e+00 1.380009e+00 1.574477e+00 1.179238e+00
<GCONST> 7.863280e+01
<STATE> 3
<MEAN> 25
 -9.927228e+00 -3.578298e+00 2.583585e+00 -3.125781e+00 9.629607e-01 7.431384e+00 -8.991436e-01 -6.465634e-01 6.452606e+00 -1.581632e+00 3.524736e+00 4.524270e+00 -3.645301e+00 8.012860e-01 1.830043e+00 -1.600368e+00 -1.154393e+00 9.386564e-01 -3.641271e-01 -2.066258e+00 7.515432e-01 -9.728228e-01 5.944916e-01 -1.806142e-01 2.636994e+00
<VARIANCE> 25
 3.804338e+01 2.625553e+01 1.624794e+01 1.847664e+01 2.230722e+01 1.939543e+01 3.825806e+01 3.213040e+01 1.535526e+01 1.709248e+01 1.051527e+01 3.289203e+00 2.747578e+00 2.647197e+00 1.302909e+00 1.769514e+00 2.258290e+00 3.008555e+00 5.553846e+00 2.140410e+00 1.290942e+00 2.661319e+00 8.822322e-01 1.439265e+00 3.618348e+00
<GCONST> 9.082581e+01
<STATE> 4
<MEAN> 25
 -1.554043e+01 6.090261e-01 9.440774e+00 -2.399851e+00 -5.380639e+00 1.864458e-01 5.459734e+00 -7.797106e+00 4.444232e+00 -3.096702e+00 1.759154e+00 -1.817091e+00 1.762640e+00 4.268720e-02 2.500631e-02 6.955550e-01 -6.984478e-01 -2.069976e+00 -5.814039e-01 -1.444192e-01 -1.089885e+00 -4.354076e-01 -4.916115e-01 -3.701288e-01 5.577289e-01
<VARIANCE> 25
 6.836643e+01 1.173074e+01 1.279131e+01 2.234348e+01 1.957042e+01 5.105348e+01 3.065477e+01 2.218154e+01 1.747709e+01 1.067750e+01 2.015548e+01 1.284408e+01 9.019394e+00 1.533216e+00 2.261448e+00 2.523091e+00 2.444273e+00 2.956347e+00 7.456015e+00 3.368465e+00 1.472677e+00 1.723405e+00 1.286441e+00 1.826192e+00 2.432586e+00
<GCONST> 9.474752e+01
<TRANSP> 5
 0.000000e+00 1.000000e+00 0.000000e+00 0.000000e+00 0.000000e+00
 0.000000e+00 8.993295e-01 1.006705e-01 0.000000e+00 0.000000e+00
 0.000000e+00 0.000000e+00 7.072133e-01 2.927867e-01 0.000000e+00
 0.000000e+00 0.000000e+00 0.000000e+00 8.866225e-01 1.133775e-01
 0.000000e+00 0.000000e+00 0.000000e+00 0.000000e+00 0.000000e+00
<ENDHMM>
~h "dh"
<BEGINHMM>
<NUMSTATES> 5
<STATE> 2
<MEAN> 25
 -9.291044e-01 5.660498e+00 4.062728e+00 4.353220e+00 -1.127857e+00 -4.906400e+00 -1.897023e+00 -2.302917e+00 -2.937083e+00 -6.096307e-01 -1.167122e+00 -1.803123e+00 1.509900e+00 -1.546395e+00 -2.072911e-01 -1.262480e+00 -1.953917e+00 -1.150304e+00 -1.360628e+00 1.199327e+00 2.990195e-01 -1.452381e-01 5.407891e-01 -1.002202e+00 1.654788e+00
<VARIANCE> 25
 2.515136e+01 2.363833e+01 2.140876e+01 1.571014e+01 3.664930e+01 3.079607e+01 4.991588e+01 2.420223e+01 1.054889e+01 2.270095e+01 2.259466e+01 2.072314e+01 3.170832e+00 2.547570e+00 2.753115e+00 2.250433e+00 2.438105e+00 3.291554e+00 2.488756e+00 4.070684e+00 1.493789e+00 3.080419e+00 2.281597e+00 2.237868e+00 1.404994e+00
<GCONST> 9.571375e+01
<STATE> 3
<MEAN> 25
 5.054027e+00 -1.473060e+00 5.429371e+00 2.675955e+00 -7.708573e+00 -8.368136e+00 -4.402653e+00 3.650213e+00 1.086614e+00 -4.584872e+00 1.706316e-01 -1.037756e+00 9.058195e-01 -7.644182e-01 -1.030192e+00 4.607965e-01 -4.104074e-01 -4.590035e-02 -5.832421e-01 4.208941e-01 6.886467e-01 -9.637302e-01 1.591684e-01 4.270951e-01 9.970248e-02
<VARIANCE> 25
 3.675300e+00 2.518102e+01 3.839500e+01 2.443229e+01 1.534056e+01 3.959976e+01 4.570345e+01 2.947465e+01 1.053649e+01 1.724328e+01 6.342624e+01 5.174478e+01 3.412128e-01 9.702553e-01 1.905547e+00 3.332127e+00 1.658651e+00 6.978771e-01 7.077206e-01 8.955711e-01 8.731058e-01 2.618801e+00 9.437729e-01 3.207759e+00 5.506990e-01
<GCONST> 8.600336e+01
<STATE> 4
<MEAN> 25
 3.342452e+00 -1.104026e+00 8.013430e-01 4.576162e+00 -6.283209e+00 -4.994423e+00 -3.433109e+00 1.881650e+00 2.546471e+00 -1.550402e+00 -2.189835e+00 -2.901182e+00 5.274420e-01 -2.048090e-01 1.383033e-03 1.089792e+00 -7.540330e-01 -5.385774e-01 -6.195878e-01 -1.109843e-01 -7.358274e-02 -6.917492e-02 6.568028e-01 5.835530e-01 -4.706684e-01
<VARIANCE> 25
 3.445912e+01 2.653449e+01 1.370843e+01 4.426377e+01 4.778963e+01 5.230151e+01 4.727052e+01 2.474549e+01 8.150413e+00 2.476127e+01 3.593605e+01 4.402266e+01 5.307026e+00 2.564449e+00 2.152721e+00 3.000360e+00 3.707861e+00 5.531285e+00 4.619537e+00 2.287921e+00 8.078114e-01 2.889915e+00 1.464104e+00 1.728461e+00 3.995352e+00
<GCONST> 9.975194e+01
<TRANSP> 5
 0.000000e+00 1.000000e+00 0.000000e+00 0.000000e+00 0.000000e+00
 0.000000e+00 7.609760e-01 2.390240e-01 0.000000e+00 0.000000e+00
 0.000000e+00 0.000000e+00 6.336286e-01 3.663714e-01 0.000000e+00
 0.000000e+00 0.000000e+00 0.000000e+00 6.406551e-01 3.593449e-01
 0.000000e+00 0.000000e+00 0.000000e+00 0.000000e+00 0.000000e+00
<ENDHMM>
~h "eh"
<BEGINHMM>
<NUMSTATES> 5
<STATE> 2
<MEAN> 25
 4.436372e+00 -3.696641e+00 2.494554e+00 -8.232314e-01 -5.696100e+00 -5.536025e+00 1.283535e+00 4.556593e+00 -3.930982e+00 -1.073259e-01 -2.822146e+00 -4.342788e+00 1.398302e+00 -1.092782e+00 -1.308437e-01 -6.307545e-01 -9.420958e-01 -6.171771e-01 -6.459531e-01 9.075639e-01 -4.838482e-01 -1.970468e-01 -3.287654e-01 -1.363953e+00 1.580599e+00
<VARIANCE> 25
 2.971966e+01 2.246916e+01 3.731697e+01 2.510194e+01 4.154033e+01 3.425410e+01 6.383572e+01 4.192186e+01 3.127268e+01 2.559845e+01 1.852633e+01 3.313428e+01 2.610615e+00 3.122118e+00 3.101957e+00 2.051769e+00 3.875017e+00 3.392625e+00 4.617136e+00 3.912741e+00 4.073833e+00 2.489750e+00 2.094230e+00 4.073326e+00 2.152377e+00
<GCONST> 1.021969e+02
<STATE> 3
<MEAN> 25
 6.737197e+00 -4.861076e+00 2.991163e+00 -3.282387e+00 -8.147583e+00 -6.503973e+00 -1.377768e+00 5.174818e+00 -4.438471e+00 -2.266434e+00 -4.207983e+00 -7.541969e+00 9.511056e-03 4.052558e-01 -2.494063e-01 2.548158e-01 7.358658e-01 2.000086e-01 -2.032801e-01 -5.566905e-01 8.992320e-02 -2.188524e-02 -3.003950e-01 -5.066706e-02 -7.927196e-01
<VARIANCE> 25
 9.500978e+00 2.160647e+01 3.404851e+01 1.873051e+01 3.848633e+01 3.428256e+01 5.336061e+01 3.089663e+01 4.010539e+01 3.219730e+01 2.526751e+01 2.817865e+01 5.252041e-01 1.372046e+00 1.609174e+00 1.801660e+00 2.416461e+00 2.241003e+00 2.176192e+00 2.173352e+00 2.032353e+00 1.900286e+00 1.955869e+00 1.824024e+00 2.422469e+00
<GCONST> 9.354109e+01
<STATE> 4
<MEAN> 25
 4.605726e+00 3.147642e-01 -1.300461e+00 -4.719613e-02 2.711622e-02 -2.108484e+00 -3.304959e+00 -3.653846e-01 -5.232353e-01 -9.533486e-03 -3.530189e+00 -6.747283e+00 -7.116177e-01 1.289402e+00 3.038604e-01 4.484777e-01 1.022860e+00 1.399398e+00 1.204123e-01 -1.731866e+00 -4.196139e-01 1.273116e-01 3.735631e-02 6.799402e-01 -1.011610e+00
<VARIANCE> 25
 4.189139e+01 3.218306e+01 4.133905e+01 3.687590e+01 3.490205e+01 4.069334e+01 5.010817e+01 3.501797e+01 3.150649e+01 2.459590e+01 3.572634e+01 3.992540e+01 3.105856e+00 1.606323e+00 2.421281e+00 4.936558e+00 2.522289e+00 3.189550e+00 2.502551e+00 4.274418e+00 4.189708e+00 3.200147e+00 2.911277e+00 2.620148e+00 3.053406e+00
<GCONST> 1.034143e+02
<TRANSP> 5
 0.000000e+00 1.000000e+00 0.000000e+00 0.000000e+00 0.000000e+00
 0.000000e+00 7.073241e-01 2.926759e-01 0.000000e+00 0.000000e+00
 0.000000e+00 0.000000e+00 8.422271e-01 1.577729e-01 0.000000e+00
 0.000000e+00 0.000000e+00 0.000000e+00 6.399475e-01 3.600524e-01
 0.000000e+00 0.000000e+00 0.000000e+00 0.000000e+00 0.000000e+00
<ENDHMM>
~h "er"
<BEGINHMM>
<NUMSTATES> 5
<STATE> 2
<MEAN> 25
 1.158603e+01 -3.721045e-01 -3.898920e+00 8.349526e+00 -1.244466e+00 -1.003937e+01 -1.513428e+01 4.997036e+00 1.367936e+00 -7.789093e+00 1.387037e+00 5.672036e+00 1.774674e-01 -1.721011e-02 -5.211990e-01 2.675929e-01 3.327375e-01 -1.352440e-01 -6.690531e-01 4.075906e-01 4.143110e-01 -1.645052e-01 -3.266112e-01 6.859769e-02 -2.431476e-01
<VARIANCE> 25
 1.155671e+01 1.441927e+01 4.127079e+01 4.669332e+01 4.343002e+01 5.084733e+01 4.958349e+01 4.918523e+01 4.118044e+01 2.851590e+01 3.715121e+01 1.621210e+01 5.990630e-01 5.966805e-01 1.310593e+00 1.050293e+00 1.580311e+00 1.709789e+00 2.380163e+00 1.698366e+00 1.847276e+00 1.470194e+00 1.328821e+00 1.166216e+00 3.016966e-01
<GCONST> 8.951536e+01
<STATE> 3
<MEAN> 25
 5.416791e+00 -7.781861e-01 -1.711436e+00 8.218661e+00 -9.048843e-01 -8.102403e+00 -7.518985e+00 4.817659e+00 1.369162e+00 -6.971348e+00 -3.830089e+00 3.823686e+00 -1.314875e+00 -2.919422e-01 5.580710e-01 -9.225069e-01 -6.002692e-02 1.004812e+00 1.984151e+00 -4.936816e-01 -4.294974e-01 6.347096e-01 -1.621733e-01 -5.610464e-01 -6.842620e-01
<VARIANCE> 25
 2.851295e+01 1.878625e+01 2.332294e+01 3.529330e+01 3.113629e+01 5.587193e+01 6.975652e+01 4.171239e+01 4.189582e+01 2.689047e+01 3.372196e+01 2.646247e+01 1.335829e+00 1.064827e+00 2.127787e+00 2.387981e+00 3.177749e+00 4.123831e+00 3.580172e+00 3.389909e+00 2.785714e+00 2.518834e+00 2.889118e+00 1.948411e+00 8.730004e-01
<GCONST> 9.878913e+01
<STATE> 4
<MEAN> 25
 -1.184651e+00 -3.256631e+00 -4.098517e+00 -1.962337e+00 5.160177e-01 5.035569e-01 -7.338981e-01 5.518287e-01 2.443204e+00 1.416100e+00 -1.805522e+00 5.712549e-01 -1.317061e-01 2.329818e-02 -1.231312e-02 -1.776231e-01 6.952097e-02 2.321963e-01 1.590900e-01 -5.498366e-02 8.689524e-02 3.165224e-01 1.739456e-01 -4.440270e-02 -7.694761e-02
<VARIANCE> 25
 7.108081e+00 5.177846e+00 1.358968e+01 1.082826e+01 1.339325e+01 1.907214e+01 1.597545e+01 1.712103e+01 1.973118e+01 1.921035e+01 1.376932e+01 1.517356e+01 4.904884e-01 5.047379e-01 8.968959e-01 1.163951e+00 1.113348e+00 1.552313e+00 1.873104e+00 1.708760e+00 1.703625e+00 1.695107e+00 1.623079e+00 1.742682e+00 1.986653e-01
<GCONST> 7.781953e+01
<TRANSP> 5
 0.000000e+00 1.000000e+00 0.000000e+00 0.000000e+00 0.000000e+00
 0.000000e+00 9.099522e-01 9.004775e-02 0.000000e+00 0.000000e+00
 0.000000e+00 0.000000e+00 8.535403e-01 1.464597e-01 0.000000e+00
 0.000000e+00 0.000000e+00 0.000000e+00 9.221001e-01 7.789994e-02
 0.000000e+00 0.000000e+00 0.000000e+00 0.000000e+00 0.000000e+00
<ENDHMM>
~h "ey"
<BEGINHMM>
<NUMSTATES> 5
<STATE> 2
<MEAN> 25
 3.249914e+00 -4.273370e-01 1.148934e+01 -2.346249e+00 -1.389364e+01 -3.825019e+00 -1.875525e+00 2.476465e+00 -8.312243e+00 1.945531e+00 2.785298e+00 -2.299662e+00 1.561226e-01 2.715473e-01 1.854086e+00 -9.820001e-01 -1.631503e+00 5.724717e-01 -8.098126e-01 -9.026841e-01 -1.636993e+00 4.957027e-01 1.603705e-02 -9.125028e-01 1.150467e+00
<VARIANCE> 25
 1.324072e+01 2.119705e+01 3.447091e+01 4.405418e+01 3.607707e+01 3.773794e+01 5.113982e+01 2.809702e+01 4.039478e+01 2.210996e+01 3.344768e+01 2.352759e+01 1.355058e+00 1.526994e+00 2.253075e+00 2.300682e+00 3.827569e+00 2.167403e+00 4.031402e+00 2.151663e+00 4.068010e+00 1.570834e+00 2.178450e+00 1.966722e+00 3.733339e+00
<GCONST> 9.813486e+01
<STATE> 3
<MEAN> 25
 2.454894e+00 2.445581e+00 1.613394e+01 -6.477280e+00 -1.473528e+01 3.124937e+00 -4.587573e+00 -4.745866e+00 -1.026450e+01 2.198546e+00 -4.830320e-01 -5.696778e+00 -3.097266e-02 2.883884e-01 3.565196e-01 1.881639e-02 2.793715e-01 1.474159e-01 -2.109751e-01 -6.473802e-01 -5.454977e-02 -2.415708e-01 -4.541695e-02 -3.215521e-01 -3.942003e-01
<VARIANCE> 25
 5.346435e+00 1.235651e+01 1.757835e+01 2.922516e+01 1.189306e+01 3.692056e+01 6.587099e+01 2.990561e+01 2.320469e+01 1.651609e+01 3.379303e+01 1.986683e+01 1.336857e-01 3.332917e-01 4.155734e-01 5.262598e-01 5.352684e-01 8.701556e-01 7.158461e-01 1.020483e+00 9.577993e-01 9.518514e-01 7.706645e-01 5.404577e-01 2.683448e-01
<GCONST> 7.451478e+01
<STATE> 4
<MEAN> 25
 2.597010e+00 2.086302e+00 1.120435e+01 1.244751e+00 -7.323346e+00 -1.901970e+00 -4.135741e-02 -3.069041e+00 -7.198774e+00 -2.804094e+00 2.523918e-01 -6.386227e+00 -2.562587e-01 -8.031859e-02 -1.822686e+00 1.125543e+00 1.954754e+00 -2.942501e-01 3.970448e-01 4.250543e-01 1.156166e+00 -1.937551e-01 -4.925576e-01 7.076365e-01 -1.269540e+00
<VARIANCE> 25
 1.085610e+01 3.079952e+01 6.365192e+01 3.407405e+01 5.233082e+01 4.428818e+01 6.525478e+01 8.000039e+01 4.351548e+01 2.819214e+01 3.372919e+01 2.536941e+01 2.375834e+00 1.539539e+00 2.450915e+00 3.874771e+00 3.443419e+00 4.630204e+00 4.705863e+00 3.180699e+00 3.205984e+00 2.718701e+00 2.841123e+00 2.189622e+00 1.374310e+00
<GCONST> 1.029476e+02
<TRANSP> 5
 0.000000e+00 1.000000e+00 0.000000e+00 0.000000e+00 0.000000e+00
 0.000000e+00 7.315153e-01 2.684847e-01 0.000000e+00 0.000000e+00
 0.000000e+00 0.000000e+00 8.871394e-01 1.128605e-01 0.000000e+00
 0.000000e+00 0.000000e+00 0.000000e+00 8.087383e-01 1.912617e-01
 0.000000e+00 0.000000e+00 0.000000e+00 0.000000e+00 0.000000e+00
<ENDHMM>
~h "hh"
<BEGINHMM>
<NUMSTATES> 5
<STATE> 2
<MEAN> 25
 -2.378911e+00 -4.903669e+00 -2.759225e+00 -8.655037e-01 3.177768e+00 4.757693e+00 2.390965e+00 -2.076761e+00 1.536193e-01 -8.008296e-01 9.816968e-03 -2.227814e+00 -2.027602e-01 -5.594324e-01 4.577342e-01 3.287227e-01 2.374599e-01 5.166824e-02 2.837208e-01 -6.482835e-01 -3.795637e-01 -6.219787e-01 2.188732e-01 1.907996e-01 7.175857e-01
<VARIANCE> 25
 3.575800e+01 5.027901e+01 3.042640e+01 2.512917e+01 3.235031e+01 2.941257e+01 3.656498e+01 1.417792e+01 2.485546e+01 2.325726e+01 3.314576e+01 3.545844e+01 2.258311e+00 3.696208e+00 1.984633e+00 1.447015e+00 1.885077e+00 2.704850e+00 3.571976e+00 2.221867e+00 2.181910e+00 1.755974e+00 2.007341e+00 3.312105e+00 1.547848e+00
<GCONST> 9.717024e+01
<STATE> 3
<MEAN> 25
 -2.769476e+00 -5.604497e+00 -3.764421e+00 -9.194859e-01 4.599494e+00 2.878530e+00 2.240544e-01 -5.525319e+00 -2.956525e+00 1.888103e+00 5.519606e+00 4.625795e+00 1.681985e-01 1.530536e-01 2.176492e-02 3.524533e-01 3.082847e-02 1.244516e-01 4.394773e-03 3.290439e-01 -3.125072e-01 1.362640e-01 -7.689422e-02 -1.228193e-01 1.356079e-01
<VARIANCE> 25
 2.454549e+01 2.470050e+01 4.688540e+01 2.281806e+01 4.243155e+01 2.937982e+01 2.043661e+01 2.968120e+01 6.396333e+01 2.500121e+01 4.228010e+01 7.034727e+01 1.490200e+00 1.829756e+00 1.355943e+00 1.528485e+00 1.117114e+00 1.384594e+00 1.948461e+00 2.194224e+00 2.603177e+00 1.861637e+00 1.540097e+00 1.464752e+00 1.002936e+00
<GCONST> 9.425610e+01
<STATE> 4
<MEAN> 25
 -4.112084e+00 -3.689810e-01 6.254440e-02 3.324618e+00 2.385115e+00 2.863394e+00 3.104927e+00 6.163994e-01 3.893275e+00 1.110922e+00 2.565169e+00 3.661476e+00 1.737358e-01 3.810196e-02 -1.392999e-01 -1.026952e-01 -1.124790e-01 1.355042e-02 1.304247e-01 1.584565e-01 -1.147346e-01 -1.099418e-01 -1.515976e-01 -6.256115e-02 1.593306e-02
<VARIANCE> 25
 3.864752e+00 3.415205e+00 5.851003e+00 6.808394e+00 9.385880e+00 8.682896e+00 1.146212e+01 1.198564e+01 1.255625e+01 1.275952e+01 1.389191e+01 1.593667e+01 6.147093e-01 5.172351e-01 6.155037e-01 7.235932e-01 9.312798e-01 1.099645e+00 1.766366e+00 1.466252e+00 1.211898e+00 1.576141e+00 1.703767e+00 1.413447e+00 2.324228e-01
<GCONST> 7.109914e+01
<TRANSP> 5
 0.000000e+00 1.000000e+00 0.000000e+00 0.000000e+00 0.000000e+00
 0.000000e+00 5.867656e-01 4.132344e-01 0.000000e+00 0.000000e+00
 0.000000e+00 0.000000e+00 5.869303e-01 4.130697e-01 0.000000e+00
 0.000000e+00 0.000000e+00 0.000000e+00 9.116038e-01 8.839621e-02
 0.000000e+00 0.000000e+00 0.000000e+00 0.000000e+00 0.000000e+00
<ENDHMM>
~h "ih"
<BEGINHMM>
<NUMSTATES> 5
<STATE> 2
<MEAN> 25
 4.152499e+00 2.298804e-01 8.076407e+00 -3.645372e-01 -1.006874e+01 -6.388174e+00 -1.953574e+00 -1.230612e+00 -1.065676e+01 -9.474220e-01 -3.806633e-02 -4.546004e+00 -1.854230e-01 2.963525e-01 1.045283e-02 3.754743e-01 4.448279e-01 2.375875e-01 1.271372e-01 -5.995782e-01 -4.841625e-02 1.833245e-02 -3.776576e-02 -1.923754e-01 -7.408341e-01
<VARIANCE> 25
 2.406411e+01 2.652849e+01 3.827097e+01 3.931189e+01 5.689808e+01 8.494302e+01 5.057647e+01 6.395858e+01 6.899259e+01 3.094641e+01 2.711130e+01 3.098205e+01 2.795420e+00 2.585848e+00 4.796982e+00 3.333352e+00 8.223432e+00 6.429143e+00 4.502338e+00 4.809511e+00 8.674005e+00 2.529292e+00 2.854972e+00 1.985527e+00 6.114027e+00
<GCONST> 1.091135e+02
<STATE> 3
<MEAN> 25
 -6.755679e-01 8.100976e-01 2.465365e+00 2.297733e+00 -3.228196e-01 -3.245644e+00 9.445601e-01 -8.445930e-01 -5.175145e-01 7.330123e-02 -1.131903e+00 -5.920467e-01 -8.041928e-01 -5.754766e-01 -8.668179e-01 -2.463996e-01 1.104601e+00 7.502542e-01 5.662774e-01 7.452854e-01 1.459030e+00 4.103127e-01 1.790107e-01 4.480984e-01 -6.519026e-01
<VARIANCE> 25
 3.333204e+01 3.661225e+01 3.204541e+01 2.745874e+01 3.249168e+01 4.503059e+01 5.685434e+01 5.389288e+01 3.607680e+01 2.513907e+01 2.386572e+01 2.995433e+01 2.583925e+00 1.825432e+00 3.746797e+00 2.624263e+00 3.063213e+00 5.413769e+00 2.584621e+00 4.084730e+00 4.692397e+00 3.173287e+00 2.019907e+00 1.991509e+00 3.785815e+00
<GCONST> 1.029576e+02
<STATE> 4
<MEAN> 25
 -4.355109e-01 -2.204170e+00 -1.333642e-01 -7.182501e-01 -2.773532e-01 -1.989269e+00 -2.036931e-01 1.739900e+00 1.845021e+00 1.917559e+00 -1.328903e+00 -6.322167e-01 5.699019e-02 -6.115433e-04 -3.942171e-01 -4.407759e-02 3.425106e-01 4.981544e-01 -1.727220e-01 -2.655759e-01 2.534511e-01 2.394453e-01 1.862938e-01 1.115876e-01 -5.735173e-01
<VARIANCE> 25
 5.376373e+01 3.040207e+01 2.745992e+01 2.369344e+01 2.940806e+01 4.034203e+01 8.702220e+01 3.482294e+01 3.890183e+01 2.106266e+01 3.491035e+01 5.528690e+01 9.611564e-01 1.411950e+00 1.202363e+00 1.831191e+00 1.845943e+00 1.869053e+00 1.072014e+00 2.077505e+00 2.266464e+00 1.443153e+00 1.344557e+00 1.654945e+00 9.595442e-01
<GCONST> 9.427026e+01
<TRANSP> 5
 0.000000e+00 1.000000e+00 0.000000e+00 0.000000e+00 0.000000e+00
 0.000000e+00 8.139118e-01 1.860882e-01 0.000000e+00 0.000000e+00
 0.000000e+00 0.000000e+00 5.452843e-01 4.547157e-01 0.000000e+00
 0.000000e+00 0.000000e+00 0.000000e+00 7.095998e-01 2.904002e-01
 0.000000e+00 0.000000e+00 0.000000e+00 0.000000e+00 0.000000e+00
<ENDHMM>
~h "iy"
<BEGINHMM>
<NUMSTATES> 5
<STATE> 2
<MEAN> 25
 1.837223e+00 4.390183e+00 2.193939e+01 -4.341312e+00 -1.156671e+01 1.686703e+00 -1.249130e+01 -7.260736e+00 -1.256758e+01 -4.070391e+00 1.126576e-01 -7.678555e+00 1.159558e-01 1.104997e-01 1.213493e-01 -6.240261e-02 -2.661152e-01 2.100465e-01 -2.301941e-01 -9.948140e-02 -1.419520e-01 2.977890e-02 9.743832e-02 -2.386039e-01 -4.875029e-02
<VARIANCE> 25
 5.517619e+00 9.500391e+00 1.611412e+01 1.833269e+01 1.901901e+01 2.366320e+01 2.596184e+01 1.856652e+01 1.800466e+01 1.730005e+01 1.271589e+01 1.233227e+01 3.830651e-01 6.845445e-01 1.156909e+00 1.393205e+00 1.565486e+00 1.700098e+00 1.328500e+00 9.022524e-01 9.159572e-01 8.571476e-01 8.146058e-01 9.749770e-01 2.177623e-01
<GCONST> 7.698057e+01
<STATE> 3
<MEAN> 25
 3.648254e+00 4.767337e+00 1.616247e+01 1.965714e+00 -1.120477e+01 -3.659479e+00 -5.992160e+00 -7.047611e+00 -1.134153e+01 -3.807801e+00 1.778394e+00 -4.480661e+00 -8.428268e-02 -6.864849e-02 -1.663586e+00 1.389147e+00 1.065563e+00 -7.029517e-01 8.273560e-01 8.695185e-01 1.418338e+00 -1.271675e-01 -2.410545e-01 1.090190e+00 -6.907689e-01
<VARIANCE> 25
 1.102786e+01 3.353083e+01 2.464202e+01 3.445520e+01 3.004311e+01 3.445506e+01 2.768610e+01 3.675675e+01 3.043296e+01 2.372966e+01 2.761992e+01 2.518324e+01 1.192733e+00 1.786662e+00 1.774479e+00 2.017291e+00 3.790788e+00 2.488249e+00 3.748177e+00 2.447705e+00 3.089979e+00 2.498338e+00 2.181540e+00 2.725619e+00 8.799312e-01
<GCONST> 9.578947e+01
<STATE> 4
<MEAN> 25
 2.015879e-01 2.861381e+00 6.254224e+00 5.980728e+00 -3.793292e+00 -2.285481e+00 -8.033984e-01 -7.360457e-01 -1.242260e+00 -3.529139e+00 2.199485e-01 -6.796143e-02 -8.271726e-01 -7.028955e-01 -2.042217e+00 4.849884e-01 1.791790e+00 3.818298e-01 9.183087e-01 1.203810e+00 1.999732e+00 1.796781e-01 -2.624304e-01 6.074205e-01 -7.108033e-01
<VARIANCE> 25
 4.050741e+01 2.881396e+01 3.383337e+01 2.804738e+01 5.434393e+01 4.323854e+01 2.687323e+01 4.503279e+01 3.940800e+01 2.945537e+01 2.554327e+01 1.691386e+01 2.806160e+00 2.474488e+00 3.245765e+00 1.520525e+00 4.140902e+00 4.382080e+00 3.349272e+00 3.315053e+00 3.866672e+00 3.218519e+00 3.240270e+00 3.315681e+00 1.593349e+00
<GCONST> 1.020519e+02
<TRANSP> 5
 0.000000e+00 1.000000e+00 0.000000e+00 0.000000e+00 0.000000e+00
 0.000000e+00 8.998939e-01 1.001061e-01 0.000000e+00 0.000000e+00
 0.000000e+00 0.000000e+00 6.697639e-01 3.302361e-01 0.000000e+00
 0.000000e+00 0.000000e+00 0.000000e+00 6.107859e-01 3.892141e-01
 0.000000e+00 0.000000e+00 0.000000e+00 0.000000e+00 0.000000e+00
<ENDHMM>
~h "jh"
<BEGINHMM>
<NUMSTATES> 5
<STATE> 2
<MEAN> 25
 2.587828e+00 -2.021235e+00 1.007480e+00 2.309628e+00 -4.790676e+00 -6.946281e+00 -1.571452e+00 5.823175e-03 -4.971805e+00 -8.852640e-01 3.127020e-01 3.376147e-01 7.642735e-01 5.281339e-01 1.810704e+00 -1.140329e+00 -1.693754e+00 -2.017372e+00 -1.013015e+00 -5.783600e-01 -2.465418e+00 3.821546e-01 -9.686019e-02 -1.146430e+00 2.997158e+00
<VARIANCE> 25
 3.006501e+01 1.525805e+01 5.276283e+01 3.243849e+01 4.251796e+01 9.002264e+01 2.841362e+01 2.878826e+01 3.603551e+01 2.849955e+01 4.500496e+00 1.526037e+01 2.382720e+00 5.938469e-01 7.392475e+00 3.981726e-01 5.024663e+00 7.365575e+00 2.017710e+00 4.622501e+00 7.961006e+00 3.046177e+00 1.174972e+00 1.436718e+00 1.517806e+01
<GCONST> 9.934389e+01
<STATE> 3
<MEAN> 25
 7.926390e+00 -3.704174e+00 1.329363e+01 -2.355385e+00 -1.158474e+01 -1.179409e+01 -9.744789e+00 2.724947e+00 -1.759902e+01 -1.715100e+00 -2.324468e+00 -1.928270e+00 -5.739684e-01 7.800521e-01 1.908469e+00 -4.508451e-01 6.993619e-01 9.646667e-01 -3.583629e-01 7.356591e-02 -1.040780e+00 -2.529849e-01 6.306581e-02 -1.119412e+00 -1.218033e+00
<VARIANCE> 25
 2.089445e+00 1.598917e+01 9.648817e+00 2.256260e+01 1.984768e+01 1.527675e+00 1.404943e+01 4.626642e+00 2.186004e+01 9.130410e+00 5.483259e+00 6.025290e+00 1.049031e+00 1.209558e+00 2.349382e+00 1.303142e+00 1.616385e+00 1.666585e+00 2.223361e+00 2.861684e+00 6.957829e+00 1.242534e+00 9.583366e-01 1.079658e+00 1.986248e+00
<GCONST> 7.829485e+01
<STATE> 4
<MEAN> 25
 -4.997562e+00 3.606906e-02 6.067573e+00 -1.750957e+00 -1.370824e+00 3.124155e+00 -1.026519e+00 -1.919002e+00 -1.447209e+00 -4.183754e+00 6.098440e-01 -1.552432e+00 -4.025053e-01 2.556494e-01 -3.076331e-01 -2.394426e-01 5.979251e-02 7.733141e-01 3.685576e-01 -3.833092e-01 7.786983e-01 -2.372560e-01 1.081387e-01 1.435474e-01 1.771813e-01
<VARIANCE> 25
 8.807741e+01 4.301144e+01 8.744019e+01 4.896059e+01 3.245440e+01 7.827300e+01 3.018018e+01 3.236272e+01 7.690006e+01 1.854314e+01 2.827584e+01 3.252029e+01 1.015227e+01 3.965294e+00 1.935103e+00 6.321047e+00 4.235326e+00 8.658063e+00 3.477686e+00 3.511452e+00 4.909230e+00 2.050842e+00 2.288020e+00 2.541763e+00 5.869610e+00
<GCONST> 1.095027e+02
<TRANSP> 5
 0.000000e+00 1.000000e+00 0.000000e+00 0.000000e+00 0.000000e+00
 0.000000e+00 5.000070e-01 4.999930e-01 0.000000e+00 0.000000e+00
 0.000000e+00 0.000000e+00 6.280467e-01 3.719533e-01 0.000000e+00
 0.000000e+00 0.000000e+00 0.000000e+00 9.400367e-01 5.996335e-02
 0.000000e+00 0.000000e+00 0.000000e+00 0.000000e+00 0.000000e+00
<ENDHMM>
~h "ng"
<BEGINHMM>
<NUMSTATES> 5
<STATE> 2
<MEAN> 25
 4.369897e+00 1.813594e+00 8.353879e-01 6.080599e+00 1.940787e+00 9.787430e-02 1.789641e+00 -7.938013e+00 -4.213292e+00 -2.506791e-01 -4.111521e+00 -4.473049e+00 -4.106269e-01 1.265069e-02 6.611262e-02 1.318833e-01 2.414997e-01 6.719645e-02 3.276418e-02 4.306612e-02 3.047176e-01 -8.662446e-02 -7.371022e-02 2.802060e-01 -4.645580e-01
<VARIANCE> 25
 1.342522e+01 1.472011e+01 3.701677e+01 1.532101e+01 1.775769e+01 1.494359e+01 2.109025e+01 2.696917e+01 3.082034e+01 1.171724e+01 1.315522e+01 1.249136e+01 3.268546e-01 4.274599e-01 7.576236e-01 5.905980e-01 7.639511e-01 8.111708e-01 9.717466e-01 1.426628e+00 1.421952e+00 7.144287e-01 9.490405e-01 6.487847e-01 1.830803e-01
<GCONST> 7.539835e+01
<STATE> 3
<MEAN> 25
 -2.677178e+00 -1.749969e-01 -6.427114e-01 5.243618e+00 4.885978e+00 1.617632e+00 3.576604e+00 -5.121506e-01 2.640507e+00 -6.897374e-01 -2.336361e+00 2.260039e+00 -1.101577e+00 -9.972008e-01 -9.743454e-01 -7.633396e-01 1.415732e-01 4.677720e-01 9.694072e-01 1.524649e+00 1.611962e+00 1.073230e+00 1.538936e+00 1.860174e+00 -7.381541e-01
<VARIANCE> 25
 9.399250e+00 1.432983e+01 1.610403e+01 1.520564e+01 1.594079e+01 1.465312e+01 1.028527e+01 3.568406e+01 2.880249e+01 1.691375e+01 2.076041e+01 2.638754e+01 6.843880e-01 9.825758e-01 1.150306e+00 9.258438e-01 1.986456e+00 1.986543e+00 1.357015e+00 2.750220e+00 3.214844e+00 2.569832e+00 1.726370e+00 1.577115e+00 2.331669e-01
<GCONST> 8.421725e+01
<STATE> 4
<MEAN> 25
 -5.275209e+00 -2.863338e+00 -2.684271e+00 3.721972e+00 5.448981e+00 1.937785e+00 6.111916e+00 3.306881e+00 7.299117e+00 3.856904e+00 3.258411e+00 6.358412e+00 -8.406291e-03 -7.130593e-03 -1.347181e-02 8.051184e-03 2.421304e-02 -6.640512e-03 -2.227447e-02 -1.472958e-02 4.133583e-02 6.976975e-02 7.482608e-02 1.642657e-02 -2.048963e-02
<VARIANCE> 25
 2.317058e+00 3.297957e+00 8.281270e+00 7.947180e+00 6.206901e+00 1.270938e+01 1.033472e+01 1.025422e+01 1.220327e+01 1.335713e+01 1.107838e+01 1.163785e+01 1.035623e-01 2.148624e-01 3.942392e-01 6.501656e-01 7.142261e-01 8.178812e-01 1.106639e+00 1.293019e+00 1.235412e+00 1.352580e+00 1.359473e+00 1.310241e+00 3.094039e-02
<GCONST> 6.342065e+01
<TRANSP> 5
 0.000000e+00 1.000000e+00 0.000000e+00 0.000000e+00 0.000000e+00
 0.000000e+00 8.976187e-01 1.023813e-01 0.000000e+00 0.000000e+00
 0.000000e+00 0.000000e+00 7.563524e-01 2.436476e-01 0.000000e+00
 0.000000e+00 0.000000e+00 0.000000e+00 9.624231e-01 3.757682e-02
 0.000000e+00 0.000000e+00 0.000000e+00 0.000000e+00 0.000000e+00
<ENDHMM>
~h "ow"
<BEGINHMM>
<NUMSTATES> 5
<STATE> 2
<MEAN> 25
 1.094100e+01 1.361191e+00 -5.886917e+00 -9.218629e+00 -5.074810e+00 7.287576e+00 -6.635590e+00 -4.440856e+00 -6.022958e+00 8.385830e-01 4.034195e+00 -2.438557e+00 1.170016e-01 4.942628e-01 8.475699e-02 -1.844800e-01 -2.130232e-01 2.365327e-01 2.133389e-01 -1.044115e-01 -5.155094e-01 -5.534731e-01 -9.332728e-02 2.886936e-01 -1.988845e-01
<VARIANCE> 25
 9.394162e+00 1.803685e+01 1.573986e+01 2.107625e+01 2.398418e+01 2.926429e+01 3.383940e+01 2.661925e+01 3.491143e+01 4.695764e+01 1.973195e+01 2.999098e+01 4.648803e-01 5.295278e-01 4.674445e-01 1.029095e+00 8.675326e-01 1.221751e+00 8.849150e-01 1.042611e+00 1.079181e+00 1.178277e+00 1.299894e+00 1.496681e+00 5.821422e-01
<GCONST> 8.223484e+01
<STATE> 3
<MEAN> 25
 8.622511e+00 5.339821e+00 -1.106785e+00 -3.411340e+00 -5.675223e+00 2.025930e+00 -2.605594e+00 -1.943396e+00 -5.718142e+00 -5.281507e+00 -3.185316e+00 -2.520430e+00 -5.795865e-01 -3.716376e-01 2.801946e-01 7.551815e-01 5.411474e-01 -4.471664e-01 1.678361e-01 5.235721e-02 4.477774e-01 3.888402e-01 -1.058229e-01 -4.468803e-02 -5.017220e-01
<VARIANCE> 25
 1.757215e+01 1.708644e+01 1.928465e+01 2.997229e+01 2.661621e+01 2.054599e+01 2.267692e+01 3.067942e+01 3.357533e+01 2.694279e+01 4.813885e+01 4.133317e+01 9.899089e-01 9.593079e-01 8.542791e-01 1.823083e+00 1.571204e+00 1.595412e+00 1.807568e+00 2.448006e+00 2.975334e+00 2.371308e+00 2.275665e+00 1.761653e+00 3.781922e-01
<GCONST> 9.043105e+01
<STATE> 4
<MEAN> 25
 -2.702136e+00 -2.930684e+00 -1.672912e+00 3.548014e-01 1.743411e+00 1.849042e+00 2.566682e+00 1.356733e+00 3.094834e+00 2.618481e+00 1.576075e+00 2.186655e+00 -1.635655e-01 -1.344828e-01 1.820436e-02 1.251109e-01 1.252909e-01 5.684698e-02 1.214410e-01 3.509806e-02 9.903403e-02 1.055929e-01 6.209513e-02 1.320243e-01 -9.571321e-02
<VARIANCE> 25
 1.089193e+01 7.000453e+00 6.530371e+00 8.042321e+00 9.852181e+00 1.388091e+01 1.697483e+01 1.467717e+01 1.699903e+01 1.460569e+01 1.571439e+01 1.747153e+01 2.898432e-01 4.245040e-01 6.715951e-01 8.211110e-01 1.216906e+00 1.461545e+00 1.528293e+00 1.419305e+00 1.562805e+00 1.658665e+00 1.672188e+00 1.468407e+00 1.450342e-01
<GCONST> 7.438773e+01
<TRANSP> 5
 0.000000e+00 1.000000e+00 0.000000e+00 0.000000e+00 0.000000e+00
 0.000000e+00 9.265822e-01 7.341778e-02 0.000000e+00 0.000000e+00
 0.000000e+00 0.000000e+00 9.220876e-01 7.791242e-02 0.000000e+00
 0.000000e+00 0.000000e+00 0.000000e+00 9.009064e-01 9.909362e-02
 0.000000e+00 0.000000e+00 0.000000e+00 0.000000e+00 0.000000e+00
<ENDHMM>
~h "oy"
<BEGINHMM>
<NUMSTATES> 5
<STATE> 2
<MEAN> 25
 1.343322e+01 -6.208439e+00 4.066320e+00 -9.704509e-01 -1.405642e+01 -4.585523e+00 -1.100131e+01 1.976872e+00 -8.460982e+00 -1.579287e+00 1.149981e+00 -9.846357e+00 -3.102120e-01 -1.691888e-01 1.100275e+00 3.047681e-01 -1.665666e-01 -7.282524e-01 1.655868e-01 3.087546e-01 -6.642339e-01 -2.920515e-01 -1.830658e-01 3.462625e-02 -5.026224e-02
<VARIANCE> 25
 1.020170e+01 3.688833e+01 1.056756e+02 1.275301e+01 2.678578e+01 6.494630e+01 4.545242e+01 4.919535e+01 5.846267e+01 2.744777e+01 3.028573e+01 2.976721e+01 8.608543e-01 2.121083e+00 4.091493e+00 1.604682e+00 2.994068e+00 4.954131e+00 3.722792e+00 5.705945e+00 4.297497e+00 2.574424e+00 3.201563e+00 3.642144e+00 4.950648e-01
<GCONST> 1.008358e+02
<STATE> 3
<MEAN> 25
 -1.130687e+00 3.871320e+00 8.911049e+00 1.855995e+00 -3.151150e+00 -1.342510e+01 2.952403e+00 -3.896121e+00 -1.105476e+01 -3.717963e+00 -3.889870e+00 -1.272586e+00 -4.514148e+00 1.515470e+00 -3.654177e+00 -2.405433e-01 3.411790e+00 3.947060e-01 3.078005e+00 4.096557e-01 3.077245e+00 -4.441239e-01 7.865407e-01 1.668877e+00 8.556226e-02
<VARIANCE> 25
 1.017697e+02 4.798498e+01 3.106208e+01 4.701272e+00 6.410217e+01 5.110125e+01 7.015599e+01 5.515292e+01 2.543508e+01 1.918122e+01 2.422758e+01 2.810190e+01 5.419736e+00 2.293243e+00 4.233279e+00 3.208777e+00 4.807692e+00 5.569063e+00 6.150751e+00 3.023638e+00 1.902011e+00 2.956046e+00 4.773520e+00 3.501833e+00 1.701733e-01
<GCONST> 1.026044e+02
<STATE> 4
<MEAN> 25
 4.335059e+00 -1.489164e+00 8.086473e+00 -4.961494e+00 -8.409566e+00 1.364142e+00 8.868969e-01 -1.571053e+00 -7.228970e+00 -2.166844e-01 6.126251e-02 -9.607450e+00 -5.106704e-01 1.261399e+00 -1.228206e+00 -1.660138e+00 1.218092e+00 1.653770e+00 3.621091e-01 -2.540999e+00 2.057747e+00 1.628359e+00 -6.149036e-01 -6.714906e-03 -7.696505e-01
<VARIANCE> 25
 1.417038e+02 2.634639e+01 6.839880e+01 1.418139e+01 4.321935e+01 6.416525e+01 8.652092e+01 2.374007e+01 6.406504e+01 1.217881e+01 9.482857e+00 6.577861e+01 8.509635e-01 8.602647e-01 3.386032e+00 2.059140e+00 3.121088e+00 1.173650e+00 8.569533e-01 3.923892e+00 4.388677e-01 2.002600e+00 2.220613e+00 2.802108e+00 2.248391e-01
<GCONST> 9.404770e+01
<TRANSP> 5
 0.000000e+00 1.000000e+00 0.000000e+00 0.000000e+00 0.000000e+00
 0.000000e+00 9.396625e-01 6.033757e-02 0.000000e+00 0.000000e+00
 0.000000e+00 0.000000e+00 6.048272e-01 3.951729e-01 0.000000e+00
 0.000000e+00 0.000000e+00 0.000000e+00 6.004133e-01 3.995867e-01
 0.000000e+00 0.000000e+00 0.000000e+00 0.000000e+00 0.000000e+00
<ENDHMM>
~h "sh"
<BEGINHMM>
<NUMSTATES> 5
<STATE> 2
<MEAN> 25
 -2.170255e+01 -6.523663e-01 1.214857e+01 -3.203612e+00 -4.668041e+00 -1.227225e+00 7.534139e+00 -2.839126e+00 4.317780e+00 -3.262131e+00 3.340183e+00 2.645525e+00 -5.937948e-01 -1.885333e-01 -1.959078e-01 -2.697898e-01 1.413415e-02 1.341308e-01 2.367832e-01 2.013605e-01 7.618113e-01 -3.033876e-01 1.010035e-01 1.840379e-01 -6.851604e-03
<VARIANCE> 25
 3.645981e+01 1.094215e+01 1.859878e+01 1.456709e+01 1.067502e+01 3.487283e+01 2.966689e+01 3.279378e+01 3.033431e+01 1.771210e+01 1.449205e+01 1.162821e+01 8.260595e+00 1.174496e+00 1.356057e+00 1.709338e+00 1.778900e+00 2.269847e+00 2.147787e+00 2.608463e+00 2.631119e+00 2.000224e+00 1.481354e+00 1.189269e+00 8.972095e-01
<GCONST> 9.010149e+01
<STATE> 3
<MEAN> 25
 -7.581012e+00 -6.033261e-01 8.124656e+00 1.329756e+00 -4.477520e+00 -4.950751e+00 4.581948e+00 -1.885181e+00 5.031137e+00 -4.895734e+00 2.696872e-01 2.282933e+00 4.322690e+00 3.262524e-01 -1.184037e+00 6.691337e-01 1.759580e-01 -5.943800e-02 -2.333236e+00 -3.916611e-01 -7.569622e-01 3.085620e-01 -1.236504e+00 -6.779354e-01 -8.500745e-01
<VARIANCE> 25
 7.529263e+01 1.281372e+01 1.774686e+01 2.087721e+01 1.437519e+01 5.946360e+01 4.064755e+01 3.353917e+01 2.730151e+01 2.636620e+01 2.212025e+01 1.758126e+01 5.008960e+00 1.352166e+00 2.026634e+00 1.297920e+00 1.282455e+00 4.900198e+00 2.526785e+00 4.115581e+00 2.004028e+00 3.658123e+00 1.938675e+00 2.551812e+00 2.222503e+00
<GCONST> 9.669399e+01
<STATE> 4
<MEAN> 25
 -3.163999e+00 -1.836560e+00 4.006067e+00 3.802872e-01 -1.952626e+00 4.071217e-01 2.137959e+00 -1.843208e+00 4.391110e+00 -2.220343e+00 1.061859e+00 7.355047e-01 2.622766e+00 3.150501e-01 -6.765026e-01 2.051946e-01 2.168248e-01 4.051274e-02 -1.073030e+00 -1.193609e+00 -1.450537e+00 1.212057e-01 -3.783021e-01 -6.456059e-01 -3.264410e-01
<VARIANCE> 25
 6.302103e+01 4.729513e+00 3.816918e+01 2.277405e+01 3.074982e+01 4.290781e+01 2.838005e+01 3.013207e+01 2.385585e+01 2.250940e+01 1.882027e+01 1.246402e+01 4.967533e+00 2.116371e+00 1.836962e+00 1.709278e+00 1.901905e+00 3.442047e+00 3.176666e+00 6.092370e+00 3.030584e+00 1.924058e+00 2.593594e+00 1.801380e+00 1.613134e+00
<GCONST> 9.621339e+01
<TRANSP> 5
 0.000000e+00 1.000000e+00 0.000000e+00 0.000000e+00 0.000000e+00
 0.000000e+00 9.210363e-01 7.896364e-02 0.000000e+00 0.000000e+00
 0.000000e+00 0.000000e+00 6.108791e-01 3.891209e-01 0.000000e+00
 0.000000e+00 0.000000e+00 0.000000e+00 4.585404e-01 5.414596e-01
 0.000000e+00 0.000000e+00 0.000000e+00 0.000000e+00 0.000000e+00
<ENDHMM>
~h "sp"
<BEGINHMM>
<NUMSTATES> 3
<STATE> 2
~s "silst"
<TRANSP> 3
 0.000000e+00 5.938759e-01 4.061241e-01
 0.000000e+00 9.464130e-01 5.358696e-02
 0.000000e+00 0.000000e+00 0.000000e+00
<ENDHMM>
~h "th"
<BEGINHMM>
<NUMSTATES> 5
<STATE> 2
<MEAN> 25
 -5.920373e+00 -1.171945e+00 -2.038899e+00 1.794775e+00 2.954670e+00 2.539509e+00 2.439634e+00 1.621596e+00 4.003454e+00 8.424385e-01 5.954540e-01 4.156183e+00 -4.480976e-01 -3.099043e-01 -3.291139e-01 -4.262916e-01 -8.688553e-02 2.250508e-01 5.454261e-01 2.613367e-02 4.965039e-01 5.657309e-01 7.322830e-01 5.567161e-01 -5.338879e-01
<VARIANCE> 25
 9.158105e+00 5.855208e+00 1.482855e+01 5.795424e+00 1.387213e+01 1.190373e+01 1.845972e+01 1.899060e+01 1.267706e+01 1.945729e+01 1.841337e+01 1.055149e+01 9.127407e-01 8.514564e-01 9.995503e-01 4.614149e-01 9.402299e-01 1.563797e+00 2.320779e+00 1.523877e+00 1.780615e+00 3.287242e+00 1.240973e+00 1.235765e+00 8.468216e-01
<GCONST> 7.877711e+01
<STATE> 3
<MEAN> 25
 -4.283804e+00 -2.084518e+00 -1.219148e+00 1.362357e+00 3.756327e+00 3.167063e+00 3.796038e+00 2.251946e+00 5.057774e+00 3.533784e+00 3.623682e+00 4.662775e+00 -3.095063e-02 -2.109280e-02 6.166243e-02 5.227951e-02 3.961737e-02 -1.283214e-03 -2.588169e-02 8.351077e-03 -5.263704e-02 4.980193e-03 -3.362093e-02 -3.110366e-02 1.648844e-02
<VARIANCE> 25
 3.653765e+00 3.114389e+00 4.070405e+00 4.653090e+00 7.547084e+00 1.080549e+01 7.793402e+00 1.245533e+01 1.142962e+01 1.207430e+01 1.151998e+01 9.990829e+00 1.373980e-01 2.102638e-01 3.680348e-01 4.224424e-01 7.673789e-01 9.796426e-01 1.010906e+00 1.526000e+00 1.396146e+00 1.515198e+00 1.464502e+00 1.122848e+00 5.770262e-02
<GCONST> 6.310646e+01
<STATE> 4
<MEAN> 25
 -6.542193e+00 -1.456163e-01 -1.838904e+00 1.132879e-01 5.684142e-01 8.927506e-01 1.517311e+00 -7.995823e-02 3.575426e+00 2.262991e-01 3.331488e-01 1.858542e+00 1.180182e-01 1.425679e-01 3.342341e-01 1.360392e-02 -2.347135e-01 -2.114412e-01 -2.588460e-01 -3.149083e-01 -2.651703e-01 -2.901526e-01 -3.837567e-01 -4.114092e-01 6.117681e-01
<VARIANCE> 25
 1.632343e+01 1.222293e+01 1.749328e+01 1.424625e+01 1.864058e+01 1.568220e+01 1.583998e+01 1.746953e+01 1.322223e+01 1.569730e+01 1.568939e+01 1.689307e+01 2.409417e+00 1.524262e+00 2.484594e+00 2.085557e+00 1.486547e+00 1.854296e+00 1.917476e+00 2.212641e+00 1.652234e+00 2.290652e+00 2.323129e+00 1.686959e+00 3.988342e+00
<GCONST> 8.846268e+01
<TRANSP> 5
 0.000000e+00 1.000000e+00 0.000000e+00 0.000000e+00 0.000000e+00
 0.000000e+00 7.995793e-01 2.004206e-01 0.000000e+00 0.000000e+00
 0.000000e+00 0.000000e+00 9.382594e-01 6.174055e-02 0.000000e+00
 0.000000e+00 0.000000e+00 0.000000e+00 9.100010e-01 8.999904e-02
 0.000000e+00 0.000000e+00 0.000000e+00 0.000000e+00 0.000000e+00
<ENDHMM>
~h "uh"
<BEGINHMM>
<NUMSTATES> 5
<STATE> 2
<MEAN> 25
 1.294133e+01 -2.154325e+00 -5.305200e+00 -2.020257e+00 -1.616620e+00 -5.259173e+00 -1.687376e+01 1.137334e+00 -4.499481e+00 -5.120689e+00 5.984786e+00 -1.577853e+00 -1.277273e-01 -3.636293e-01 9.366184e-01 1.963777e-01 -3.138497e-01 -8.624016e-01 -5.211325e-01 5.383948e-01 -1.196679e+00 -9.334844e-03 1.762387e-01 -4.513151e-01 3.013456e-01
<VARIANCE> 25
 1.503948e+01 6.028742e+01 2.200978e+01 4.603981e+01 6.099067e+01 1.690846e+02 9.354057e+01 8.246455e+01 4.220466e+01 4.610587e+01 4.151980e+01 2.127266e+01 1.988140e+00 1.207071e+00 3.780419e+00 4.343214e+00 7.077808e+00 5.510351e+00 6.916102e+00 5.477025e+00 5.503860e+00 1.997308e+00 5.192654e+00 3.349795e+00 1.860585e+00
<GCONST> 1.090728e+02
<STATE> 3
<MEAN> 25
 7.803277e+00 -3.953989e+00 8.834157e+00 -3.083999e+00 -1.159945e+01 -4.693521e+00 -6.445898e+00 3.643070e+00 -1.526041e+01 -2.814886e+00 4.263458e+00 -5.059933e+00 -1.132219e+00 1.145871e+00 1.046812e+00 2.671047e-01 2.073703e-01 9.394069e-01 2.465889e+00 -1.512903e+00 1.023979e-01 1.752639e+00 -2.386732e+00 -2.257061e-01 -1.721092e+00
<VARIANCE> 25
 1.365476e+01 6.228236e+01 6.353072e+01 4.166391e+01 9.714771e+01 6.783372e+01 3.653897e+01 4.735400e+01 3.002668e+01 5.238741e+01 2.707874e+01 2.952064e+01 1.148346e+00 2.805680e+00 2.861896e+00 6.512180e+00 7.944366e+00 8.323776e+00 3.879244e+00 7.284981e+00 6.672658e+00 5.610580e+00 3.648906e+00 3.406116e+00 3.835134e+00
<GCONST> 1.099828e+02
<STATE> 4
<MEAN> 25
 8.610350e+00 1.978186e+00 4.496195e+00 2.478881e+00 -5.361057e+00 -2.077766e+00 -2.194466e+00 -1.064459e+01 -8.988770e+00 3.882627e+00 -2.980919e+00 -4.733302e+00 -6.120409e-01 5.655246e-01 -2.808940e-01 8.508165e-01 1.204192e+00 -1.723240e-01 1.260556e-01 5.188074e-02 1.773904e+00 -4.893059e-01 -4.253231e-01 9.191795e-01 -1.611953e+00
<VARIANCE> 25
 1.420737e+01 1.364083e+01 2.659343e+01 3.702903e+01 5.856898e+01 3.751048e+01 8.991910e+00 3.311977e+01 2.454364e+01 4.845965e+01 1.348261e+01 2.403646e+01 2.943197e+00 1.462884e+00 8.875893e-01 2.921796e+00 1.813535e+00 2.264669e+00 8.803250e-01 3.332208e+00 4.854060e+00 2.243041e+00 7.667578e-01 6.695246e-01 3.035624e+00
<GCONST> 9.209259e+01
<TRANSP> 5
 0.000000e+00 1.000000e+00 0.000000e+00 0.000000e+00 0.000000e+00
 0.000000e+00 8.440437e-01 1.559562e-01 0.000000e+00 0.000000e+00
 0.000000e+00 0.000000e+00 6.542790e-01 3.457210e-01 0.000000e+00
 0.000000e+00 0.000000e+00 0.000000e+00 7.089601e-01 2.910399e-01
 0.000000e+00 0.000000e+00 0.000000e+00 0.000000e+00 0.000000e+00
<ENDHMM>
~h "uw"
<BEGINHMM>
<NUMSTATES> 5
<STATE> 2
<MEAN> 25
 4.586704e+00 1.804211e+00 1.047354e+01 5.671111e+00 -5.426034e+00 -7.892750e+00 -8.742386e+00 -1.171839e+00 -1.037933e+01 -4.828106e+00 3.591302e+00 -1.148983e+00 2.832101e-01 9.764223e-02 -3.993961e-01 -1.441884e-01 4.964736e-01 3.746507e-02 -3.862287e-01 -3.626783e-01 2.443030e-01 1.800631e-01 -3.365584e-01 1.356932e-01 -4.060967e-01
<VARIANCE> 25
 1.116454e+01 2.403742e+01 3.582247e+01 1.735656e+01 3.698016e+01 3.200122e+01 2.991606e+01 3.386938e+01 3.601445e+01 3.166765e+01 2.601155e+01 1.506578e+01 4.769163e-01 1.055539e+00 1.929484e+00 8.199888e-01 1.925208e+00 2.326935e+00 2.522040e+00 2.420714e+00 2.846541e+00 2.015468e+00 2.418079e+00 1.379685e+00 5.455847e-01
<GCONST> 9.040610e+01
<STATE> 3
<MEAN> 25
 6.378551e+00 7.675187e+00 1.734117e+00 3.114007e+00 4.044352e-01 1.784796e+00 -8.505817e+00 -6.727166e+00 -1.074952e+01 -3.229318e+00 -1.623715e+00 3.123499e-01 -5.804382e-01 -5.053349e-01 -2.581647e-01 2.199024e-01 1.135820e-01 3.939201e-02 7.752472e-01 4.961314e-01 8.213519e-01 -8.631240e-03 -3.517914e-01 1.401051e-01 -4.703431e-01
<VARIANCE> 25
 1.857665e+01 2.800543e+01 2.604643e+01 2.623878e+01 1.757023e+01 3.822190e+01 4.424039e+01 2.587362e+01 6.292177e+01 3.131944e+01 3.124610e+01 1.944638e+01 6.421193e-01 1.200167e+00 1.714254e+00 1.844893e+00 1.574675e+00 2.197747e+00 3.226962e+00 2.289852e+00 2.846716e+00 2.627800e+00 2.364330e+00 2.055516e+00 7.444003e-01
<GCONST> 9.370705e+01
<STATE> 4
<MEAN> 25
 -1.508425e+00 -2.687634e+00 -2.525069e+00 -8.186438e-01 5.601946e-01 -1.474027e-01 -3.485180e-01 3.777838e-02 1.800159e+00 9.168040e-01 -1.580481e+00 8.400220e-01 -2.008088e-01 -1.995174e-01 -7.359102e-02 -6.676882e-02 5.241406e-02 -3.889814e-02 1.762851e-01 1.615137e-01 1.904876e-01 9.134311e-02 5.863669e-02 1.088710e-01 -4.179323e-02
<VARIANCE> 25
 7.977319e+00 1.019467e+01 1.793521e+01 1.298441e+01 1.095853e+01 1.373241e+01 1.881087e+01 1.988018e+01 2.595138e+01 1.804700e+01 1.264885e+01 1.589079e+01 3.969028e-01 6.127391e-01 7.055293e-01 1.048067e+00 9.833769e-01 1.266246e+00 1.696595e+00 1.406153e+00 2.254746e+00 1.983850e+00 1.319696e+00 9.528027e-01 1.356300e-01
<GCONST> 7.728880e+01
<TRANSP> 5
 0.000000e+00 1.000000e+00 0.000000e+00 0.000000e+00 0.000000e+00
 0.000000e+00 8.170649e-01 1.829350e-01 0.000000e+00 0.000000e+00
 0.000000e+00 0.000000e+00 8.300350e-01 1.699650e-01 0.000000e+00
 0.000000e+00 0.000000e+00 0.000000e+00 8.631998e-01 1.368003e-01
 0.000000e+00 0.000000e+00 0.000000e+00 0.000000e+00 0.000000e+00
<ENDHMM>
~h "zh"
<BEGINHMM>
<NUMSTATES> 5
<STATE> 2
<MEAN> 25
 -6.313499e+00 6.622626e+00 1.486959e+01 -2.753171e+00 -5.273065e+00 1.716155e+00 -1.132401e+00 -9.362257e+00 -3.714821e+00 -4.403455e+00 1.221617e+00 -4.710833e+00 -1.511295e+00 -6.010045e-02 2.458349e-02 1.932413e-01 6.245515e-01 3.863964e-01 1.192813e+00 -7.541598e-02 1.170185e+00 -1.595147e-01 1.242314e-01 4.396789e-01 -4.549004e-02
<VARIANCE> 25
 6.157545e+01 5.679140e+00 3.181391e+01 1.642639e+01 3.507164e+01 5.599960e+01 7.225911e+01 1.203648e+01 4.868025e+01 2.246165e+01 1.432389e+01 1.969288e+01 2.910282e+00 1.216999e+00 1.610000e+00 1.164685e+00 2.909470e+00 3.163164e+00 3.489706e+00 2.335250e+00 3.419108e+00 1.929517e+00 1.055411e+00 1.432909e+00 1.413380e-01
<GCONST> 9.160748e+01
<STATE> 3
<MEAN> 25
 -9.496974e+00 5.928884e-01 8.958927e+00 -1.528928e+00 -3.181751e+00 -5.162608e+00 6.296728e+00 -4.795147e+00 1.645987e-01 -5.189182e+00 2.244279e+00 9.014502e-01 2.630454e+00 -7.257376e-01 -1.237492e+00 1.360781e-01 -6.801524e-01 -1.807010e+00 -1.826779e+00 1.255080e+00 -1.365737e+00 4.665782e-02 2.878848e-02 5.747929e-01 -1.696004e-02
<VARIANCE> 25
 1.092532e+02 1.575209e+01 2.441657e+01 1.308602e+01 2.412269e+01 6.178909e+01 8.549064e+01 2.208976e+01 5.768113e+01 1.793503e+01 9.274057e+00 1.824820e+01 6.563886e+00 1.877807e+00 1.274006e+00 1.197164e+00 2.724702e+00 5.160750e+00 5.658807e+00 3.639100e+00 4.626098e+00 3.552809e+00 1.246886e+00 1.997303e+00 9.703761e-01
<GCONST> 9.837177e+01
<STATE> 4
<MEAN> 25
 -3.687658e+00 -2.783638e-01 -6.272738e+00 2.105733e+00 3.970391e+00 1.378096e+00 2.915612e+00 3.746491e+00 5.135368e+00 2.508325e+00 3.722826e+00 5.619973e+00 2.146372e-01 -1.400936e-01 -3.621592e-01 7.604117e-03 1.128794e-01 -4.189494e-02 -2.188433e-01 3.023319e-01 1.667299e-01 8.677214e-02 -2.005894e-01 6.489410e-02 -6.619091e-03
<VARIANCE> 25
 1.673601e+01 3.861213e+00 2.493432e+01 5.841517e+00 4.192215e+01 6.345129e+01 4.016485e+01 1.473491e+01 5.728135e+01 3.413623e+01 1.161906e+01 9.318614e+00 4.976886e-01 5.765985e-01 8.736407e-01 7.423741e-01 3.962038e-01 1.126591e+00 1.935153e+00 1.194775e+00 2.400092e+00 1.919541e+00 1.010612e+00 9.555710e-01 1.767711e-01
<GCONST> 7.973891e+01
<TRANSP> 5
 0.000000e+00 1.000000e+00 0.000000e+00 0.000000e+00 0.000000e+00
