~o
<STREAMINFO> 1 25
<VECSIZE> 25<NULLD><MFCC_D_N_Z_0><DIAGC>
~s "silst"
<MEAN> 25
 -5.348267e+00 -1.046180e+00 -1.836520e+00 2.791761e+00 3.425885e+00 2.696411e+00 4.108939e+00 2.341073e+00 5.081367e+00 3.152125e+00 2.881113e+00 4.242492e+00 -1.284724e-02 7.810722e-02 6.748289e-03 7.004764e-02 -5.495051e-02 2.941000e-02 -1.174441e-01 -4.420771e-02 -1.245584e-01 -5.767372e-02 -3.989779e-02 -9.004394e-02 6.661116e-02
<VARIANCE> 25
 7.743910e+00 6.693362e+00 9.360051e+00 1.029359e+01 9.791098e+00 1.304382e+01 1.421793e+01 1.470065e+01 1.630596e+01 1.419440e+01 1.271668e+01 1.362455e+01 8.062505e-01 8.021400e-01 8.863925e-01 1.086557e+00 1.196913e+00 1.478503e+00 1.646928e+00 1.810660e+00 1.897751e+00 1.785186e+00 1.606359e+00 1.586773e+00 4.185913e-01
<GCONST> 7.772923e+01
~h "b"
<BEGINHMM>
<NUMSTATES> 5
<STATE> 2
<MEAN> 25
 2.758281e+00 7.102370e+00 6.473542e+00 8.062444e+00 5.715197e+00 1.075326e+00 -2.061296e-02 -3.782641e+00 -3.146467e+00 -5.615250e+00 -4.455798e+00 -2.649123e+00 8.347128e-02 4.854089e-01 4.326307e-01 4.437161e-01 2.953523e-01 1.244744e-01 -9.148880e-02 -3.708155e-02 -1.961118e-01 -4.638751e-01 -3.500036e-01 -1.872038e-01 8.628816e-02
<VARIANCE> 25
 1.003503e+01 8.954670e+00 1.159301e+01 7.822786e+00 1.108551e+01 1.660028e+01 1.664058e+01 1.670386e+01 2.238366e+01 1.403061e+01 1.379826e+01 1.563624e+01 1.612045e+00 1.799095e+00 1.434071e+00 1.007759e+00 1.121296e+00 1.572906e+00 2.418624e+00 2.605306e+00 2.683114e+00 2.322696e+00 1.699190e+00 1.364166e+00 9.606469e-01
<GCONST> 8.339031e+01
<STATE> 3
<MEAN> 25
 1.618765e+00 4.553202e+00 3.169961e+00 5.530087e+00 3.554519e+00 5.166047e-01 2.253415e-01 -1.158228e+00 -4.256614e-01 -2.729414e+00 -2.211639e+00 -3.382272e-01 1.354584e+00 -9.715508e-01 -5.333446e-01 -2.507198e+00 -2.913625e+00 -1.152754e+00 -1.596545e+00 3.115322e-01 -3.661658e-01 1.317244e+00 1.213387e+00 3.089013e-01 3.670100e+00
<VARIANCE> 25
 1.690223e+01 8.864203e+00 2.018019e+01 2.078255e+01 3.343918e+01 2.718316e+01 2.837557e+01 1.866862e+01 2.714101e+01 2.130338e+01 2.124524e+01 1.445967e+01 2.421538e+00 2.199980e+00 4.383683e+00 5.235068e+00 4.938883e+00 5.895491e+00 1.381911e+00 3.595006e+00 4.767482e+00 3.581261e+00 3.144672e+00 2.080992e+00 3.875537e+00
<GCONST> 9.801855e+01
<STATE> 4
<MEAN> 25
 8.278576e+00 7.643887e-01 2.477554e+00 -5.088940e+00 -5.429395e+00 -1.299615e+00 -8.598478e+00 -1.869656e+00 -7.227082e+00 2.429371e-01 -2.115040e+00 -4.693957e+00 4.377016e-01 -3.811966e-01 -1.477510e-01 -1.027688e+00 -5.387027e-01 -7.504965e-02 -7.453283e-01 -1.349861e-01 -6.655797e-01 2.896866e-01 2.444144e-01 -2.769271e-01 7.963321e-01
<VARIANCE> 25
 2.750527e+01 2.829420e+01 8.312014e+01 5.541521e+01 6.775633e+01 7.189941e+01 3.761650e+01 4.984815e+01 6.643253e+01 3.940167e+01 4.521574e+01 2.506730e+01 1.666466e+00 2.748208e+00 3.179083e+00 6.213725e+00 5.010294e+00 4.020740e+00 2.344075e+00 3.675112e+00 5.073358e+00 2.924428e+00 2.710372e+00 2.145426e+00 4.206645e+00
<GCONST> 1.075253e+02
<TRANSP> 5
 0.000000e+00 1.000000e+00 0.000000e+00 0.000000e+00 0.000000e+00
 0.000000e+00 8.126836e-01 1.873164e-01 0.000000e+00 0.000000e+00
 0.000000e+00 0.000000e+00 6.393785e-01 3.606215e-01 0.000000e+00
 0.000000e+00 0.000000e+00 0.000000e+00 7.642788e-01 2.357212e-01
 0.000000e+00 0.000000e+00 0.000000e+00 0.000000e+00 0.000000e+00
<ENDHMM>
~h "d"
<BEGINHMM>
<NUMSTATES> 5
<STATE> 2
<MEAN> 25
 1.470735e+00 5.442136e+00 6.943742e+00 8.381798e+00 5.152806e+00 -3.425590e-01 -3.634889e-01 -3.521258e+00 -2.703402e+00 -5.309058e+00 -5.293132e+00 -2.373626e+00 -2.319303e-01 1.688494e-01 -2.291981e-02 -6.859665e-02 3.986397e-01 1.526268e-01 1.041131e-01 -1.971797e-01 -6.733233e-02 -4.065781e-02 -1.115433e-01 -2.268696e-02 2.373661e-01
<VARIANCE> 25
 1.206731e+01 1.420734e+01 1.923950e+01 9.106763e+00 1.997968e+01 2.816277e+01 1.664908e+01 1.914923e+01 1.632390e+01 1.948384e+01 1.643975e+01 1.503783e+01 1.819216e+00 1.366829e+00 1.257935e+00 2.038505e+00 1.653573e+00 2.990505e+00 1.936894e+00 2.623463e+00 2.300367e+00 1.900904e+00 2.558908e+00 1.533701e+00 2.360904e+00
<GCONST> 8.840526e+01
<STATE> 3
<MEAN> 25
 -2.312402e+00 1.082306e+00 3.772479e+00 1.529296e+00 2.199682e+00 -1.248469e+00 3.761413e-01 -2.679986e+00 -1.134474e+00 -2.568678e+00 -6.276389e-01 -8.697088e-01 2.375995e-01 -9.079548e-01 -6.717517e-01 -2.493005e+00 -2.980683e+00 -2.136804e+00 -9.980142e-01 5.385885e-01 -4.499123e-01 7.240356e-01 1.261103e+00 2.387397e-01 4.246714e+00
<VARIANCE> 25
 1.310046e+01 2.433884e+01 2.136212e+01 4.662834e+01 3.519776e+01 3.476912e+01 2.193492e+01 3.263252e+01 2.385112e+01 2.433256e+01 2.117962e+01 1.680460e+01 3.611798e+00 2.709742e+00 3.196547e+00 3.319299e+00 6.206492e+00 3.429553e+00 3.444652e+00 3.825208e+00 2.371377e+00 2.900231e+00 2.318315e+00 1.871681e+00 5.572744e+00
<GCONST> 9.993010e+01
<STATE> 4
<MEAN> 25
 1.822478e+00 1.498734e+00 4.690076e+00 -6.650804e-01 -7.109779e+00 -8.315007e+00 -5.581202e+00 -7.431294e-01 -2.108902e+00 -1.402816e+00 3.207042e-01 -2.060911e-01 6.278374e-01 -3.943933e-01 -8.821806e-01 -7.834050e-02 -4.889031e-01 2.927282e-01 -2.395220e-02 1.148935e+00 8.253183e-01 1.113187e+00 6.645041e-02 -2.589268e-02 -5.229418e-02
<VARIANCE> 25
 2.122752e+01 2.802478e+01 4.173378e+01 1.436308e+01 7.542664e+01 4.418164e+01 3.411658e+01 4.476740e+01 4.320048e+01 2.185109e+01 2.723468e+01 3.509299e+01 5.349197e+00 2.666255e+00 3.983989e+00 3.067415e+00 1.231271e+01 9.922628e+00 6.143169e+00 5.924932e+00 3.799055e+00 2.862866e+00 3.322868e+00 5.542325e+00 5.626541e+00
<GCONST> 1.084746e+02
<TRANSP> 5
 0.000000e+00 1.000000e+00 0.000000e+00 0.000000e+00 0.000000e+00
 0.000000e+00 7.662287e-01 2.337712e-01 0.000000e+00 0.000000e+00
 0.000000e+00 0.000000e+00 5.139053e-01 4.860947e-01 0.000000e+00
 0.000000e+00 0.000000e+00 0.000000e+00 5.101796e-01 4.898204e-01
 0.000000e+00 0.000000e+00 0.000000e+00 0.000000e+00 0.000000e+00
<ENDHMM>
~h "f"
<BEGINHMM>
<NUMSTATES> 5
<STATE> 2
<MEAN> 25
 -5.645653e+00 -2.219444e+00 -1.866553e+00 1.601302e+00 2.413743e+00 2.727682e+00 3.387279e+00 2.239613e+00 4.277059e+00 3.421209e+00 2.449904e+00 4.323981e+00 -7.284661e-02 7.057822e-02 -6.017084e-02 3.303798e-02 -6.272924e-02 3.550141e-02 -5.520035e-02 -3.221703e-02 3.173043e-02 -1.829526e-02 -5.493516e-03 -5.038591e-02 3.314268e-02
<VARIANCE> 25
 8.340649e+00 5.574036e+00 5.288751e+00 1.014708e+01 1.139096e+01 1.063185e+01 1.298610e+01 1.013887e+01 1.122660e+01 1.197098e+01 1.222605e+01 1.228446e+01 2.985625e-01 3.535909e-01 4.192236e-01 7.619749e-01 7.514583e-01 1.047012e+00 1.294515e+00 1.182238e+00 1.033248e+00 1.079691e+00 1.326822e+00 1.346345e+00 1.282556e-01
<GCONST> 6.879055e+01
<STATE> 3
<MEAN> 25
 -6.364954e+00 8.017191e-01 -5.801340e+00 3.402883e+00 -2.303392e-01 2.654504e+00 3.564302e-01 5.318949e-01 3.231502e+00 1.183309e+00 -3.481705e-01 2.480649e+00 1.536834e+00 2.245772e-01 -1.263040e-01 -9.762581e-01 -4.614912e-01 3.951068e-01 -2.963112e-01 -4.134952e-01 -7.539980e-01 -4.582178e-01 -9.330590e-02 -4.058284e-01 9.982969e-01
<VARIANCE> 25
 4.473160e+01 1.376066e+01 1.465831e+01 2.256244e+01 1.141632e+01 1.563361e+01 1.644043e+01 1.262116e+01 2.139044e+01 1.608152e+01 1.161713e+01 1.211237e+01 6.408753e+00 2.090903e+00 1.447317e+00 4.665331e+00 2.246003e+00 3.190546e+00 2.000177e+00 1.338620e+00 2.653073e+00 2.039880e+00 1.688713e+00 1.308336e+00 2.588488e+00
<GCONST> 9.036938e+01
<STATE> 4
<MEAN> 25
 1.317334e+01 -6.144255e+00 -9.134000e+00 -1.526735e+01 -2.884089e+00 1.141679e+01 3.887332e-01 -7.429817e+00 2.422666e+00 -3.287014e+00 2.255565e+00 -1.089989e+01 4.462673e-01 -4.773852e-01 -1.697609e-01 -2.722692e-01 -1.379508e-01 -5.028979e-02 -1.268131e-01 1.954774e-01 1.533793e-01 -2.800190e-01 -5.154003e-02 -6.348769e-01 2.106131e-01
<VARIANCE> 25
 1.221998e+01 3.514230e+01 1.111627e+01 4.040436e+01 2.195419e+01 1.711156e+01 7.780353e+00 1.766420e+01 2.173429e+01 9.165982e+00 1.266171e+01 4.776971e+01 2.099902e+00 1.026033e+00 4.368582e-01 5.129487e+00 1.161608e+00 2.373768e+00 5.566062e-01 1.823355e+00 6.697491e-01 6.619895e-01 1.231691e+00 1.092169e+00 4.201689e-01
<GCONST> 8.188758e+01
<TRANSP> 5
 0.000000e+00 1.000000e+00 0.000000e+00 0.000000e+00 0.000000e+00
 0.000000e+00 9.348899e-01 6.511013e-02 0.000000e+00 0.000000e+00
 0.000000e+00 0.000000e+00 8.821086e-01 1.178913e-01 0.000000e+00
 0.000000e+00 0.000000e+00 0.000000e+00 8.621262e-01 1.378739e-01
 0.000000e+00 0.000000e+00 0.000000e+00 0.000000e+00 0.000000e+00
<ENDHMM>
~h "g"
<BEGINHMM>
<NUMSTATES> 5
<STATE> 2
<MEAN> 25
 -2.263343e+00 -3.044096e+00 3.429848e-01 -2.069853e+00 -7.127161e-01 -1.962301e+00 7.484422e-01 -2.726809e+00 1.601075e+00 2.661915e-01 -1.462939e+00 2.247964e+00 -5.373051e-01 6.446033e-01 1.528090e+00 -1.235534e+00 -1.824494e+00 -1.491417e+00 -4.429775e-01 -2.598621e+00 -1.082914e+00 -5.603365e-01 -6.448193e-01 -9.477310e-02 2.806748e+00
<VARIANCE> 25
 2.553776e+01 3.182137e+01 2.625718e+01 3.075540e+01 4.035359e+01 5.687194e+01 2.198816e+01 5.880238e+01 3.908303e+01 9.231644e+00 3.089433e+01 3.278680e+01 1.700295e+00 3.609649e+00 1.128649e+00 4.250456e+00 3.016685e+00 1.372392e+00 3.318147e+00 4.662798e+00 2.132176e+00 1.626777e+00 4.599872e+00 1.362174e+00 9.689221e+00
<GCONST> 9.994539e+01
<STATE> 3
<MEAN> 25
 1.552006e+00 2.764094e+00 4.884320e+00 3.436577e+00 2.020927e+00 -1.976708e+00 5.147824e-01 -3.464939e+00 -1.485750e+00 -3.481444e+00 -4.293296e+00 -1.468652e+00 -1.882803e-01 1.676015e-01 5.334121e-01 -1.860310e-01 -3.957202e-01 -1.895318e-01 -4.562608e-01 -9.268202e-01 -1.585751e-01 8.863188e-02 -8.895133e-02 1.170886e-01 5.559508e-01
<VARIANCE> 25
 2.888114e+01 3.471270e+01 1.505291e+01 5.542181e+01 3.576958e+01 4.627719e+01 2.531546e+01 3.421304e+01 3.170823e+01 1.030322e+01 3.250028e+01 2.006139e+01 1.810976e+00 5.927100e+00 3.285981e+00 6.822531e+00 3.897130e+00 3.618232e+00 3.139042e+00 3.177615e+00 2.595481e+00 1.550429e+00 2.133548e+00 1.876270e+00 7.528342e+00
<GCONST> 1.012562e+02
<STATE> 4
<MEAN> 25
 2.703856e+00 1.466728e+00 1.556096e+01 -2.575019e+00 -1.244867e+01 -6.854328e+00 -4.878719e+00 -4.821796e+00 -1.211323e+01 1.043055e+00 4.418082e-01 -4.123527e+00 1.020700e+00 -4.562536e-01 -5.137961e-02 1.411769e-01 -1.007468e+00 -1.088015e+00 -9.440199e-02 1.628587e+00 -3.985127e-01 -2.651883e-01 8.118824e-01 -5.744531e-01 7.423360e-01
<VARIANCE> 25
 9.511266e+00 1.344332e+01 4.026453e+01 2.047795e+01 2.405081e+01 3.295288e+01 2.758002e+01 3.282214e+01 7.499329e+01 1.465513e+01 2.387150e+01 1.483234e+01 1.844346e+00 2.025732e+00 7.005468e+00 1.980471e+00 4.748346e+00 1.699304e+00 4.733956e+00 3.433983e+00 8.056697e+00 2.217850e+00 2.540666e+00 2.039159e+00 1.249891e+00
<GCONST> 9.744347e+01
<TRANSP> 5
 0.000000e+00 1.000000e+00 0.000000e+00 0.000000e+00 0.000000e+00
 0.000000e+00 4.177725e-01 5.822275e-01 0.000000e+00 0.000000e+00
 0.000000e+00 0.000000e+00 8.367250e-01 1.632750e-01 0.000000e+00
 0.000000e+00 0.000000e+00 0.000000e+00 8.334199e-01 1.665801e-01
 0.000000e+00 0.000000e+00 0.000000e+00 0.000000e+00 0.000000e+00
<ENDHMM>
~h "k"
<BEGINHMM>
<NUMSTATES> 5
<STATE> 2
<MEAN> 25
 -5.540849e+00 -4.025693e+00 -2.280626e+00 2.874057e+00 2.948260e+00 -9.047616e-01 4.112761e+00 3.021936e+00 5.528739e+00 2.616324e+00 1.334253e+00 6.020591e+00 -6.067775e-02 -6.870838e-01 -5.404000e-01 -5.457690e-01 1.571692e-01 -1.154042e+00 -6.630879e-01 -4.358909e-01 -2.798930e-01 9.750226e-02 -9.513152e-01 4.940702e-02 2.189021e+00
<VARIANCE> 25
 1.152055e+01 2.888202e+01 1.726568e+01 3.480200e+01 1.674095e+01 5.543240e+01 1.651960e+01 2.282427e+01 2.341396e+01 1.400043e+01 2.210569e+01 1.498167e+01 1.975013e+00 3.929509e+00 3.764266e+00 4.932902e+00 2.926143e+00 6.233832e+00 2.516701e+00 3.255718e+00 3.845469e+00 1.880497e+00 3.400815e+00 2.053673e+00 8.725892e+00
<GCONST> 9.857914e+01
<STATE> 3
<MEAN> 25
 -2.505219e+00 -5.367671e+00 -9.689631e+00 -6.570205e-01 9.207212e+00 -3.943921e+00 -2.315233e+00 -3.189949e+00 4.759057e+00 3.110493e+00 -2.129027e+00 6.309087e-01 2.412290e-01 4.319210e-01 -2.223411e-01 -1.203824e+00 5.997308e-02 1.563490e+00 -2.208461e-01 -9.526659e-01 -4.210940e-01 -5.972469e-01 1.232535e-01 -1.136593e+00 1.438556e+00
<VARIANCE> 25
 1.984930e+01 1.235510e+01 5.041717e+01 4.720573e+01 4.833418e+01 9.362793e+01 2.514326e+01 4.549030e+01 4.772210e+01 1.985227e+01 2.687560e+01 2.742852e+01 3.172993e+00 1.902694e+00 4.442191e+00 3.434013e+00 2.223105e+00 1.309671e+01 4.188677e+00 2.195629e+00 4.448610e+00 2.834643e+00 3.630428e+00 3.210366e+00 6.589036e+00
<GCONST> 1.051287e+02
<STATE> 4
<MEAN> 25
 -1.513319e+00 -4.010035e-01 -6.828906e-02 -4.364655e+00 -2.154506e+00 9.948132e-01 3.929579e-01 -2.466202e+00 -1.863192e-01 -2.550026e+00 -1.764077e+00 -4.620455e-01 1.176064e+00 8.317047e-01 5.803495e-01 5.416439e-01 -1.137887e+00 -2.483157e-01 -7.249448e-02 2.366871e-01 -9.273177e-01 -7.236662e-01 1.078128e-01 -7.549351e-01 2.357095e-01
<VARIANCE> 25
 8.497648e+01 3.565425e+01 9.282371e+01 5.686609e+01 6.647467e+01 5.885357e+01 3.689848e+01 4.744558e+01 3.717910e+01 3.792527e+01 2.535009e+01 4.064116e+01 5.489084e+00 3.541335e+00 3.544389e+00 4.726840e+00 3.953520e+00 3.728107e+00 4.068395e+00 4.434673e+00 5.969464e+00 4.187173e+00 2.949425e+00 2.472854e+00 2.873047e+00
<GCONST> 1.100933e+02
<TRANSP> 5
 0.000000e+00 1.000000e+00 0.000000e+00 0.000000e+00 0.000000e+00
 0.000000e+00 7.808904e-01 2.191095e-01 0.000000e+00 0.000000e+00
 0.000000e+00 0.000000e+00 6.675864e-01 3.324136e-01 0.000000e+00
 0.000000e+00 0.000000e+00 0.000000e+00 7.555940e-01 2.444060e-01
 0.000000e+00 0.000000e+00 0.000000e+00 0.000000e+00 0.000000e+00
<ENDHMM>
~h "l"
<BEGINHMM>
<NUMSTATES> 5
<STATE> 2
<MEAN> 25
 1.179408e+01 4.886194e+00 -5.436959e+00 -1.619954e+01 -5.671201e+00 4.512105e+00 -5.204012e+00 -2.834386e+00 -8.322379e+00 -1.932309e-02 7.647027e-01 -4.115082e+00 7.839509e-03 6.271749e-01 1.521733e-01 -1.594716e-01 -1.514833e-01 -7.847241e-02 1.753941e-01 -2.754939e-02 -4.299804e-01 -2.627230e-01 1.110812e-01 4.937291e-01 -5.053352e-01
<VARIANCE> 25
 1.288729e+01 2.789271e+01 2.202963e+01 5.798260e+01 2.358907e+01 3.096342e+01 3.876335e+01 3.107708e+01 4.702681e+01 3.213393e+01 1.949992e+01 3.393036e+01 4.935967e-01 1.151502e+00 8.767391e-01 3.642084e+00 1.470073e+00 2.246200e+00 1.644597e+00 1.792151e+00 2.475951e+00 2.150485e+00 1.588585e+00 1.714515e+00 5.185474e-01
<GCONST> 9.137603e+01
<STATE> 3
<MEAN> 25
 8.527996e+00 5.714137e+00 -3.876024e+00 -1.027992e+01 -3.098737e+00 1.847724e+00 -4.481380e+00 -2.260283e+00 -4.350069e+00 6.655651e-01 -9.341958e-01 -4.128419e+00 -1.476605e+00 -8.740509e-01 1.186495e+00 3.065076e+00 9.203413e-01 -7.471566e-01 2.211108e-01 4.734632e-01 1.742557e+00 3.500443e-02 -6.508554e-01 -2.355243e-01 -7.618589e-01
<VARIANCE> 25
 1.883566e+01 3.327796e+01 2.532213e+01 5.026241e+01 3.425932e+01 2.359173e+01 4.848309e+01 3.861516e+01 4.747047e+01 4.791235e+01 2.883314e+01 4.119478e+01 1.552223e+00 2.460570e+00 1.806691e+00 4.196225e+00 4.081359e+00 3.495575e+00 3.749705e+00 4.893323e+00 3.383556e+00 4.434356e+00 3.222898e+00 3.668419e+00 2.611558e+00
<GCONST> 1.036471e+02
<STATE> 4
<MEAN> 25
 1.285714e+00 3.645473e+00 5.540239e-01 1.197328e+00 2.504025e+00 3.078989e+00 2.137290e+00 2.260220e-01 4.204046e-01 -1.406281e+00 -3.054349e+00 -7.903605e-01 -1.079290e+00 -6.135085e-01 3.333208e-01 1.113571e+00 4.483436e-01 1.822369e-02 5.752761e-01 1.756667e-01 5.261941e-01 -1.312759e-02 1.655227e-01 5.710286e-01 -5.244490e-01
<VARIANCE> 25
 2.356277e+01 2.396345e+01 1.923373e+01 3.144542e+01 3.375786e+01 2.563742e+01 4.146013e+01 3.433954e+01 3.630857e+01 2.180182e+01 2.566847e+01 2.539646e+01 1.613561e+00 1.612924e+00 1.687727e+00 2.401825e+00 3.275236e+00 2.713627e+00 2.964391e+00 2.380489e+00 3.149964e+00 3.364861e+00 2.701192e+00 1.978147e+00 6.203580e-01
<GCONST> 9.592020e+01
<TRANSP> 5
 0.000000e+00 1.000000e+00 0.000000e+00 0.000000e+00 0.000000e+00
 0.000000e+00 8.750152e-01 1.249848e-01 0.000000e+00 0.000000e+00
 0.000000e+00 0.000000e+00 6.600853e-01 3.399147e-01 0.000000e+00
 0.000000e+00 0.000000e+00 0.000000e+00 6.730896e-01 3.269104e-01
 0.000000e+00 0.000000e+00 0.000000e+00 0.000000e+00 0.000000e+00
<ENDHMM>
~h "m"
<BEGINHMM>
<NUMSTATES> 5
<STATE> 2
<MEAN> 25
 7.000194e+00 3.479915e+00 4.593436e+00 5.649335e+00 3.719427e+00 -2.472619e+00 -2.194253e+00 -1.158452e+01 -1.009209e+01 7.522921e-01 -3.667083e+00 -1.369648e+00 5.292985e-01 2.363163e-01 6.126282e-01 8.282286e-01 1.943951e-01 -1.101144e+00 -4.652930e-01 -1.233014e+00 -1.215019e+00 3.189784e-01 -1.152448e-01 5.021759e-03 8.961107e-02
<VARIANCE> 25
 9.819085e+00 1.326649e+01 2.060764e+01 2.398217e+01 1.138745e+01 5.839365e+01 1.359521e+01 4.415351e+01 4.068839e+01 2.704553e+01 1.142359e+01 1.896294e+01 2.036098e+00 1.422762e+00 1.625039e+00 2.100957e+00 1.310183e+00 2.509673e+00 1.890764e+00 4.365370e+00 3.425667e+00 2.357221e+00 9.637054e-01 1.016638e+00 1.126167e+00
<GCONST> 9.007790e+01
<STATE> 3
<MEAN> 25
 1.012434e+01 2.192548e+00 4.003037e+00 5.510422e+00 8.576018e-01 -4.181213e+00 -8.099788e+00 -1.523535e+01 -1.427187e+01 1.164398e+00 -1.380806e+00 -6.093611e+00 4.094459e-01 -1.256336e+00 -4.977494e-01 -4.101626e-01 -9.600074e-01 -7.282318e-01 -6.938292e-01 2.341346e+00 1.291824e+00 -7.539196e-02 -4.607325e-01 -7.964060e-01 9.045033e-01
<VARIANCE> 25
 7.717823e+00 1.657934e+01 3.061031e+01 4.654208e+01 1.366642e+01 4.651003e+01 3.835559e+01 9.440134e+01 9.227310e+01 3.126650e+01 3.029362e+01 3.694538e+01 8.268965e-01 3.587302e+00 2.346078e+00 2.251995e+00 3.148188e+00 1.363204e+00 3.633908e+00 1.267557e+01 7.031311e+00 7.213538e+00 3.022881e+00 3.589310e+00 2.266336e+00
<GCONST> 1.028642e+02
<STATE> 4
<MEAN> 25
 9.257643e+00 -7.397320e-01 1.364454e+00 -3.085327e+00 -8.294519e+00 -5.838292e+00 -7.304573e+00 -3.042467e+00 -7.902298e+00 -7.086142e-01 -2.516974e+00 -5.373748e+00 -1.151369e-01 3.931075e-01 -5.509776e-02 -2.959689e-01 -3.955158e-01 2.153384e-01 3.707327e-01 3.886573e-01 -1.020018e-01 -3.666016e-01 1.793038e-02 2.274598e-01 -3.712147e-01
<VARIANCE> 25
 1.073322e+01 5.238465e+01 6.675374e+01 1.146598e+02 6.575998e+01 6.966177e+01 2.549234e+01 1.121544e+02 6.449522e+01 3.392140e+01 1.834245e+01 1.302082e+01 1.041083e+00 3.185926e+00 2.200717e+00 5.749152e+00 5.226992e+00 2.795058e+00 1.912595e+00 8.188331e+00 4.586834e+00 3.380870e+00 2.092763e+00 1.344999e+00 2.934701e+00
<GCONST> 1.047987e+02
<TRANSP> 5
 0.000000e+00 1.000000e+00 0.000000e+00 0.000000e+00 0.000000e+00
 0.000000e+00 7.129934e-01 2.870066e-01 0.000000e+00 0.000000e+00
 0.000000e+00 0.000000e+00 6.195896e-01 3.804104e-01 0.000000e+00
 0.000000e+00 0.000000e+00 0.000000e+00 8.491788e-01 1.508213e-01
 0.000000e+00 0.000000e+00 0.000000e+00 0.000000e+00 0.000000e+00
<ENDHMM>
~h "n"
<BEGINHMM>
<NUMSTATES> 5
<STATE> 2
<MEAN> 25
 8.633210e+00 3.041889e+00 7.235674e+00 5.835864e+00 -2.846299e+00 -6.316993e+00 -3.347340e+00 -1.118029e+01 -1.187270e+01 3.781402e-01 -5.382728e+00 -5.345354e+00 -2.375665e-01 3.168385e-01 8.658856e-02 2.439341e-01 1.237618e-01 2.761187e-03 -1.742132e-01 -2.638798e-01 2.950217e-01 -1.760876e-01 -6.778675e-02 2.234388e-01 -4.217782e-01
<VARIANCE> 25
 7.810464e+00 1.309479e+01 1.184533e+01 1.601582e+01 1.195309e+01 1.820343e+01 2.229626e+01 2.640169e+01 2.754101e+01 2.068397e+01 1.719406e+01 1.561983e+01 2.246254e-01 6.583208e-01 6.351257e-01 1.568017e+00 9.677305e-01 1.356152e+00 9.171636e-01 2.827546e+00 1.481631e+00 1.944431e+00 9.780143e-01 8.117089e-01 3.084419e-01
<GCONST> 7.847903e+01
<STATE> 3
<MEAN> 25
 1.711902e+00 2.635377e+00 3.187845e+00 3.933469e+00 1.319791e+00 -1.186215e+00 -1.344460e+00 -1.122219e+00 -2.067461e+00 -4.964909e+00 -4.277774e+00 -1.529301e+00 -1.179184e+00 -5.593258e-01 -8.206872e-01 -4.036785e-01 4.871011e-01 9.272823e-01 7.907055e-01 1.275700e+00 1.338350e+00 5.258195e-01 8.498882e-01 7.095845e-01 -4.675997e-01
<VARIANCE> 25
 2.538955e+01 2.085001e+01 2.890755e+01 2.395563e+01 2.561948e+01 3.836898e+01 3.420934e+01 4.571058e+01 3.982214e+01 3.490409e+01 2.956592e+01 2.550073e+01 1.799848e+00 1.760040e+00 2.055286e+00 2.471126e+00 1.836919e+00 3.351930e+00 3.011725e+00 4.769243e+00 3.568287e+00 4.223423e+00 3.137999e+00 2.586391e+00 1.502411e+00
<GCONST> 9.934081e+01
<STATE> 4
<MEAN> 25
 -4.553774e+00 -2.315239e+00 -1.807459e+00 1.507812e+00 3.395868e+00 2.930130e+00 3.993304e+00 2.758109e+00 5.080287e+00 3.130471e+00 2.930635e+00 4.355846e+00 -2.453434e-02 -4.281689e-02 -6.504523e-02 -4.277734e-02 1.593142e-02 4.013846e-02 2.449566e-02 7.569017e-03 1.863654e-02 5.109760e-02 7.891426e-02 3.625337e-02 -3.409893e-02
<VARIANCE> 25
 6.343730e+00 3.872671e+00 8.992435e+00 7.299568e+00 9.309497e+00 1.069804e+01 1.296426e+01 1.573087e+01 1.481993e+01 1.255709e+01 1.208942e+01 1.273532e+01 2.061441e-01 2.749666e-01 4.567350e-01 6.464432e-01 8.249105e-01 9.906178e-01 1.230613e+00 1.372684e+00 1.334063e+00 1.292355e+00 1.241222e+00 1.200803e+00 7.920312e-02
<GCONST> 6.815463e+01
<TRANSP> 5
 0.000000e+00 1.000000e+00 0.000000e+00 0.000000e+00 0.000000e+00
 0.000000e+00 8.940130e-01 1.059870e-01 0.000000e+00 0.000000e+00
 0.000000e+00 0.000000e+00 8.399003e-01 1.600997e-01 0.000000e+00
 0.000000e+00 0.000000e+00 0.000000e+00 9.312068e-01 6.879327e-02
 0.000000e+00 0.000000e+00 0.000000e+00 0.000000e+00 0.000000e+00
<ENDHMM>
~h "p"
<BEGINHMM>
<NUMSTATES> 5
<STATE> 2
<MEAN> 25
 -3.286620e-01 2.825687e+00 -6.195779e+00 -8.357868e-01 4.877901e+00 1.585848e+00 9.823811e-01 -1.471792e-01 2.907654e+00 8.124308e-01 7.110091e-01 6.538537e-01 6.479159e-01 -2.916262e-01 -7.450114e-01 -8.132845e-01 -2.641291e-01 9.269237e-02 -9.021554e-01 2.317429e-01 4.124399e-02 1.519891e-01 -2.201268e-01 -5.737147e-01 1.414428e+00
<VARIANCE> 25
 3.489892e+01 1.058537e+01 4.906669e+01 3.639671e+01 1.480395e+01 3.916832e+01 2.798343e+01 1.727487e+01 2.622707e+01 2.024675e+01 1.543848e+01 2.399292e+01 4.989595e+00 2.865902e+00 2.017188e+00 3.611748e+00 1.823752e+00 6.120092e+00 4.082542e+00 4.618917e+00 5.668191e+00 3.005048e+00 3.624277e+00 3.939013e+00 4.342595e+00
<GCONST> 1.010373e+02
<STATE> 3
<MEAN> 25
 6.052364e+00 -3.721610e+00 -4.410726e+00 -8.418466e-01 3.683907e-01 5.252590e-01 -7.635422e+00 6.688735e+00 4.142581e-01 -3.756553e+00 -8.092619e+00 -2.228765e+00 -3.154584e-01 -9.275717e-01 1.879334e+00 6.100577e-01 -2.201660e+00 -8.743077e-01 4.518183e-01 1.525654e+00 -1.157805e+00 -1.377454e+00 2.250498e-01 1.356053e+00 5.795900e-01
<VARIANCE> 25
 2.222059e+01 2.156650e+01 5.431411e+01 3.777683e+01 2.755288e+01 3.517554e+01 5.900774e+01 3.803094e+01 3.761052e+01 4.549184e+01 4.890050e+01 3.330827e+01 2.887497e+00 2.891379e+00 5.213424e+00 4.975413e+00 3.455099e+00 3.413504e+00 5.212268e+00 3.412594e+00 8.220835e+00 6.641209e+00 5.376644e+00 3.170107e+00 2.955689e+00
<GCONST> 1.078220e+02
<STATE> 4
<MEAN> 25
 7.661576e-01 -1.228381e+00 -9.098998e-01 -5.165450e-01 -3.358270e+00 8.489067e-02 8.705863e-02 2.885682e+00 -6.818668e-01 -8.849808e-01 -1.669899e-01 2.597495e-01 -4.944451e-01 1.203743e-01 5.422796e-01 -1.714053e-01 -6.749279e-01 -2.432195e-01 5.945518e-01 -7.009211e-01 -1.230769e+00 4.647996e-01 1.411759e+00 2.114162e-01 1.256170e-01
<VARIANCE> 25
 4.780397e+01 1.791962e+01 2.603156e+01 5.157993e+01 4.378313e+01 4.126432e+01 2.701865e+01 4.562636e+01 7.614455e+01 4.251072e+01 2.699930e+01 2.067256e+01 1.870836e+00 1.225131e+00 2.523590e+00 1.251332e+00 2.883683e+00 5.563247e-01 3.251984e+00 1.188294e+00 3.512894e+00 3.434640e+00 2.103016e+00 1.463237e+00 1.086456e+00
<GCONST> 9.642671e+01
<TRANSP> 5
 0.000000e+00 1.000000e+00 0.000000e+00 0.000000e+00 0.000000e+00
 0.000000e+00 8.348980e-01 1.651020e-01 0.000000e+00 0.000000e+00
 0.000000e+00 0.000000e+00 5.381637e-01 4.618363e-01 0.000000e+00
 0.000000e+00 0.000000e+00 0.000000e+00 3.377203e-01 6.622797e-01
 0.000000e+00 0.000000e+00 0.000000e+00 0.000000e+00 0.000000e+00
<ENDHMM>
~h "r"
<BEGINHMM>
<NUMSTATES> 5
<STATE> 2
<MEAN> 25
 9.327477e+00 -3.069415e-01 -6.304743e+00 3.016435e+00 2.277304e+00 -6.331116e+00 -1.059895e+01 -2.590442e+00 2.960050e+00 -3.652750e+00 -1.349867e+00 6.876686e-01 9.103448e-01 -1.659598e-01 -9.292814e-01 1.383980e-01 5.412718e-01 -5.557950e-01 -1.788022e+00 -7.183181e-02 9.876770e-01 8.236257e-02 -6.901885e-01 -3.826818e-01 4.862581e-01
<VARIANCE> 25
 5.602887e+01 1.261551e+01 4.997526e+01 3.036390e+01 2.224846e+01 5.837778e+01 6.292223e+01 2.986382e+01 2.606213e+01 3.776383e+01 3.311449e+01 2.365318e+01 2.418016e+00 1.117836e+00 2.748835e+00 1.828281e+00 2.753158e+00 3.045250e+00 3.279392e+00 4.060376e+00 2.391047e+00 2.965284e+00 1.863726e+00 1.859280e+00 2.353755e+00
<GCONST> 9.947722e+01
<STATE> 3
<MEAN> 25
 8.490673e+00 -3.558605e+00 -1.258295e+00 5.710847e+00 -2.854513e+00 -9.071062e+00 -9.914113e+00 2.919133e+00 1.281146e+00 -7.478813e+00 -2.225357e+00 3.919241e-01 -6.401485e-01 -4.653889e-01 2.007870e+00 -1.333186e-01 -1.601539e+00 7.809136e-02 1.521372e+00 7.192325e-01 -1.561034e+00 -3.264515e-01 5.077639e-01 3.166667e-02 1.334919e-01
<VARIANCE> 25
 7.025313e+01 3.896355e+01 9.165519e+01 2.951690e+01 4.972374e+01 5.727655e+01 8.109835e+01 3.612260e+01 6.450842e+01 5.103713e+01 1.959937e+01 2.358826e+01 2.678190e+00 2.317579e+00 3.070802e+00 3.788166e+00 4.079095e+00 4.450333e+00 4.913725e+00 5.058151e+00 4.422891e+00 5.035385e+00 2.575855e+00 3.203918e+00 1.646658e+00
<GCONST> 1.080412e+02
<STATE> 4
<MEAN> 25
 6.611187e+00 -3.543415e+00 5.998770e-01 2.040358e+00 -5.159492e+00 -5.672874e+00 -5.917448e+00 1.853002e+00 -1.184116e+00 -2.944891e+00 -3.915813e-01 -1.282022e-01 -8.929440e-01 1.910168e-01 9.258525e-01 -1.131117e+00 -7.063506e-01 1.371522e+00 8.878984e-01 -1.225872e+00 -9.761143e-01 9.702345e-01 6.167346e-01 -6.073884e-01 -4.212409e-01
<VARIANCE> 25
 5.060430e+01 1.688354e+01 1.189282e+02 1.470382e+01 7.875381e+01 3.301054e+01 5.933149e+01 3.804111e+01 1.144598e+02 2.773443e+01 1.984925e+01 1.909177e+01 7.123469e-01 1.489543e+00 2.128430e+00 1.601509e+00 9.451385e-01 2.417181e+00 3.239381e+00 3.141168e+00 2.072299e+00 1.861781e+00 1.470145e+00 3.254776e+00 6.804127e-01
<GCONST> 9.671160e+01
<TRANSP> 5
 0.000000e+00 1.000000e+00 0.000000e+00 0.000000e+00 0.000000e+00
 0.000000e+00 8.565193e-01 1.434807e-01 0.000000e+00 0.000000e+00
 0.000000e+00 0.000000e+00 7.941921e-01 2.058078e-01 0.000000e+00
 0.000000e+00 0.000000e+00 0.000000e+00 5.034131e-01 4.965869e-01
 0.000000e+00 0.000000e+00 0.000000e+00 0.000000e+00 0.000000e+00
<ENDHMM>
~h "s"
<BEGINHMM>
<NUMSTATES> 5
<STATE> 2
<MEAN> 25
 -9.063635e+00 5.452796e+00 -3.422755e+00 -1.220917e+00 5.215490e+00 -8.762745e+00 2.845018e+00 -7.783804e-01 4.562834e-01 -1.281459e+00 -2.632396e+00 2.152793e+00 -2.762664e+00 1.707387e+00 -1.510583e+00 -7.842130e-01 1.086758e+00 -1.295199e+00 8.880329e-01 -2.286528e-01 3.472261e-01 -5.285061e-01 9.553541e-02 -3.856971e-02 1.811270e+00
<VARIANCE> 25
 4.696032e+01 2.306069e+01 2.515894e+01 1.703030e+01 2.217739e+01 3.997351e+01 3.341145e+01 2.852157e+01 2.086802e+01 2.097860e+01 1.785232e+01 1.729226e+01 5.030030e+00 2.892181e+00 2.510281e+00 1.908246e+00 1.833378e+00 4.263156e+00 4.351897e+00 3.362288e+00 3.453044e+00 2.477047e+00 2.840948e+00 1.716998e+00 1.987584e+00
<GCONST> 9.785692e+01
<STATE> 3
<MEAN> 25
 -1.583386e+01 8.209620e+00 -9.222777e+00 -2.820632e+00 7.984314e+00 -8.377730e+00 6.004702e+00 -4.750078e-02 2.716957e+00 -1.167367e+00 -1.520007e+00 3.192225e+00 4.316921e-01 -2.779816e-01 2.614312e-02 1.570276e-01 -8.341680e-02 3.262624e-01 4.740588e-02 -6.644280e-02 1.381997e-01 3.019964e-01 1.064294e-01 4.088049e-02 -4.836420e-01
<VARIANCE> 25
 1.719205e+01 1.193002e+01 1.520016e+01 1.501463e+01 1.283556e+01 1.962519e+01 1.919835e+01 2.613962e+01 1.854145e+01 1.977848e+01 1.980705e+01 1.624413e+01 1.684915e+00 8.716727e-01 1.258210e+00 1.154074e+00 1.106320e+00 1.560389e+00 1.287888e+00 1.377175e+00 1.485809e+00 1.813322e+00 1.431121e+00 1.442291e+00 1.965353e+00
<GCONST> 8.439431e+01
<STATE> 4
<MEAN> 25
 -5.868033e+00 3.316766e+00 -2.644027e+00 -6.772697e-01 2.456254e+00 -7.773973e+00 2.904801e+00 -1.648957e-01 4.037368e-02 9.280512e-01 -7.216145e-01 1.334304e+00 2.263079e+00 -6.624987e-01 2.156045e+00 9.881845e-03 -2.012233e+00 -2.835818e-01 -1.637769e+00 5.469126e-02 -1.364264e+00 -1.432295e-01 -2.072738e-01 -1.252913e+00 5.495074e-01
<VARIANCE> 25
 5.507106e+01 1.755904e+01 3.748617e+01 1.893081e+01 3.928120e+01 2.517816e+01 2.467622e+01 3.008662e+01 4.225743e+01 2.549042e+01 2.231515e+01 3.325155e+01 5.548612e+00 2.966376e+00 5.056459e+00 2.265611e+00 3.463301e+00 3.775473e+00 3.599885e+00 4.941703e+00 4.060004e+00 2.516748e+00 2.841894e+00 1.967063e+00 3.864997e+00
<GCONST> 1.025699e+02
<TRANSP> 5
 0.000000e+00 1.000000e+00 0.000000e+00 0.000000e+00 0.000000e+00
 0.000000e+00 7.355255e-01 2.644744e-01 0.000000e+00 0.000000e+00
 0.000000e+00 0.000000e+00 9.162628e-01 8.373724e-02 0.000000e+00
 0.000000e+00 0.000000e+00 0.000000e+00 7.358894e-01 2.641106e-01
 0.000000e+00 0.000000e+00 0.000000e+00 0.000000e+00 0.000000e+00
<ENDHMM>
~h "t"
<BEGINHMM>
<NUMSTATES> 5
<STATE> 2
<MEAN> 25
 -5.413495e+00 2.485624e-01 3.131919e+00 -1.937068e+00 1.050995e-01 5.125898e-01 1.784078e-01 -9.523207e-01 -8.603876e-01 4.888190e-01 2.445646e-01 8.029780e-02 -7.334270e-01 2.143491e-01 -9.828245e-02 -8.695789e-01 -2.779885e-01 -6.010832e-01 -9.901214e-02 -6.670436e-02 -2.631666e-01 -2.425909e-03 -2.317654e-01 1.259993e-04 1.864053e+00
<VARIANCE> 25
 2.735692e+01 2.078906e+01 5.790876e+01 3.526432e+01 3.663555e+01 2.681557e+01 2.879694e+01 2.393935e+01 5.677039e+01 2.202520e+01 1.663658e+01 2.787087e+01 1.971262e+00 2.500677e+00 3.813145e+00 3.855499e+00 3.895627e+00 3.703100e+00 3.422553e+00 2.636055e+00 4.962047e+00 3.138272e+00 2.404223e+00 2.866713e+00 1.076574e+01
<GCONST> 1.028124e+02
<STATE> 3
<MEAN> 25
 -4.474010e+00 1.785553e+00 4.823203e+00 -8.522672e-01 -5.293900e-01 -3.056134e+00 1.524151e+00 2.823793e-01 -1.764238e+00 1.551818e+00 -1.445304e+00 1.882489e+00 6.302683e-01 -2.778028e-01 1.779771e-01 1.043205e+00 4.870442e-01 9.424468e-01 3.748158e-01 3.921692e-01 4.817906e-01 3.514636e-01 5.749616e-01 3.807417e-01 -2.149061e+00
<VARIANCE> 25
 2.780750e+01 8.360607e+00 4.771090e+01 2.691551e+01 4.193339e+01 3.645468e+01 3.231244e+01 2.873134e+01 3.029284e+01 2.297476e+01 1.838743e+01 3.166599e+01 3.221116e+00 1.047534e+00 3.156691e+00 2.328617e+00 3.655383e+00 4.138683e+00 3.513549e+00 1.843374e+00 2.533737e+00 2.035753e+00 2.368425e+00 2.444254e+00 3.193572e+00
<GCONST> 9.798489e+01
<STATE> 4
<MEAN> 25
 -4.442163e+00 -1.681387e+00 -8.487470e-01 1.768971e+00 3.079200e+00 2.771406e+00 3.605742e+00 2.051720e+00 3.689317e+00 2.734942e+00 2.360284e+00 3.348143e+00 2.508878e-02 -3.783053e-02 -3.467600e-02 1.617039e-02 -3.030106e-02 3.892361e-02 -1.422784e-02 2.588638e-03 2.397153e-02 -4.943170e-02 5.675938e-02 -1.452364e-02 -4.563441e-02
<VARIANCE> 25
 3.833132e+00 5.635676e+00 1.274989e+01 7.760824e+00 1.274878e+01 1.141730e+01 1.563525e+01 1.343522e+01 1.567091e+01 1.328666e+01 1.167581e+01 1.156415e+01 2.021129e-01 2.471369e-01 5.248947e-01 5.904777e-01 7.619960e-01 1.050564e+00 1.210070e+00 1.354278e+00 1.151863e+00 1.104989e+00 1.082029e+00 1.122282e+00 9.527107e-02
<GCONST> 6.837403e+01
<TRANSP> 5
 0.000000e+00 1.000000e+00 0.000000e+00 0.000000e+00 0.000000e+00
 0.000000e+00 7.636814e-01 2.363186e-01 0.000000e+00 0.000000e+00
 0.000000e+00 0.000000e+00 7.335619e-01 2.664382e-01 0.000000e+00
 0.000000e+00 0.000000e+00 0.000000e+00 9.153482e-01 8.465172e-02
 0.000000e+00 0.000000e+00 0.000000e+00 0.000000e+00 0.000000e+00
<ENDHMM>
~h "v"
<BEGINHMM>
<NUMSTATES> 5
<STATE> 2
<MEAN> 25
 3.814792e-01 9.090903e-01 -3.464675e-01 3.622048e+00 -1.696412e+00 -5.864038e+00 -2.263717e+00 1.317081e+00 2.351623e+00 3.127490e-01 7.159116e-02 1.198018e+00 -1.160753e+00 3.015051e-01 -2.244131e-01 8.628273e-02 5.873014e-01 7.362741e-01 3.435001e-01 -2.309520e-01 7.644354e-01 6.422484e-01 3.225868e-01 4.189482e-01 -9.994475e-01
<VARIANCE> 25
 6.667004e+01 1.359812e+01 1.912415e+01 2.746672e+01 4.386763e+01 5.186858e+01 2.543015e+01 1.958922e+01 2.866418e+01 3.143547e+01 2.702936e+01 2.305029e+01 5.422464e+00 2.134894e+00 1.622987e+00 3.049094e+00 6.288088e+00 7.017653e+00 3.549157e+00 2.286598e+00 2.387145e+00 3.175013e+00 3.915430e+00 2.420275e+00 2.756387e+00
<GCONST> 1.014166e+02
<STATE> 3
<MEAN> 25
 -5.279713e+00 -4.209022e-01 -2.217018e+00 4.154602e+00 8.242355e-01 -6.095684e-01 3.804522e-01 1.023261e+00 3.475062e+00 1.488488e+00 5.644240e-01 2.286481e+00 -1.916239e-01 -4.059296e-01 -1.568845e-01 -1.418352e-01 1.774375e-01 1.630030e-01 1.953499e-01 6.276204e-02 -2.859520e-01 -2.925905e-01 2.130179e-02 3.879755e-02 -1.994234e-01
<VARIANCE> 25
 2.180252e+01 9.378702e+00 1.476765e+01 1.229575e+01 1.500611e+01 1.289522e+01 1.930398e+01 2.146089e+01 2.862754e+01 1.936729e+01 1.943558e+01 2.009390e+01 1.983861e+00 6.041951e-01 1.164550e+00 1.807109e+00 2.638251e+00 2.340105e+00 2.418181e+00 2.182722e+00 3.056896e+00 2.117809e+00 2.488597e+00 1.809489e+00 1.748374e+00
<GCONST> 8.838681e+01
<STATE> 4
<MEAN> 25
 -4.004533e+00 -3.373404e+00 -2.270043e+00 4.045048e+00 4.153317e+00 -3.410305e-01 4.467729e+00 2.964537e+00 5.899683e+00 2.626813e+00 3.453524e+00 5.327424e+00 8.399674e-03 3.894331e-03 -4.466884e-02 -8.400995e-02 4.302049e-02 -1.176859e-02 1.386052e-02 2.444047e-02 7.772093e-02 9.230023e-02 1.435894e-02 2.010582e-02 1.635753e-02
<VARIANCE> 25
 5.614209e+00 6.153442e+00 5.929695e+00 7.036539e+00 1.004204e+01 1.292450e+01 1.165632e+01 1.236401e+01 1.593476e+01 1.387368e+01 1.333452e+01 1.891511e+01 2.428312e-01 3.378798e-01 4.540609e-01 5.517511e-01 6.440037e-01 9.742128e-01 9.401951e-01 1.169165e+00 9.583580e-01 1.473520e+00 1.473201e+00 1.581999e+00 1.705757e-01
<GCONST> 6.915217e+01
<TRANSP> 5
 0.000000e+00 1.000000e+00 0.000000e+00 0.000000e+00 0.000000e+00
 0.000000e+00 7.400354e-01 2.599646e-01 0.000000e+00 0.000000e+00
 0.000000e+00 0.000000e+00 7.865953e-01 2.134048e-01 0.000000e+00
 0.000000e+00 0.000000e+00 0.000000e+00 8.884637e-01 1.115362e-01
 0.000000e+00 0.000000e+00 0.000000e+00 0.000000e+00 0.000000e+00
<ENDHMM>
~h "w"
<BEGINHMM>
<NUMSTATES> 5
<STATE> 2
<MEAN> 25
 6.864028e+00 6.920193e+00 1.142823e+00 -1.628459e+00 -1.250124e+00 -2.424334e+00 -3.637756e+00 -5.439690e+00 -5.922453e+00 -4.168656e+00 -2.881358e+00 -3.053981e+00 1.411308e+00 2.923683e-01 -6.790149e-01 -1.217862e+00 -3.242523e-01 1.327623e-01 -6.322923e-01 -7.712117e-01 -2.511333e+00 4.762407e-02 1.027164e-01 -8.234336e-01 1.615410e+00
<VARIANCE> 25
 2.134859e+01 1.246575e+01 2.242818e+01 3.778374e+01 1.363118e+01 2.360514e+01 2.312559e+01 1.986542e+01 5.743248e+01 3.288636e+01 1.846912e+01 2.002582e+01 1.959224e+00 3.716478e+00 2.451232e+00 2.794555e+00 2.838197e+00 4.708334e+00 3.533006e+00 2.316797e+00 5.997664e+00 6.737413e+00 3.235153e+00 2.388002e+00 1.428334e+00
<GCONST> 9.833814e+01
<STATE> 3
<MEAN> 25
 1.069789e+01 4.659137e-01 -4.400577e+00 -4.010198e+00 7.300610e-01 1.326181e+00 -5.921805e+00 -3.528528e+00 -1.467495e+01 -3.811822e+00 4.607887e-01 -1.064247e+01 1.605417e-01 -1.113693e+00 3.178780e-01 4.902731e-01 3.771458e-02 -2.586737e-01 -7.029744e-01 1.204573e+00 6.849404e-01 -8.555620e-01 -2.708083e-01 -6.051385e-01 6.326017e-01
<VARIANCE> 25
 3.918824e+00 2.120543e+01 4.804616e+01 1.162762e+01 3.377962e+01 4.838507e+01 3.956631e+01 3.355289e+01 4.026599e+01 4.748493e+01 1.761166e+01 2.195713e+01 7.569178e-01 8.514751e-01 4.829107e+00 2.013367e+00 4.201644e+00 5.802351e+00 4.517737e+00 2.590158e+00 3.947261e+00 3.190249e+00 4.537472e+00 2.241716e+00 1.866884e-01
<GCONST> 9.545932e+01
<STATE> 4
<MEAN> 25
 1.174827e+01 -3.381519e+00 -2.175759e+00 -2.098243e+00 1.732247e-01 -1.607203e+00 -8.598335e+00 4.675358e-01 -1.030612e+01 -7.431591e+00 -3.249335e+00 -1.023694e+01 -1.241011e-01 -6.521278e-01 1.530323e+00 -2.531499e-01 -8.605732e-01 -8.324859e-01 3.539170e-01 8.491024e-01 9.212739e-01 -5.665843e-01 -2.111165e+00 1.638904e+00 1.973349e-01
<VARIANCE> 25
 8.889420e+00 2.100550e+01 8.770615e+01 1.432553e+01 4.216134e+01 2.415780e+01 1.818529e+01 4.115894e+01 3.329300e+01 3.726722e+01 1.627396e+01 1.942790e+01 4.448965e-01 1.471365e+00 2.728616e-01 1.527444e+00 5.885984e-01 3.372501e+00 5.547058e-01 1.657910e+00 1.157756e+00 6.174890e-01 1.638821e+00 1.638999e+00 9.802762e-02
<GCONST> 8.236942e+01
<TRANSP> 5
 0.000000e+00 1.000000e+00 0.000000e+00 0.000000e+00 0.000000e+00
 0.000000e+00 8.386546e-01 1.613453e-01 0.000000e+00 0.000000e+00
 0.000000e+00 0.000000e+00 8.339397e-01 1.660603e-01 0.000000e+00
 0.000000e+00 0.000000e+00 0.000000e+00 3.232614e-01 6.767386e-01
 0.000000e+00 0.000000e+00 0.000000e+00 0.000000e+00 0.000000e+00
<ENDHMM>
~h "y"
<BEGINHMM>
<NUMSTATES> 5
<STATE> 2
<MEAN> 25
 1.870554e+00 3.924387e+00 1.205766e+01 2.068157e+00 -7.706341e+00 -2.813281e+00 -6.746510e+00 4.403455e-01 -9.810538e+00 -2.071268e+00 8.930086e-01 -3.258739e+00 6.819239e-01 -3.479141e-01 -3.491271e-01 2.822054e-01 -8.921025e-01 -5.830337e-01 -6.244755e-01 8.498425e-01 -2.406868e-01 -7.085672e-01 4.311166e-01 -2.729355e-01 1.012257e+00
<VARIANCE> 25
 1.178725e+01 2.540998e+01 4.858047e+01 2.013523e+01 7.758786e+01 3.082622e+01 3.988276e+01 2.803221e+01 8.423232e+01 2.742463e+01 2.022708e+01 3.469138e+01 1.328998e+00 2.356410e+00 6.846950e+00 2.989255e+00 5.086020e+00 2.295515e+00 5.306746e+00 3.264629e+00 9.447913e+00 3.343080e+00 2.832894e+00 3.987200e+00 1.127013e+00
<GCONST> 1.030990e+02
<STATE> 3
<MEAN> 25
 9.529829e+00 3.048020e-01 -2.360358e+00 6.395563e-01 -3.573503e-01 -6.822695e-01 -9.214188e+00 1.619344e-01 -6.098127e+00 -4.455375e+00 -2.403237e+00 -8.760889e+00 3.238275e-01 -7.102521e-02 -7.850120e-01 -6.118207e-01 1.127792e+00 4.718107e-01 -3.193536e-01 -2.952155e-01 5.361042e-01 3.742625e-01 -3.963475e-01 -5.417813e-01 -2.077266e-01
<VARIANCE> 25
 5.944875e+00 5.258958e+01 4.218279e+01 4.481202e+01 3.627102e+01 6.475642e+01 4.367488e+01 8.698454e+01 9.799921e+01 5.636914e+01 2.779176e+01 2.989499e+01 6.462390e-01 1.988215e+00 3.007515e+00 2.845663e+00 3.824480e+00 4.517621e+00 4.372563e+00 5.344917e+00 5.000363e+00 4.421793e+00 3.325668e+00 2.869540e+00 1.638171e+00
<GCONST> 1.048239e+02
<STATE> 4
<MEAN> 25
 8.656638e+00 2.811732e-01 -5.412666e-02 2.962118e+00 1.031880e+00 -2.335886e+00 -2.356600e+00 -5.481050e+00 -3.996138e+00 1.539207e+00 -1.217105e+00 -5.809401e+00 -1.600760e-01 4.172734e-01 3.927314e-01 3.747702e-01 -1.413353e-01 -1.647174e-01 3.224536e-01 -6.158221e-01 -1.688810e-01 -4.452406e-03 5.637073e-02 3.613531e-01 -5.002030e-01
<VARIANCE> 25
 8.581550e+00 1.775669e+01 6.484843e+01 3.806869e+01 2.364771e+01 3.875507e+01 3.172776e+01 3.686345e+01 3.125422e+01 1.829023e+01 2.374267e+01 1.784013e+01 2.234649e-01 2.886470e-01 1.726584e+00 6.756521e-01 1.103265e+00 1.436205e+00 1.324641e+00 1.159494e+00 1.550256e+00 1.149303e+00 1.147800e+00 6.547666e-01 2.498891e-01
<GCONST> 8.227456e+01
<TRANSP> 5
 0.000000e+00 1.000000e+00 0.000000e+00 0.000000e+00 0.000000e+00
 0.000000e+00 8.776085e-01 1.223915e-01 0.000000e+00 0.000000e+00
 0.000000e+00 0.000000e+00 8.929898e-01 1.070102e-01 0.000000e+00
 0.000000e+00 0.000000e+00 0.000000e+00 8.978003e-01 1.021997e-01
 0.000000e+00 0.000000e+00 0.000000e+00 0.000000e+00 0.000000e+00
<ENDHMM>
~h "z"
<BEGINHMM>
<NUMSTATES> 5
<STATE> 2
<MEAN> 25
 -1.447739e+01 9.882686e+00 -5.146030e+00 -2.608217e+00 1.037007e+01 -1.080034e+01 1.274543e+00 6.989086e-01 1.576105e+00 -1.755659e-01 -2.613106e+00 2.921081e+00 -4.907017e-01 -2.727705e-01 5.289656e-02 1.621438e-01 3.609688e-01 -3.815862e-01 9.024027e-02 3.543258e-01 5.043716e-02 1.879514e-01 -2.495621e-01 1.360920e-01 -1.030444e-01
<VARIANCE> 25
 6.217967e+01 3.097729e+01 3.430257e+01 1.826303e+01 2.760523e+01 2.029703e+01 3.599605e+01 2.682063e+01 2.718243e+01 2.570799e+01 1.701641e+01 1.703455e+01 6.889124e+00 2.159609e+00 1.747857e+00 1.593798e+00 4.128869e+00 1.950183e+00 1.946476e+00 2.439487e+00 3.188965e+00 2.710282e+00 1.718329e+00 1.191620e+00 1.232132e+00
<GCONST> 9.582045e+01
<STATE> 3
<MEAN> 25
 -5.839700e+00 9.826361e+00 7.888501e-01 2.298905e+00 7.100319e+00 -1.069404e+01 3.035682e+00 -3.878267e+00 -3.043160e+00 -2.274811e+00 -4.360960e+00 1.232016e+00 5.669952e-01 -9.976137e-02 7.458773e-01 1.591434e-01 -7.560356e-01 1.322905e-01 1.239310e-01 -1.101302e-01 -3.562782e-01 -4.333291e-02 2.694255e-01 -1.012490e-01 1.174620e-01
<VARIANCE> 25
 1.830871e+01 3.830134e+01 1.807267e+01 9.878053e+00 2.275585e+01 3.847656e+01 2.897575e+01 1.893164e+01 2.287693e+01 1.537073e+01 1.976753e+01 1.662516e+01 2.766112e+00 2.619951e+00 2.902587e+00 1.078107e+00 3.842113e+00 4.346812e+00 3.201692e+00 2.827491e+00 2.695954e+00 1.581225e+00 1.865716e+00 1.459668e+00 1.554355e+00
<GCONST> 9.345705e+01
<STATE> 4
<MEAN> 25
 -4.463928e+00 -6.031945e-01 1.203707e+00 3.548967e+00 3.214666e+00 1.269527e-01 4.516501e+00 2.294994e+00 3.228585e+00 2.950994e+00 1.357057e+00 3.886077e+00 1.783047e-01 -2.681454e-01 2.291088e-01 1.215383e-01 -3.529563e-01 4.542311e-01 3.496490e-02 2.177370e-01 1.546414e-01 3.612129e-02 2.376500e-01 -8.307880e-03 -1.711693e-01
<VARIANCE> 25
 1.057201e+01 8.213851e+00 2.104504e+01 1.172193e+01 1.594744e+01 2.461947e+01 2.580118e+01 1.970801e+01 2.877659e+01 1.562654e+01 9.805189e+00 1.413581e+01 8.977149e-01 1.244153e+00 1.582855e+00 1.552205e+00 2.200656e+00 2.161841e+00 3.063875e+00 2.515217e+00 2.093391e+00 1.236381e+00 1.117314e+00 1.580590e+00 3.451341e-01
<GCONST> 8.423062e+01
<TRANSP> 5
 0.000000e+00 1.000000e+00 0.000000e+00 0.000000e+00 0.000000e+00
 0.000000e+00 8.922902e-01 1.077098e-01 0.000000e+00 0.000000e+00
 0.000000e+00 0.000000e+00 8.875058e-01 1.124941e-01 0.000000e+00
 0.000000e+00 0.000000e+00 0.000000e+00 8.730519e-01 1.269480e-01
 0.000000e+00 0.000000e+00 0.000000e+00 0.000000e+00 0.000000e+00
<ENDHMM>
~h "aa"
<BEGINHMM>
<NUMSTATES> 5
<STATE> 2
<MEAN> 25
 9.271057e+00 -7.195155e+00 -8.216545e+00 -1.188775e+01 2.794880e-01 1.138494e+01 -3.295687e+00 -3.601964e+00 6.194068e-01 -5.007961e+00 1.183430e+00 -1.428975e+01 3.375581e-01 5.117776e-02 -3.259385e-01 -5.917199e-01 -1.807095e-01 3.050108e-01 -4.691886e-01 -3.357211e-02 8.498072e-02 -5.164375e-01 2.294087e-01 -2.814713e-01 3.447312e-02
<VARIANCE> 25
 1.028572e+01 1.824563e+01 9.482664e+00 3.599625e+01 1.162653e+01 2.513321e+01 2.609264e+01 2.125115e+01 5.220263e+01 4.933477e+01 1.732539e+01 4.006017e+01 5.134231e-01 5.109360e-01 7.052535e-01 2.177834e+00 1.879907e+00 2.397906e+00 1.649033e+00 2.246144e+00 1.741541e+00 2.783477e+00 2.365237e+00 2.355206e+00 6.286941e-01
<GCONST> 8.814441e+01
<STATE> 3
<MEAN> 25
 6.414001e+00 -2.252071e-02 -6.891953e+00 -7.481622e+00 4.524773e-01 9.762701e+00 -2.166399e+00 -1.253526e-01 -2.572340e-01 -2.755777e+00 -2.338176e+00 -9.003126e+00 -1.388987e+00 4.518275e-01 1.696446e+00 1.776597e+00 1.539312e-02 -1.673625e+00 1.792639e+00 1.208862e+00 8.625490e-02 1.455421e+00 -7.266448e-01 2.478881e+00 -2.375882e+00
<VARIANCE> 25
 5.181551e+01 1.837955e+01 1.994622e+01 4.566076e+01 2.049938e+01 2.806318e+01 6.280590e+01 3.389457e+01 3.684302e+01 4.189979e+01 3.912187e+01 3.639624e+01 3.077450e+00 3.048010e+00 2.873582e+00 2.479093e+00 2.306381e+00 2.958216e+00 4.603787e+00 4.691732e+00 3.858058e+00 2.620097e+00 5.706192e+00 1.831795e+00 2.915839e+00
<GCONST> 1.031667e+02
<STATE> 4
<MEAN> 25
 3.015208e+00 -3.040480e+00 2.042868e+00 -2.425064e+00 -4.608459e+00 2.128536e+00 -1.267307e+00 3.674740e+00 1.236699e+00 1.788933e+00 -1.822100e+00 -7.424575e-01 -6.755211e-01 8.470176e-01 1.890409e+00 2.104123e+00 4.774479e-01 -6.565279e-01 5.456091e-01 -2.297928e+00 -1.596537e+00 -3.405381e-01 3.608674e-01 1.856923e+00 -1.279996e+00
<VARIANCE> 25
 5.091454e+01 2.793182e+01 2.584626e+01 3.963132e+01 7.568564e+01 3.833414e+01 6.443365e+01 4.987074e+01 3.431961e+01 1.416327e+01 2.783495e+01 2.369166e+01 3.945913e-01 1.341622e+00 3.816700e+00 2.961185e+00 6.444328e+00 2.447981e+00 2.806919e+00 8.397985e+00 1.075091e+00 3.631344e+00 1.901369e+00 2.577769e+00 1.784895e+00
<GCONST> 1.001028e+02
<TRANSP> 5
 0.000000e+00 1.000000e+00 0.000000e+00 0.000000e+00 0.000000e+00
 0.000000e+00 8.512449e-01 1.487551e-01 0.000000e+00 0.000000e+00
 0.000000e+00 0.000000e+00 6.374326e-01 3.625675e-01 0.000000e+00
 0.000000e+00 0.000000e+00 0.000000e+00 4.270696e-01 5.729304e-01
 0.000000e+00 0.000000e+00 0.000000e+00 0.000000e+00 0.000000e+00
<ENDHMM>
~h "ae"
<BEGINHMM>
<NUMSTATES> 5
<STATE> 2
<MEAN> 25
 1.608955e+00 -7.534985e+00 -1.189545e+00 -5.752334e-01 -3.104939e+00 -4.229322e+00 3.354918e+00 6.656857e+00 -1.800313e+00 -3.176376e+00 -4.431561e+00 -3.679345e+00 2.209666e+00 -2.259274e+00 -1.746903e-01 -1.410414e+00 -9.091060e-01 -9.492104e-01 -1.103307e-01 1.862108e+00 -1.928630e+00 -1.649159e+00 -2.916559e+00 -2.705036e+00 4.201477e+00
<VARIANCE> 25
 2.201334e+01 2.520209e+01 2.116757e+01 1.937377e+01 3.721480e+01 3.047908e+01 2.847142e+01 2.147826e+01 3.420483e+01 1.824778e+01 4.498312e+01 3.233878e+01 1.152124e+00 2.027458e+00 2.147218e+00 1.419276e+00 4.691126e+00 3.428524e+00 2.154729e+00 1.086901e+00 2.955399e+00 2.215670e+00 2.633163e+00 3.020994e+00 4.182665e+00
<GCONST> 9.642595e+01
<STATE> 3
<MEAN> 25
 7.571023e+00 -1.081496e+01 -2.825510e+00 -2.922094e+00 -2.974977e+00 -2.086075e+00 2.891123e+00 6.073425e+00 -2.637458e+00 -8.154971e+00 -8.905355e+00 -9.926995e+00 4.100662e-01 1.263533e-04 -5.089095e-01 1.851896e-01 2.999147e-01 9.511297e-02 -2.991038e-01 -2.971274e-01 4.374371e-01 -8.930785e-02 -1.237744e-01 -1.224976e-01 3.775034e-02
<VARIANCE> 25
 6.450966e+00 2.207969e+01 3.206273e+01 1.445416e+01 2.415352e+01 2.055239e+01 2.090558e+01 2.537698e+01 2.430275e+01 1.487994e+01 2.443199e+01 3.318022e+01 3.661216e-01 1.059549e+00 7.708671e-01 1.184352e+00 1.758001e+00 1.692610e+00 1.150217e+00 1.647137e+00 1.157038e+00 1.521349e+00 1.451261e+00 1.635462e+00 1.062970e+00
<GCONST> 8.429654e+01
<STATE> 4
<MEAN> 25
 8.795550e+00 -5.745061e+00 -4.117770e+00 2.261910e-02 -1.603253e+00 -4.367510e+00 -9.507942e-01 3.079567e+00 -3.511118e-01 -3.315884e+00 -6.756492e+00 -7.652637e+00 -9.103283e-01 2.041039e+00 7.917614e-01 1.004535e+00 5.790678e-01 5.831386e-01 2.633241e-01 -1.766768e+00 -1.908591e-01 1.364596e+00 1.005651e+00 8.815162e-01 -2.530808e+00
<VARIANCE> 25
 1.834050e+01 2.975645e+01 3.966929e+01 3.133013e+01 3.620150e+01 6.374172e+01 4.481743e+01 4.498590e+01 4.729509e+01 2.994623e+01 2.283809e+01 4.252448e+01 3.136395e+00 1.535374e+00 2.198646e+00 4.360370e+00 3.433120e+00 4.371235e+00 2.160577e+00 5.194010e+00 4.877120e+00 3.366434e+00 2.059467e+00 4.374936e+00 2.567715e+00
<GCONST> 1.037599e+02
<TRANSP> 5
 0.000000e+00 1.000000e+00 0.000000e+00 0.000000e+00 0.000000e+00
 0.000000e+00 6.707753e-01 3.292247e-01 0.000000e+00 0.000000e+00
 0.000000e+00 0.000000e+00 8.811054e-01 1.188945e-01 0.000000e+00
 0.000000e+00 0.000000e+00 0.000000e+00 7.392648e-01 2.607352e-01
 0.000000e+00 0.000000e+00 0.000000e+00 0.000000e+00 0.000000e+00
<ENDHMM>
~h "ah"
<BEGINHMM>
<NUMSTATES> 5
<STATE> 2
<MEAN> 25
 2.570177e+00 -2.407647e+00 3.526114e-01 -6.599737e-01 -1.746435e+00 -2.573556e+00 -1.233141e+00 8.615429e-01 -7.984974e-01 -2.281447e+00 -2.791680e+00 -4.689475e+00 1.283669e+00 -3.825784e-01 4.962136e-02 -8.091912e-01 -4.968426e-01 -6.651472e-01 -5.909345e-01 1.447784e-01 -3.911970e-01 -8.941237e-02 -6.270105e-01 -8.166959e-01 1.129302e+00
<VARIANCE> 25
 5.740477e+01 3.658923e+01 6.072679e+01 5.170688e+01 2.970582e+01 5.355518e+01 4.551690e+01 4.807250e+01 5.456781e+01 3.054743e+01 3.187147e+01 5.237109e+01 4.640553e+00 3.135188e+00 3.408402e+00 4.224684e+00 2.998564e+00 4.888518e+00 3.222403e+00 3.043777e+00 3.867969e+00 2.172959e+00 2.870765e+00 4.966606e+00 4.853491e+00
<GCONST> 1.082292e+02
<STATE> 3
<MEAN> 25
 7.478474e+00 -2.124185e+00 1.842989e-03 -2.559816e+00 -2.199074e+00 -3.769685e+00 -4.357012e+00 -2.233431e-01 -2.140999e+00 -1.729466e+00 -3.790399e+00 -5.321784e+00 2.162345e-01 1.054703e+00 2.483283e-01 1.907431e-01 4.820892e-01 6.531247e-01 3.068319e-01 -1.127046e+00 -1.134931e+00 3.938357e-01 3.871200e-01 4.563484e-01 -1.003130e+00
<VARIANCE> 25
 2.831339e+01 3.952104e+01 4.790050e+01 5.005907e+01 2.463040e+01 5.549206e+01 3.625179e+01 4.964051e+01 4.305587e+01 4.011568e+01 3.045909e+01 3.693427e+01 4.428780e+00 2.378625e+00 3.750787e+00 6.531606e+00 3.737463e+00 4.237192e+00 3.217595e+00 5.152099e+00 4.435223e+00 3.677840e+00 3.194712e+00 3.937329e+00 4.043083e+00
<GCONST> 1.077893e+02
<STATE> 4
<MEAN> 25
 5.995848e+00 1.148523e+00 1.146164e+00 -4.335618e-01 -8.763149e-01 -2.046710e+00 -3.291230e+00 -3.212764e+00 -4.880553e+00 -6.280723e-02 -2.919535e+00 -3.952074e+00 9.592909e-02 5.077608e-01 1.442188e-01 -3.950456e-02 3.075618e-02 4.123257e-01 5.582760e-01 -8.562483e-01 -9.960549e-01 5.481398e-01 2.059634e-01 2.188737e-01 -5.542454e-01
<VARIANCE> 25
 4.345220e+01 2.773982e+01 5.207180e+01 6.420006e+01 2.981207e+01 4.139909e+01 4.798346e+01 6.244447e+01 5.303674e+01 3.677990e+01 2.856589e+01 3.423584e+01 3.629792e+00 3.239299e+00 2.740429e+00 5.035721e+00 3.583081e+00 3.856682e+00 3.456568e+00 8.709839e+00 5.283772e+00 4.278559e+00 2.695883e+00 2.656777e+00 2.767128e+00
<GCONST> 1.079657e+02
<TRANSP> 5
 0.000000e+00 1.000000e+00 0.000000e+00 0.000000e+00 0.000000e+00
 0.000000e+00 6.531378e-01 3.468622e-01 0.000000e+00 0.000000e+00
 0.000000e+00 0.000000e+00 3.911876e-01 6.088124e-01 0.000000e+00
 0.000000e+00 0.000000e+00 0.000000e+00 3.978418e-01 6.021582e-01
 0.000000e+00 0.000000e+00 0.000000e+00 0.000000e+00 0.000000e+00
<ENDHMM>
~h "ao"
<BEGINHMM>
<NUMSTATES> 5
<STATE> 2
<MEAN> 25
 7.082757e+00 3.133252e+00 -5.467865e+00 -1.339542e+01 -2.721043e+00 8.356933e+00 2.507309e+00 -1.402622e+00 1.083219e+00 -3.835981e+00 6.940282e-01 -1.766180e+00 2.860740e+00 3.220244e-01 -4.172283e-01 -4.390038e+00 -3.531005e+00 3.001514e-01 -4.747616e-01 4.776252e-03 -7.139877e-01 -9.758402e-01 -2.033312e-02 -1.520224e+00 1.488099e+00
<VARIANCE> 25
 3.137532e+01 2.482200e+01 1.857239e+01 7.548626e+01 6.132600e+01 5.017090e+01 1.421084e+01 2.171511e+01 2.147090e+01 1.389291e+01 8.430001e+00 2.281865e+01 3.296973e+00 1.258444e+00 1.148018e+00 3.946786e+00 3.701880e+00 6.085655e+00 1.349264e+00 1.154023e+00 3.157498e+00 1.746498e+00 1.048334e+00 1.147831e+00 2.656542e+00
<GCONST> 9.393231e+01
<STATE> 3
<MEAN> 25
 1.175410e+01 2.097292e+00 -7.167621e+00 -2.526429e+01 -7.825525e+00 1.056800e+01 3.035517e+00 1.183980e+00 9.030231e-01 -7.242709e+00 -5.053025e-01 -4.244548e+00 2.033882e-02 3.654670e-01 7.334989e-02 -9.918945e-02 -3.471276e-01 -5.828602e-01 9.393685e-02 4.515948e-01 2.244184e-02 3.960788e-02 -2.205176e-01 2.104927e-01 -2.047075e-01
<VARIANCE> 25
 4.558495e+00 2.097550e+01 1.031332e+01 1.177674e+01 2.209008e+01 2.415248e+01 1.207815e+01 1.732795e+01 1.904291e+01 1.644051e+01 9.514898e+00 7.344383e+00 1.332579e-01 3.014584e-01 3.982097e-01 7.800707e-01 7.804167e-01 6.973752e-01 5.196499e-01 6.196147e-01 7.443768e-01 7.510307e-01 7.290568e-01 5.456541e-01 1.618020e-01
<GCONST> 6.747330e+01
<STATE> 4
<MEAN> 25
 9.280769e+00 8.167770e+00 -5.306355e+00 -1.422914e+01 -1.257466e+01 -2.241806e+00 1.484433e+00 3.428627e+00 9.380455e-02 -1.959794e+00 -1.281211e+00 -1.096473e-01 6.584042e-02 -1.529703e-01 -2.868871e-01 4.092318e-01 7.377269e-01 3.812748e-02 4.104817e-02 -3.303564e-01 -6.143119e-01 1.579069e-01 3.777846e-01 4.896118e-01 -1.030507e-02
<VARIANCE> 25
 6.319501e+00 1.130101e+01 1.214084e+01 3.143948e+01 2.529773e+01 2.560528e+01 1.569135e+01 1.429503e+01 2.625613e+01 1.751328e+01 1.562424e+01 1.615865e+01 1.499171e-01 5.943455e-01 6.087989e-01 8.510429e-01 1.213804e+00 1.675671e+00 1.006552e+00 1.015784e+00 1.064258e+00 1.017825e+00 1.442421e+00 9.466130e-01 1.102689e-01
<GCONST> 7.555198e+01
<TRANSP> 5
 0.000000e+00 1.000000e+00 0.000000e+00 0.000000e+00 0.000000e+00
 0.000000e+00 6.903475e-01 3.096524e-01 0.000000e+00 0.000000e+00
 0.000000e+00 0.000000e+00 9.043890e-01 9.561097e-02 0.000000e+00
 0.000000e+00 0.000000e+00 0.000000e+00 8.960444e-01 1.039556e-01
 0.000000e+00 0.000000e+00 0.000000e+00 0.000000e+00 0.000000e+00
<ENDHMM>
~h "aw"
<BEGINHMM>
<NUMSTATES> 5
<STATE> 2
<MEAN> 25
 4.123365e+00 3.972714e+00 4.123620e-01 6.285950e-01 1.955739e+00 -2.641336e+00 -4.626697e+00 -8.906564e+00 -7.730221e+00 -2.721390e+00 2.930312e-01 -3.988100e+00 -1.293738e+00 -2.774650e-01 4.498644e-01 1.860151e-01 3.992629e-01 3.115431e-01 1.104766e+00 4.833556e-01 1.071930e+00 5.112649e-02 -1.191339e-01 1.487239e+00 -1.069911e+00
<VARIANCE> 25
 2.708103e+01 5.201594e+00 4.001001e+01 2.957038e+01 1.230244e+01 2.048886e+01 5.666316e+01 1.326531e+01 3.021119e+01 2.336263e+01 2.228088e+01 3.586103e+01 1.334532e+00 1.170908e+00 2.977736e+00 6.530576e+00 1.522941e+00 3.152707e+00 3.495051e+00 3.358361e+00 5.637371e+00 4.909730e+00 3.249768e+00 5.904671e-01 1.770680e+00
<GCONST> 9.535477e+01
<STATE> 3
<MEAN> 25
 -6.481056e+00 -2.674435e+00 4.480460e+00 -3.774572e+00 -1.369161e+00 -3.137706e+00 2.183828e+00 3.788553e+00 -2.211411e+00 -2.858342e-01 3.930021e-01 2.554925e+00 2.487028e-01 -4.996702e-01 -3.567438e-02 -4.967584e-02 8.216798e-03 -4.568838e-01 2.954744e-01 9.502175e-01 2.645981e-01 1.369316e-01 -2.159331e-01 -4.231612e-02 3.317807e-01
<VARIANCE> 25
 5.190768e+01 1.538943e+01 9.771309e+00 4.040358e+01 2.525073e+01 1.478178e+01 3.580418e+01 4.730714e+01 1.913172e+01 2.215252e+01 4.186178e+01 2.059087e+01 5.532819e+00 2.140036e+00 1.487115e+00 8.982064e+00 3.737130e+00 2.317754e+00 2.648763e+00 5.747958e+00 3.317941e+00 5.028330e+00 6.207378e+00 2.951335e+00 7.505350e+00
<GCONST> 1.024574e+02
<STATE> 4
<MEAN> 25
 -4.527114e+00 3.783037e-03 -7.649184e-01 3.674474e-01 2.255742e+00 8.553830e-01 3.874279e+00 2.826285e+00 4.760129e+00 2.158050e+00 5.223251e+00 5.518174e+00 4.828664e-02 -4.695676e-02 -9.761961e-02 3.880442e-02 -2.332470e-01 2.839530e-01 6.634455e-02 -2.042822e-01 2.353928e-01 -1.868774e-01 2.091210e-01 1.348365e-01 -5.775433e-02
<VARIANCE> 25
 1.066147e+01 2.993507e+00 4.710572e+00 7.255919e+00 1.379134e+01 1.032971e+01 1.157330e+01 1.963137e+01 2.345350e+01 1.196161e+01 1.418873e+01 2.050953e+01 2.319882e-01 4.475446e-01 6.170212e-01 6.519886e-01 1.188704e+00 1.319557e+00 1.083225e+00 1.395946e+00 8.296862e-01 9.558194e-01 1.185681e+00 1.151749e+00 7.868707e-02
<GCONST> 6.986208e+01
<TRANSP> 5
 0.000000e+00 1.000000e+00 0.000000e+00 0.000000e+00 0.000000e+00
 0.000000e+00 8.397412e-01 1.602588e-01 0.000000e+00 0.000000e+00
 0.000000e+00 0.000000e+00 8.296964e-01 1.703036e-01 0.000000e+00
 0.000000e+00 0.000000e+00 0.000000e+00 8.946468e-01 1.053533e-01
 0.000000e+00 0.000000e+00 0.000000e+00 0.000000e+00 0.000000e+00
<ENDHMM>
~h "ay"
<BEGINHMM>
<NUMSTATES> 5
<STATE> 2
<MEAN> 25
 7.200127e+00 -4.053129e-01 6.762223e+00 3.351649e+00 -5.799176e+00 -5.675911e+00 -5.226579e+00 -1.836708e+00 -7.227684e+00 -3.112571e+00 -2.476242e+00 -2.932158e+00 9.041209e-01 -3.214883e-01 2.782402e-01 1.250446e-01 -8.912216e-01 -2.643972e-01 -6.369681e-01 1.269492e+00 -1.873771e-01 -5.082293e-01 -9.485117e-01 -6.381032e-01 1.031545e+00
<VARIANCE> 25
 2.294505e+01 4.006175e+01 5.367616e+01 3.629827e+01 6.192507e+01 3.221480e+01 2.306500e+01 5.869738e+01 6.637754e+01 2.793716e+01 2.290861e+01 3.011598e+01 2.392035e+00 3.170339e+00 5.615678e+00 2.265908e+00 1.713790e+00 4.833746e+00 2.688516e+00 8.656741e+00 8.863017e+00 3.427040e+00 1.496629e+00 1.606618e+00 1.698177e+00
<GCONST> 1.038678e+02
<STATE> 3
<MEAN> 25
 8.776140e+00 -5.565025e+00 -1.124576e+00 -2.370601e+00 -7.849793e+00 -2.485852e+00 -4.065895e+00 6.629571e+00 1.467410e+00 -3.551742e+00 -7.627474e+00 -1.041892e+01 1.010280e-01 4.805056e-02 -5.244823e-01 -2.520134e-01 8.327392e-01 9.155580e-01 1.961157e-01 -3.090972e-01 1.787234e-01 8.887705e-02 -3.144858e-01 -9.039602e-01 -7.249644e-01
<VARIANCE> 25
 8.816105e+00 2.541481e+01 5.997953e+01 1.846728e+01 3.582177e+01 3.103035e+01 4.028016e+01 3.314545e+01 5.641394e+01 2.321957e+01 3.395904e+01 5.731546e+01 1.450298e+00 2.716715e+00 4.526214e+00 1.901745e+00 3.353010e+00 3.475891e+00 2.758567e+00 4.623173e+00 4.064809e+00 1.471654e+00 3.532125e+00 4.186350e+00 2.001661e+00
<GCONST> 1.010324e+02
<STATE> 4
<MEAN> 25
 1.082698e+01 -4.582094e+00 -1.001704e+00 -2.580086e+00 -4.248538e+00 4.858933e-01 -3.995012e+00 3.549946e+00 -3.893199e+00 -5.944826e+00 -2.724406e+00 -1.011940e+01 -4.338792e-02 3.205244e-01 5.252935e-01 6.103368e-02 -1.787860e-01 -4.308472e-01 4.427771e-02 -2.394512e-01 -5.201471e-01 2.715800e-01 2.787167e-01 2.868843e-01 -3.096460e-01
<VARIANCE> 25
 5.374555e+00 2.203920e+01 8.939624e+01 1.573587e+01 8.726304e+01 5.238187e+01 3.340577e+01 3.835556e+01 7.079155e+01 2.728156e+01 2.644517e+01 2.464576e+01 3.120285e-01 8.292866e-01 1.677941e+00 1.863351e+00 2.417297e+00 2.145656e+00 1.874443e+00 2.139011e+00 1.771883e+00 1.377955e+00 1.495664e+00 2.160841e+00 2.624246e-01
<GCONST> 9.114997e+01
<TRANSP> 5
 0.000000e+00 1.000000e+00 0.000000e+00 0.000000e+00 0.000000e+00
 0.000000e+00 6.675352e-01 3.324647e-01 0.000000e+00 0.000000e+00
 0.000000e+00 0.000000e+00 7.402285e-01 2.597715e-01 0.000000e+00
 0.000000e+00 0.000000e+00 0.000000e+00 9.142746e-01 8.572539e-02
 0.000000e+00 0.000000e+00 0.000000e+00 0.000000e+00 0.000000e+00
<ENDHMM>
~h "ch"
<BEGINHMM>
<NUMSTATES> 5
<STATE> 2
<MEAN> 25
 -3.014831e+00 -2.379055e+00 -1.378650e+00 3.231796e+00 2.549739e+00 1.529172e+00 4.184225e+00 2.595990e+00 5.242089e+00 2.344440e+00 6.964047e-01 3.052771e+00 -2.871392e-01 -1.316589e-01 2.378424e-01 -4.399545e-01 4.178806e-02 2.285597e-01 -2.526173e-01 -3.631078e-01 2.376809e-01 6.328256e-02 2.539234e-01 -2.794626e-02 7.202225e-02
<VARIANCE> 25
 3.210974e+00 7.171814e+00 1.076561e+01 7.484891e+00 9.917141e+00 1.315105e+01 1.165618e+01 1.763916e+01 8.790818e+00 1.454726e+01 1.472264e+01 1.535886e+01 7.453969e-01 9.117820e-01 7.337468e-01 1.660773e+00 1.343927e+00 2.454197e+00 1.563405e+00 9.792868e-01 1.086354e+00 2.382480e+00 1.323058e+00 2.110557e+00 1.531782e+00
<GCONST> 7.777694e+01
<STATE> 3
<MEAN> 25
 -1.097923e+01 -2.851517e+00 2.994417e+00 -3.291205e+00 7.152902e-01 7.994605e+00 -5.281924e-01 -8.054988e-01 6.529138e+00 -1.457870e+00 3.660501e+00 4.443396e+00 -3.483700e+00 7.549384e-01 1.772345e+00 -1.397010e+00 -1.249843e+00 8.048162e-01 -3.691167e-02 -2.143051e+00 6.729259e-01 -8.708639e-01 5.458345e-01 -2.962061e-01 2.639576e+00
<VARIANCE> 25
 3.913135e+01 2.550056e+01 1.564039e+01 1.680493e+01 2.250398e+01 1.680222e+01 3.832307e+01 3.041249e+01 1.421013e+01 1.665705e+01 1.045884e+01 3.338107e+00 3.073603e+00 2.615898e+00 1.299611e+00 2.124318e+00 2.223152e+00 3.116544e+00 5.718314e+00 1.853897e+00 1.377327e+00 2.695635e+00 6.992481e-01 1.127829e+00 3.508160e+00
<GCONST> 9.016582e+01
<STATE> 4
<MEAN> 25
 -1.564558e+01 7.158628e-01 9.878307e+00 -2.494343e+00 -5.680867e+00 1.459019e-01 5.420063e+00 -8.267874e+00 4.209676e+00 -3.166319e+00 1.664581e+00 -2.119087e+00 1.857480e+00 4.258969e-02 1.004687e-01 6.391837e-01 -6.706775e-01 -2.058377e+00 -6.293193e-01 -1.539868e-01 -1.159504e+00 -4.324572e-01 -4.675031e-01 -4.527304e-01 4.614137e-01
<VARIANCE> 25
 6.288895e+01 1.290314e+01 1.402501e+01 2.253077e+01 2.110463e+01 4.064346e+01 3.434509e+01 2.120724e+01 2.244517e+01 9.888784e+00 1.998258e+01 1.192701e+01 8.804111e+00 1.533004e+00 2.247782e+00 2.820752e+00 2.463347e+00 3.055128e+00 6.947809e+00 3.197046e+00 1.617499e+00 1.780772e+00 1.522079e+00 1.598989e+00 2.293561e+00
<GCONST> 9.496864e+01
<TRANSP> 5
 0.000000e+00 1.000000e+00 0.000000e+00 0.000000e+00 0.000000e+00
 0.000000e+00 8.679413e-01 1.320587e-01 0.000000e+00 0.000000e+00
 0.000000e+00 0.000000e+00 7.244352e-01 2.755648e-01 0.000000e+00
 0.000000e+00 0.000000e+00 0.000000e+00 8.820326e-01 1.179674e-01
 0.000000e+00 0.000000e+00 0.000000e+00 0.000000e+00 0.000000e+00
<ENDHMM>
~h "dh"
<BEGINHMM>
<NUMSTATES> 5
<STATE> 2
<MEAN> 25
 6.813240e+00 -2.533633e+00 2.896379e+00 1.066280e+01 -4.153647e+00 -1.232935e+01 -9.707341e+00 -2.268448e+00 -6.199703e-01 -4.146683e+00 -2.215747e+00 8.665978e-01 -2.806583e-01 5.473725e-01 -3.585756e-01 4.321516e-01 1.064556e+00 4.194559e-01 4.495965e-02 2.780158e-01 6.074049e-01 -6.924564e-01 -5.298083e-01 4.867667e-01 -8.877764e-01
<VARIANCE> 25
 1.076881e+01 2.610275e+01 2.053474e+01 1.464425e+01 4.207845e+01 6.280272e+01 1.912857e+01 6.443782e+01 5.619820e+01 4.939376e+01 1.153548e+01 4.557573e+01 9.106861e-01 1.328259e+00 1.194368e+00 1.721139e+00 1.333354e+00 2.793332e+00 1.567496e+00 1.097458e+00 1.190348e+00 1.633905e+00 9.399864e-01 1.572608e+00 2.275500e-01
<GCONST> 8.882571e+01
<STATE> 3
<MEAN> 25
 -2.226654e+00 2.748674e+00 3.437760e+00 8.150403e+00 4.489518e+00 1.372584e+00 2.276400e+00 2.229328e-01 8.338445e-01 -3.817942e+00 -4.390400e+00 -9.823756e-01 -1.290894e+00 -7.338271e-01 -3.699819e-01 -7.072358e-01 3.088396e-02 1.082633e+00 1.723805e+00 7.886379e-01 4.850472e-01 1.305302e+00 1.301552e+00 3.988664e-01 -7.920333e-01
<VARIANCE> 25
 8.049351e+00 7.039844e+00 6.059637e+00 7.978097e+00 4.875221e+00 1.016862e+01 2.149707e+01 3.100972e+01 2.088753e+01 1.894895e+01 1.725070e+01 1.749793e+01 4.204336e-01 8.123448e-01 1.167188e+00 1.388630e+00 6.685323e-01 1.802281e+00 2.070820e+00 2.262311e+00 2.143977e+00 1.472298e+00 1.253044e+00 3.878378e+00 2.485799e-01
<GCONST> 7.843679e+01
<STATE> 4
<MEAN> 25
 -7.197992e+00 -1.673723e+00 -1.267577e+00 3.516553e+00 2.896826e+00 3.408312e+00 5.696354e+00 3.411123e+00 4.388756e+00 3.282634e+00 4.639063e+00 5.520760e+00 -7.338063e-02 -2.400471e-02 -1.078389e-01 -1.790073e-02 -2.608055e-02 7.351607e-02 8.230044e-03 -4.996772e-03 4.177356e-02 7.697184e-02 1.306571e-01 -5.374654e-03 -6.155908e-03
<VARIANCE> 25
 8.785399e-01 1.609136e+00 4.359222e+00 4.084109e+00 6.191290e+00 8.047028e+00 7.161245e+00 6.908308e+00 9.342537e+00 1.144100e+01 8.383074e+00 8.140419e+00 9.392086e-02 1.720012e-01 5.191406e-01 5.764765e-01 7.023881e-01 6.163024e-01 9.371578e-01 8.466805e-01 7.997630e-01 1.204962e+00 8.612750e-01 1.040380e+00 3.773760e-02
<GCONST> 5.605280e+01
<TRANSP> 5
 0.000000e+00 1.000000e+00 0.000000e+00 0.000000e+00 0.000000e+00
 0.000000e+00 8.876114e-01 1.123886e-01 0.000000e+00 0.000000e+00
 0.000000e+00 0.000000e+00 8.360370e-01 1.639631e-01 0.000000e+00
 0.000000e+00 0.000000e+00 0.000000e+00 9.656553e-01 3.434477e-02
 0.000000e+00 0.000000e+00 0.000000e+00 0.000000e+00 0.000000e+00
<ENDHMM>
~h "eh"
<BEGINHMM>
<NUMSTATES> 5
<STATE> 2
<MEAN> 25
 5.127607e+00 -4.654051e+00 2.605656e+00 -2.161572e+00 -8.243505e+00 -5.602769e+00 2.286794e+00 6.280791e+00 -3.545608e+00 -1.178535e+00 -3.414084e+00 -5.109954e+00 9.261723e-01 -9.191659e-01 -1.289892e-01 -4.383507e-01 -5.580529e-01 -5.798911e-01 -4.792734e-01 6.348993e-01 -3.383929e-01 -2.150316e-01 -3.067651e-01 -1.104016e+00 1.160411e+00
<VARIANCE> 25
 2.336560e+01 1.836826e+01 3.156066e+01 1.747737e+01 3.772923e+01 3.886620e+01 6.016233e+01 1.997792e+01 2.442847e+01 2.128234e+01 1.785208e+01 2.991137e+01 1.835472e+00 2.616549e+00 2.492929e+00 1.569005e+00 3.551517e+00 2.859980e+00 4.160496e+00 3.065854e+00 3.081077e+00 2.293971e+00 1.952565e+00 3.622475e+00 1.834702e+00
<GCONST> 9.755379e+01
<STATE> 3
<MEAN> 25
 7.661294e+00 -4.916143e+00 2.140725e+00 -4.403133e+00 -7.072737e+00 -6.111481e+00 -4.313095e+00 3.942518e+00 -3.885050e+00 -2.053883e+00 -4.383156e+00 -9.123573e+00 3.762721e-02 4.910994e-01 -1.447426e-01 5.114079e-01 8.499905e-01 2.747053e-01 -2.435438e-01 -6.356109e-01 -1.208579e-01 -2.847154e-02 -2.461072e-01 2.692748e-01 -9.264536e-01
<VARIANCE> 25
 1.158657e+01 2.277115e+01 3.983059e+01 1.566862e+01 3.183554e+01 3.218876e+01 3.654357e+01 4.009245e+01 5.344609e+01 3.529868e+01 2.871019e+01 2.976739e+01 6.309711e-01 1.339549e+00 1.737805e+00 1.911650e+00 2.212345e+00 1.746268e+00 1.644727e+00 2.322619e+00 2.079231e+00 1.849264e+00 2.125865e+00 2.144197e+00 2.122479e+00
<GCONST> 9.381417e+01
<STATE> 4
<MEAN> 25
 5.637613e+00 8.172351e-01 9.567071e-01 2.244776e+00 -1.486475e+00 -4.015719e+00 -3.832346e+00 -1.007450e+00 -3.894851e+00 -2.312552e+00 -5.230578e+00 -6.404961e+00 -5.032927e-01 1.007243e+00 6.109346e-01 6.898276e-01 8.724768e-01 1.198609e+00 2.041004e-02 -1.811423e+00 -3.835202e-01 5.144581e-02 -3.229541e-01 2.958844e-01 -1.131706e+00
<VARIANCE> 25
 2.447196e+01 2.326150e+01 4.907541e+01 3.536132e+01 3.318397e+01 4.840177e+01 2.966954e+01 2.620791e+01 2.077053e+01 2.919980e+01 3.367506e+01 3.057893e+01 4.539955e+00 2.991778e+00 2.615919e+00 7.771501e+00 3.888658e+00 4.028447e+00 3.995400e+00 5.391725e+00 4.768257e+00 5.128187e+00 2.937766e+00 2.411879e+00 4.847416e+00
<GCONST> 1.053083e+02
<TRANSP> 5
 0.000000e+00 1.000000e+00 0.000000e+00 0.000000e+00 0.000000e+00
 0.000000e+00 8.002649e-01 1.997351e-01 0.000000e+00 0.000000e+00
 0.000000e+00 0.000000e+00 8.274300e-01 1.725701e-01 0.000000e+00
 0.000000e+00 0.000000e+00 0.000000e+00 5.798206e-01 4.201795e-01
 0.000000e+00 0.000000e+00 0.000000e+00 0.000000e+00 0.000000e+00
<ENDHMM>
~h "er"
<BEGINHMM>
<NUMSTATES> 5
<STATE> 2
<MEAN> 25
 1.272908e+01 -2.707448e+00 -7.228743e+00 2.791632e+00 2.974846e+00 -1.434070e+01 -1.569525e+01 4.055701e-01 2.596904e+00 -8.618306e+00 -2.561791e+00 3.746274e+00 4.795721e-01 -3.061593e-01 -3.709067e-01 1.240837e-01 1.412087e-01 -5.129169e-01 -8.626429e-01 5.554570e-01 5.013071e-01 -1.307570e-01 -3.109947e-01 1.328447e-01 -3.794318e-02
<VARIANCE> 25
 2.513661e+01 1.175181e+01 3.433532e+01 2.669673e+01 3.438029e+01 5.726609e+01 6.786543e+01 3.517859e+01 3.737848e+01 1.922492e+01 2.816255e+01 1.476483e+01 1.401409e+00 7.664731e-01 2.357489e+00 1.204303e+00 2.823574e+00 2.639070e+00 4.233791e+00 2.210710e+00 2.082647e+00 1.446133e+00 1.334248e+00 1.185633e+00 4.814660e-01
<GCONST> 9.261681e+01
<STATE> 3
<MEAN> 25
 4.980818e+00 -1.470713e+00 -1.241260e+00 4.153004e+00 -4.969765e-01 -1.199927e+01 -6.839509e+00 1.627952e+00 2.240407e+00 -5.603832e+00 -2.552740e+00 1.574402e+00 -1.651752e+00 1.738134e-01 7.208530e-01 -2.575128e-01 -2.416338e-01 1.748048e+00 2.242455e+00 -2.735140e-01 -3.407684e-01 1.086831e+00 4.048892e-01 -5.778120e-01 -5.589041e-01
<VARIANCE> 25
 5.454219e+01 2.592989e+01 3.121006e+01 1.682701e+01 3.380201e+01 6.433132e+01 9.061355e+01 3.832832e+01 2.124791e+01 3.637708e+01 3.658973e+01 4.702520e+01 3.055269e+00 1.489199e+00 2.123587e+00 1.866428e+00 3.885711e+00 4.331002e+00 4.976613e+00 3.514301e+00 2.539669e+00 2.604758e+00 2.685517e+00 2.199738e+00 1.394274e+00
<GCONST> 1.019779e+02
<STATE> 4
<MEAN> 25
 -6.017618e-01 -1.245404e+00 -1.699306e+00 2.372642e+00 3.239135e+00 1.132877e+00 2.388845e+00 1.422943e+00 1.452929e+00 3.182586e+00 -6.396829e-02 -9.368634e-01 -1.538644e-01 3.370837e-01 3.929801e-01 -3.307819e-01 7.397038e-02 2.049518e-01 9.312550e-02 -6.238177e-01 -4.457956e-01 4.065709e-01 5.233276e-02 -4.549054e-01 1.732105e-01
<VARIANCE> 25
 2.791451e+01 1.904451e+01 4.860808e+01 1.942603e+01 2.365269e+01 4.722186e+01 3.021957e+01 2.490226e+01 5.758928e+01 2.043498e+01 3.072603e+01 3.807447e+01 2.042058e+00 7.553118e-01 8.018998e-01 1.172368e+00 1.136543e+00 2.628800e+00 2.988840e+00 1.529007e+00 1.430805e+00 2.417529e+00 2.769092e+00 1.902007e+00 6.976964e-01
<GCONST> 9.237833e+01
<TRANSP> 5
 0.000000e+00 1.000000e+00 0.000000e+00 0.000000e+00 0.000000e+00
 0.000000e+00 9.021889e-01 9.781107e-02 0.000000e+00 0.000000e+00
 0.000000e+00 0.000000e+00 8.290581e-01 1.709418e-01 0.000000e+00
 0.000000e+00 0.000000e+00 0.000000e+00 8.032683e-01 1.967317e-01
 0.000000e+00 0.000000e+00 0.000000e+00 0.000000e+00 0.000000e+00
<ENDHMM>
~h "ey"
<BEGINHMM>
<NUMSTATES> 5
<STATE> 2
<MEAN> 25
 1.451262e+00 8.696567e-01 1.017329e+01 -5.053192e+00 -9.770556e+00 -3.023900e+00 -3.813367e+00 -3.091269e-01 -6.077596e+00 2.339360e+00 -7.803310e-01 -2.894945e+00 4.695891e-01 3.315704e-01 1.797464e+00 -1.031461e+00 -1.520999e+00 4.636410e-01 -1.316517e+00 -6.434910e-01 -1.471747e+00 1.935238e-01 -4.349229e-01 -9.605070e-01 1.457761e+00
<VARIANCE> 25
 1.886353e+01 2.828046e+01 4.059661e+01 2.256294e+01 1.026808e+02 2.954582e+01 9.061096e+01 3.894897e+01 5.999143e+01 1.950753e+01 2.456416e+01 1.806485e+01 1.630037e+00 2.122211e+00 4.002931e+00 2.411542e+00 6.836658e+00 3.264001e+00 5.658976e+00 3.622623e+00 6.165494e+00 2.001059e+00 2.929111e+00 2.492181e+00 5.334230e+00
<GCONST> 1.042017e+02
<STATE> 3
<MEAN> 25
 3.037035e+00 1.623872e+00 1.678390e+01 -8.947514e+00 -1.491331e+01 4.253358e+00 -8.794827e+00 -4.747984e+00 -1.203574e+01 2.871719e+00 -3.006019e+00 -6.276417e+00 -5.870436e-02 3.177033e-01 3.411778e-01 5.301310e-02 2.817258e-01 2.778785e-01 -1.647325e-01 -5.751440e-01 -2.200202e-02 -3.534078e-01 -2.511839e-02 -3.841678e-01 -4.017974e-01
<VARIANCE> 25
 3.093618e+00 8.220887e+00 1.686487e+01 1.153116e+01 1.185028e+01 3.865503e+01 2.317644e+01 2.297358e+01 1.159622e+01 1.234407e+01 1.655980e+01 2.083602e+01 1.224218e-01 3.358684e-01 4.134737e-01 5.233927e-01 5.800104e-01 7.811450e-01 7.015512e-01 7.124766e-01 8.685891e-01 9.248011e-01 6.001895e-01 4.135099e-01 3.777111e-01
<GCONST> 6.887191e+01
<STATE> 4
<MEAN> 25
 2.111571e+00 3.269547e+00 1.380908e+01 -4.237498e-01 -7.789671e+00 -1.197628e+00 -4.946082e+00 -6.298161e+00 -9.931649e+00 -3.862900e+00 -1.822109e+00 -7.705034e+00 -7.528827e-01 -7.324540e-02 -2.467575e+00 2.267785e+00 2.657062e+00 -7.577266e-01 1.473125e+00 4.660105e-01 1.972379e+00 -6.871261e-01 -1.123089e-01 1.346884e+00 -1.938522e+00
<VARIANCE> 25
 1.817740e+01 2.067253e+01 4.436703e+01 4.174183e+01 7.296847e+01 3.807323e+01 3.839719e+01 2.548904e+01 3.712425e+01 1.884635e+01 3.299472e+01 2.168450e+01 3.991884e+00 2.562671e+00 2.048696e+00 3.288053e+00 3.320330e+00 3.940162e+00 3.652806e+00 3.217230e+00 3.753088e+00 2.752798e+00 3.229585e+00 1.471373e+00 1.468356e+00
<GCONST> 1.008852e+02
<TRANSP> 5
 0.000000e+00 1.000000e+00 0.000000e+00 0.000000e+00 0.000000e+00
 0.000000e+00 7.991794e-01 2.008206e-01 0.000000e+00 0.000000e+00
 0.000000e+00 0.000000e+00 9.015004e-01 9.849963e-02 0.000000e+00
 0.000000e+00 0.000000e+00 0.000000e+00 7.583568e-01 2.416432e-01
 0.000000e+00 0.000000e+00 0.000000e+00 0.000000e+00 0.000000e+00
<ENDHMM>
~h "hh"
<BEGINHMM>
<NUMSTATES> 5
<STATE> 2
<MEAN> 25
 -3.553714e+00 -2.520464e+00 -1.272495e+00 3.078153e+00 3.171136e+00 3.547319e+00 1.725118e+00 -1.931286e+00 3.952175e+00 2.159297e+00 3.517461e+00 3.573557e+00 -1.757509e-01 -2.921909e-01 -7.952090e-02 1.162393e-01 -4.482070e-01 1.056187e+00 9.473398e-01 -5.376543e-01 -5.656272e-01 -6.885414e-01 1.421735e-01 -4.453213e-02 3.687570e-01
<VARIANCE> 25
 3.024122e+01 1.770405e+01 4.589300e+01 1.214256e+01 3.686876e+01 2.324838e+01 1.504033e+01 4.081532e+01 3.148980e+01 2.677453e+01 6.159598e+00 2.592190e+01 1.364869e-01 3.918371e-01 1.028376e+00 5.561242e-01 1.033182e+00 9.517298e-01 2.890750e+00 2.255049e+00 1.934806e+00 1.495241e+00 1.751862e+00 1.463746e+00 7.480925e-01
<GCONST> 8.362094e+01
<STATE> 3
<MEAN> 25
 -4.398224e+00 -2.895700e+00 -2.098241e+00 3.319696e+00 2.540860e+00 3.128999e+00 4.016838e+00 1.683848e+00 2.936255e+00 2.565277e-01 2.610251e+00 4.246867e+00 8.182485e-02 -9.760841e-02 1.274834e-01 -3.782056e-01 -1.875561e-01 1.179016e-01 8.732073e-01 7.915667e-02 -1.778479e-01 1.888395e-01 -3.060593e-02 -4.679207e-01 -2.081630e-01
<VARIANCE> 25
 1.502691e+01 2.335338e+01 3.487829e+01 8.064601e+00 3.654142e+01 3.256608e+01 9.383518e+00 2.930203e+01 1.650369e+01 1.534443e+01 3.011690e+01 2.664198e+01 1.582942e-01 7.256337e-01 1.073858e+00 9.226263e-01 1.333147e+00 1.966913e+00 1.297918e+00 8.976511e-01 1.452252e+00 2.369754e+00 6.720908e-01 7.745467e-01 2.243178e-01
<GCONST> 8.039898e+01
<STATE> 4
<MEAN> 25
 -4.910358e+00 -3.900042e-01 -2.165259e-01 2.997504e+00 2.149983e+00 2.387110e+00 3.398455e+00 1.233212e+00 4.302400e+00 1.791474e+00 2.869787e+00 4.145241e+00 7.421517e-02 2.079234e-02 -5.938374e-02 -5.402507e-02 -5.808730e-02 -3.918442e-02 6.742812e-02 1.621213e-02 -7.671339e-02 -4.332423e-02 -9.075299e-02 -6.775061e-02 3.378072e-02
<VARIANCE> 25
 5.607609e+00 2.887550e+00 5.304135e+00 5.969949e+00 7.691112e+00 9.795272e+00 1.203280e+01 1.563431e+01 1.001771e+01 1.229823e+01 1.258389e+01 1.284994e+01 4.624889e-01 3.888027e-01 5.979016e-01 6.256229e-01 7.992346e-01 1.195969e+00 1.314210e+00 1.564978e+00 1.248679e+00 1.527060e+00 1.555088e+00 1.264514e+00 2.930071e-01
<GCONST> 6.971622e+01
<TRANSP> 5
 0.000000e+00 1.000000e+00 0.000000e+00 0.000000e+00 0.000000e+00
 0.000000e+00 1.931698e-01 8.068302e-01 0.000000e+00 0.000000e+00
 0.000000e+00 0.000000e+00 2.004280e-01 7.995720e-01 0.000000e+00
 0.000000e+00 0.000000e+00 0.000000e+00 9.541763e-01 4.582371e-02
 0.000000e+00 0.000000e+00 0.000000e+00 0.000000e+00 0.000000e+00
<ENDHMM>
~h "ih"
<BEGINHMM>
<NUMSTATES> 5
<STATE> 2
<MEAN> 25
 4.755784e+00 2.224333e-01 4.961926e+00 3.961831e-01 -7.934921e+00 -4.081406e+00 -1.158719e+00 -1.870686e+00 -9.190686e+00 -2.294535e+00 -1.544845e+00 -6.079135e+00 -6.731111e-01 2.086640e-01 -2.391725e-01 7.294744e-01 9.421762e-01 7.534830e-01 5.801495e-01 -4.403644e-01 7.782743e-01 1.338668e-01 7.664343e-02 2.044037e-01 -1.463446e+00
<VARIANCE> 25
 2.739170e+01 2.876625e+01 3.946885e+01 4.706570e+01 6.220836e+01 8.734578e+01 4.657819e+01 6.625487e+01 7.143855e+01 2.898166e+01 3.466198e+01 3.612236e+01 2.114593e+00 2.308283e+00 3.779847e+00 3.375653e+00 4.631623e+00 5.784230e+00 2.941174e+00 4.918805e+00 7.475485e+00 2.669560e+00 2.110363e+00 2.346098e+00 4.234014e+00
<GCONST> 1.076743e+02
<STATE> 3
<MEAN> 25
 -5.558779e+00 -1.393031e+00 -2.899404e-01 3.437458e+00 1.624356e+00 1.000657e+00 3.169795e+00 2.528875e+00 3.735748e+00 1.803155e+00 1.750784e+00 1.473351e+00 -4.171666e-01 -6.586657e-01 -5.823693e-01 -5.034231e-01 2.761433e-01 4.856375e-01 2.803473e-01 5.578070e-01 1.012415e+00 7.350426e-01 5.322703e-01 7.809431e-01 -6.240049e-01
<VARIANCE> 25
 2.081946e+01 1.461804e+01 1.749923e+01 3.228214e+01 2.056137e+01 2.238793e+01 2.323709e+01 3.974039e+01 3.081553e+01 2.438925e+01 2.391055e+01 3.154132e+01 1.776049e+00 1.785352e+00 2.598014e+00 3.274064e+00 2.413126e+00 3.147564e+00 2.892119e+00 3.264035e+00 3.937912e+00 2.832249e+00 2.721270e+00 2.806188e+00 2.248441e+00
<GCONST> 9.703175e+01
<STATE> 4
<MEAN> 25
 -4.577120e+00 -1.605637e+00 -2.012050e+00 2.752104e+00 3.682202e+00 3.092187e+00 4.705137e+00 2.780923e+00 5.422300e+00 2.264604e+00 3.086978e+00 4.421240e+00 -1.002631e-02 -3.124161e-02 9.607929e-03 -1.491616e-02 7.653624e-02 1.134444e-01 1.152956e-02 -4.270256e-02 6.175858e-05 4.364200e-02 5.203233e-02 2.638018e-02 -4.344597e-02
<VARIANCE> 25
 5.994959e+00 4.024383e+00 6.604107e+00 6.569411e+00 7.278006e+00 1.051822e+01 1.147737e+01 1.349846e+01 1.423165e+01 1.183543e+01 1.245918e+01 1.060344e+01 2.065011e-01 3.455157e-01 5.016180e-01 5.535113e-01 6.387979e-01 8.736607e-01 1.066131e+00 1.226442e+00 1.228855e+00 1.348477e+00 1.165820e+00 8.990105e-01 8.073673e-02
<GCONST> 6.609029e+01
<TRANSP> 5
 0.000000e+00 1.000000e+00 0.000000e+00 0.000000e+00 0.000000e+00
 0.000000e+00 8.213505e-01 1.786495e-01 0.000000e+00 0.000000e+00
 0.000000e+00 0.000000e+00 7.433354e-01 2.566646e-01 0.000000e+00
 0.000000e+00 0.000000e+00 0.000000e+00 9.143014e-01 8.569859e-02
 0.000000e+00 0.000000e+00 0.000000e+00 0.000000e+00 0.000000e+00
<ENDHMM>
~h "iy"
<BEGINHMM>
<NUMSTATES> 5
<STATE> 2
<MEAN> 25
 1.799841e+00 4.140137e+00 2.284423e+01 -4.718675e+00 -1.209130e+01 2.049500e+00 -1.398038e+01 -6.485325e+00 -1.306591e+01 -3.958210e+00 2.100375e-01 -7.965168e+00 7.797663e-02 1.270346e-01 -7.953802e-02 1.308222e-01 -1.458913e-02 -9.588810e-03 -7.635737e-02 -5.720649e-02 -4.592365e-02 -1.560913e-03 -7.211702e-03 -1.278705e-01 -1.430184e-01
<VARIANCE> 25
 4.693763e+00 7.462227e+00 9.928082e+00 1.435376e+01 1.239917e+01 1.704433e+01 1.472863e+01 9.429111e+00 1.577190e+01 1.394428e+01 8.316370e+00 1.071671e+01 1.340421e-01 4.210801e-01 4.870715e-01 7.646604e-01 7.526804e-01 9.453128e-01 8.444366e-01 5.522160e-01 6.853155e-01 6.456820e-01 5.719074e-01 7.101426e-01 1.075700e-01
<GCONST> 6.572131e+01
<STATE> 3
<MEAN> 25
 3.223753e+00 5.505037e+00 1.729878e+01 8.308254e-01 -1.111559e+01 -3.550986e+00 -7.629849e+00 -8.015331e+00 -1.286148e+01 -3.284455e+00 -7.966933e-01 -5.679333e+00 -7.125051e-02 -4.628615e-02 -1.581280e+00 1.547333e+00 1.115161e+00 -7.059377e-01 1.050214e+00 4.089436e-01 1.096907e+00 -1.900443e-01 -6.533993e-03 8.511579e-01 -8.607348e-01
<VARIANCE> 25
 9.338108e+00 2.738325e+01 2.281936e+01 2.960714e+01 2.688182e+01 2.870433e+01 1.923707e+01 2.378509e+01 3.282496e+01 1.591658e+01 2.475126e+01 2.342980e+01 1.141237e+00 1.964675e+00 2.055669e+00 1.361380e+00 3.009848e+00 2.381189e+00 3.003268e+00 2.228635e+00 3.947455e+00 2.266701e+00 1.953798e+00 2.342691e+00 8.240628e-01
<GCONST> 9.262852e+01
<STATE> 4
<MEAN> 25
 -4.332416e-01 2.592548e+00 5.896141e+00 7.334062e+00 -1.750098e+00 -2.405769e+00 -1.143737e+00 -7.493244e-01 -2.052011e+00 -3.394979e+00 -8.632367e-01 3.094543e-01 -1.280797e+00 -8.297292e-01 -2.630173e+00 5.110218e-01 2.122077e+00 5.530338e-01 1.177657e+00 1.625928e+00 2.683233e+00 7.890917e-02 -2.176135e-01 1.220298e+00 -8.601524e-01
<VARIANCE> 25
 3.760705e+01 1.902282e+01 3.155333e+01 2.085209e+01 3.612923e+01 5.140303e+01 2.837784e+01 3.219860e+01 4.177567e+01 2.828991e+01 1.752226e+01 1.587052e+01 2.989271e+00 2.677263e+00 2.431071e+00 1.360380e+00 3.616744e+00 4.910511e+00 4.006372e+00 2.705448e+00 3.448344e+00 2.702229e+00 3.247064e+00 1.604584e+00 1.766611e+00
<GCONST> 9.904366e+01
<TRANSP> 5
 0.000000e+00 1.000000e+00 0.000000e+00 0.000000e+00 0.000000e+00
 0.000000e+00 9.118792e-01 8.812074e-02 0.000000e+00 0.000000e+00
 0.000000e+00 0.000000e+00 7.334101e-01 2.665899e-01 0.000000e+00
 0.000000e+00 0.000000e+00 0.000000e+00 6.783336e-01 3.216664e-01
 0.000000e+00 0.000000e+00 0.000000e+00 0.000000e+00 0.000000e+00
<ENDHMM>
~h "jh"
<BEGINHMM>
<NUMSTATES> 5
<STATE> 2
<MEAN> 25
 2.597191e-01 -1.414469e+00 -3.058813e+00 1.119448e+00 -2.958396e+00 -1.727022e+00 7.067244e-01 -3.561373e+00 -2.069091e+00 1.106800e+00 5.729453e-01 -5.328670e-01 1.360808e+00 -1.467331e-01 5.861881e-01 -8.274474e-01 -1.985095e+00 -2.437387e+00 -1.683554e+00 -4.742229e-01 -1.663655e+00 -5.312809e-02 -4.067943e-01 -1.730674e+00 4.672851e+00
<VARIANCE> 25
 2.604716e+01 1.689653e+01 2.614850e+01 1.467854e+01 4.097720e+01 4.197489e+01 1.572109e+01 3.489334e+01 2.516640e+01 1.221453e+01 1.223506e+01 3.095307e+01 1.728028e+00 1.087782e+00 4.565264e+00 9.165295e-01 3.948508e+00 4.551409e+00 1.322974e+00 9.710679e+00 4.068448e+00 8.744767e-01 1.054253e+00 2.421752e-01 1.006284e+01
<GCONST> 9.312347e+01
<STATE> 3
<MEAN> 25
 1.230412e+01 -7.029207e+00 -2.684684e+00 -5.678391e+00 -3.611337e+00 -4.111403e+00 -9.036833e+00 -5.235292e-01 1.165571e+00 1.855365e+00 -2.812793e+00 -1.145118e+01 1.219574e-01 4.069174e-02 8.152267e-01 3.527512e-02 -3.163651e-01 -7.737302e-01 -3.015245e-01 4.408464e-01 -5.872765e-01 -8.805928e-02 1.421964e-01 5.733310e-01 -2.106983e-01
<VARIANCE> 25
 4.643924e+00 3.175719e+01 1.579794e+01 1.476691e+01 1.877107e+01 4.951823e+01 1.687217e+01 5.860429e+01 1.452487e+01 1.786231e+01 1.389839e+01 2.460299e+01 8.386592e-01 6.193560e-01 3.243757e+00 1.922643e+00 2.964141e+00 4.605129e+00 9.902593e-01 4.756699e+00 4.518810e+00 1.669803e+00 2.916548e+00 2.899819e+00 3.212121e-01
<GCONST> 8.987650e+01
<STATE> 4
<MEAN> 25
 3.291547e+00 1.325325e+00 1.375455e+01 -6.348425e-01 -6.047621e+00 -5.802226e+00 -6.940611e+00 1.654804e+00 -1.295185e+01 -4.457473e+00 -7.252030e-01 -4.952962e+00 -8.363803e-01 5.749937e-01 4.325377e-01 2.537177e-01 8.792517e-01 1.228587e+00 2.153162e-01 -6.364406e-01 2.205238e-01 -5.171900e-01 -6.361172e-02 8.251682e-02 -9.051611e-01
<VARIANCE> 25
 4.282641e+01 3.949955e+01 1.775768e+01 3.198328e+01 5.217338e+01 4.657183e+01 1.458284e+01 2.749580e+01 4.269590e+01 1.383241e+01 1.003987e+01 1.410155e+01 4.654657e+00 3.582533e+00 3.520232e+00 4.858959e+00 4.410899e+00 3.533298e+00 2.556972e+00 2.912380e+00 7.870154e+00 1.158771e+00 1.181141e+00 2.315990e+00 7.886979e+00
<GCONST> 1.005352e+02
<TRANSP> 5
 0.000000e+00 1.000000e+00 0.000000e+00 0.000000e+00 0.000000e+00
 0.000000e+00 7.502346e-01 2.497654e-01 0.000000e+00 0.000000e+00
 0.000000e+00 0.000000e+00 8.853865e-01 1.146135e-01 0.000000e+00
 0.000000e+00 0.000000e+00 0.000000e+00 9.116292e-01 8.837082e-02
 0.000000e+00 0.000000e+00 0.000000e+00 0.000000e+00 0.000000e+00
<ENDHMM>
~h "ng"
<BEGINHMM>
<NUMSTATES> 5
<STATE> 2
<MEAN> 25
 4.194595e+00 5.140731e-01 -1.005814e+00 6.431769e+00 3.037934e+00 7.917486e-01 2.930160e+00 -5.969936e+00 -2.204317e+00 1.332909e-01 -4.036567e+00 -4.378882e+00 -3.271224e-01 8.621151e-02 1.371742e-01 2.011336e-01 2.528658e-01 6.518622e-02 -2.732632e-02 -8.780432e-02 2.627170e-01 -1.444459e-03 -1.394706e-01 1.312107e-01 -4.072801e-01
<VARIANCE> 25
 1.495121e+01 1.997067e+01 3.512631e+01 1.645915e+01 1.737754e+01 1.513209e+01 1.387298e+01 3.632641e+01 3.260490e+01 1.091922e+01 1.762726e+01 1.478930e+01 2.707144e-01 4.447496e-01 6.918967e-01 5.183058e-01 8.613025e-01 8.922794e-01 6.340855e-01 1.007692e+00 1.112048e+00 7.018644e-01 8.721683e-01 7.576558e-01 1.667277e-01
<GCONST> 7.493148e+01
<STATE> 3
<MEAN> 25
 -2.171196e+00 -1.476478e-01 -2.604304e-01 5.648610e+00 5.466178e+00 1.208880e+00 2.838756e+00 -1.369992e+00 2.162979e+00 -2.936559e-01 -2.705181e+00 2.630426e+00 -9.556919e-01 -9.498767e-01 -1.006628e+00 -7.869298e-01 1.359820e-01 1.148451e-01 9.602788e-01 1.358173e+00 1.573119e+00 8.219272e-01 1.323608e+00 1.510805e+00 -7.549997e-01
<VARIANCE> 25
 8.098970e+00 1.254723e+01 1.485775e+01 1.389363e+01 9.564845e+00 1.468918e+01 1.220198e+01 4.549310e+01 2.505840e+01 1.736596e+01 2.223707e+01 2.341630e+01 7.588503e-01 1.016825e+00 1.103275e+00 1.083025e+00 2.113006e+00 1.217191e+00 1.138222e+00 3.214736e+00 2.385747e+00 2.064283e+00 1.882574e+00 1.858586e+00 2.774329e-01
<GCONST> 8.321863e+01
<STATE> 4
<MEAN> 25
 -5.174012e+00 -3.260541e+00 -2.428425e+00 4.179189e+00 5.236112e+00 1.064881e+00 6.064503e+00 3.076651e+00 7.383524e+00 3.690810e+00 3.095947e+00 6.566273e+00 -1.837852e-02 -2.982182e-07 -7.279352e-03 6.080152e-03 1.304546e-03 -1.972373e-02 -1.770560e-02 2.189485e-03 1.814250e-02 5.124856e-02 7.941619e-02 1.564332e-02 -1.595516e-02
<VARIANCE> 25
 2.430183e+00 3.044335e+00 4.211596e+00 7.515409e+00 6.006629e+00 9.623312e+00 1.067885e+01 1.009118e+01 1.234522e+01 1.326134e+01 1.147971e+01 1.192779e+01 9.792774e-02 2.300177e-01 4.025646e-01 6.359950e-01 7.021981e-01 7.950085e-01 1.160749e+00 1.315621e+00 1.185108e+00 1.308805e+00 1.419948e+00 1.361166e+00 3.245034e-02
<GCONST> 6.251223e+01
<TRANSP> 5
 0.000000e+00 1.000000e+00 0.000000e+00 0.000000e+00 0.000000e+00
 0.000000e+00 8.751776e-01 1.248224e-01 0.000000e+00 0.000000e+00
 0.000000e+00 0.000000e+00 7.295555e-01 2.704445e-01 0.000000e+00
 0.000000e+00 0.000000e+00 0.000000e+00 9.538523e-01 4.614769e-02
 0.000000e+00 0.000000e+00 0.000000e+00 0.000000e+00 0.000000e+00
<ENDHMM>
~h "ow"
<BEGINHMM>
<NUMSTATES> 5
<STATE> 2
<MEAN> 25
 1.054041e+01 2.210755e-01 -7.398296e+00 -8.486525e+00 -3.801416e+00 7.014295e+00 -7.324159e+00 -4.290589e+00 -5.419379e+00 1.332850e+00 3.264103e+00 -2.896511e+00 1.878754e-01 4.067548e-01 -2.591373e-02 -2.662451e-01 -2.790859e-01 5.288544e-01 1.083944e-01 -2.312492e-01 -7.169958e-01 -3.905970e-01 1.276478e-01 1.543159e-01 4.000176e-02
<VARIANCE> 25
 1.280993e+01 1.023475e+01 1.367760e+01 2.432351e+01 2.605257e+01 3.362598e+01 3.403514e+01 2.149645e+01 3.366174e+01 5.165712e+01 2.148203e+01 2.599057e+01 7.899692e-01 6.196538e-01 6.571885e-01 1.450575e+00 1.030024e+00 1.389832e+00 1.089904e+00 1.231291e+00 1.112093e+00 1.302924e+00 1.160176e+00 2.186453e+00 9.093158e-01
<GCONST> 8.488416e+01
<STATE> 3
<MEAN> 25
 8.730620e+00 4.862830e+00 -3.330030e+00 -5.420617e+00 -7.177515e+00 3.308558e+00 -2.377244e+00 -1.692723e+00 -6.786915e+00 -4.737674e+00 -2.085477e+00 -1.376889e+00 -5.338047e-01 -1.213468e-01 4.495516e-01 6.696915e-01 4.040070e-01 -5.994012e-01 2.588467e-01 1.914652e-01 5.160941e-01 1.732317e-01 -3.099820e-01 -1.391380e-02 -5.315689e-01
<VARIANCE> 25
 2.167805e+01 1.470319e+01 1.194755e+01 2.721973e+01 2.420484e+01 2.325714e+01 2.019397e+01 3.161396e+01 3.104554e+01 2.956668e+01 5.497577e+01 3.957709e+01 9.050232e-01 9.720516e-01 5.969620e-01 1.444854e+00 1.502737e+00 1.241353e+00 1.315188e+00 1.862502e+00 2.611600e+00 2.648449e+00 2.012487e+00 1.491530e+00 3.240734e-01
<GCONST> 8.794485e+01
<STATE> 4
<MEAN> 25
 -3.715289e+00 -2.599927e+00 -1.240325e+00 1.056790e+00 2.448280e+00 2.981634e+00 3.505825e+00 2.188083e+00 4.164737e+00 2.758689e+00 2.042161e+00 3.197411e+00 -9.292618e-02 -9.230852e-02 4.826164e-02 8.954787e-02 9.543409e-02 6.394565e-02 1.295896e-01 9.005630e-03 2.487347e-03 -3.845448e-02 -4.027121e-02 9.169783e-03 -6.666637e-02
<VARIANCE> 25
 1.199743e+01 7.114699e+00 5.294315e+00 6.004714e+00 9.638900e+00 1.109575e+01 1.470512e+01 1.198267e+01 1.890342e+01 1.455665e+01 1.634543e+01 1.585352e+01 1.870692e-01 3.553689e-01 5.795266e-01 6.428052e-01 9.781517e-01 1.070887e+00 1.249918e+00 1.370897e+00 1.373043e+00 1.621372e+00 1.773849e+00 1.374353e+00 1.015637e-01
<GCONST> 7.116270e+01
<TRANSP> 5
 0.000000e+00 1.000000e+00 0.000000e+00 0.000000e+00 0.000000e+00
 0.000000e+00 8.977109e-01 1.022891e-01 0.000000e+00 0.000000e+00
 0.000000e+00 0.000000e+00 9.211842e-01 7.881570e-02 0.000000e+00
 0.000000e+00 0.000000e+00 0.000000e+00 9.203704e-01 7.962964e-02
 0.000000e+00 0.000000e+00 0.000000e+00 0.000000e+00 0.000000e+00
<ENDHMM>
~h "oy"
<BEGINHMM>
<NUMSTATES> 5
<STATE> 2
<MEAN> 25
 1.323561e+01 -6.446352e+00 4.630025e+00 -9.501798e-01 -1.404517e+01 -4.363343e+00 -1.066847e+01 2.201143e+00 -8.894113e+00 -1.705129e+00 1.230464e+00 -9.814609e+00 -3.399129e-01 -5.847321e-02 1.044373e+00 1.927751e-01 -6.004469e-02 -6.187551e-01 2.061276e-01 1.414779e-01 -5.283465e-01 -1.502248e-01 -2.276399e-01 -4.873335e-02 -1.057881e-01
<VARIANCE> 25
 1.040162e+01 3.368679e+01 1.042685e+02 1.251673e+01 2.562613e+01 6.472207e+01 4.861462e+01 4.867612e+01 5.954775e+01 2.636010e+01 2.893367e+01 2.866922e+01 7.949982e-01 2.183877e+00 4.186466e+00 1.763958e+00 2.880036e+00 4.944951e+00 3.646658e+00 5.973423e+00 4.500316e+00 2.840263e+00 3.253356e+00 3.667583e+00 4.715193e-01
<GCONST> 1.008062e+02
<STATE> 3
<MEAN> 25
 -5.014091e+00 5.159162e+00 6.013418e+00 4.285842e-01 -1.252894e+00 -1.243513e+01 5.159950e+00 -4.816820e+00 -7.420977e+00 -3.314038e+00 -2.965158e+00 -7.206215e-01 -3.945965e+00 1.157496e+00 -3.733294e+00 -5.589732e-01 3.113658e+00 7.384137e-01 2.350556e+00 4.256250e-01 3.160830e+00 -2.444198e-01 9.259140e-01 1.673626e+00 -4.534309e-02
<VARIANCE> 25
 1.299206e+02 2.472564e+01 5.825891e+01 1.297321e+01 5.003140e+01 5.133094e+01 6.693581e+01 2.252593e+01 5.018390e+01 1.729231e+01 2.628683e+01 4.644726e+01 5.989407e+00 2.418703e+00 2.364247e+00 3.168010e+00 4.163920e+00 5.024499e+00 6.697653e+00 3.476726e+00 5.970850e-01 3.108049e+00 3.691481e+00 2.837664e+00 2.758967e-01
<GCONST> 1.022472e+02
<STATE> 4
<MEAN> 25
 1.014830e+00 1.193285e+00 3.519225e+00 -5.571708e+00 -3.701048e+00 8.852087e-01 1.164681e+00 -3.272243e+00 -3.589836e+00 1.126756e+00 -8.459176e-01 -7.027764e+00 -1.824362e-01 1.294974e+00 -1.369584e+00 -1.335706e+00 1.659053e+00 1.429796e+00 -2.888325e-02 -2.209434e+00 1.435209e+00 1.130876e+00 -8.734380e-01 5.057973e-01 -7.034417e-01
<VARIANCE> 25
 1.991184e+02 2.340537e+01 1.071110e+02 1.158095e+01 6.649086e+01 7.209750e+01 1.231713e+02 1.746165e+01 3.130574e+01 2.042288e+01 4.885470e+00 1.167502e+02 1.600139e-01 7.746351e-01 8.509860e-01 4.028517e+00 2.915505e+00 2.905157e+00 1.485954e+00 5.496763e+00 1.210436e+00 1.561347e+00 8.471935e-01 7.679322e-01 1.794064e-01
<GCONST> 9.234193e+01
<TRANSP> 5
 0.000000e+00 1.000000e+00 0.000000e+00 0.000000e+00 0.000000e+00
 0.000000e+00 9.425356e-01 5.746443e-02 0.000000e+00 0.000000e+00
 0.000000e+00 0.000000e+00 6.818039e-01 3.181960e-01 0.000000e+00
 0.000000e+00 0.000000e+00 0.000000e+00 3.577486e-01 6.422514e-01
 0.000000e+00 0.000000e+00 0.000000e+00 0.000000e+00 0.000000e+00
<ENDHMM>
~h "sh"
<BEGINHMM>
<NUMSTATES> 5
<STATE> 2
<MEAN> 25
 -1.981710e+01 -9.725193e-01 1.089540e+01 -2.386630e+00 -4.651625e+00 -3.114293e-01 5.734797e+00 -2.114983e+00 6.174724e+00 -3.011044e+00 3.743421e+00 2.227319e+00 -5.259147e-01 3.035080e-02 -2.002926e-01 -2.512881e-01 2.315664e-01 3.128711e-01 1.739086e-01 2.642976e-02 6.270391e-01 -1.295950e-02 1.922840e-01 4.261241e-01 -2.285244e-01
<VARIANCE> 25
 2.841205e+01 8.415369e+00 2.457411e+01 1.340993e+01 1.126988e+01 1.911006e+01 3.772583e+01 4.448022e+01 2.538504e+01 1.659063e+01 1.100207e+01 1.191479e+01 5.389678e+00 5.889835e-01 1.388041e+00 1.640002e+00 1.571223e+00 2.110901e+00 2.821982e+00 2.335628e+00 2.525874e+00 1.882808e+00 1.589471e+00 9.107415e-01 7.823601e-01
<GCONST> 8.768433e+01
<STATE> 3
<MEAN> 25
 -9.333425e+00 -1.956308e+00 1.570408e+00 2.248123e-01 5.295941e-01 2.258480e+00 4.753971e+00 9.310906e-01 7.290435e+00 -6.176894e-01 5.219135e+00 4.501315e+00 7.666942e-01 -3.577345e-01 -7.596906e-02 9.411376e-02 1.652609e-01 5.733903e-01 4.272091e-02 8.625306e-01 -3.611397e-01 -9.923290e-03 -3.615770e-01 9.619634e-02 -6.655960e-01
<VARIANCE> 25
 4.082254e+01 1.441287e+00 2.719739e+01 1.459396e+01 2.433084e+01 2.467971e+01 8.549269e+00 1.264141e+01 1.296591e+01 1.506009e+01 4.540047e+00 1.321545e+01 6.328740e-01 7.114546e-01 2.118770e+00 8.615003e-01 2.722437e+00 3.102933e+00 1.493503e+00 2.035788e+00 1.274724e+00 1.636560e+00 2.354437e-01 7.591884e-01 1.032575e+00
<GCONST> 7.855000e+01
<STATE> 4
<MEAN> 25
 -1.464000e+01 -7.739435e-01 7.854500e+00 -3.459777e+00 -3.377206e+00 -3.288936e+00 5.479595e+00 -3.638056e+00 4.685289e+00 -5.202593e+00 3.135380e+00 2.261660e+00 2.084214e+00 2.060833e-01 2.693089e-02 8.297796e-02 -2.831443e-01 -6.838815e-01 -1.000329e+00 -1.109680e+00 -6.427508e-01 -2.729889e-01 -5.532494e-01 -8.460498e-01 2.697816e-01
<VARIANCE> 25
 6.731120e+01 1.407096e+01 1.753922e+01 2.106738e+01 2.203286e+01 7.294268e+01 3.121155e+01 6.323938e+01 3.218070e+01 2.602675e+01 2.076977e+01 1.301854e+01 1.413828e+01 1.747467e+00 3.124021e+00 1.199867e+00 2.752670e+00 3.403822e+00 3.828246e+00 6.787035e+00 5.075738e+00 2.530259e+00 8.012789e-01 1.490432e+00 1.570360e+00
<GCONST> 9.921773e+01
<TRANSP> 5
 0.000000e+00 1.000000e+00 0.000000e+00 0.000000e+00 0.000000e+00
 0.000000e+00 9.004095e-01 9.959059e-02 0.000000e+00 0.000000e+00
 0.000000e+00 0.000000e+00 5.477039e-01 4.522961e-01 0.000000e+00
 0.000000e+00 0.000000e+00 0.000000e+00 8.092292e-01 1.907708e-01
 0.000000e+00 0.000000e+00 0.000000e+00 0.000000e+00 0.000000e+00
<ENDHMM>
~h "sp"
<BEGINHMM>
<NUMSTATES> 3
<STATE> 2
~s "silst"
<TRANSP> 3
 0.000000e+00 5.300934e-01 4.699065e-01
 0.000000e+00 9.178060e-01 8.219403e-02
 0.000000e+00 0.000000e+00 0.000000e+00
<ENDHMM>
~h "th"
<BEGINHMM>
<NUMSTATES> 5
<STATE> 2
<MEAN> 25
 -6.344118e+00 8.940718e-01 -2.581585e+00 2.329214e+00 -1.672160e-02 2.259267e+00 1.569593e+00 -1.196695e+00 2.332447e+00 -8.813445e-02 2.589087e-01 2.591200e+00 -1.259521e+00 -4.610386e-01 -4.231991e-01 -1.293272e-01 3.833562e-02 4.810211e-01 5.599385e-01 2.240698e-01 2.952428e-01 2.640957e-01 6.086311e-01 7.905110e-01 -4.750560e-01
<VARIANCE> 25
 1.408281e+01 1.491091e+01 1.958362e+01 6.030436e+00 1.123370e+01 1.474326e+01 1.205985e+01 1.239483e+01 1.350846e+01 8.960726e+00 1.351167e+01 1.458846e+01 1.747738e+00 1.647007e+00 1.991267e+00 7.621204e-01 1.466656e+00 1.205350e+00 1.381076e+00 1.023261e+00 1.426195e+00 1.717493e+00 1.515948e+00 1.844208e+00 7.929034e-01
<GCONST> 8.034422e+01
<STATE> 3
<MEAN> 25
 -7.289197e+00 -2.103231e+00 -3.881357e+00 -1.674462e-01 -2.705755e-01 9.724577e-01 7.798360e-01 1.221183e+00 4.269474e+00 1.026598e+00 2.826153e-01 2.371206e+00 2.153820e-01 3.853764e-02 1.074064e-01 -7.734714e-02 1.950953e-01 -3.149938e-01 -5.405444e-02 2.526934e-01 2.502743e-01 1.179032e-01 -8.283036e-02 -1.525816e-01 -3.418423e-02
<VARIANCE> 25
 1.109451e+01 2.594774e+00 8.352337e+00 7.553780e+00 1.043083e+01 1.330352e+01 1.531791e+01 1.355517e+01 1.600081e+01 1.426334e+01 1.509800e+01 1.008088e+01 4.310906e-01 3.056721e-01 8.208724e-01 4.514428e-01 8.661286e-01 1.041591e+00 1.214144e+00 1.190536e+00 1.583833e+00 1.584483e+00 1.698761e+00 1.024961e+00 2.580454e+00
<GCONST> 7.384431e+01
<STATE> 4
<MEAN> 25
 -4.949446e+00 -8.650327e-01 -1.797978e-01 8.615072e-01 4.099983e+00 4.138426e+00 4.300591e+00 1.941483e+00 4.590769e+00 3.002269e+00 2.637216e+00 4.537237e+00 -2.151093e-02 6.512297e-02 3.739276e-01 5.131783e-02 -4.909255e-02 -1.071708e-01 -3.827099e-02 -2.620059e-01 -2.415316e-01 -2.719415e-01 -2.556900e-01 -2.515552e-01 1.815869e-01
<VARIANCE> 25
 7.210777e+00 5.393033e+00 1.053173e+01 1.299506e+01 8.631329e+00 1.244137e+01 7.531366e+00 1.387374e+01 9.650748e+00 1.566093e+01 1.376210e+01 1.334981e+01 1.099516e+00 1.016301e+00 2.231937e+00 1.871799e+00 9.264342e-01 1.675897e+00 1.281589e+00 1.695864e+00 1.195041e+00 2.048400e+00 2.541811e+00 1.573591e+00 1.095686e+00
<GCONST> 7.921358e+01
<TRANSP> 5
 0.000000e+00 1.000000e+00 0.000000e+00 0.000000e+00 0.000000e+00
 0.000000e+00 7.308287e-01 2.691713e-01 0.000000e+00 0.000000e+00
 0.000000e+00 0.000000e+00 8.155954e-01 1.844046e-01 0.000000e+00
 0.000000e+00 0.000000e+00 0.000000e+00 8.654841e-01 1.345159e-01
 0.000000e+00 0.000000e+00 0.000000e+00 0.000000e+00 0.000000e+00
<ENDHMM>
~h "uh"
<BEGINHMM>
<NUMSTATES> 5
<STATE> 2
<MEAN> 25
 1.328934e+01 -4.126117e+00 -4.915937e+00 -8.718153e-01 -1.542702e+00 -7.549972e+00 -1.861583e+01 2.227334e+00 -4.019651e+00 -4.645498e+00 4.717872e+00 -1.416897e+00 -1.384233e-01 -5.883720e-01 1.110676e+00 3.480212e-02 -5.473811e-01 -7.489534e-01 1.793500e-01 1.014287e+00 -4.286516e-01 1.870133e-01 -1.569621e-01 -1.955865e-01 -1.153099e-01
<VARIANCE> 25
 1.505670e+01 4.001257e+01 2.581795e+01 3.490020e+01 7.050123e+01 1.499304e+02 7.071587e+01 7.683274e+01 4.636325e+01 4.931668e+01 2.477023e+01 2.382178e+01 2.507789e+00 1.103804e+00 2.617706e+00 4.166073e+00 6.987475e+00 3.183431e+00 6.727654e+00 3.870606e+00 7.730601e+00 1.559705e+00 2.414083e+00 4.589222e+00 2.649721e+00
<GCONST> 1.067709e+02
<STATE> 3
<MEAN> 25
 8.348814e+00 -5.973357e+00 8.443146e+00 -4.154729e+00 -1.307677e+01 -4.359217e+00 -6.446230e+00 4.723433e+00 -1.395739e+01 -1.737602e+00 4.042204e+00 -4.839347e+00 -1.099709e+00 1.325872e+00 5.926384e-01 1.755566e-01 1.613996e-01 1.628270e+00 1.993139e+00 -2.097569e+00 -1.465796e-01 1.724446e+00 -2.203876e+00 -4.795996e-01 -1.586558e+00
<VARIANCE> 25
 1.039706e+01 4.065906e+01 7.727843e+01 3.822492e+01 8.072870e+01 5.196049e+01 4.219798e+01 2.964080e+01 4.076097e+01 5.838443e+01 2.949360e+01 4.820171e+01 8.106328e-01 2.813083e+00 1.839405e+00 5.812427e+00 8.432871e+00 4.885931e+00 3.280672e+00 5.177975e+00 6.365993e+00 6.641958e+00 3.755275e+00 2.749854e+00 3.610777e+00
<GCONST> 1.075998e+02
<STATE> 4
<MEAN> 25
 9.213511e+00 1.701491e+00 4.636608e+00 2.101443e+00 -7.002211e+00 -1.729714e+00 -2.117537e+00 -1.125770e+01 -9.346850e+00 3.828378e+00 -2.728930e+00 -4.931146e+00 -4.820141e-01 6.146649e-01 -3.299501e-01 7.998990e-01 1.140276e+00 -2.106418e-01 -1.715268e-01 -1.317594e-01 1.216632e+00 -7.836993e-01 -3.529677e-01 7.237821e-01 -1.219229e+00
<VARIANCE> 25
 1.038484e+01 9.395215e+00 2.003650e+01 4.154459e+01 3.164573e+01 2.998974e+01 6.023565e+00 2.736073e+01 2.248381e+01 4.373302e+01 1.655222e+01 3.109085e+01 1.897450e+00 1.543057e+00 9.105535e-01 2.805085e+00 1.932567e+00 2.147802e+00 1.665235e-01 2.914921e+00 2.758287e+00 9.032214e-01 5.935122e-01 3.073776e-01 2.088821e+00
<GCONST> 8.500694e+01
<TRANSP> 5
 0.000000e+00 1.000000e+00 0.000000e+00 0.000000e+00 0.000000e+00
 0.000000e+00 8.496885e-01 1.503115e-01 0.000000e+00 0.000000e+00
 0.000000e+00 0.000000e+00 6.709713e-01 3.290288e-01 0.000000e+00
 0.000000e+00 0.000000e+00 0.000000e+00 7.368411e-01 2.631589e-01
 0.000000e+00 0.000000e+00 0.000000e+00 0.000000e+00 0.000000e+00
<ENDHMM>
~h "uw"
<BEGINHMM>
<NUMSTATES> 5
<STATE> 2
<MEAN> 25
 3.278212e+00 1.630961e+00 7.041173e+00 3.924251e+00 -2.556117e+00 -5.652247e+00 -8.044598e+00 -2.539348e+00 -7.207533e+00 -3.818310e+00 1.096489e+00 -4.967059e-01 -1.630335e-01 8.707959e-02 -2.192662e-01 8.065270e-02 3.835635e-01 1.709999e-01 1.458565e-01 3.158490e-02 2.269484e-01 5.166614e-02 -1.046859e-01 6.032668e-02 -3.151740e-01
<VARIANCE> 25
 1.978526e+01 2.140233e+01 3.927966e+01 1.333675e+01 4.074601e+01 3.939805e+01 3.461766e+01 4.246306e+01 5.112728e+01 2.710540e+01 2.500908e+01 1.523918e+01 1.032277e+00 8.990733e-01 1.786216e+00 7.215678e-01 1.780724e+00 2.900685e+00 2.768773e+00 2.600120e+00 2.765469e+00 2.072553e+00 1.943136e+00 1.332387e+00 1.179302e+00
<GCONST> 9.276510e+01
<STATE> 3
<MEAN> 25
 5.369528e+00 -5.321661e+00 -6.226382e+00 -3.464212e+00 1.493883e+00 6.368649e+00 -2.747933e+00 1.906891e+00 1.591319e+00 -3.817475e-01 -6.645057e+00 -1.007644e+01 -6.347424e-01 -3.494300e-01 -1.285900e-01 6.436046e-02 2.603617e-01 1.502558e-01 7.080290e-01 1.175147e-01 6.121785e-01 1.010420e-01 2.248016e-01 5.804408e-01 -5.180973e-01
<VARIANCE> 25
 2.743988e+01 2.375738e+01 2.562925e+01 4.669233e+01 2.259574e+01 1.476423e+01 4.241839e+01 2.212149e+01 1.020914e+01 1.785205e+01 4.873363e+01 7.779381e+01 7.258300e-01 1.766124e+00 1.760648e+00 2.506680e+00 1.497491e+00 1.095783e+00 1.332754e+00 1.745245e+00 1.565120e+00 2.504114e+00 2.595041e+00 2.225006e+00 6.111569e-01
<GCONST> 9.131331e+01
<STATE> 4
<MEAN> 25
 -5.818401e+00 -2.168248e+00 -1.059086e+00 1.834822e+00 3.537598e+00 1.661496e+00 4.460619e+00 2.369252e+00 5.634331e+00 2.357164e+00 3.530763e+00 5.397512e+00 -9.219976e-02 -5.259893e-02 5.815391e-02 -7.733641e-03 -1.296512e-02 -4.092349e-02 3.675943e-02 5.624282e-02 1.281734e-01 2.089367e-01 1.769261e-01 7.436903e-02 -5.919917e-02
<VARIANCE> 25
 5.671111e+00 3.442125e+00 5.156678e+00 5.248043e+00 7.572906e+00 6.483368e+00 1.480816e+01 1.838676e+01 2.049068e+01 1.501356e+01 1.390741e+01 1.186505e+01 1.748065e-01 3.216197e-01 5.711836e-01 5.279782e-01 5.851541e-01 8.120405e-01 1.359547e+00 1.691582e+00 1.446187e+00 2.112858e+00 1.521262e+00 1.160086e+00 7.482176e-02
<GCONST> 6.765601e+01
<TRANSP> 5
 0.000000e+00 1.000000e+00 0.000000e+00 0.000000e+00 0.000000e+00
 0.000000e+00 9.315007e-01 6.849927e-02 0.000000e+00 0.000000e+00
 0.000000e+00 0.000000e+00 8.297055e-01 1.702945e-01 0.000000e+00
 0.000000e+00 0.000000e+00 0.000000e+00 9.312292e-01 6.877074e-02
 0.000000e+00 0.000000e+00 0.000000e+00 0.000000e+00 0.000000e+00
<ENDHMM>
~h "zh"
<BEGINHMM>
<NUMSTATES> 5
<STATE> 2
<MEAN> 25
 -7.011668e+00 6.498840e+00 1.626512e+01 -2.639433e+00 -5.659238e+00 1.480746e+00 -4.160237e-01 -9.654192e+00 -3.710065e+00 -4.732729e+00 1.205845e+00 -4.489291e+00 -1.699690e+00 5.152240e-02 -2.221763e-01 2.774099e-01 9.799782e-01 3.919469e-01 1.205498e+00 -5.799313e-02 1.351949e+00 -1.583738e-01 9.514588e-02 4.671815e-01 -7.375551e-02
<VARIANCE> 25
 6.352596e+01 4.159692e+00 1.108845e+01 1.595152e+01 2.712014e+01 5.747045e+01 7.320049e+01 1.128610e+01 4.938676e+01 2.311609e+01 1.553410e+01 2.048944e+01 2.360478e+00 9.760444e-01 7.505986e-01 1.064839e+00 1.680207e+00 3.069940e+00 3.277728e+00 2.110997e+00 2.833786e+00 1.657816e+00 1.080329e+00 1.304133e+00 1.232168e-01
<GCONST> 8.755229e+01
<STATE> 3
<MEAN> 25
 -2.499964e+00 -2.820182e+00 3.030163e+00 -3.468785e+00 -4.463006e+00 -5.271692e+00 1.557940e+00 1.504661e+00 -1.542880e-01 -2.410690e+00 -1.066819e+00 -3.497379e+00 1.352316e+00 -4.155238e-01 -1.017283e+00 9.015071e-02 -2.781404e-02 -8.006437e-01 -5.115531e-01 6.738989e-01 -2.767296e-01 1.033590e-01 -3.590942e-02 2.345144e-01 -4.654486e-01
<VARIANCE> 25
 1.523517e+02 3.992400e+01 9.170390e+01 1.801027e+01 3.761073e+01 4.410040e+01 1.008455e+02 8.184476e+01 6.010273e+01 2.059503e+01 3.531281e+01 6.084577e+01 7.460253e+00 2.419857e+00 1.625538e+00 1.453090e+00 2.890782e+00 5.002741e+00 5.548377e+00 3.471074e+00 5.626217e+00 2.755763e+00 2.150745e+00 3.396373e+00 1.691908e+00
<GCONST> 1.079333e+02
<STATE> 4
<MEAN> 25
 -4.585978e+00 -5.195025e-01 -7.533848e+00 2.258027e+00 5.921523e+00 3.313000e+00 5.351758e+00 3.884633e+00 7.541426e+00 2.878203e+00 3.675892e+00 5.271942e+00 8.000932e-02 -1.545542e-02 -7.287042e-02 7.902899e-02 2.794095e-02 -2.995217e-02 -1.203176e-01 1.603011e-02 -4.739647e-02 -1.173320e-02 5.820194e-02 1.388487e-01 -4.473590e-02
<VARIANCE> 25
 6.862436e+00 1.934680e+00 1.188267e+01 4.633112e+00 1.068961e+01 2.865387e+01 1.099787e+01 1.154639e+01 1.815730e+01 2.433717e+01 1.262622e+01 1.106836e+01 5.987790e-01 2.500183e-01 5.155230e-01 6.415154e-01 4.697619e-01 1.172579e+00 2.047579e+00 1.514600e+00 1.451385e+00 1.979586e+00 1.465899e+00 1.506125e+00 1.477002e-01
<GCONST> 7.160556e+01
<TRANSP> 5
 0.000000e+00 1.000000e+00 0.000000e+00 0.000000e+00 0.000000e+00
