~o
<STREAMINFO> 1 25
<VECSIZE> 25<NULLD><MFCC_D_N_Z_0><DIAGC>
~h "proto"
<BEGINHMM>
<NUMSTATES> 5
<STATE> 2
<MEAN> 25
 -8.643986e-08 -4.411269e-08 5.745153e-08 6.438352e-08 2.749166e-08 7.932407e-08 5.044076e-08 2.357928e-08 -1.285307e-07 3.529015e-08 1.450730e-08 2.832862e-08 -8.906730e-03 7.893739e-03 -6.462683e-03 4.993067e-03 -6.320004e-03 1.062964e-02 -7.521133e-03 1.038287e-02 -6.391942e-03 3.461456e-03 3.053124e-03 -2.104387e-03 3.087490e-03
<VARIANCE> 25
 6.577840e+01 2.737477e+01 5.851226e+01 4.988304e+01 4.895963e+01 4.831762e+01 5.153055e+01 4.039792e+01 6.237811e+01 3.164835e+01 2.825499e+01 4.406645e+01 1.883173e+00 1.402217e+00 1.871585e+00 2.269560e+00 2.350364e+00 2.583213e+00 2.405958e+00 2.682309e+00 2.855301e+00 2.186498e+00 1.970506e+00 1.986716e+00 2.012962e+00
<GCONST> 1.015279e+02
<STATE> 3
<MEAN> 25
 -8.643986e-08 -4.411269e-08 5.745153e-08 6.438352e-08 2.749166e-08 7.932407e-08 5.044076e-08 2.357928e-08 -1.285307e-07 3.529015e-08 1.450730e-08 2.832862e-08 -8.906730e-03 7.893739e-03 -6.462683e-03 4.993067e-03 -6.320004e-03 1.062964e-02 -7.521133e-03 1.038287e-02 -6.391942e-03 3.461456e-03 3.053124e-03 -2.104387e-03 3.087490e-03
<VARIANCE> 25
 6.577840e+01 2.737477e+01 5.851226e+01 4.988304e+01 4.895963e+01 4.831762e+01 5.153055e+01 4.039792e+01 6.237811e+01 3.164835e+01 2.825499e+01 4.406645e+01 1.883173e+00 1.402217e+00 1.871585e+00 2.269560e+00 2.350364e+00 2.583213e+00 2.405958e+00 2.682309e+00 2.855301e+00 2.186498e+00 1.970506e+00 1.986716e+00 2.012962e+00
<GCONST> 1.015279e+02
<STATE> 4
<MEAN> 25
 -8.643986e-08 -4.411269e-08 5.745153e-08 6.438352e-08 2.749166e-08 7.932407e-08 5.044076e-08 2.357928e-08 -1.285307e-07 3.529015e-08 1.450730e-08 2.832862e-08 -8.906730e-03 7.893739e-03 -6.462683e-03 4.993067e-03 -6.320004e-03 1.062964e-02 -7.521133e-03 1.038287e-02 -6.391942e-03 3.461456e-03 3.053124e-03 -2.104387e-03 3.087490e-03
<VARIANCE> 25
 6.577840e+01 2.737477e+01 5.851226e+01 4.988304e+01 4.895963e+01 4.831762e+01 5.153055e+01 4.039792e+01 6.237811e+01 3.164835e+01 2.825499e+01 4.406645e+01 1.883173e+00 1.402217e+00 1.871585e+00 2.269560e+00 2.350364e+00 2.583213e+00 2.405958e+00 2.682309e+00 2.855301e+00 2.186498e+00 1.970506e+00 1.986716e+00 2.012962e+00
<GCONST> 1.015279e+02
<TRANSP> 5
 0.000000e+00 1.000000e+00 0.000000e+00 0.000000e+00 0.000000e+00
 0.000000e+00 6.000000e-01 4.000000e-01 0.000000e+00 0.000000e+00
 0.000000e+00 0.000000e+00 6.000000e-01 4.000000e-01 0.000000e+00
 0.000000e+00 0.000000e+00 0.000000e+00 7.000000e-01 3.000000e-01
 0.000000e+00 0.000000e+00 0.000000e+00 0.000000e+00 0.000000e+00
<ENDHMM>
