~o
<STREAMINFO> 1 25
<VECSIZE> 25<NULLD><MFCC_D_N_Z_0><DIAGC>
~h "b"
<BEGINHMM>
<NUMSTATES> 5
<STATE> 2
<MEAN> 25
 2.801934e+00 5.448018e+00 4.111423e+00 6.505215e+00 5.304086e+00 1.424903e+00 -3.789632e-03 -3.080604e+00 -1.356687e+00 -3.719900e+00 -3.344882e+00 -1.746609e+00 3.762399e-01 6.064395e-01 5.575122e-01 4.088342e-01 3.329753e-01 -7.916681e-02 -4.358728e-01 -3.448594e-01 -4.970306e-01 -6.596490e-01 -3.669261e-01 -2.566839e-01 3.618308e-01
<VARIANCE> 25
 1.886552e+01 2.125492e+01 2.178528e+01 1.256696e+01 1.160086e+01 1.566165e+01 1.845646e+01 2.120953e+01 2.937155e+01 2.187270e+01 1.821054e+01 1.555065e+01 2.055731e+00 2.726702e+00 1.873386e+00 1.603158e+00 1.451140e+00 1.634975e+00 2.329505e+00 3.427194e+00 3.114140e+00 2.690605e+00 2.231688e+00 1.788457e+00 2.327675e+00
<GCONST> 9.095621e+01
<STATE> 3
<MEAN> 25
 2.947609e+00 4.607144e+00 3.483581e+00 4.766044e+00 4.934623e+00 1.521093e+00 -3.034559e-01 -2.464792e+00 -1.107280e+00 -2.756557e+00 -2.116039e+00 -2.464148e+00 7.239868e-01 -7.736569e-01 -5.885422e-01 -1.741835e+00 -1.612269e+00 -3.341139e-01 -8.082474e-01 5.478185e-01 1.628422e-01 9.601660e-01 6.629044e-01 -5.267895e-02 2.493833e+00
<VARIANCE> 25
 1.951803e+01 1.903001e+01 2.387833e+01 4.724015e+01 2.470198e+01 2.461551e+01 3.069643e+01 2.034809e+01 2.187090e+01 2.340154e+01 2.111008e+01 3.357766e+01 3.062036e+00 2.829504e+00 2.895151e+00 6.598534e+00 4.871738e+00 5.007469e+00 3.202661e+00 4.194375e+00 4.089965e+00 3.358867e+00 3.335288e+00 5.511556e+00 6.371142e+00
<GCONST> 1.028260e+02
<STATE> 4
<MEAN> 25
 7.762866e+00 6.145416e-01 2.269577e+00 -5.138968e+00 -5.526160e+00 -1.832490e+00 -7.632179e+00 -3.426528e-02 -5.434686e+00 -8.238769e-01 -9.777938e-01 -3.794356e+00 7.952533e-01 -1.049161e+00 -1.981088e-01 -1.761047e+00 -1.607640e+00 -1.654550e-02 -1.135656e+00 5.270581e-01 -7.044398e-01 4.808632e-01 1.685563e-01 -4.654959e-01 1.929229e+00
<VARIANCE> 25
 3.663104e+01 3.834239e+01 5.772555e+01 5.555854e+01 7.432942e+01 1.029518e+02 5.168079e+01 3.463289e+01 4.246938e+01 3.378724e+01 4.476462e+01 3.765590e+01 1.957139e+00 3.336791e+00 4.420441e+00 8.536174e+00 8.877391e+00 7.216682e+00 3.423699e+00 4.750518e+00 6.314770e+00 3.950755e+00 4.076745e+00 2.782683e+00 6.143565e+00
<GCONST> 1.123158e+02
<TRANSP> 5
 0.000000e+00 1.000000e+00 0.000000e+00 0.000000e+00 0.000000e+00
 0.000000e+00 7.736250e-01 2.263750e-01 0.000000e+00 0.000000e+00
 0.000000e+00 0.000000e+00 6.823877e-01 3.176123e-01 0.000000e+00
 0.000000e+00 0.000000e+00 0.000000e+00 6.267613e-01 3.732388e-01
 0.000000e+00 0.000000e+00 0.000000e+00 0.000000e+00 0.000000e+00
<ENDHMM>
~h "d"
<BEGINHMM>
<NUMSTATES> 5
<STATE> 2
<MEAN> 25
 4.101608e-01 5.251035e+00 5.961602e+00 5.923940e+00 4.011827e+00 -3.549906e+00 6.811931e-02 -2.209395e+00 -2.717601e+00 -3.248440e+00 -3.897096e+00 -1.034342e+00 2.325780e-01 4.526592e-01 2.890003e-01 5.321704e-01 1.709165e-01 -1.955103e-01 -8.972628e-02 -3.029921e-01 -2.929040e-01 -3.893431e-01 -3.156506e-01 7.018644e-02 3.547709e-01
<VARIANCE> 25
 2.767002e+01 2.976738e+01 2.892315e+01 3.302074e+01 4.629819e+01 4.185544e+01 2.664607e+01 3.284950e+01 2.517167e+01 2.972256e+01 2.061770e+01 1.528690e+01 2.767591e+00 2.136672e+00 3.120448e+00 3.486060e+00 3.882066e+00 3.830555e+00 3.071397e+00 3.325795e+00 3.226952e+00 2.779555e+00 3.060452e+00 1.556880e+00 3.702808e+00
<GCONST> 1.004885e+02
<STATE> 3
<MEAN> 25
 4.667963e-01 1.795506e+00 5.230022e+00 2.765054e+00 -2.911654e-01 -4.113392e+00 -1.692616e-01 -8.497813e-01 -2.540978e+00 -1.271184e+00 -1.737827e+00 -3.953936e-01 3.942200e-01 -8.556563e-01 -4.020771e-01 -1.119961e+00 -1.642539e+00 -1.109157e+00 -4.900695e-01 7.489464e-01 -2.534303e-02 6.172812e-01 3.852414e-01 1.350189e-01 2.296077e+00
<VARIANCE> 25
 2.147772e+01 2.369374e+01 2.607695e+01 4.135050e+01 7.513570e+01 4.651320e+01 3.784662e+01 4.262352e+01 2.693799e+01 2.643486e+01 1.672776e+01 1.831892e+01 4.254830e+00 2.424620e+00 3.495129e+00 4.977513e+00 8.653016e+00 5.029801e+00 3.798450e+00 6.061269e+00 3.500207e+00 2.942606e+00 2.405068e+00 2.567343e+00 8.025332e+00
<GCONST> 1.053355e+02
<STATE> 4
<MEAN> 25
 1.512302e+00 -8.004367e-01 2.526196e+00 1.863258e+00 -1.140559e+00 -4.887103e+00 -2.797287e+00 9.616991e-01 1.315088e+00 4.856911e-01 -1.112661e+00 1.150083e+00 2.948042e-01 -4.664019e-01 -6.646760e-01 -4.516926e-01 8.813225e-03 4.793818e-01 -2.941171e-01 -9.218412e-03 4.142832e-01 4.980044e-01 2.858891e-01 -3.612151e-01 3.648096e-01
<VARIANCE> 25
 4.621524e+01 2.656893e+01 2.768334e+01 2.907224e+01 5.934976e+01 4.685207e+01 7.312170e+01 4.431896e+01 3.863456e+01 2.772848e+01 2.193339e+01 3.223718e+01 3.130544e+00 1.789555e+00 2.602915e+00 2.985639e+00 5.883384e+00 4.501992e+00 2.829779e+00 4.601097e+00 3.230645e+00 2.487579e+00 2.099547e+00 3.100614e+00 3.025631e+00
<GCONST> 1.039835e+02
<TRANSP> 5
 0.000000e+00 1.000000e+00 0.000000e+00 0.000000e+00 0.000000e+00
 0.000000e+00 7.169275e-01 2.830725e-01 0.000000e+00 0.000000e+00
 0.000000e+00 0.000000e+00 5.527068e-01 4.472932e-01 0.000000e+00
 0.000000e+00 0.000000e+00 0.000000e+00 5.104420e-01 4.895580e-01
 0.000000e+00 0.000000e+00 0.000000e+00 0.000000e+00 0.000000e+00
<ENDHMM>
~h "f"
<BEGINHMM>
<NUMSTATES> 5
<STATE> 2
<MEAN> 25
 -4.736597e+00 -3.112396e+00 -2.069569e+00 1.115704e+00 2.418978e+00 1.516132e+00 3.718792e+00 2.761051e+00 4.287767e+00 2.790057e+00 1.869421e+00 3.914893e+00 -1.098149e-01 4.601249e-03 -6.974100e-02 -5.458687e-02 -9.277157e-02 3.318086e-02 -7.854152e-02 -4.540034e-02 -3.920489e-02 4.281708e-02 2.237182e-03 -8.231195e-03 -1.309391e-02
<VARIANCE> 25
 8.444490e+00 5.668331e+00 6.828604e+00 1.032670e+01 1.049088e+01 1.321651e+01 1.302570e+01 1.410433e+01 1.228221e+01 1.567424e+01 1.442472e+01 1.476942e+01 4.430626e-01 3.627832e-01 4.710135e-01 8.292251e-01 8.261586e-01 1.144297e+00 1.288541e+00 1.496606e+00 1.159374e+00 1.497703e+00 1.342700e+00 1.433184e+00 2.272111e-01
<GCONST> 7.239517e+01
<STATE> 3
<MEAN> 25
 -7.827069e+00 -4.008091e-01 -5.634865e+00 1.946473e+00 -2.022991e-01 1.804297e+00 2.160050e-01 5.623340e-01 2.842151e+00 2.433887e+00 -1.963317e-01 2.284528e+00 8.254225e-01 1.418937e-01 -9.056407e-02 -5.235397e-01 -3.057161e-01 2.039522e-01 -1.916546e-01 -3.251900e-01 -3.610492e-01 -1.686826e-01 -1.650888e-02 -2.540572e-01 4.801040e-01
<VARIANCE> 25
 3.004996e+01 1.166585e+01 1.233018e+01 2.556243e+01 1.229312e+01 1.625039e+01 1.466637e+01 1.320211e+01 1.667456e+01 1.461113e+01 1.153550e+01 1.540758e+01 4.775043e+00 1.282943e+00 1.269528e+00 3.006312e+00 1.440736e+00 2.090731e+00 1.621898e+00 1.349505e+00 2.055204e+00 1.877172e+00 1.404210e+00 1.608591e+00 2.827159e+00
<GCONST> 8.704084e+01
<STATE> 4
<MEAN> 25
 8.878203e+00 -2.918518e+00 -6.839537e+00 -1.115114e+01 -4.944042e+00 5.898709e+00 2.011791e-01 -3.632844e+00 2.095772e+00 -1.368854e+00 9.602959e-01 -6.733877e+00 7.236302e-01 -1.213482e-01 -5.906869e-02 -3.036108e-01 -9.422743e-02 8.885065e-03 -2.183841e-01 -8.742405e-03 -2.709663e-01 -3.555896e-01 -1.284874e-01 -2.663808e-01 2.823300e-01
<VARIANCE> 25
 6.174890e+01 5.478289e+01 1.401052e+01 4.820899e+01 4.660837e+01 5.758773e+01 1.078157e+01 3.271791e+01 2.529139e+01 1.222815e+01 1.702230e+01 5.853369e+01 2.754740e+00 1.391605e+00 9.625943e-01 4.483243e+00 2.505994e+00 2.932159e+00 8.951609e-01 1.719329e+00 1.597150e+00 9.246385e-01 1.357759e+00 1.418674e+00 6.985669e-01
<GCONST> 9.290622e+01
<TRANSP> 5
 0.000000e+00 1.000000e+00 0.000000e+00 0.000000e+00 0.000000e+00
 0.000000e+00 9.559617e-01 4.403832e-02 0.000000e+00 0.000000e+00
 0.000000e+00 0.000000e+00 8.800811e-01 1.199189e-01 0.000000e+00
 0.000000e+00 0.000000e+00 0.000000e+00 8.054676e-01 1.945324e-01
 0.000000e+00 0.000000e+00 0.000000e+00 0.000000e+00 0.000000e+00
<ENDHMM>
~h "g"
<BEGINHMM>
<NUMSTATES> 5
<STATE> 2
<MEAN> 25
 -1.247198e+00 -2.453668e+00 -2.420849e-01 -3.588552e-01 2.543470e+00 -1.185891e+00 2.187191e+00 -1.190839e+00 2.212676e+00 -1.388439e+00 -3.857220e+00 -6.150417e-01 -1.525314e-01 -9.395930e-01 2.612861e-01 -1.376296e+00 -1.437305e+00 -1.506434e+00 -1.360159e-01 -1.277078e+00 -4.976476e-01 -3.003533e-01 -6.287925e-01 -1.732066e-01 2.899224e+00
<VARIANCE> 25
 2.248718e+01 4.124541e+01 4.341357e+01 3.530760e+01 3.246823e+01 5.050341e+01 1.461281e+01 5.482193e+01 2.065497e+01 7.447240e+00 4.292182e+01 2.584308e+01 3.156836e+00 5.797928e+00 4.793229e+00 8.443979e+00 7.579070e+00 5.437368e+00 2.071448e+00 4.650650e+00 3.482388e+00 2.032095e+00 3.767237e+00 2.207064e+00 5.997956e+00
<GCONST> 1.047077e+02
<STATE> 3
<MEAN> 25
 -4.121443e-01 3.094572e-01 3.164313e+00 5.852497e-01 1.755092e-01 -3.659506e+00 5.880161e-01 -4.049891e+00 -1.151400e+00 -2.584241e+00 -2.610774e+00 -3.802295e-01 -1.412905e-01 6.128994e-01 1.016501e+00 -2.488194e-01 -7.325524e-01 -4.682529e-01 -6.969483e-01 -5.955107e-01 -6.825269e-01 9.060293e-02 5.558870e-01 7.437561e-02 8.982373e-01
<VARIANCE> 25
 3.658265e+01 2.721582e+01 3.305004e+01 5.851993e+01 4.019116e+01 4.514543e+01 2.078112e+01 4.758806e+01 2.892878e+01 1.034025e+01 3.591601e+01 2.333626e+01 3.237954e+00 5.209786e+00 6.303285e+00 6.726718e+00 7.308721e+00 5.383328e+00 3.074764e+00 3.477504e+00 4.867564e+00 1.772390e+00 3.986482e+00 2.490495e+00 8.093149e+00
<GCONST> 1.064058e+02
<STATE> 4
<MEAN> 25
 2.487295e+00 3.423665e+00 6.623090e+00 -4.144176e-01 -4.360657e+00 -7.172745e+00 -1.689703e+00 -2.929465e+00 -4.178544e+00 6.493308e-01 1.136315e-01 -2.393768e+00 3.900807e-01 7.352266e-02 -3.907184e-01 1.532862e-02 -5.028898e-01 -6.461919e-01 1.802099e-01 8.950490e-01 8.498684e-03 -1.351098e-01 5.775174e-01 -2.298599e-01 8.018989e-01
<VARIANCE> 25
 3.707702e+01 2.121856e+01 8.030293e+01 2.598978e+01 9.498609e+01 3.687738e+01 3.281543e+01 4.178061e+01 5.288563e+01 1.577809e+01 2.409878e+01 1.550717e+01 3.842699e+00 3.239025e+00 8.020521e+00 9.789653e-01 5.566830e+00 3.442746e+00 4.915421e+00 5.872293e+00 6.137091e+00 2.347463e+00 2.937485e+00 2.537159e+00 1.742645e+00
<GCONST> 1.044228e+02
<TRANSP> 5
 0.000000e+00 1.000000e+00 0.000000e+00 0.000000e+00 0.000000e+00
 0.000000e+00 5.226409e-01 4.773591e-01 0.000000e+00 0.000000e+00
 0.000000e+00 0.000000e+00 6.467236e-01 3.532764e-01 0.000000e+00
 0.000000e+00 0.000000e+00 0.000000e+00 7.665010e-01 2.334990e-01
 0.000000e+00 0.000000e+00 0.000000e+00 0.000000e+00 0.000000e+00
<ENDHMM>
~h "k"
<BEGINHMM>
<NUMSTATES> 5
<STATE> 2
<MEAN> 25
 -4.969580e+00 -3.086266e+00 -1.871026e+00 2.465668e+00 2.538732e+00 1.508870e-02 3.600177e+00 1.803224e+00 4.427426e+00 2.499379e+00 9.585225e-01 4.326375e+00 -7.592754e-02 -5.026206e-01 -3.333158e-01 -3.838930e-01 2.328909e-01 -9.108849e-01 -3.371709e-01 -1.881160e-01 -3.621885e-01 1.460472e-01 -5.450421e-01 7.064675e-02 1.581021e+00
<VARIANCE> 25
 1.411458e+01 2.318777e+01 2.266880e+01 3.162075e+01 1.804782e+01 3.859695e+01 2.097215e+01 2.438688e+01 2.811148e+01 1.465189e+01 1.961159e+01 2.106222e+01 1.979437e+00 3.332949e+00 3.989453e+00 3.664732e+00 2.308778e+00 4.624247e+00 3.188613e+00 3.323500e+00 3.702978e+00 1.697169e+00 3.055580e+00 2.268275e+00 6.863684e+00
<GCONST> 9.813839e+01
<STATE> 3
<MEAN> 25
 -2.737490e+00 -5.126960e+00 -5.579793e+00 -7.014220e-01 5.653931e+00 -6.908453e+00 -1.803132e-01 -8.834946e-01 1.976836e+00 2.997346e+00 -2.612267e+00 1.815606e+00 1.236979e-01 4.946597e-01 2.481433e-01 -6.494133e-01 2.222145e-02 4.819708e-01 -2.848176e-01 -7.432340e-01 -3.127445e-01 -6.263136e-01 -2.348557e-02 -8.200676e-01 1.562447e+00
<VARIANCE> 25
 2.847300e+01 2.141239e+01 7.319900e+01 4.692310e+01 5.699993e+01 6.343582e+01 3.589483e+01 5.434538e+01 5.150082e+01 2.164647e+01 3.101503e+01 2.567158e+01 4.026881e+00 2.851045e+00 4.758122e+00 4.453407e+00 2.699825e+00 1.297838e+01 4.210117e+00 3.417801e+00 4.945699e+00 3.008044e+00 4.724422e+00 3.865101e+00 7.889372e+00
<GCONST> 1.093541e+02
<STATE> 4
<MEAN> 25
 -1.395897e+00 -1.389182e-01 -4.222529e-01 -4.816153e+00 -7.993980e-02 1.255173e+00 9.579508e-01 -2.276420e+00 8.083839e-01 -1.763823e+00 1.396467e-02 -8.296646e-01 7.115004e-01 5.625763e-01 3.306312e-01 3.641050e-01 -7.427481e-01 5.172323e-01 1.399892e-01 -6.583663e-02 -3.855686e-01 -6.762674e-01 2.191934e-01 -6.944659e-01 2.317874e-01
<VARIANCE> 25
 9.851280e+01 3.644289e+01 8.645769e+01 5.741574e+01 6.948997e+01 8.258051e+01 4.751687e+01 5.562423e+01 4.680441e+01 3.099453e+01 2.985148e+01 3.508059e+01 6.177052e+00 3.623290e+00 3.905285e+00 4.859084e+00 4.224931e+00 5.738247e+00 3.991256e+00 4.625340e+00 5.347526e+00 4.256679e+00 2.716657e+00 2.745255e+00 3.230433e+00
<GCONST> 1.118734e+02
<TRANSP> 5
 0.000000e+00 1.000000e+00 0.000000e+00 0.000000e+00 0.000000e+00
 0.000000e+00 8.068892e-01 1.931108e-01 0.000000e+00 0.000000e+00
 0.000000e+00 0.000000e+00 6.410100e-01 3.589900e-01 0.000000e+00
 0.000000e+00 0.000000e+00 0.000000e+00 7.581567e-01 2.418433e-01
 0.000000e+00 0.000000e+00 0.000000e+00 0.000000e+00 0.000000e+00
<ENDHMM>
~h "l"
<BEGINHMM>
<NUMSTATES> 5
<STATE> 2
<MEAN> 25
 1.098057e+01 4.323466e+00 -5.277768e+00 -1.343464e+01 -5.078238e+00 5.452681e+00 -4.889134e+00 -2.769386e+00 -7.594279e+00 1.012346e+00 5.709277e-01 -4.839283e+00 4.996611e-02 6.414149e-01 8.983517e-02 -1.924821e-01 -1.541885e-01 -1.711904e-02 1.325011e-01 1.257649e-02 -3.949410e-01 -2.126133e-01 1.450992e-01 4.146648e-01 -5.112616e-01
<VARIANCE> 25
 1.296772e+01 2.857121e+01 2.409725e+01 7.368562e+01 3.063492e+01 4.214937e+01 3.856908e+01 4.037877e+01 5.011472e+01 3.594537e+01 2.468496e+01 3.638374e+01 7.948010e-01 1.587865e+00 1.098693e+00 4.455996e+00 2.006440e+00 3.150663e+00 1.899636e+00 2.618980e+00 3.247063e+00 2.707165e+00 1.993913e+00 1.932774e+00 9.050714e-01
<GCONST> 9.684694e+01
<STATE> 3
<MEAN> 25
 6.968002e+00 6.411525e+00 -3.599488e+00 -6.054056e+00 -2.139790e+00 2.872807e+00 -2.660923e+00 -2.387031e+00 -3.786026e+00 7.886772e-01 -2.725889e-01 -1.955931e+00 -8.381894e-01 -4.686371e-01 7.716542e-01 1.714676e+00 7.735935e-01 -4.855552e-01 2.302732e-01 1.205342e-01 1.076059e+00 -2.072524e-01 -4.881800e-01 6.259532e-02 -5.908452e-01
<VARIANCE> 25
 1.687824e+01 2.810189e+01 2.502179e+01 4.881160e+01 3.165064e+01 3.236670e+01 3.942152e+01 4.076394e+01 4.724969e+01 3.780226e+01 3.385345e+01 3.898535e+01 1.256775e+00 2.035265e+00 1.519086e+00 3.778850e+00 2.701189e+00 3.001130e+00 2.748995e+00 3.972487e+00 3.466603e+00 3.327597e+00 2.769875e+00 3.015622e+00 1.670000e+00
<GCONST> 1.004544e+02
<STATE> 4
<MEAN> 25
 -5.248988e-01 1.214218e+00 -1.213573e+00 1.885921e+00 2.745327e+00 3.116927e+00 2.371539e+00 6.810466e-01 2.587957e+00 4.460048e-01 -2.280832e-01 9.763429e-01 -4.073311e-01 -3.496449e-01 1.094454e-01 3.428373e-01 9.630242e-02 -1.942139e-01 8.997945e-02 5.054365e-02 2.969503e-01 -1.236661e-02 2.029660e-02 1.879874e-01 -1.810648e-01
<VARIANCE> 25
 3.540254e+01 2.728749e+01 1.802863e+01 2.779087e+01 2.189620e+01 2.770506e+01 2.736050e+01 3.361867e+01 3.669981e+01 2.327690e+01 2.699531e+01 3.336131e+01 7.794257e-01 8.852845e-01 9.882854e-01 2.007814e+00 1.504760e+00 1.884868e+00 1.612801e+00 1.952650e+00 2.114790e+00 2.253615e+00 2.009630e+00 1.755371e+00 4.046129e-01
<GCONST> 9.024337e+01
<TRANSP> 5
 0.000000e+00 1.000000e+00 0.000000e+00 0.000000e+00 0.000000e+00
 0.000000e+00 8.557013e-01 1.442987e-01 0.000000e+00 0.000000e+00
 0.000000e+00 0.000000e+00 6.873940e-01 3.126061e-01 0.000000e+00
 0.000000e+00 0.000000e+00 0.000000e+00 8.499837e-01 1.500163e-01
 0.000000e+00 0.000000e+00 0.000000e+00 0.000000e+00 0.000000e+00
<ENDHMM>
~h "m"
<BEGINHMM>
<NUMSTATES> 5
<STATE> 2
<MEAN> 25
 1.390062e+00 1.731065e+00 3.252948e+00 2.115799e+00 4.668230e-01 7.119670e-01 -5.198628e-01 -5.004613e+00 -4.201024e+00 -2.354603e-02 1.229657e-01 -2.748952e+00 8.857480e-01 1.108563e+00 1.604928e+00 1.134334e+00 2.086491e-01 -6.329950e-01 -6.557384e-01 -2.119706e+00 -1.927397e+00 8.087764e-02 1.288609e-02 -7.019091e-01 4.313884e-01
<VARIANCE> 25
 6.158847e+01 2.585051e+01 2.955758e+01 6.239162e+01 1.830077e+01 2.355120e+01 2.142529e+01 3.777455e+01 4.005015e+01 2.357850e+01 3.264867e+01 3.895224e+01 3.385748e+00 2.577410e+00 3.282275e+00 5.208161e+00 2.224288e+00 3.463715e+00 2.786593e+00 4.129587e+00 3.924006e+00 3.384649e+00 3.946768e+00 3.867832e+00 3.580562e+00
<GCONST> 1.036778e+02
<STATE> 3
<MEAN> 25
 7.483088e+00 4.502727e+00 7.101887e+00 7.303763e+00 1.288050e+00 -2.555043e+00 -2.465449e+00 -1.271206e+01 -1.011956e+01 7.522686e-02 5.746945e-01 -6.784252e+00 1.924879e-01 1.104319e-01 2.510644e-01 2.403295e-01 2.025853e-02 -3.295427e-01 -6.216695e-02 -3.607174e-01 -1.712411e-01 1.387621e-01 1.143363e-01 -2.536473e-01 1.034094e-01
<VARIANCE> 25
 1.620461e+01 1.049152e+01 2.526490e+01 2.345600e+01 1.347906e+01 4.707273e+01 3.303461e+01 5.145249e+01 4.312545e+01 2.500517e+01 4.756452e+01 3.140178e+01 1.161123e+00 1.106687e+00 2.422592e+00 3.612723e+00 1.722265e+00 2.678277e+00 1.660025e+00 3.303915e+00 2.913674e+00 2.777159e+00 2.475702e+00 2.029510e+00 1.301245e+00
<GCONST> 9.526982e+01
<STATE> 4
<MEAN> 25
 1.899387e+00 2.250593e+00 1.044137e+01 1.729969e+00 -3.953517e+00 -3.273932e+00 -1.274773e+00 -5.782431e+00 -6.060652e+00 -3.883137e+00 2.695756e-01 -5.041523e+00 -2.615127e-01 -2.443521e-01 -2.074934e-01 -3.706850e-01 -1.821045e-01 7.100168e-02 2.999911e-01 8.137464e-01 4.457475e-01 -2.854407e-01 -2.690313e-01 2.710376e-01 7.193158e-02
<VARIANCE> 25
 8.005143e+01 5.146254e+01 6.227414e+01 5.961165e+01 5.388583e+01 4.949039e+01 5.867862e+01 1.001326e+02 4.830239e+01 2.836691e+01 4.438140e+01 3.393201e+01 3.849904e+00 2.503495e+00 2.893526e+00 3.593638e+00 4.897956e+00 3.443035e+00 3.011458e+00 5.804413e+00 3.686360e+00 2.822549e+00 2.241408e+00 2.874237e+00 2.054271e+00
<GCONST> 1.088156e+02
<TRANSP> 5
 0.000000e+00 1.000000e+00 0.000000e+00 0.000000e+00 0.000000e+00
 0.000000e+00 5.280784e-01 4.719216e-01 0.000000e+00 0.000000e+00
 0.000000e+00 0.000000e+00 8.131891e-01 1.868109e-01 0.000000e+00
 0.000000e+00 0.000000e+00 0.000000e+00 8.816823e-01 1.183178e-01
 0.000000e+00 0.000000e+00 0.000000e+00 0.000000e+00 0.000000e+00
<ENDHMM>
~h "n"
<BEGINHMM>
<NUMSTATES> 5
<STATE> 2
<MEAN> 25
 7.661617e+00 2.478073e+00 6.825949e+00 4.633913e+00 -2.558170e+00 -4.810101e+00 -2.875080e+00 -8.733933e+00 -1.057694e+01 -7.947620e-01 -4.946680e+00 -5.463872e+00 -1.925966e-01 2.249236e-01 6.662079e-02 3.026938e-01 1.688175e-01 -1.649764e-02 -9.723299e-02 -3.095913e-01 1.724759e-01 -9.571593e-02 -1.556869e-01 2.046594e-01 -4.716917e-01
<VARIANCE> 25
 1.108215e+01 1.664985e+01 2.155973e+01 2.731892e+01 2.206870e+01 2.412812e+01 2.071767e+01 5.570927e+01 3.711942e+01 2.578481e+01 1.976058e+01 1.585172e+01 3.849114e-01 8.155710e-01 1.011531e+00 1.945687e+00 1.452183e+00 1.520168e+00 1.148799e+00 3.991858e+00 2.079021e+00 2.021286e+00 1.234443e+00 1.040031e+00 5.933725e-01
<GCONST> 8.647954e+01
<STATE> 3
<MEAN> 25
 1.375246e+00 2.898777e+00 2.716485e+00 3.552026e+00 1.926037e+00 -2.000933e+00 -1.786274e+00 -2.165119e+00 -2.418692e+00 -4.061935e+00 -4.666714e+00 -1.435809e+00 -1.261626e+00 -7.528856e-01 -9.696288e-01 -3.708973e-01 6.613247e-01 9.831480e-01 9.677798e-01 1.355528e+00 1.476028e+00 6.851211e-01 8.921379e-01 9.710063e-01 -6.989281e-01
<VARIANCE> 25
 2.584662e+01 1.976765e+01 2.544313e+01 2.309258e+01 2.290830e+01 4.338472e+01 2.805170e+01 4.657265e+01 3.754448e+01 3.103268e+01 2.942805e+01 2.370315e+01 1.881508e+00 1.637631e+00 1.616496e+00 1.974729e+00 1.830187e+00 3.657872e+00 3.083017e+00 4.112223e+00 3.399986e+00 3.604132e+00 3.055103e+00 2.455993e+00 1.574257e+00
<GCONST> 9.794607e+01
<STATE> 4
<MEAN> 25
 -4.034981e+00 -2.114211e+00 -2.270701e+00 1.381293e+00 3.295142e+00 2.756475e+00 3.556936e+00 2.655987e+00 4.707201e+00 2.797567e+00 2.270825e+00 3.797100e+00 -4.485496e-02 -5.119131e-02 -6.168821e-02 -4.728166e-02 -7.464538e-04 3.053001e-02 4.069338e-02 2.106814e-02 5.248037e-02 8.717117e-02 9.619626e-02 4.801906e-02 -3.599360e-02
<VARIANCE> 25
 8.092864e+00 6.984043e+00 1.207933e+01 1.245241e+01 1.058116e+01 1.250476e+01 1.561864e+01 1.753469e+01 1.978962e+01 1.505825e+01 1.772376e+01 1.452538e+01 3.758404e-01 4.768151e-01 6.976714e-01 8.800507e-01 9.980851e-01 1.135327e+00 1.382296e+00 1.600512e+00 1.767956e+00 1.619619e+00 1.535789e+00 1.239982e+00 2.288702e-01
<GCONST> 7.567430e+01
<TRANSP> 5
 0.000000e+00 1.000000e+00 0.000000e+00 0.000000e+00 0.000000e+00
 0.000000e+00 8.984013e-01 1.015987e-01 0.000000e+00 0.000000e+00
 0.000000e+00 0.000000e+00 7.403214e-01 2.596785e-01 0.000000e+00
 0.000000e+00 0.000000e+00 0.000000e+00 9.412423e-01 5.875776e-02
 0.000000e+00 0.000000e+00 0.000000e+00 0.000000e+00 0.000000e+00
<ENDHMM>
~h "p"
<BEGINHMM>
<NUMSTATES> 5
<STATE> 2
<MEAN> 25
 -1.565136e+00 9.215586e-01 -8.802032e-01 3.225345e-01 4.291000e+00 2.252360e+00 1.953699e+00 3.869390e-01 4.158050e+00 1.528009e+00 1.106088e+00 7.008625e-01 -8.390323e-01 -1.350495e-01 2.484643e-01 -1.528576e-01 2.347027e-01 -2.567703e-01 2.176522e-01 -8.154850e-03 4.905086e-01 5.062165e-01 4.247547e-01 4.604175e-01 1.121415e+00
<VARIANCE> 25
 2.248132e+01 1.709105e+01 3.645782e+01 2.479127e+01 3.026368e+01 2.741322e+01 3.396880e+01 2.300125e+01 2.643324e+01 2.312409e+01 2.239139e+01 2.025149e+01 3.930558e+00 2.362688e+00 4.691031e+00 3.880206e+00 3.364831e+00 3.552823e+00 4.643776e+00 3.636962e+00 3.848108e+00 2.776400e+00 3.195233e+00 2.951681e+00 6.907300e+00
<GCONST> 1.016025e+02
<STATE> 3
<MEAN> 25
 -1.324706e+00 4.103059e-01 -8.551970e-01 -1.214011e+00 2.562979e+00 1.339286e+00 8.321733e-01 -2.200004e+00 1.643293e+00 2.301691e+00 2.931312e-01 -1.597952e-01 9.266245e-01 -4.752462e-01 -2.524688e-01 -6.851607e-02 -6.368011e-01 2.383442e-01 -1.304125e+00 1.328856e-01 -3.502038e-01 -2.325616e-01 -8.884705e-01 -2.714364e-01 7.215436e-01
<VARIANCE> 25
 9.733759e+01 3.049721e+01 1.280832e+02 4.722906e+01 4.402735e+01 3.939692e+01 9.570752e+01 4.093546e+01 3.251661e+01 4.052975e+01 3.527814e+01 2.759967e+01 8.996559e+00 4.226906e+00 4.756433e+00 4.449937e+00 3.938543e+00 4.504436e+00 5.808064e+00 5.045848e+00 4.823071e+00 3.917381e+00 4.290191e+00 3.781805e+00 3.272483e+00
<GCONST> 1.123024e+02
<STATE> 4
<MEAN> 25
 2.394728e+00 -2.022928e+00 -1.975333e+00 -3.151146e-01 1.003763e-01 -2.301902e+00 -4.567955e+00 -6.066374e-01 8.006744e-01 -1.000786e+00 -2.495853e+00 1.413341e+00 -4.127691e-02 -4.734005e-02 2.223216e-01 8.065431e-02 -3.766616e-01 -2.234926e-01 1.728224e-01 1.991668e-01 -1.796018e-01 -2.550971e-01 7.955595e-02 1.700525e-01 3.690252e-02
<VARIANCE> 25
 3.674945e+01 1.690035e+01 2.877783e+01 2.882378e+01 1.980253e+01 5.704142e+01 4.967386e+01 3.820393e+01 2.501053e+01 3.328506e+01 3.503283e+01 2.121743e+01 1.911758e+00 1.438552e+00 3.333824e+00 1.884852e+00 2.941894e+00 1.923182e+00 4.587495e+00 2.886290e+00 3.043617e+00 2.564187e+00 2.211372e+00 2.249541e+00 9.524686e-01
<GCONST> 9.778901e+01
<TRANSP> 5
 0.000000e+00 1.000000e+00 0.000000e+00 0.000000e+00 0.000000e+00
 0.000000e+00 7.773613e-01 2.226388e-01 0.000000e+00 0.000000e+00
 0.000000e+00 0.000000e+00 6.460677e-01 3.539323e-01 0.000000e+00
 0.000000e+00 0.000000e+00 0.000000e+00 7.722157e-01 2.277843e-01
 0.000000e+00 0.000000e+00 0.000000e+00 0.000000e+00 0.000000e+00
<ENDHMM>
~h "r"
<BEGINHMM>
<NUMSTATES> 5
<STATE> 2
<MEAN> 25
 8.316155e+00 -1.117226e+00 -3.925426e+00 4.698150e+00 -3.157361e-01 -6.003348e+00 -9.206773e+00 5.848401e-01 -2.124029e-01 -5.522157e+00 1.392033e+00 2.348309e+00 9.611461e-01 -3.351797e-01 -4.578113e-01 8.712991e-01 1.929693e-01 -1.137420e+00 -1.914752e+00 4.097678e-01 6.813072e-01 -6.225131e-01 -5.932153e-01 -1.918520e-01 3.387460e-01
<VARIANCE> 25
 7.299483e+01 1.997253e+01 7.499413e+01 4.191514e+01 3.796352e+01 8.974545e+01 8.667518e+01 5.479846e+01 5.056742e+01 5.514893e+01 3.941266e+01 2.875457e+01 4.085595e+00 2.015063e+00 4.690288e+00 2.538631e+00 5.392663e+00 3.748051e+00 4.857230e+00 4.362693e+00 6.822333e+00 5.003298e+00 2.753796e+00 2.707280e+00 3.182556e+00
<GCONST> 1.101924e+02
<STATE> 3
<MEAN> 25
 8.786644e+00 -2.208495e+00 -2.946297e+00 5.678660e+00 -1.823799e+00 -8.364459e+00 -1.061862e+01 1.834565e+00 6.644146e-01 -6.613774e+00 -7.340307e-01 1.049072e+00 -3.890440e-01 -2.639764e-01 1.068513e+00 -2.832883e-01 -8.457067e-01 3.583125e-01 1.020432e+00 2.384168e-01 -6.826541e-01 3.054024e-01 2.133787e-01 -1.397210e-01 -8.226831e-02
<VARIANCE> 25
 5.766341e+01 2.602071e+01 8.043387e+01 3.533421e+01 5.643418e+01 5.396098e+01 6.510539e+01 4.134013e+01 5.432661e+01 5.442291e+01 3.002978e+01 3.299212e+01 3.081362e+00 1.886438e+00 5.272952e+00 2.792140e+00 5.527195e+00 4.338349e+00 5.690012e+00 5.033982e+00 5.521890e+00 4.220960e+00 3.086629e+00 2.755942e+00 2.282786e+00
<GCONST> 1.091187e+02
<STATE> 4
<MEAN> 25
 4.219570e-01 -2.665107e+00 -2.691651e+00 1.678641e+00 1.390981e+00 8.594874e-02 -6.440311e-01 2.366345e+00 3.768461e+00 1.118489e+00 -2.684678e-01 1.766574e+00 -1.659532e-01 -5.028745e-02 2.459335e-01 -1.155641e-01 -1.983402e-01 3.377954e-01 4.052418e-01 -1.343870e-01 -8.834034e-02 1.081833e-01 -8.866799e-03 -1.444026e-01 -6.341127e-02
<VARIANCE> 25
 4.630126e+01 8.086534e+00 2.961442e+01 1.572447e+01 2.719596e+01 3.135274e+01 5.335340e+01 1.974425e+01 3.166648e+01 3.083559e+01 2.239537e+01 1.623006e+01 4.896251e-01 5.780426e-01 1.216880e+00 1.180569e+00 1.202798e+00 1.425848e+00 2.138429e+00 2.043436e+00 1.893849e+00 1.573969e+00 1.403419e+00 1.795373e+00 3.157485e-01
<GCONST> 8.648131e+01
<TRANSP> 5
 0.000000e+00 1.000000e+00 0.000000e+00 0.000000e+00 0.000000e+00
 0.000000e+00 7.557183e-01 2.442816e-01 0.000000e+00 0.000000e+00
 0.000000e+00 0.000000e+00 7.512427e-01 2.487573e-01 0.000000e+00
 0.000000e+00 0.000000e+00 0.000000e+00 8.278046e-01 1.721954e-01
 0.000000e+00 0.000000e+00 0.000000e+00 0.000000e+00 0.000000e+00
<ENDHMM>
~h "s"
<BEGINHMM>
<NUMSTATES> 5
<STATE> 2
<MEAN> 25
 -1.533494e+01 6.813562e+00 -3.423034e+00 -2.960512e+00 8.306493e+00 -8.748351e+00 5.672634e+00 6.900977e-01 8.060886e-01 -1.239067e+00 -1.714506e+00 4.032342e+00 -2.043651e+00 9.127645e-01 -6.924127e-01 -5.312339e-01 8.696419e-01 -3.245146e-01 6.460755e-01 2.818183e-01 2.649796e-01 -2.314298e-01 2.428684e-01 3.260185e-01 1.019404e+00
<VARIANCE> 25
 6.562258e+01 2.312217e+01 3.215779e+01 2.076259e+01 2.644572e+01 2.977745e+01 2.710098e+01 3.538702e+01 2.168381e+01 1.754760e+01 1.862225e+01 1.881400e+01 5.124645e+00 2.150327e+00 2.114642e+00 1.964576e+00 2.289986e+00 3.574435e+00 2.893769e+00 2.307161e+00 2.335688e+00 1.744600e+00 1.928254e+00 1.566205e+00 1.807517e+00
<GCONST> 9.603747e+01
<STATE> 3
<MEAN> 25
 -1.725631e+01 7.194845e+00 -6.607192e+00 -3.794451e+00 8.902109e+00 -7.595746e+00 6.384644e+00 1.205154e+00 2.324090e+00 -6.172131e-01 -1.001121e+00 4.035019e+00 1.033737e+00 -5.153946e-01 2.244971e-01 1.299948e-01 -5.535967e-01 1.216618e-01 -2.651052e-01 -2.798507e-01 1.015444e-02 2.823352e-01 1.131364e-02 -2.765465e-01 -5.364744e-01
<VARIANCE> 25
 3.206927e+01 1.325721e+01 3.140528e+01 2.034784e+01 2.096012e+01 1.978848e+01 2.076647e+01 3.192229e+01 1.965532e+01 2.283088e+01 1.822012e+01 1.814804e+01 3.052554e+00 9.223000e-01 1.527737e+00 1.361975e+00 1.338940e+00 1.853236e+00 1.782348e+00 1.867573e+00 1.624357e+00 2.103925e+00 1.416394e+00 1.786365e+00 2.613141e+00
<GCONST> 8.988821e+01
<STATE> 4
<MEAN> 25
 -5.789557e+00 1.034565e+00 -2.257239e+00 -1.476812e+00 2.388182e+00 -3.790845e+00 1.733846e+00 -7.239132e-01 2.395556e+00 3.427517e-01 -1.059345e+00 8.819098e-01 1.551771e+00 -6.738832e-01 7.089717e-01 3.335566e-01 -9.765646e-01 2.059266e-01 -6.452759e-01 -9.809515e-02 -3.516650e-01 8.706724e-02 -1.647952e-01 -5.733474e-01 -4.640577e-02
<VARIANCE> 25
 4.407858e+01 2.279869e+01 3.024660e+01 2.346999e+01 2.384456e+01 3.939289e+01 2.960412e+01 2.632283e+01 2.967744e+01 2.793746e+01 1.778865e+01 2.926365e+01 5.103706e+00 2.060757e+00 3.774612e+00 2.023545e+00 2.527125e+00 3.290274e+00 3.732436e+00 3.392743e+00 3.337724e+00 2.589846e+00 2.181747e+00 2.025148e+00 3.344246e+00
<GCONST> 9.979633e+01
<TRANSP> 5
 0.000000e+00 1.000000e+00 0.000000e+00 0.000000e+00 0.000000e+00
 0.000000e+00 8.629413e-01 1.370587e-01 0.000000e+00 0.000000e+00
 0.000000e+00 0.000000e+00 8.688388e-01 1.311612e-01 0.000000e+00
 0.000000e+00 0.000000e+00 0.000000e+00 7.523013e-01 2.476987e-01
 0.000000e+00 0.000000e+00 0.000000e+00 0.000000e+00 0.000000e+00
<ENDHMM>
~h "t"
<BEGINHMM>
<NUMSTATES> 5
<STATE> 2
<MEAN> 25
 -5.422698e+00 -6.149707e-01 3.988519e+00 -2.086966e+00 -9.091469e-01 -6.513827e-01 8.823369e-01 -1.580819e+00 -7.534164e-01 -5.702804e-01 -7.284447e-02 1.031798e+00 -1.297672e+00 -1.045451e-01 3.202859e-01 -4.576620e-01 -2.049718e-01 -5.143572e-01 4.865352e-01 2.240865e-01 -1.150126e-01 -1.430329e-02 2.086369e-01 3.492374e-01 1.546401e+00
<VARIANCE> 25
 5.377122e+01 3.170909e+01 6.018215e+01 4.379699e+01 3.710402e+01 3.367393e+01 3.943711e+01 3.676192e+01 5.956254e+01 3.645861e+01 2.546455e+01 2.987826e+01 5.942674e+00 2.949321e+00 5.701038e+00 5.984065e+00 4.734810e+00 4.186378e+00 4.776408e+00 3.818652e+00 6.419456e+00 4.027633e+00 3.343857e+00 3.405558e+00 1.215649e+01
<GCONST> 1.104592e+02
<STATE> 3
<MEAN> 25
 -6.868401e+00 1.588697e-02 5.128739e+00 -7.319003e-01 -4.329973e-01 -4.454448e+00 3.938929e+00 1.722801e+00 -1.333743e+00 3.305677e-01 1.167540e-02 2.633804e+00 1.605974e+00 3.330597e-01 3.421176e-01 1.179256e+00 2.840639e-01 2.220612e-01 -2.234436e-01 3.782644e-01 1.604326e-01 5.247508e-02 6.081292e-02 -1.082330e-01 -1.239520e+00
<VARIANCE> 25
 7.642315e+01 3.389645e+01 5.456398e+01 4.426843e+01 4.636460e+01 4.808075e+01 4.160791e+01 4.112493e+01 2.983280e+01 2.541249e+01 2.395586e+01 2.412515e+01 6.341375e+00 2.991703e+00 3.594320e+00 2.738005e+00 3.740914e+00 6.326291e+00 4.371125e+00 3.557108e+00 3.676669e+00 2.846787e+00 2.757732e+00 2.652750e+00 4.713418e+00
<GCONST> 1.067670e+02
<STATE> 4
<MEAN> 25
 -4.067251e+00 -6.226980e-01 -7.241132e-02 2.208370e+00 3.347460e+00 2.758615e+00 4.125514e+00 1.959278e+00 3.643395e+00 2.594943e+00 2.380842e+00 3.394578e+00 1.643395e-01 -1.642728e-02 -1.208642e-01 2.924971e-02 -7.460396e-02 4.510477e-02 -1.644621e-01 -6.716246e-02 -3.569325e-03 -1.131723e-01 7.691932e-02 -4.884652e-02 -9.310420e-02
<VARIANCE> 25
 1.571002e+01 9.802275e+00 2.070466e+01 1.329772e+01 2.152308e+01 2.329504e+01 2.436082e+01 1.760804e+01 2.255725e+01 1.690704e+01 1.626930e+01 1.590505e+01 1.066926e+00 6.242565e-01 1.444834e+00 9.670251e-01 1.540077e+00 1.642452e+00 2.047033e+00 1.703119e+00 1.822782e+00 1.379366e+00 1.473407e+00 1.687289e+00 4.884843e-01
<GCONST> 8.360137e+01
<TRANSP> 5
 0.000000e+00 1.000000e+00 0.000000e+00 0.000000e+00 0.000000e+00
 0.000000e+00 7.948185e-01 2.051816e-01 0.000000e+00 0.000000e+00
 0.000000e+00 0.000000e+00 7.394176e-01 2.605824e-01 0.000000e+00
 0.000000e+00 0.000000e+00 0.000000e+00 8.862512e-01 1.137488e-01
 0.000000e+00 0.000000e+00 0.000000e+00 0.000000e+00 0.000000e+00
<ENDHMM>
~h "v"
<BEGINHMM>
<NUMSTATES> 5
<STATE> 2
<MEAN> 25
 -1.568401e+00 3.638122e-01 -5.292361e-01 4.760479e+00 6.623263e-01 -2.388381e+00 -4.163320e-01 9.352335e-01 2.563042e+00 2.394635e-01 -2.592697e-01 7.161399e-01 -7.090332e-01 -2.167488e-01 -6.797127e-01 -2.982030e-01 5.331304e-01 4.013212e-01 5.090376e-01 3.776187e-01 1.084224e+00 7.832400e-01 3.754838e-01 6.127929e-01 -7.199274e-01
<VARIANCE> 25
 5.337522e+01 1.552653e+01 2.413513e+01 3.086671e+01 2.871579e+01 3.330295e+01 2.994886e+01 1.625673e+01 2.372042e+01 2.382087e+01 2.226814e+01 3.131591e+01 4.314714e+00 1.549006e+00 2.748898e+00 2.017356e+00 4.047710e+00 4.555534e+00 3.982571e+00 1.407522e+00 3.395815e+00 2.769218e+00 2.726307e+00 2.475141e+00 2.230213e+00
<GCONST> 9.841877e+01
<STATE> 3
<MEAN> 25
 -1.056353e+00 2.901075e-01 -1.513447e+00 4.093334e+00 2.341975e+00 1.662764e-01 6.518044e-01 6.889548e-01 3.044696e+00 7.546519e-01 6.743225e-01 1.178936e+00 -9.257474e-01 -3.817048e-01 -4.117867e-01 -1.468950e-01 3.538808e-01 3.764515e-01 5.857421e-01 4.471258e-01 4.066459e-01 3.456689e-01 1.018909e-01 2.221210e-01 -3.045922e-01
<VARIANCE> 25
 4.872141e+01 1.581793e+01 2.751351e+01 2.294866e+01 2.593636e+01 1.949654e+01 2.401697e+01 2.173716e+01 2.513971e+01 2.282082e+01 1.769462e+01 3.649710e+01 2.029156e+00 9.854828e-01 1.094615e+00 1.779559e+00 2.896456e+00 2.676180e+00 1.628380e+00 1.474643e+00 2.083354e+00 2.435184e+00 2.145800e+00 1.291324e+00 1.318177e+00
<GCONST> 9.155148e+01
<STATE> 4
<MEAN> 25
 -3.705317e+00 -3.107816e+00 -2.149536e+00 1.699390e+00 2.803034e+00 8.857202e-01 2.981381e+00 2.243306e+00 4.487784e+00 2.581768e+00 1.034706e+00 3.391171e+00 3.799383e-02 8.528535e-03 3.699119e-02 -2.089105e-02 2.938302e-02 -2.356742e-03 2.597875e-02 -5.532281e-02 -7.247484e-02 4.854027e-03 -1.496418e-02 7.754549e-04 -2.011362e-02
<VARIANCE> 25
 8.512187e+00 6.624662e+00 8.086916e+00 1.279039e+01 1.050920e+01 1.140878e+01 1.549319e+01 1.181679e+01 1.722364e+01 1.328389e+01 1.711658e+01 1.713442e+01 4.578491e-01 4.108822e-01 5.704474e-01 6.700228e-01 8.560581e-01 1.115407e+00 1.199497e+00 1.313602e+00 1.637272e+00 1.439538e+00 1.498193e+00 1.402756e+00 3.222097e-01
<GCONST> 7.397224e+01
<TRANSP> 5
 0.000000e+00 1.000000e+00 0.000000e+00 0.000000e+00 0.000000e+00
 0.000000e+00 6.426768e-01 3.573232e-01 0.000000e+00 0.000000e+00
 0.000000e+00 0.000000e+00 4.391493e-01 5.608507e-01 0.000000e+00
 0.000000e+00 0.000000e+00 0.000000e+00 9.407237e-01 5.927630e-02
 0.000000e+00 0.000000e+00 0.000000e+00 0.000000e+00 0.000000e+00
<ENDHMM>
~h "w"
<BEGINHMM>
<NUMSTATES> 5
<STATE> 2
<MEAN> 25
 8.440236e+00 4.615840e+00 -8.920196e-01 -2.031857e+00 7.491664e-03 2.192131e+00 -2.775330e+00 -1.689476e+00 -3.565970e+00 -1.788225e+00 1.117423e+00 -2.933912e+00 3.530694e-01 -3.777080e-01 1.518579e-01 9.549177e-02 -3.384754e-01 -2.174018e-01 -2.633719e-01 4.842494e-01 6.306016e-02 6.687107e-02 -6.401278e-02 -6.732103e-01 8.444227e-01
<VARIANCE> 25
 1.955723e+01 2.955233e+01 2.752642e+01 3.788629e+01 2.426355e+01 5.572631e+01 4.021071e+01 3.847734e+01 6.628252e+01 4.361110e+01 4.214973e+01 4.240778e+01 2.272793e+00 3.419898e+00 3.341866e+00 3.563073e+00 3.589671e+00 8.525971e+00 5.031773e+00 6.786671e+00 6.417608e+00 5.361585e+00 6.076379e+00 4.314080e+00 1.839584e+00
<GCONST> 1.081614e+02
<STATE> 3
<MEAN> 25
 9.077137e+00 -2.077606e+00 -9.525993e-02 4.802806e+00 -4.909479e+00 -5.620896e+00 -6.237940e+00 7.350518e+00 -2.204332e+00 -3.515074e+00 1.886118e+00 -1.276506e+00 -4.177583e-02 -9.753171e-02 3.961979e-01 4.738563e-02 -9.528540e-01 -9.440780e-01 1.122852e-01 3.133503e-01 -5.858616e-01 1.245611e-02 6.764438e-02 6.935077e-01 -1.281316e-01
<VARIANCE> 25
 1.388253e+01 1.947602e+01 3.427501e+01 2.226898e+01 4.401932e+01 2.954594e+01 6.387257e+01 1.337451e+02 4.537398e+01 2.874581e+01 3.347960e+01 4.051766e+01 7.027381e-01 1.161585e+00 2.045236e+00 1.446492e+00 2.217312e+00 3.148260e+00 2.980012e+00 3.855471e+00 3.716919e+00 3.022386e+00 3.368620e+00 2.444900e+00 5.161519e-01
<GCONST> 9.792619e+01
<STATE> 4
<MEAN> 25
 9.249433e+00 4.007635e-01 2.686989e+00 1.867401e+00 -5.908907e+00 -3.788253e+00 -2.547269e+00 -2.090793e+00 -8.994703e+00 7.831181e-02 -5.626457e-01 -6.604663e+00 -1.193017e-01 8.290774e-04 1.092988e-01 -3.077246e-01 -1.603211e-01 1.315067e-01 1.888002e-01 8.573635e-02 -1.263369e-01 -9.277821e-02 2.919346e-02 1.990856e-01 -9.100848e-02
<VARIANCE> 25
 1.414041e+01 3.505415e+01 3.013561e+01 2.768459e+01 4.214472e+01 3.364366e+01 3.158129e+01 7.497419e+01 8.079671e+01 5.039144e+01 2.466808e+01 4.648086e+01 1.973552e-01 9.569781e-01 1.216526e+00 1.081226e+00 1.445226e+00 1.224763e+00 2.035392e+00 2.056898e+00 1.867851e+00 2.128655e+00 1.837290e+00 1.178226e+00 3.562161e-01
<GCONST> 9.099303e+01
<TRANSP> 5
 0.000000e+00 1.000000e+00 0.000000e+00 0.000000e+00 0.000000e+00
 0.000000e+00 8.648342e-01 1.351658e-01 0.000000e+00 0.000000e+00
 0.000000e+00 0.000000e+00 7.504479e-01 2.495520e-01 0.000000e+00
 0.000000e+00 0.000000e+00 0.000000e+00 7.808499e-01 2.191501e-01
 0.000000e+00 0.000000e+00 0.000000e+00 0.000000e+00 0.000000e+00
<ENDHMM>
~h "y"
<BEGINHMM>
<NUMSTATES> 5
<STATE> 2
<MEAN> 25
 5.640907e-01 5.065850e+00 1.216182e+01 3.135194e+00 -4.112705e+00 -3.053767e+00 -3.039667e+00 -4.055143e+00 -7.312209e+00 -5.852931e-01 6.397846e-01 -1.525858e+00 1.066003e+00 5.682006e-01 1.181852e+00 8.976740e-01 -1.868406e+00 -1.031803e+00 -9.113811e-01 7.415819e-01 -2.113173e+00 -1.191105e+00 8.313693e-01 -8.876159e-01 7.138995e-01
<VARIANCE> 25
 2.468237e+01 2.289857e+01 7.087228e+01 2.708914e+01 7.005731e+01 3.830452e+01 5.442208e+01 5.629733e+01 7.819255e+01 2.511852e+01 3.886808e+01 2.961343e+01 4.044772e+00 3.515242e+00 5.836604e+00 4.349266e+00 4.589581e+00 2.793589e+00 6.285262e+00 4.876115e+00 7.718500e+00 3.027217e+00 4.365032e+00 3.611314e+00 1.427595e+00
<GCONST> 1.085249e+02
<STATE> 3
<MEAN> 25
 6.668794e+00 2.331553e+00 4.401227e+00 3.270190e+00 -5.481909e+00 -3.072257e+00 -7.939833e+00 1.853562e-01 -8.549304e+00 -5.218808e+00 1.228018e+00 -6.129483e+00 2.788630e-01 -1.736459e-01 -6.984305e-01 1.986255e-02 5.991621e-01 2.474962e-01 1.716344e-01 -2.588809e-01 7.375622e-01 1.620278e-01 -6.014217e-01 -1.779130e-01 -2.440383e-01
<VARIANCE> 25
 1.881310e+01 5.266803e+01 9.128305e+01 3.365144e+01 7.090066e+01 6.874764e+01 5.207453e+01 6.750043e+01 8.109021e+01 2.846312e+01 4.130769e+01 3.946130e+01 9.469298e-01 1.794070e+00 4.616787e+00 2.572773e+00 4.927618e+00 4.977423e+00 5.531321e+00 5.049723e+00 5.058732e+00 3.618290e+00 3.684984e+00 3.015974e+00 1.278909e+00
<GCONST> 1.077681e+02
<STATE> 4
<MEAN> 25
 6.906168e+00 3.343774e+00 5.027312e+00 4.726047e+00 -6.608483e-01 -3.564310e-01 -2.547295e+00 -6.371582e+00 -5.882101e+00 -3.746461e-01 -1.686303e+00 -6.012036e+00 -1.076010e-01 5.139838e-02 -7.297291e-02 1.198261e-02 2.376104e-01 7.095409e-03 8.780855e-02 6.252149e-02 2.245845e-01 -2.622238e-02 -1.537498e-01 2.500941e-01 -2.024024e-01
<VARIANCE> 25
 1.594171e+01 2.300712e+01 7.470345e+01 2.464162e+01 4.297272e+01 3.785194e+01 2.982256e+01 4.932714e+01 4.155621e+01 2.199768e+01 2.821317e+01 2.059734e+01 5.754473e-01 6.354964e-01 2.285549e+00 1.520921e+00 2.368668e+00 2.129291e+00 2.049514e+00 3.082747e+00 2.724386e+00 1.620945e+00 1.880246e+00 1.061261e+00 7.475568e-01
<GCONST> 9.282724e+01
<TRANSP> 5
 0.000000e+00 1.000000e+00 0.000000e+00 0.000000e+00 0.000000e+00
 0.000000e+00 7.960558e-01 2.039442e-01 0.000000e+00 0.000000e+00
 0.000000e+00 0.000000e+00 8.126420e-01 1.873580e-01 0.000000e+00
 0.000000e+00 0.000000e+00 0.000000e+00 8.845893e-01 1.154108e-01
 0.000000e+00 0.000000e+00 0.000000e+00 0.000000e+00 0.000000e+00
<ENDHMM>
~h "z"
<BEGINHMM>
<NUMSTATES> 5
<STATE> 2
<MEAN> 25
 -1.129850e+01 1.090891e+01 3.055660e+00 -3.161917e+00 9.309431e+00 -7.144984e+00 6.942375e-01 -1.113107e+00 -2.114144e+00 -2.047863e+00 -2.798614e+00 2.429735e+00 -2.378470e+00 5.105147e-01 -5.139970e-01 -5.609315e-01 1.351986e+00 -4.686365e-01 3.665206e-01 7.867827e-01 6.477129e-01 1.277036e-01 -1.765245e-01 1.295607e-01 4.862350e-01
<VARIANCE> 25
 1.041141e+02 2.766395e+01 5.978310e+01 3.711544e+01 5.084405e+01 5.149353e+01 3.069590e+01 2.471244e+01 3.928302e+01 1.667472e+01 1.990280e+01 1.919246e+01 4.937803e+00 2.373366e+00 2.642092e+00 2.425189e+00 4.730015e+00 3.906847e+00 2.556725e+00 2.590750e+00 2.903877e+00 2.774963e+00 1.526532e+00 1.668209e+00 4.959402e-01
<GCONST> 9.999520e+01
<STATE> 3
<MEAN> 25
 -1.631715e+01 7.331721e+00 -2.502812e+00 -5.468904e+00 1.006275e+01 -9.798526e+00 3.833171e+00 2.508175e+00 5.172566e-01 7.192967e-01 -3.240060e+00 3.731624e+00 1.286877e+00 -7.793787e-01 1.051788e-01 3.091510e-01 -7.211183e-01 2.669457e-02 6.072275e-05 -2.143759e-01 -3.191500e-01 2.366536e-01 3.799861e-02 -2.078571e-01 -7.356954e-01
<VARIANCE> 25
 5.606086e+01 3.221996e+01 2.769180e+01 3.500517e+01 1.442382e+01 3.152259e+01 3.576580e+01 2.590171e+01 2.294952e+01 2.250420e+01 1.867546e+01 1.829182e+01 3.087106e+00 1.170497e+00 1.776804e+00 1.323678e+00 1.849292e+00 2.546660e+00 2.208132e+00 2.119359e+00 2.079705e+00 1.577271e+00 1.928112e+00 1.446658e+00 1.693583e+00
<GCONST> 9.332743e+01
<STATE> 4
<MEAN> 25
 -3.886595e+00 -2.235421e+00 -2.270701e+00 3.797973e-01 3.253330e+00 1.479527e-02 2.961298e+00 1.534985e+00 2.940212e+00 2.138945e+00 4.530170e-01 2.116739e+00 1.703543e-01 -9.913480e-02 8.640626e-02 1.274262e-01 -2.715347e-01 2.513566e-01 -4.077278e-02 -2.339812e-02 9.498969e-02 -1.459413e-03 8.935036e-02 -4.373717e-02 -5.504693e-02
<VARIANCE> 25
 9.172091e+00 1.454616e+01 1.424625e+01 1.627430e+01 1.132003e+01 2.542545e+01 2.206697e+01 1.847135e+01 2.050578e+01 1.763801e+01 1.445814e+01 1.799899e+01 1.361010e+00 9.820835e-01 1.007739e+00 1.140854e+00 1.673843e+00 2.303067e+00 2.380792e+00 2.137273e+00 1.777263e+00 1.649208e+00 1.215755e+00 1.570349e+00 5.643828e-01
<GCONST> 8.396743e+01
<TRANSP> 5
 0.000000e+00 1.000000e+00 0.000000e+00 0.000000e+00 0.000000e+00
 0.000000e+00 8.605911e-01 1.394090e-01 0.000000e+00 0.000000e+00
 0.000000e+00 0.000000e+00 8.857574e-01 1.142426e-01 0.000000e+00
 0.000000e+00 0.000000e+00 0.000000e+00 9.403716e-01 5.962842e-02
 0.000000e+00 0.000000e+00 0.000000e+00 0.000000e+00 0.000000e+00
<ENDHMM>
~h "aa"
<BEGINHMM>
<NUMSTATES> 5
<STATE> 2
<MEAN> 25
 7.011905e+00 -4.764582e+00 -3.836447e+00 -6.595170e+00 -7.899809e-01 9.551188e+00 -3.343551e-01 -6.399165e-02 1.287276e+00 -5.363420e-02 -1.682256e-01 -9.720513e+00 6.059394e-01 -5.576228e-01 -7.406052e-01 -7.686349e-01 -1.816810e-01 1.474209e+00 -5.381897e-02 -2.558048e-01 -8.630224e-02 -2.066045e-01 3.585363e-01 -8.720305e-01 6.864245e-01
<VARIANCE> 25
 2.435170e+01 3.275547e+01 2.249096e+01 5.450137e+01 1.999669e+01 8.054934e+01 4.310218e+01 3.777671e+01 3.237340e+01 4.450684e+01 2.544078e+01 5.972362e+01 2.346434e+00 1.655803e+00 1.270517e+00 3.199792e+00 2.130716e+00 4.580040e+00 2.302614e+00 2.326388e+00 2.411452e+00 2.819177e+00 2.417744e+00 3.436458e+00 1.721874e+00
<GCONST> 1.004123e+02
<STATE> 3
<MEAN> 25
 8.402927e+00 -3.869570e+00 -6.538131e+00 -9.379323e+00 5.578394e-01 1.643227e+01 3.455198e-01 -3.166706e+00 1.628716e+00 -6.212808e-01 2.302991e+00 -1.062723e+01 6.443804e-02 5.605609e-01 -1.358760e-01 2.492312e-01 -2.451639e-01 -1.879635e-01 -2.796497e-01 8.151720e-02 -4.020241e-01 4.879486e-01 -2.041579e-01 4.338129e-01 -5.409256e-01
<VARIANCE> 25
 1.191774e+01 1.781795e+01 1.258341e+01 2.765731e+01 1.730602e+01 5.624933e+01 4.535915e+01 4.147398e+01 5.368237e+01 4.810484e+01 3.408131e+01 3.561084e+01 3.388322e-01 1.242761e+00 7.899234e-01 1.095392e+00 1.109515e+00 2.044397e+00 2.013273e+00 3.383972e+00 1.770108e+00 1.968978e+00 1.756896e+00 1.981900e+00 9.327661e-01
<GCONST> 9.069058e+01
<STATE> 4
<MEAN> 25
 4.892253e+00 -3.341537e-01 -4.042446e+00 -4.299260e+00 -7.511885e-01 8.184267e+00 -1.142439e+00 -1.074394e+00 -1.653490e+00 2.880586e+00 -2.431359e+00 -4.980489e+00 -1.340617e+00 8.234061e-01 9.888469e-01 7.752107e-01 2.837015e-01 -1.718318e+00 2.903845e-01 7.587446e-02 1.258000e-01 -7.530228e-02 2.136561e-01 1.629500e+00 -1.415320e+00
<VARIANCE> 25
 5.057069e+01 2.443009e+01 2.421019e+01 2.896251e+01 2.369233e+01 7.545645e+01 5.198922e+01 5.407483e+01 2.957325e+01 5.023008e+01 4.589069e+01 2.812267e+01 3.140676e+00 2.245377e+00 2.698927e+00 1.498710e+00 2.661587e+00 5.949657e+00 3.360054e+00 6.417688e+00 3.321237e+00 3.047239e+00 4.361251e+00 2.158461e+00 2.118248e+00
<GCONST> 1.040067e+02
<TRANSP> 5
 0.000000e+00 1.000000e+00 0.000000e+00 0.000000e+00 0.000000e+00
 0.000000e+00 8.229429e-01 1.770571e-01 0.000000e+00 0.000000e+00
 0.000000e+00 0.000000e+00 7.743255e-01 2.256745e-01 0.000000e+00
 0.000000e+00 0.000000e+00 0.000000e+00 6.842005e-01 3.157996e-01
 0.000000e+00 0.000000e+00 0.000000e+00 0.000000e+00 0.000000e+00
<ENDHMM>
~h "ae"
<BEGINHMM>
<NUMSTATES> 5
<STATE> 2
<MEAN> 25
 -3.056282e+00 -9.963446e-01 2.046655e-01 -1.218038e-01 -9.198975e-01 -6.695858e-01 3.557174e+00 -9.292027e-02 1.918521e+00 -1.539050e+00 1.794646e+00 -2.661014e-01 6.705320e-01 -1.253313e+00 3.476464e-01 -5.193331e-01 -7.847057e-01 -4.530140e-01 2.298219e-01 7.432637e-01 -7.624034e-01 -1.056388e+00 -8.744721e-01 -1.206962e+00 2.350773e+00
<VARIANCE> 25
 8.350024e+01 3.107981e+01 4.656833e+01 2.129290e+01 3.076228e+01 4.134516e+01 2.784914e+01 4.072989e+01 3.968510e+01 2.854913e+01 3.100395e+01 4.152205e+01 4.943758e+00 2.877920e+00 3.002305e+00 1.496965e+00 3.869451e+00 2.953722e+00 2.559848e+00 3.519803e+00 6.254709e+00 3.573951e+00 4.351247e+00 5.868855e+00 5.564834e+00
<GCONST> 1.059387e+02
<STATE> 3
<MEAN> 25
 5.592683e+00 -9.177519e+00 -2.321814e+00 -1.845503e+00 -2.580163e+00 -8.154892e-01 4.201032e+00 5.093976e+00 -1.986337e+00 -7.657452e+00 -6.824604e+00 -8.783369e+00 6.417326e-01 -4.364130e-01 -3.133698e-01 -4.874025e-02 -1.100950e-02 7.673825e-02 -2.216081e-01 1.865369e-01 4.343387e-02 -5.015922e-01 -5.339357e-01 -4.982953e-01 7.880395e-01
<VARIANCE> 25
 1.145251e+01 3.368103e+01 3.250718e+01 1.549677e+01 3.018861e+01 2.937993e+01 2.429807e+01 3.268068e+01 2.964937e+01 2.338861e+01 3.418246e+01 3.687641e+01 9.363925e-01 1.574327e+00 1.191958e+00 1.329838e+00 2.155575e+00 1.756290e+00 1.247044e+00 2.030923e+00 1.738723e+00 1.758137e+00 2.003848e+00 2.879610e+00 3.276047e+00
<GCONST> 9.243616e+01
<STATE> 4
<MEAN> 25
 6.634060e+00 -6.968147e+00 -2.926252e+00 1.285367e+00 -2.587540e+00 -1.969487e+00 2.701754e+00 2.712664e+00 -1.136386e+00 -5.608925e+00 -4.980999e+00 -6.924115e+00 -2.897289e-01 1.113856e+00 3.661944e-01 5.782998e-01 3.134459e-01 -2.137954e-01 -1.366468e-01 -1.047170e+00 -1.248710e-01 1.043048e+00 3.244997e-01 6.700889e-01 -1.569310e+00
<VARIANCE> 25
 2.176089e+01 3.292490e+01 5.592583e+01 2.907547e+01 3.272077e+01 4.019391e+01 3.630524e+01 5.411504e+01 5.891346e+01 3.640047e+01 3.880508e+01 4.081906e+01 2.211959e+00 2.109940e+00 1.994665e+00 2.639647e+00 2.872694e+00 2.775135e+00 2.299275e+00 4.743083e+00 3.761822e+00 3.663416e+00 1.776145e+00 3.573451e+00 2.878678e+00
<GCONST> 1.029138e+02
<TRANSP> 5
 0.000000e+00 1.000000e+00 0.000000e+00 0.000000e+00 0.000000e+00
 0.000000e+00 7.304623e-01 2.695377e-01 0.000000e+00 0.000000e+00
 0.000000e+00 0.000000e+00 8.125548e-01 1.874452e-01 0.000000e+00
 0.000000e+00 0.000000e+00 0.000000e+00 7.963036e-01 2.036964e-01
 0.000000e+00 0.000000e+00 0.000000e+00 0.000000e+00 0.000000e+00
<ENDHMM>
~h "ah"
<BEGINHMM>
<NUMSTATES> 5
<STATE> 2
<MEAN> 25
 2.736104e+00 -2.285660e+00 -1.301968e+00 -1.645407e+00 -1.674665e+00 -2.295048e+00 -8.704920e-01 1.351141e+00 4.417807e-01 -7.379533e-01 -3.076655e+00 -4.426015e+00 1.007330e+00 6.814597e-03 -2.646681e-01 -3.640020e-01 -1.858976e-02 3.620645e-05 -3.579890e-01 -2.486096e-01 -3.846252e-01 1.191194e-01 -4.221461e-01 -7.389940e-01 5.773458e-01
<VARIANCE> 25
 6.305186e+01 4.775013e+01 5.900286e+01 4.031933e+01 3.140345e+01 5.666338e+01 4.423540e+01 4.948354e+01 4.230426e+01 2.453008e+01 3.661571e+01 5.862199e+01 4.965567e+00 3.357108e+00 2.815902e+00 3.268252e+00 3.122006e+00 4.330016e+00 3.384416e+00 4.087163e+00 4.110974e+00 2.860654e+00 3.193773e+00 3.835756e+00 4.995696e+00
<GCONST> 1.083660e+02
<STATE> 3
<MEAN> 25
 5.598173e+00 -5.650328e-01 -3.336292e-01 -8.968351e-01 -1.070461e+00 -1.232863e+00 -2.174931e+00 -1.348382e+00 -8.988658e-01 -6.536207e-02 -3.247568e+00 -4.794817e+00 3.432448e-01 8.403162e-01 -4.754330e-02 5.853619e-02 5.352748e-01 4.503624e-01 2.822529e-01 -7.369454e-01 -8.394986e-01 4.528921e-01 2.991119e-01 1.913672e-01 -5.910441e-01
<VARIANCE> 25
 3.773553e+01 3.856353e+01 5.353019e+01 4.844691e+01 2.474920e+01 5.509059e+01 4.082190e+01 4.956572e+01 4.650545e+01 3.071178e+01 3.391502e+01 4.830602e+01 3.459851e+00 2.397444e+00 2.919807e+00 3.973435e+00 2.900244e+00 3.620626e+00 2.721927e+00 5.001970e+00 4.979087e+00 3.117395e+00 2.649867e+00 3.505915e+00 3.623599e+00
<GCONST> 1.063745e+02
<STATE> 4
<MEAN> 25
 2.138365e+00 8.365601e-01 1.322541e-01 2.579164e+00 1.552428e+00 8.271635e-01 9.093593e-01 -5.782079e-01 -1.847027e-01 1.574272e+00 -3.451432e-01 -9.781834e-01 -1.138807e-01 3.181626e-01 -2.562363e-02 -5.774549e-02 2.887906e-01 1.569886e-01 8.776568e-02 -2.669150e-01 -4.214561e-01 9.465193e-02 2.880569e-01 2.537293e-01 -3.619466e-01
<VARIANCE> 25
 4.985540e+01 2.254467e+01 3.257020e+01 5.262360e+01 2.099775e+01 3.734134e+01 3.606731e+01 5.552881e+01 5.572270e+01 3.127736e+01 3.622398e+01 4.195667e+01 1.741312e+00 1.887562e+00 1.532310e+00 2.564812e+00 1.820247e+00 2.492281e+00 2.148936e+00 3.141006e+00 3.238600e+00 2.636203e+00 2.156058e+00 2.348782e+00 1.302832e+00
<GCONST> 9.948603e+01
<TRANSP> 5
 0.000000e+00 1.000000e+00 0.000000e+00 0.000000e+00 0.000000e+00
 0.000000e+00 6.129980e-01 3.870020e-01 0.000000e+00 0.000000e+00
 0.000000e+00 0.000000e+00 3.119697e-01 6.880303e-01 0.000000e+00
 0.000000e+00 0.000000e+00 0.000000e+00 5.982671e-01 4.017329e-01
 0.000000e+00 0.000000e+00 0.000000e+00 0.000000e+00 0.000000e+00
<ENDHMM>
~h "ao"
<BEGINHMM>
<NUMSTATES> 5
<STATE> 2
<MEAN> 25
 2.621335e+00 2.154209e+00 -5.188152e+00 -7.680888e+00 9.044160e-01 7.835393e+00 1.947471e+00 -1.898384e+00 1.145369e+00 -2.575885e+00 5.887405e-01 -8.441279e-01 3.752885e+00 1.039254e+00 -1.483391e-01 -3.917290e+00 -3.073945e+00 1.110079e+00 -2.419838e-01 1.561833e-02 -1.300752e+00 -1.287089e+00 -1.472468e-01 -9.530897e-01 1.060259e+00
<VARIANCE> 25
 5.759849e+01 3.563177e+01 2.773562e+01 8.898536e+01 7.097098e+01 4.396499e+01 2.006055e+01 1.916961e+01 3.594194e+01 1.659002e+01 1.418981e+01 2.324405e+01 4.550854e+00 1.981936e+00 1.309447e+00 4.764294e+00 5.119379e+00 7.075313e+00 2.123927e+00 1.406595e+00 2.484838e+00 1.692447e+00 1.373759e+00 2.044526e+00 3.400910e+00
<GCONST> 9.997924e+01
<STATE> 3
<MEAN> 25
 1.132154e+01 3.095751e+00 -6.616240e+00 -2.167371e+01 -7.462390e+00 1.333642e+01 6.311893e-01 -2.315364e+00 -1.250717e+00 -6.092445e+00 1.030492e+00 -4.471653e+00 3.780326e-01 2.903750e-01 8.757280e-02 -9.004160e-01 -1.125775e+00 -1.749628e-01 3.865284e-02 5.242943e-01 2.338592e-01 -1.618364e-01 -4.655985e-02 -6.067831e-02 1.870914e-01
<VARIANCE> 25
 1.019693e+01 4.238649e+01 1.890396e+01 3.574716e+01 4.055689e+01 4.746475e+01 1.991640e+01 1.308002e+01 2.080109e+01 2.299578e+01 1.477046e+01 1.550387e+01 6.892827e-01 7.682418e-01 6.159107e-01 2.163635e+00 1.768527e+00 1.720265e+00 7.582136e-01 1.428842e+00 1.199188e+00 1.272623e+00 1.276536e+00 1.109218e+00 7.507594e-01
<GCONST> 8.458899e+01
<STATE> 4
<MEAN> 25
 1.102724e+01 5.847183e+00 -6.022371e+00 -1.730137e+01 -9.624285e+00 4.113615e+00 1.336892e+00 2.722929e+00 -1.804873e+00 -4.347140e+00 1.995118e-01 -9.967723e-01 2.333614e-02 -1.583595e-02 -2.080874e-01 4.087035e-01 4.703781e-01 -2.604409e-01 -6.563756e-02 5.451495e-02 -2.328294e-01 8.829458e-02 1.391037e-01 3.839889e-01 -1.251668e-01
<VARIANCE> 25
 8.779579e+00 2.329502e+01 1.726747e+01 7.156122e+01 2.771670e+01 4.730123e+01 2.165938e+01 1.576008e+01 3.554917e+01 2.553607e+01 2.410013e+01 1.901294e+01 1.428869e-01 5.636513e-01 6.374691e-01 9.247561e-01 1.198714e+00 1.459728e+00 1.237475e+00 1.252327e+00 1.460760e+00 1.200452e+00 1.500564e+00 1.135384e+00 1.438100e-01
<GCONST> 8.144210e+01
<TRANSP> 5
 0.000000e+00 1.000000e+00 0.000000e+00 0.000000e+00 0.000000e+00
 0.000000e+00 7.029318e-01 2.970682e-01 0.000000e+00 0.000000e+00
 0.000000e+00 0.000000e+00 7.159066e-01 2.840934e-01 0.000000e+00
 0.000000e+00 0.000000e+00 0.000000e+00 9.349761e-01 6.502391e-02
 0.000000e+00 0.000000e+00 0.000000e+00 0.000000e+00 0.000000e+00
<ENDHMM>
~h "aw"
<BEGINHMM>
<NUMSTATES> 5
<STATE> 2
<MEAN> 25
 7.521608e+00 -3.294852e+00 -4.795497e+00 -2.326581e+00 -2.439841e-01 6.966422e+00 -3.543133e+00 2.814148e+00 2.829135e+00 -2.057593e+00 -3.011567e+00 -9.261305e+00 3.480110e-01 7.156028e-01 -4.738770e-01 8.251341e-02 1.245850e-01 4.698375e-01 -8.595679e-01 -9.635292e-01 -3.273391e-01 -1.231537e-01 9.524571e-01 1.937571e-01 -5.304920e-01
<VARIANCE> 25
 4.905571e+00 1.914846e+01 2.096996e+01 3.217881e+01 2.443449e+01 5.868969e+01 6.719276e+01 4.579681e+01 2.257600e+01 7.487141e+01 5.079721e+01 1.810805e+01 2.559430e-01 8.239732e-01 5.593541e-01 1.027074e+00 1.456833e+00 1.078702e+00 2.075574e+00 2.034991e+00 2.016820e+00 2.559093e+00 3.844919e+00 1.512639e+00 2.775052e-01
<GCONST> 8.846277e+01
<STATE> 3
<MEAN> 25
 9.711480e+00 4.986111e+00 -3.847682e+00 -9.208670e-01 -1.162390e+00 5.048192e+00 -5.486146e+00 -8.530829e+00 -7.054690e+00 -2.666194e+00 4.586623e+00 -5.758464e+00 -3.650502e-01 1.099573e-01 1.149917e+00 1.075578e+00 3.313218e-01 -1.718160e+00 2.981881e-01 -4.996815e-01 -4.796334e-01 3.988640e-04 -1.125681e+00 5.347133e-01 -1.132236e+00
<VARIANCE> 25
 4.719617e+00 1.866732e+01 2.018325e+01 2.021614e+01 1.477520e+01 5.411842e+01 7.863688e+01 3.526247e+01 4.103255e+01 6.045180e+01 5.205771e+01 1.932148e+01 5.779517e-01 6.897246e-01 1.095362e+00 2.653812e+00 1.813621e+00 2.179691e+00 3.434861e+00 2.767784e+00 3.910713e+00 3.975420e+00 4.245280e+00 1.813428e+00 4.211155e-01
<GCONST> 9.347224e+01
<STATE> 4
<MEAN> 25
 2.891922e+00 1.881421e+00 1.047511e+00 3.861642e+00 3.355453e+00 -6.961030e-01 -1.699201e+00 -2.405748e+00 -3.611861e-01 -9.942839e-01 -1.220289e+00 -4.788694e-01 -1.146515e+00 -1.051336e+00 4.901353e-01 1.275308e-01 2.593378e-01 -8.182367e-02 1.294975e+00 1.438776e+00 1.629899e+00 3.790606e-01 -5.246229e-02 1.111125e+00 -6.672276e-01
<VARIANCE> 25
 2.287442e+01 1.353346e+01 1.704446e+01 1.385061e+01 1.111439e+01 1.630307e+01 3.247783e+01 4.266203e+01 3.650867e+01 2.017259e+01 2.749041e+01 2.480047e+01 4.728325e-01 1.269116e+00 3.293594e+00 2.249522e+00 1.365468e+00 2.883787e+00 4.088985e+00 3.690061e+00 2.442762e+00 3.945261e+00 2.061625e+00 1.752487e+00 7.553301e-01
<GCONST> 9.155241e+01
<TRANSP> 5
 0.000000e+00 1.000000e+00 0.000000e+00 0.000000e+00 0.000000e+00
 0.000000e+00 9.113409e-01 8.865914e-02 0.000000e+00 0.000000e+00
 0.000000e+00 0.000000e+00 8.354765e-01 1.645236e-01 0.000000e+00
 0.000000e+00 0.000000e+00 0.000000e+00 6.915077e-01 3.084923e-01
 0.000000e+00 0.000000e+00 0.000000e+00 0.000000e+00 0.000000e+00
<ENDHMM>
~h "ay"
<BEGINHMM>
<NUMSTATES> 5
<STATE> 2
<MEAN> 25
 8.718731e+00 -4.838924e+00 2.270147e+00 -9.948993e-02 -8.205898e+00 -4.255743e+00 -4.707820e+00 4.289965e+00 -1.959450e+00 -3.040208e+00 -3.061928e+00 -4.731974e+00 3.397402e-01 -3.715622e-01 9.586165e-02 -2.199698e-01 -4.825925e-01 1.045561e-01 -1.158313e-01 6.406689e-01 5.329660e-02 -2.457895e-01 -3.905494e-01 -4.783024e-01 4.881803e-01
<VARIANCE> 25
 2.148881e+01 4.026737e+01 6.176075e+01 2.894969e+01 5.651016e+01 4.684089e+01 4.125547e+01 6.490199e+01 6.584995e+01 2.822685e+01 2.371733e+01 4.432079e+01 1.914694e+00 2.439108e+00 5.038370e+00 1.909902e+00 2.586115e+00 3.248025e+00 2.717818e+00 6.443169e+00 5.503760e+00 2.619677e+00 2.115192e+00 2.950635e+00 1.233465e+00
<GCONST> 1.039638e+02
<STATE> 3
<MEAN> 25
 8.257321e+00 -4.210440e+00 8.646849e-01 -1.684537e+00 -8.449059e+00 -4.409801e+00 -3.253723e+00 5.184373e+00 6.128417e-01 -1.299687e+00 -3.288131e+00 -6.310174e+00 -3.916957e-01 8.300397e-01 2.632932e-01 6.213943e-03 7.680030e-01 5.856622e-01 -6.909685e-02 -1.059949e+00 -4.082989e-01 3.046443e-01 2.223834e-01 -2.435117e-02 -1.024795e+00
<VARIANCE> 25
 2.051772e+01 2.883502e+01 5.974108e+01 2.766688e+01 4.192410e+01 6.116647e+01 4.474848e+01 3.775135e+01 5.327800e+01 1.662684e+01 4.290743e+01 6.656480e+01 1.654405e+00 1.974866e+00 2.783616e+00 2.183438e+00 3.904342e+00 3.784331e+00 2.619908e+00 2.534264e+00 2.571996e+00 1.285805e+00 2.730726e+00 3.453227e+00 2.124037e+00
<GCONST> 1.015332e+02
<STATE> 4
<MEAN> 25
 1.036070e+01 -4.058979e+00 -2.419444e+00 -4.255885e+00 -3.604953e+00 2.825020e+00 -4.848022e+00 9.373956e-01 -2.453009e+00 -4.848261e+00 -1.933458e+00 -9.718414e+00 -1.856222e-01 2.372841e-01 5.109301e-01 1.994679e-01 -3.485335e-02 -2.549958e-01 1.761940e-01 -2.376327e-01 -3.954264e-01 5.527134e-02 1.037727e-01 3.342408e-02 -3.211630e-01
<VARIANCE> 25
 1.460640e+01 3.494478e+01 8.302120e+01 3.372566e+01 6.351284e+01 5.973478e+01 3.080144e+01 5.244906e+01 8.414190e+01 3.144953e+01 2.807873e+01 4.632233e+01 4.753554e-01 9.389023e-01 1.525352e+00 1.773643e+00 2.184452e+00 2.180954e+00 1.636068e+00 2.245591e+00 1.803313e+00 1.419546e+00 1.538419e+00 1.827680e+00 3.382887e-01
<GCONST> 9.474042e+01
<TRANSP> 5
 0.000000e+00 1.000000e+00 0.000000e+00 0.000000e+00 0.000000e+00
 0.000000e+00 8.011500e-01 1.988500e-01 0.000000e+00 0.000000e+00
 0.000000e+00 0.000000e+00 7.232075e-01 2.767925e-01 0.000000e+00
 0.000000e+00 0.000000e+00 0.000000e+00 8.851249e-01 1.148751e-01
 0.000000e+00 0.000000e+00 0.000000e+00 0.000000e+00 0.000000e+00
<ENDHMM>
~h "ch"
<BEGINHMM>
<NUMSTATES> 5
<STATE> 2
<MEAN> 25
 -3.255745e+00 -1.772908e+00 -6.633465e-01 4.078343e+00 2.302803e+00 7.355793e-01 3.868756e+00 2.520811e+00 4.731769e+00 1.741917e+00 1.407062e-01 3.388451e+00 -2.372414e-01 1.305321e-03 7.613914e-02 -1.384942e-01 1.807521e-01 4.565879e-01 -8.063193e-02 -2.289042e-02 3.214716e-01 2.820410e-01 3.188912e-01 -3.771684e-02 -5.069941e-01
<VARIANCE> 25
 6.912019e+00 8.796560e+00 1.149324e+01 8.887261e+00 1.196889e+01 1.297763e+01 1.422884e+01 2.150626e+01 9.877690e+00 1.892578e+01 1.602181e+01 1.386448e+01 6.218231e-01 1.073373e+00 7.455522e-01 1.745106e+00 1.380359e+00 2.443666e+00 1.813618e+00 1.928349e+00 1.608958e+00 2.218999e+00 1.480229e+00 1.562470e+00 2.441766e+00
<GCONST> 8.141472e+01
<STATE> 3
<MEAN> 25
 -7.792295e+00 -2.944525e+00 1.926608e+00 -2.205115e+00 2.141573e+00 6.197258e+00 -1.205516e+00 5.598674e-01 4.427783e+00 -2.394141e+00 2.412913e+00 3.605298e+00 -3.229092e+00 6.222579e-01 1.583284e+00 -1.602202e+00 -7.058771e-01 1.279625e+00 -8.272498e-01 -1.739971e+00 9.183254e-01 -8.726958e-01 4.669242e-01 3.596533e-02 2.287196e+00
<VARIANCE> 25
 4.788978e+01 3.114391e+01 1.653104e+01 2.486436e+01 1.930063e+01 2.091216e+01 3.995297e+01 2.694654e+01 2.451187e+01 1.794337e+01 8.108452e+00 4.209604e+00 3.577960e+00 3.177247e+00 1.414858e+00 2.020774e+00 3.110312e+00 2.544475e+00 4.795970e+00 2.208554e+00 1.029565e+00 2.394585e+00 1.182652e+00 1.456480e+00 4.804747e+00
<GCONST> 9.279762e+01
<STATE> 4
<MEAN> 25
 -1.773112e+01 1.653457e+00 9.131823e+00 -3.002516e+00 -5.203628e+00 3.068064e+00 4.787110e+00 -7.329102e+00 5.038200e+00 -2.429977e+00 2.531601e+00 -1.476255e+00 8.568662e-01 1.518035e-01 4.126126e-01 1.024515e+00 -7.819200e-01 -1.696308e+00 3.675092e-01 -1.718570e-01 -7.314405e-01 -3.222758e-01 -3.743064e-01 -6.285654e-01 8.251894e-01
<VARIANCE> 25
 4.096921e+01 9.470686e+00 1.151684e+01 2.204150e+01 1.780904e+01 3.357219e+01 2.126222e+01 1.986133e+01 1.582946e+01 9.435403e+00 1.656969e+01 1.435724e+01 7.871105e+00 1.439412e+00 1.300881e+00 1.549139e+00 2.762875e+00 3.306027e+00 4.038676e+00 3.267431e+00 1.781188e+00 1.572740e+00 1.125842e+00 1.213934e+00 2.774801e+00
<GCONST> 9.064516e+01
<TRANSP> 5
 0.000000e+00 1.000000e+00 0.000000e+00 0.000000e+00 0.000000e+00
 0.000000e+00 9.055814e-01 9.441864e-02 0.000000e+00 0.000000e+00
 0.000000e+00 0.000000e+00 6.741196e-01 3.258804e-01 0.000000e+00
 0.000000e+00 0.000000e+00 0.000000e+00 8.466690e-01 1.533310e-01
 0.000000e+00 0.000000e+00 0.000000e+00 0.000000e+00 0.000000e+00
<ENDHMM>
~h "dh"
<BEGINHMM>
<NUMSTATES> 5
<STATE> 2
<MEAN> 25
 4.063998e+00 2.936716e+00 5.274085e+00 4.805317e+00 -3.490710e+00 -6.887553e+00 -4.152221e+00 -4.214079e-01 -2.240136e+00 -1.151465e+00 -1.187525e+00 -1.559925e+00 7.875786e-01 -1.302907e+00 2.150025e-01 -5.284675e-01 -1.406409e+00 -9.198748e-01 -9.584620e-01 1.227246e+00 8.278700e-01 3.079603e-02 4.507462e-02 -1.349427e-01 1.240717e+00
<VARIANCE> 25
 3.102650e+01 2.926748e+01 3.388859e+01 2.457875e+01 3.165003e+01 3.203637e+01 3.631156e+01 3.525486e+01 1.851266e+01 1.937374e+01 3.428257e+01 2.600208e+01 3.627346e+00 3.713881e+00 3.797283e+00 4.200367e+00 2.718907e+00 3.692756e+00 3.047508e+00 3.832664e+00 1.553560e+00 3.248280e+00 2.133921e+00 2.933664e+00 2.135587e+00
<GCONST> 1.005809e+02
<STATE> 3
<MEAN> 25
 4.739554e+00 8.066805e-01 4.935400e+00 5.253508e+00 -6.473678e+00 -8.745182e+00 -5.437385e+00 2.411982e+00 8.279912e-01 -3.214355e+00 -3.520381e-02 5.281149e-01 5.011234e-01 -3.565918e-01 -1.287190e+00 8.073602e-01 -1.136440e-01 8.438886e-02 -6.109365e-01 1.833316e-01 2.164112e-01 -7.747921e-01 3.126617e-01 3.370705e-01 -5.524309e-02
<VARIANCE> 25
 8.260323e+00 4.091941e+01 2.804808e+01 3.166294e+01 3.342040e+01 3.350192e+01 3.724972e+01 2.096287e+01 1.598490e+01 2.172683e+01 4.043390e+01 4.370822e+01 1.157047e+00 1.326498e+00 1.884984e+00 3.444906e+00 1.941832e+00 1.255732e+00 1.217283e+00 1.695380e+00 8.985060e-01 2.154489e+00 9.270074e-01 2.598737e+00 9.019097e-01
<GCONST> 9.091927e+01
<STATE> 4
<MEAN> 25
 3.751174e+00 -3.681513e-01 1.094625e+00 5.157506e+00 -6.022399e+00 -5.316137e+00 -4.580847e+00 1.016324e+00 2.081640e+00 -1.832967e+00 -1.070559e+00 -1.967252e+00 6.932664e-01 -4.340990e-01 -2.406470e-01 6.536011e-01 -5.976869e-01 -4.288323e-01 -5.857114e-01 -3.666536e-02 -7.483202e-02 -9.723584e-02 5.915862e-01 2.564268e-01 -1.924739e-01
<VARIANCE> 25
 3.286486e+01 3.052883e+01 1.432760e+01 4.378400e+01 4.568856e+01 5.438334e+01 4.956851e+01 2.230984e+01 9.620254e+00 2.167096e+01 2.905302e+01 5.050418e+01 4.411060e+00 2.110950e+00 2.103430e+00 4.127835e+00 3.531284e+00 4.561024e+00 3.940184e+00 2.180392e+00 1.182536e+00 2.422314e+00 1.348767e+00 2.483388e+00 3.301149e+00
<GCONST> 9.953477e+01
<TRANSP> 5
 0.000000e+00 1.000000e+00 0.000000e+00 0.000000e+00 0.000000e+00
 0.000000e+00 7.845985e-01 2.154015e-01 0.000000e+00 0.000000e+00
 0.000000e+00 0.000000e+00 6.029556e-01 3.970445e-01 0.000000e+00
 0.000000e+00 0.000000e+00 0.000000e+00 5.737690e-01 4.262310e-01
 0.000000e+00 0.000000e+00 0.000000e+00 0.000000e+00 0.000000e+00
<ENDHMM>
~h "eh"
<BEGINHMM>
<NUMSTATES> 5
<STATE> 2
<MEAN> 25
 5.195119e+00 -4.579512e+00 3.319440e+00 -1.188605e+00 -6.868733e+00 -7.194698e+00 -1.001121e-01 5.079104e+00 -4.295175e+00 -1.371680e+00 -2.573088e+00 -4.619371e+00 6.837663e-01 -4.040954e-01 1.438067e-01 -2.890095e-01 -2.853558e-01 -3.454883e-01 -3.270747e-01 2.841044e-01 -4.717358e-01 -3.574346e-01 -4.124856e-01 -8.000888e-01 5.696356e-01
<VARIANCE> 25
 2.737413e+01 2.776420e+01 3.710572e+01 3.626583e+01 5.422512e+01 5.062216e+01 5.906503e+01 3.827948e+01 4.439759e+01 3.736625e+01 2.619805e+01 3.448665e+01 2.855064e+00 3.232331e+00 3.639850e+00 2.528832e+00 4.717178e+00 3.736030e+00 4.433440e+00 3.958792e+00 4.404264e+00 2.969214e+00 2.600564e+00 4.224741e+00 4.652156e+00
<GCONST> 1.063274e+02
<STATE> 3
<MEAN> 25
 5.525376e+00 -1.809091e+00 5.425855e+00 -1.775099e+00 -6.451962e+00 -4.953343e+00 -1.482454e+00 2.848865e+00 -5.355994e+00 -3.178163e+00 -3.691606e+00 -6.333109e+00 -1.764875e-01 6.173622e-01 -3.005626e-01 2.549858e-01 8.508947e-01 5.936907e-01 -6.830892e-02 -6.796796e-01 2.208762e-01 4.604554e-02 -2.970024e-01 -1.331495e-02 -7.226347e-01
<VARIANCE> 25
 1.489750e+01 4.030788e+01 7.103166e+01 2.903557e+01 4.493689e+01 4.101941e+01 8.152424e+01 3.704032e+01 4.700255e+01 3.525835e+01 2.451562e+01 2.542712e+01 1.417292e+00 1.868944e+00 1.999783e+00 2.575977e+00 2.958221e+00 2.926920e+00 2.877675e+00 2.481950e+00 3.256111e+00 1.968526e+00 1.646661e+00 2.129412e+00 2.954464e+00
<GCONST> 1.002902e+02
<STATE> 4
<MEAN> 25
 2.200264e+00 1.026286e-01 2.357949e-01 -1.365040e-01 -5.069717e-01 -1.588221e+00 8.537223e-01 2.005531e+00 -7.354816e-01 -9.145081e-01 -3.370967e+00 -4.535055e+00 -1.339942e-01 5.752423e-01 -8.543842e-02 -2.144371e-01 4.617130e-01 7.130455e-01 -2.357603e-01 -1.120581e+00 -1.461527e-01 3.708102e-01 3.090878e-01 2.782759e-01 -4.499502e-01
<VARIANCE> 25
 5.431448e+01 3.452728e+01 3.576073e+01 2.473409e+01 4.843797e+01 4.245216e+01 4.440421e+01 2.547544e+01 3.600754e+01 3.255519e+01 2.635414e+01 4.090385e+01 3.265704e+00 1.460332e+00 2.143997e+00 2.773276e+00 2.925033e+00 4.260460e+00 2.479894e+00 3.993201e+00 3.467489e+00 2.944249e+00 1.714552e+00 2.161343e+00 2.142333e+00
<GCONST> 1.015331e+02
<TRANSP> 5
 0.000000e+00 1.000000e+00 0.000000e+00 0.000000e+00 0.000000e+00
 0.000000e+00 7.526373e-01 2.473627e-01 0.000000e+00 0.000000e+00
 0.000000e+00 0.000000e+00 7.484142e-01 2.515858e-01 0.000000e+00
 0.000000e+00 0.000000e+00 0.000000e+00 5.319541e-01 4.680459e-01
 0.000000e+00 0.000000e+00 0.000000e+00 0.000000e+00 0.000000e+00
<ENDHMM>
~h "er"
<BEGINHMM>
<NUMSTATES> 5
<STATE> 2
<MEAN> 25
 1.163498e+01 -5.943329e-01 -3.787148e+00 8.498488e+00 -1.297815e+00 -1.000154e+01 -1.519670e+01 5.094778e+00 1.513921e+00 -8.037408e+00 1.309981e+00 5.532444e+00 1.356401e-01 -3.793375e-02 -4.340670e-01 3.010705e-01 2.118455e-01 -1.586656e-01 -6.403348e-01 4.457319e-01 3.437522e-01 -2.006812e-01 -2.281721e-01 1.064393e-01 -2.252462e-01
<VARIANCE> 25
 1.415014e+01 1.445017e+01 4.607380e+01 4.442624e+01 4.379810e+01 4.734593e+01 5.570461e+01 4.831995e+01 4.158423e+01 2.685032e+01 3.732085e+01 1.780078e+01 1.389549e+00 7.041199e-01 1.712706e+00 1.115618e+00 1.924076e+00 2.011484e+00 3.538728e+00 1.921450e+00 2.006470e+00 1.522821e+00 1.557517e+00 1.249506e+00 3.746256e-01
<GCONST> 9.263999e+01
<STATE> 3
<MEAN> 25
 5.734323e+00 -2.830056e-01 -1.216541e+00 9.309593e+00 -1.640262e+00 -7.773421e+00 -8.071768e+00 6.160204e+00 1.190046e+00 -7.129332e+00 -2.411908e+00 4.388343e+00 -1.199997e+00 -2.166716e-01 4.480908e-01 -8.548602e-01 5.481238e-02 1.209699e+00 1.929942e+00 -5.032974e-01 -4.676582e-01 6.047466e-01 -4.285573e-01 -7.386011e-01 -6.893778e-01
<VARIANCE> 25
 2.406051e+01 2.135435e+01 2.248765e+01 3.847768e+01 3.017171e+01 5.875695e+01 6.220667e+01 3.978455e+01 3.592194e+01 3.133678e+01 3.122766e+01 2.775810e+01 9.872921e-01 1.008880e+00 1.755316e+00 2.229799e+00 2.720594e+00 3.708894e+00 3.000963e+00 3.034302e+00 2.545545e+00 2.307574e+00 2.710376e+00 1.928796e+00 8.286621e-01
<GCONST> 9.715470e+01
<STATE> 4
<MEAN> 25
 -1.074269e+00 -3.345112e+00 -3.626518e+00 -9.554815e-01 6.118758e-01 1.216516e-01 -3.985148e-01 1.740037e+00 2.196430e+00 8.993061e-01 -2.104333e+00 7.007704e-01 -1.978547e-01 -1.479102e-02 -1.858160e-03 -2.778288e-01 1.076530e-01 2.509484e-01 2.421084e-01 -1.571129e-01 5.744043e-02 3.447826e-01 1.323501e-01 -1.149779e-01 -1.133230e-01
<VARIANCE> 25
 1.093292e+01 5.949818e+00 1.380646e+01 1.632853e+01 1.800162e+01 2.159430e+01 1.903620e+01 2.873345e+01 2.206504e+01 2.455581e+01 1.903681e+01 1.806104e+01 5.709426e-01 5.370481e-01 9.785792e-01 1.395574e+00 1.255536e+00 1.592772e+00 1.957024e+00 1.988876e+00 1.754375e+00 1.635108e+00 1.705463e+00 1.826074e+00 2.554339e-01
<GCONST> 8.194907e+01
<TRANSP> 5
 0.000000e+00 1.000000e+00 0.000000e+00 0.000000e+00 0.000000e+00
 0.000000e+00 9.075906e-01 9.240941e-02 0.000000e+00 0.000000e+00
 0.000000e+00 0.000000e+00 8.123733e-01 1.876267e-01 0.000000e+00
 0.000000e+00 0.000000e+00 0.000000e+00 9.206553e-01 7.934470e-02
 0.000000e+00 0.000000e+00 0.000000e+00 0.000000e+00 0.000000e+00
<ENDHMM>
~h "ey"
<BEGINHMM>
<NUMSTATES> 5
<STATE> 2
<MEAN> 25
 3.228474e+00 1.636074e-01 1.234938e+01 -3.340216e+00 -1.361334e+01 -1.599956e+00 -2.390338e+00 1.201470e+00 -9.148929e+00 2.521875e+00 1.149917e+00 -3.145750e+00 -9.907843e-03 2.494769e-01 1.097402e+00 -4.022131e-01 -8.552126e-01 6.019993e-01 -3.679122e-01 -7.192842e-01 -8.247768e-01 3.536511e-01 -5.219009e-02 -4.232192e-01 2.846906e-01
<VARIANCE> 25
 1.291404e+01 1.732763e+01 2.936850e+01 3.251814e+01 3.751628e+01 4.341740e+01 5.798660e+01 3.421049e+01 4.205685e+01 1.976126e+01 3.268727e+01 2.025720e+01 9.283898e-01 7.941709e-01 1.555089e+00 1.505106e+00 2.916184e+00 1.730086e+00 2.640165e+00 2.252905e+00 2.854285e+00 1.099039e+00 1.542234e+00 1.284092e+00 1.756706e+00
<GCONST> 9.276302e+01
<STATE> 3
<MEAN> 25
 1.942405e+00 3.237156e+00 1.660419e+01 -4.584511e+00 -1.366087e+01 2.790234e+00 -3.384524e+00 -5.791868e+00 -1.055564e+01 2.055450e+00 -1.104049e-01 -5.595338e+00 1.745780e-02 1.728958e-01 1.741778e-01 1.575845e-01 4.688444e-01 -8.025728e-02 -1.136182e-01 -4.372734e-01 3.831192e-02 -3.432279e-01 -4.983748e-02 -1.524593e-01 -4.595321e-01
<VARIANCE> 25
 6.665927e+00 1.180107e+01 2.728912e+01 3.999484e+01 1.983157e+01 4.828174e+01 5.610409e+01 3.360546e+01 3.919059e+01 1.598850e+01 3.819522e+01 2.259080e+01 5.025021e-01 5.149961e-01 9.265452e-01 8.527337e-01 1.190793e+00 1.287246e+00 1.437104e+00 1.840459e+00 1.641638e+00 1.130918e+00 1.167943e+00 9.831588e-01 4.347323e-01
<GCONST> 8.465052e+01
<STATE> 4
<MEAN> 25
 1.918825e+00 9.017444e-01 8.306290e+00 -1.171270e-01 -6.439387e+00 5.184330e-01 6.560370e-01 -2.671118e+00 -5.090214e+00 -1.124599e+00 3.033391e-03 -5.385564e+00 -6.076460e-02 -1.361495e-01 -1.057671e+00 6.755819e-01 1.131575e+00 -3.273076e-01 1.037903e-01 3.228522e-01 6.772584e-01 -3.403447e-01 -1.752104e-01 2.929620e-01 -7.046008e-01
<VARIANCE> 25
 8.740853e+00 2.524680e+01 8.289217e+01 3.830649e+01 4.118456e+01 4.379035e+01 5.539489e+01 6.691539e+01 4.470377e+01 2.628771e+01 2.588746e+01 3.133963e+01 1.560336e+00 6.677780e-01 1.941990e+00 3.133079e+00 2.300323e+00 2.891485e+00 2.971788e+00 1.922115e+00 2.854652e+00 2.474303e+00 2.016720e+00 1.677281e+00 9.697252e-01
<GCONST> 9.751704e+01
<TRANSP> 5
 0.000000e+00 1.000000e+00 0.000000e+00 0.000000e+00 0.000000e+00
 0.000000e+00 8.254048e-01 1.745952e-01 0.000000e+00 0.000000e+00
 0.000000e+00 0.000000e+00 8.128741e-01 1.871258e-01 0.000000e+00
 0.000000e+00 0.000000e+00 0.000000e+00 7.703216e-01 2.296784e-01
 0.000000e+00 0.000000e+00 0.000000e+00 0.000000e+00 0.000000e+00
<ENDHMM>
~h "hh"
<BEGINHMM>
<NUMSTATES> 5
<STATE> 2
<MEAN> 25
 3.913037e+00 -6.665251e+00 -4.806480e+00 -3.257410e+00 1.152324e+00 5.819822e+00 -3.180766e-01 8.425370e-01 1.076946e+00 -9.373658e-01 -1.133274e+00 -8.179214e+00 -9.190802e-03 -4.064414e-01 -1.368279e-01 -7.808594e-03 -4.847821e-02 9.232085e-04 4.179787e-01 2.821963e-01 1.622455e-01 -1.117216e-01 1.574327e-01 -1.791603e-01 1.328848e-01
<VARIANCE> 25
 3.630996e+01 2.659553e+01 2.429216e+01 2.887677e+01 3.109196e+01 4.487462e+01 3.911857e+01 1.990606e+01 1.098289e+01 2.190157e+01 2.746667e+01 1.082495e+02 6.734623e-01 1.101527e+00 1.315155e+00 2.136332e+00 1.801030e+00 2.766043e+00 1.004840e+00 1.491922e+00 6.392335e-01 1.786010e+00 1.403025e+00 2.384592e+00 8.877714e-01
<GCONST> 9.071790e+01
<STATE> 3
<MEAN> 25
 -2.133205e+00 -3.269489e+00 -2.456498e+00 2.022379e+00 3.606232e+00 3.235223e+00 4.049611e+00 1.263627e+00 3.730559e+00 3.298035e-02 1.425776e+00 1.248795e+00 -7.048032e-02 -3.992869e-02 3.954739e-02 3.950582e-02 1.042255e-02 2.075073e-01 -9.158371e-02 4.078874e-02 -1.585372e-02 -8.471477e-02 -1.523300e-01 -1.159406e-01 1.038390e-03
<VARIANCE> 25
 2.307752e+01 2.206783e+01 2.569243e+01 1.665938e+01 4.053422e+01 3.379922e+01 2.009046e+01 3.317109e+01 2.230694e+01 2.851145e+01 2.887033e+01 4.933565e+01 4.650445e-01 9.882364e-01 1.160671e+00 8.374724e-01 8.658106e-01 2.729158e+00 1.433670e+00 1.758422e+00 1.385413e+00 2.578742e+00 1.414266e+00 5.981787e-01 4.141590e-01
<GCONST> 8.688351e+01
<STATE> 4
<MEAN> 25
 -4.842618e+00 -1.372229e+00 -8.506792e-01 2.559175e+00 2.286393e+00 2.505871e+00 3.888628e+00 1.730197e+00 4.220063e+00 1.612483e+00 1.980705e+00 3.220653e+00 8.932788e-02 -7.380926e-02 -4.620972e-02 -7.850183e-02 -1.348699e-01 5.413860e-05 1.026835e-01 6.882021e-02 -1.618770e-01 -3.373514e-02 -1.337496e-01 -1.644356e-01 1.799986e-01
<VARIANCE> 25
 8.784142e+00 1.331949e+01 8.245691e+00 1.019947e+01 1.107589e+01 1.379187e+01 2.036953e+01 1.948330e+01 1.439451e+01 1.659532e+01 1.627921e+01 1.962981e+01 7.253034e-01 1.072519e+00 7.452406e-01 7.937539e-01 1.019467e+00 1.457496e+00 1.843704e+00 1.921416e+00 1.646548e+00 1.662280e+00 1.506249e+00 1.430089e+00 5.695909e-01
<GCONST> 7.949253e+01
<TRANSP> 5
 0.000000e+00 1.000000e+00 0.000000e+00 0.000000e+00 0.000000e+00
 0.000000e+00 6.352808e-01 3.647192e-01 0.000000e+00 0.000000e+00
 0.000000e+00 0.000000e+00 4.186346e-01 5.813654e-01 0.000000e+00
 0.000000e+00 0.000000e+00 0.000000e+00 9.431000e-01 5.690002e-02
 0.000000e+00 0.000000e+00 0.000000e+00 0.000000e+00 0.000000e+00
<ENDHMM>
~h "ih"
<BEGINHMM>
<NUMSTATES> 5
<STATE> 2
<MEAN> 25
 2.328982e+00 9.724215e-01 5.922629e+00 1.029890e+00 -7.377123e+00 -5.896593e+00 -6.777930e-01 -2.249426e+00 -7.661046e+00 -1.780105e+00 9.996670e-02 -2.475906e+00 -2.648492e-01 1.151944e-01 6.732404e-02 3.531659e-01 2.561140e-01 3.402436e-01 1.084562e-01 -3.081889e-01 1.625363e-01 -1.353113e-01 4.352140e-03 -2.393538e-02 -5.637663e-01
<VARIANCE> 25
 3.669466e+01 2.718829e+01 4.371331e+01 3.372418e+01 7.261835e+01 7.529039e+01 4.410721e+01 5.693170e+01 7.683746e+01 2.980782e+01 2.459281e+01 3.536216e+01 3.788827e+00 3.165967e+00 6.054513e+00 3.461178e+00 9.086071e+00 6.839632e+00 4.699093e+00 5.655474e+00 1.032205e+01 3.228749e+00 2.736622e+00 2.228116e+00 8.509239e+00
<GCONST> 1.114796e+02
<STATE> 3
<MEAN> 25
 -2.229695e+00 -2.851802e-02 1.406379e+00 1.409210e+00 -6.393455e-01 -2.267312e+00 2.322556e+00 -8.481230e-01 8.570016e-03 6.957523e-01 -5.128964e-01 4.067481e-01 -3.528275e-01 -4.912871e-01 -4.505803e-01 -1.519450e-01 5.923016e-01 3.797297e-01 2.805052e-01 5.134406e-01 1.100016e+00 4.332028e-01 2.073712e-01 3.362653e-01 -2.865362e-01
<VARIANCE> 25
 3.733144e+01 3.484313e+01 2.541123e+01 2.674627e+01 2.682259e+01 3.169800e+01 5.059383e+01 4.793330e+01 3.598492e+01 3.108875e+01 2.184293e+01 3.346892e+01 2.835766e+00 2.377196e+00 3.084427e+00 2.524170e+00 2.582459e+00 3.499756e+00 2.980471e+00 3.546509e+00 4.160271e+00 3.070478e+00 2.180442e+00 2.123368e+00 3.736477e+00
<GCONST> 1.017109e+02
<STATE> 4
<MEAN> 25
 -1.331120e+00 -2.080128e+00 -9.938484e-01 6.570666e-01 1.502448e-01 -7.839105e-01 1.760033e+00 2.660624e+00 1.678664e+00 9.607811e-01 -3.925189e-01 -1.787127e-02 5.652133e-03 1.266488e-02 -2.170526e-01 1.000714e-01 4.124155e-01 3.711042e-01 -8.666134e-02 -4.053801e-02 2.490065e-01 1.560977e-01 1.219273e-01 1.157333e-01 -3.587967e-01
<VARIANCE> 25
 4.507448e+01 2.924062e+01 2.241014e+01 2.886089e+01 2.599255e+01 4.162404e+01 5.006650e+01 2.835752e+01 3.759742e+01 3.407677e+01 3.341517e+01 5.903153e+01 1.392898e+00 1.807217e+00 1.118211e+00 1.719813e+00 1.621927e+00 2.028680e+00 1.909714e+00 1.901136e+00 1.645626e+00 1.732580e+00 1.741196e+00 1.918226e+00 1.114162e+00
<GCONST> 9.500949e+01
<TRANSP> 5
 0.000000e+00 1.000000e+00 0.000000e+00 0.000000e+00 0.000000e+00
 0.000000e+00 7.698334e-01 2.301666e-01 0.000000e+00 0.000000e+00
 0.000000e+00 0.000000e+00 6.200391e-01 3.799609e-01 0.000000e+00
 0.000000e+00 0.000000e+00 0.000000e+00 7.691956e-01 2.308044e-01
 0.000000e+00 0.000000e+00 0.000000e+00 0.000000e+00 0.000000e+00
<ENDHMM>
~h "iy"
<BEGINHMM>
<NUMSTATES> 5
<STATE> 2
<MEAN> 25
 1.519787e+00 4.207461e+00 2.075011e+01 -3.691315e+00 -1.140188e+01 8.851534e-01 -1.128133e+01 -7.314113e+00 -1.159561e+01 -2.808690e+00 -5.778997e-02 -6.516605e+00 1.590513e-01 1.741302e-01 4.637290e-01 -2.260865e-01 -3.886946e-01 3.113225e-01 -4.096271e-01 -2.790979e-01 -3.322380e-01 -4.290975e-02 6.345907e-02 -4.291248e-01 1.029283e-01
<VARIANCE> 25
 8.783731e+00 1.046080e+01 3.053438e+01 2.836920e+01 2.652963e+01 2.674927e+01 3.888268e+01 2.370817e+01 2.093650e+01 2.467818e+01 1.720461e+01 1.898786e+01 8.238087e-01 1.131459e+00 1.913436e+00 1.619288e+00 2.343030e+00 1.946392e+00 1.550908e+00 1.494705e+00 1.495957e+00 1.343063e+00 9.534111e-01 1.250993e+00 9.272037e-01
<GCONST> 8.687628e+01
<STATE> 3
<MEAN> 25
 3.571366e+00 4.836581e+00 1.368558e+01 -4.423458e-01 -9.663026e+00 -2.073045e+00 -6.992016e+00 -6.541995e+00 -1.062673e+01 -2.863675e+00 6.756323e-01 -5.611295e+00 1.375932e-01 -1.266779e-01 -1.464562e+00 9.425589e-01 9.338297e-01 -4.404678e-01 9.509599e-01 5.834624e-01 7.612875e-01 1.352791e-01 -5.392357e-02 6.797939e-01 -8.020091e-01
<VARIANCE> 25
 1.982922e+01 2.223020e+01 7.670161e+01 6.156489e+01 3.594920e+01 3.317719e+01 3.355283e+01 2.982662e+01 4.342685e+01 2.367691e+01 3.126553e+01 2.705057e+01 1.101284e+00 1.608755e+00 2.335204e+00 2.551347e+00 3.082350e+00 2.567361e+00 2.760594e+00 2.379571e+00 4.091145e+00 2.157807e+00 2.068809e+00 2.641485e+00 1.124875e+00
<GCONST> 9.846534e+01
<STATE> 4
<MEAN> 25
 1.576222e+00 2.368996e+00 5.250108e+00 5.162529e+00 -2.981797e+00 -1.898343e+00 -2.253019e+00 -2.009931e+00 -2.577362e+00 -2.250749e+00 5.121104e-01 -1.001188e+00 -3.919571e-01 -3.163811e-01 -1.214555e+00 2.806900e-01 1.120747e+00 2.742009e-01 5.700089e-01 6.248235e-01 1.217329e+00 2.368970e-01 -1.217637e-01 4.345142e-01 -5.199524e-01
<VARIANCE> 25
 2.575169e+01 2.181606e+01 3.811078e+01 2.884722e+01 5.174302e+01 2.991202e+01 4.617242e+01 3.884233e+01 4.847503e+01 2.409365e+01 2.556121e+01 2.179106e+01 1.269665e+00 1.226358e+00 2.950795e+00 1.382957e+00 3.629488e+00 2.180277e+00 2.644114e+00 2.488009e+00 3.962073e+00 1.970752e+00 2.466668e+00 2.155067e+00 9.507993e-01
<GCONST> 9.697948e+01
<TRANSP> 5
 0.000000e+00 1.000000e+00 0.000000e+00 0.000000e+00 0.000000e+00
 0.000000e+00 9.016140e-01 9.838600e-02 0.000000e+00 0.000000e+00
 0.000000e+00 0.000000e+00 7.400450e-01 2.599550e-01 0.000000e+00
 0.000000e+00 0.000000e+00 0.000000e+00 6.946355e-01 3.053645e-01
 0.000000e+00 0.000000e+00 0.000000e+00 0.000000e+00 0.000000e+00
<ENDHMM>
~h "jh"
<BEGINHMM>
<NUMSTATES> 5
<STATE> 2
<MEAN> 25
 -1.438526e-01 -1.481304e+00 -1.716956e+00 2.409903e+00 -2.661214e+00 -3.088068e+00 7.011880e-01 -2.608768e+00 -3.227180e+00 2.088684e-01 1.340358e+00 1.408901e+00 9.011111e-01 2.703556e-01 1.023248e+00 -1.018409e+00 -1.738546e+00 -2.233620e+00 -1.239379e+00 -1.427692e+00 -2.151479e+00 1.430610e-01 -6.139047e-01 -1.581714e+00 4.647781e+00
<VARIANCE> 25
 2.092311e+01 1.462212e+01 4.290801e+01 2.617443e+01 3.662305e+01 6.676653e+01 1.904059e+01 5.197740e+01 4.264714e+01 2.582243e+01 7.682263e+00 1.297706e+01 1.569796e+00 5.951580e-01 5.048169e+00 7.618687e-01 4.909768e+00 5.249905e+00 1.743172e+00 6.995547e+00 4.412859e+00 2.052130e+00 7.239720e-01 7.107904e-01 1.261197e+01
<GCONST> 9.610287e+01
<STATE> 3
<MEAN> 25
 1.065778e+01 -2.166491e+00 2.557907e+00 -3.454157e+00 -5.731955e+00 -7.398116e+00 -1.018236e+01 -2.221647e+00 -4.257755e+00 2.103657e+00 -1.205671e+00 -6.943651e+00 3.959824e-01 1.167718e-02 1.112988e+00 -4.839804e-01 7.567380e-02 3.376028e-02 -7.598208e-01 3.613854e-01 -6.138429e-01 -5.827602e-03 -1.892115e-01 -2.162105e-01 -2.652967e-01
<VARIANCE> 25
 1.203632e+01 8.826185e+00 4.083422e+01 3.153457e+01 3.702581e+01 3.879357e+01 1.864693e+01 3.847973e+01 6.762225e+01 2.231813e+01 1.464803e+01 2.816335e+01 1.933361e+00 1.274763e+00 4.644877e+00 2.153886e+00 3.581877e+00 4.857348e+00 2.126736e+00 6.277610e+00 7.503968e+00 2.277503e+00 3.255311e+00 2.505570e+00 8.269390e-01
<GCONST> 9.836084e+01
<STATE> 4
<MEAN> 25
 -3.484726e+00 -3.891469e-01 6.720189e+00 -1.903524e+00 -2.556831e+00 1.478700e+00 -1.868330e+00 -1.536291e+00 -2.990240e+00 -4.012322e+00 3.161635e-01 -1.501160e+00 -2.597650e-01 2.408766e-01 -1.685956e-01 -1.642461e-01 1.469756e-01 6.799510e-01 2.526989e-01 -1.576768e-01 5.831287e-01 -1.974797e-01 8.020442e-02 -3.016586e-02 -3.443293e-02
<VARIANCE> 25
 9.320105e+01 4.055728e+01 8.547217e+01 4.462566e+01 3.949131e+01 9.125163e+01 3.610551e+01 3.146873e+01 9.299479e+01 1.806449e+01 2.734281e+01 3.040755e+01 9.877188e+00 4.068591e+00 2.140966e+00 5.715231e+00 3.799721e+00 8.184020e+00 3.494909e+00 3.758201e+00 5.088572e+00 1.986818e+00 2.197283e+00 2.687415e+00 5.602740e+00
<GCONST> 1.098286e+02
<TRANSP> 5
 0.000000e+00 1.000000e+00 0.000000e+00 0.000000e+00 0.000000e+00
 0.000000e+00 6.439984e-01 3.560016e-01 0.000000e+00 0.000000e+00
 0.000000e+00 0.000000e+00 8.248436e-01 1.751564e-01 0.000000e+00
 0.000000e+00 0.000000e+00 0.000000e+00 9.450845e-01 5.491553e-02
 0.000000e+00 0.000000e+00 0.000000e+00 0.000000e+00 0.000000e+00
<ENDHMM>
~h "ng"
<BEGINHMM>
<NUMSTATES> 5
<STATE> 2
<MEAN> 25
 4.423756e+00 5.817546e-01 -2.014712e+00 6.165349e+00 3.464037e+00 6.773322e-01 1.989393e+00 -5.599825e+00 -1.434125e+00 -5.910399e-04 -3.312126e+00 -4.309825e+00 -4.096777e-01 -1.708985e-02 1.024871e-01 6.840738e-02 2.133106e-01 3.242089e-01 1.923038e-01 -3.797372e-02 1.445262e-03 1.416224e-01 1.360939e-01 4.122021e-01 -5.562637e-01
<VARIANCE> 25
 1.541521e+01 1.602917e+01 4.168749e+01 1.529297e+01 1.483101e+01 1.735446e+01 1.843808e+01 2.706334e+01 3.395125e+01 1.175522e+01 1.816831e+01 1.572721e+01 4.645401e-01 6.163808e-01 1.157742e+00 6.825735e-01 7.065820e-01 1.366160e+00 1.205983e+00 1.249216e+00 1.351091e+00 1.025651e+00 1.390637e+00 1.121400e+00 1.512208e-01
<GCONST> 7.909182e+01
<STATE> 3
<MEAN> 25
 -3.490091e+00 -1.239470e+00 -1.130774e+00 5.762248e+00 5.670431e+00 2.326944e+00 4.326438e+00 -6.431041e-01 3.177249e+00 1.314811e+00 -8.150171e-01 3.941533e+00 -7.363560e-01 -8.016265e-01 -7.141284e-01 -6.633258e-01 1.650027e-01 3.542336e-01 9.891642e-01 1.453835e+00 1.144302e+00 7.124043e-01 1.346119e+00 1.320587e+00 -4.890812e-01
<VARIANCE> 25
 6.681894e+00 9.766275e+00 1.435334e+01 1.688353e+01 1.159624e+01 1.633125e+01 1.086548e+01 3.080229e+01 2.208113e+01 1.115357e+01 2.202708e+01 2.013049e+01 6.541466e-01 8.229163e-01 9.756031e-01 8.788623e-01 1.252813e+00 1.543836e+00 1.382716e+00 1.958915e+00 2.653484e+00 2.618409e+00 2.101784e+00 1.582462e+00 1.557352e-01
<GCONST> 8.043710e+01
<STATE> 4
<MEAN> 25
 -5.114857e+00 -2.396299e+00 -2.722606e+00 3.645111e+00 4.994413e+00 1.820524e+00 5.757443e+00 2.990868e+00 6.732669e+00 3.642070e+00 3.253413e+00 6.140447e+00 -1.916881e-02 1.876867e-02 -1.770413e-02 1.740111e-02 -1.118199e-02 -3.372267e-02 -3.606706e-02 3.444853e-03 3.638756e-02 1.939773e-02 4.593297e-02 1.158184e-02 1.982530e-04
<VARIANCE> 25
 3.978785e+00 4.579131e+00 6.641649e+00 8.861633e+00 6.951895e+00 1.168525e+01 1.094798e+01 9.978636e+00 1.449848e+01 1.345093e+01 1.059383e+01 1.182345e+01 1.843060e-01 2.457624e-01 4.357669e-01 7.046759e-01 7.950589e-01 8.299814e-01 1.076990e+00 1.153088e+00 1.393168e+00 1.454934e+00 1.325218e+00 1.244946e+00 5.741171e-02
<GCONST> 6.599432e+01
<TRANSP> 5
 0.000000e+00 1.000000e+00 0.000000e+00 0.000000e+00 0.000000e+00
 0.000000e+00 8.907909e-01 1.092091e-01 0.000000e+00 0.000000e+00
 0.000000e+00 0.000000e+00 6.884331e-01 3.115669e-01 0.000000e+00
 0.000000e+00 0.000000e+00 0.000000e+00 9.697505e-01 3.024948e-02
 0.000000e+00 0.000000e+00 0.000000e+00 0.000000e+00 0.000000e+00
<ENDHMM>
~h "ow"
<BEGINHMM>
<NUMSTATES> 5
<STATE> 2
<MEAN> 25
 1.088812e+01 1.296433e+00 -6.502324e+00 -8.798647e+00 -4.251046e+00 7.587929e+00 -6.387726e+00 -3.593170e+00 -4.912586e+00 4.886619e-01 3.924060e+00 -2.456002e+00 1.849911e-01 4.028419e-01 -1.190064e-02 -2.653476e-01 -2.994267e-01 2.691312e-01 1.985067e-01 -6.571949e-02 -5.332440e-01 -4.694500e-01 -1.294541e-02 1.497596e-01 -1.226525e-01
<VARIANCE> 25
 1.259468e+01 1.662391e+01 1.936134e+01 2.419403e+01 2.587140e+01 3.324659e+01 3.568832e+01 2.413665e+01 4.134297e+01 5.561837e+01 2.561549e+01 3.219630e+01 6.120808e-01 6.576536e-01 6.399711e-01 1.323465e+00 9.659315e-01 1.359569e+00 1.042614e+00 1.152372e+00 1.267822e+00 1.298598e+00 1.483434e+00 1.589238e+00 6.272913e-01
<GCONST> 8.568141e+01
<STATE> 3
<MEAN> 25
 9.080075e+00 5.065108e+00 -2.739608e+00 -4.813026e+00 -6.548940e+00 2.285213e+00 -2.561055e+00 -1.159783e+00 -5.411681e+00 -5.207016e+00 -2.157260e+00 -2.310919e+00 -5.955785e-01 -2.846497e-01 3.514189e-01 7.058013e-01 4.498865e-01 -5.774406e-01 1.857121e-01 1.086660e-01 4.579831e-01 4.102091e-01 -1.969113e-01 -2.202724e-02 -5.276654e-01
<VARIANCE> 25
 2.281357e+01 2.189148e+01 1.308793e+01 2.425931e+01 2.278762e+01 2.273511e+01 2.753669e+01 3.216799e+01 3.324731e+01 3.440225e+01 6.327405e+01 4.726767e+01 1.148880e+00 1.041726e+00 7.417173e-01 1.623672e+00 1.580288e+00 1.387756e+00 1.555908e+00 2.407356e+00 2.983054e+00 2.740013e+00 2.566376e+00 1.706552e+00 3.981121e-01
<GCONST> 9.113121e+01
<STATE> 4
<MEAN> 25
 -3.200011e+00 -1.961714e+00 -1.381187e+00 1.175334e+00 2.031615e+00 2.590255e+00 2.076095e+00 8.069189e-01 2.727488e+00 1.833719e+00 1.981526e+00 2.655157e+00 -9.797327e-02 -8.419143e-02 -1.976406e-02 6.785812e-02 7.194311e-02 7.593101e-03 6.567984e-02 -6.123294e-02 -3.689035e-02 5.951875e-02 3.089258e-02 8.667983e-02 -2.413752e-02
<VARIANCE> 25
 2.580294e+01 1.145592e+01 1.538248e+01 1.156780e+01 1.209758e+01 1.448332e+01 2.445753e+01 2.494179e+01 3.180163e+01 2.017355e+01 2.295882e+01 2.540040e+01 4.221621e-01 5.331540e-01 7.780514e-01 7.749647e-01 1.086519e+00 1.330621e+00 1.899922e+00 1.823636e+00 1.709247e+00 1.806397e+00 1.700396e+00 1.488075e+00 2.547780e-01
<GCONST> 8.153165e+01
<TRANSP> 5
 0.000000e+00 1.000000e+00 0.000000e+00 0.000000e+00 0.000000e+00
 0.000000e+00 9.015924e-01 9.840755e-02 0.000000e+00 0.000000e+00
 0.000000e+00 0.000000e+00 8.944343e-01 1.055657e-01 0.000000e+00
 0.000000e+00 0.000000e+00 0.000000e+00 9.293178e-01 7.068217e-02
 0.000000e+00 0.000000e+00 0.000000e+00 0.000000e+00 0.000000e+00
<ENDHMM>
~h "oy"
<BEGINHMM>
<NUMSTATES> 5
<STATE> 2
<MEAN> 25
 1.212707e+01 -5.669452e+00 4.942525e+00 -5.896977e-01 -1.310649e+01 -5.512205e+00 -9.474231e+00 1.689124e+00 -8.039325e+00 -1.837222e+00 3.259709e-01 -9.382712e+00 -1.590596e-01 -1.431063e-02 7.000138e-01 1.996258e-01 -1.771236e-03 -7.270758e-01 1.460275e-01 1.026338e-01 -5.868216e-01 -3.451568e-01 -2.016870e-01 2.132357e-01 -1.548155e-01
<VARIANCE> 25
 2.529078e+01 3.880406e+01 9.674313e+01 1.238974e+01 3.847755e+01 6.089378e+01 6.257447e+01 4.874261e+01 6.667091e+01 2.408143e+01 3.126088e+01 3.034976e+01 2.981715e+00 2.278769e+00 5.420143e+00 1.536023e+00 3.923844e+00 4.735473e+00 5.539337e+00 5.736408e+00 4.280513e+00 2.352703e+00 3.096387e+00 3.362338e+00 5.386168e-01
<GCONST> 1.043934e+02
<STATE> 3
<MEAN> 25
 -2.935698e+00 3.395275e+00 6.665267e+00 1.729406e+00 -2.129313e+00 -1.152715e+01 4.172658e+00 -1.965133e+00 -9.267755e+00 -5.120606e+00 -1.782265e+00 -1.449745e+00 -4.127161e+00 9.330680e-01 -3.391986e+00 -1.165334e+00 2.527539e+00 1.299821e+00 2.240862e+00 4.409859e-01 2.693677e+00 -8.223467e-02 1.182999e+00 1.230605e+00 1.334284e-01
<VARIANCE> 25
 1.201996e+02 5.997385e+01 3.330910e+01 8.176786e+00 6.723814e+01 6.620499e+01 7.928041e+01 5.327762e+01 3.768779e+01 1.271214e+01 1.674915e+01 4.140588e+01 7.333625e+00 1.332973e+00 6.612085e+00 1.826555e+00 4.942106e+00 4.016223e+00 5.354306e+00 4.397852e+00 3.114094e+00 4.237382e+00 4.773882e+00 4.103008e+00 1.902821e-01
<GCONST> 1.047142e+02
<STATE> 4
<MEAN> 25
 -1.966052e+00 -8.624001e-02 2.278574e+00 -3.321828e+00 -4.202765e+00 -3.818712e+00 8.152637e-01 1.158337e-01 -3.769593e+00 -1.160361e+00 3.065294e-01 -4.877253e+00 -1.004878e+00 9.513138e-01 -1.964098e+00 -2.344073e+00 1.760057e+00 2.021854e+00 7.495858e-02 -1.813020e+00 1.989705e+00 1.907322e+00 -3.762668e-02 -9.208690e-05 -5.209802e-01
<VARIANCE> 25
 2.252442e+02 4.009387e+01 6.607701e+01 9.498238e+00 6.371201e+01 4.509640e+01 1.429297e+02 1.119933e+01 8.099055e+01 1.902656e+01 1.424367e+01 9.027528e+01 9.893880e-01 1.480809e+00 3.920191e+00 2.188009e+00 3.577530e+00 1.623070e+00 7.027371e-01 6.931767e+00 8.572699e-01 2.213743e+00 2.571896e+00 3.023302e+00 1.743849e-01
<GCONST> 9.815656e+01
<TRANSP> 5
 0.000000e+00 1.000000e+00 0.000000e+00 0.000000e+00 0.000000e+00
 0.000000e+00 9.439483e-01 5.605177e-02 0.000000e+00 0.000000e+00
 0.000000e+00 0.000000e+00 5.391446e-01 4.608554e-01 0.000000e+00
 0.000000e+00 0.000000e+00 0.000000e+00 1.548106e-01 8.451894e-01
 0.000000e+00 0.000000e+00 0.000000e+00 0.000000e+00 0.000000e+00
<ENDHMM>
~h "sh"
<BEGINHMM>
<NUMSTATES> 5
<STATE> 2
<MEAN> 25
 -2.070579e+01 -6.313694e-01 1.197942e+01 -2.454132e+00 -4.620155e+00 -6.928404e-01 7.157176e+00 -2.890665e+00 4.508966e+00 -3.254453e+00 2.860312e+00 2.635010e+00 -2.023262e-01 -4.492794e-02 -3.465171e-01 -1.558165e-01 1.401478e-01 5.787867e-02 4.251926e-02 2.197807e-01 6.532377e-01 -2.586132e-01 3.994381e-02 2.611869e-01 -1.482686e-01
<VARIANCE> 25
 5.039780e+01 1.157793e+01 2.023155e+01 1.665517e+01 1.249078e+01 3.278043e+01 3.390002e+01 3.101434e+01 3.002073e+01 1.811185e+01 1.485741e+01 1.200175e+01 9.864779e+00 1.165797e+00 1.193454e+00 1.893490e+00 1.732298e+00 2.232277e+00 2.818001e+00 2.335143e+00 2.854539e+00 1.870354e+00 2.064147e+00 1.184364e+00 7.648277e-01
<GCONST> 9.138571e+01
<STATE> 3
<MEAN> 25
 -6.099290e+00 -1.142016e+00 4.059949e+00 1.122877e+00 -1.648896e+00 -2.141705e+00 3.069373e+00 7.876596e-01 5.864563e+00 -2.746060e+00 1.355832e+00 3.671732e+00 1.926879e+00 -2.298438e-01 -8.836702e-01 1.504896e-01 2.035189e-01 8.989089e-01 -7.836642e-01 6.542027e-01 -2.890660e-01 5.558259e-01 -4.779237e-01 -4.253941e-01 -8.262846e-01
<VARIANCE> 25
 6.662894e+01 5.367655e+00 2.997115e+01 2.029972e+01 2.284394e+01 5.603544e+01 2.510670e+01 2.141151e+01 1.540554e+01 2.489993e+01 2.884357e+01 1.478945e+01 2.806911e+00 9.495103e-01 2.036727e+00 9.677081e-01 1.485521e+00 3.356000e+00 3.065342e+00 2.815419e+00 2.338739e+00 3.024988e+00 1.371330e+00 2.537624e+00 1.360910e+00
<GCONST> 9.261668e+01
<STATE> 4
<MEAN> 25
 -2.345773e+00 -3.119766e+00 -3.589039e+00 -2.183881e+00 7.996381e-01 -2.889152e-01 -1.699927e-01 1.221961e+00 2.867120e+00 2.452494e+00 -2.139281e+00 -1.074024e+00 2.308170e-01 1.974746e-02 -6.349690e-02 1.564823e-02 3.806387e-02 2.911658e-02 -1.706982e-01 -1.079228e-01 -8.243697e-02 9.599514e-02 -4.349779e-02 -1.275567e-01 -7.462341e-02
<VARIANCE> 25
 1.787827e+01 5.229623e+00 2.056594e+01 1.226002e+01 1.444143e+01 2.114550e+01 2.009042e+01 2.186092e+01 2.012344e+01 2.146923e+01 1.736916e+01 2.450430e+01 1.386987e+00 8.311888e-01 1.156202e+00 9.549438e-01 1.548855e+00 1.900726e+00 2.053167e+00 2.629511e+00 1.707622e+00 1.991243e+00 1.779875e+00 1.698546e+00 1.940152e+00
<GCONST> 8.594350e+01
<TRANSP> 5
 0.000000e+00 1.000000e+00 0.000000e+00 0.000000e+00 0.000000e+00
 0.000000e+00 9.101309e-01 8.986910e-02 0.000000e+00 0.000000e+00
 0.000000e+00 0.000000e+00 4.713098e-01 5.286902e-01 0.000000e+00
 0.000000e+00 0.000000e+00 0.000000e+00 9.031620e-01 9.683801e-02
 0.000000e+00 0.000000e+00 0.000000e+00 0.000000e+00 0.000000e+00
<ENDHMM>
~h "th"
<BEGINHMM>
<NUMSTATES> 5
<STATE> 2
<MEAN> 25
 -5.436983e+00 -2.765961e+00 -1.830323e+00 1.804877e+00 3.369788e+00 2.119973e+00 2.676394e+00 9.828275e-01 2.928838e+00 1.400921e+00 1.017836e+00 3.552794e+00 -4.157698e-01 -4.864413e-01 -3.949302e-01 -2.692592e-01 -2.843235e-01 1.679398e-01 1.821758e-01 -2.099806e-01 1.350151e-01 4.665604e-01 8.408020e-01 5.169020e-01 -3.166388e-01
<VARIANCE> 25
 7.486028e+00 9.433628e+00 8.574469e+00 6.204031e+00 1.141865e+01 1.025005e+01 1.426151e+01 1.161131e+01 1.281146e+01 1.900519e+01 2.015420e+01 1.110047e+01 4.699225e-01 1.108563e+00 1.056169e+00 5.259823e-01 7.707717e-01 1.347869e+00 1.327155e+00 9.862919e-01 1.699829e+00 2.561060e+00 1.410912e+00 1.370284e+00 3.978506e-01
<GCONST> 7.523172e+01
<STATE> 3
<MEAN> 25
 -4.919063e+00 -2.418274e+00 -1.997671e+00 1.280808e+00 3.077961e+00 2.500695e+00 3.305470e+00 2.197756e+00 4.630705e+00 2.537006e+00 2.833525e+00 4.191079e+00 3.776207e-02 -3.479154e-03 3.909319e-02 1.407870e-02 5.042136e-02 7.870948e-03 1.291011e-02 7.168422e-02 5.694451e-02 1.149549e-02 -1.355251e-02 -2.494304e-02 -9.396101e-02
<VARIANCE> 25
 6.835911e+00 3.771381e+00 5.330660e+00 5.313311e+00 1.123916e+01 1.112830e+01 1.100917e+01 1.220779e+01 1.226411e+01 1.353778e+01 1.174127e+01 1.007086e+01 1.923880e-01 2.366060e-01 4.072134e-01 4.420432e-01 7.579717e-01 9.741336e-01 1.135847e+00 1.304744e+00 1.318221e+00 1.520565e+00 1.190333e+00 1.074010e+00 3.321275e-01
<GCONST> 6.727934e+01
<STATE> 4
<MEAN> 25
 -5.462718e+00 -5.140259e-01 -2.142049e+00 1.866331e+00 2.832989e+00 2.452852e+00 2.700846e+00 1.866088e+00 4.490545e+00 1.731372e+00 1.575007e+00 2.409605e+00 7.566444e-02 5.381529e-02 7.258449e-02 -1.044656e-01 -5.162176e-02 -1.353440e-02 -3.586144e-02 -2.014733e-01 -1.492822e-01 -1.907801e-01 -1.104988e-01 -1.550772e-01 2.538635e-01
<VARIANCE> 25
 1.223072e+01 7.924251e+00 1.337147e+01 1.365030e+01 1.420044e+01 1.594555e+01 1.561515e+01 1.877326e+01 1.273536e+01 1.483106e+01 1.814854e+01 1.619968e+01 1.766843e+00 1.178686e+00 1.805433e+00 1.462219e+00 1.111108e+00 1.316394e+00 1.541233e+00 2.390873e+00 1.280256e+00 1.636879e+00 1.932910e+00 1.556297e+00 1.739242e+00
<GCONST> 8.353897e+01
<TRANSP> 5
 0.000000e+00 1.000000e+00 0.000000e+00 0.000000e+00 0.000000e+00
 0.000000e+00 7.843130e-01 2.156870e-01 0.000000e+00 0.000000e+00
 0.000000e+00 0.000000e+00 9.635119e-01 3.648805e-02 0.000000e+00
 0.000000e+00 0.000000e+00 0.000000e+00 8.895149e-01 1.104852e-01
 0.000000e+00 0.000000e+00 0.000000e+00 0.000000e+00 0.000000e+00
<ENDHMM>
~h "uh"
<BEGINHMM>
<NUMSTATES> 5
<STATE> 2
<MEAN> 25
 1.105505e+01 1.594426e-01 -3.538209e+00 -5.982954e+00 -4.441706e+00 -2.522107e+00 -1.284926e+01 6.864287e-01 -5.054248e+00 -4.750231e+00 4.838117e+00 -1.433993e+00 -1.202761e-01 -4.915229e-01 7.432066e-01 1.603615e-01 -1.941185e-01 -7.841168e-01 -4.348872e-01 2.665051e-01 -1.911659e-01 -7.759847e-02 -9.200589e-02 -4.741928e-01 6.015491e-01
<VARIANCE> 25
 4.542577e+01 7.059764e+01 2.202835e+01 9.884325e+01 6.107055e+01 1.802112e+02 1.342860e+02 7.224178e+01 4.883952e+01 5.312343e+01 4.091480e+01 2.411779e+01 1.723923e+00 1.702409e+00 3.129068e+00 5.188541e+00 5.876800e+00 4.176205e+00 6.282427e+00 5.155021e+00 5.639333e+00 2.027502e+00 5.340952e+00 3.596551e+00 3.932294e+00
<GCONST> 1.122508e+02
<STATE> 3
<MEAN> 25
 3.756780e+00 -2.363692e+00 1.211271e+01 -2.088719e+00 -1.449653e+01 -5.211961e+00 -4.865596e+00 8.260022e-01 -8.726505e+00 -3.733697e+00 3.613971e+00 -5.615637e+00 -1.620447e-01 5.650956e-01 4.877089e-01 4.203556e-01 -3.088046e-01 2.155598e-02 5.868812e-01 -5.660233e-01 -3.571117e-01 1.602268e-01 -5.549878e-01 -1.591668e-01 -6.342442e-01
<VARIANCE> 25
 1.653638e+01 3.272248e+01 2.081572e+01 5.681472e+01 1.085993e+02 3.959470e+01 4.992259e+01 3.804910e+01 5.296266e+01 3.855924e+01 5.817913e+01 3.071440e+01 1.629403e+00 2.907826e+00 2.934942e+00 5.697337e+00 8.453448e+00 5.729067e+00 7.349143e+00 5.048002e+00 3.513712e+00 4.150276e+00 6.491560e+00 3.367857e+00 4.573528e+00
<GCONST> 1.094928e+02
<STATE> 4
<MEAN> 25
 6.758537e+00 1.404867e+00 7.140373e+00 2.505101e+00 -7.282212e+00 -6.373005e+00 -4.904437e+00 -7.862035e+00 -7.220921e+00 -1.304758e+00 -3.212234e+00 -3.533536e+00 -2.321635e-01 2.737388e-01 -1.945568e-01 1.036924e-01 7.817214e-01 1.166692e-01 2.934566e-01 2.103905e-01 5.608433e-01 6.557722e-02 -1.813188e-01 5.263492e-01 -8.079129e-01
<VARIANCE> 25
 1.881272e+01 2.739634e+01 1.035549e+01 1.419668e+01 3.456159e+01 3.104361e+01 2.679568e+01 8.033516e+01 1.971051e+01 4.156168e+01 1.382078e+01 1.682820e+01 2.125917e+00 2.876748e+00 1.279793e+00 1.785231e+00 4.190770e+00 3.380776e+00 2.015726e+00 5.754626e+00 3.235500e+00 3.782519e+00 1.924747e+00 1.156782e+00 1.604305e+00
<GCONST> 9.550935e+01
<TRANSP> 5
 0.000000e+00 1.000000e+00 0.000000e+00 0.000000e+00 0.000000e+00
 0.000000e+00 8.913720e-01 1.086280e-01 0.000000e+00 0.000000e+00
 0.000000e+00 0.000000e+00 8.565076e-01 1.434924e-01 0.000000e+00
 0.000000e+00 0.000000e+00 0.000000e+00 8.890612e-01 1.109388e-01
 0.000000e+00 0.000000e+00 0.000000e+00 0.000000e+00 0.000000e+00
<ENDHMM>
~h "uw"
<BEGINHMM>
<NUMSTATES> 5
<STATE> 2
<MEAN> 25
 5.136767e+00 2.810656e+00 7.419680e+00 5.528258e+00 -2.459924e+00 -6.062808e+00 -8.542235e+00 -1.967707e+00 -1.000997e+01 -4.616229e+00 1.661001e+00 -1.989969e-01 2.343330e-01 2.514491e-01 -6.094676e-01 -1.443665e-01 5.706931e-01 2.872828e-01 -3.045757e-01 -4.291225e-01 2.664901e-01 1.490173e-01 -2.801192e-01 9.296653e-02 -4.371769e-01
<VARIANCE> 25
 1.722521e+01 3.159035e+01 5.665463e+01 1.807182e+01 4.376638e+01 5.793958e+01 4.938480e+01 3.438047e+01 5.224972e+01 3.857003e+01 3.277096e+01 1.644882e+01 8.628439e-01 1.300270e+00 1.023481e+00 1.261468e+00 1.916247e+00 1.617151e+00 2.353913e+00 2.125178e+00 2.480166e+00 2.110951e+00 2.096988e+00 1.239089e+00 7.612133e-01
<GCONST> 9.380018e+01
<STATE> 3
<MEAN> 25
 5.667436e+00 7.428990e+00 1.567837e+00 4.089930e+00 7.869523e-01 1.216877e+00 -7.724065e+00 -5.674026e+00 -9.034305e+00 -2.446258e+00 -2.405270e+00 3.266453e-01 -6.691041e-01 -6.552967e-01 -3.140004e-01 5.721063e-02 1.275634e-01 1.438794e-01 7.328551e-01 5.856639e-01 8.460929e-01 6.113385e-02 -4.638803e-01 1.641435e-02 -5.619985e-01
<VARIANCE> 25
 2.097411e+01 3.604648e+01 3.262138e+01 1.404007e+01 2.250553e+01 3.926944e+01 4.345263e+01 3.235584e+01 7.277921e+01 3.338740e+01 3.752031e+01 2.658814e+01 6.761326e-01 1.117659e+00 1.669773e+00 1.296462e+00 1.645977e+00 2.040323e+00 2.733449e+00 2.550673e+00 2.386901e+00 2.671871e+00 2.321776e+00 2.325169e+00 7.600437e-01
<GCONST> 9.434562e+01
<STATE> 4
<MEAN> 25
 -2.936269e+00 -2.282795e+00 -2.139962e+00 4.552017e-01 1.457600e+00 5.637581e-01 1.462836e+00 1.121075e+00 3.402820e+00 1.363271e+00 -1.757523e-02 2.495151e+00 -1.729182e-01 -1.647962e-01 -3.713493e-02 -5.582023e-02 -1.319932e-02 -4.673880e-03 1.200312e-01 1.747640e-01 1.317246e-01 9.598721e-02 9.195869e-02 1.588109e-01 -7.037720e-02
<VARIANCE> 25
 1.169135e+01 8.549190e+00 1.539830e+01 1.323502e+01 1.118923e+01 1.185663e+01 2.588151e+01 2.063428e+01 2.816948e+01 1.663256e+01 2.101562e+01 1.897266e+01 3.625499e-01 6.551470e-01 8.387285e-01 8.810754e-01 9.032292e-01 1.081441e+00 1.563685e+00 1.555411e+00 1.875970e+00 1.827273e+00 1.527764e+00 1.197123e+00 1.440122e-01
<GCONST> 7.819809e+01
<TRANSP> 5
 0.000000e+00 1.000000e+00 0.000000e+00 0.000000e+00 0.000000e+00
 0.000000e+00 8.061855e-01 1.938145e-01 0.000000e+00 0.000000e+00
 0.000000e+00 0.000000e+00 7.348555e-01 2.651445e-01 0.000000e+00
 0.000000e+00 0.000000e+00 0.000000e+00 9.114210e-01 8.857899e-02
 0.000000e+00 0.000000e+00 0.000000e+00 0.000000e+00 0.000000e+00
<ENDHMM>
~h "zh"
<BEGINHMM>
<NUMSTATES> 5
<STATE> 2
<MEAN> 25
 -4.297237e+00 5.381165e+00 1.370352e+01 -3.269494e+00 -6.312067e+00 1.283556e+00 -1.250812e+00 -7.457223e+00 -4.423591e+00 -3.704361e+00 1.409774e+00 -4.142028e+00 -1.070185e+00 -8.359254e-02 5.817887e-03 1.377347e-01 4.287240e-01 2.043668e-01 9.912180e-01 -2.041143e-01 8.927280e-01 -2.199423e-01 1.400755e-01 1.546063e-01 -2.884703e-02
<VARIANCE> 25
 6.925582e+01 1.176096e+01 3.505792e+01 1.651071e+01 3.776789e+01 5.396520e+01 6.386221e+01 2.659971e+01 5.191948e+01 2.190662e+01 1.314499e+01 2.170937e+01 4.027643e+00 1.362832e+00 1.568062e+00 1.115103e+00 2.883992e+00 3.106840e+00 3.687917e+00 2.695041e+00 3.865076e+00 2.167011e+00 1.125716e+00 1.647055e+00 1.776241e-01
<GCONST> 9.452366e+01
<STATE> 3
<MEAN> 25
 -8.969255e+00 -4.858817e-01 7.191385e+00 -1.061476e+00 -3.020057e+00 -6.155006e+00 6.667831e+00 -3.114378e+00 5.046962e-01 -4.741049e+00 1.811361e+00 1.199961e+00 2.205155e+00 -5.499818e-01 -1.359562e+00 1.884141e-01 -1.411396e-01 -1.632986e+00 -1.352050e+00 1.039175e+00 -7.859258e-01 -1.460146e-01 -8.624595e-02 6.377364e-01 -2.331827e-01
<VARIANCE> 25
 1.229965e+02 1.259708e+01 3.051974e+01 1.516152e+01 3.028650e+01 7.009190e+01 9.950028e+01 4.076837e+01 5.857296e+01 2.798445e+01 9.882544e+00 2.137803e+01 7.539955e+00 1.622996e+00 1.355681e+00 1.250252e+00 2.589748e+00 6.354152e+00 7.077439e+00 3.043704e+00 5.625111e+00 3.604056e+00 1.121177e+00 2.088174e+00 8.871757e-01
<GCONST> 1.007964e+02
<STATE> 4
<MEAN> 25
 -3.235086e+00 -6.887830e-01 -7.288336e+00 1.722481e+00 5.090950e+00 1.586582e+00 3.815871e+00 3.873890e+00 6.731498e+00 2.213953e+00 3.095534e+00 5.433503e+00 1.444785e-01 5.636396e-03 -1.962539e-01 -1.048277e-02 9.990320e-02 1.009313e-01 -1.877599e-01 6.499940e-02 6.287854e-02 1.390958e-01 -1.078510e-01 -1.040610e-01 -7.152723e-02
<VARIANCE> 25
 1.916614e+01 3.003647e+00 1.098534e+01 7.030419e+00 1.685931e+01 6.911748e+01 2.758892e+01 1.309473e+01 2.456190e+01 2.575196e+01 1.242617e+01 1.081997e+01 5.079601e-01 3.439492e-01 6.646840e-01 7.223114e-01 5.221617e-01 9.727844e-01 1.357896e+00 9.986545e-01 1.847405e+00 1.714053e+00 1.275291e+00 1.286169e+00 2.061338e-01
<GCONST> 7.586506e+01
<TRANSP> 5
 0.000000e+00 1.000000e+00 0.000000e+00 0.000000e+00 0.000000e+00
 0.000000e+00 9.253459e-01 7.465409e-02 0.000000e+00 0.000000e+00
 0.000000e+00 0.000000e+00 8.551819e-01 1.448181e-01 0.000000e+00
 0.000000e+00 0.000000e+00 0.000000e+00 8.919670e-01 1.080330e-01
 0.000000e+00 0.000000e+00 0.000000e+00 0.000000e+00 0.000000e+00
<ENDHMM>
~h "sil"
<BEGINHMM>
<NUMSTATES> 5
<STATE> 2
<MEAN> 25
 -3.256284e+00 -2.397328e+00 -2.892599e+00 8.117553e-01 2.987496e+00 2.299548e+00 2.671003e+00 2.028881e+00 4.668752e+00 2.826418e+00 1.494499e+00 3.427115e+00 -5.173573e-03 6.948252e-03 -9.550841e-03 -1.113688e-02 7.829880e-03 6.866866e-03 -3.451001e-03 -1.698725e-02 8.199238e-03 2.457314e-02 3.868484e-02 9.582319e-03 -2.189163e-02
<VARIANCE> 25
